FANN_FLO_2.1
num_layers=3
learning_rate=0.700000
connection_rate=1.000000
network_type=0
learning_momentum=0.000000
training_algorithm=2
train_error_function=1
train_stop_function=0
cascade_output_change_fraction=0.010000
quickprop_decay=-0.000100
quickprop_mu=1.750000
rprop_increase_factor=1.200000
rprop_decrease_factor=0.500000
rprop_delta_min=0.000000
rprop_delta_max=50.000000
rprop_delta_zero=0.100000
cascade_output_stagnation_epochs=12
cascade_candidate_change_fraction=0.010000
cascade_candidate_stagnation_epochs=12
cascade_max_out_epochs=150
cascade_max_cand_epochs=150
cascade_num_candidate_groups=2
bit_fail_limit=3.49999999999999977796e-01
cascade_candidate_limit=1.00000000000000000000e+03
cascade_weight_multiplier=4.00000000000000022204e-01
cascade_activation_functions_count=10
cascade_activation_functions=3 5 7 8 10 11 14 15 16 17 
cascade_activation_steepnesses_count=4
cascade_activation_steepnesses=2.50000000000000000000e-01 5.00000000000000000000e-01 7.50000000000000000000e-01 1.00000000000000000000e+00 
layer_sizes=8 9 2 
scale_included=0
neurons (num_inputs, activation_function, activation_steepness)=(0, 0, 0.00000000000000000000e+00) (0, 0, 0.00000000000000000000e+00) (0, 0, 0.00000000000000000000e+00) (0, 0, 0.00000000000000000000e+00) (0, 0, 0.00000000000000000000e+00) (0, 0, 0.00000000000000000000e+00) (0, 0, 0.00000000000000000000e+00) (0, 0, 0.00000000000000000000e+00) (8, 4, 5.00000000000000000000e-01) (8, 4, 5.00000000000000000000e-01) (8, 4, 5.00000000000000000000e-01) (8, 4, 5.00000000000000000000e-01) (8, 4, 5.00000000000000000000e-01) (8, 4, 5.00000000000000000000e-01) (8, 4, 5.00000000000000000000e-01) (8, 4, 5.00000000000000000000e-01) (0, 0, 0.00000000000000000000e+00) (9, 6, 5.00000000000000000000e-01) (0, 6, 0.00000000000000000000e+00) 
connections (connected_to_neuron, weight)=(0, 1.37681870540294880811e+02) (1, -6.59707789768581562839e+01) (2, -1.21833348292882490682e+01) (3, -2.52699932366238777526e-01) (4, 2.55466178948587563369e+00) (5, 5.38524084229390069822e+01) (6, -1.42017037490768274210e+02) (7, 9.91523606352801145647e+00) (0, 5.71555469925505690298e+01) (1, -6.13312889366118767498e+01) (2, -3.48453947613161787444e+01) (3, -9.09629426592402836604e+01) (4, 6.38734998839923875380e+01) (5, 3.49387254710729422413e+01) (6, -7.22523896701384842345e+01) (7, -3.45029927876634756601e+00) (0, 7.54582620663586567389e+02) (1, 1.50000000000000000000e+03) (2, -1.14172628542613750824e+02) (3, -2.59941156847875049607e+02) (4, -4.54159475946222983112e+02) (5, -2.93631441584110461918e+02) (6, -1.50000000000000000000e+03) (7, -1.40134265680869390280e+02) (0, 3.65313894959202457358e+02) (1, 2.76354332216363104635e+02) (2, -1.45842132332126539040e+02) (3, -2.64735146632606870298e+02) (4, -8.34915122102082932543e+02) (5, -1.50000000000000000000e+03) (6, -1.99339076684108988502e+02) (7, -1.78280355161568273559e+01) (0, 4.74300897975736575063e+01) (1, -4.33688416529393307997e+01) (2, -4.26954956015340485465e+01) (3, 1.32720336577299597991e+01) (4, 3.97718134875112880877e+01) (5, -4.46981938166145109648e+00) (6, -1.06346999380311899586e+02) (7, 7.89534005741791444777e-01) (0, 5.34746091283471059796e+02) (1, 8.03719732384534381708e+02) (2, -5.25170484084063673436e+02) (3, 1.87336434684083911861e+02) (4, 2.98977575395147880499e+02) (5, 2.02412286450639186342e+02) (6, -1.50000000000000000000e+03) (7, -1.76860608672768108818e+02) (0, 5.45817698716250774282e+01) (1, -5.63396210042161840192e+01) (2, -1.79296307136071781940e+01) (3, 6.65303787861345909960e+01) (4, 1.17993291352362241753e+01) (5, 3.66675493058651440492e+01) (6, -2.88881364529482418391e+01) (7, 1.95566055835832397491e+00) (0, -3.50003066300985610226e+00) (1, -1.70107404839943328057e+01) (2, -1.75582875390561312656e+01) (3, -3.64888692923380864030e+00) (4, -4.00368683144091278336e+02) (5, 3.22535926890601331252e+02) (6, 3.22727388074083137326e+02) (7, -1.37133342117290464302e+01) (8, 3.40390892681937617947e-01) (9, 1.18332793032835148495e+00) (10, 7.47997555063985464230e-01) (11, 1.28784075330539926618e+00) (12, 9.08230369608845844454e-01) (13, -7.94946035608044110354e-01) (14, 2.52410115777640031709e+00) (15, -6.28627400372951505858e-01) (16, -2.25464243783742190885e+00) 
