FANN_FLO_2.1
num_layers=3
learning_rate=0.700000
connection_rate=1.000000
network_type=0
learning_momentum=0.000000
training_algorithm=2
train_error_function=1
train_stop_function=0
cascade_output_change_fraction=0.010000
quickprop_decay=-0.000100
quickprop_mu=1.750000
rprop_increase_factor=1.200000
rprop_decrease_factor=0.500000
rprop_delta_min=0.000000
rprop_delta_max=50.000000
rprop_delta_zero=0.100000
cascade_output_stagnation_epochs=12
cascade_candidate_change_fraction=0.010000
cascade_candidate_stagnation_epochs=12
cascade_max_out_epochs=150
cascade_max_cand_epochs=150
cascade_num_candidate_groups=2
bit_fail_limit=3.49999999999999977796e-01
cascade_candidate_limit=1.00000000000000000000e+03
cascade_weight_multiplier=4.00000000000000022204e-01
cascade_activation_functions_count=10
cascade_activation_functions=3 5 7 8 10 11 14 15 16 17 
cascade_activation_steepnesses_count=4
cascade_activation_steepnesses=2.50000000000000000000e-01 5.00000000000000000000e-01 7.50000000000000000000e-01 1.00000000000000000000e+00 
layer_sizes=8 6 3 
scale_included=0
neurons (num_inputs, activation_function, activation_steepness)=(0, 0, 0.00000000000000000000e+00) (0, 0, 0.00000000000000000000e+00) (0, 0, 0.00000000000000000000e+00) (0, 0, 0.00000000000000000000e+00) (0, 0, 0.00000000000000000000e+00) (0, 0, 0.00000000000000000000e+00) (0, 0, 0.00000000000000000000e+00) (0, 0, 0.00000000000000000000e+00) (8, 4, 5.00000000000000000000e-01) (8, 4, 5.00000000000000000000e-01) (8, 4, 5.00000000000000000000e-01) (8, 4, 5.00000000000000000000e-01) (8, 4, 5.00000000000000000000e-01) (0, 0, 0.00000000000000000000e+00) (6, 6, 5.00000000000000000000e-01) (6, 6, 5.00000000000000000000e-01) (0, 6, 0.00000000000000000000e+00) 
connections (connected_to_neuron, weight)=(0, -1.70146130825897927252e+02) (1, 1.50000000000000000000e+03) (2, -9.40578640015504447547e+02) (3, 8.55338236751176310690e+01) (4, 4.66373249488084837822e+01) (5, 1.21048580806835147428e+02) (6, -7.89577332098308943387e+02) (7, 4.56770087824851373171e+02) (0, 1.63967122308644547957e+02) (1, -3.87790219257868429281e+01) (2, -5.96082284922517491310e+00) (3, 4.68067075057480792566e+01) (4, 6.32162298651600362831e+00) (5, 7.43932290217571505764e+01) (6, -1.36746074314968609542e+02) (7, -4.02392312674739471845e+00) (0, -2.14323008242990091787e+01) (1, 5.43270967776674140737e+00) (2, -1.07274823436381128161e+00) (3, -3.39394999878573855323e-01) (4, 1.99708399680190717973e+00) (5, -1.42379995209708916093e+01) (6, 1.29371312204189994333e+01) (7, 7.76220333649953442290e+00) (0, 8.50458970522424948513e+01) (1, 3.17895071375100641831e+01) (2, 6.55620645102335686261e+01) (3, -2.47778810170015191261e+01) (4, 4.32965103305001406397e+01) (5, 1.70517700969923623688e+02) (6, -6.94628290996282231617e+01) (7, -1.65368433461529690476e+02) (0, -6.78152153339731889048e+00) (1, -1.65780768377365839150e+00) (2, 2.47029441065616328643e+00) (3, 3.27163764853123417709e+00) (4, 2.73628112669900613874e-01) (5, 2.11811986414609076945e+00) (6, 9.30124168271098739069e+00) (7, -5.38064579437726298039e+00) (8, -1.76753750560575251249e+00) (9, 1.11832559563678413106e+00) (10, 1.41184564700801273851e+00) (11, 1.38944662179348110698e+00) (12, -1.71411339266651774338e+00) (13, 1.46392600460449484601e+00) (8, 1.39724674779467039620e+00) (9, -1.14994979612238279465e+00) (10, -1.85662885397576205015e+00) (11, -1.79656850997765205058e+00) (12, 1.52174661362371566042e+00) (13, 1.89804167661072265005e+00) 
