FANN_FLO_2.1
num_layers=3
learning_rate=0.700000
connection_rate=1.000000
network_type=0
learning_momentum=0.000000
training_algorithm=2
train_error_function=1
train_stop_function=0
cascade_output_change_fraction=0.010000
quickprop_decay=-0.000100
quickprop_mu=1.750000
rprop_increase_factor=1.200000
rprop_decrease_factor=0.500000
rprop_delta_min=0.000000
rprop_delta_max=50.000000
rprop_delta_zero=0.100000
cascade_output_stagnation_epochs=12
cascade_candidate_change_fraction=0.010000
cascade_candidate_stagnation_epochs=12
cascade_max_out_epochs=150
cascade_max_cand_epochs=150
cascade_num_candidate_groups=2
bit_fail_limit=3.49999999999999977796e-01
cascade_candidate_limit=1.00000000000000000000e+03
cascade_weight_multiplier=4.00000000000000022204e-01
cascade_activation_functions_count=10
cascade_activation_functions=3 5 7 8 10 11 14 15 16 17 
cascade_activation_steepnesses_count=4
cascade_activation_steepnesses=2.50000000000000000000e-01 5.00000000000000000000e-01 7.50000000000000000000e-01 1.00000000000000000000e+00 
layer_sizes=8 9 2 
scale_included=0
neurons (num_inputs, activation_function, activation_steepness)=(0, 0, 0.00000000000000000000e+00) (0, 0, 0.00000000000000000000e+00) (0, 0, 0.00000000000000000000e+00) (0, 0, 0.00000000000000000000e+00) (0, 0, 0.00000000000000000000e+00) (0, 0, 0.00000000000000000000e+00) (0, 0, 0.00000000000000000000e+00) (0, 0, 0.00000000000000000000e+00) (8, 4, 5.00000000000000000000e-01) (8, 4, 5.00000000000000000000e-01) (8, 4, 5.00000000000000000000e-01) (8, 4, 5.00000000000000000000e-01) (8, 4, 5.00000000000000000000e-01) (8, 4, 5.00000000000000000000e-01) (8, 4, 5.00000000000000000000e-01) (8, 4, 5.00000000000000000000e-01) (0, 0, 0.00000000000000000000e+00) (9, 6, 5.00000000000000000000e-01) (0, 6, 0.00000000000000000000e+00) 
connections (connected_to_neuron, weight)=(0, -1.95443391869025248297e+02) (1, 1.48053345133120433275e+03) (2, -1.08829756316832663288e+03) (3, 4.96724982758006831318e+02) (4, 3.18079593124628729583e+02) (5, 6.74158117419955829064e+01) (6, -8.77067152819267903396e+02) (7, 2.65061173793939133247e+02) (0, 9.95264227328438977338e+00) (1, -2.90396686541316295660e+00) (2, 3.77580279291259168772e+00) (3, -4.30625261620719612665e+01) (4, 4.81310296479088961519e+00) (5, 2.54903235268394894319e+01) (6, -2.17641424201785689263e+01) (7, 3.31385931576591659109e+01) (0, -7.02254787401573921102e+00) (1, 3.39815739669955547697e+01) (2, -7.59538279111512615316e+00) (3, 2.86522767323768370318e+01) (4, -1.95496872367830221151e+01) (5, 3.44859362618607778739e-01) (6, 1.30149171886620340644e+01) (7, -5.97004323665499914142e+00) (0, -5.06974723477188220500e+01) (1, -6.98651515963706401635e+02) (2, 8.22720184448484815221e+02) (3, 1.84843413924168913809e+02) (4, -3.28388508488077320635e+02) (5, 1.50000000000000000000e+03) (6, 4.69709178831052938108e+01) (7, -2.87064496364391686711e+02) (0, 1.50000000000000000000e+03) (1, 1.50000000000000000000e+03) (2, -1.36077994187835201956e+02) (3, -1.50000000000000000000e+03) (4, -1.25235009292374752476e+03) (5, -1.26024104187499824548e+03) (6, 1.50000000000000000000e+03) (7, -1.50000000000000000000e+03) (0, 6.73937994758469205436e+00) (1, 2.27015679840877604434e+00) (2, -3.71018484247487556615e+00) (3, 1.06457689988320112207e+01) (4, 2.54655747608732418996e+00) (5, -1.74695412722949999784e-01) (6, -1.69502146456795408369e+01) (7, 6.44643096078221500278e+00) (0, -1.66269161106499332448e+01) (1, -5.80289502893607700429e+00) (2, 4.94292695028849422556e+01) (3, -2.00966570797289101336e+01) (4, -1.45379905430247333697e+01) (5, 6.05629536968411041897e+00) (6, -3.99007558322066735457e+00) (7, -9.50527330734784747790e+00) (0, -2.57951666304168991672e+00) (1, 4.89998381677432348624e+01) (2, -1.01779973258682645110e+02) (3, -1.70169624895428555078e+01) (4, 2.35035246851499035614e+00) (5, 2.49113010746102965243e+01) (6, -3.19212326319464629876e+01) (7, 6.91002472549115935863e+01) (8, -2.82728039964880162316e+00) (9, 1.68271687804191705240e+00) (10, -1.25980062076232579571e+00) (11, -1.74437296060851410040e+00) (12, 6.04479780221330087464e-01) (13, 9.95513515963351025562e+00) (14, 4.47623226789876493825e+00) (15, 7.94304303817262802312e-01) (16, -6.71166486449298815842e+00) 
