FANN_FLO_2.1
num_layers=3
learning_rate=0.700000
connection_rate=1.000000
network_type=0
learning_momentum=0.000000
training_algorithm=2
train_error_function=1
train_stop_function=0
cascade_output_change_fraction=0.010000
quickprop_decay=-0.000100
quickprop_mu=1.750000
rprop_increase_factor=1.200000
rprop_decrease_factor=0.500000
rprop_delta_min=0.000000
rprop_delta_max=50.000000
rprop_delta_zero=0.100000
cascade_output_stagnation_epochs=12
cascade_candidate_change_fraction=0.010000
cascade_candidate_stagnation_epochs=12
cascade_max_out_epochs=150
cascade_max_cand_epochs=150
cascade_num_candidate_groups=2
bit_fail_limit=3.49999999999999977796e-01
cascade_candidate_limit=1.00000000000000000000e+03
cascade_weight_multiplier=4.00000000000000022204e-01
cascade_activation_functions_count=10
cascade_activation_functions=3 5 7 8 10 11 14 15 16 17 
cascade_activation_steepnesses_count=4
cascade_activation_steepnesses=2.50000000000000000000e-01 5.00000000000000000000e-01 7.50000000000000000000e-01 1.00000000000000000000e+00 
layer_sizes=8 6 3 
scale_included=0
neurons (num_inputs, activation_function, activation_steepness)=(0, 0, 0.00000000000000000000e+00) (0, 0, 0.00000000000000000000e+00) (0, 0, 0.00000000000000000000e+00) (0, 0, 0.00000000000000000000e+00) (0, 0, 0.00000000000000000000e+00) (0, 0, 0.00000000000000000000e+00) (0, 0, 0.00000000000000000000e+00) (0, 0, 0.00000000000000000000e+00) (8, 4, 5.00000000000000000000e-01) (8, 4, 5.00000000000000000000e-01) (8, 4, 5.00000000000000000000e-01) (8, 4, 5.00000000000000000000e-01) (8, 4, 5.00000000000000000000e-01) (0, 0, 0.00000000000000000000e+00) (6, 6, 5.00000000000000000000e-01) (6, 6, 5.00000000000000000000e-01) (0, 6, 0.00000000000000000000e+00) 
connections (connected_to_neuron, weight)=(0, 8.05959336537249214416e+02) (1, 1.00714527642258713058e+03) (2, -1.50000000000000000000e+03) (3, -1.39962023121338165765e+03) (4, 1.50000000000000000000e+03) (5, 1.50000000000000000000e+03) (6, -7.39820987153057672003e+02) (7, 1.50000000000000000000e+03) (0, -1.14002863579030577768e+01) (1, 6.92452476965601171344e+00) (2, -7.35959562526137256455e-01) (3, -1.39430928812228649427e+00) (4, -2.21739115298744682292e+00) (5, 6.92782447136676360344e-01) (6, 1.41394449191498861040e+01) (7, -6.00648775008889668214e+00) (0, -1.50000000000000000000e+03) (1, -3.29362818535956648702e+02) (2, -1.62102870985915870961e+02) (3, -3.10258087464857112536e+02) (4, 3.39243478172481502497e+02) (5, 4.77933095352000876233e+01) (6, -1.50000000000000000000e+03) (7, 1.40588478919818498980e+02) (0, -1.47975495980131626084e+01) (1, 2.67759206079315497107e+01) (2, 3.57219278535506745698e+01) (3, 2.83617795835410397842e+01) (4, 5.42125826738852789610e-01) (5, -2.15222222477333460233e+01) (6, 1.49181621495410414724e+01) (7, -4.37652165452280783597e+01) (0, 1.83031206940727315668e+01) (1, -8.96178397581865127108e+00) (2, 6.67893834668265129473e-01) (3, 9.88081019886722167200e+00) (4, 4.81330423057546585852e+00) (5, -1.27245980691650273364e+00) (6, -2.45669781875631336732e+01) (7, 3.63373658264651444583e+00) (8, 4.83133806976560331581e-01) (9, -6.32878846176754539243e+00) (10, 1.71021609097195836924e+00) (11, 6.97291067106444062418e-01) (12, -4.21050589192612889633e+00) (13, 4.89946146279434557869e+00) (8, -5.21120395407413283806e-01) (9, 5.97468565822212305250e+00) (10, -8.68504628278843227029e-01) (11, -6.13904176818004576610e-01) (12, 3.77587367811071850099e+00) (13, -2.13593734744625818323e+00) 
