FANN_FLO_2.1
num_layers=3
learning_rate=0.700000
connection_rate=1.000000
network_type=0
learning_momentum=0.000000
training_algorithm=2
train_error_function=1
train_stop_function=0
cascade_output_change_fraction=0.010000
quickprop_decay=-0.000100
quickprop_mu=1.750000
rprop_increase_factor=1.200000
rprop_decrease_factor=0.500000
rprop_delta_min=0.000000
rprop_delta_max=50.000000
rprop_delta_zero=0.100000
cascade_output_stagnation_epochs=12
cascade_candidate_change_fraction=0.010000
cascade_candidate_stagnation_epochs=12
cascade_max_out_epochs=150
cascade_max_cand_epochs=150
cascade_num_candidate_groups=2
bit_fail_limit=3.49999999999999977796e-01
cascade_candidate_limit=1.00000000000000000000e+03
cascade_weight_multiplier=4.00000000000000022204e-01
cascade_activation_functions_count=10
cascade_activation_functions=3 5 7 8 10 11 14 15 16 17 
cascade_activation_steepnesses_count=4
cascade_activation_steepnesses=2.50000000000000000000e-01 5.00000000000000000000e-01 7.50000000000000000000e-01 1.00000000000000000000e+00 
layer_sizes=8 16 2 
scale_included=0
neurons (num_inputs, activation_function, activation_steepness)=(0, 0, 0.00000000000000000000e+00) (0, 0, 0.00000000000000000000e+00) (0, 0, 0.00000000000000000000e+00) (0, 0, 0.00000000000000000000e+00) (0, 0, 0.00000000000000000000e+00) (0, 0, 0.00000000000000000000e+00) (0, 0, 0.00000000000000000000e+00) (0, 0, 0.00000000000000000000e+00) (8, 4, 5.00000000000000000000e-01) (8, 4, 5.00000000000000000000e-01) (8, 4, 5.00000000000000000000e-01) (8, 4, 5.00000000000000000000e-01) (8, 4, 5.00000000000000000000e-01) (8, 4, 5.00000000000000000000e-01) (8, 4, 5.00000000000000000000e-01) (8, 4, 5.00000000000000000000e-01) (8, 4, 5.00000000000000000000e-01) (8, 4, 5.00000000000000000000e-01) (8, 4, 5.00000000000000000000e-01) (8, 4, 5.00000000000000000000e-01) (8, 4, 5.00000000000000000000e-01) (8, 4, 5.00000000000000000000e-01) (8, 4, 5.00000000000000000000e-01) (0, 0, 0.00000000000000000000e+00) (16, 6, 5.00000000000000000000e-01) (0, 6, 0.00000000000000000000e+00) 
connections (connected_to_neuron, weight)=(0, -6.38279498119787902510e+01) (1, 8.37549710623795533593e+01) (2, -6.29628673995590801837e+01) (3, 8.87760241976379376183e+01) (4, -3.74616769891125471759e+01) (5, -1.11085858624625828384e+01) (6, 7.08207565441876027990e+01) (7, -4.49113326444510789770e+01) (0, 1.80733482238274278942e+00) (1, -1.97723876080888842921e+01) (2, 2.40564311060380653373e+01) (3, 2.16327264805673316062e+01) (4, -2.76237063233380624183e+01) (5, -3.11932353138169844442e+01) (6, -2.43158536122741253394e+00) (7, 2.44643771997567540666e+01) (0, -3.60448883783788742718e+00) (1, -3.56827529225957240655e+00) (2, 1.36838280476752220949e+01) (3, 5.85884054403970377933e+00) (4, -8.26425234986158407935e+00) (5, -1.21246371183357819490e+01) (6, -7.65633039097937451167e-01) (7, 6.78262999735726435091e+00) (0, 1.10191949694076307686e+00) (1, -1.46904613347848052030e+01) (2, 1.51840436125852651372e+01) (3, -6.63480483569255774512e+00) (4, 8.36130568641806881658e+00) (5, -6.64456532245631392719e-01) (6, -2.45488501461025840911e+01) (7, 2.75144624623702647170e+01) (0, -1.28545594680688509470e+02) (1, -4.45695801511913529680e+01) (2, -1.76746098734799176100e+02) (3, 1.22705113924211673293e+02) (4, -9.40475471139818219868e-01) (5, -1.71533465220055347800e+01) (6, 7.13586804676428982930e+01) (7, 3.97540737953075762334e+01) (0, 1.67175505644939335070e+02) (1, -1.01104212391174360164e+03) (2, -3.50505030283792621049e+02) (3, 6.63279285805155154776e+02) (4, -1.90120958770009792715e+02) (5, -3.91850755069670526609e+02) (6, 2.58605960634356279115e+02) (7, -1.26363876386664699680e+02) (0, 1.50000000000000000000e+03) (1, -8.63136443931409303332e+02) (2, 9.65030663705466849933e+02) (3, 1.49708538624976313258e+03) (4, 1.21922580620113785699e+03) (5, -1.45708736169439271180e+03) (6, -1.24220762803745955694e+02) (7, -1.93782714757531948635e+02) (0, -8.05445171959045680410e+00) (1, -4.87515913845077832889e+01) (2, -3.12697445381912508822e+00) (3, -4.63458479790383393038e+01) (4, 3.78746679038017433072e+01) (5, -1.09566753342725764497e+00) (6, -1.60528295663144682237e+01) (7, 1.47994261730212510741e+01) (0, 2.42131944528504980951e+01) (1, 4.48979258752762078188e+01) (2, -1.98299005401790608971e+01) (3, -3.57742133398259340993e+01) (4, -7.37519244370537574440e+00) (5, 5.68402572633110336753e-01) (6, -2.84754501886386002241e+01) (7, 1.24186496561137502681e+01) (0, -9.94670303772433157974e+02) (1, 7.10674501549475962747e+02) (2, -1.05029633909273911740e+01) (3, 3.28089673475429890459e+01) (4, 6.89936247099677046890e+01) (5, 3.02619364379542012955e+01) (6, -9.89274480950219412989e+02) (7, -1.22778795350999146763e+02) (0, -1.54362662643573251842e+01) (1, 1.96822909882504774259e+02) (2, -3.07589075291032713722e+02) (3, 9.35557560879360465833e+01) (4, 5.47497122111937706279e+00) (5, 3.49979865028932835003e+01) (6, -8.66131493962981657830e+00) (7, 1.42278447553275766424e+00) (0, -1.43147419379255502747e+01) (1, -1.18281941154313425812e+01) (2, -1.14685723573495890193e+00) (3, 1.47840405759900974658e+01) (4, 5.10193410379805101229e+00) (5, 1.02459102205106278305e+00) (6, 9.87860761719915636547e+00) (7, 8.67213229768400872821e-01) (0, -1.96564890185412252777e+02) (1, -1.47009132641802580110e+02) (2, -1.82344276807232290594e+02) (3, -1.16276338112367270128e+02) (4, -1.02888300800718983652e+01) (5, 5.27504023044373013818e+01) (6, 1.94058409154618544790e+02) (7, 8.32045559902952334141e+01) (0, -1.59075377268614772674e+01) (1, -2.24627663535788499871e+01) (2, -9.60102121729594415456e-01) (3, -4.63762856696881264895e+00) (4, -3.85193751980981513583e+00) (5, -3.84568832905450783133e-02) (6, 1.93989065555833946064e+01) (7, 3.79845350448730334492e+00) (0, -2.48708608237160966326e+01) (1, 1.25881613897266362301e+02) (2, 1.77252680993864117909e+02) (3, -3.75772938998815675404e+00) (4, 6.51517927531071308067e+01) (5, -2.34208760229000034769e+00) (6, -8.04549341498857302213e+01) (7, -1.30641213626026683414e+02) (8, -2.46981317752412055100e+00) (9, -9.62732657386799139942e+00) (10, 1.28630018519226005935e+01) (11, 6.63673690423856932341e+00) (12, -4.07160715399626038646e+00) (13, -4.40103797400768481651e+00) (14, -2.49294255610207526885e+00) (15, 4.81361086570248897232e+00) (16, -2.76300570142014123576e+00) (17, 2.27788487858702115574e+00) (18, 2.78347923330732127667e+00) (19, -4.84904510275871647451e+00) (20, -4.61147916928438039719e+00) (21, 2.03242878275215623773e+01) (22, -1.80361233739177406754e+00) (23, 4.08270759295670082611e-01) 
