FANN_FLO_2.1
num_layers=3
learning_rate=0.700000
connection_rate=1.000000
network_type=0
learning_momentum=0.000000
training_algorithm=2
train_error_function=1
train_stop_function=0
cascade_output_change_fraction=0.010000
quickprop_decay=-0.000100
quickprop_mu=1.750000
rprop_increase_factor=1.200000
rprop_decrease_factor=0.500000
rprop_delta_min=0.000000
rprop_delta_max=50.000000
rprop_delta_zero=0.100000
cascade_output_stagnation_epochs=12
cascade_candidate_change_fraction=0.010000
cascade_candidate_stagnation_epochs=12
cascade_max_out_epochs=150
cascade_max_cand_epochs=150
cascade_num_candidate_groups=2
bit_fail_limit=3.49999999999999977796e-01
cascade_candidate_limit=1.00000000000000000000e+03
cascade_weight_multiplier=4.00000000000000022204e-01
cascade_activation_functions_count=10
cascade_activation_functions=3 5 7 8 10 11 14 15 16 17 
cascade_activation_steepnesses_count=4
cascade_activation_steepnesses=2.50000000000000000000e-01 5.00000000000000000000e-01 7.50000000000000000000e-01 1.00000000000000000000e+00 
layer_sizes=8 6 2 
scale_included=0
neurons (num_inputs, activation_function, activation_steepness)=(0, 0, 0.00000000000000000000e+00) (0, 0, 0.00000000000000000000e+00) (0, 0, 0.00000000000000000000e+00) (0, 0, 0.00000000000000000000e+00) (0, 0, 0.00000000000000000000e+00) (0, 0, 0.00000000000000000000e+00) (0, 0, 0.00000000000000000000e+00) (0, 0, 0.00000000000000000000e+00) (8, 4, 5.00000000000000000000e-01) (8, 4, 5.00000000000000000000e-01) (8, 4, 5.00000000000000000000e-01) (8, 4, 5.00000000000000000000e-01) (8, 4, 5.00000000000000000000e-01) (0, 0, 0.00000000000000000000e+00) (6, 6, 5.00000000000000000000e-01) (0, 6, 0.00000000000000000000e+00) 
connections (connected_to_neuron, weight)=(0, 3.10205235881807528386e+00) (1, -7.23721803426061569553e+01) (2, -1.36729683550969771666e+00) (3, -7.49804131033192220457e+01) (4, 6.36579269840877586262e+01) (5, 6.40120873014113467292e+00) (6, -2.66041228952284853904e+01) (7, 8.58676319249217456786e+00) (0, 1.14116225980279999419e+01) (1, -4.44919706096235856307e+00) (2, -3.72952748771020603513e+00) (3, -3.21726421870678152004e+01) (4, 1.16124530765358393580e+01) (5, 2.46852313554132791751e+01) (6, -2.18843408343724306064e+01) (7, 2.94851879544253101528e+01) (0, -4.24492531360729117296e+01) (1, 2.59267524547835307658e+02) (2, -1.25986040360833135310e+03) (3, -1.50000000000000000000e+03) (4, -6.63031455766788866413e+01) (5, 1.50000000000000000000e+03) (6, 1.47140713736293878355e+03) (7, -6.15083556657351167019e+01) (0, 2.89071334703839056601e+02) (1, -9.02667440983614710603e+01) (2, 7.85986521369775772428e+01) (3, -2.87744823564382045333e+02) (4, -2.48902853945787910561e+02) (5, 7.96588158989668357890e+01) (6, -2.01044891981152574090e+02) (7, 1.45567572628799979384e+02) (0, 6.89940102324701683756e+02) (1, 2.69964224514015654677e+02) (2, 3.66221124223481922400e+02) (3, 2.95519510165620431508e+02) (4, -7.92210576173501408448e+02) (5, -1.50000000000000000000e+03) (6, -3.41836566330239122635e+02) (7, -5.49994851744205220712e+02) (8, 1.26154570687990341682e+00) (9, 2.24555448495360820971e+00) (10, -6.09644791117259110536e-01) (11, 1.09391721141119813154e+00) (12, 1.70407303599084669621e+00) (13, -1.99673848651162133550e+00) 
