FANN_FLO_2.1
num_layers=3
learning_rate=0.700000
connection_rate=1.000000
network_type=0
learning_momentum=0.000000
training_algorithm=2
train_error_function=1
train_stop_function=0
cascade_output_change_fraction=0.010000
quickprop_decay=-0.000100
quickprop_mu=1.750000
rprop_increase_factor=1.200000
rprop_decrease_factor=0.500000
rprop_delta_min=0.000000
rprop_delta_max=50.000000
rprop_delta_zero=0.100000
cascade_output_stagnation_epochs=12
cascade_candidate_change_fraction=0.010000
cascade_candidate_stagnation_epochs=12
cascade_max_out_epochs=150
cascade_max_cand_epochs=150
cascade_num_candidate_groups=2
bit_fail_limit=3.49999999999999977796e-01
cascade_candidate_limit=1.00000000000000000000e+03
cascade_weight_multiplier=4.00000000000000022204e-01
cascade_activation_functions_count=10
cascade_activation_functions=3 5 7 8 10 11 14 15 16 17 
cascade_activation_steepnesses_count=4
cascade_activation_steepnesses=2.50000000000000000000e-01 5.00000000000000000000e-01 7.50000000000000000000e-01 1.00000000000000000000e+00 
layer_sizes=8 16 2 
scale_included=0
neurons (num_inputs, activation_function, activation_steepness)=(0, 0, 0.00000000000000000000e+00) (0, 0, 0.00000000000000000000e+00) (0, 0, 0.00000000000000000000e+00) (0, 0, 0.00000000000000000000e+00) (0, 0, 0.00000000000000000000e+00) (0, 0, 0.00000000000000000000e+00) (0, 0, 0.00000000000000000000e+00) (0, 0, 0.00000000000000000000e+00) (8, 4, 5.00000000000000000000e-01) (8, 4, 5.00000000000000000000e-01) (8, 4, 5.00000000000000000000e-01) (8, 4, 5.00000000000000000000e-01) (8, 4, 5.00000000000000000000e-01) (8, 4, 5.00000000000000000000e-01) (8, 4, 5.00000000000000000000e-01) (8, 4, 5.00000000000000000000e-01) (8, 4, 5.00000000000000000000e-01) (8, 4, 5.00000000000000000000e-01) (8, 4, 5.00000000000000000000e-01) (8, 4, 5.00000000000000000000e-01) (8, 4, 5.00000000000000000000e-01) (8, 4, 5.00000000000000000000e-01) (8, 4, 5.00000000000000000000e-01) (0, 0, 0.00000000000000000000e+00) (16, 6, 5.00000000000000000000e-01) (0, 6, 0.00000000000000000000e+00) 
connections (connected_to_neuron, weight)=(0, -1.20591962445505600954e+02) (1, -1.80811738155697923958e+02) (2, -1.50000000000000000000e+03) (3, -1.50000000000000000000e+03) (4, 3.23473527179024983980e+02) (5, 6.64257135087996857692e+02) (6, 1.70346167053843430494e+02) (7, 6.60157319007336695904e+02) (0, 6.09004447501510171037e+00) (1, 2.22785393427713032111e+01) (2, 2.02105047204145229500e+01) (3, -4.07685942683265096775e+01) (4, 1.40354640379103194903e+01) (5, 5.69396623411057145603e+00) (6, -2.52632797963221200632e+01) (7, 1.29452094372657455779e+00) (0, -5.58649158609763503591e+02) (1, -1.50000000000000000000e+03) (2, -3.19119995756918285679e+02) (3, 5.16426877967179649431e+01) (4, 1.77356327631583923221e+02) (5, -2.83689112190254661527e+02) (6, 8.14573725298476119860e+02) (7, 2.88744660615138286630e+02) (0, -1.59229325151136777095e+02) (1, 6.49436458269442624669e+01) (2, -5.87524622997812429048e+01) (3, 1.09443265736286914347e+01) (4, -3.16803203921514011654e+01) (5, 4.06307697982590525498e+01) (6, 2.97842061684714494163e+01) (7, 2.25904650519158778366e+00) (0, -5.52700087197086190827e+02) (1, 1.68385176903460887843e+02) (2, -1.50000000000000000000e+03) (3, 1.40229494247859747702e+03) (4, 6.68561654082756149364e+02) (5, -9.38926049224734128984e+02) (6, -1.16525615496586397057e+02) (7, -1.37336071120531642009e+02) (0, 8.60882808305050701847e+01) (1, 1.59744304706430085616e+02) (2, -1.44234051059486233726e+02) (3, 3.47044403935202510070e+01) (4, -1.04127791749880444172e+02) (5, 2.31920166243277847684e+00) (6, -7.42083361212550300934e+01) (7, 5.22156249466788366931e+01) (0, 2.49369731034893815647e+00) (1, 2.55119700055856313270e+01) (2, 5.02480662473529875456e+01) (3, -7.41746853849798526426e+01) (4, -3.20775935718015503539e+01) (5, 1.58870148819396579398e+01) (6, -2.08929694869835502757e+00) (7, 7.93643426513514871345e+00) (0, -6.85278026102929427310e+00) (1, -1.34902265076008713862e+01) (2, 2.48500229824539928813e+01) (3, -2.35534529505990741782e+00) (4, 6.38785506020477242828e+01) (5, 1.45104393429866593834e+01) (6, -6.40738235144548156086e+01) (7, -2.87845701626100805015e+01) (0, 1.71470630948545675665e+02) (1, 1.13019621116117193083e+02) (2, -1.59411962071580660449e+02) (3, 7.11704179383760902056e+01) (4, -8.06977078552941833323e+01) (5, 1.26707632666893744045e+02) (6, -1.18869891076811828867e+01) (7, 2.22790953989420037473e+00) (0, -2.72788892524347019730e+01) (1, -2.47129158900030887480e+01) (2, 2.28594888124990205824e+02) (3, -1.26825137718374634233e+02) (4, 1.87607834247782051307e+02) (5, 8.40501298540169301532e+01) (6, -3.36537711821317373051e+02) (7, -8.02111361962277271687e+01) (0, 1.50000000000000000000e+03) (1, 1.50000000000000000000e+03) (2, 1.50000000000000000000e+03) (3, 8.93400760903012383096e+01) (4, -1.19985173852841990083e+03) (5, -5.17362476547766050317e+02) (6, 1.50000000000000000000e+03) (7, 5.42250041973148086072e+02) (0, -1.49972610473980444112e+03) (1, -1.50000000000000000000e+03) (2, -1.50000000000000000000e+03) (3, -1.50000000000000000000e+03) (4, 7.28979703675560358533e+02) (5, 9.80102263941561659522e+02) (6, -1.50000000000000000000e+03) (7, 1.70860275955895872357e+02) (0, 1.25672169656163092100e+02) (1, -2.10737923189399850799e+02) (2, 3.66134867375583894500e+01) (3, 3.87091710313059422788e+01) (4, 5.10607002039124040493e+01) (5, -1.71710462806344423825e+01) (6, -3.51267107753711229634e+01) (7, 1.82968618812594812084e+01) (0, 2.56239102403765306448e+00) (1, -7.25567882295670418813e+00) (2, 4.31490729108131443326e+00) (3, -3.09536627708915634827e+00) (4, 1.39306420794273955188e+00) (5, 1.14280514290578194547e+00) (6, 1.99746809350507570358e+00) (7, -3.03980487547765321210e+00) (0, -1.50000000000000000000e+03) (1, -1.50000000000000000000e+03) (2, -1.50000000000000000000e+03) (3, -1.50000000000000000000e+03) (4, -1.50000000000000000000e+03) (5, -1.50000000000000000000e+03) (6, -1.50000000000000000000e+03) (7, -6.76366649401775621442e+00) (8, 2.24843013607433084289e+00) (9, 1.70694074224398284478e+00) (10, 3.58357286067365299331e+00) (11, -2.05044191925430885348e+00) (12, 2.79646827820776877616e+00) (13, -3.10948438118234671279e+00) (14, 2.96633090147035405337e+00) (15, -9.15223105906518341612e+00) (16, 1.99071249301092678685e+00) (17, 8.27578592809331325952e+00) (18, -1.99552099134519411727e+00) (19, 1.48413725924581019200e-01) (20, 2.19118659607204602224e+00) (21, -1.42602499757333394115e+01) (22, 1.50000000000000000000e+03) (23, -3.00158769790871138294e-01) 
