FANN_FLO_2.1
num_layers=3
learning_rate=0.700000
connection_rate=1.000000
network_type=0
learning_momentum=0.000000
training_algorithm=2
train_error_function=1
train_stop_function=0
cascade_output_change_fraction=0.010000
quickprop_decay=-0.000100
quickprop_mu=1.750000
rprop_increase_factor=1.200000
rprop_decrease_factor=0.500000
rprop_delta_min=0.000000
rprop_delta_max=50.000000
rprop_delta_zero=0.100000
cascade_output_stagnation_epochs=12
cascade_candidate_change_fraction=0.010000
cascade_candidate_stagnation_epochs=12
cascade_max_out_epochs=150
cascade_max_cand_epochs=150
cascade_num_candidate_groups=2
bit_fail_limit=3.49999999999999977796e-01
cascade_candidate_limit=1.00000000000000000000e+03
cascade_weight_multiplier=4.00000000000000022204e-01
cascade_activation_functions_count=10
cascade_activation_functions=3 5 7 8 10 11 14 15 16 17 
cascade_activation_steepnesses_count=4
cascade_activation_steepnesses=2.50000000000000000000e-01 5.00000000000000000000e-01 7.50000000000000000000e-01 1.00000000000000000000e+00 
layer_sizes=8 8 2 
scale_included=0
neurons (num_inputs, activation_function, activation_steepness)=(0, 0, 0.00000000000000000000e+00) (0, 0, 0.00000000000000000000e+00) (0, 0, 0.00000000000000000000e+00) (0, 0, 0.00000000000000000000e+00) (0, 0, 0.00000000000000000000e+00) (0, 0, 0.00000000000000000000e+00) (0, 0, 0.00000000000000000000e+00) (0, 0, 0.00000000000000000000e+00) (8, 4, 5.00000000000000000000e-01) (8, 4, 5.00000000000000000000e-01) (8, 4, 5.00000000000000000000e-01) (8, 4, 5.00000000000000000000e-01) (8, 4, 5.00000000000000000000e-01) (8, 4, 5.00000000000000000000e-01) (8, 4, 5.00000000000000000000e-01) (0, 0, 0.00000000000000000000e+00) (8, 6, 5.00000000000000000000e-01) (0, 6, 0.00000000000000000000e+00) 
connections (connected_to_neuron, weight)=(0, 4.16221590746707136077e+02) (1, -5.90484639423416524551e+02) (2, 1.50000000000000000000e+03) (3, -4.67637334722260504805e+02) (4, -1.50000000000000000000e+03) (5, 2.81217513497134291356e+02) (6, 4.63906755447893829114e+02) (7, -8.06821895584654384947e+02) (0, 2.74810602259279107784e+02) (1, -3.78217899004910520944e+02) (2, 2.72273549229428056151e+02) (3, -1.11581771563368064903e+02) (4, 8.22655774284515217687e+01) (5, -8.60966875775876872012e+01) (6, -3.89461389771275676708e+01) (7, -6.35820974391476667620e+01) (0, 1.51112875800229473633e+00) (1, -4.67473788010996482711e+00) (2, -1.03626349130162111578e+02) (3, -5.05616965374915938725e+00) (4, 2.25364805560570946596e+00) (5, 1.42602099713439645079e+00) (6, 1.38648428774311671674e+01) (7, 4.22816756608254493699e+01) (0, -1.50000000000000000000e+03) (1, 1.50000000000000000000e+03) (2, 1.50000000000000000000e+03) (3, 1.00841837622331581770e+03) (4, -1.50000000000000000000e+03) (5, 4.63687091616748659817e+02) (6, -2.28838985144942000716e+02) (7, -1.50000000000000000000e+03) (0, -1.05604891558339886615e+03) (1, 7.32839310902162424100e+02) (2, 3.52543750635770550161e+02) (3, -1.63541953247978142372e+02) (4, 5.60449873670463489361e+02) (5, 2.01375908422720080182e+01) (6, -1.62014767816353696617e+02) (7, 6.53198414334771229051e+01) (0, -1.42721907104874958350e+03) (1, 4.81642779885948044694e+01) (2, 1.50000000000000000000e+03) (3, -5.64149889109107675722e+02) (4, -2.11711805869884585718e+02) (5, 6.07190249567688198340e+01) (6, -2.26480626236190829559e+01) (7, -2.25789462583165118303e+02) (0, 2.27460222802816645071e+02) (1, 3.06275059434675938519e+02) (2, 1.02029250577226839880e+01) (3, -2.98718415208262683791e+02) (4, -9.54160970237209085099e+01) (5, 2.67505337266915965699e+01) (6, -2.81603028970062553071e+02) (7, -4.96348562752664861364e+01) (8, 8.80063116116485688600e-01) (9, 1.22958555545720016333e+00) (10, 8.61276736184846236632e-01) (11, 4.54312058792246731276e-01) (12, 1.17418300136560449509e+00) (13, 2.15162691951146101133e+00) (14, 2.17659406442879044263e+00) (15, -1.48861411716074365508e+00) 
