FANN_FLO_2.1
num_layers=3
learning_rate=0.700000
connection_rate=1.000000
network_type=0
learning_momentum=0.000000
training_algorithm=2
train_error_function=1
train_stop_function=0
cascade_output_change_fraction=0.010000
quickprop_decay=-0.000100
quickprop_mu=1.750000
rprop_increase_factor=1.200000
rprop_decrease_factor=0.500000
rprop_delta_min=0.000000
rprop_delta_max=50.000000
rprop_delta_zero=0.100000
cascade_output_stagnation_epochs=12
cascade_candidate_change_fraction=0.010000
cascade_candidate_stagnation_epochs=12
cascade_max_out_epochs=150
cascade_max_cand_epochs=150
cascade_num_candidate_groups=2
bit_fail_limit=3.49999999999999977796e-01
cascade_candidate_limit=1.00000000000000000000e+03
cascade_weight_multiplier=4.00000000000000022204e-01
cascade_activation_functions_count=10
cascade_activation_functions=3 5 7 8 10 11 14 15 16 17 
cascade_activation_steepnesses_count=4
cascade_activation_steepnesses=2.50000000000000000000e-01 5.00000000000000000000e-01 7.50000000000000000000e-01 1.00000000000000000000e+00 
layer_sizes=8 11 3 
scale_included=0
neurons (num_inputs, activation_function, activation_steepness)=(0, 0, 0.00000000000000000000e+00) (0, 0, 0.00000000000000000000e+00) (0, 0, 0.00000000000000000000e+00) (0, 0, 0.00000000000000000000e+00) (0, 0, 0.00000000000000000000e+00) (0, 0, 0.00000000000000000000e+00) (0, 0, 0.00000000000000000000e+00) (0, 0, 0.00000000000000000000e+00) (8, 4, 5.00000000000000000000e-01) (8, 4, 5.00000000000000000000e-01) (8, 4, 5.00000000000000000000e-01) (8, 4, 5.00000000000000000000e-01) (8, 4, 5.00000000000000000000e-01) (8, 4, 5.00000000000000000000e-01) (8, 4, 5.00000000000000000000e-01) (8, 4, 5.00000000000000000000e-01) (8, 4, 5.00000000000000000000e-01) (8, 4, 5.00000000000000000000e-01) (0, 0, 0.00000000000000000000e+00) (11, 6, 5.00000000000000000000e-01) (11, 6, 5.00000000000000000000e-01) (0, 6, 0.00000000000000000000e+00) 
connections (connected_to_neuron, weight)=(0, 8.57234957226767875227e+01) (1, -1.52809674184316151013e+01) (2, 1.65886523238062721930e+01) (3, 1.12223090050920504268e+00) (4, 2.78033362733411415491e+01) (5, -3.56799148559525889368e+01) (6, -4.31339521638101786039e+01) (7, -3.17290870720777142822e+01) (0, -2.81165764753467328774e+00) (1, 2.13893864101542208189e+00) (2, 3.80586168219501308485e+00) (3, -6.20859608714750432767e+00) (4, -6.06737201090492384026e+00) (5, 1.56496892613714333464e+00) (6, 6.09757310893640980254e+00) (7, 6.50060549998455416976e-01) (0, 8.54783986083951532464e+01) (1, -3.89612245825653573661e+01) (2, -3.98973357646357627004e+01) (3, 2.56016415717851941736e+01) (4, 9.17584544807600011040e+00) (5, -1.19941766821082111960e+01) (6, 2.81104165692041362945e+02) (7, 2.08298089600754110506e+01) (0, -3.34386768155637337241e-01) (1, 6.67985189055108374845e+00) (2, -2.33331972989585949563e+02) (3, -3.89902904310613962480e+01) (4, 4.16992592106115438355e+01) (5, 1.83401011271989702323e+01) (6, -3.91131719724853033071e+00) (7, 7.94653525942317600084e+01) (0, 9.32525800461035170308e-01) (1, -8.12510421040697261574e-01) (2, -2.01209244887541380820e+01) (3, -2.97681832976607685382e+00) (4, 7.18526829582989412515e-01) (5, 7.33285359310767326235e+00) (6, -4.58185710851744332217e+00) (7, 1.71787385095136819757e+01) (0, 3.55572284260278195234e+01) (1, -1.52622097752912338819e+02) (2, 3.43248408657597281035e+02) (3, 1.36022655410460487246e+02) (4, -1.72164281263222875396e+02) (5, 1.53425798065985276253e+02) (6, -4.80866562850244889660e+01) (7, -8.97873018058035654576e+01) (0, -7.70373929952180613867e+00) (1, -1.09535337443915992139e+00) (2, 2.76774600335895737402e+00) (3, -2.01712917805857872011e+00) (4, -1.55670329124617090599e+00) (5, 1.30103989503963046737e+00) (6, 8.53398508694258772778e+00) (7, -4.43381171613289493116e-01) (0, 1.57340998358845318705e+01) (1, 7.00339828234990413591e+00) (2, -1.39296244383433602820e+01) (3, 4.51523221083600390102e+00) (4, 1.78352034614679766378e+00) (5, -1.63276325809948574808e+00) (6, -1.33038009656697884253e+01) (7, 1.55595168592101229521e+00) (0, -5.40528026410937982860e+01) (1, -1.77181521070426946096e+01) (2, -1.28058050407404366844e+00) (3, 1.23416008395509670947e+01) (4, 4.47847214567509066541e+00) (5, -1.07080929043501793529e+01) (6, 8.56644910556000027668e+00) (7, 2.46060560211776468975e+00) (0, -5.21090633323816465605e+00) (1, 1.06776462396477955785e+00) (2, -6.72220838341836435248e-01) (3, -1.17643479179178486738e-01) (4, 1.10326280926900839319e+01) (5, -5.90265703907391081628e+00) (6, -6.97358899401178122801e-02) (7, -2.79277675376877487778e+00) (8, 1.41736320811278293519e+00) (9, 5.09975240828830767015e+00) (10, -2.09631241700909365377e+00) (11, 1.95652404827779347052e+00) (12, 2.71224641258794951781e+00) (13, 1.40739800715198382086e+00) (14, -6.21193968358744808000e+00) (15, -3.31052395954971556691e+00) (16, -2.00850340068997956777e+00) (17, 2.75902396572229902105e+00) (18, 1.36785975211841392962e+00) (8, -1.42349870466398686908e+00) (9, -5.02201205379859239031e+00) (10, 1.09773874558353301545e+00) (11, -1.82032097657184355199e+00) (12, -2.67439979932785476535e+00) (13, -1.61066015963920650123e+00) (14, 6.17218452425796559879e+00) (15, 3.26045509105207198530e+00) (16, 1.89154337220346002724e+00) (17, -2.86020091616799287948e+00) (18, 2.31847605326101557921e+00) 
