FANN_FLO_2.1
num_layers=3
learning_rate=0.700000
connection_rate=1.000000
network_type=0
learning_momentum=0.000000
training_algorithm=2
train_error_function=1
train_stop_function=0
cascade_output_change_fraction=0.010000
quickprop_decay=-0.000100
quickprop_mu=1.750000
rprop_increase_factor=1.200000
rprop_decrease_factor=0.500000
rprop_delta_min=0.000000
rprop_delta_max=50.000000
rprop_delta_zero=0.100000
cascade_output_stagnation_epochs=12
cascade_candidate_change_fraction=0.010000
cascade_candidate_stagnation_epochs=12
cascade_max_out_epochs=150
cascade_max_cand_epochs=150
cascade_num_candidate_groups=2
bit_fail_limit=3.49999999999999977796e-01
cascade_candidate_limit=1.00000000000000000000e+03
cascade_weight_multiplier=4.00000000000000022204e-01
cascade_activation_functions_count=10
cascade_activation_functions=3 5 7 8 10 11 14 15 16 17 
cascade_activation_steepnesses_count=4
cascade_activation_steepnesses=2.50000000000000000000e-01 5.00000000000000000000e-01 7.50000000000000000000e-01 1.00000000000000000000e+00 
layer_sizes=8 16 3 
scale_included=0
neurons (num_inputs, activation_function, activation_steepness)=(0, 0, 0.00000000000000000000e+00) (0, 0, 0.00000000000000000000e+00) (0, 0, 0.00000000000000000000e+00) (0, 0, 0.00000000000000000000e+00) (0, 0, 0.00000000000000000000e+00) (0, 0, 0.00000000000000000000e+00) (0, 0, 0.00000000000000000000e+00) (0, 0, 0.00000000000000000000e+00) (8, 4, 5.00000000000000000000e-01) (8, 4, 5.00000000000000000000e-01) (8, 4, 5.00000000000000000000e-01) (8, 4, 5.00000000000000000000e-01) (8, 4, 5.00000000000000000000e-01) (8, 4, 5.00000000000000000000e-01) (8, 4, 5.00000000000000000000e-01) (8, 4, 5.00000000000000000000e-01) (8, 4, 5.00000000000000000000e-01) (8, 4, 5.00000000000000000000e-01) (8, 4, 5.00000000000000000000e-01) (8, 4, 5.00000000000000000000e-01) (8, 4, 5.00000000000000000000e-01) (8, 4, 5.00000000000000000000e-01) (8, 4, 5.00000000000000000000e-01) (0, 0, 0.00000000000000000000e+00) (16, 6, 5.00000000000000000000e-01) (16, 6, 5.00000000000000000000e-01) (0, 6, 0.00000000000000000000e+00) 
connections (connected_to_neuron, weight)=(0, 7.55063416538833735103e+02) (1, -1.20813604944702689181e+02) (2, -1.12174959070269414951e+03) (3, -1.50000000000000000000e+03) (4, 1.14164251169785234197e+03) (5, 6.00890650962970994442e+02) (6, -5.75780310507042145218e+02) (7, 2.10799632298752641191e+02) (0, 1.05412120681982491988e+03) (1, -4.76557468792400058533e+01) (2, -4.22529634838840593147e+02) (3, 7.82972679892115195344e+01) (4, 1.16940192301927595508e+02) (5, -2.28177545461197667009e+02) (6, -9.87374527089959656223e+02) (7, -2.49678264666057145860e+01) (0, -5.08221479059723879601e+00) (1, 4.42737323467205072802e+01) (2, 5.34989885769047290864e+01) (3, -3.27542862597078467957e+01) (4, -3.20498448273304248346e+01) (5, -2.98625156178396222728e+00) (6, 2.44174446296594815919e+01) (7, 9.95372812534543172092e+00) (0, 4.47022905514221413625e+00) (1, 1.19691381666421103880e+00) (2, -1.75254076778554845895e+00) (3, 7.18933884330864803047e+00) (4, 6.75431514399581356400e+00) (5, -1.98596587776317967666e+00) (6, -1.38081796785191937005e+01) (7, 4.24560561717788154112e+00) (0, -5.74382208614239075928e+01) (1, 1.81476869965013420938e+01) (2, 4.69888522812537132722e+01) (3, 8.27689208275942789328e+00) (4, 2.00402141211378896912e+01) (5, -3.87659786476732577398e+01) (6, -4.70909655890603886519e+01) (7, 6.80835894440205464662e+01) (0, 5.02562767979357261083e+01) (1, 3.75699218573976656543e+00) (2, 3.05366708830274156128e+01) (3, 1.36736376210010863730e+01) (4, 8.42528001721955099868e+00) (5, -1.07964504097125342241e+01) (6, -5.79746576090994594210e+01) (7, -7.96490301863577787600e+00) (0, -6.04512006326427098202e+00) (1, -3.40950586449165360392e+00) (2, -1.03364187799115991861e-01) (3, 1.10775101543636882440e+01) (4, 5.54090823178611291411e+00) (5, -2.28418831297246782697e+00) (6, 1.83038725653839029484e+00) (7, -8.58763195645154242541e-01) (0, -2.35518736938490995669e+01) (1, -6.49184209167507297877e+00) (2, -6.79431752238819086642e+00) (3, -1.20268748373385410133e+01) (4, -3.81717174206094034261e+00) (5, 4.74389871289734266213e+00) (6, 2.80250382999862885924e+01) (7, 5.23004606884863942895e+00) (0, -6.81973892723441394992e+02) (1, 7.35574288377038811859e+01) (2, 3.17261694702644831523e+02) (3, -1.44972674357509987431e+02) (4, 1.19460112214319408963e+02) (5, -7.09136000482127002442e+01) (6, -1.50000000000000000000e+03) (7, -8.24182492107419903959e+01) (0, -2.47819169680951716828e+02) (1, 8.72629724201333260680e+02) (2, -5.01326673636800876466e+02) (3, -2.56363601985831301988e+01) (4, 1.28089644245958425017e+02) (5, 4.49670537185994163565e+01) (6, -3.24375857787202789950e+02) (7, 2.25081490970916888728e+02) (0, -1.50197073793695761168e+01) (1, 6.47331636546515643005e+00) (2, 6.79620930996832739446e-01) (3, 2.60161090673061812240e+00) (4, -1.24501927402417678081e+00) (5, 6.68951635836039781857e-01) (6, -4.10075345087725011695e+01) (7, -2.33460857821275213908e+00) (0, 1.67955282709861464241e+01) (1, 2.40268382606776249588e+01) (2, -1.16242434007283677033e+01) (3, 2.37724872755720966211e+01) (4, -7.50172428081262276933e-01) (5, -1.56198013640172983507e+00) (6, -2.13132853179454109238e+01) (7, -1.08946076270266143382e+01) (0, -2.65640362948735855753e+02) (1, 1.41929480328435573711e+02) (2, -2.38207728764374962793e+02) (3, 1.80867209492597794451e+02) (4, 3.88560311668018982800e+01) (5, 1.51230628163059233060e+01) (6, -1.50000000000000000000e+03) (7, -1.75248333755333405293e+01) (0, 1.06497602610440145199e+00) (1, 4.50353660136032019068e+00) (2, 4.57441988474730862890e+01) (3, -3.73277362230013096678e+01) (4, -8.66284572561351779996e+01) (5, 1.51004344012839268885e+01) (6, 4.57896604139033556180e+01) (7, 1.26533389065556285402e+01) (0, -3.92808597132329495594e+01) (1, -5.70385899203240853694e+01) (2, 8.64310954053352276105e+01) (3, -8.97947688274904720629e+01) (4, 2.66802915725947080716e+01) (5, -6.12229050420355402906e+00) (6, 2.01671851593744122511e+00) (7, 1.34604939678502599776e+01) (8, -1.31407700874537058944e+00) (9, 7.14456846523404021099e-01) (10, -2.43498947265378262728e+00) (11, 4.38876746915251647607e+00) (12, 8.86829078108542168124e-01) (13, 5.95000820895464688220e+00) (14, -3.27564202438366258718e+00) (15, 1.02489378579150809401e+01) (16, -4.15943285754911595831e+00) (17, -1.91801763005162184683e+00) (18, 7.52313156225570978108e+00) (19, 3.39641587563867597410e+00) (20, -2.52211118091209840486e+00) (21, -1.06256427085399063337e+00) (22, 1.80409723185654713440e+00) (23, -5.13972050699547367003e+00) (8, 1.25459088614004254936e+00) (9, -3.93949313723967020628e-01) (10, 1.88175273730929326632e+00) (11, -4.82568824196636114721e+00) (12, -5.66860654451513679142e-01) (13, -4.41664522367548428861e+00) (14, 3.22160297961142205736e+00) (15, -7.86338269610817164335e+00) (16, 2.37150838087029258716e+00) (17, 1.70634983551384555867e+00) (18, -3.36304199308058437978e+00) (19, -2.55600644322224912486e+00) (20, 1.10088802995118717476e+00) (21, 9.02585368412165967023e-01) (22, -1.23406811221855861049e+00) (23, 6.27570350797372888962e+00) 
