FANN_FLO_2.1
num_layers=3
learning_rate=0.700000
connection_rate=1.000000
network_type=0
learning_momentum=0.000000
training_algorithm=2
train_error_function=1
train_stop_function=0
cascade_output_change_fraction=0.010000
quickprop_decay=-0.000100
quickprop_mu=1.750000
rprop_increase_factor=1.200000
rprop_decrease_factor=0.500000
rprop_delta_min=0.000000
rprop_delta_max=50.000000
rprop_delta_zero=0.100000
cascade_output_stagnation_epochs=12
cascade_candidate_change_fraction=0.010000
cascade_candidate_stagnation_epochs=12
cascade_max_out_epochs=150
cascade_max_cand_epochs=150
cascade_num_candidate_groups=2
bit_fail_limit=3.49999999999999977796e-01
cascade_candidate_limit=1.00000000000000000000e+03
cascade_weight_multiplier=4.00000000000000022204e-01
cascade_activation_functions_count=10
cascade_activation_functions=3 5 7 8 10 11 14 15 16 17 
cascade_activation_steepnesses_count=4
cascade_activation_steepnesses=2.50000000000000000000e-01 5.00000000000000000000e-01 7.50000000000000000000e-01 1.00000000000000000000e+00 
layer_sizes=8 16 3 
scale_included=0
neurons (num_inputs, activation_function, activation_steepness)=(0, 0, 0.00000000000000000000e+00) (0, 0, 0.00000000000000000000e+00) (0, 0, 0.00000000000000000000e+00) (0, 0, 0.00000000000000000000e+00) (0, 0, 0.00000000000000000000e+00) (0, 0, 0.00000000000000000000e+00) (0, 0, 0.00000000000000000000e+00) (0, 0, 0.00000000000000000000e+00) (8, 4, 5.00000000000000000000e-01) (8, 4, 5.00000000000000000000e-01) (8, 4, 5.00000000000000000000e-01) (8, 4, 5.00000000000000000000e-01) (8, 4, 5.00000000000000000000e-01) (8, 4, 5.00000000000000000000e-01) (8, 4, 5.00000000000000000000e-01) (8, 4, 5.00000000000000000000e-01) (8, 4, 5.00000000000000000000e-01) (8, 4, 5.00000000000000000000e-01) (8, 4, 5.00000000000000000000e-01) (8, 4, 5.00000000000000000000e-01) (8, 4, 5.00000000000000000000e-01) (8, 4, 5.00000000000000000000e-01) (8, 4, 5.00000000000000000000e-01) (0, 0, 0.00000000000000000000e+00) (16, 6, 5.00000000000000000000e-01) (16, 6, 5.00000000000000000000e-01) (0, 6, 0.00000000000000000000e+00) 
connections (connected_to_neuron, weight)=(0, 1.06231219796709225989e+02) (1, 1.58352039795806234679e+02) (2, 9.42138026300203357266e+00) (3, -3.68649523556998275353e+01) (4, -4.95114337346884312296e+01) (5, 2.40836569139909890680e+01) (6, -1.62883931061930496753e+02) (7, 2.45061362508557820661e+01) (0, -2.61845088290102800954e+00) (1, 1.28924437617381784094e+01) (2, -1.30370525103741172757e+01) (3, -2.47759619467100655754e+00) (4, 2.98262969539926903195e+00) (5, -7.10529115810824785093e-01) (6, -3.96225830891776542586e+00) (7, 2.07021973064143649523e+00) (0, 8.52751091542962846859e+00) (1, -4.08753251499335412689e+00) (2, -3.31429578364638288690e+01) (3, 2.33167815997407501527e+00) (4, -1.73477624204953029263e+00) (5, 1.18297837181059550815e+00) (6, 1.62866737355046886648e+00) (7, 1.05930144491013500385e+01) (0, 2.69017294703310163584e+01) (1, 4.31726187575687347930e+01) (2, 5.93177428087041480609e+00) (3, -1.52920275379543681993e+02) (4, 3.78486456052136972517e+01) (5, -5.06546755253577671851e+01) (6, 4.71189465340863407050e+01) (7, 2.85151376085899350699e+01) (0, 6.51689383044173382586e+01) (1, -2.88953075748203360718e+01) (2, -3.10431434466815296958e+01) (3, -3.59291708401245273308e+01) (4, 1.37179032824147270730e+02) (5, 3.92471909864415309244e+01) (6, -2.70324104645107645695e+01) (7, 4.23138765632443352160e+01) (0, -2.01603501695986153663e+00) (1, 2.31397172887574669176e+01) (2, -2.03443857219316237561e+00) (3, -1.65123588335300741647e+00) (4, -1.51381896061035021717e+01) (5, 2.03364703111930733570e+00) (6, 8.32084366671580788477e+00) (7, -1.90517729286828902957e+01) (0, -1.47031138815224711180e+01) (1, -1.09562070398055926290e+01) (2, 1.49003329438393117279e+00) (3, 9.01602405042126342494e+00) (4, 1.15206140666955771934e+01) (5, -1.72484197635654523673e+00) (6, 8.80731832968535321982e+00) (7, 4.12414257534900130509e+00) (0, -6.31093257139499375086e+00) (1, 8.47949827095247421482e+00) (2, -1.95107551343011138556e+01) (3, 7.21238733247539620663e+00) (4, 1.37977657059446521259e+01) (5, -8.16765441764033006677e+00) (6, -6.72134905555826778212e-01) (7, 1.86383543866218492902e+00) (0, 2.90611684561751326683e+00) (1, -3.48618947412334623248e-01) (2, -1.35694063853916024875e+00) (3, 2.78500049723085822961e+01) (4, 2.19028735460762646881e+00) (5, -5.29839516374740426841e+00) (6, -1.91960979178094568454e+01) (7, -3.55621563817567887256e+00) (0, 1.27315564828154315080e+01) (1, -3.19044155270947591418e+01) (2, 3.38961583021940029425e+01) (3, -1.79746722844688733289e+01) (4, -1.72314846064326729902e+01) (5, 4.59305282416875737539e+00) (6, 2.78618552467175355503e+01) (7, 2.70903360528807501950e+00) (0, 1.82830887620624427115e+00) (1, -2.14126242461180908094e+02) (2, -9.39297753450052113067e+01) (3, 4.21103364680012361987e+02) (4, 2.57551424780772109102e+01) (5, 1.62001878117396927337e+02) (6, 5.89387890627903754392e+00) (7, -1.97636035611421846170e+02) (0, 1.21947469859257164870e+01) (1, -2.22490451049903725789e+01) (2, 5.88141000907369004835e+01) (3, -4.47500216420619967295e+00) (4, 6.96794015267687250059e+00) (5, -7.72360628384536251900e+00) (6, -1.25942512158178576698e+01) (7, -9.54714452395620405412e+00) (0, -7.78830507758336523239e+01) (1, -1.00681238160786662661e+02) (2, -3.15734912355339716328e+01) (3, 8.15025164583564816212e+01) (4, 3.55373712791767957242e+01) (5, 5.37278764293340529434e+01) (6, 4.59478655156276118987e+01) (7, 4.07501305844354888563e+01) (0, -2.84130772229095684978e+00) (1, -3.34162625961220882687e+00) (2, 5.41696562457098096388e+00) (3, -5.27775985538669889507e-01) (4, 9.99814434629664461340e+00) (5, -7.26969722311724009245e+00) (6, -1.46324462073065131307e+00) (7, -4.60240725552698304313e+00) (0, -1.23501673265685720793e+01) (1, 9.04078579369932278098e+00) (2, -4.68225348515373340774e+00) (3, 2.21630076697592883761e+01) (4, -9.25973604326668198183e-01) (5, -4.50524580269230767726e+00) (6, -8.63553684485480665955e+00) (7, 3.71326978445144062491e-01) (8, -1.38824146023852534881e+00) (9, 3.23578396426927517027e+00) (10, 3.16389481828864749247e+00) (11, 1.50843931772992534412e+00) (12, 2.50339331934610598296e+00) (13, -4.44002916255122581646e+00) (14, -2.77410117926719168580e+00) (15, -3.24589540046842373044e+00) (16, -5.35234785424683678912e+00) (17, -1.97881686411573309847e+00) (18, 1.84151987874202283102e+00) (19, 3.66782659309560443717e+00) (20, -9.21792729796136023346e-01) (21, 4.24584088679773330455e+00) (22, 4.84584839633122577141e+00) (23, 1.77709870406721065494e-01) (8, 1.07178070412309422998e+00) (9, -2.87924436603114131117e+00) (10, -3.01163581347161724011e+00) (11, -1.37549081045290666481e+00) (12, -2.56373229971805693950e+00) (13, 4.33006822664079482621e+00) (14, 2.56105181147137894726e+00) (15, 3.01463009303585671717e+00) (16, 5.39453691823373748804e+00) (17, 2.00815886317462055644e+00) (18, -1.72971890204562339655e+00) (19, -3.39353629246052701518e+00) (20, 1.02017242993069001677e+00) (21, -4.13609244932908648451e+00) (22, -4.63353910455395379131e+00) (23, 2.40382464660721284488e+00) 
