FANN_FLO_2.1
num_layers=3
learning_rate=0.700000
connection_rate=1.000000
network_type=0
learning_momentum=0.000000
training_algorithm=2
train_error_function=1
train_stop_function=0
cascade_output_change_fraction=0.010000
quickprop_decay=-0.000100
quickprop_mu=1.750000
rprop_increase_factor=1.200000
rprop_decrease_factor=0.500000
rprop_delta_min=0.000000
rprop_delta_max=50.000000
rprop_delta_zero=0.100000
cascade_output_stagnation_epochs=12
cascade_candidate_change_fraction=0.010000
cascade_candidate_stagnation_epochs=12
cascade_max_out_epochs=150
cascade_max_cand_epochs=150
cascade_num_candidate_groups=2
bit_fail_limit=3.49999999999999977796e-01
cascade_candidate_limit=1.00000000000000000000e+03
cascade_weight_multiplier=4.00000000000000022204e-01
cascade_activation_functions_count=10
cascade_activation_functions=3 5 7 8 10 11 14 15 16 17 
cascade_activation_steepnesses_count=4
cascade_activation_steepnesses=2.50000000000000000000e-01 5.00000000000000000000e-01 7.50000000000000000000e-01 1.00000000000000000000e+00 
layer_sizes=8 11 2 
scale_included=0
neurons (num_inputs, activation_function, activation_steepness)=(0, 0, 0.00000000000000000000e+00) (0, 0, 0.00000000000000000000e+00) (0, 0, 0.00000000000000000000e+00) (0, 0, 0.00000000000000000000e+00) (0, 0, 0.00000000000000000000e+00) (0, 0, 0.00000000000000000000e+00) (0, 0, 0.00000000000000000000e+00) (0, 0, 0.00000000000000000000e+00) (8, 4, 5.00000000000000000000e-01) (8, 4, 5.00000000000000000000e-01) (8, 4, 5.00000000000000000000e-01) (8, 4, 5.00000000000000000000e-01) (8, 4, 5.00000000000000000000e-01) (8, 4, 5.00000000000000000000e-01) (8, 4, 5.00000000000000000000e-01) (8, 4, 5.00000000000000000000e-01) (8, 4, 5.00000000000000000000e-01) (8, 4, 5.00000000000000000000e-01) (0, 0, 0.00000000000000000000e+00) (11, 6, 5.00000000000000000000e-01) (0, 6, 0.00000000000000000000e+00) 
connections (connected_to_neuron, weight)=(0, -7.54626007550621658027e+00) (1, 8.78549734201889620522e+00) (2, -4.54473715220415908078e+00) (3, 1.54928984299688377035e+00) (4, -3.37196982880967732754e+00) (5, 1.25241258993005111222e+00) (6, 1.95527907996086582898e+01) (7, -1.96289629275646362316e+01) (0, 4.51652003605516672025e+00) (1, -1.81976850174026978380e+01) (2, 6.79853950615966162729e+00) (3, 6.84445704957173806093e+00) (4, 6.93350838595533502939e+00) (5, -2.44711414928873915997e+00) (6, 1.41617381244763151926e+00) (7, -2.43318399661138151657e+00) (0, -4.49638834912396077925e+02) (1, 2.05833086285090232082e+01) (2, 3.84932749531204535742e+02) (3, 3.40999779185776361601e+01) (4, -1.50000000000000000000e+03) (5, -3.85858342182595436043e+02) (6, 2.60371272141658209875e+02) (7, -1.85793935786443796587e+02) (0, 3.92908015077278738314e-02) (1, 2.13600608620160699047e+01) (2, -3.26176168926004894644e+00) (3, -2.78171471134861825192e+01) (4, -5.15449737939497438788e+01) (5, 9.17586875324494144479e+01) (6, 4.48304757974608065751e+01) (7, 3.92458628360865660056e+01) (0, 7.87272149714066049597e+00) (1, 6.80846440546931308546e+00) (2, 2.02757737279521066398e+00) (3, -1.14809920040602797542e+01) (4, 2.92168102149359265596e+00) (5, -4.26616567001536273196e-01) (6, -1.21769230736613494059e+01) (7, 2.98518820594148415193e-01) (0, -6.12739120145818283447e+00) (1, -1.29937336624284127673e+00) (2, -1.75660451574928999641e+00) (3, -2.94842146207287525428e+00) (4, -1.95901252687416449483e+00) (5, 2.33210170180821974029e+00) (6, 8.10451052842847730062e+00) (7, 3.21236735959961716702e+00) (0, -1.03549578077315715063e+02) (1, -1.03969593372595880965e+00) (2, -1.04364268945915398490e+02) (3, 9.36346262564839659781e-01) (4, -1.41549062049790040874e+03) (5, -1.50000000000000000000e+03) (6, -1.40446246637149442904e+02) (7, 7.58041143054558972381e+01) (0, -1.64035330206968876787e+00) (1, 1.05920231238887243563e+01) (2, -5.52868486207275111610e+00) (3, 1.30984676739643024490e+00) (4, -7.28654626591979415196e+00) (5, 1.17892939638716698347e+00) (6, 5.56494264744712530124e-01) (7, -1.55415406783318754691e+00) (0, -1.82696922865626305565e+02) (1, 5.41023887112198593741e+01) (2, 4.41898350182567227762e+01) (3, -3.72200923529352678543e+01) (4, 9.11586966268554590442e+01) (5, -1.41025721391717496545e+02) (6, -1.21163830224848467765e+01) (7, 4.53379981336447315243e+01) (0, -4.99217340363197408237e+01) (1, 1.36636555468763987164e+01) (2, 8.37571500839665539218e+00) (3, -6.63129312060244124893e+00) (4, 1.47660970190836220439e+01) (5, 2.74503608255804731897e+00) (6, 1.66759251258387251937e+02) (7, -7.20102731757750813557e+00) (8, -2.02655112066519578207e+01) (9, 4.74423957476253832510e+00) (10, -3.30472736806177547209e+00) (11, -3.02598699227995560079e+00) (12, 4.81678412210550188632e+00) (13, 4.74842969500986455955e+00) (14, -1.86657937815696350903e+00) (15, 7.55140162484453458802e+00) (16, 1.53030468193203739169e+00) (17, -2.16933576504961678211e+00) (18, -3.75916209101880616217e+00) 
