FANN_FLO_2.1
num_layers=3
learning_rate=0.700000
connection_rate=1.000000
network_type=0
learning_momentum=0.000000
training_algorithm=2
train_error_function=1
train_stop_function=0
cascade_output_change_fraction=0.010000
quickprop_decay=-0.000100
quickprop_mu=1.750000
rprop_increase_factor=1.200000
rprop_decrease_factor=0.500000
rprop_delta_min=0.000000
rprop_delta_max=50.000000
rprop_delta_zero=0.100000
cascade_output_stagnation_epochs=12
cascade_candidate_change_fraction=0.010000
cascade_candidate_stagnation_epochs=12
cascade_max_out_epochs=150
cascade_max_cand_epochs=150
cascade_num_candidate_groups=2
bit_fail_limit=3.49999999999999977796e-01
cascade_candidate_limit=1.00000000000000000000e+03
cascade_weight_multiplier=4.00000000000000022204e-01
cascade_activation_functions_count=10
cascade_activation_functions=3 5 7 8 10 11 14 15 16 17 
cascade_activation_steepnesses_count=4
cascade_activation_steepnesses=2.50000000000000000000e-01 5.00000000000000000000e-01 7.50000000000000000000e-01 1.00000000000000000000e+00 
layer_sizes=8 8 2 
scale_included=0
neurons (num_inputs, activation_function, activation_steepness)=(0, 0, 0.00000000000000000000e+00) (0, 0, 0.00000000000000000000e+00) (0, 0, 0.00000000000000000000e+00) (0, 0, 0.00000000000000000000e+00) (0, 0, 0.00000000000000000000e+00) (0, 0, 0.00000000000000000000e+00) (0, 0, 0.00000000000000000000e+00) (0, 0, 0.00000000000000000000e+00) (8, 4, 5.00000000000000000000e-01) (8, 4, 5.00000000000000000000e-01) (8, 4, 5.00000000000000000000e-01) (8, 4, 5.00000000000000000000e-01) (8, 4, 5.00000000000000000000e-01) (8, 4, 5.00000000000000000000e-01) (8, 4, 5.00000000000000000000e-01) (0, 0, 0.00000000000000000000e+00) (8, 6, 5.00000000000000000000e-01) (0, 6, 0.00000000000000000000e+00) 
connections (connected_to_neuron, weight)=(0, 1.07338928217204738758e+02) (1, -2.94439803234696682921e+02) (2, 2.69651735423566378813e+02) (3, -1.77102147005028342619e+02) (4, -2.10925206063087280484e+01) (5, 3.96337225398397663412e+01) (6, -5.63081008374115228321e+01) (7, 2.45861455348688693334e+01) (0, -1.88822111263733404485e+02) (1, -3.98945989421512692275e+01) (2, -2.44950504754777057315e+02) (3, 1.74208546176588413346e+02) (4, 1.17037235339194054973e+02) (5, -5.93457515783819431476e+01) (6, 1.94419470780941821886e+02) (7, -4.96370520174836826754e+01) (0, 9.05257815671039089978e+00) (1, 8.22085615483163110184e+01) (2, -2.12815937380316055894e+00) (3, -7.77574933616970582761e+01) (4, 5.37011386826876435663e+00) (5, -5.20386900025509291368e+00) (6, -5.98641170247768741319e+01) (7, 2.00574239115054737681e+01) (0, -3.41529878416071071001e+01) (1, 5.23974266642629586954e+01) (2, -8.05700065850879099116e+00) (3, -8.32442608972452404714e+01) (4, -8.90223279425228639639e+01) (5, -5.37671059177686530006e+01) (6, 6.36796063991001730642e+01) (7, -5.01311023677194000925e+00) (0, 1.27715292952315712682e+03) (1, -7.48480897282753687705e+01) (2, -1.47892654772239961858e+03) (3, 9.49273228310326658175e+02) (4, -1.27004861891919972550e+03) (5, 3.30465868295630912144e+02) (6, -6.03741035592887214989e+02) (7, 1.01890800753954636093e+02) (0, 7.59477907859694454373e+01) (1, -1.53660647416610856908e+02) (2, 1.78012969642319063723e+02) (3, 1.19698601117222963808e+02) (4, -2.25011085680763329719e+02) (5, -2.51031993220492068986e+02) (6, -3.00763214610194395959e+01) (7, -7.86045576441387083833e+01) (0, -1.07736078651645073023e+02) (1, -3.55537999082999078837e+02) (2, 1.87385772492710202641e+02) (3, -6.73408583550040162891e+01) (4, -1.82229732738940555237e+01) (5, 4.44131027100728275059e+01) (6, 1.40430589311833273314e+02) (7, -6.61479295785297161103e+00) (8, 1.71676355059103302736e+00) (9, 1.98282678720306093645e+00) (10, 1.02646896796688746889e+00) (11, -1.38757258449916620613e+00) (12, 2.33122092054356588875e+00) (13, 1.04019626128551423427e+00) (14, -1.36870977237951230165e+00) (15, -6.31980869519676469181e-01) 
