FANN_FLO_2.1
num_layers=3
learning_rate=0.700000
connection_rate=1.000000
network_type=0
learning_momentum=0.000000
training_algorithm=2
train_error_function=1
train_stop_function=0
cascade_output_change_fraction=0.010000
quickprop_decay=-0.000100
quickprop_mu=1.750000
rprop_increase_factor=1.200000
rprop_decrease_factor=0.500000
rprop_delta_min=0.000000
rprop_delta_max=50.000000
rprop_delta_zero=0.100000
cascade_output_stagnation_epochs=12
cascade_candidate_change_fraction=0.010000
cascade_candidate_stagnation_epochs=12
cascade_max_out_epochs=150
cascade_max_cand_epochs=150
cascade_num_candidate_groups=2
bit_fail_limit=3.49999999999999977796e-01
cascade_candidate_limit=1.00000000000000000000e+03
cascade_weight_multiplier=4.00000000000000022204e-01
cascade_activation_functions_count=10
cascade_activation_functions=3 5 7 8 10 11 14 15 16 17 
cascade_activation_steepnesses_count=4
cascade_activation_steepnesses=2.50000000000000000000e-01 5.00000000000000000000e-01 7.50000000000000000000e-01 1.00000000000000000000e+00 
layer_sizes=8 9 3 
scale_included=0
neurons (num_inputs, activation_function, activation_steepness)=(0, 0, 0.00000000000000000000e+00) (0, 0, 0.00000000000000000000e+00) (0, 0, 0.00000000000000000000e+00) (0, 0, 0.00000000000000000000e+00) (0, 0, 0.00000000000000000000e+00) (0, 0, 0.00000000000000000000e+00) (0, 0, 0.00000000000000000000e+00) (0, 0, 0.00000000000000000000e+00) (8, 4, 5.00000000000000000000e-01) (8, 4, 5.00000000000000000000e-01) (8, 4, 5.00000000000000000000e-01) (8, 4, 5.00000000000000000000e-01) (8, 4, 5.00000000000000000000e-01) (8, 4, 5.00000000000000000000e-01) (8, 4, 5.00000000000000000000e-01) (8, 4, 5.00000000000000000000e-01) (0, 0, 0.00000000000000000000e+00) (9, 6, 5.00000000000000000000e-01) (9, 6, 5.00000000000000000000e-01) (0, 6, 0.00000000000000000000e+00) 
connections (connected_to_neuron, weight)=(0, 4.67545846918393959157e-01) (1, -6.16584971062599418445e+00) (2, 8.85067272902738011453e-01) (3, 2.28577001624642139888e+00) (4, 3.81682128727234770693e+00) (5, -2.19677818466800844899e-01) (6, 7.69044039910963150852e-01) (7, -1.83006484606669128645e+00) (0, -9.76423237449987091452e+00) (1, -4.48705700038353469949e+01) (2, 5.84826818192194792800e+01) (3, -2.42821483262400406034e+01) (4, 2.91747665710448274012e+01) (5, -8.96822590524118368194e+00) (6, -1.87317401450677394337e+01) (7, 3.40263262245296473907e+01) (0, -1.50000000000000000000e+03) (1, 6.49813311589760331799e+01) (2, 4.00070674161625731813e+02) (3, -1.23168263860256359976e+02) (4, 1.32711657839360498201e+02) (5, -1.18237771999170917070e+02) (6, -1.50000000000000000000e+03) (7, 1.17020736385507824195e+01) (0, 1.19907615906409333206e+02) (1, -7.01284485913948998359e+01) (2, -1.65749136730752049118e+01) (3, -2.98175840489845001002e+01) (4, -3.57931094165350884850e+01) (5, 1.13112857475208876679e+01) (6, -5.80408359273861691463e+01) (7, 2.31314354240004362850e+01) (0, 7.20641056557083885536e+01) (1, -3.42212860215727232571e+01) (2, -1.01744314744954316154e+01) (3, -8.83304974745657602853e+01) (4, 1.61278374479478998182e+02) (5, 3.81834513954831891169e+01) (6, -3.34922748678788479992e+01) (7, 5.69777946927953493628e+01) (0, 1.04710578595199184093e+01) (1, -2.53869193621899320590e+01) (2, 2.06899093696379026142e+01) (3, -1.13431854891753118864e+01) (4, 8.39391681160277869367e+00) (5, -1.94614798009268641366e+00) (6, -2.31710487242618050630e+01) (7, 2.61741207620539171330e+01) (0, 5.34086930008889225974e+02) (1, 9.73380420946850577479e+00) (2, 6.69705066181877214149e+02) (3, -1.22940884610881539629e+02) (4, -3.72431424966705662882e+02) (5, 3.00589396907356729116e+02) (6, -4.45674597635427915066e+02) (7, -4.96327331080013252063e+01) (0, 2.00687955605391934455e+01) (1, 6.03083554460582604406e+02) (2, -2.30911918305355754910e+02) (3, 6.92217274538056557276e+01) (4, -5.84789570479318058460e+02) (5, 6.53555451277724586134e+01) (6, -1.23210824184885169075e+02) (7, 1.91501875359092679219e+02) (8, -3.14342346017176810236e+00) (9, -2.62489756654349148945e+00) (10, 2.18520515523556868587e+00) (11, 3.95420400806596372689e+00) (12, 1.70675898980962759133e+00) (13, 4.66557635541589554862e+00) (14, -1.40023721204832063414e+00) (15, -1.61065083545866016834e+00) (16, 1.15565513727143964751e+00) (8, 3.10810995677810186777e+00) (9, 2.63286659511800902322e+00) (10, -1.31380851627579553487e+00) (11, -2.16818934488756731582e+00) (12, -1.89379249785810577222e+00) (13, -5.14571667167372748253e+00) (14, 1.04535342009125997720e+00) (15, 1.46042507732971738044e+00) (16, 2.39734947209075066610e+00) 
