FANN_FLO_2.1
num_layers=3
learning_rate=0.700000
connection_rate=1.000000
network_type=0
learning_momentum=0.000000
training_algorithm=2
train_error_function=1
train_stop_function=0
cascade_output_change_fraction=0.010000
quickprop_decay=-0.000100
quickprop_mu=1.750000
rprop_increase_factor=1.200000
rprop_decrease_factor=0.500000
rprop_delta_min=0.000000
rprop_delta_max=50.000000
rprop_delta_zero=0.100000
cascade_output_stagnation_epochs=12
cascade_candidate_change_fraction=0.010000
cascade_candidate_stagnation_epochs=12
cascade_max_out_epochs=150
cascade_max_cand_epochs=150
cascade_num_candidate_groups=2
bit_fail_limit=3.49999999999999977796e-01
cascade_candidate_limit=1.00000000000000000000e+03
cascade_weight_multiplier=4.00000000000000022204e-01
cascade_activation_functions_count=10
cascade_activation_functions=3 5 7 8 10 11 14 15 16 17 
cascade_activation_steepnesses_count=4
cascade_activation_steepnesses=2.50000000000000000000e-01 5.00000000000000000000e-01 7.50000000000000000000e-01 1.00000000000000000000e+00 
layer_sizes=8 10 2 
scale_included=0
neurons (num_inputs, activation_function, activation_steepness)=(0, 0, 0.00000000000000000000e+00) (0, 0, 0.00000000000000000000e+00) (0, 0, 0.00000000000000000000e+00) (0, 0, 0.00000000000000000000e+00) (0, 0, 0.00000000000000000000e+00) (0, 0, 0.00000000000000000000e+00) (0, 0, 0.00000000000000000000e+00) (0, 0, 0.00000000000000000000e+00) (8, 4, 5.00000000000000000000e-01) (8, 4, 5.00000000000000000000e-01) (8, 4, 5.00000000000000000000e-01) (8, 4, 5.00000000000000000000e-01) (8, 4, 5.00000000000000000000e-01) (8, 4, 5.00000000000000000000e-01) (8, 4, 5.00000000000000000000e-01) (8, 4, 5.00000000000000000000e-01) (8, 4, 5.00000000000000000000e-01) (0, 0, 0.00000000000000000000e+00) (10, 6, 5.00000000000000000000e-01) (0, 6, 0.00000000000000000000e+00) 
connections (connected_to_neuron, weight)=(0, 1.74780618975056150077e+01) (1, -1.79771435093970239905e+01) (2, 4.27009139750240951372e+00) (3, -5.16885915685728676294e+01) (4, 3.18415092816703477752e+01) (5, -3.21998447475693438946e+01) (6, 1.08427423856310269912e+01) (7, 4.83963272517719111931e+00) (0, 2.98253147156658258154e+02) (1, -1.60326088481065994529e+02) (2, 1.14803417124013208195e+03) (3, 5.69462462779238478561e+01) (4, -2.94114710714309524064e+02) (5, -7.23514277614629541802e+00) (6, -1.50000000000000000000e+03) (7, -2.59004058821987882766e+02) (0, 2.84308820986065857728e-01) (1, 9.86010545743457988976e+00) (2, 1.94265114320287892724e+01) (3, -3.06505373755274277414e+01) (4, -1.91205991499090366403e+01) (5, 4.06756641782515160344e+00) (6, 3.95511911536538240952e+00) (7, 1.10709653803215402057e+00) (0, 8.47728990770730916893e+00) (1, 8.27460736581205047457e+00) (2, 5.92711158082344979903e+01) (3, -7.63424961903976679878e+01) (4, -2.72045380114679886674e+01) (5, 4.24375354401245807878e+00) (6, -7.59099927674818597545e-01) (7, 4.14885000124049252435e+00) (0, -1.57104317896128220511e+00) (1, -1.78433048172585873026e+00) (2, 9.75582577345850765482e+00) (3, 6.13854409248693411172e+00) (4, 3.24965994199451735369e+00) (5, -2.00723544406680609598e+01) (6, 1.86398151649778887062e+00) (7, -8.95206660632763373542e+00) (0, -6.62249130828489818157e+00) (1, 8.60553230104258126687e+00) (2, 4.56690268208276073381e+00) (3, 1.48180557762164841762e+01) (4, 5.60166705294428135531e-01) (5, -2.98588271995132323866e+01) (6, -3.60559546558126253757e+00) (7, -9.92493122760255985781e+00) (0, -1.11323419057769410756e+03) (1, -3.54518746459011993011e+02) (2, -5.24154750029060551242e+02) (3, -8.00720511752780339521e+01) (4, 1.42132170071495352204e+03) (5, 5.70842559966555313622e+02) (6, 1.47727182114957008707e+03) (7, -1.37927754042253263833e+03) (0, -1.35191576475955255177e+01) (1, -1.44509576377432513716e+00) (2, 1.91933054524109110162e+01) (3, 3.51180975827854240379e+01) (4, -1.46909899584101744097e+01) (5, -3.02425929036161527108e+01) (6, 8.97376284838371773844e+00) (7, -2.08273166394510589328e+01) (0, -1.70411566956113460947e+02) (1, 3.13674352176728461927e+02) (2, -3.12526327299165359364e+02) (3, -2.91312805679922121271e+02) (4, -1.50000000000000000000e+03) (5, -1.50000000000000000000e+03) (6, -2.08111401717790386101e+02) (7, 6.70587533561638906576e+02) (8, 2.46518883985295600425e+00) (9, 2.40373278159482683947e+00) (10, -1.14700866019471465762e+01) (11, 1.10276790663378125856e+01) (12, -2.25537043053551897742e+01) (13, 1.34539581893858972705e+01) (14, 3.89651747102174650372e-01) (15, 7.84819965994770818440e+00) (16, -1.71653489627767474879e+00) (17, -6.83094264314637183988e-02) 
