FANN_FLO_2.1
num_layers=3
learning_rate=0.700000
connection_rate=1.000000
network_type=0
learning_momentum=0.000000
training_algorithm=2
train_error_function=1
train_stop_function=0
cascade_output_change_fraction=0.010000
quickprop_decay=-0.000100
quickprop_mu=1.750000
rprop_increase_factor=1.200000
rprop_decrease_factor=0.500000
rprop_delta_min=0.000000
rprop_delta_max=50.000000
rprop_delta_zero=0.100000
cascade_output_stagnation_epochs=12
cascade_candidate_change_fraction=0.010000
cascade_candidate_stagnation_epochs=12
cascade_max_out_epochs=150
cascade_max_cand_epochs=150
cascade_num_candidate_groups=2
bit_fail_limit=3.49999999999999977796e-01
cascade_candidate_limit=1.00000000000000000000e+03
cascade_weight_multiplier=4.00000000000000022204e-01
cascade_activation_functions_count=10
cascade_activation_functions=3 5 7 8 10 11 14 15 16 17 
cascade_activation_steepnesses_count=4
cascade_activation_steepnesses=2.50000000000000000000e-01 5.00000000000000000000e-01 7.50000000000000000000e-01 1.00000000000000000000e+00 
layer_sizes=8 9 2 
scale_included=0
neurons (num_inputs, activation_function, activation_steepness)=(0, 0, 0.00000000000000000000e+00) (0, 0, 0.00000000000000000000e+00) (0, 0, 0.00000000000000000000e+00) (0, 0, 0.00000000000000000000e+00) (0, 0, 0.00000000000000000000e+00) (0, 0, 0.00000000000000000000e+00) (0, 0, 0.00000000000000000000e+00) (0, 0, 0.00000000000000000000e+00) (8, 4, 5.00000000000000000000e-01) (8, 4, 5.00000000000000000000e-01) (8, 4, 5.00000000000000000000e-01) (8, 4, 5.00000000000000000000e-01) (8, 4, 5.00000000000000000000e-01) (8, 4, 5.00000000000000000000e-01) (8, 4, 5.00000000000000000000e-01) (8, 4, 5.00000000000000000000e-01) (0, 0, 0.00000000000000000000e+00) (9, 6, 5.00000000000000000000e-01) (0, 6, 0.00000000000000000000e+00) 
connections (connected_to_neuron, weight)=(0, 1.48885000933368388587e+02) (1, -6.90097692419214325810e+01) (2, -5.51631349452784149889e+01) (3, 1.56081991671344638917e+02) (4, 4.55769403336671416582e+02) (5, -1.45902387414753548001e+02) (6, -1.76840198483570731014e+02) (7, -8.44404649613528590635e+01) (0, 1.50000000000000000000e+03) (1, 1.12566037303467487618e+03) (2, -1.50000000000000000000e+03) (3, -1.50000000000000000000e+03) (4, -1.50000000000000000000e+03) (5, -1.50000000000000000000e+03) (6, -1.50000000000000000000e+03) (7, 2.34678027456840396781e+01) (0, 1.53975616724091025844e+02) (1, -3.69961616553357046655e+01) (2, 1.34559795108513213791e+02) (3, -2.10703814678116685855e+02) (4, 4.84939504302273647340e+01) (5, -5.55844761192982232956e+01) (6, 9.31201916157403672969e+01) (7, -9.74505538061623610702e+00) (0, 1.66660545093405431771e+02) (1, -4.30256510003274399878e+02) (2, -1.60344204202242906376e+02) (3, 1.73415759450942545072e+02) (4, -3.26721390554457457256e+02) (5, 3.50579266983703575988e+02) (6, -6.10383447326482041717e+02) (7, 2.01232340621129509373e+02) (0, 1.50000000000000000000e+03) (1, 1.12566037303467487618e+03) (2, -1.50000000000000000000e+03) (3, -1.50000000000000000000e+03) (4, -1.50000000000000000000e+03) (5, -1.50000000000000000000e+03) (6, -1.50000000000000000000e+03) (7, 2.10162426231716104041e+01) (0, 2.08538241764034637526e+02) (1, -2.50272420440343523751e+01) (2, 6.97674750999945786134e+02) (3, -9.47792417088763045285e+02) (4, -6.49250831168387207981e+02) (5, -1.50000000000000000000e+03) (6, -2.37268967369678733803e+02) (7, 5.29894822381720700832e+02) (0, -1.22737168523622877103e+01) (1, 1.25393334356514376537e+01) (2, 5.02916002061182609850e+01) (3, -4.17610427923606764011e+01) (4, -4.13784330222447422898e+01) (5, 2.46356011591865744492e+01) (6, -2.81860385866090690232e-01) (7, 2.28949147794713692150e+00) (0, 1.50000000000000000000e+03) (1, 1.12566037303467487618e+03) (2, -1.50000000000000000000e+03) (3, -1.50000000000000000000e+03) (4, -1.50000000000000000000e+03) (5, -1.50000000000000000000e+03) (6, -1.50000000000000000000e+03) (7, 3.42921593896111460253e+02) (8, 1.42184359787833014543e+00) (9, 1.50000000000000000000e+03) (10, -2.11436237215665467915e+00) (11, -1.57691873090994949536e+00) (12, 1.50000000000000000000e+03) (13, 6.86266569481182142631e-01) (14, 1.32637546596082667172e+00) (15, 1.50000000000000000000e+03) (16, 1.41277353771086716661e-01) 
