FANN_FLO_2.1
num_layers=3
learning_rate=0.700000
connection_rate=1.000000
network_type=0
learning_momentum=0.000000
training_algorithm=2
train_error_function=1
train_stop_function=0
cascade_output_change_fraction=0.010000
quickprop_decay=-0.000100
quickprop_mu=1.750000
rprop_increase_factor=1.200000
rprop_decrease_factor=0.500000
rprop_delta_min=0.000000
rprop_delta_max=50.000000
rprop_delta_zero=0.100000
cascade_output_stagnation_epochs=12
cascade_candidate_change_fraction=0.010000
cascade_candidate_stagnation_epochs=12
cascade_max_out_epochs=150
cascade_max_cand_epochs=150
cascade_num_candidate_groups=2
bit_fail_limit=3.49999999999999977796e-01
cascade_candidate_limit=1.00000000000000000000e+03
cascade_weight_multiplier=4.00000000000000022204e-01
cascade_activation_functions_count=10
cascade_activation_functions=3 5 7 8 10 11 14 15 16 17 
cascade_activation_steepnesses_count=4
cascade_activation_steepnesses=2.50000000000000000000e-01 5.00000000000000000000e-01 7.50000000000000000000e-01 1.00000000000000000000e+00 
layer_sizes=8 16 2 
scale_included=0
neurons (num_inputs, activation_function, activation_steepness)=(0, 0, 0.00000000000000000000e+00) (0, 0, 0.00000000000000000000e+00) (0, 0, 0.00000000000000000000e+00) (0, 0, 0.00000000000000000000e+00) (0, 0, 0.00000000000000000000e+00) (0, 0, 0.00000000000000000000e+00) (0, 0, 0.00000000000000000000e+00) (0, 0, 0.00000000000000000000e+00) (8, 4, 5.00000000000000000000e-01) (8, 4, 5.00000000000000000000e-01) (8, 4, 5.00000000000000000000e-01) (8, 4, 5.00000000000000000000e-01) (8, 4, 5.00000000000000000000e-01) (8, 4, 5.00000000000000000000e-01) (8, 4, 5.00000000000000000000e-01) (8, 4, 5.00000000000000000000e-01) (8, 4, 5.00000000000000000000e-01) (8, 4, 5.00000000000000000000e-01) (8, 4, 5.00000000000000000000e-01) (8, 4, 5.00000000000000000000e-01) (8, 4, 5.00000000000000000000e-01) (8, 4, 5.00000000000000000000e-01) (8, 4, 5.00000000000000000000e-01) (0, 0, 0.00000000000000000000e+00) (16, 6, 5.00000000000000000000e-01) (0, 6, 0.00000000000000000000e+00) 
connections (connected_to_neuron, weight)=(0, -4.10524687671946594492e+02) (1, 3.93088426031226632062e+01) (2, -1.72160058366356906845e+02) (3, -3.61432431022396315257e+02) (4, -2.29754291854973274667e+02) (5, 3.24359889405472245016e+02) (6, 3.09208893920314835668e+02) (7, -1.23281616951669263926e+01) (0, 3.72620798487585673797e+01) (1, -1.03463009620088564589e+03) (2, -3.49989089219965023858e+02) (3, 1.17293678508193011112e+02) (4, 1.50000000000000000000e+03) (5, 2.55076435484402480824e+02) (6, -6.53449342114274713822e+02) (7, 1.29019548463955885609e+02) (0, -4.02617911643361736651e+01) (1, 1.99460801976341173258e+01) (2, -3.48012012242415522678e+01) (3, -3.20557230043898684357e+01) (4, 5.72742639788655978350e+01) (5, 6.06346500711942137940e+00) (6, -4.91186057984682900024e-01) (7, 1.59603841979593354949e+01) (0, 1.28008171994411100059e+02) (1, 1.50000000000000000000e+03) (2, -8.47964905292549673277e+01) (3, -4.43565358475635548530e+02) (4, -1.03069425513874648459e+02) (5, -1.16718978102400956232e+03) (6, 9.73037356896774895176e+02) (7, -1.47258897265553537181e+03) (0, 1.14132435427526406357e+01) (1, 3.15495367264408841379e+01) (2, 5.01190037891019173344e+01) (3, -4.08078765071584328439e+01) (4, 9.56572683999488049267e+00) (5, 3.52723989788094840492e+01) (6, -1.46620427699719257930e+01) (7, -1.58756543346571010744e+01) (0, -6.52740802557760417812e+01) (1, 8.28619839731408447392e+00) (2, -2.52628613698530521958e+01) (3, 3.40747966095286658472e+00) (4, 9.28156233286584431141e+00) (5, -9.77853304769917031081e+00) (6, 1.67255684806423481348e+01) (7, 9.15702786192638207297e+00) (0, -1.33903527918136319386e+03) (1, -1.50000000000000000000e+03) (2, -1.50000000000000000000e+03) (3, -7.41599725025470775108e+02) (4, 5.75770264599400007910e+01) (5, 7.82379135512221978388e+02) (6, 4.57421885836508351986e+02) (7, 1.30195045617108212355e+03) (0, 4.71459525819496079180e+01) (1, -1.37551252683034726942e+03) (2, -2.74005918090172485790e+02) (3, -5.13664138987157002703e+02) (4, 1.01672724374362942967e+02) (5, -1.50000000000000000000e+03) (6, -1.70462691344555082651e+02) (7, 1.00821757348883897976e+03) (0, -6.16332632629598293761e+01) (1, 6.18301386693359376068e+01) (2, 6.75522400439139314443e+00) (3, -4.04870772450636629003e+00) (4, -8.36912050292819742481e+00) (5, 2.69962449973994322860e-01) (6, 3.07050418858173941317e+01) (7, -8.45833509566457664164e+00) (0, -1.50000000000000000000e+03) (1, -1.38700045440411281561e+03) (2, -1.30782373927799631019e+03) (3, 7.95394576284701543045e+02) (4, 6.13211224553790998471e+02) (5, 3.52154888277779036798e+02) (6, -1.50000000000000000000e+03) (7, 2.81836937194454947075e+02) (0, 6.47203177531292936919e+01) (1, -9.90619798274417178163e+01) (2, 2.27075199777113823529e+02) (3, 1.11836470269238034803e+02) (4, 8.18711359926353310357e+01) (5, -7.83104271589685652089e+01) (6, -5.70254416737954485939e+01) (7, -5.11074884884018132425e+01) (0, -1.67661282121536515888e+02) (1, 5.41126925283991155879e+01) (2, -2.98840071842813756575e+02) (3, -1.40695714646756584898e+02) (4, 6.41662848142705570353e+02) (5, -1.50000000000000000000e+03) (6, 7.49933362182839857724e+01) (7, -4.83798773874673599948e+01) (0, -5.90965702893916073890e+01) (1, -1.54403369135478936158e+01) (2, 1.92540269592037134316e+01) (3, -2.88220914846651083963e+01) (4, 3.55897957975270315956e+01) (5, 4.36091261072627318640e+01) (6, 4.37679313121521076368e+01) (7, 3.28642482425960347214e+00) (0, -1.50000000000000000000e+03) (1, -1.50000000000000000000e+03) (2, -1.50000000000000000000e+03) (3, -1.44494396427280321404e+03) (4, 1.22209243830885247917e+03) (5, 1.50000000000000000000e+03) (6, -1.50000000000000000000e+03) (7, -5.95890638532588127418e+02) (0, -1.54746100180006948221e+02) (1, 7.18949483374229600940e+01) (2, 9.38614859862433981164e+00) (3, 9.38074751863638880423e+01) (4, -1.28009215732993737902e+02) (5, -1.48600573149045317445e-01) (6, 3.77797222325724249004e+01) (7, -1.13457850962741222389e+01) (8, -1.13244315002153062011e+00) (9, 4.08492708014400296435e+00) (10, -3.96130387884195744874e+00) (11, -2.83683189850890604689e+00) (12, 3.86617453826759982505e+00) (13, -2.36400402569988266066e+00) (14, 2.09221594044821657121e+00) (15, 5.51320702397900586078e+00) (16, 2.32866898376249364944e+00) (17, 1.41330965534389352278e+00) (18, 2.48510585641397074852e+00) (19, -3.60635323700622922871e+00) (20, -2.95138576989200673850e+00) (21, 8.65695035181217487086e-01) (22, -3.11240659045644640912e+00) (23, -5.65298409436632631753e+00) 
