FANN_FLO_2.1
num_layers=4
learning_rate=0.700000
connection_rate=1.000000
network_type=0
learning_momentum=0.000000
training_algorithm=2
train_error_function=1
train_stop_function=0
cascade_output_change_fraction=0.010000
quickprop_decay=-0.000100
quickprop_mu=1.750000
rprop_increase_factor=1.200000
rprop_decrease_factor=0.500000
rprop_delta_min=0.000000
rprop_delta_max=50.000000
rprop_delta_zero=0.100000
cascade_output_stagnation_epochs=12
cascade_candidate_change_fraction=0.010000
cascade_candidate_stagnation_epochs=12
cascade_max_out_epochs=150
cascade_max_cand_epochs=150
cascade_num_candidate_groups=2
bit_fail_limit=3.49999999999999977796e-01
cascade_candidate_limit=1.00000000000000000000e+03
cascade_weight_multiplier=4.00000000000000022204e-01
cascade_activation_functions_count=10
cascade_activation_functions=3 5 7 8 10 11 14 15 16 17 
cascade_activation_steepnesses_count=4
cascade_activation_steepnesses=2.50000000000000000000e-01 5.00000000000000000000e-01 7.50000000000000000000e-01 1.00000000000000000000e+00 
layer_sizes=8 9 9 2 
scale_included=0
neurons (num_inputs, activation_function, activation_steepness)=(0, 0, 0.00000000000000000000e+00) (0, 0, 0.00000000000000000000e+00) (0, 0, 0.00000000000000000000e+00) (0, 0, 0.00000000000000000000e+00) (0, 0, 0.00000000000000000000e+00) (0, 0, 0.00000000000000000000e+00) (0, 0, 0.00000000000000000000e+00) (0, 0, 0.00000000000000000000e+00) (8, 4, 5.00000000000000000000e-01) (8, 4, 5.00000000000000000000e-01) (8, 4, 5.00000000000000000000e-01) (8, 4, 5.00000000000000000000e-01) (8, 4, 5.00000000000000000000e-01) (8, 4, 5.00000000000000000000e-01) (8, 4, 5.00000000000000000000e-01) (8, 4, 5.00000000000000000000e-01) (0, 0, 0.00000000000000000000e+00) (9, 4, 5.00000000000000000000e-01) (9, 4, 5.00000000000000000000e-01) (9, 4, 5.00000000000000000000e-01) (9, 4, 5.00000000000000000000e-01) (9, 4, 5.00000000000000000000e-01) (9, 4, 5.00000000000000000000e-01) (9, 4, 5.00000000000000000000e-01) (9, 4, 5.00000000000000000000e-01) (0, 0, 0.00000000000000000000e+00) (9, 6, 5.00000000000000000000e-01) (0, 6, 0.00000000000000000000e+00) 
connections (connected_to_neuron, weight)=(0, -4.73925517055399950550e+02) (1, -8.12283640887588603618e+02) (2, 1.06760737333229872092e+03) (3, 1.36225100333477917047e+03) (4, 1.49124241511096602153e+03) (5, -6.97166262063305595120e+01) (6, -1.18911760592438190542e+03) (7, -6.08002221508436591080e+01) (0, 1.07166784222586420583e+03) (1, -1.07740073751230283960e+03) (2, 1.48190609222904981834e+03) (3, -1.40368158672060849312e+03) (4, 1.47430082584817296265e+03) (5, 4.13883480155563972858e+02) (6, 9.05092456804899143208e+02) (7, -1.41886611126492130097e+03) (0, 1.08773233746749519923e+03) (1, -1.24182817365749929195e+03) (2, -1.27019954709341573107e+03) (3, -1.31462807490824644674e+02) (4, 8.63436032795091591652e+02) (5, 5.53667127712935212003e+02) (6, 5.38591304091908796181e+02) (7, 4.63430425701264596228e+02) (0, 4.12127485841102014774e+01) (1, -1.01813988804145338918e+02) (2, 1.86631300935698050125e+01) (3, 1.71723143747047146235e+02) (4, -6.52164406403990994932e+01) (5, -2.60236647954959749995e+01) (6, -9.42744364941702883698e+01) (7, 5.52843419784368634851e+01) (0, -2.97523554616209082724e+02) (1, 1.56512126385056973277e+01) (2, -3.45170429007213897421e+02) (3, -5.62439095348001387720e+02) (4, 9.49391708403611858103e+01) (5, 1.49097881990560699705e+03) (6, -3.76389984570471938241e+02) (7, 9.39913333835051600929e-01) (0, 1.37118463675628731835e+03) (1, 1.25517659552050713501e+03) (2, 1.50000000000000000000e+03) (3, -1.97520331440738630135e+02) (4, -1.34010628001888176186e+03) (5, -1.50000000000000000000e+03) (6, 1.30375762535498722627e+02) (7, 4.60735203278312098973e+02) (0, 4.52423630517826666164e+02) (1, -9.49863844324790306928e+02) (2, -9.44720679960848542578e+02) (3, 1.49721696404947692827e+03) (4, 1.16176293213528674642e+03) (5, -1.48942279634655028531e+03) (6, 1.49956178611374753018e+03) (7, -4.02105192542529835009e+02) (0, 9.69490171719322916033e+02) (1, -1.48766255619910043606e+03) (2, 1.48717604715253014547e+03) (3, 1.18577901952016486575e+03) (4, 2.08995144076199217409e+01) (5, 1.46257350459126587339e+03) (6, -1.10085453622374620863e+03) (7, 1.57973950367531102756e+02) (8, 1.50000000000000000000e+03) (9, 1.50000000000000000000e+03) (10, 1.37366889030855440978e+03) (11, 1.50000000000000000000e+03) (12, -1.50000000000000000000e+03) (13, 1.50000000000000000000e+03) (14, 1.50000000000000000000e+03) (15, 7.86135952302309419792e+01) (16, 5.35717354221650566615e+02) (8, -1.43223434077133742903e+03) (9, 1.47765602981845199793e+03) (10, -5.75214590046311855076e+02) (11, 1.47377414179459310617e+03) (12, -1.20371286831121301475e+03) (13, 1.49095417125541644054e+03) (14, -1.31824073333243472916e+03) (15, 7.55407202980635247513e+02) (16, -5.09498296817427899441e+02) (8, 3.89427575119060378483e+01) (9, 9.51884504196621264782e+02) (10, -8.21795530261054665289e+01) (11, 4.43777471532786194075e+01) (12, 1.50000000000000000000e+03) (13, 1.09552913532376101102e+03) (14, -8.31712193912802149498e+02) (15, 2.49735665369282799020e+02) (16, -1.42345329010225964339e+03) (8, 5.49657061030325394313e+02) (9, 1.50000000000000000000e+03) (10, 1.49452301291017079166e+03) (11, -1.22295708160024531708e+02) (12, -1.49697648047910183777e+03) (13, 1.50000000000000000000e+03) (14, 1.50000000000000000000e+03) (15, 6.98428417980415702004e+02) (16, -1.12432512797587310160e+03) (8, -1.39166854961549529435e+03) (9, 1.35129595354296293408e+03) (10, 1.42028731287571508801e+03) (11, 1.47932298835017286365e+03) (12, 3.13198104265373729049e+01) (13, 1.36417422428512895749e+03) (14, 7.13649636414296795195e-01) (15, -1.33150784119030049624e+03) (16, -1.44813860938362836350e+03) (8, 1.50000000000000000000e+03) (9, 1.50000000000000000000e+03) (10, 1.37366889030855440978e+03) (11, 1.50000000000000000000e+03) (12, -1.50000000000000000000e+03) (13, 1.50000000000000000000e+03) (14, 1.50000000000000000000e+03) (15, 5.76723657097550926665e+02) (16, -4.65495685059376569370e+02) (8, 4.86620051212770405868e+01) (9, -1.92807789596764784790e+01) (10, -1.08718357005182110697e+03) (11, -1.20540170486485976653e+03) (12, -3.64193719761223121623e+02) (13, 1.46727442783003607474e+03) (14, -2.85814454535259699242e+02) (15, -9.60253236879921701075e+02) (16, 9.64298005132339767442e+02) (8, 1.35546730087446189827e+03) (9, -1.49331648374209635222e+03) (10, 6.44506130798157350625e+00) (11, -1.34199848512503717757e+03) (12, -1.09603874370567364593e+01) (13, -3.52695171393393536619e+02) (14, -1.03951569707528690856e+02) (15, 1.33702641857594926478e+03) (16, 6.02153368108885160837e+02) (17, 7.33640436837822873528e-01) (18, 3.17312068718928030897e-01) (19, -9.07472661641601646698e-02) (20, 7.43446527939989332268e-01) (21, -6.39283170400308575765e-01) (22, 4.58995084612265902280e-01) (23, -7.94232653093912777109e-01) (24, -3.93870290136058287533e-01) (25, -9.51662289869014133004e-01) 
