FANN_FLO_2.1
num_layers=3
learning_rate=0.700000
connection_rate=1.000000
network_type=0
learning_momentum=0.000000
training_algorithm=2
train_error_function=1
train_stop_function=0
cascade_output_change_fraction=0.010000
quickprop_decay=-0.000100
quickprop_mu=1.750000
rprop_increase_factor=1.200000
rprop_decrease_factor=0.500000
rprop_delta_min=0.000000
rprop_delta_max=50.000000
rprop_delta_zero=0.100000
cascade_output_stagnation_epochs=12
cascade_candidate_change_fraction=0.010000
cascade_candidate_stagnation_epochs=12
cascade_max_out_epochs=150
cascade_max_cand_epochs=150
cascade_num_candidate_groups=2
bit_fail_limit=3.49999999999999977796e-01
cascade_candidate_limit=1.00000000000000000000e+03
cascade_weight_multiplier=4.00000000000000022204e-01
cascade_activation_functions_count=10
cascade_activation_functions=3 5 7 8 10 11 14 15 16 17 
cascade_activation_steepnesses_count=4
cascade_activation_steepnesses=2.50000000000000000000e-01 5.00000000000000000000e-01 7.50000000000000000000e-01 1.00000000000000000000e+00 
layer_sizes=8 10 2 
scale_included=0
neurons (num_inputs, activation_function, activation_steepness)=(0, 0, 0.00000000000000000000e+00) (0, 0, 0.00000000000000000000e+00) (0, 0, 0.00000000000000000000e+00) (0, 0, 0.00000000000000000000e+00) (0, 0, 0.00000000000000000000e+00) (0, 0, 0.00000000000000000000e+00) (0, 0, 0.00000000000000000000e+00) (0, 0, 0.00000000000000000000e+00) (8, 4, 5.00000000000000000000e-01) (8, 4, 5.00000000000000000000e-01) (8, 4, 5.00000000000000000000e-01) (8, 4, 5.00000000000000000000e-01) (8, 4, 5.00000000000000000000e-01) (8, 4, 5.00000000000000000000e-01) (8, 4, 5.00000000000000000000e-01) (8, 4, 5.00000000000000000000e-01) (8, 4, 5.00000000000000000000e-01) (0, 0, 0.00000000000000000000e+00) (10, 6, 5.00000000000000000000e-01) (0, 6, 0.00000000000000000000e+00) 
connections (connected_to_neuron, weight)=(0, -8.08449567939583957354e+00) (1, 2.36253043292970410505e+00) (2, -2.35346989541794515688e+00) (3, -3.64206920578610748862e+00) (4, 1.42718939806748128518e+01) (5, -2.98468414649515079162e+00) (6, 2.68649191510101026381e+00) (7, 5.34035517711164531285e-01) (0, 1.26703088175469211762e+01) (1, -4.20729612006374331656e+00) (2, -2.31473480320880575789e+00) (3, -1.14119274857569923398e+01) (4, 1.50657300383387706688e+01) (5, -1.18280806968509288879e+01) (6, -2.68872470685409492575e+00) (7, -7.29688804516413602741e-01) (0, -1.54373690039857109468e+02) (1, 1.91586344542865077756e+02) (2, -9.22015943818690146827e+01) (3, -3.44727570570382795268e+01) (4, 5.11582402184478723939e+01) (5, 4.12749869313629744738e+01) (6, -5.77024469791678527031e+01) (7, 1.16415013213343829790e+01) (0, 2.89603066431581588347e+01) (1, 2.46371734808252185189e+00) (2, -1.74346261388631029732e+00) (3, -1.90411476465195184105e+00) (4, -3.27947173958125119952e+01) (5, 8.81276309378969280317e+00) (6, -1.86665633252469582715e+01) (7, 7.61158468779327890275e+00) (0, 1.41990249122473652932e+01) (1, -2.68624186696452316170e+00) (2, -4.09674063098508955960e+00) (3, -1.49140160922375617503e+01) (4, 1.95019682703987520256e+01) (5, -1.54710660277790950090e+01) (6, -1.37201982975195635461e+00) (7, -2.19792681002069523188e+00) (0, 3.97487686066607981417e+00) (1, 3.51218265142139571822e+01) (2, -1.79582091047280520968e+01) (3, 5.47686472617434745302e+01) (4, 6.32674924928870918706e+00) (5, 1.80990941747619302760e+01) (6, -1.28799879255989793592e+02) (7, -2.93449692665272401371e+01) (0, 1.50000000000000000000e+03) (1, -3.89398253482186419205e+02) (2, -6.65689899751649249993e+01) (3, -1.48554341820994181944e+02) (4, 6.65892247692489576139e+01) (5, -8.91030754176757588958e-01) (6, 1.50000000000000000000e+03) (7, -2.03122052537403533279e+02) (0, 3.43951595425385026061e+00) (1, 2.20484679513208847723e+00) (2, 7.60057539715128260838e+00) (3, -1.03112986801234498557e+01) (4, 3.83017093086402198310e+01) (5, 2.10151411779237218269e+00) (6, -2.08343710397827415193e+01) (7, -3.90849789629222987841e+00) (0, 6.54594975913575325421e+01) (1, -6.90612707033933581613e+00) (2, -4.00247336703742860209e+02) (3, 5.62799053398967785711e+00) (4, 2.67496431727863011929e+02) (5, -1.91730287040527514364e+02) (6, -1.06857789249591434100e+02) (7, 5.25260802455992390492e+01) (8, -7.41705636307531701590e+00) (9, 1.25985809635557366448e+01) (10, 1.40021915082643033656e+00) (11, -3.15961541483500907290e+00) (12, -1.08610560493283667682e+01) (13, 2.61769357827204807165e+00) (14, 1.92027219363001022678e+00) (15, 2.65082877017650409002e+00) (16, -2.15500591043847089523e+00) (17, 1.37259419024010220767e+00) 
