FANN_FLO_2.1
num_layers=3
learning_rate=0.700000
connection_rate=1.000000
network_type=0
learning_momentum=0.000000
training_algorithm=2
train_error_function=1
train_stop_function=0
cascade_output_change_fraction=0.010000
quickprop_decay=-0.000100
quickprop_mu=1.750000
rprop_increase_factor=1.200000
rprop_decrease_factor=0.500000
rprop_delta_min=0.000000
rprop_delta_max=50.000000
rprop_delta_zero=0.100000
cascade_output_stagnation_epochs=12
cascade_candidate_change_fraction=0.010000
cascade_candidate_stagnation_epochs=12
cascade_max_out_epochs=150
cascade_max_cand_epochs=150
cascade_num_candidate_groups=2
bit_fail_limit=3.49999999999999977796e-01
cascade_candidate_limit=1.00000000000000000000e+03
cascade_weight_multiplier=4.00000000000000022204e-01
cascade_activation_functions_count=10
cascade_activation_functions=3 5 7 8 10 11 14 15 16 17 
cascade_activation_steepnesses_count=4
cascade_activation_steepnesses=2.50000000000000000000e-01 5.00000000000000000000e-01 7.50000000000000000000e-01 1.00000000000000000000e+00 
layer_sizes=8 10 2 
scale_included=0
neurons (num_inputs, activation_function, activation_steepness)=(0, 0, 0.00000000000000000000e+00) (0, 0, 0.00000000000000000000e+00) (0, 0, 0.00000000000000000000e+00) (0, 0, 0.00000000000000000000e+00) (0, 0, 0.00000000000000000000e+00) (0, 0, 0.00000000000000000000e+00) (0, 0, 0.00000000000000000000e+00) (0, 0, 0.00000000000000000000e+00) (8, 4, 5.00000000000000000000e-01) (8, 4, 5.00000000000000000000e-01) (8, 4, 5.00000000000000000000e-01) (8, 4, 5.00000000000000000000e-01) (8, 4, 5.00000000000000000000e-01) (8, 4, 5.00000000000000000000e-01) (8, 4, 5.00000000000000000000e-01) (8, 4, 5.00000000000000000000e-01) (8, 4, 5.00000000000000000000e-01) (0, 0, 0.00000000000000000000e+00) (10, 6, 5.00000000000000000000e-01) (0, 6, 0.00000000000000000000e+00) 
connections (connected_to_neuron, weight)=(0, 7.32622610350457648565e+02) (1, 8.54301473565187876602e+01) (2, 2.36482981849879621450e+02) (3, -1.36489995462143428995e+03) (4, -1.50000000000000000000e+03) (5, 8.19037114350357342119e+02) (6, 3.74592632793658211199e+01) (7, 3.02523583629162658326e+02) (0, -7.34599905074489090140e+00) (1, 3.09995613099764399934e+00) (2, 2.38548691373018328932e+00) (3, 3.52075332085978187635e-01) (4, 1.31826615700495128891e+01) (5, -7.37704301673165652176e+00) (6, 2.10921484625222699361e-01) (7, -1.22688597916434494195e+00) (0, -7.08998856750066153154e+01) (1, 1.63283152024896565990e+02) (2, -3.61374781935723376591e+02) (3, 1.08427321224638873787e+02) (4, 2.59425446047337651123e+01) (5, 3.68327745049213888251e+01) (6, -1.32839028081570631912e+03) (7, 1.40302437449108720102e+03) (0, -2.39700573842314440753e+02) (1, -5.17485235359052126114e+02) (2, 5.26760858402753569862e+02) (3, 1.65148206783357153427e+02) (4, 9.73306488410446945636e+02) (5, -1.50000000000000000000e+03) (6, 3.74009711874012282351e+02) (7, 2.99850109284276925337e+02) (0, -1.50000000000000000000e+03) (1, 7.12314207318859189400e+01) (2, 1.16294455498337060817e+03) (3, -6.54625413252554267274e+02) (4, 2.76784992531860496001e+02) (5, 1.27077704157424093978e+02) (6, 3.11845814403177143959e+02) (7, -2.27930248057657394156e+02) (0, 2.59279576691366528962e+01) (1, -1.09703674678039089230e+01) (2, -5.07306398585407514190e+00) (3, 1.44684877152001458711e+01) (4, 8.24101722825055738042e+00) (5, -9.50268320960508248163e+01) (6, -1.70286103864391713536e+00) (7, -1.27578417072197751736e+01) (0, 8.40062604997002154050e+02) (1, -1.50000000000000000000e+03) (2, 1.25312133963251721980e+03) (3, 1.03035847319353842977e+03) (4, -3.69808278846275698015e+02) (5, -1.18151640919910690286e+02) (6, 9.05453790141285281834e+01) (7, -1.24731582245735069137e+02) (0, 4.06539880308752117344e+02) (1, 5.16031494319305579666e+02) (2, -4.62476907790086102068e+02) (3, 1.50000000000000000000e+03) (4, -8.37502731762472990340e+02) (5, -1.50000000000000000000e+03) (6, -2.90563629685411115133e+02) (7, -1.31328636390435030989e+03) (0, 2.76706305976594457707e-01) (1, 3.86401699547164723114e+00) (2, -5.54510989382885597365e+01) (3, -6.58280453184266090005e+00) (4, 1.08950123605592892773e+02) (5, 3.37121336376214486563e+01) (6, -2.22208956973926987644e+01) (7, -6.27943803565949707490e+01) (8, 9.65461812961282972445e-01) (9, 1.88842000030594792115e+00) (10, 8.50460720517826618270e-01) (11, -1.00701570973790555108e+00) (12, 8.52723991427852379132e-01) (13, 2.16094600207784537371e-01) (14, -1.04181440229810773346e+00) (15, -6.69745159309623416810e-01) (16, -9.01423622159712611968e-01) (17, -4.73435599634487780385e-01) 
