FANN_FLO_2.1
num_layers=4
learning_rate=0.700000
connection_rate=1.000000
network_type=0
learning_momentum=0.000000
training_algorithm=2
train_error_function=1
train_stop_function=0
cascade_output_change_fraction=0.010000
quickprop_decay=-0.000100
quickprop_mu=1.750000
rprop_increase_factor=1.200000
rprop_decrease_factor=0.500000
rprop_delta_min=0.000000
rprop_delta_max=50.000000
rprop_delta_zero=0.100000
cascade_output_stagnation_epochs=12
cascade_candidate_change_fraction=0.010000
cascade_candidate_stagnation_epochs=12
cascade_max_out_epochs=150
cascade_max_cand_epochs=150
cascade_num_candidate_groups=2
bit_fail_limit=3.49999999999999977796e-01
cascade_candidate_limit=1.00000000000000000000e+03
cascade_weight_multiplier=4.00000000000000022204e-01
cascade_activation_functions_count=10
cascade_activation_functions=3 5 7 8 10 11 14 15 16 17 
cascade_activation_steepnesses_count=4
cascade_activation_steepnesses=2.50000000000000000000e-01 5.00000000000000000000e-01 7.50000000000000000000e-01 1.00000000000000000000e+00 
layer_sizes=8 15 15 2 
scale_included=0
neurons (num_inputs, activation_function, activation_steepness)=(0, 0, 0.00000000000000000000e+00) (0, 0, 0.00000000000000000000e+00) (0, 0, 0.00000000000000000000e+00) (0, 0, 0.00000000000000000000e+00) (0, 0, 0.00000000000000000000e+00) (0, 0, 0.00000000000000000000e+00) (0, 0, 0.00000000000000000000e+00) (0, 0, 0.00000000000000000000e+00) (8, 4, 5.00000000000000000000e-01) (8, 4, 5.00000000000000000000e-01) (8, 4, 5.00000000000000000000e-01) (8, 4, 5.00000000000000000000e-01) (8, 4, 5.00000000000000000000e-01) (8, 4, 5.00000000000000000000e-01) (8, 4, 5.00000000000000000000e-01) (8, 4, 5.00000000000000000000e-01) (8, 4, 5.00000000000000000000e-01) (8, 4, 5.00000000000000000000e-01) (8, 4, 5.00000000000000000000e-01) (8, 4, 5.00000000000000000000e-01) (8, 4, 5.00000000000000000000e-01) (8, 4, 5.00000000000000000000e-01) (0, 0, 0.00000000000000000000e+00) (15, 4, 5.00000000000000000000e-01) (15, 4, 5.00000000000000000000e-01) (15, 4, 5.00000000000000000000e-01) (15, 4, 5.00000000000000000000e-01) (15, 4, 5.00000000000000000000e-01) (15, 4, 5.00000000000000000000e-01) (15, 4, 5.00000000000000000000e-01) (15, 4, 5.00000000000000000000e-01) (15, 4, 5.00000000000000000000e-01) (15, 4, 5.00000000000000000000e-01) (15, 4, 5.00000000000000000000e-01) (15, 4, 5.00000000000000000000e-01) (15, 4, 5.00000000000000000000e-01) (15, 4, 5.00000000000000000000e-01) (0, 0, 0.00000000000000000000e+00) (15, 6, 5.00000000000000000000e-01) (0, 6, 0.00000000000000000000e+00) 
connections (connected_to_neuron, weight)=(0, 1.49992885287400736161e+03) (1, 9.01256068303585720969e+02) (2, -2.79272305139437690968e+01) (3, 1.40944141688144867430e+02) (4, -3.15515053097632687695e+02) (5, -6.87300697518642436989e+02) (6, 1.49976205958610353264e+03) (7, 1.52074356071293923520e+01) (0, -1.52153867117988923496e+01) (1, 5.55065519562648788110e+01) (2, -8.42802240565394527039e+01) (3, 5.29731163882414222144e+01) (4, -5.84657864951390706665e+01) (5, 3.88650439852760456461e+01) (6, 5.40932971788918237621e+01) (7, -5.01596159469911384576e+01) (0, 2.67289305336420497383e+01) (1, -7.95769668801245870782e+01) (2, 7.69910423395420338011e+01) (3, -4.30773513334322011303e+00) (4, -4.16680433386043773680e+01) (5, 6.46138543639991951295e+01) (6, -7.29377529584189332468e-01) (7, -1.39474586753717240128e+01) (0, 9.78329711951126682834e+02) (1, -1.19958604353880355120e+03) (2, 1.31213670965433766469e+03) (3, 1.49847114074103387793e+03) (4, 7.89829095128358858346e+02) (5, -2.55589604076861775184e+02) (6, -1.37158538918136105167e+03) (7, -3.49525644755284929488e+02) (0, -5.99171853701407826520e+02) (1, 2.92562485740493727349e+01) (2, -1.86916705794478410496e+01) (3, -3.03272973090626749126e+02) (4, 6.68414505281342258058e+02) (5, -1.65603617611026180612e+02) (6, 9.82207138361003018190e+01) (7, 3.76292050087401662495e+02) (0, 5.77252099559694631381e+00) (1, 3.55781270789533508037e+01) (2, -5.56381989413002173706e+01) (3, 6.74116307544285717768e+01) (4, -8.68715170747232008353e+01) (5, 2.71340447487363256585e+01) (6, -2.76900390898337356305e+01) (7, 3.67909042448338396980e+01) (0, 1.01227909235207152960e+03) (1, -1.17331423259859616337e+03) (2, -9.58716228401811690674e+02) (3, -1.20186012122508873290e+03) (4, 1.15301011842578603250e+02) (5, -1.65145351209547698090e+02) (6, 1.01511886710306941950e+03) (7, 1.10716259259321361696e+02) (0, -1.22117471123924843823e+02) (1, 1.39592299727536612863e+02) (2, -3.07640348258402376302e+01) (3, 8.41532917979165517863e+01) (4, -3.65510865014364014769e+01) (5, 1.60870462171815509222e+00) (6, 8.39087293395380662275e+00) (7, -5.42582592943615527048e+00) (0, 7.10712367874170070081e+00) (1, -1.46492867835052402370e+03) (2, 1.32887498602967207262e+03) (3, 1.40221245830547854894e+03) (4, 1.29031097743300415459e+03) (5, 8.30125914054214945281e+02) (6, -1.46235138708312160816e+03) (7, 2.57764243389130228934e+02) (0, -5.09357237122598291990e+02) (1, 6.98732244560928961619e+02) (2, -9.89128677056279570934e+02) (3, 9.94664545427669622768e+02) (4, -1.63298829325886117658e+02) (5, 1.20327485592837479089e+03) (6, 1.32553734191018952515e+03) (7, -8.32326940813148894449e+02) (0, 6.21961730538675396929e+02) (1, 2.55695777435789466381e+02) (2, -1.30144983739393251199e+03) (3, -1.49999592007184492104e+03) (4, -1.48718697943044708154e+03) (5, 2.97616375549791484900e+02) (6, 1.50000000000000000000e+03) (7, -4.33162182923014825064e+02) (0, -1.83601601840504038421e+01) (1, 3.49493995966681012533e+01) (2, -1.60273562071127912532e+02) (3, 2.57874133212967961981e+01) (4, 1.76277196750273986936e+02) (5, -3.14833633083319398338e+02) (6, -6.51518402279306343416e+01) (7, 7.44001846423173560652e+01) (0, 1.49933206739789784478e+03) (1, 1.49930409280639059943e+03) (2, 9.92083073302115110437e+01) (3, 6.11078524199738168932e+01) (4, 3.95363171771330542015e+02) (5, -1.32480345380390872378e+03) (6, 1.50000000000000000000e+03) (7, -1.94792664741578533949e+02) (0, -1.42926081129505314493e+03) (1, -8.75189783182904989189e+02) (2, 1.46014888923059538683e+03) (3, 1.43584487144739841824e+03) (4, 1.49323158745773866940e+03) (5, 9.59994275834174004558e+02) (6, -1.47795916078965569795e+03) (7, 1.51108554064749256440e+02) (8, -5.38448830452870197405e+02) (9, -1.19526326440823254416e+03) (10, 1.46024670065137934216e+03) (11, -9.22523223106949672001e+02) (12, 1.50000000000000000000e+03) (13, 1.49976495108133576650e+03) (14, -1.43216891802000827738e+03) (15, 1.49394331718551939048e+03) (16, -2.91572507494644980852e+02) (17, -1.43250219283068827281e+03) (18, 1.50000000000000000000e+03) (19, -3.70358836163949433740e+02) (20, -8.94994255954543405096e+02) (21, -3.67879672515008664391e+01) (22, -3.38916883513986363141e+02) (8, 1.39813033703354881254e+03) (9, -1.41259999709129351686e+03) (10, 1.50000000000000000000e+03) (11, -3.07482615607327375074e+02) (12, 1.68631586778277721805e+02) (13, -1.49535492165102505169e+03) (14, 1.50000000000000000000e+03) (15, -1.30173949372709012096e+03) (16, 1.50000000000000000000e+03) (17, 1.47507239541818626094e+03) (18, 1.50000000000000000000e+03) (19, 4.28549914717959893551e+02) (20, -3.08027341865381288244e+02) (21, 1.10677568572577570194e+03) (22, 2.26663287587520301258e+02) (8, -1.36348510504030491575e+03) (9, -5.97607511061487571169e+02) (10, -8.87843413385665712667e+02) (11, 8.44744507270086586459e+00) (12, -1.46117923941205981464e+03) (13, -6.65143721172455684609e+02) (14, 1.49208266801363447485e+03) (15, 1.48885894249155489888e+03) (16, 1.09482243650359441745e+03) (17, 2.25846504721997860088e+02) (18, -1.42771471234497039404e+03) (19, -3.50639699664955401204e+02) (20, 6.28620822187247654256e+02) (21, 1.18256782479955049325e+02) (22, 2.44438485599324195618e+02) (8, -1.11607762802291540538e+03) (9, -5.69812297138719600298e+02) (10, 1.50000000000000000000e+03) (11, 1.04188890197597288534e+02) (12, 4.50739816993509165854e+01) (13, -3.29111987225559118997e+02) (14, -1.30560209196221308048e+02) (15, 1.50000000000000000000e+03) (16, -5.45004270298997880673e+02) (17, 4.72919170457165535026e+02) (18, 7.84140543355898785194e+02) (19, 7.88654854822674110437e+02) (20, -1.24539660548473435142e+02) (21, -8.00272168815306940814e+02) (22, 4.98586823021096137154e+01) (8, 1.49934578102899558871e+03) (9, -1.46960000221729296754e+03) (10, 1.50000000000000000000e+03) (11, -1.46452649662482190251e+03) (12, 1.50000000000000000000e+03) (13, 1.50000000000000000000e+03) (14, 1.50000000000000000000e+03) (15, 1.50000000000000000000e+03) (16, 1.50000000000000000000e+03) (17, 1.50000000000000000000e+03) (18, 1.50000000000000000000e+03) (19, 2.16949677966921370853e+02) (20, 1.50000000000000000000e+03) (21, -8.47050666823678625406e+02) (22, 7.91606643655275547644e+02) (8, -1.31552371391552037494e+03) (9, 1.91839582211289041425e+02) (10, -1.27660695209019627328e+03) (11, 1.47779947170655145783e+03) (12, 1.05936855989073910678e+03) (13, 1.06922501629320004213e+03) (14, 8.65832396527006039832e+02) (15, 8.85229713380389284794e+02) (16, -4.64476523364774607217e+02) (17, -4.91848957417557471672e+02) (18, -1.50000000000000000000e+03) (19, -1.06140443888148865881e+03) (20, -1.10285658784462634685e+03) (21, 1.42482963353117929728e+03) (22, 4.20920241624621382925e+01) (8, -9.32373736350383637728e+02) (9, -1.49403974984226510969e+03) (10, 1.41658865083278169550e+03) (11, -1.30747651541821483079e+03) (12, 1.50000000000000000000e+03) (13, 7.80712202020972767968e+02) (14, -9.88409324378319297466e+02) (15, 1.47994432282033881165e+03) (16, -1.22947036985389513575e+03) (17, 1.38911760025396347373e+03) (18, 1.50000000000000000000e+03) (19, 1.45321332965484180022e+03) (20, 3.45651602376676123640e+02) (21, -9.84881464095834644468e+02) (22, -9.60550826347806378180e+02) (8, 1.45847271660782985236e+03) (9, 2.63238045805542128619e+02) (10, -3.80944969968320265252e+02) (11, 7.47300098995891175946e+02) (12, -4.24992019243337722401e+02) (13, -1.15841464724903789829e+03) (14, 8.04341454567122923436e+02) (15, -1.40728972827087432051e+03) (16, 4.50573062962899427930e+02) (17, -1.98721278608194715787e+01) (18, 1.50000000000000000000e+03) (19, 1.43653113560404926830e+03) (20, 1.18721707123508281256e+03) (21, -2.58380304217202834138e+01) (22, -4.42353879872507263826e+02) (8, -1.43506483376546520958e+03) (9, 1.50000000000000000000e+03) (10, -1.50000000000000000000e+03) (11, 1.48065081599132668089e+03) (12, -1.50000000000000000000e+03) (13, -1.50000000000000000000e+03) (14, -1.50000000000000000000e+03) (15, -1.50000000000000000000e+03) (16, -1.50000000000000000000e+03) (17, -1.50000000000000000000e+03) (18, -1.50000000000000000000e+03) (19, 3.48877283398990584828e+02) (20, -1.50000000000000000000e+03) (21, 1.22223853020372234823e+03) (22, 1.01009749481192471876e+02) (8, 1.49303655308121187772e+03) (9, -1.46960000221729296754e+03) (10, 1.50000000000000000000e+03) (11, -1.46452649662482190251e+03) (12, 1.50000000000000000000e+03) (13, 1.50000000000000000000e+03) (14, 1.50000000000000000000e+03) (15, 1.50000000000000000000e+03) (16, 1.50000000000000000000e+03) (17, 1.50000000000000000000e+03) (18, 1.50000000000000000000e+03) (19, 2.16949677966921370853e+02) (20, 1.50000000000000000000e+03) (21, -8.47050666823678625406e+02) (22, -4.45338665208145201291e+01) (8, 1.47491935392166828933e+03) (9, 1.50000000000000000000e+03) (10, -1.50000000000000000000e+03) (11, 1.49864222119577266312e+03) (12, -1.47205118068309434420e+03) (13, 3.54692201709981191016e+02) (14, -1.50000000000000000000e+03) (15, -7.52191348734954431166e+02) (16, -1.50000000000000000000e+03) (17, -1.50000000000000000000e+03) (18, -1.50000000000000000000e+03) (19, 3.28766988301463584321e+02) (20, 8.70227935409933905930e+01) (21, -3.97677417779478673765e+02) (22, -7.36322126396586806862e+00) (8, 1.49994214622228264489e+03) (9, -1.46960000221729296754e+03) (10, 1.50000000000000000000e+03) (11, -1.46452649662482190251e+03) (12, 1.50000000000000000000e+03) (13, 1.50000000000000000000e+03) (14, -3.86558741517643284169e+02) (15, 1.50000000000000000000e+03) (16, 1.50000000000000000000e+03) (17, 1.50000000000000000000e+03) (18, 1.50000000000000000000e+03) (19, 2.16949677966921370853e+02) (20, -1.45003340418747825424e+03) (21, -8.87172038339626737979e+02) (22, 4.52996455310367096558e+01) (8, -1.48071639657516311672e+03) (9, -9.17326055576977068995e+02) (10, -5.47930919736344776538e+02) (11, -1.43858239750003804147e+03) (12, 5.35385007653407374306e+00) (13, 1.50000000000000000000e+03) (14, 1.50000000000000000000e+03) (15, 1.49999281336675267085e+03) (16, 1.46675581493518438947e+03) (17, 6.73612594706187792326e+02) (18, 1.50000000000000000000e+03) (19, 3.01826973167224537065e+02) (20, -2.47168636351522366112e+02) (21, -3.98534354525194032703e+02) (22, -4.81904829694807574469e+02) (8, 1.48868420927083207062e+03) (9, -1.46960000221729296754e+03) (10, 1.50000000000000000000e+03) (11, -1.46452649662482190251e+03) (12, 1.50000000000000000000e+03) (13, 1.50000000000000000000e+03) (14, 1.50000000000000000000e+03) (15, 1.50000000000000000000e+03) (16, 1.50000000000000000000e+03) (17, 1.50000000000000000000e+03) (18, 1.50000000000000000000e+03) (19, 2.16949677966921370853e+02) (20, 1.50000000000000000000e+03) (21, -8.47050666823678625406e+02) (22, 4.51881777379814337792e+01) (23, -4.02277700777493418816e-01) (24, -1.86626581774033212247e-01) (25, 1.38369734751839001952e-01) (26, -2.48492482509136886071e-01) (27, -4.24295765405535374448e-01) (28, 2.57476021180601311045e-01) (29, -9.46179415217400454630e-01) (30, -2.96099277839824315262e-01) (31, 1.50000000000000000000e+03) (32, -3.14587699009463706012e-01) (33, 3.83656696310399614180e-01) (34, -1.49739910198968734223e-01) (35, -3.15571139008133605408e-01) (36, -3.59591965047068473638e-01) (37, 3.03376391106062692771e+00) 
