FANN_FLO_2.1
num_layers=3
learning_rate=0.700000
connection_rate=1.000000
network_type=0
learning_momentum=0.000000
training_algorithm=2
train_error_function=1
train_stop_function=0
cascade_output_change_fraction=0.010000
quickprop_decay=-0.000100
quickprop_mu=1.750000
rprop_increase_factor=1.200000
rprop_decrease_factor=0.500000
rprop_delta_min=0.000000
rprop_delta_max=50.000000
rprop_delta_zero=0.100000
cascade_output_stagnation_epochs=12
cascade_candidate_change_fraction=0.010000
cascade_candidate_stagnation_epochs=12
cascade_max_out_epochs=150
cascade_max_cand_epochs=150
cascade_num_candidate_groups=2
bit_fail_limit=3.49999999999999977796e-01
cascade_candidate_limit=1.00000000000000000000e+03
cascade_weight_multiplier=4.00000000000000022204e-01
cascade_activation_functions_count=10
cascade_activation_functions=3 5 7 8 10 11 14 15 16 17 
cascade_activation_steepnesses_count=4
cascade_activation_steepnesses=2.50000000000000000000e-01 5.00000000000000000000e-01 7.50000000000000000000e-01 1.00000000000000000000e+00 
layer_sizes=8 16 2 
scale_included=0
neurons (num_inputs, activation_function, activation_steepness)=(0, 0, 0.00000000000000000000e+00) (0, 0, 0.00000000000000000000e+00) (0, 0, 0.00000000000000000000e+00) (0, 0, 0.00000000000000000000e+00) (0, 0, 0.00000000000000000000e+00) (0, 0, 0.00000000000000000000e+00) (0, 0, 0.00000000000000000000e+00) (0, 0, 0.00000000000000000000e+00) (8, 4, 5.00000000000000000000e-01) (8, 4, 5.00000000000000000000e-01) (8, 4, 5.00000000000000000000e-01) (8, 4, 5.00000000000000000000e-01) (8, 4, 5.00000000000000000000e-01) (8, 4, 5.00000000000000000000e-01) (8, 4, 5.00000000000000000000e-01) (8, 4, 5.00000000000000000000e-01) (8, 4, 5.00000000000000000000e-01) (8, 4, 5.00000000000000000000e-01) (8, 4, 5.00000000000000000000e-01) (8, 4, 5.00000000000000000000e-01) (8, 4, 5.00000000000000000000e-01) (8, 4, 5.00000000000000000000e-01) (8, 4, 5.00000000000000000000e-01) (0, 0, 0.00000000000000000000e+00) (16, 6, 5.00000000000000000000e-01) (0, 6, 0.00000000000000000000e+00) 
connections (connected_to_neuron, weight)=(0, 1.16282825097760174060e+01) (1, -1.02030806310457762720e+02) (2, 8.09954356316323753617e+01) (3, -1.14893688758524447735e+02) (4, 1.22190771628898602330e+02) (5, -3.67056582709480423432e+01) (6, 9.02730876440161367213e+00) (7, -1.31163266796099566847e+01) (0, -5.43029548023782012933e+02) (1, -1.50000000000000000000e+03) (2, -1.50000000000000000000e+03) (3, -6.39546218407246556126e+02) (4, 1.40770908164167440191e+03) (5, 4.55939460964650606911e+02) (6, 1.04908882144197150410e+03) (7, -3.76477855139266296192e+02) (0, 4.62973703210850260348e+01) (1, -3.74385210755906641111e+01) (2, 2.38768486623095483878e+01) (3, -6.25139211761565860570e+01) (4, 1.82818977654090488727e+01) (5, 1.44109791153229707561e+02) (6, -2.28337917579864608797e+02) (7, 4.63963714672774543146e+01) (0, -1.46610664095142169572e+03) (1, -1.50000000000000000000e+03) (2, -1.49830327217649323757e+03) (3, 2.85893016310720042839e+01) (4, 7.75958770444285846679e+02) (5, -1.50000000000000000000e+03) (6, -1.64683721687264417177e+00) (7, 1.10895846872292827356e+03) (0, 4.33313344046980319035e+02) (1, -8.50162599858974630251e+01) (2, 1.95645825888701665463e+02) (3, -1.49988183621570851756e+03) (4, 7.05533011295138408059e+02) (5, 6.76170509152120075669e+02) (6, 1.49756157354754600419e+03) (7, -1.40388687482327895850e+03) (0, -2.18500944651135625918e+02) (1, 2.14728796400416655388e+02) (2, -2.19454545067062198882e+01) (3, 9.47017000336250873715e+01) (4, 3.42574749226821992920e+01) (5, 6.35859466846678742513e+01) (6, -3.13442032605839138171e+01) (7, -6.75138372009976563959e+01) (0, -1.46669334780167332610e+03) (1, -5.04143269231893143001e+01) (2, -7.37362966687213543082e+02) (3, 9.06797845793866827080e+02) (4, 5.53019453675452496100e+02) (5, -3.05937277864801657756e+01) (6, -1.44556803390191998915e+03) (7, 1.65499560917601429288e+00) (0, -1.28985809051551285620e+02) (1, 1.56491523543603307189e+02) (2, -3.32485663687166024260e+01) (3, -6.66407743307603084304e+01) (4, 2.40595991034592557867e+01) (5, -2.15840864975902093192e+02) (6, 4.20294029736211030013e+01) (7, -2.73020249463219997210e+01) (0, -8.48845690413349302617e+02) (1, 7.96386923839307769413e+02) (2, 4.28642929254086553215e+01) (3, -2.52977523993706967076e+02) (4, 5.23424173569606523415e+01) (5, 4.10547530320735916121e+01) (6, 1.24001244052092872039e+02) (7, -1.06334618384251299972e+02) (0, 2.73449895056593312859e+01) (1, -1.32644874762120341671e+01) (2, -2.52383784285372891887e+00) (3, -5.29929785009703646637e+00) (4, -3.75625821148492056167e+00) (5, -2.55455896658020531476e+00) (6, -1.17234556288286970727e+01) (7, 9.00018191168693526549e+00) (0, -5.78645638720524218002e+01) (1, 5.19854519174010434313e+01) (2, -5.14416566672103385827e+01) (3, 5.61132613389039391905e+01) (4, -1.30448621898596606172e+01) (5, 3.74553512815757230214e+01) (6, 2.39946519098710382423e+01) (7, -1.55019286869340930934e+01) (0, -9.22664884587491229695e+01) (1, -5.09128655900219513342e+01) (2, 7.88449416503569153747e+01) (3, -3.52572381185559535766e+01) (4, -2.80997835253121536425e+02) (5, -4.65261931457784143618e+01) (6, 1.41592464827915819114e+02) (7, 7.85514956104232737744e+01) (0, 6.13819951515365858086e+01) (1, 4.16788244590379292731e+02) (2, -1.48370071916244387467e+03) (3, -1.34002807314163305819e+03) (4, -1.48197610529011717517e+03) (5, -1.50000000000000000000e+03) (6, 1.49879067599945778966e+03) (7, 1.58078986637932416670e+02) (0, 1.14519902573591934924e+02) (1, -2.43012818661942873177e+02) (2, 4.48902485741293730825e+01) (3, 3.25332734788151682892e+01) (4, -2.42441754324354690198e+01) (5, -1.09243859477923592749e+01) (6, 1.94107249372596584180e+01) (7, 5.31677235310473079721e+01) (0, 5.52413965014630861106e+01) (1, -1.10354614395700949103e+02) (2, 1.48570942130837352124e+02) (3, -6.39120143846152117817e+01) (4, 1.20349813974998966160e+02) (5, -9.21059111610898213485e+01) (6, 2.46170170088211897053e+01) (7, -1.01401678469100772872e+02) (8, 2.97927073442431655792e+00) (9, -1.31718100605572119299e+00) (10, -8.43916500103435107683e-01) (11, -2.11119893659069068903e+00) (12, 4.72143911100313062867e-01) (13, 2.52137547420911234397e+00) (14, -8.97269725464722944785e-01) (15, 1.55891358415428604722e+00) (16, 5.25325895374298390550e+00) (17, 3.66653828275349669141e+00) (18, -2.62723029833412313749e+00) (19, -2.05931160907014021433e+00) (20, -1.04308550619256523717e+00) (21, 1.60709510713552616856e+00) (22, -2.24586695592992757753e+00) (23, -2.87429200935882134260e+00) 
