FANN_FLO_2.1
num_layers=3
learning_rate=0.700000
connection_rate=1.000000
network_type=0
learning_momentum=0.000000
training_algorithm=2
train_error_function=1
train_stop_function=0
cascade_output_change_fraction=0.010000
quickprop_decay=-0.000100
quickprop_mu=1.750000
rprop_increase_factor=1.200000
rprop_decrease_factor=0.500000
rprop_delta_min=0.000000
rprop_delta_max=50.000000
rprop_delta_zero=0.100000
cascade_output_stagnation_epochs=12
cascade_candidate_change_fraction=0.010000
cascade_candidate_stagnation_epochs=12
cascade_max_out_epochs=150
cascade_max_cand_epochs=150
cascade_num_candidate_groups=2
bit_fail_limit=3.49999999999999977796e-01
cascade_candidate_limit=1.00000000000000000000e+03
cascade_weight_multiplier=4.00000000000000022204e-01
cascade_activation_functions_count=10
cascade_activation_functions=3 5 7 8 10 11 14 15 16 17 
cascade_activation_steepnesses_count=4
cascade_activation_steepnesses=2.50000000000000000000e-01 5.00000000000000000000e-01 7.50000000000000000000e-01 1.00000000000000000000e+00 
layer_sizes=8 8 2 
scale_included=0
neurons (num_inputs, activation_function, activation_steepness)=(0, 0, 0.00000000000000000000e+00) (0, 0, 0.00000000000000000000e+00) (0, 0, 0.00000000000000000000e+00) (0, 0, 0.00000000000000000000e+00) (0, 0, 0.00000000000000000000e+00) (0, 0, 0.00000000000000000000e+00) (0, 0, 0.00000000000000000000e+00) (0, 0, 0.00000000000000000000e+00) (8, 4, 5.00000000000000000000e-01) (8, 4, 5.00000000000000000000e-01) (8, 4, 5.00000000000000000000e-01) (8, 4, 5.00000000000000000000e-01) (8, 4, 5.00000000000000000000e-01) (8, 4, 5.00000000000000000000e-01) (8, 4, 5.00000000000000000000e-01) (0, 0, 0.00000000000000000000e+00) (8, 6, 5.00000000000000000000e-01) (0, 6, 0.00000000000000000000e+00) 
connections (connected_to_neuron, weight)=(0, -1.50000000000000000000e+03) (1, -1.50000000000000000000e+03) (2, -1.50000000000000000000e+03) (3, -1.50000000000000000000e+03) (4, 1.50000000000000000000e+03) (5, -1.50000000000000000000e+03) (6, -1.50000000000000000000e+03) (7, 1.43723176160723426165e+02) (0, -1.71350693008734005218e+01) (1, -2.16409510380668157481e+00) (2, 3.53131648769335342308e+01) (3, -7.53336132823420179250e+00) (4, -1.41348200843416513806e+01) (5, 6.79675307799672445697e+00) (6, -2.00398809815764522568e+00) (7, 2.92631249233597712234e+00) (0, -1.50000000000000000000e+03) (1, -1.50000000000000000000e+03) (2, -1.50000000000000000000e+03) (3, -1.27539134341116800897e+03) (4, 1.50000000000000000000e+03) (5, 1.07447634765395582690e+03) (6, -1.50000000000000000000e+03) (7, 3.78832244703867786484e+02) (0, -1.50000000000000000000e+03) (1, -1.50000000000000000000e+03) (2, -1.50000000000000000000e+03) (3, 1.23236199229691624168e+03) (4, 1.37829696787297734772e+03) (5, 1.10756446502685571431e+03) (6, -1.50000000000000000000e+03) (7, 6.85469446118106930044e+02) (0, -4.66325993839502288552e+01) (1, 1.34306634337611701113e+01) (2, 4.63025662362161085639e+01) (3, 3.10347843267549849955e+00) (4, -3.09239232526870218010e+01) (5, 1.33403283045545357766e+01) (6, 2.98977273542736554646e+00) (7, 4.08640642752874772015e+00) (0, -7.17905639265746202682e+01) (1, 1.49217059537798242275e+01) (2, -6.35809488698774316617e+00) (3, 1.01937872947660430611e+01) (4, -2.26630601652904388743e+01) (5, 2.99799919360141586822e+01) (6, 1.41705338444495438921e+01) (7, 1.10588583994579678915e+01) (0, -3.41956128812048953947e+00) (1, -1.00097792059405996667e+01) (2, 8.06122934325778217612e+00) (3, -4.91241051568745579203e+00) (4, -1.51130570343517900422e-01) (5, 4.88045218849212036893e-01) (6, 1.85593588167751377682e+00) (7, -6.36780785069822274913e-01) (8, 1.50000000000000000000e+03) (9, 4.46286434435117573827e+00) (10, 1.51191150843837740503e+00) (11, 2.44951815479609624759e+00) (12, -3.91693925416038002396e+00) (13, -2.73875541749857687179e+00) (14, -6.20489887919833904562e+00) (15, -3.67071142760771670921e-02) 
