FANN_FLO_2.1
num_layers=4
learning_rate=0.700000
connection_rate=1.000000
network_type=0
learning_momentum=0.000000
training_algorithm=2
train_error_function=1
train_stop_function=0
cascade_output_change_fraction=0.010000
quickprop_decay=-0.000100
quickprop_mu=1.750000
rprop_increase_factor=1.200000
rprop_decrease_factor=0.500000
rprop_delta_min=0.000000
rprop_delta_max=50.000000
rprop_delta_zero=0.100000
cascade_output_stagnation_epochs=12
cascade_candidate_change_fraction=0.010000
cascade_candidate_stagnation_epochs=12
cascade_max_out_epochs=150
cascade_max_cand_epochs=150
cascade_num_candidate_groups=2
bit_fail_limit=3.49999999999999977796e-01
cascade_candidate_limit=1.00000000000000000000e+03
cascade_weight_multiplier=4.00000000000000022204e-01
cascade_activation_functions_count=10
cascade_activation_functions=3 5 7 8 10 11 14 15 16 17 
cascade_activation_steepnesses_count=4
cascade_activation_steepnesses=2.50000000000000000000e-01 5.00000000000000000000e-01 7.50000000000000000000e-01 1.00000000000000000000e+00 
layer_sizes=8 11 11 2 
scale_included=0
neurons (num_inputs, activation_function, activation_steepness)=(0, 0, 0.00000000000000000000e+00) (0, 0, 0.00000000000000000000e+00) (0, 0, 0.00000000000000000000e+00) (0, 0, 0.00000000000000000000e+00) (0, 0, 0.00000000000000000000e+00) (0, 0, 0.00000000000000000000e+00) (0, 0, 0.00000000000000000000e+00) (0, 0, 0.00000000000000000000e+00) (8, 4, 5.00000000000000000000e-01) (8, 4, 5.00000000000000000000e-01) (8, 4, 5.00000000000000000000e-01) (8, 4, 5.00000000000000000000e-01) (8, 4, 5.00000000000000000000e-01) (8, 4, 5.00000000000000000000e-01) (8, 4, 5.00000000000000000000e-01) (8, 4, 5.00000000000000000000e-01) (8, 4, 5.00000000000000000000e-01) (8, 4, 5.00000000000000000000e-01) (0, 0, 0.00000000000000000000e+00) (11, 4, 5.00000000000000000000e-01) (11, 4, 5.00000000000000000000e-01) (11, 4, 5.00000000000000000000e-01) (11, 4, 5.00000000000000000000e-01) (11, 4, 5.00000000000000000000e-01) (11, 4, 5.00000000000000000000e-01) (11, 4, 5.00000000000000000000e-01) (11, 4, 5.00000000000000000000e-01) (11, 4, 5.00000000000000000000e-01) (11, 4, 5.00000000000000000000e-01) (0, 0, 0.00000000000000000000e+00) (11, 6, 5.00000000000000000000e-01) (0, 6, 0.00000000000000000000e+00) 
connections (connected_to_neuron, weight)=(0, 7.73449527280916413474e+02) (1, 1.22142567679672947634e+03) (2, 6.72219145557179103889e+02) (3, -6.22745574371876500663e+02) (4, 1.46448592733157624934e+03) (5, 1.12766046881646957445e+02) (6, -1.45621702851411077972e+03) (7, -8.57926857963047723388e+02) (0, 1.25365508766068910518e+03) (1, -2.55791897904676886810e+02) (2, -1.04556520086469561193e+02) (3, -1.26839833727059226476e+03) (4, 9.29793059308902911653e+02) (5, -3.69781430896000102848e+01) (6, 8.17590209511653398522e+00) (7, -2.48384365664094104886e+02) (0, 5.19269958872649368686e+01) (1, 1.47285678431765495588e+03) (2, 4.22535186519864680577e+00) (3, -1.13330335617030459616e+03) (4, 1.92555754855491073840e+02) (5, 4.32750754467149221227e+01) (6, -6.97910800712904006105e+02) (7, 3.73698112936759656577e+01) (0, -3.59449370467468440893e+02) (1, 8.73896108159977643481e+02) (2, -1.07888951477849786897e+03) (3, -1.00187561749377096021e+03) (4, 3.52421761052889692678e+01) (5, -6.86214147354750849672e+01) (6, 1.45083667433541972969e+03) (7, -2.39313645406099283264e+02) (0, 1.36613880475060156527e+01) (1, -1.54751975750952439626e+01) (2, 1.90685745752304320888e+01) (3, -1.47661725363832019298e+00) (4, 7.59790232252520070233e+01) (5, -8.92525907976118730858e+01) (6, -6.77351016156706364768e+00) (7, 6.90503184474601372500e+00) (0, -2.95385224704583428945e+01) (1, 5.84444457887227244441e+01) (2, -4.82465305888364071052e+01) (3, 1.99356752089109292569e+01) (4, 5.12843100579439408193e+01) (5, -3.09823573657544031335e+01) (6, 1.56218892277151351067e+01) (7, -1.03173199918170315215e+01) (0, 2.26935408944918499685e+01) (1, 1.59101966433459782735e+01) (2, 5.44595659383841734780e+02) (3, -1.48861999282181010074e+01) (4, -6.23107312012367060561e+02) (5, 2.84573198298471936596e+02) (6, -1.16315842750953322593e+02) (7, -7.32797765506734748442e+01) (0, -1.21361557877753079993e+03) (1, 1.22668726519460165036e+03) (2, -1.18341758062874509960e+03) (3, 2.92039197436405800090e+02) (4, -3.81733465201843955583e+02) (5, 1.49775878075738410189e+03) (6, 2.58936406766936322299e+01) (7, 7.00058438797584699387e+02) (0, -1.18873048316391873414e+03) (1, 8.67424894418783310357e+02) (2, -1.43167568591418353208e+03) (3, 1.46791523577051702887e+03) (4, 1.50000000000000000000e+03) (5, 1.50000000000000000000e+03) (6, 2.34117317564214857839e+02) (7, -1.95253562526645481512e+02) (0, -2.84241626172084060897e+01) (1, -1.68604271761493542670e+01) (2, -3.56351090358283606463e+00) (3, 2.39035925009331968738e+01) (4, 3.28730192504774336726e+01) (5, 9.29233508550737354881e+01) (6, 5.97985742405095255236e+00) (7, -6.29346153526116136590e+00) (8, -4.86170690354452474935e+01) (9, 1.56159689239788747273e+02) (10, -9.86179570609015776483e+00) (11, 4.18060063852898622372e+02) (12, 1.30642944591802529430e+03) (13, -1.15987699951350873562e+03) (14, -9.13322383865685480941e+01) (15, -1.10709485196823561637e+03) (16, -2.45802698677400769611e+02) (17, 1.37408103489337122483e+03) (18, 4.17788803329647517870e+00) (8, 6.96280155240592421251e+02) (9, 3.72031490926127389685e+02) (10, -6.15843513849588930498e+01) (11, -7.28189631902144810738e+02) (12, 1.50000000000000000000e+03) (13, -1.13233225524089039027e+03) (14, 7.87653185130141309855e+02) (15, -8.69231428351006570665e+02) (16, -6.84700006758845006516e+02) (17, 1.33161379564698017930e+03) (18, 2.75013139675811373763e+02) (8, 1.17438030047688471313e+03) (9, 1.41452987487895143204e+03) (10, 1.42363394779792793088e+03) (11, -1.32579695192468307141e+03) (12, 1.37643389656456656667e+03) (13, -1.45600988715869561929e+03) (14, -1.50000000000000000000e+03) (15, -4.18496830872416694547e+02) (16, -1.09890237226546491911e+03) (17, 6.77988380293967018986e-01) (18, 1.50000000000000000000e+03) (8, 2.67857874331329696815e+02) (9, 5.58112360380446261843e+02) (10, 8.67149908889168727910e+01) (11, -3.98459766669912539783e+02) (12, 3.24142756097165317897e+02) (13, -8.74804030439125881458e+02) (14, 2.58021909788537527675e+02) (15, -8.56077829087966847510e+02) (16, -1.68148478688558817851e+01) (17, 4.43174107794874089450e+02) (18, 4.66788676496553478046e+02) (8, 1.40505941510100933556e+03) (9, -4.03199020106202965508e+02) (10, -1.43266186624810416106e+03) (11, 1.50000000000000000000e+03) (12, 1.13684148768608292812e+03) (13, -1.46339524458857249556e+03) (14, -5.25070925227555790116e+02) (15, 1.50000000000000000000e+03) (16, -1.39411412492461681722e+03) (17, -1.41577504555871973935e+03) (18, 7.23222585198772776494e+02) (8, 7.09259117383790680833e+02) (9, -4.27014133378933934182e+02) (10, 1.47314144857237965880e+03) (11, 4.75954371337180191404e+02) (12, 1.24549349647791109419e+03) (13, -1.32509540256356513055e+03) (14, -1.44340212869195579515e+03) (15, -1.06255674905126355156e+02) (16, -8.32304808908107474963e+02) (17, 1.38043687229218153334e+03) (18, 1.10131954656557624617e+02) (8, 5.66980439579967423924e+02) (9, 2.32866859020333208719e+02) (10, 2.35474409630424617035e+02) (11, 2.38908532921903230317e+02) (12, 2.48474576718441994672e+02) (13, -1.35311860187884860807e+02) (14, -2.28841097030470706386e+02) (15, -2.06106225988699435447e+02) (16, -7.85559466170387736383e+02) (17, 2.03126035770068853026e+02) (18, -1.27722487743107762981e+02) (8, -6.47594123892784068630e+02) (9, -1.00778806262659350068e+03) (10, -1.46647915657756288965e+03) (11, -1.47821955474373339712e+02) (12, 2.27170938462885004583e+02) (13, 1.46015479178238342683e+03) (14, 1.49991465435312579757e+03) (15, -9.29315421196672900805e+02) (16, 1.04433085353452838717e+03) (17, 9.16506094952602801129e+00) (18, -3.75697322299033871218e+01) (8, -1.03429261921785769118e+03) (9, -8.72896932494768549304e+01) (10, 6.39124198657346596519e+02) (11, -4.27907210592755063772e+02) (12, -9.06196758876073545252e+02) (13, 1.36214101741940089596e+03) (14, -8.20407286188644846447e+00) (15, 1.24126260556789111433e+03) (16, 6.15364597834178766789e+02) (17, -1.46411241860829545658e+03) (18, -5.39211187462913130730e+01) (8, 4.41284150329605552088e+02) (9, -6.72022994817231847264e+02) (10, 5.53519138707245247133e+02) (11, 7.35603131467768889706e+02) (12, 4.96151357561136194363e+02) (13, -1.32411660928699507167e+03) (14, -1.01362154429843644721e+03) (15, -8.47626457676192785584e+02) (16, 5.38478567875509472884e+00) (17, 6.74031134492633327682e+02) (18, 1.05685043936602460235e+03) (19, 7.00767209485548936421e-01) (20, -6.97200069684012602167e-01) (21, 7.43131936798576808734e-01) (22, 3.23660982373314420890e-01) (23, -4.20100354071588633076e-01) (24, 5.98373159107691066083e-01) (25, -6.09648313047451484437e-01) (26, -4.64397040518289005995e-01) (27, -7.20132664599638538938e-01) (28, -2.68731450326459009315e-01) (29, 3.02280960890891348125e-01) 
