FANN_FLO_2.1
num_layers=3
learning_rate=0.700000
connection_rate=1.000000
network_type=0
learning_momentum=0.000000
training_algorithm=2
train_error_function=1
train_stop_function=0
cascade_output_change_fraction=0.010000
quickprop_decay=-0.000100
quickprop_mu=1.750000
rprop_increase_factor=1.200000
rprop_decrease_factor=0.500000
rprop_delta_min=0.000000
rprop_delta_max=50.000000
rprop_delta_zero=0.100000
cascade_output_stagnation_epochs=12
cascade_candidate_change_fraction=0.010000
cascade_candidate_stagnation_epochs=12
cascade_max_out_epochs=150
cascade_max_cand_epochs=150
cascade_num_candidate_groups=2
bit_fail_limit=3.49999999999999977796e-01
cascade_candidate_limit=1.00000000000000000000e+03
cascade_weight_multiplier=4.00000000000000022204e-01
cascade_activation_functions_count=10
cascade_activation_functions=3 5 7 8 10 11 14 15 16 17 
cascade_activation_steepnesses_count=4
cascade_activation_steepnesses=2.50000000000000000000e-01 5.00000000000000000000e-01 7.50000000000000000000e-01 1.00000000000000000000e+00 
layer_sizes=8 8 2 
scale_included=0
neurons (num_inputs, activation_function, activation_steepness)=(0, 0, 0.00000000000000000000e+00) (0, 0, 0.00000000000000000000e+00) (0, 0, 0.00000000000000000000e+00) (0, 0, 0.00000000000000000000e+00) (0, 0, 0.00000000000000000000e+00) (0, 0, 0.00000000000000000000e+00) (0, 0, 0.00000000000000000000e+00) (0, 0, 0.00000000000000000000e+00) (8, 4, 5.00000000000000000000e-01) (8, 4, 5.00000000000000000000e-01) (8, 4, 5.00000000000000000000e-01) (8, 4, 5.00000000000000000000e-01) (8, 4, 5.00000000000000000000e-01) (8, 4, 5.00000000000000000000e-01) (8, 4, 5.00000000000000000000e-01) (0, 0, 0.00000000000000000000e+00) (8, 6, 5.00000000000000000000e-01) (0, 6, 0.00000000000000000000e+00) 
connections (connected_to_neuron, weight)=(0, 8.75537176897666142850e+01) (1, -3.86403903025596832777e+02) (2, -9.32110413479063026898e+02) (3, 1.41767312727918078963e+03) (4, 1.50000000000000000000e+03) (5, 5.31378520558413356412e+02) (6, 7.19230037431137816384e+01) (7, 1.76472428092791595589e+01) (0, -5.98346008610809079187e+01) (1, 4.49246987931951267115e+01) (2, 7.20292998342115708965e+01) (3, -1.63141591501111321350e+02) (4, 1.70484737102462815983e+02) (5, -2.43475458757315351477e+02) (6, 2.36988745157556905951e+01) (7, -1.63517933962566779371e+01) (0, 9.67559006867523230255e+00) (1, -1.88521834804708845468e+01) (2, -3.35743614899730502543e+01) (3, 8.90009122181828189468e+01) (4, -7.84206730467516024419e+01) (5, 4.02428982444175034061e+01) (6, -2.98348008221841576315e+00) (7, 2.29125459408663516570e+01) (0, -4.64929577656972270461e+00) (1, -1.83399963186847898555e+01) (2, 1.03334263535937687095e+01) (3, 3.32127634290279942775e+01) (4, -7.68498967043244647357e+01) (5, 4.47578094314841195001e+01) (6, -6.46604359127173289323e+00) (7, 3.79156621708596901499e+01) (0, 8.49811145249406330038e+00) (1, -2.39918116926263920163e+01) (2, -4.64265461328533568519e+00) (3, 5.25547898534199919851e+00) (4, -1.67030163621248561867e+01) (5, 7.91855861041237574227e+00) (6, 9.05921388772715774351e-01) (7, 1.59528959978185636004e+01) (0, 5.80028738870070981193e+01) (1, -1.10632452319451360268e+02) (2, 4.52936696662937379187e+01) (3, -3.06817207379817713520e-01) (4, -8.76564271167263768803e+01) (5, 2.65806401909577871834e+01) (6, 1.93043342015523791133e+01) (7, 4.34475011777826569670e+00) (0, -7.33146758852201263501e-01) (1, 1.09938755404515120517e+01) (2, 2.60330831987206590128e+00) (3, -3.11233406115966637628e+00) (4, 9.96874938363639095940e+00) (5, -5.17744179525123904284e+00) (6, -3.64959107652174141734e+00) (7, -8.04273140297355126904e+00) (8, -1.92381885471822910993e+00) (9, -8.35084948658337156147e-01) (10, -1.53662734730793406612e+01) (11, 1.45901590414623019143e+01) (12, 5.53505340691114255947e+00) (13, -2.67752537952819835709e+00) (14, 6.80392335532295522427e+00) (15, -2.76156646567228758471e+00) 
