FANN_FLO_2.1
num_layers=3
learning_rate=0.700000
connection_rate=1.000000
network_type=0
learning_momentum=0.000000
training_algorithm=2
train_error_function=1
train_stop_function=0
cascade_output_change_fraction=0.010000
quickprop_decay=-0.000100
quickprop_mu=1.750000
rprop_increase_factor=1.200000
rprop_decrease_factor=0.500000
rprop_delta_min=0.000000
rprop_delta_max=50.000000
rprop_delta_zero=0.100000
cascade_output_stagnation_epochs=12
cascade_candidate_change_fraction=0.010000
cascade_candidate_stagnation_epochs=12
cascade_max_out_epochs=150
cascade_max_cand_epochs=150
cascade_num_candidate_groups=2
bit_fail_limit=3.49999999999999977796e-01
cascade_candidate_limit=1.00000000000000000000e+03
cascade_weight_multiplier=4.00000000000000022204e-01
cascade_activation_functions_count=10
cascade_activation_functions=3 5 7 8 10 11 14 15 16 17 
cascade_activation_steepnesses_count=4
cascade_activation_steepnesses=2.50000000000000000000e-01 5.00000000000000000000e-01 7.50000000000000000000e-01 1.00000000000000000000e+00 
layer_sizes=8 9 2 
scale_included=0
neurons (num_inputs, activation_function, activation_steepness)=(0, 0, 0.00000000000000000000e+00) (0, 0, 0.00000000000000000000e+00) (0, 0, 0.00000000000000000000e+00) (0, 0, 0.00000000000000000000e+00) (0, 0, 0.00000000000000000000e+00) (0, 0, 0.00000000000000000000e+00) (0, 0, 0.00000000000000000000e+00) (0, 0, 0.00000000000000000000e+00) (8, 4, 5.00000000000000000000e-01) (8, 4, 5.00000000000000000000e-01) (8, 4, 5.00000000000000000000e-01) (8, 4, 5.00000000000000000000e-01) (8, 4, 5.00000000000000000000e-01) (8, 4, 5.00000000000000000000e-01) (8, 4, 5.00000000000000000000e-01) (8, 4, 5.00000000000000000000e-01) (0, 0, 0.00000000000000000000e+00) (9, 6, 5.00000000000000000000e-01) (0, 6, 0.00000000000000000000e+00) 
connections (connected_to_neuron, weight)=(0, -1.71444283505858372507e+01) (1, -7.59109648062022968062e-01) (2, -5.03104357476892705137e+00) (3, 6.68627659760623149765e+00) (4, 9.16885518636037843976e-01) (5, 5.19319715409560789254e+00) (6, 8.19230998610195371157e+00) (7, 1.29705575122575988978e+00) (0, -1.50000000000000000000e+03) (1, -1.50000000000000000000e+03) (2, -1.50000000000000000000e+03) (3, -1.50000000000000000000e+03) (4, -1.50000000000000000000e+03) (5, -1.50000000000000000000e+03) (6, -1.50000000000000000000e+03) (7, -9.84992644867876077086e-01) (0, 3.67578908693757426818e+01) (1, -7.24557332679722350122e+01) (2, -2.45340933314421283384e+00) (3, 6.64992123166216231311e+00) (4, -3.02440368137897124257e+01) (5, -5.64597816758590331787e-01) (6, 1.25968770925165838293e+01) (7, 1.30758359993739823324e+01) (0, 1.38711406566463857359e+00) (1, -1.88561299607939290013e+01) (2, 4.69931753005423118452e+01) (3, 3.43887502353937932753e+01) (4, 1.85740414105251659294e+02) (5, -1.31097516214080854979e+02) (6, 2.83884690527968857054e+01) (7, -1.44296844535984405411e+02) (0, -2.56018218148047012050e+01) (1, -1.42364907128559457306e+03) (2, -5.29588455022829748486e+02) (3, 7.18585317506156684431e+02) (4, 5.56153574919956668055e+02) (5, 1.14112865454784909502e+02) (6, 2.87762328229739750896e+02) (7, 2.43938357305667238961e+02) (0, -1.50000000000000000000e+03) (1, -1.50000000000000000000e+03) (2, -1.50000000000000000000e+03) (3, -1.50000000000000000000e+03) (4, -1.50000000000000000000e+03) (5, -1.50000000000000000000e+03) (6, -1.50000000000000000000e+03) (7, 4.66244773691136149552e+00) (0, 2.07094380598052396181e+02) (1, -2.58680960619761151520e+02) (2, 1.61152883405715158460e+02) (3, 9.38497846011340541850e+00) (4, -3.00638680727122569181e+01) (5, 9.13852530129335320908e+01) (6, -2.17083639631158177963e+02) (7, 4.34294172384330394721e+01) (0, -1.50000000000000000000e+03) (1, -1.50000000000000000000e+03) (2, -1.50000000000000000000e+03) (3, -1.50000000000000000000e+03) (4, -1.50000000000000000000e+03) (5, -1.50000000000000000000e+03) (6, -1.50000000000000000000e+03) (7, -2.25048076991622858500e+00) (8, -4.49095670921117839924e+00) (9, 1.50000000000000000000e+03) (10, -3.57834112061604647792e+00) (11, -1.24843977064094513452e+00) (12, 2.81589955030133509695e+00) (13, 1.50000000000000000000e+03) (14, 1.37095785368946732063e+00) (15, 1.50000000000000000000e+03) (16, 1.66681866820340446322e-01) 
