FANN_FLO_2.1
num_layers=3
learning_rate=0.700000
connection_rate=1.000000
network_type=0
learning_momentum=0.000000
training_algorithm=2
train_error_function=1
train_stop_function=0
cascade_output_change_fraction=0.010000
quickprop_decay=-0.000100
quickprop_mu=1.750000
rprop_increase_factor=1.200000
rprop_decrease_factor=0.500000
rprop_delta_min=0.000000
rprop_delta_max=50.000000
rprop_delta_zero=0.100000
cascade_output_stagnation_epochs=12
cascade_candidate_change_fraction=0.010000
cascade_candidate_stagnation_epochs=12
cascade_max_out_epochs=150
cascade_max_cand_epochs=150
cascade_num_candidate_groups=2
bit_fail_limit=3.49999999999999977796e-01
cascade_candidate_limit=1.00000000000000000000e+03
cascade_weight_multiplier=4.00000000000000022204e-01
cascade_activation_functions_count=10
cascade_activation_functions=3 5 7 8 10 11 14 15 16 17 
cascade_activation_steepnesses_count=4
cascade_activation_steepnesses=2.50000000000000000000e-01 5.00000000000000000000e-01 7.50000000000000000000e-01 1.00000000000000000000e+00 
layer_sizes=8 16 2 
scale_included=0
neurons (num_inputs, activation_function, activation_steepness)=(0, 0, 0.00000000000000000000e+00) (0, 0, 0.00000000000000000000e+00) (0, 0, 0.00000000000000000000e+00) (0, 0, 0.00000000000000000000e+00) (0, 0, 0.00000000000000000000e+00) (0, 0, 0.00000000000000000000e+00) (0, 0, 0.00000000000000000000e+00) (0, 0, 0.00000000000000000000e+00) (8, 4, 5.00000000000000000000e-01) (8, 4, 5.00000000000000000000e-01) (8, 4, 5.00000000000000000000e-01) (8, 4, 5.00000000000000000000e-01) (8, 4, 5.00000000000000000000e-01) (8, 4, 5.00000000000000000000e-01) (8, 4, 5.00000000000000000000e-01) (8, 4, 5.00000000000000000000e-01) (8, 4, 5.00000000000000000000e-01) (8, 4, 5.00000000000000000000e-01) (8, 4, 5.00000000000000000000e-01) (8, 4, 5.00000000000000000000e-01) (8, 4, 5.00000000000000000000e-01) (8, 4, 5.00000000000000000000e-01) (8, 4, 5.00000000000000000000e-01) (0, 0, 0.00000000000000000000e+00) (16, 6, 5.00000000000000000000e-01) (0, 6, 0.00000000000000000000e+00) 
connections (connected_to_neuron, weight)=(0, -2.62277692031377895887e+01) (1, 1.92115486582378338198e+02) (2, 5.88160287643947228275e+01) (3, 3.41326182976812219749e+02) (4, -2.94928993941430348968e+02) (5, 1.50000000000000000000e+03) (6, 1.46026172255881135698e+02) (7, 1.51048211734784789684e+01) (0, 4.34930086283447181472e+00) (1, -8.29965868439324738759e-01) (2, 4.75245706341851870125e-01) (3, -4.20075752786660050475e+00) (4, 7.24477625774202937947e-01) (5, -8.58956949227528854252e-01) (6, 1.19390426238493296829e+00) (7, -2.18647498775529802728e+00) (0, -5.15157872424404388312e+01) (1, 2.80898284584825184140e+01) (2, -5.76263414518803429587e+01) (3, 2.62467242235229534231e+01) (4, 7.05058400989348683652e+01) (5, -3.31795360322624830474e+01) (6, 7.52269175154581493103e+00) (7, 1.43304525507819739971e+01) (0, -6.47339899621415611364e+02) (1, 9.94270438715930254148e+02) (2, 2.03323412171646424440e+02) (3, 9.25747201050548795820e+00) (4, -2.50378127336650948109e+02) (5, 1.50000000000000000000e+03) (6, 3.42433615120513366037e+02) (7, -4.49413128308291476287e+01) (0, 1.18933433114331581493e+01) (1, -9.75338531129584751511e+00) (2, 7.62124831439931149646e+00) (3, -2.14252652923391835316e+01) (4, 1.21277302567640603570e+01) (5, -1.82088210056782928703e+00) (6, 9.52945298420881603541e-01) (7, -1.39867002963064002152e+00) (0, -3.74716454616369709640e+00) (1, -2.66703553494897164455e+02) (2, 4.83559600540083209808e+01) (3, -1.05650667744145394522e+02) (4, -8.33787920838387286437e+00) (5, -1.50000000000000000000e+03) (6, -9.68337339808920432915e+02) (7, -2.03846945801219732175e+01) (0, -2.64776305647397521170e+02) (1, 4.55477618257506890131e+02) (2, 1.28232777887911542081e+01) (3, 2.81687506850646514067e+01) (4, -4.89783562212231515787e+02) (5, 2.53276781977096874243e+02) (6, -1.49999993999999765038e+03) (7, 7.74470375946545601664e+01) (0, -5.14360532022940049046e+01) (1, -2.00783939009578205059e+01) (2, -1.32397635716662502858e+01) (3, 4.43662582534310629967e+01) (4, 6.50021354567941642699e+01) (5, 1.38528467578132961080e+02) (6, 2.10887423258500597001e+01) (7, 2.50343416547622226176e+01) (0, 2.38193451169700182390e+02) (1, -1.46728492883854926276e+02) (2, -4.27085570829294454143e+01) (3, -3.68166744705547301919e+01) (4, 7.49566033080243983022e+01) (5, -4.66913128052851433836e+01) (6, -7.15992329018240436511e+00) (7, 1.19453709948558177700e+01) (0, 3.21352268520111152839e+01) (1, -1.09855525701403919925e+01) (2, 9.84877980074489300932e+00) (3, 7.86984715221560993115e+00) (4, 5.99402073475487462417e+00) (5, -1.10350937050774735582e+01) (6, -1.15534066233204750773e+01) (7, -1.00647790339998959297e+01) (0, 4.59858286204548338816e+00) (1, -2.14190247454002609118e+01) (2, 1.97931050360933014076e+01) (3, -3.67179317161330160957e+01) (4, 1.11355247312941507687e+01) (5, 5.82241654455658874667e+00) (6, 2.11783041764328707757e+01) (7, -4.22888737899295996669e+00) (0, -3.01994958883048703058e+01) (1, -2.45369027835640487467e+01) (2, -2.48491932586866459687e+00) (3, -5.41761832090389461314e+00) (4, 2.02917320700385417354e+01) (5, 4.85506293545767917408e+01) (6, 5.16442481851224215461e+01) (7, -6.64858354452692701386e+00) (0, 1.91609884642634717977e+01) (1, -9.40075905497579782377e+01) (2, -5.31182860614391074705e+01) (3, -1.81974406309053513553e+01) (4, 5.00888441253229572681e+01) (5, 2.49730349875177637387e+01) (6, 3.36889188641726420315e+01) (7, -5.33998224103691754294e+00) (0, 5.67800799234871877985e+00) (1, -5.66014337599650385613e+00) (2, -6.87787804903221644537e+00) (3, 3.89717536088254234983e+00) (4, 7.94508407945160310959e-02) (5, -5.05377647612434302005e+01) (6, -5.60889222188054645812e+01) (7, 1.12782116314727720585e+00) (0, -4.42060365703191990860e+01) (1, -3.33136191586493168870e+01) (2, 2.48815434274481965815e+01) (3, 5.69146599699861788224e+00) (4, -2.98209317637358584108e+00) (5, 1.06891337312202381327e+02) (6, 3.09031757593421936292e+01) (7, 6.63918108919868465989e-01) (8, 1.01399539725913867549e+00) (9, -1.35937429743964823814e+01) (10, -2.09179468259527912011e+00) (11, 1.81825254438204186869e+00) (12, 7.49960584606320246337e+00) (13, -3.75080046873492323201e+00) (14, 5.68568949101214471398e+00) (15, -3.02852290574958615821e+00) (16, -3.68749515639930036670e+00) (17, 6.89681380100446794756e+00) (18, -2.96337119952876193452e+00) (19, 2.74838389966918006380e+00) (20, 3.89558677973891143154e+00) (21, 7.08877304406914632295e+00) (22, -2.72838374075048273326e+00) (23, 1.72212773205961955370e+00) 
