FANN_FLO_2.1
num_layers=3
learning_rate=0.700000
connection_rate=1.000000
network_type=0
learning_momentum=0.000000
training_algorithm=2
train_error_function=1
train_stop_function=0
cascade_output_change_fraction=0.010000
quickprop_decay=-0.000100
quickprop_mu=1.750000
rprop_increase_factor=1.200000
rprop_decrease_factor=0.500000
rprop_delta_min=0.000000
rprop_delta_max=50.000000
rprop_delta_zero=0.100000
cascade_output_stagnation_epochs=12
cascade_candidate_change_fraction=0.010000
cascade_candidate_stagnation_epochs=12
cascade_max_out_epochs=150
cascade_max_cand_epochs=150
cascade_num_candidate_groups=2
bit_fail_limit=3.49999999999999977796e-01
cascade_candidate_limit=1.00000000000000000000e+03
cascade_weight_multiplier=4.00000000000000022204e-01
cascade_activation_functions_count=10
cascade_activation_functions=3 5 7 8 10 11 14 15 16 17 
cascade_activation_steepnesses_count=4
cascade_activation_steepnesses=2.50000000000000000000e-01 5.00000000000000000000e-01 7.50000000000000000000e-01 1.00000000000000000000e+00 
layer_sizes=8 11 2 
scale_included=0
neurons (num_inputs, activation_function, activation_steepness)=(0, 0, 0.00000000000000000000e+00) (0, 0, 0.00000000000000000000e+00) (0, 0, 0.00000000000000000000e+00) (0, 0, 0.00000000000000000000e+00) (0, 0, 0.00000000000000000000e+00) (0, 0, 0.00000000000000000000e+00) (0, 0, 0.00000000000000000000e+00) (0, 0, 0.00000000000000000000e+00) (8, 4, 5.00000000000000000000e-01) (8, 4, 5.00000000000000000000e-01) (8, 4, 5.00000000000000000000e-01) (8, 4, 5.00000000000000000000e-01) (8, 4, 5.00000000000000000000e-01) (8, 4, 5.00000000000000000000e-01) (8, 4, 5.00000000000000000000e-01) (8, 4, 5.00000000000000000000e-01) (8, 4, 5.00000000000000000000e-01) (8, 4, 5.00000000000000000000e-01) (0, 0, 0.00000000000000000000e+00) (11, 6, 5.00000000000000000000e-01) (0, 6, 0.00000000000000000000e+00) 
connections (connected_to_neuron, weight)=(0, 1.30867009502200517090e+02) (1, 7.01051700510048192427e+01) (2, 1.61161623455311570297e+02) (3, -3.51327641572594817632e+00) (4, -1.29111739139079986671e+02) (5, 2.12821274424465087804e+02) (6, -4.98466161879429350279e+01) (7, -6.81641367586994419980e+01) (0, 4.92956144788518280109e+00) (1, 1.37177232206357735400e+00) (2, 1.49481900436293688728e+01) (3, -1.36939821900042097980e+01) (4, -5.69098417443936543947e+00) (5, 1.44177557123660431415e+01) (6, 6.03891572308966284588e-01) (7, 1.73589499101975497375e+00) (0, 1.64125099942010933773e+02) (1, -1.62048829540641378344e+02) (2, -2.43106986281696180185e+01) (3, 1.06911311130693292171e+02) (4, -8.49668216180890141231e+01) (5, 4.61890255077480276213e+01) (6, -1.40211918894511114786e+02) (7, 2.97223344328919623081e+01) (0, 1.39879539614032157857e+01) (1, 3.59697223744596028538e+00) (2, -1.77429150677266633807e+00) (3, 2.96556872540449134590e+00) (4, 4.80624932999992360294e+00) (5, -1.64814294476541522982e+00) (6, 7.41269467622226785330e-01) (7, -4.97476636610234379532e+00) (0, -1.68925418054014109259e+00) (1, 1.50549276325574754587e+00) (2, -4.20321361883558675121e-01) (3, 2.71106585540876743323e-01) (4, -1.66838571220722486910e-01) (5, 3.60687102022624384023e-01) (6, 5.90749894064405811633e-01) (7, -1.16441940112163133669e+00) (0, 3.44336497994937076328e+02) (1, -3.67062274339772329768e+01) (2, 8.46430851795885388356e+01) (3, 1.29743877322507383809e+01) (4, 6.25945482529719043896e+00) (5, 6.81170698182034755064e+01) (6, -9.60861281156235236267e+01) (7, -9.46904008819941083175e+01) (0, 5.24682499052147704788e+02) (1, 1.59255995986261240205e+02) (2, 5.06156080811580864065e+01) (3, 6.54862000422131131927e+02) (4, 6.26670227079156120453e+02) (5, 1.50000000000000000000e+03) (6, -7.45039500333856722136e+02) (7, 1.84053559432127471496e+01) (0, -1.06727406475298295163e+02) (1, 1.22340312208127059534e+02) (2, -1.45641343264329421459e+01) (3, 4.53576388844515605570e+01) (4, -6.49771366963783325588e+00) (5, 4.94226447530684964704e+01) (6, -3.87617035129925895376e+01) (7, -2.17721032997314516422e+01) (0, 1.75977948595758391548e+02) (1, -6.06159070542818270155e+01) (2, 2.13270539715235507572e+01) (3, 7.97425798111361103793e+01) (4, 2.18976757419385990033e+01) (5, -1.03440095765530468697e+01) (6, 5.41951892778114512339e+01) (7, -6.24537118468394467641e+01) (0, 4.49360550512596944372e+02) (1, 4.78941627424916092082e+01) (2, 1.47600446745194489040e+01) (3, -5.63893814528516834628e+00) (4, 7.16986000012775548385e+01) (5, 2.18030225697942547924e+01) (6, -9.97007145666452174737e+01) (7, -1.22677183532987527315e+02) (8, 6.91791363780867296640e+00) (9, -9.99923117679847628381e+00) (10, -2.47307933900851439901e+00) (11, -1.62078342863208817448e+01) (12, -2.08350337101425182595e+01) (13, 2.10085988821729374720e+00) (14, 4.28995508425139604469e+00) (15, 1.60904284265582830926e+00) (16, 6.18607172993941301087e+00) (17, 4.65492203960329220536e+00) (18, 7.52713520426605153801e+00) 
