FANN_FLO_2.1
num_layers=3
learning_rate=0.700000
connection_rate=1.000000
network_type=0
learning_momentum=0.000000
training_algorithm=2
train_error_function=1
train_stop_function=0
cascade_output_change_fraction=0.010000
quickprop_decay=-0.000100
quickprop_mu=1.750000
rprop_increase_factor=1.200000
rprop_decrease_factor=0.500000
rprop_delta_min=0.000000
rprop_delta_max=50.000000
rprop_delta_zero=0.100000
cascade_output_stagnation_epochs=12
cascade_candidate_change_fraction=0.010000
cascade_candidate_stagnation_epochs=12
cascade_max_out_epochs=150
cascade_max_cand_epochs=150
cascade_num_candidate_groups=2
bit_fail_limit=3.49999999999999977796e-01
cascade_candidate_limit=1.00000000000000000000e+03
cascade_weight_multiplier=4.00000000000000022204e-01
cascade_activation_functions_count=10
cascade_activation_functions=3 5 7 8 10 11 14 15 16 17 
cascade_activation_steepnesses_count=4
cascade_activation_steepnesses=2.50000000000000000000e-01 5.00000000000000000000e-01 7.50000000000000000000e-01 1.00000000000000000000e+00 
layer_sizes=8 11 2 
scale_included=0
neurons (num_inputs, activation_function, activation_steepness)=(0, 0, 0.00000000000000000000e+00) (0, 0, 0.00000000000000000000e+00) (0, 0, 0.00000000000000000000e+00) (0, 0, 0.00000000000000000000e+00) (0, 0, 0.00000000000000000000e+00) (0, 0, 0.00000000000000000000e+00) (0, 0, 0.00000000000000000000e+00) (0, 0, 0.00000000000000000000e+00) (8, 4, 5.00000000000000000000e-01) (8, 4, 5.00000000000000000000e-01) (8, 4, 5.00000000000000000000e-01) (8, 4, 5.00000000000000000000e-01) (8, 4, 5.00000000000000000000e-01) (8, 4, 5.00000000000000000000e-01) (8, 4, 5.00000000000000000000e-01) (8, 4, 5.00000000000000000000e-01) (8, 4, 5.00000000000000000000e-01) (8, 4, 5.00000000000000000000e-01) (0, 0, 0.00000000000000000000e+00) (11, 6, 5.00000000000000000000e-01) (0, 6, 0.00000000000000000000e+00) 
connections (connected_to_neuron, weight)=(0, -1.50000000000000000000e+03) (1, -1.50000000000000000000e+03) (2, -1.50000000000000000000e+03) (3, -1.50000000000000000000e+03) (4, -1.50000000000000000000e+03) (5, 1.50000000000000000000e+03) (6, -1.50000000000000000000e+03) (7, -3.67440460906966052335e+02) (0, -1.49883359972190851295e+03) (1, 6.43076939998583270608e+02) (2, -6.33513968059278766987e+01) (3, 2.44390195371569177496e+02) (4, -5.85197368376650160826e+02) (5, 4.56596286527176914660e+02) (6, 5.73933713205805020152e+02) (7, 1.00098414164793865666e+02) (0, 3.13590809056134503408e+02) (1, 2.78486911239200196633e+02) (2, -4.77040974165467673629e+02) (3, -2.11141156037884030638e+02) (4, 1.07176696916452485198e+02) (5, -2.40373077543561038283e+02) (6, 6.01879131084778009608e+02) (7, -3.50602440379124914216e+02) (0, -1.80081560058114642509e+00) (1, -1.21016778628567411857e+01) (2, -9.40024612771206875550e+01) (3, 3.40666057423462476095e+01) (4, -4.06750448144304499465e+01) (5, 7.49212455783761832606e+00) (6, 5.91613925371858151436e+00) (7, 3.71521795460989494586e+01) (0, 1.45197097882642566447e+02) (1, -1.37489727306868275036e+02) (2, -3.55034693562097629638e+02) (3, -8.40052539018084075906e+02) (4, 4.71332206330151848306e+02) (5, 5.11732382607668654373e+01) (6, -4.14416252494690979802e+02) (7, 1.03951004779185473126e+03) (0, -8.43960484151871128233e+02) (1, 1.22843266523944089386e+03) (2, -3.00141413008309108079e+01) (3, 5.40028264614958970924e+02) (4, -3.80599604353855568206e+02) (5, 3.13571815385333366066e+02) (6, 1.14869247247827956926e+03) (7, -1.49993302629612912824e+03) (0, 1.14699468075832714931e+03) (1, -1.50000000000000000000e+03) (2, -1.50000000000000000000e+03) (3, 2.97898183960900269085e+02) (4, -8.54518356391337533751e+02) (5, 1.09560615690003828604e+03) (6, -1.47309901058598893542e+03) (7, 1.50000000000000000000e+03) (0, -2.62585468327480441530e+02) (1, 2.56467739320309192408e+02) (2, -1.44739006378433759892e+03) (3, -1.21595507723299351710e+03) (4, 2.02632756912652382653e+02) (5, 1.27015201083769170509e+03) (6, -9.11683360494910743910e+02) (7, 1.45423410084856436697e+03) (0, -8.99238054052260054050e+01) (1, 1.22889692202831952272e+02) (2, -4.03634717473851125646e+01) (3, -5.16732230101466356587e+01) (4, 2.27200837476536534609e+01) (5, 1.52135691841365812138e+01) (6, 1.73547712948731316374e+01) (7, 1.93282875390043002994e+01) (0, 7.72184895448359270631e+02) (1, 1.50000000000000000000e+03) (2, 1.44023964074628611343e+03) (3, 1.49992752256718790704e+03) (4, 3.18181989584617440414e+02) (5, -8.43875134501433194600e+02) (6, 1.50000000000000000000e+03) (7, -1.49855629158397823630e+03) (8, 1.50000000000000000000e+03) (9, -1.51627138763866797788e+00) (10, -6.13896371610097468796e-01) (11, -1.71274939916910229343e+00) (12, -3.50892282402212984938e-01) (13, -4.28142970904096475948e-01) (14, 1.01227578577943755356e+00) (15, -2.42793876620322091053e-01) (16, 8.88809749140785143595e-01) (17, -1.72411467258670247915e+00) (18, 1.95906647347922580060e+00) 
