FANN_FLO_2.1
num_layers=3
learning_rate=0.700000
connection_rate=1.000000
network_type=0
learning_momentum=0.000000
training_algorithm=2
train_error_function=1
train_stop_function=0
cascade_output_change_fraction=0.010000
quickprop_decay=-0.000100
quickprop_mu=1.750000
rprop_increase_factor=1.200000
rprop_decrease_factor=0.500000
rprop_delta_min=0.000000
rprop_delta_max=50.000000
rprop_delta_zero=0.100000
cascade_output_stagnation_epochs=12
cascade_candidate_change_fraction=0.010000
cascade_candidate_stagnation_epochs=12
cascade_max_out_epochs=150
cascade_max_cand_epochs=150
cascade_num_candidate_groups=2
bit_fail_limit=3.49999999999999977796e-01
cascade_candidate_limit=1.00000000000000000000e+03
cascade_weight_multiplier=4.00000000000000022204e-01
cascade_activation_functions_count=10
cascade_activation_functions=3 5 7 8 10 11 14 15 16 17 
cascade_activation_steepnesses_count=4
cascade_activation_steepnesses=2.50000000000000000000e-01 5.00000000000000000000e-01 7.50000000000000000000e-01 1.00000000000000000000e+00 
layer_sizes=8 16 2 
scale_included=0
neurons (num_inputs, activation_function, activation_steepness)=(0, 0, 0.00000000000000000000e+00) (0, 0, 0.00000000000000000000e+00) (0, 0, 0.00000000000000000000e+00) (0, 0, 0.00000000000000000000e+00) (0, 0, 0.00000000000000000000e+00) (0, 0, 0.00000000000000000000e+00) (0, 0, 0.00000000000000000000e+00) (0, 0, 0.00000000000000000000e+00) (8, 4, 5.00000000000000000000e-01) (8, 4, 5.00000000000000000000e-01) (8, 4, 5.00000000000000000000e-01) (8, 4, 5.00000000000000000000e-01) (8, 4, 5.00000000000000000000e-01) (8, 4, 5.00000000000000000000e-01) (8, 4, 5.00000000000000000000e-01) (8, 4, 5.00000000000000000000e-01) (8, 4, 5.00000000000000000000e-01) (8, 4, 5.00000000000000000000e-01) (8, 4, 5.00000000000000000000e-01) (8, 4, 5.00000000000000000000e-01) (8, 4, 5.00000000000000000000e-01) (8, 4, 5.00000000000000000000e-01) (8, 4, 5.00000000000000000000e-01) (0, 0, 0.00000000000000000000e+00) (16, 6, 5.00000000000000000000e-01) (0, 6, 0.00000000000000000000e+00) 
connections (connected_to_neuron, weight)=(0, -1.72116597811208833946e+02) (1, -4.85359496887640347040e+01) (2, 7.31878202241811663953e+01) (3, -1.83136703186629716811e+02) (4, -4.20579245086512969465e+01) (5, -1.86681317239420081933e+02) (6, 7.23002518761433634609e+01) (7, 6.89983209879658971886e+01) (0, -2.72365314326298690872e+00) (1, 3.38017309552037445997e+01) (2, -1.27648157593019551115e+01) (3, 6.06786424776458321872e+00) (4, 4.97933099834277115292e+00) (5, -1.61448192086126276479e+01) (6, 1.23303474417465430690e+01) (7, -2.74119479659071352273e+01) (0, 7.32552364487595809805e+02) (1, 1.50000000000000000000e+03) (2, -6.26103625467022197881e+02) (3, -7.85130131452899831856e+02) (4, 1.93313022643751452279e+02) (5, -1.13468544823058914517e+03) (6, 1.18692555278075565184e+03) (7, -6.81292624599503483296e+02) (0, 3.96071233135743838716e+01) (1, -3.01764487540952437428e+01) (2, 2.96512253737516040530e+01) (3, -8.48831709675071124366e+01) (4, -3.57782237583421434124e+01) (5, -7.87887349191177577268e+01) (6, 9.08964070543328261920e+01) (7, -2.49471511864298385319e+01) (0, -9.18383435037473077500e+02) (1, -6.78563523653840093175e+02) (2, -1.91343851716138644292e+01) (3, -1.50000000000000000000e+03) (4, 1.47457920738686084405e+02) (5, 1.49061600343475947739e+03) (6, -1.50000000000000000000e+03) (7, 1.13192181043545758712e+02) (0, -2.90331094738011302070e+02) (1, -5.23259912863968793317e+02) (2, 1.86422382091752268707e+02) (3, 1.01017160615236356591e+01) (4, 1.10546565289664997067e+02) (5, -1.32661321791551449678e+03) (6, 4.66912386474073969111e+02) (7, -3.07724857481712092522e+02) (0, 5.30643822330340526605e+01) (1, -2.57062862854775140420e+01) (2, -1.18263244771145945577e+01) (3, 1.33972781754296565992e+01) (4, 2.40645720733688293080e+01) (5, -2.00881220720078736974e+01) (6, -2.16734155108917603272e+00) (7, -1.53777319979088122892e+01) (0, -1.50000000000000000000e+03) (1, -1.50000000000000000000e+03) (2, -1.50000000000000000000e+03) (3, -1.50000000000000000000e+03) (4, 1.50000000000000000000e+03) (5, 1.48499999940395355225e+03) (6, -1.50000000000000000000e+03) (7, -3.50446635946251277005e+01) (0, -3.41146347900807995757e+01) (1, 7.09588576945347870861e+00) (2, 4.05141157089653418666e+01) (3, -7.21014797520901282724e+01) (4, -8.78188294445977746250e+00) (5, 2.76936645413574495933e+01) (6, -3.12048248444399227708e+01) (7, 1.59960004698439348658e+01) (0, 1.50000000000000000000e+03) (1, 1.50000000000000000000e+03) (2, -1.50000000000000000000e+03) (3, 7.49415630406654599938e+02) (4, -1.06533627525734641495e+03) (5, -6.27070364721491614546e+02) (6, 3.65862306013944021288e+02) (7, 1.75763456393983005910e+02) (0, -1.47116514107716973569e+01) (1, -7.32283004136981958254e+02) (2, 2.91082957640154234014e+02) (3, -9.88619410949391408394e+01) (4, 6.80442433784884315173e+01) (5, 7.83341942749508035604e+01) (6, 4.96378661286088060933e+01) (7, -2.52084222155458590464e+01) (0, -1.50000000000000000000e+03) (1, 4.59680076352389505701e+02) (2, 1.50000000000000000000e+03) (3, -1.24241165472674651937e+03) (4, 1.50000000000000000000e+03) (5, -1.49450990082353655453e+03) (6, -1.50000000000000000000e+03) (7, -4.30371845539786534118e+02) (0, -3.18867688987472206463e+02) (1, -1.40131792193199657959e+03) (2, -1.50000000000000000000e+03) (3, 1.31040744087627922454e+03) (4, -3.16304591461012705622e+02) (5, 2.69093668892884807065e+02) (6, 1.47093867376646244338e+03) (7, 5.94536955679576522016e+01) (0, -6.09418312090125766645e+01) (1, -5.06588134927193891599e+02) (2, -1.30904419250426684584e+02) (3, -3.77290726822804117546e+02) (4, -2.99272429413840029611e+02) (5, 9.00600965661079868596e+01) (6, 1.50000000000000000000e+03) (7, -3.58239171720684268507e+01) (0, 1.11902937188208317920e+00) (1, -4.42293563702566405738e+00) (2, 2.00722878995341291741e+00) (3, 8.42810917123096636772e+00) (4, 6.48474677852782477316e+00) (5, -1.36835041642971200204e+00) (6, -1.13290449121098735219e+01) (7, -3.38907787757587586341e+00) (8, -3.36792336968598515767e+00) (9, -1.76765010342659567577e+00) (10, -3.19216707015358025501e+00) (11, 1.52387980344926199372e+00) (12, 2.24536097562730940780e+00) (13, -1.38289064886673518373e+00) (14, 4.23714917928931189550e+00) (15, 1.52904886159021513592e+00) (16, -3.46840338345905996320e+00) (17, -3.35147230058971068445e+00) (18, -2.35016440640542967344e+00) (19, 5.20459427966562149237e+00) (20, -9.35279691593707718233e-01) (21, -1.85416657535721918215e+00) (22, -3.98531413135595613539e+00) (23, 4.39083284652288519112e+00) 
