FANN_FLO_2.1
num_layers=3
learning_rate=0.700000
connection_rate=1.000000
network_type=0
learning_momentum=0.000000
training_algorithm=2
train_error_function=1
train_stop_function=0
cascade_output_change_fraction=0.010000
quickprop_decay=-0.000100
quickprop_mu=1.750000
rprop_increase_factor=1.200000
rprop_decrease_factor=0.500000
rprop_delta_min=0.000000
rprop_delta_max=50.000000
rprop_delta_zero=0.100000
cascade_output_stagnation_epochs=12
cascade_candidate_change_fraction=0.010000
cascade_candidate_stagnation_epochs=12
cascade_max_out_epochs=150
cascade_max_cand_epochs=150
cascade_num_candidate_groups=2
bit_fail_limit=3.49999999999999977796e-01
cascade_candidate_limit=1.00000000000000000000e+03
cascade_weight_multiplier=4.00000000000000022204e-01
cascade_activation_functions_count=10
cascade_activation_functions=3 5 7 8 10 11 14 15 16 17 
cascade_activation_steepnesses_count=4
cascade_activation_steepnesses=2.50000000000000000000e-01 5.00000000000000000000e-01 7.50000000000000000000e-01 1.00000000000000000000e+00 
layer_sizes=8 16 2 
scale_included=0
neurons (num_inputs, activation_function, activation_steepness)=(0, 0, 0.00000000000000000000e+00) (0, 0, 0.00000000000000000000e+00) (0, 0, 0.00000000000000000000e+00) (0, 0, 0.00000000000000000000e+00) (0, 0, 0.00000000000000000000e+00) (0, 0, 0.00000000000000000000e+00) (0, 0, 0.00000000000000000000e+00) (0, 0, 0.00000000000000000000e+00) (8, 4, 5.00000000000000000000e-01) (8, 4, 5.00000000000000000000e-01) (8, 4, 5.00000000000000000000e-01) (8, 4, 5.00000000000000000000e-01) (8, 4, 5.00000000000000000000e-01) (8, 4, 5.00000000000000000000e-01) (8, 4, 5.00000000000000000000e-01) (8, 4, 5.00000000000000000000e-01) (8, 4, 5.00000000000000000000e-01) (8, 4, 5.00000000000000000000e-01) (8, 4, 5.00000000000000000000e-01) (8, 4, 5.00000000000000000000e-01) (8, 4, 5.00000000000000000000e-01) (8, 4, 5.00000000000000000000e-01) (8, 4, 5.00000000000000000000e-01) (0, 0, 0.00000000000000000000e+00) (16, 6, 5.00000000000000000000e-01) (0, 6, 0.00000000000000000000e+00) 
connections (connected_to_neuron, weight)=(0, 4.00273195358605171634e+00) (1, -1.42591286685583611415e+01) (2, -3.68482780066416992781e+00) (3, -3.97162401595406100441e+00) (4, -5.05904060237782804421e+00) (5, -6.52365585341552733922e+00) (6, 1.47615625335813955843e+01) (7, 4.50172342080086540506e+00) (0, 7.60698889831653612958e+00) (1, -6.37521635048526658096e+00) (2, 2.22200253760114030399e+00) (3, -1.89041434337016802658e+01) (4, 1.31278107333893778730e+01) (5, 5.04220098778785597027e-01) (6, -2.32852780065976494583e+00) (7, 2.71514232205909289419e+00) (0, -1.50000000000000000000e+03) (1, -3.31680994008058291911e+02) (2, 6.97363931336299856412e+02) (3, -1.13855040030773153603e+01) (4, -3.67175083036515204071e+01) (5, -6.92049997953366471393e+01) (6, -1.50000000000000000000e+03) (7, -1.30968583648274176312e+02) (0, -1.75624086371127985373e+00) (1, -3.99320014140224310850e+00) (2, -3.36067386772001563955e+00) (3, -8.99357437961550099104e-01) (4, 6.92730021266831830218e+00) (5, -4.59797403663272419294e+00) (6, 7.78513205545501030258e+00) (7, -1.33624695904056212115e+00) (0, 1.98374135623351222080e+01) (1, 2.07662389798833260102e+01) (2, 7.07000372706019533098e+01) (3, -1.19166835177513476651e+02) (4, -2.07013067411867730527e+01) (5, 6.82016905459125410971e+00) (6, -6.27273324753967216338e+01) (7, 2.32016618498369915358e+01) (0, -1.02854248747178567136e+00) (1, -1.95432552412419973109e+01) (2, 8.83983471252953378894e+00) (3, -4.70312684845473825135e+01) (4, 4.83686511501770368682e+01) (5, 1.30979165653305891226e+01) (6, 3.27470246055913420946e+01) (7, -2.11344005429084589309e+01) (0, -3.67971338046436244440e+02) (1, -1.31917891051842104844e+02) (2, -1.44840787933535186660e+00) (3, -2.27344542665477149512e+01) (4, -1.06713187102126107675e+03) (5, 3.35197401832428454327e+02) (6, 6.86972961824028402589e+02) (7, 1.60144685087239793120e+02) (0, 7.91129716855157472111e+00) (1, -1.07485285785326833974e+01) (2, -2.50454906738196747540e+00) (3, -1.50403876522742354638e+01) (4, 1.17661491157382531725e+01) (5, -9.45832160784395359343e-01) (6, -2.02460693682552017592e+00) (7, 1.00918406775981317480e+00) (0, 2.12218747689257458688e+00) (1, 1.83262556271963195087e+00) (2, -2.09319955541885382999e+00) (3, -3.58680907753350686207e+00) (4, 2.03448623753570956296e+01) (5, -1.30036912811618172725e+01) (6, -1.49884098416649269581e+00) (7, -5.45570484493163032624e+00) (0, -2.13115635053371022423e+02) (1, -1.03834657069170816612e+03) (2, -2.79785871001271061687e+02) (3, 1.28578537770126757778e+02) (4, 6.70374945338615191304e+01) (5, 1.73832736942993903995e+02) (6, -7.32032637291216161657e+01) (7, 1.40130022037608910068e+02) (0, -7.97516360170124993800e+00) (1, -9.82711468770759033475e+00) (2, 2.16153923936689151830e+00) (3, 2.97570641735278762496e+00) (4, -8.54625836530624205523e+00) (5, 3.61514812488063830287e+00) (6, 2.08967410558497732609e+01) (7, -2.57472936819605280334e+00) (0, 1.29341584502942872348e+01) (1, -1.40664445029538054399e+01) (2, 2.79743290315062598239e+00) (3, -9.51251487939716966480e+00) (4, 1.03333958227408584385e+00) (5, -2.71776213511492226171e-01) (6, -8.28221529061894123913e+00) (7, 5.75500489920083779793e+00) (0, 5.52557732082828234610e+00) (1, 1.81875742619833857816e+00) (2, 4.96186891707603727752e+00) (3, -7.08542028249966282516e+00) (4, -6.12110891869711126745e-01) (5, -3.81182316296996548388e+00) (6, 2.83525551697400679529e+00) (7, -2.91653117848020349001e+00) (0, 9.91080096177242921840e+01) (1, -5.50038328321381158048e+01) (2, 3.50649142351692404418e+01) (3, 5.53784841308653330572e+00) (4, -1.82868625708654981565e+01) (5, -1.95598116263132553172e+01) (6, 1.21956454647468301999e+01) (7, -3.70098742366149338068e+01) (0, 4.44430456695145181811e+01) (1, -1.30129075745899118743e+01) (2, 9.87180822187147199998e-01) (3, -2.31211132177157363543e+00) (4, 1.87490907985070833774e+01) (5, -1.97359377675695526477e+01) (6, -1.49858390391548539355e+01) (7, -5.56199891631403442460e+00) (8, 3.60161572008988706273e+00) (9, 5.23280019581473343493e+00) (10, 6.71770624559268014764e+00) (11, -8.75175207214436667869e+00) (12, 3.98811287241423295669e+00) (13, -3.85026591769272608090e+00) (14, -7.39630488555515941407e-01) (15, 8.05868361890744999698e+00) (16, 3.78432827665376247950e+00) (17, 2.18811831144381763181e+00) (18, 3.12094876554684130809e+00) (19, -7.98550128276136739203e+00) (20, -1.27540674288166862027e+01) (21, 4.44641175609562555593e+00) (22, 6.12019937463266217037e+00) (23, -4.89678908861277517595e-01) 
