FANN_FLO_2.1
num_layers=3
learning_rate=0.700000
connection_rate=1.000000
network_type=0
learning_momentum=0.000000
training_algorithm=2
train_error_function=1
train_stop_function=0
cascade_output_change_fraction=0.010000
quickprop_decay=-0.000100
quickprop_mu=1.750000
rprop_increase_factor=1.200000
rprop_decrease_factor=0.500000
rprop_delta_min=0.000000
rprop_delta_max=50.000000
rprop_delta_zero=0.100000
cascade_output_stagnation_epochs=12
cascade_candidate_change_fraction=0.010000
cascade_candidate_stagnation_epochs=12
cascade_max_out_epochs=150
cascade_max_cand_epochs=150
cascade_num_candidate_groups=2
bit_fail_limit=3.49999999999999977796e-01
cascade_candidate_limit=1.00000000000000000000e+03
cascade_weight_multiplier=4.00000000000000022204e-01
cascade_activation_functions_count=10
cascade_activation_functions=3 5 7 8 10 11 14 15 16 17 
cascade_activation_steepnesses_count=4
cascade_activation_steepnesses=2.50000000000000000000e-01 5.00000000000000000000e-01 7.50000000000000000000e-01 1.00000000000000000000e+00 
layer_sizes=8 15 2 
scale_included=0
neurons (num_inputs, activation_function, activation_steepness)=(0, 0, 0.00000000000000000000e+00) (0, 0, 0.00000000000000000000e+00) (0, 0, 0.00000000000000000000e+00) (0, 0, 0.00000000000000000000e+00) (0, 0, 0.00000000000000000000e+00) (0, 0, 0.00000000000000000000e+00) (0, 0, 0.00000000000000000000e+00) (0, 0, 0.00000000000000000000e+00) (8, 4, 5.00000000000000000000e-01) (8, 4, 5.00000000000000000000e-01) (8, 4, 5.00000000000000000000e-01) (8, 4, 5.00000000000000000000e-01) (8, 4, 5.00000000000000000000e-01) (8, 4, 5.00000000000000000000e-01) (8, 4, 5.00000000000000000000e-01) (8, 4, 5.00000000000000000000e-01) (8, 4, 5.00000000000000000000e-01) (8, 4, 5.00000000000000000000e-01) (8, 4, 5.00000000000000000000e-01) (8, 4, 5.00000000000000000000e-01) (8, 4, 5.00000000000000000000e-01) (8, 4, 5.00000000000000000000e-01) (0, 0, 0.00000000000000000000e+00) (15, 6, 5.00000000000000000000e-01) (0, 6, 0.00000000000000000000e+00) 
connections (connected_to_neuron, weight)=(0, -1.50000000000000000000e+03) (1, -1.50000000000000000000e+03) (2, -1.50000000000000000000e+03) (3, -4.27817931453782705375e+02) (4, 1.50000000000000000000e+03) (5, -1.47563186434534668479e+03) (6, -1.50000000000000000000e+03) (7, 4.05285778952714565548e+02) (0, -1.13908661031267879338e+01) (1, 1.68232666593544280431e+02) (2, -5.22322815642754605392e+01) (3, -2.69608793215991191516e+01) (4, 2.73962959856640040357e+01) (5, 8.45911006009905435121e+01) (6, -9.03387976580659710635e+01) (7, 3.81163261859763053963e+01) (0, 2.58143089225446999535e+02) (1, 1.73117965520137687463e+02) (2, 7.51994984109395090854e+02) (3, -6.52714336798647764226e+02) (4, 6.20727808133902840382e+02) (5, 1.50000000000000000000e+03) (6, -2.42312734506597877271e+02) (7, 2.72583917111748483819e+01) (0, 4.14704854413278440006e+02) (1, -1.72628810564579566744e+02) (2, -7.66250616280242638823e+02) (3, 6.45035330917722490085e+02) (4, -1.28611223026729078356e+02) (5, -7.85897812428540447627e+01) (6, 3.10667758575361858675e+01) (7, 3.48808966588448328139e+01) (0, -3.26330045748448824838e+01) (1, 2.70785263424125410836e+01) (2, -1.02381938584024156924e+00) (3, 1.16707241889764219422e+01) (4, 2.05275306311953542604e+01) (5, 1.86167302596891701683e+01) (6, 1.30300409123476901296e-01) (7, -3.20733384235295693188e+00) (0, -1.50000000000000000000e+03) (1, -1.50000000000000000000e+03) (2, -1.50000000000000000000e+03) (3, -1.50000000000000000000e+03) (4, 1.50000000000000000000e+03) (5, 1.36183947795775816303e+03) (6, -1.50000000000000000000e+03) (7, -1.31384279201429922068e+03) (0, 6.58845448270756577358e+01) (1, -1.99257683499811065531e+02) (2, -2.83961905775022955822e+02) (3, -6.44555072666962246331e+02) (4, 1.17381527471426551301e+02) (5, -1.50000000000000000000e+03) (6, -8.73663383696326434347e+01) (7, 3.67320686843586315717e+02) (0, -2.12209169781048210268e+01) (1, -3.29093013265212661622e+01) (2, 4.37331906288025518137e+00) (3, 1.16582532104128748784e+01) (4, -2.42723492962391667049e+01) (5, 3.66856333687736437810e+01) (6, 2.65234694334039460273e+01) (7, 6.40404152201814103051e+00) (0, 1.19631106841478484171e+02) (1, 1.60947269401515711706e+02) (2, 8.06623625644090338938e+02) (3, 1.90819465207252591199e+02) (4, -1.50000000000000000000e+03) (5, -5.26674048095671196279e+02) (6, -4.01571563859399702778e+02) (7, -3.47338958402586342800e+02) (0, -9.96814969378055337756e+01) (1, 1.44116521141273369722e+03) (2, 1.48706716664981740905e+03) (3, -9.40858912653836114259e+02) (4, -1.49727677796386478803e+03) (5, 5.17630419883066679176e+02) (6, 1.06471614777383976502e+02) (7, -1.49818537698700038163e+03) (0, -5.22543554136283674438e+01) (1, 4.70516610948336975184e+01) (2, -4.60195019925749591039e+01) (3, 2.73897595318481386073e+01) (4, -6.20739846010870288673e-01) (5, 2.33620838404864389348e-01) (6, 1.88635901772218232963e+01) (7, -6.55277812683913829517e+00) (0, 6.20905335764373589313e+00) (1, -1.05478101001164272787e+01) (2, -1.60011364270170908242e+01) (3, 2.88949845241634140081e+00) (4, -1.00439309633744642269e+01) (5, -1.85874787944676498341e+01) (6, 2.55837292082875977783e+00) (7, 8.91661600206049342887e+00) (0, 1.49941158899431889040e+03) (1, -3.41060817977790350142e+02) (2, 7.25018642783643372240e+02) (3, -1.49949696242774462007e+03) (4, -1.39546724837530746299e+02) (5, -6.15545946323851808302e+02) (6, 3.54270552440242568082e+02) (7, -1.05525349863804808592e+03) (0, 3.09392013913439924977e+01) (1, 5.42612645214033548768e+01) (2, -3.01175473193164799923e+00) (3, -2.31235382910262750045e+01) (4, 3.93186144115110352004e+01) (5, -5.92502770558846094673e+01) (6, -4.23406843613211378852e+01) (7, -9.47070655296802499379e+00) (8, 7.40779473326900639307e-01) (9, 3.35753586968932982160e+00) (10, -3.97361487828884296647e+00) (11, 1.12901207836901190662e-01) (12, -4.80996244932830130381e+00) (13, 2.79337697256292871728e+00) (14, 2.29659969964283527943e+00) (15, 1.22316947474993398259e+01) (16, -2.01977777163139560201e+00) (17, -7.39551798832751017265e-01) (18, -8.36639798434744541566e+00) (19, -6.87891949463165097711e+00) (20, -1.76854687768378870949e+00) (21, 1.21565740887776190249e+01) (22, -6.52690271845002811801e+00) 
