FANN_FLO_2.1
num_layers=3
learning_rate=0.700000
connection_rate=1.000000
network_type=0
learning_momentum=0.000000
training_algorithm=2
train_error_function=1
train_stop_function=0
cascade_output_change_fraction=0.010000
quickprop_decay=-0.000100
quickprop_mu=1.750000
rprop_increase_factor=1.200000
rprop_decrease_factor=0.500000
rprop_delta_min=0.000000
rprop_delta_max=50.000000
rprop_delta_zero=0.100000
cascade_output_stagnation_epochs=12
cascade_candidate_change_fraction=0.010000
cascade_candidate_stagnation_epochs=12
cascade_max_out_epochs=150
cascade_max_cand_epochs=150
cascade_num_candidate_groups=2
bit_fail_limit=3.49999999999999977796e-01
cascade_candidate_limit=1.00000000000000000000e+03
cascade_weight_multiplier=4.00000000000000022204e-01
cascade_activation_functions_count=10
cascade_activation_functions=3 5 7 8 10 11 14 15 16 17 
cascade_activation_steepnesses_count=4
cascade_activation_steepnesses=2.50000000000000000000e-01 5.00000000000000000000e-01 7.50000000000000000000e-01 1.00000000000000000000e+00 
layer_sizes=8 6 3 
scale_included=0
neurons (num_inputs, activation_function, activation_steepness)=(0, 0, 0.00000000000000000000e+00) (0, 0, 0.00000000000000000000e+00) (0, 0, 0.00000000000000000000e+00) (0, 0, 0.00000000000000000000e+00) (0, 0, 0.00000000000000000000e+00) (0, 0, 0.00000000000000000000e+00) (0, 0, 0.00000000000000000000e+00) (0, 0, 0.00000000000000000000e+00) (8, 4, 5.00000000000000000000e-01) (8, 4, 5.00000000000000000000e-01) (8, 4, 5.00000000000000000000e-01) (8, 4, 5.00000000000000000000e-01) (8, 4, 5.00000000000000000000e-01) (0, 0, 0.00000000000000000000e+00) (6, 6, 5.00000000000000000000e-01) (6, 6, 5.00000000000000000000e-01) (0, 6, 0.00000000000000000000e+00) 
connections (connected_to_neuron, weight)=(0, 8.20755618270808362524e+00) (1, -5.92112384040442396582e+00) (2, -8.35293449887456596059e+00) (3, 1.74220533800573917915e+01) (4, 1.64793434535757699066e+00) (5, -2.57434781745179179779e+01) (6, 1.26443719495027817601e+01) (7, -4.46115345816664632395e+00) (0, -3.44126552465789847801e+00) (1, -2.02543370528587409751e+01) (2, 2.75369224732614981122e+00) (3, 9.29514907329900830213e-01) (4, 1.01689446850657088106e+01) (5, 1.32715384189110405799e+01) (6, 1.90001780108414508597e-01) (7, 3.51124287127513134976e+00) (0, -9.51982619370246863078e-01) (1, -3.13953920665530628042e-02) (2, 1.46522029490131044938e+00) (3, -4.56926164802703915768e+00) (4, -1.59892475358497776483e+00) (5, -2.99644042041957436862e-01) (6, -1.21932569380140021220e-01) (7, -2.29478668308416705601e-01) (0, 3.51383367998940798316e+02) (1, -1.03889753935037077781e+02) (2, 1.69241041485275935941e+01) (3, -1.87562172240122535527e+01) (4, -1.11547706664810149846e+02) (5, 1.92759343258252926034e+02) (6, -8.69598152731066079468e+02) (7, -2.06876940694477351457e+00) (0, 1.65390221737783921219e-01) (1, -3.59637590000995155393e-01) (2, 1.53283513870623866460e+00) (3, 1.45942187941935834772e+01) (4, 6.94749762752556598855e+00) (5, -2.61026456824876662566e+00) (6, -1.41162660361582634749e+01) (7, 3.32062599222931531529e+00) (8, -1.55781944052112208965e+00) (9, -1.40852619774595222424e+00) (10, 7.51674194590312705344e+00) (11, 6.74931418529779225679e-01) (12, 8.63343839557490277947e-01) (13, 1.54508858092212530977e+00) (8, 1.82196025170300845986e+00) (9, 1.70508214643586053505e+00) (10, -5.69742730553042253661e+00) (11, -3.39582933641227935340e-01) (12, -1.07030677295317944164e+00) (13, 6.31117349726721621472e-01) 
