FANN_FLO_2.1
num_layers=3
learning_rate=0.700000
connection_rate=1.000000
network_type=0
learning_momentum=0.000000
training_algorithm=2
train_error_function=1
train_stop_function=0
cascade_output_change_fraction=0.010000
quickprop_decay=-0.000100
quickprop_mu=1.750000
rprop_increase_factor=1.200000
rprop_decrease_factor=0.500000
rprop_delta_min=0.000000
rprop_delta_max=50.000000
rprop_delta_zero=0.100000
cascade_output_stagnation_epochs=12
cascade_candidate_change_fraction=0.010000
cascade_candidate_stagnation_epochs=12
cascade_max_out_epochs=150
cascade_max_cand_epochs=150
cascade_num_candidate_groups=2
bit_fail_limit=3.49999999999999977796e-01
cascade_candidate_limit=1.00000000000000000000e+03
cascade_weight_multiplier=4.00000000000000022204e-01
cascade_activation_functions_count=10
cascade_activation_functions=3 5 7 8 10 11 14 15 16 17 
cascade_activation_steepnesses_count=4
cascade_activation_steepnesses=2.50000000000000000000e-01 5.00000000000000000000e-01 7.50000000000000000000e-01 1.00000000000000000000e+00 
layer_sizes=8 11 2 
scale_included=0
neurons (num_inputs, activation_function, activation_steepness)=(0, 0, 0.00000000000000000000e+00) (0, 0, 0.00000000000000000000e+00) (0, 0, 0.00000000000000000000e+00) (0, 0, 0.00000000000000000000e+00) (0, 0, 0.00000000000000000000e+00) (0, 0, 0.00000000000000000000e+00) (0, 0, 0.00000000000000000000e+00) (0, 0, 0.00000000000000000000e+00) (8, 4, 5.00000000000000000000e-01) (8, 4, 5.00000000000000000000e-01) (8, 4, 5.00000000000000000000e-01) (8, 4, 5.00000000000000000000e-01) (8, 4, 5.00000000000000000000e-01) (8, 4, 5.00000000000000000000e-01) (8, 4, 5.00000000000000000000e-01) (8, 4, 5.00000000000000000000e-01) (8, 4, 5.00000000000000000000e-01) (8, 4, 5.00000000000000000000e-01) (0, 0, 0.00000000000000000000e+00) (11, 6, 5.00000000000000000000e-01) (0, 6, 0.00000000000000000000e+00) 
connections (connected_to_neuron, weight)=(0, -2.72170169121467750983e+01) (1, 3.67209694756539661853e+01) (2, -1.58999980729144212432e+01) (3, -3.15517572320564525512e+01) (4, 3.95008220295524878907e+01) (5, 3.37850593698341370441e+01) (6, -1.43068715011983407237e+01) (7, 1.53496966604952422841e+00) (0, -1.94008336005919268530e+00) (1, -1.18813298731377496864e+01) (2, -8.41321747586129120577e+00) (3, -1.29186307683938057522e+01) (4, 3.08327561587171032897e+01) (5, 5.96747410249917176195e-01) (6, 1.08691379581078955141e+01) (7, -1.61018877631003576312e+01) (0, -6.67988298926042460835e+01) (1, 4.25821190348256592983e+01) (2, 2.40581579725088730015e+01) (3, -7.77213003096558452398e+01) (4, 3.44111579464096450920e+01) (5, 4.24714368323092656965e+01) (6, 1.35753383954459039273e+01) (7, 3.60506552419298653689e+00) (0, -3.25970335597932091787e+02) (1, -8.00324685759368890103e+01) (2, -5.59912160683341653566e+02) (3, -3.10740756288197076174e+02) (4, 3.79813435327295792376e+02) (5, 1.50000000000000000000e+03) (6, -4.64318158767544701959e+01) (7, -1.35259453447931683456e+01) (0, 3.38086453314792620972e+01) (1, -4.64570497307253233998e+01) (2, 7.20782029881092825008e+01) (3, -3.77515597443461814464e+01) (4, -1.89056553655232271183e+01) (5, 3.72782474153165352959e+01) (6, -5.22121173357247556623e+01) (7, -8.81066397722054084340e+00) (0, 8.59604152651676116648e+01) (1, -5.85604192154058722508e+01) (2, -1.51455134143644357891e+02) (3, -1.49100171266499557987e+02) (4, 3.88262372703074561286e+02) (5, -2.42860816629642528142e+02) (6, -9.67353982035221093838e+01) (7, 1.02084206865405526798e+01) (0, -5.01079289345946143897e+00) (1, 3.58879237454950628106e+00) (2, 4.05174843845364174300e-01) (3, -3.33249655961888713307e+00) (4, -4.37334162906390133685e+00) (5, 1.15706294931477349230e+00) (6, 3.60511787822872875608e+00) (7, -1.04444054238946182345e+00) (0, -1.67595248792721804421e+02) (1, 1.51764710901213419447e+02) (2, -1.56096844795067912770e+01) (3, -5.30729709409831400535e+01) (4, -1.97431055417215958414e+02) (5, 4.22645228602355160774e+01) (6, 8.35703493921740658834e+01) (7, 5.14184215238434418893e+01) (0, -2.30055510769452702391e+01) (1, -3.45138473270579524410e+01) (2, 9.25695286664252670050e+00) (3, -6.75280894223125613962e+01) (4, 1.64364186556804376949e+01) (5, 4.79074364943273423023e+01) (6, -1.81715800111890288804e+01) (7, 6.39229438456514387212e+01) (0, 1.58695872255705296539e+02) (1, -1.48116672897440508905e+02) (2, 9.27880635771670227996e+01) (3, -1.71369791163416174129e+01) (4, -5.69924877045719497914e+01) (5, 1.40288233593254947351e+01) (6, 1.28765462156341090605e+01) (7, -2.22367383900338602132e+01) (8, 4.85842414081885731747e+00) (9, 2.33703043854479020069e+01) (10, 4.22828938822850108892e+00) (11, -1.13951335806094284919e+01) (12, 3.12105882196531903006e+00) (13, 3.12873448286947120067e+00) (14, -1.33484926171483309076e+01) (15, 1.93910439177752125239e+00) (16, 2.27162725948544608201e+00) (17, 3.47584896120190345314e+00) (18, -2.70889764858490522670e+00) 
