FANN_FLO_2.1
num_layers=4
learning_rate=0.700000
connection_rate=1.000000
network_type=0
learning_momentum=0.000000
training_algorithm=2
train_error_function=1
train_stop_function=0
cascade_output_change_fraction=0.010000
quickprop_decay=-0.000100
quickprop_mu=1.750000
rprop_increase_factor=1.200000
rprop_decrease_factor=0.500000
rprop_delta_min=0.000000
rprop_delta_max=50.000000
rprop_delta_zero=0.100000
cascade_output_stagnation_epochs=12
cascade_candidate_change_fraction=0.010000
cascade_candidate_stagnation_epochs=12
cascade_max_out_epochs=150
cascade_max_cand_epochs=150
cascade_num_candidate_groups=2
bit_fail_limit=3.49999999999999977796e-01
cascade_candidate_limit=1.00000000000000000000e+03
cascade_weight_multiplier=4.00000000000000022204e-01
cascade_activation_functions_count=10
cascade_activation_functions=3 5 7 8 10 11 14 15 16 17 
cascade_activation_steepnesses_count=4
cascade_activation_steepnesses=2.50000000000000000000e-01 5.00000000000000000000e-01 7.50000000000000000000e-01 1.00000000000000000000e+00 
layer_sizes=8 9 9 2 
scale_included=0
neurons (num_inputs, activation_function, activation_steepness)=(0, 0, 0.00000000000000000000e+00) (0, 0, 0.00000000000000000000e+00) (0, 0, 0.00000000000000000000e+00) (0, 0, 0.00000000000000000000e+00) (0, 0, 0.00000000000000000000e+00) (0, 0, 0.00000000000000000000e+00) (0, 0, 0.00000000000000000000e+00) (0, 0, 0.00000000000000000000e+00) (8, 4, 5.00000000000000000000e-01) (8, 4, 5.00000000000000000000e-01) (8, 4, 5.00000000000000000000e-01) (8, 4, 5.00000000000000000000e-01) (8, 4, 5.00000000000000000000e-01) (8, 4, 5.00000000000000000000e-01) (8, 4, 5.00000000000000000000e-01) (8, 4, 5.00000000000000000000e-01) (0, 0, 0.00000000000000000000e+00) (9, 4, 5.00000000000000000000e-01) (9, 4, 5.00000000000000000000e-01) (9, 4, 5.00000000000000000000e-01) (9, 4, 5.00000000000000000000e-01) (9, 4, 5.00000000000000000000e-01) (9, 4, 5.00000000000000000000e-01) (9, 4, 5.00000000000000000000e-01) (9, 4, 5.00000000000000000000e-01) (0, 0, 0.00000000000000000000e+00) (9, 6, 5.00000000000000000000e-01) (0, 6, 0.00000000000000000000e+00) 
connections (connected_to_neuron, weight)=(0, -1.46679339064009104732e+03) (1, 9.13729943879170605214e+02) (2, 1.47191255434316030914e+03) (3, 1.11757377965960563415e+03) (4, -1.47639318262133451753e+03) (5, -3.90396868503445318765e+02) (6, -9.76000986833901151840e+02) (7, -9.25103645726874219690e+01) (0, -1.07358343330762954793e+03) (1, 9.51905171912176456317e+02) (2, -9.53915084586483772000e+02) (3, 8.10850364080635245045e+02) (4, 2.04842217772318264224e+02) (5, -5.69562237912986461197e+02) (6, 9.61767937812576150236e+01) (7, 1.28817233543459821021e+02) (0, -6.35145395571080939590e+01) (1, 1.07796487557410637237e+03) (2, -7.94748893999862843884e+02) (3, -1.45312214341569165299e+03) (4, 9.97776736619989833343e+02) (5, -1.67061779144145589271e+02) (6, 1.10561126034117421568e+02) (7, -4.15093663521548279505e+01) (0, -3.05388784181797689143e+02) (1, 9.92890162165080823797e+02) (2, -9.96895887783600414878e+02) (3, 1.21941284084044309566e+03) (4, -6.32340229110260224843e+02) (5, 9.11244725642798982790e+01) (6, -4.69455207337524711875e+02) (7, 8.08577649028788236762e+00) (0, 5.63806108225376874543e+02) (1, 1.45101011734017242816e+03) (2, -1.46441459110491655338e+03) (3, -8.95228565810074428555e+02) (4, 1.39420929208762004237e+03) (5, -1.12668076906559645067e+03) (6, 7.35367893791691984440e-01) (7, 1.56945391271268874789e+02) (0, 1.72997276928762687476e+02) (1, 8.59701043556048944083e+02) (2, -8.55119497041138629356e+02) (3, 7.33220332619910891481e+02) (4, 4.88167824876903353015e+02) (5, -1.29293179309394486154e+03) (6, 8.84381727106389348592e+02) (7, -1.16671529888127884078e+03) (0, -1.30751345253581598627e+03) (1, -1.44102732904929689539e+03) (2, 4.27139687914795501911e+02) (3, -1.42508611370284438635e+03) (4, 2.27476736357163872526e+02) (5, 1.44407547465710672441e+03) (6, 4.40478405498417203034e+02) (7, 1.49568481591393197050e+03) (0, -6.64009138485724577095e+01) (1, 2.04401954741959798412e+02) (2, -1.03667219692288040278e+03) (3, -3.51560225147667964052e+01) (4, -1.44552754419123289154e+03) (5, 9.71942038312052432047e+02) (6, -7.07738336172082682651e+01) (7, 6.61496448042712245297e+02) (8, -1.48185275766790982743e+03) (9, 1.46933355483615855519e+03) (10, 1.45686191716859207190e+03) (11, -1.45809215288280643108e+03) (12, -3.26974351065005123473e+02) (13, -1.48295724337974274931e+03) (14, -1.48918099680015097874e+03) (15, -6.14416245665597955394e+01) (16, 3.42290833097955669473e+02) (8, -1.50000000000000000000e+03) (9, -1.50000000000000000000e+03) (10, -1.50000000000000000000e+03) (11, -1.50000000000000000000e+03) (12, -1.50000000000000000000e+03) (13, -1.50000000000000000000e+03) (14, -1.70037447190220632365e+02) (15, -1.52627201255835217353e+02) (16, -5.26977415985044572722e+01) (8, -4.49488257829453004888e+02) (9, -4.29552992740297781893e+02) (10, -1.12187684985218038491e+03) (11, -1.49306640568238572087e+03) (12, 1.12497775691134688714e+03) (13, -1.50000000000000000000e+03) (14, -8.20196400154717821351e+02) (15, -1.12536995108117139353e+03) (16, 8.19842445549006924921e+02) (8, -1.50000000000000000000e+03) (9, -1.50000000000000000000e+03) (10, -1.50000000000000000000e+03) (11, -1.50000000000000000000e+03) (12, -1.50000000000000000000e+03) (13, -1.50000000000000000000e+03) (14, -4.46180094104437216629e+02) (15, 2.34115837430932991481e+01) (16, 4.17475149581457912973e+02) (8, -6.78825170496752207328e+02) (9, 6.84418504663902240281e+02) (10, 1.37066460998174193264e+03) (11, 3.71371194957559269678e-01) (12, -6.80424982842201416133e+02) (13, -6.78854784444965616785e+02) (14, -6.85293286007941446769e+02) (15, -1.36713970359875384020e+03) (16, 1.36299090011515272636e+03) (8, 1.50000000000000000000e+03) (9, 1.50000000000000000000e+03) (10, 1.50000000000000000000e+03) (11, 1.50000000000000000000e+03) (12, 1.50000000000000000000e+03) (13, 1.50000000000000000000e+03) (14, 6.68369035763338160905e+02) (15, -1.72324172993528065945e+02) (16, 5.13634743314472643760e+02) (8, 5.45905099114530457882e+02) (9, -1.49940705642816647014e+03) (10, -1.50000000000000000000e+03) (11, 1.49792860566734248096e+03) (12, -1.50000000000000000000e+03) (13, -1.50000000000000000000e+03) (14, -1.42443204569917111257e+03) (15, -9.48055109459944333139e+02) (16, 9.54877163825305501632e+02) (8, 1.50000000000000000000e+03) (9, 1.50000000000000000000e+03) (10, 1.50000000000000000000e+03) (11, 1.50000000000000000000e+03) (12, 1.50000000000000000000e+03) (13, 1.50000000000000000000e+03) (14, 6.68369035763338160905e+02) (15, -1.72324172993528065945e+02) (16, -2.85137103567990628505e+01) (17, 3.91455125431777961609e-01) (18, 1.50000000000000000000e+03) (19, 2.58410839215541143776e-01) (20, 3.29092008643267490697e+02) (21, 3.62451538394840788726e-01) (22, -3.86148183001174760687e-01) (23, 6.20269296695049487944e-01) (24, -5.30669173598676935377e-01) (25, 5.21557042710777074568e-01) 
