FANN_FLO_2.1
num_layers=3
learning_rate=0.700000
connection_rate=1.000000
network_type=0
learning_momentum=0.000000
training_algorithm=2
train_error_function=1
train_stop_function=0
cascade_output_change_fraction=0.010000
quickprop_decay=-0.000100
quickprop_mu=1.750000
rprop_increase_factor=1.200000
rprop_decrease_factor=0.500000
rprop_delta_min=0.000000
rprop_delta_max=50.000000
rprop_delta_zero=0.100000
cascade_output_stagnation_epochs=12
cascade_candidate_change_fraction=0.010000
cascade_candidate_stagnation_epochs=12
cascade_max_out_epochs=150
cascade_max_cand_epochs=150
cascade_num_candidate_groups=2
bit_fail_limit=3.49999999999999977796e-01
cascade_candidate_limit=1.00000000000000000000e+03
cascade_weight_multiplier=4.00000000000000022204e-01
cascade_activation_functions_count=10
cascade_activation_functions=3 5 7 8 10 11 14 15 16 17 
cascade_activation_steepnesses_count=4
cascade_activation_steepnesses=2.50000000000000000000e-01 5.00000000000000000000e-01 7.50000000000000000000e-01 1.00000000000000000000e+00 
layer_sizes=8 11 2 
scale_included=0
neurons (num_inputs, activation_function, activation_steepness)=(0, 0, 0.00000000000000000000e+00) (0, 0, 0.00000000000000000000e+00) (0, 0, 0.00000000000000000000e+00) (0, 0, 0.00000000000000000000e+00) (0, 0, 0.00000000000000000000e+00) (0, 0, 0.00000000000000000000e+00) (0, 0, 0.00000000000000000000e+00) (0, 0, 0.00000000000000000000e+00) (8, 4, 5.00000000000000000000e-01) (8, 4, 5.00000000000000000000e-01) (8, 4, 5.00000000000000000000e-01) (8, 4, 5.00000000000000000000e-01) (8, 4, 5.00000000000000000000e-01) (8, 4, 5.00000000000000000000e-01) (8, 4, 5.00000000000000000000e-01) (8, 4, 5.00000000000000000000e-01) (8, 4, 5.00000000000000000000e-01) (8, 4, 5.00000000000000000000e-01) (0, 0, 0.00000000000000000000e+00) (11, 6, 5.00000000000000000000e-01) (0, 6, 0.00000000000000000000e+00) 
connections (connected_to_neuron, weight)=(0, -1.50000000000000000000e+03) (1, -1.50000000000000000000e+03) (2, 1.42509655129657949146e+03) (3, 5.76432680656766478933e+02) (4, -1.11939012828932732191e+03) (5, 1.50000000000000000000e+03) (6, -1.50000000000000000000e+03) (7, 2.19893140266826314644e+01) (0, 5.79576686675876695531e-01) (1, -4.48934344156743350140e+02) (2, 1.19163421059155371040e+03) (3, -7.55248142922177549963e+01) (4, -3.89537097293208773863e+02) (5, -2.75562753182408641806e+02) (6, -1.02392548856945339253e+02) (7, -7.74517692392868610796e+01) (0, 3.92229901401510900882e+01) (1, 5.99997659432850269923e+01) (2, -4.85007271892719327155e+00) (3, 4.74292558911302641889e+00) (4, -1.79113187045114052864e+01) (5, -2.54782770550289789924e+01) (6, -2.38367536038575913437e+01) (7, -3.12387665096824811428e+01) (0, -1.50000000000000000000e+03) (1, -1.50000000000000000000e+03) (2, 1.48005047431763750865e+03) (3, 1.49550047407273677891e+03) (4, 3.82557870955042233163e+02) (5, -5.59843303417915308273e+02) (6, -1.50000000000000000000e+03) (7, -2.05278313215877744824e+02) (0, 1.09350573110351163564e+02) (1, -6.17337096328484093988e+01) (2, -5.60775386802993480728e+01) (3, 2.16445415307112920544e+00) (4, 3.42473793483123216674e+01) (5, 7.49833757051964511220e+00) (6, -6.02215280696479338118e-01) (7, -2.23499600013329846604e+01) (0, 4.93423363426401635934e+02) (1, -1.57322168746658093141e+02) (2, -8.08959968111761781984e+02) (3, 1.18370443822864490357e+03) (4, 5.19072772994991737505e+02) (5, -1.50000000000000000000e+03) (6, 5.92128005085348149805e+02) (7, -3.67548861366976609588e+02) (0, 4.43253873935203671408e+02) (1, -4.19638794485817413715e+02) (2, -7.03698485243401023581e+02) (3, 2.75377839643375580181e+02) (4, 5.93487952650354941397e+02) (5, 3.72918665116984016095e+02) (6, -1.50000000000000000000e+03) (7, 6.21899307558462908219e+01) (0, -1.79404095552953357640e+01) (1, 1.00492312411973880870e+01) (2, -1.39060632966375461450e+01) (3, 6.30541731180631792597e+00) (4, -1.53381726214361897576e+01) (5, -3.21456297676631619353e+00) (6, -4.77242935875962537295e+00) (7, 1.03547039822562467748e+01) (0, -1.48326840280579741460e+01) (1, 6.83277826978919922141e+00) (2, -2.19880860568693954349e+01) (3, 1.79576041208889662926e+01) (4, -1.50321486598326181650e+01) (5, -7.89682674142050977650e+00) (6, -1.18633219232637401319e+01) (7, 1.01361458047211421274e+01) (0, -2.31340059910415547506e+01) (1, 1.08949144876674264282e+01) (2, -1.05282087471648111432e+01) (3, 6.67178932161079174534e+00) (4, -2.26023272972000839331e+01) (5, -5.80685107777615505675e-01) (6, -4.14846163338408580046e+00) (7, 1.19084978760939836917e+01) (8, 2.16763293467286149996e-01) (9, 1.63669983611235569931e+00) (10, 2.24834013764811757596e+00) (11, 5.59391079592482798333e-01) (12, 1.03108602779279889816e+00) (13, -2.81271586251684491131e+00) (14, 8.94622336432174147802e-01) (15, 5.13842181022526034440e+01) (16, -2.31262397838611697409e+01) (17, -2.33160963805789656078e+01) (18, -1.04824995051472558139e+00) 
