FANN_FLO_2.1
num_layers=3
learning_rate=0.700000
connection_rate=1.000000
network_type=0
learning_momentum=0.000000
training_algorithm=2
train_error_function=1
train_stop_function=0
cascade_output_change_fraction=0.010000
quickprop_decay=-0.000100
quickprop_mu=1.750000
rprop_increase_factor=1.200000
rprop_decrease_factor=0.500000
rprop_delta_min=0.000000
rprop_delta_max=50.000000
rprop_delta_zero=0.100000
cascade_output_stagnation_epochs=12
cascade_candidate_change_fraction=0.010000
cascade_candidate_stagnation_epochs=12
cascade_max_out_epochs=150
cascade_max_cand_epochs=150
cascade_num_candidate_groups=2
bit_fail_limit=3.49999999999999977796e-01
cascade_candidate_limit=1.00000000000000000000e+03
cascade_weight_multiplier=4.00000000000000022204e-01
cascade_activation_functions_count=10
cascade_activation_functions=3 5 7 8 10 11 14 15 16 17 
cascade_activation_steepnesses_count=4
cascade_activation_steepnesses=2.50000000000000000000e-01 5.00000000000000000000e-01 7.50000000000000000000e-01 1.00000000000000000000e+00 
layer_sizes=8 11 2 
scale_included=0
neurons (num_inputs, activation_function, activation_steepness)=(0, 0, 0.00000000000000000000e+00) (0, 0, 0.00000000000000000000e+00) (0, 0, 0.00000000000000000000e+00) (0, 0, 0.00000000000000000000e+00) (0, 0, 0.00000000000000000000e+00) (0, 0, 0.00000000000000000000e+00) (0, 0, 0.00000000000000000000e+00) (0, 0, 0.00000000000000000000e+00) (8, 4, 5.00000000000000000000e-01) (8, 4, 5.00000000000000000000e-01) (8, 4, 5.00000000000000000000e-01) (8, 4, 5.00000000000000000000e-01) (8, 4, 5.00000000000000000000e-01) (8, 4, 5.00000000000000000000e-01) (8, 4, 5.00000000000000000000e-01) (8, 4, 5.00000000000000000000e-01) (8, 4, 5.00000000000000000000e-01) (8, 4, 5.00000000000000000000e-01) (0, 0, 0.00000000000000000000e+00) (11, 6, 5.00000000000000000000e-01) (0, 6, 0.00000000000000000000e+00) 
connections (connected_to_neuron, weight)=(0, 2.76633304094913057725e+02) (1, -4.79484059247635173051e+02) (2, 1.80920574502345061774e+02) (3, -3.90081416474587740595e+02) (4, -1.81414472579086464066e+02) (5, -1.08152841788064321804e+02) (6, -7.65774994554366230659e+01) (7, 2.19154980416995186943e+02) (0, -3.50528148845965361602e+01) (1, 1.39416241373841600648e+01) (2, -3.79273783849656709322e+00) (3, -3.38295973556472295840e+00) (4, 1.23396051136284459204e+01) (5, 1.23060525475341329127e+01) (6, -1.40019743229146484964e+01) (7, 3.39214201820159466649e+00) (0, 3.99976383106951089985e+01) (1, -1.30666590659749406456e+01) (2, 5.45249763865146430675e+00) (3, -3.87832175004524728479e+01) (4, -1.82808817031353427751e+01) (5, 9.31249269403503632248e+01) (6, -1.01584815364975540319e+02) (7, 3.05614826218806356906e+01) (0, 6.30628301806472322255e+01) (1, 1.25864783321315613307e+02) (2, 9.62769964837424481630e+02) (3, -4.48549944569487422541e+02) (4, -1.36997828896341184191e+03) (5, 1.22513071052384680115e+03) (6, -2.64608275957111738208e+00) (7, -7.98611198985123223792e+02) (0, -2.36613897888668001102e+00) (1, -3.65556112994742310462e+00) (2, 8.05078710688571064225e-01) (3, -7.41419493622690439771e-01) (4, 4.10714167583887590496e+00) (5, 4.43268903139117664836e+00) (6, -6.64379619383064756732e+00) (7, 2.27053219752872159631e+00) (0, -1.50000000000000000000e+03) (1, -1.49398437859795376426e+03) (2, 1.50000000000000000000e+03) (3, 1.50000000000000000000e+03) (4, -1.50000000000000000000e+03) (5, -1.50000000000000000000e+03) (6, -1.49244709632334365779e+03) (7, 8.38262667684942783808e+01) (0, -4.44419273850453393493e+01) (1, -3.51718023496631531088e+01) (2, 7.35120383446378014014e+01) (3, -4.89551092163738132967e+01) (4, 1.23367469463755714543e+01) (5, 7.30367796160712998699e+01) (6, -7.79529251729040595364e+01) (7, 7.24034661045940310942e+01) (0, 2.62213499267724671427e+02) (1, -2.71120488177876438840e+02) (2, -2.20427840016635457232e+02) (3, 3.83149671134561629060e+02) (4, 1.40161813093843843347e+01) (5, -1.57076704821735546602e+02) (6, -8.25931299713750632918e+01) (7, 1.47698000427628208797e+01) (0, -3.07591472504449425784e+00) (1, -1.24952258783138479004e+01) (2, 1.71031797981448097090e+00) (3, 3.20574626335956169854e+00) (4, 1.02850177244555531786e+01) (5, 8.38175144736177557547e+00) (6, -1.25891352736660451228e+01) (7, 3.45024188583527235963e+00) (0, 1.37684956595493815712e+02) (1, -6.98971609715653841022e+01) (2, 2.10695253016650354994e+02) (3, -1.80582217184438405866e+02) (4, 2.54392314902019727185e+01) (5, 9.69885078994041407441e+01) (6, -1.61842789828764239246e+02) (7, -2.94926936136789663578e+01) (8, 1.75618140264490274483e+00) (9, 4.73856749645215025168e+00) (10, 1.78546612611006572102e+00) (11, -2.41829626254607310543e+00) (12, -1.92432870490972582900e+01) (13, -2.81471311658767597841e-01) (14, 1.27783728560020226617e+00) (15, 3.53092199993847111195e-01) (16, 1.11859149397456700825e+01) (17, 8.48913794573298408075e-01) (18, -3.83551726065296416657e-01) 
