FANN_FLO_2.1
num_layers=3
learning_rate=0.700000
connection_rate=1.000000
network_type=0
learning_momentum=0.000000
training_algorithm=2
train_error_function=1
train_stop_function=0
cascade_output_change_fraction=0.010000
quickprop_decay=-0.000100
quickprop_mu=1.750000
rprop_increase_factor=1.200000
rprop_decrease_factor=0.500000
rprop_delta_min=0.000000
rprop_delta_max=50.000000
rprop_delta_zero=0.100000
cascade_output_stagnation_epochs=12
cascade_candidate_change_fraction=0.010000
cascade_candidate_stagnation_epochs=12
cascade_max_out_epochs=150
cascade_max_cand_epochs=150
cascade_num_candidate_groups=2
bit_fail_limit=3.49999999999999977796e-01
cascade_candidate_limit=1.00000000000000000000e+03
cascade_weight_multiplier=4.00000000000000022204e-01
cascade_activation_functions_count=10
cascade_activation_functions=3 5 7 8 10 11 14 15 16 17 
cascade_activation_steepnesses_count=4
cascade_activation_steepnesses=2.50000000000000000000e-01 5.00000000000000000000e-01 7.50000000000000000000e-01 1.00000000000000000000e+00 
layer_sizes=8 10 2 
scale_included=0
neurons (num_inputs, activation_function, activation_steepness)=(0, 0, 0.00000000000000000000e+00) (0, 0, 0.00000000000000000000e+00) (0, 0, 0.00000000000000000000e+00) (0, 0, 0.00000000000000000000e+00) (0, 0, 0.00000000000000000000e+00) (0, 0, 0.00000000000000000000e+00) (0, 0, 0.00000000000000000000e+00) (0, 0, 0.00000000000000000000e+00) (8, 4, 5.00000000000000000000e-01) (8, 4, 5.00000000000000000000e-01) (8, 4, 5.00000000000000000000e-01) (8, 4, 5.00000000000000000000e-01) (8, 4, 5.00000000000000000000e-01) (8, 4, 5.00000000000000000000e-01) (8, 4, 5.00000000000000000000e-01) (8, 4, 5.00000000000000000000e-01) (8, 4, 5.00000000000000000000e-01) (0, 0, 0.00000000000000000000e+00) (10, 6, 5.00000000000000000000e-01) (0, 6, 0.00000000000000000000e+00) 
connections (connected_to_neuron, weight)=(0, -3.34908188962787164655e+02) (1, 1.35051099349569699370e+03) (2, -6.49579540356333154705e+02) (3, -1.16099191878000397082e+03) (4, -1.70787139427549377046e+01) (5, 3.90619894931764761736e+01) (6, -5.65333011896181769629e+00) (7, 1.18146272217800401449e+02) (0, -1.50000000000000000000e+03) (1, 3.45932826881595190116e+02) (2, -9.59760906663360202629e+01) (3, -8.76034787360725431427e+02) (4, 2.47190316354418992972e+00) (5, 1.39448150840452331067e+03) (6, -2.82860137582410011703e+01) (7, 5.57536422851850872462e+01) (0, -1.50000000000000000000e+03) (1, 1.43556232870683174951e+03) (2, -1.50000000000000000000e+03) (3, -3.65331942985695604875e+02) (4, 4.60133104073489789698e+02) (5, 7.07914974293706904973e+02) (6, -1.77174038492873677342e+02) (7, 1.40714340606572761772e+02) (0, 6.00672442471018452892e+00) (1, 1.16776525550952037236e+01) (2, 4.75940574258181481326e+00) (3, -3.59904996351833084134e+00) (4, 2.80566378122164739040e+00) (5, 8.57095438240350482317e+00) (6, -2.79013956809544900750e+01) (7, -1.36552311644033408378e+00) (0, -4.22285163453466836359e+01) (1, 2.15666250992058508018e+01) (2, -3.37189596289162309972e+01) (3, -1.64897188423216256581e+01) (4, 2.13792469264966600306e+00) (5, 3.35461955969422689350e+01) (6, -1.87650630301983101234e+00) (7, 8.20083663302584220389e+00) (0, 1.43100618922383432619e+02) (1, 6.34416145564546468449e+02) (2, -8.28689491768237530778e+02) (3, 4.86120092632194428006e+02) (4, -3.68708479110746111473e+02) (5, 3.08541686892576478840e+02) (6, -2.71384096273443446989e+02) (7, -1.54606425648415438445e+02) (0, -5.42745609712510557188e+01) (1, -1.50000000000000000000e+03) (2, 1.19189682013737046873e+03) (3, -6.83550112167551446873e+02) (4, 1.35317925496832742738e+02) (5, -2.02799671806030232801e+01) (6, 6.80254914818287829803e+02) (7, -6.93958766650381591035e+01) (0, -6.46209982098009163565e+02) (1, -9.35105844114714201964e+00) (2, 1.93044676163575587680e+02) (3, -1.40963938728326695582e+02) (4, 1.23577032120001518933e+02) (5, -4.90699502094723470691e+02) (6, 1.50000000000000000000e+03) (7, -2.60622062002914674395e+02) (0, -6.11011066076698625693e+01) (1, 8.76679422923696591852e+01) (2, -9.15319991269839334791e+01) (3, 7.66925712416943525795e+01) (4, 6.07790201786415451579e+01) (5, 1.38521254145800128299e+02) (6, 1.50408963127720944897e+01) (7, -2.88473302064639050002e+01) (8, -9.01898184224762755612e-01) (9, -4.57118747263851066265e+00) (10, -1.97398998270262282517e+00) (11, 2.53201588921206788285e+00) (12, 6.91207097966815542378e+00) (13, 6.96584791775273326486e-01) (14, 8.06092883807236981752e-01) (15, 2.10116867315160416041e+00) (16, -6.59440496296793687847e-01) (17, -1.79168681249539685219e+00) 
