FANN_FLO_2.1
num_layers=3
learning_rate=0.700000
connection_rate=1.000000
network_type=0
learning_momentum=0.000000
training_algorithm=2
train_error_function=1
train_stop_function=0
cascade_output_change_fraction=0.010000
quickprop_decay=-0.000100
quickprop_mu=1.750000
rprop_increase_factor=1.200000
rprop_decrease_factor=0.500000
rprop_delta_min=0.000000
rprop_delta_max=50.000000
rprop_delta_zero=0.100000
cascade_output_stagnation_epochs=12
cascade_candidate_change_fraction=0.010000
cascade_candidate_stagnation_epochs=12
cascade_max_out_epochs=150
cascade_max_cand_epochs=150
cascade_num_candidate_groups=2
bit_fail_limit=3.49999999999999977796e-01
cascade_candidate_limit=1.00000000000000000000e+03
cascade_weight_multiplier=4.00000000000000022204e-01
cascade_activation_functions_count=10
cascade_activation_functions=3 5 7 8 10 11 14 15 16 17 
cascade_activation_steepnesses_count=4
cascade_activation_steepnesses=2.50000000000000000000e-01 5.00000000000000000000e-01 7.50000000000000000000e-01 1.00000000000000000000e+00 
layer_sizes=8 11 2 
scale_included=0
neurons (num_inputs, activation_function, activation_steepness)=(0, 0, 0.00000000000000000000e+00) (0, 0, 0.00000000000000000000e+00) (0, 0, 0.00000000000000000000e+00) (0, 0, 0.00000000000000000000e+00) (0, 0, 0.00000000000000000000e+00) (0, 0, 0.00000000000000000000e+00) (0, 0, 0.00000000000000000000e+00) (0, 0, 0.00000000000000000000e+00) (8, 4, 5.00000000000000000000e-01) (8, 4, 5.00000000000000000000e-01) (8, 4, 5.00000000000000000000e-01) (8, 4, 5.00000000000000000000e-01) (8, 4, 5.00000000000000000000e-01) (8, 4, 5.00000000000000000000e-01) (8, 4, 5.00000000000000000000e-01) (8, 4, 5.00000000000000000000e-01) (8, 4, 5.00000000000000000000e-01) (8, 4, 5.00000000000000000000e-01) (0, 0, 0.00000000000000000000e+00) (11, 6, 5.00000000000000000000e-01) (0, 6, 0.00000000000000000000e+00) 
connections (connected_to_neuron, weight)=(0, 2.27691237908749201324e+02) (1, -1.79188658758111586167e+02) (2, 1.91961716659530338802e+02) (3, 5.88418559680103285814e+01) (4, -1.50000000000000000000e+03) (5, -1.50000000000000000000e+03) (6, -1.75875767747968239973e+02) (7, -2.81250156003935884996e+01) (0, -6.56069237140727512525e+00) (1, 1.16388113880418568868e+01) (2, -1.47825929555136537097e+00) (3, 1.19546636802977275238e+01) (4, 4.75137462999920145990e+01) (5, -6.23223982139633321253e+01) (6, -2.87146595687440857603e+01) (7, -2.23956340114246765793e+00) (0, -1.42082689224475006995e+03) (1, 1.50000000000000000000e+03) (2, -1.45202685649229874798e+03) (3, -1.44148323776125675977e+03) (4, 1.50000000000000000000e+03) (5, 1.50000000000000000000e+03) (6, -7.09975659859359097936e+02) (7, -1.21630157428370671369e+03) (0, 3.51096114574789396556e+02) (1, 1.50000000000000000000e+03) (2, -1.06541034174481364971e+03) (3, -8.19976022338491475239e+02) (4, -7.18142856665377735226e+02) (5, 2.53233709794782271274e+02) (6, -2.52610936541208360495e+02) (7, 2.31919880767100350383e+00) (0, -1.05639256913829377993e+01) (1, 3.56602923691294737552e+00) (2, 1.63547652265397118754e+01) (3, -1.44657094650402360259e+01) (4, -1.41874553975425721219e+00) (5, 3.58215922178004664289e+00) (6, 5.56359703846273298544e-02) (7, -1.39641998431238878453e+00) (0, 4.14152120950428752622e+02) (1, 6.43987901853837570343e+02) (2, -2.06656523385122348202e+01) (3, -1.50000000000000000000e+03) (4, -1.50000000000000000000e+03) (5, -2.56465028122688977419e+02) (6, 3.58789826069090906913e+02) (7, 1.60145542646029440448e+02) (0, -1.45664592880308738643e+01) (1, 2.08440085152615957043e+01) (2, 1.08577821239683487420e+01) (3, -1.79882984962686194308e+01) (4, -9.74823042827924268749e+00) (5, 1.26925745857654099780e+01) (6, 2.79498133249072644446e+00) (7, -1.15876367112416236438e+01) (0, -2.58463064613825821425e+01) (1, 3.95347436076330538413e+01) (2, -1.37085485532927009444e+02) (3, 6.93983176805650145980e+01) (4, -8.05959432773910045000e+00) (5, 5.22227440825513298250e+01) (6, -3.12018123021702038500e+01) (7, -3.49274912273613935554e+01) (0, -1.71472189696615835430e+01) (1, 1.53089366365289425431e+01) (2, -2.02978609323006864429e+01) (3, 2.49582410498168201229e+01) (4, 2.82088218295647834566e+01) (5, 1.57690360218233340817e+01) (6, -7.03756206858282862271e+00) (7, -4.91829038713680166683e-01) (0, -8.82896332231939823032e+02) (1, -1.14722760592621241926e+02) (2, 4.84875204680559590997e+02) (3, -6.51097684907990469583e+02) (4, 3.96271145582442045452e+02) (5, -1.13423131127747012670e+02) (6, -1.50000000000000000000e+03) (7, -2.73908759023821097855e+01) (8, -7.07877970362542741078e-01) (9, 4.98160007927111903037e-01) (10, 4.28733841087256817293e-01) (11, 1.22697862736544571760e+00) (12, 1.75043719450835078000e+00) (13, -1.44756935393721675176e+00) (14, -1.67706484234112696008e+00) (15, -6.08958182455057284166e-01) (16, -1.09770096553481910640e+00) (17, -1.61309643621565568239e+00) (18, 7.91511443731535035973e-01) 
