FANN_FLO_2.1
num_layers=3
learning_rate=0.700000
connection_rate=1.000000
network_type=0
learning_momentum=0.000000
training_algorithm=2
train_error_function=1
train_stop_function=0
cascade_output_change_fraction=0.010000
quickprop_decay=-0.000100
quickprop_mu=1.750000
rprop_increase_factor=1.200000
rprop_decrease_factor=0.500000
rprop_delta_min=0.000000
rprop_delta_max=50.000000
rprop_delta_zero=0.100000
cascade_output_stagnation_epochs=12
cascade_candidate_change_fraction=0.010000
cascade_candidate_stagnation_epochs=12
cascade_max_out_epochs=150
cascade_max_cand_epochs=150
cascade_num_candidate_groups=2
bit_fail_limit=3.49999999999999977796e-01
cascade_candidate_limit=1.00000000000000000000e+03
cascade_weight_multiplier=4.00000000000000022204e-01
cascade_activation_functions_count=10
cascade_activation_functions=3 5 7 8 10 11 14 15 16 17 
cascade_activation_steepnesses_count=4
cascade_activation_steepnesses=2.50000000000000000000e-01 5.00000000000000000000e-01 7.50000000000000000000e-01 1.00000000000000000000e+00 
layer_sizes=8 10 2 
scale_included=0
neurons (num_inputs, activation_function, activation_steepness)=(0, 0, 0.00000000000000000000e+00) (0, 0, 0.00000000000000000000e+00) (0, 0, 0.00000000000000000000e+00) (0, 0, 0.00000000000000000000e+00) (0, 0, 0.00000000000000000000e+00) (0, 0, 0.00000000000000000000e+00) (0, 0, 0.00000000000000000000e+00) (0, 0, 0.00000000000000000000e+00) (8, 4, 5.00000000000000000000e-01) (8, 4, 5.00000000000000000000e-01) (8, 4, 5.00000000000000000000e-01) (8, 4, 5.00000000000000000000e-01) (8, 4, 5.00000000000000000000e-01) (8, 4, 5.00000000000000000000e-01) (8, 4, 5.00000000000000000000e-01) (8, 4, 5.00000000000000000000e-01) (8, 4, 5.00000000000000000000e-01) (0, 0, 0.00000000000000000000e+00) (10, 6, 5.00000000000000000000e-01) (0, 6, 0.00000000000000000000e+00) 
connections (connected_to_neuron, weight)=(0, -1.50000000000000000000e+03) (1, 4.01574592296558364524e+02) (2, 1.50000000000000000000e+03) (3, 1.50000000000000000000e+03) (4, -1.02793578505278082957e+03) (5, -1.50000000000000000000e+03) (6, 1.31408055509963060103e+03) (7, -2.88404773371711485197e+02) (0, 2.07751408729151449961e+02) (1, 4.98238560869506308393e+00) (2, -7.16632872925872277392e+01) (3, 1.49223181577879628890e+01) (4, -2.41040221622713602301e+02) (5, 3.45555375572064775724e+01) (6, -1.63061830197032833212e+02) (7, 1.03623004176666981380e+02) (0, 2.09512970185907846599e+02) (1, -2.33248022081532951688e+02) (2, 9.44782194853019205993e+01) (3, -4.94574431422247826617e+01) (4, 2.18933681629237426591e+01) (5, 2.17808589807839538821e+01) (6, -4.42579813967386144213e+01) (7, -2.10211284574520895774e+01) (0, 1.50000000000000000000e+03) (1, -1.28356485147513308220e+03) (2, 7.41934104466125404542e+02) (3, -1.38568785416505511421e+03) (4, 1.50000000000000000000e+03) (5, 1.33203811355939296845e+03) (6, -9.98412353066664650214e+02) (7, -1.49460785019239369831e+03) (0, 1.90478862110934556995e+02) (1, 8.20190219130327449193e+01) (2, 3.32366304245829553565e+02) (3, -4.78372885395152707133e+02) (4, 3.59359458878913869739e+02) (5, -4.80191592477972449160e+02) (6, -2.03745574347264067683e+02) (7, 5.32403854161432761316e+01) (0, -1.50000000000000000000e+03) (1, -1.49688007577562893857e+03) (2, 1.50000000000000000000e+03) (3, -9.12990924010801450095e+02) (4, 1.37432570343305178540e+03) (5, -1.50000000000000000000e+03) (6, -1.23940499838795494725e+03) (7, 1.09480364729337316021e+03) (0, 1.31222715810594905861e+02) (1, 4.52891832886615645748e+02) (2, -7.41583171947011578595e+02) (3, 3.78289873676249101209e+02) (4, -5.05787162692996616897e+01) (5, -1.51569117386494184530e+02) (6, -4.96962516510396937974e+02) (7, 2.65183273446911798032e+01) (0, -4.28775762777551605609e+00) (1, -3.05201242027794208411e+01) (2, 1.08780269976084653649e+02) (3, -6.54411086173133185184e+01) (4, -9.51718443594968590560e+01) (5, -2.04841680537667258477e+02) (6, 1.10083754013272113070e+02) (7, -1.49041834290901533677e+01) (0, -1.10104066130848252669e+02) (1, 3.35093634405005644794e+01) (2, -2.80599918564505003360e+02) (3, 3.28128613877478187533e+02) (4, 3.45274626934823558599e+01) (5, 8.05179543392132899271e+01) (6, -1.41277376839936708031e+00) (7, -5.74517400851190203070e+01) (8, 8.76636359779369933598e-01) (9, 8.60647572368895552586e-01) (10, 1.49096110449001995057e+00) (11, -1.05293933403972483909e+00) (12, 1.39357335324794107123e+00) (13, 4.34867206035668474318e-01) (14, -1.57354460803654827572e+00) (15, -1.16917862488854074066e+00) (16, 1.17785560452815563082e+00) (17, -1.65780808378580046814e+00) 
