FANN_FLO_2.1
num_layers=3
learning_rate=0.700000
connection_rate=1.000000
network_type=0
learning_momentum=0.000000
training_algorithm=2
train_error_function=1
train_stop_function=0
cascade_output_change_fraction=0.010000
quickprop_decay=-0.000100
quickprop_mu=1.750000
rprop_increase_factor=1.200000
rprop_decrease_factor=0.500000
rprop_delta_min=0.000000
rprop_delta_max=50.000000
rprop_delta_zero=0.100000
cascade_output_stagnation_epochs=12
cascade_candidate_change_fraction=0.010000
cascade_candidate_stagnation_epochs=12
cascade_max_out_epochs=150
cascade_max_cand_epochs=150
cascade_num_candidate_groups=2
bit_fail_limit=3.49999999999999977796e-01
cascade_candidate_limit=1.00000000000000000000e+03
cascade_weight_multiplier=4.00000000000000022204e-01
cascade_activation_functions_count=10
cascade_activation_functions=3 5 7 8 10 11 14 15 16 17 
cascade_activation_steepnesses_count=4
cascade_activation_steepnesses=2.50000000000000000000e-01 5.00000000000000000000e-01 7.50000000000000000000e-01 1.00000000000000000000e+00 
layer_sizes=8 16 2 
scale_included=0
neurons (num_inputs, activation_function, activation_steepness)=(0, 0, 0.00000000000000000000e+00) (0, 0, 0.00000000000000000000e+00) (0, 0, 0.00000000000000000000e+00) (0, 0, 0.00000000000000000000e+00) (0, 0, 0.00000000000000000000e+00) (0, 0, 0.00000000000000000000e+00) (0, 0, 0.00000000000000000000e+00) (0, 0, 0.00000000000000000000e+00) (8, 4, 5.00000000000000000000e-01) (8, 4, 5.00000000000000000000e-01) (8, 4, 5.00000000000000000000e-01) (8, 4, 5.00000000000000000000e-01) (8, 4, 5.00000000000000000000e-01) (8, 4, 5.00000000000000000000e-01) (8, 4, 5.00000000000000000000e-01) (8, 4, 5.00000000000000000000e-01) (8, 4, 5.00000000000000000000e-01) (8, 4, 5.00000000000000000000e-01) (8, 4, 5.00000000000000000000e-01) (8, 4, 5.00000000000000000000e-01) (8, 4, 5.00000000000000000000e-01) (8, 4, 5.00000000000000000000e-01) (8, 4, 5.00000000000000000000e-01) (0, 0, 0.00000000000000000000e+00) (16, 6, 5.00000000000000000000e-01) (0, 6, 0.00000000000000000000e+00) 
connections (connected_to_neuron, weight)=(0, 3.25249239456547645233e+00) (1, -5.11049594994876876797e+00) (2, 3.81738529772708168331e-01) (3, -4.56980534195067289449e-01) (4, 8.75075402262250534591e+00) (5, -2.60754901589026699682e+00) (6, 5.98687118553636299367e+00) (7, -3.85990960222797419021e+00) (0, -4.90020840907878110215e+01) (1, 2.35108329972840550681e+01) (2, 6.05918468920454031945e+01) (3, -2.25258952168112500658e+01) (4, -1.65595140457114169408e+01) (5, 4.33054842427782205050e+00) (6, 3.02540700512530733590e+01) (7, -6.23468130023772548753e+00) (0, -3.51777142847437431783e+01) (1, 1.36424512850764561023e+01) (2, 1.98422971648441226478e+01) (3, -1.49376101293631631250e+01) (4, 6.51856889171301467911e+00) (5, 3.77136438613596736147e+00) (6, 3.72968254028349743834e+00) (7, -6.11437789299262846043e+00) (0, 9.51419701331302936076e-01) (1, 6.82925568859545084610e-02) (2, -1.95299852931652857535e+01) (3, 2.48787231900794880701e+00) (4, 3.54409500291884356216e+01) (5, -6.09668988613305984359e+01) (6, -2.53659614867772944535e+01) (7, 1.60084992341170000429e+01) (0, -2.15930682498255421820e+00) (1, 3.81694670673486280421e-01) (2, -4.98878941875327708289e+00) (3, 1.69533909909851665532e+00) (4, 1.25205960278385020068e+00) (5, -1.40377249462437037053e+00) (6, 4.99802631144498299420e+00) (7, 8.45615178070372452979e-01) (0, 4.04223557891465379299e+00) (1, 6.92377353736878831114e+00) (2, -9.48221349840973615208e-01) (3, 1.39848869257775265673e+00) (4, 8.70219542286122482722e+00) (5, -2.11902777708993861339e+00) (6, -5.66909842748347170271e+00) (7, -4.61958036422918816299e+00) (0, 3.46601026577929438588e+00) (1, -5.47217801195568842587e+00) (2, 2.44047601630661077365e+01) (3, -1.57985466553960063329e+00) (4, -2.65816702659383672369e+01) (5, 5.10025140948144297681e+01) (6, 1.84109316376159135586e+01) (7, -1.69129700910503331102e+01) (0, -6.04603228897238054174e+01) (1, -4.78212987141289829651e+02) (2, 4.77499430689710777642e+02) (3, -2.29439957579306792468e+01) (4, -6.50975541830534098153e+02) (5, 2.85700285928700850491e+02) (6, -6.76896031920648283631e+02) (7, -4.72346033772945759210e+01) (0, -7.53568475486200828328e+00) (1, 5.84220284430762326622e+00) (2, 3.79730970439925457072e+01) (3, 1.77442025737989546030e+01) (4, -8.41817629857409599481e+01) (5, -2.67870080038239741782e+01) (6, 2.18584835037019118431e+01) (7, 4.34408764840155896536e+01) (0, -3.82642390576069102437e+00) (1, 5.55417709204361820241e+00) (2, -7.02526453681598717083e+00) (3, 7.74367470529544821289e+00) (4, -4.47523885023894685276e+00) (5, -8.42394760235565587259e-01) (6, -3.09838868151649915461e+00) (7, 3.20481999044983911773e+00) (0, -7.45243476375982709214e+02) (1, 2.94387726529916129437e+01) (2, 1.39915027659882014177e+02) (3, -1.36217851084897233704e+02) (4, 2.78971356925494085033e+01) (5, 1.39084832865471298646e+02) (6, -1.49999993999999765038e+03) (7, -1.48547174994909937595e+02) (0, 7.00413894516236723575e+00) (1, 6.65617932273591961234e+00) (2, -1.56176225714845640091e+00) (3, 8.81151282152065284947e+00) (4, 7.74419806699205981459e+00) (5, -6.83175547296993634916e+00) (6, -1.59363088935532921653e+01) (7, -9.17126934509338909152e-01) (0, -1.04652784521056680944e+01) (1, 2.02310946663933002299e+01) (2, -7.74594727636112434510e+00) (3, -1.82644533596044578161e+00) (4, 7.24810201451130531325e+00) (5, -9.23476204710421022526e+00) (6, -1.98565315372638573344e+00) (7, 2.85434508763813177268e+00) (0, -5.80215696731588259638e+00) (1, 1.08266582974868121880e+01) (2, -1.51382013314304209040e+00) (3, 9.53374487245239182753e-02) (4, 3.33726670709386175062e+00) (5, -9.91805392436373800535e+00) (6, -3.51664438524287703558e+00) (7, 4.90847290707276329158e+00) (0, 3.89670845977957913675e+00) (1, -3.18463368813962599546e+00) (2, -4.97302616240814909787e+00) (3, 1.76448033225300910942e+01) (4, -4.95641523832841368602e+00) (5, -4.70365489833288394350e-02) (6, -9.61090370810434535542e+00) (7, 1.48828618031984549752e+00) (8, 3.66870253210158514534e+00) (9, -5.36326953401865758053e-01) (10, 1.34878000649689022694e+00) (11, 4.10872308868477809085e+00) (12, -5.39516311487245214806e+00) (13, -2.64730663512472741417e+00) (14, 4.27316267754086975827e+00) (15, 4.19889276853629223041e+00) (16, 1.07934980487077836209e+00) (17, 3.73529664050079857063e+00) (18, -4.31313490721142400730e+00) (19, 9.63804411278389783213e-01) (20, 2.88177074559989687685e+00) (21, -3.75954414097065603428e+00) (22, -2.47139085244986578260e+00) (23, -2.27793091147112169992e+00) 
