FANN_FLO_2.1
num_layers=3
learning_rate=0.700000
connection_rate=1.000000
network_type=0
learning_momentum=0.000000
training_algorithm=2
train_error_function=1
train_stop_function=0
cascade_output_change_fraction=0.010000
quickprop_decay=-0.000100
quickprop_mu=1.750000
rprop_increase_factor=1.200000
rprop_decrease_factor=0.500000
rprop_delta_min=0.000000
rprop_delta_max=50.000000
rprop_delta_zero=0.100000
cascade_output_stagnation_epochs=12
cascade_candidate_change_fraction=0.010000
cascade_candidate_stagnation_epochs=12
cascade_max_out_epochs=150
cascade_max_cand_epochs=150
cascade_num_candidate_groups=2
bit_fail_limit=3.49999999999999977796e-01
cascade_candidate_limit=1.00000000000000000000e+03
cascade_weight_multiplier=4.00000000000000022204e-01
cascade_activation_functions_count=10
cascade_activation_functions=3 5 7 8 10 11 14 15 16 17 
cascade_activation_steepnesses_count=4
cascade_activation_steepnesses=2.50000000000000000000e-01 5.00000000000000000000e-01 7.50000000000000000000e-01 1.00000000000000000000e+00 
layer_sizes=8 9 2 
scale_included=0
neurons (num_inputs, activation_function, activation_steepness)=(0, 0, 0.00000000000000000000e+00) (0, 0, 0.00000000000000000000e+00) (0, 0, 0.00000000000000000000e+00) (0, 0, 0.00000000000000000000e+00) (0, 0, 0.00000000000000000000e+00) (0, 0, 0.00000000000000000000e+00) (0, 0, 0.00000000000000000000e+00) (0, 0, 0.00000000000000000000e+00) (8, 4, 5.00000000000000000000e-01) (8, 4, 5.00000000000000000000e-01) (8, 4, 5.00000000000000000000e-01) (8, 4, 5.00000000000000000000e-01) (8, 4, 5.00000000000000000000e-01) (8, 4, 5.00000000000000000000e-01) (8, 4, 5.00000000000000000000e-01) (8, 4, 5.00000000000000000000e-01) (0, 0, 0.00000000000000000000e+00) (9, 6, 5.00000000000000000000e-01) (0, 6, 0.00000000000000000000e+00) 
connections (connected_to_neuron, weight)=(0, -4.52554524837915366220e+01) (1, -1.50000000000000000000e+03) (2, -1.50000000000000000000e+03) (3, -4.59330895085265979105e+02) (4, 1.92443355522323145124e+02) (5, 9.05389842366189583345e+01) (6, 1.50000000000000000000e+03) (7, 6.78963789646868320915e+01) (0, 1.50000000000000000000e+03) (1, 9.24820547270506835957e+02) (2, 7.44596691998318078731e+02) (3, -1.50000000000000000000e+03) (4, -1.50000000000000000000e+03) (5, -2.20118477599512033294e+02) (6, 1.50000000000000000000e+03) (7, 1.13560579983828415607e+03) (0, 7.72068056839910582312e+02) (1, -9.00958518043847902845e+02) (2, 1.29576292665008708127e+02) (3, 5.69811820257521048916e+02) (4, -3.57825126689090495802e+02) (5, -1.50000000000000000000e+03) (6, 3.72437450281980147793e+02) (7, -9.39051886406455764700e+01) (0, 2.00230656411441637621e-01) (1, 5.94673084702540251101e+01) (2, -3.20878010433892191244e+00) (3, -1.92649853446764822706e+01) (4, 8.37282801446912117171e+00) (5, -4.62176077704845269523e+01) (6, -2.32544418712416458561e+01) (7, -1.19421373608502645602e+00) (0, -2.30533395785345085471e+01) (1, 1.51828413452929762428e+01) (2, -2.27283518267676676317e+01) (3, -3.69099061436725364160e+01) (4, 7.37691438298123784989e+01) (5, -5.70791195324748557027e+01) (6, -9.79507110932808089387e+00) (7, 6.80424288542057276175e+00) (0, -2.09737205284195198374e+01) (1, 2.22526660580649426890e+01) (2, -1.72166028312594541205e+01) (3, -2.72043709075303929978e+00) (4, 2.09850769323747918804e+01) (5, -1.46772428294037453611e+01) (6, -9.71496767915036918417e-01) (7, -3.24605701463867801770e-01) (0, -1.50000000000000000000e+03) (1, -9.58365600525059790016e+02) (2, 1.50000000000000000000e+03) (3, 1.50000000000000000000e+03) (4, 9.67286116029277309281e+02) (5, 2.46051884744649527192e+02) (6, -1.50000000000000000000e+03) (7, -1.45983553487658741687e+03) (0, 3.38113086070915187520e+01) (1, -8.23145971990914375738e+01) (2, 3.03287020893630092644e+01) (3, -1.84425680869709260890e+01) (4, -1.17849244867282436644e+01) (5, 9.79731238973533713477e+00) (6, 1.81350804919553034722e+01) (7, -1.47759574208026855935e+00) (8, -3.49676805915533517322e+00) (9, -8.11756831333714679033e-01) (10, -1.95526007488034792026e+00) (11, 2.23790399802258388462e+00) (12, 3.38773006828863909590e+00) (13, -4.19502405540322786948e+00) (14, 5.25733406410208048420e-01) (15, 3.93692248104130371189e+00) (16, 6.12555684234513675435e-01) 
