FANN_FLO_2.1
num_layers=3
learning_rate=0.700000
connection_rate=1.000000
network_type=0
learning_momentum=0.000000
training_algorithm=2
train_error_function=1
train_stop_function=0
cascade_output_change_fraction=0.010000
quickprop_decay=-0.000100
quickprop_mu=1.750000
rprop_increase_factor=1.200000
rprop_decrease_factor=0.500000
rprop_delta_min=0.000000
rprop_delta_max=50.000000
rprop_delta_zero=0.100000
cascade_output_stagnation_epochs=12
cascade_candidate_change_fraction=0.010000
cascade_candidate_stagnation_epochs=12
cascade_max_out_epochs=150
cascade_max_cand_epochs=150
cascade_num_candidate_groups=2
bit_fail_limit=3.49999999999999977796e-01
cascade_candidate_limit=1.00000000000000000000e+03
cascade_weight_multiplier=4.00000000000000022204e-01
cascade_activation_functions_count=10
cascade_activation_functions=3 5 7 8 10 11 14 15 16 17 
cascade_activation_steepnesses_count=4
cascade_activation_steepnesses=2.50000000000000000000e-01 5.00000000000000000000e-01 7.50000000000000000000e-01 1.00000000000000000000e+00 
layer_sizes=8 9 2 
scale_included=0
neurons (num_inputs, activation_function, activation_steepness)=(0, 0, 0.00000000000000000000e+00) (0, 0, 0.00000000000000000000e+00) (0, 0, 0.00000000000000000000e+00) (0, 0, 0.00000000000000000000e+00) (0, 0, 0.00000000000000000000e+00) (0, 0, 0.00000000000000000000e+00) (0, 0, 0.00000000000000000000e+00) (0, 0, 0.00000000000000000000e+00) (8, 4, 5.00000000000000000000e-01) (8, 4, 5.00000000000000000000e-01) (8, 4, 5.00000000000000000000e-01) (8, 4, 5.00000000000000000000e-01) (8, 4, 5.00000000000000000000e-01) (8, 4, 5.00000000000000000000e-01) (8, 4, 5.00000000000000000000e-01) (8, 4, 5.00000000000000000000e-01) (0, 0, 0.00000000000000000000e+00) (9, 6, 5.00000000000000000000e-01) (0, 6, 0.00000000000000000000e+00) 
connections (connected_to_neuron, weight)=(0, -2.54386340172917826408e+01) (1, -2.44940992282988673878e+02) (2, -3.85391295462431884289e+01) (3, 3.90591729024310936325e+01) (4, 5.03809995095092162387e+01) (5, 8.01423995525019847719e+01) (6, -5.41263868060900654733e-01) (7, -1.48702126422832172636e+01) (0, 7.82286039456311783624e+01) (1, -6.98626643904367909954e+01) (2, 9.16043052963057391480e+01) (3, -8.31098458089830387507e+01) (4, -2.12090993964747127620e+02) (5, 2.67783962759981136514e+02) (6, -2.86202708176440587806e+01) (7, 4.23414542813657845954e+00) (0, -1.44165606854947081494e+00) (1, -6.25739719546602346512e-01) (2, 6.22510665012478869862e-01) (3, -1.23384238269277668465e+00) (4, -9.39313970188366931247e-01) (5, -1.77468473905440377036e-01) (6, 8.95672753981357261388e-01) (7, 1.51058087081620806558e+00) (0, -1.55265734221947457883e+01) (1, -3.93289950184348597872e+01) (2, 2.44344982124822855951e+01) (3, -6.00299996522204093452e+00) (4, -4.14509878488825265208e+01) (5, 3.58648656647592503077e+01) (6, -7.44262008307458877709e+00) (7, -1.23065960779164402794e+01) (0, -4.45203339136393205777e-01) (1, -1.18665318864286831513e+02) (2, 1.79106291217698938567e+01) (3, -5.83198213398865235035e+01) (4, -3.77625009847893622350e+01) (5, 8.88462538850343008789e+00) (6, 1.02320490413888222747e+02) (7, 1.29854800900381412987e+01) (0, 3.72056156957251715767e+01) (1, -3.63977142745506654364e+01) (2, -9.40358326137582523074e+00) (3, -3.30462587522656292549e+01) (4, -6.15131224175479545124e+01) (5, 6.32266351651365354769e+00) (6, 1.81185446385188129170e+01) (7, 4.71619914676765006334e+01) (0, 4.02615308031741463424e+01) (1, -1.99977063392276164677e+02) (2, 7.59658668905445182418e+01) (3, -8.44191458610654024142e+01) (4, -2.25004055208938808619e+02) (5, 1.71965559490414193533e+02) (6, 3.61327860037256527903e+02) (7, -4.76671259720541442562e+01) (0, 1.62284464870901786071e+02) (1, 1.11014300476804550044e+02) (2, -1.85175192162052837830e+02) (3, -1.14059848303771573796e+02) (4, -9.09471739156753216093e+01) (5, -7.80503301064654131380e+00) (6, 1.19283726586308702622e+01) (7, 4.90901314913650139715e+01) (8, -2.70744602232923670115e+00) (9, 1.37860585454062856137e+00) (10, 1.04292525629622225836e+01) (11, 4.05087133787741748847e+01) (12, -3.19075171751316721824e+00) (13, -2.24371963336226398766e+00) (14, -1.38361593474095179168e+00) (15, 2.57572533885496124384e+00) (16, -4.36905736579783798845e+00) 
