FANN_FLO_2.1
num_layers=3
learning_rate=0.700000
connection_rate=1.000000
network_type=0
learning_momentum=0.000000
training_algorithm=2
train_error_function=1
train_stop_function=0
cascade_output_change_fraction=0.010000
quickprop_decay=-0.000100
quickprop_mu=1.750000
rprop_increase_factor=1.200000
rprop_decrease_factor=0.500000
rprop_delta_min=0.000000
rprop_delta_max=50.000000
rprop_delta_zero=0.100000
cascade_output_stagnation_epochs=12
cascade_candidate_change_fraction=0.010000
cascade_candidate_stagnation_epochs=12
cascade_max_out_epochs=150
cascade_max_cand_epochs=150
cascade_num_candidate_groups=2
bit_fail_limit=3.49999999999999977796e-01
cascade_candidate_limit=1.00000000000000000000e+03
cascade_weight_multiplier=4.00000000000000022204e-01
cascade_activation_functions_count=10
cascade_activation_functions=3 5 7 8 10 11 14 15 16 17 
cascade_activation_steepnesses_count=4
cascade_activation_steepnesses=2.50000000000000000000e-01 5.00000000000000000000e-01 7.50000000000000000000e-01 1.00000000000000000000e+00 
layer_sizes=8 9 2 
scale_included=0
neurons (num_inputs, activation_function, activation_steepness)=(0, 0, 0.00000000000000000000e+00) (0, 0, 0.00000000000000000000e+00) (0, 0, 0.00000000000000000000e+00) (0, 0, 0.00000000000000000000e+00) (0, 0, 0.00000000000000000000e+00) (0, 0, 0.00000000000000000000e+00) (0, 0, 0.00000000000000000000e+00) (0, 0, 0.00000000000000000000e+00) (8, 4, 5.00000000000000000000e-01) (8, 4, 5.00000000000000000000e-01) (8, 4, 5.00000000000000000000e-01) (8, 4, 5.00000000000000000000e-01) (8, 4, 5.00000000000000000000e-01) (8, 4, 5.00000000000000000000e-01) (8, 4, 5.00000000000000000000e-01) (8, 4, 5.00000000000000000000e-01) (0, 0, 0.00000000000000000000e+00) (9, 6, 5.00000000000000000000e-01) (0, 6, 0.00000000000000000000e+00) 
connections (connected_to_neuron, weight)=(0, -2.71769979174850845993e+02) (1, -4.02087953439695638735e+02) (2, 1.50000000000000000000e+03) (3, -1.34165311705905560302e+03) (4, -2.63259963881814030628e+02) (5, 2.19745150966948301630e+02) (6, 1.25987140094347811470e+01) (7, 7.26456923318692417979e+01) (0, 8.06181845615714536279e+01) (1, -7.50475752714227013485e+01) (2, 1.50000000000000000000e+03) (3, -1.12813743642175950299e+03) (4, 6.83823624718964310887e+02) (5, -1.85040080262637076203e+02) (6, -3.58300515659642655919e+02) (7, -1.61824535282085442134e+01) (0, -8.71087392926215819955e+00) (1, -2.34509179469843651589e+01) (2, 7.67102782385357784278e+01) (3, -9.19073770435821302272e+01) (4, 7.61407960366394842566e+00) (5, 1.51756955469256364921e+01) (6, 6.49594074121392672794e+00) (7, -1.00316828487167004624e+01) (0, -1.06264040818317084813e+03) (1, 9.58039726780856994992e+02) (2, -1.50000000000000000000e+03) (3, -1.50000000000000000000e+03) (4, -7.92574011390172699976e+02) (5, 1.50000000000000000000e+03) (6, -6.47201697694145536843e+02) (7, 1.75879747037593517689e+02) (0, -1.59821419803609245491e+02) (1, 9.66417422532194905216e+01) (2, 6.19020228757647998918e+01) (3, -8.56924262389910751381e+01) (4, -5.18045702404386148032e+01) (5, -6.69689338811748058333e+01) (6, 2.78691472653843455021e+01) (7, 2.63450355879474784615e+01) (0, -8.37361833616151329807e+02) (1, -9.85988855601285649755e+02) (2, -4.17340933053053333879e+02) (3, 1.90805751348805046064e+02) (4, 5.41501067185830947892e+02) (5, 6.59472545137407337279e+02) (6, 1.50000000000000000000e+03) (7, 1.11740913294773264397e+02) (0, -2.12860512991522853099e+02) (1, 2.34886436625714978277e+01) (2, 1.62623388156858936782e+02) (3, -1.46785031957585317741e+02) (4, 1.04967410346902994434e+02) (5, -3.77027335759847161967e+01) (6, 9.39768984708053949362e+01) (7, -7.13664230561857149127e+00) (0, -9.00347782436827230867e+01) (1, 8.40520871850423077376e+02) (2, -1.03169873537341601377e+02) (3, -1.87500470633875096382e+02) (4, 1.61777541832924356413e+02) (5, -1.85114624496139934529e+00) (6, -2.22734124578554713025e+02) (7, -3.33491375163764075751e+02) (8, 1.37271047849559924003e+00) (9, -1.20514129296772698474e+00) (10, -1.76859853041345060909e+00) (11, 4.98266823364054034506e-01) (12, -7.56442972728493034928e-01) (13, -5.39162808007413341116e-01) (14, 6.71675951997845244179e-01) (15, 7.20303348054300962566e-01) (16, 1.38995597713268992379e+00) 
