FANN_FLO_2.1
num_layers=3
learning_rate=0.700000
connection_rate=1.000000
network_type=0
learning_momentum=0.000000
training_algorithm=2
train_error_function=1
train_stop_function=0
cascade_output_change_fraction=0.010000
quickprop_decay=-0.000100
quickprop_mu=1.750000
rprop_increase_factor=1.200000
rprop_decrease_factor=0.500000
rprop_delta_min=0.000000
rprop_delta_max=50.000000
rprop_delta_zero=0.100000
cascade_output_stagnation_epochs=12
cascade_candidate_change_fraction=0.010000
cascade_candidate_stagnation_epochs=12
cascade_max_out_epochs=150
cascade_max_cand_epochs=150
cascade_num_candidate_groups=2
bit_fail_limit=3.49999999999999977796e-01
cascade_candidate_limit=1.00000000000000000000e+03
cascade_weight_multiplier=4.00000000000000022204e-01
cascade_activation_functions_count=10
cascade_activation_functions=3 5 7 8 10 11 14 15 16 17 
cascade_activation_steepnesses_count=4
cascade_activation_steepnesses=2.50000000000000000000e-01 5.00000000000000000000e-01 7.50000000000000000000e-01 1.00000000000000000000e+00 
layer_sizes=8 15 2 
scale_included=0
neurons (num_inputs, activation_function, activation_steepness)=(0, 0, 0.00000000000000000000e+00) (0, 0, 0.00000000000000000000e+00) (0, 0, 0.00000000000000000000e+00) (0, 0, 0.00000000000000000000e+00) (0, 0, 0.00000000000000000000e+00) (0, 0, 0.00000000000000000000e+00) (0, 0, 0.00000000000000000000e+00) (0, 0, 0.00000000000000000000e+00) (8, 4, 5.00000000000000000000e-01) (8, 4, 5.00000000000000000000e-01) (8, 4, 5.00000000000000000000e-01) (8, 4, 5.00000000000000000000e-01) (8, 4, 5.00000000000000000000e-01) (8, 4, 5.00000000000000000000e-01) (8, 4, 5.00000000000000000000e-01) (8, 4, 5.00000000000000000000e-01) (8, 4, 5.00000000000000000000e-01) (8, 4, 5.00000000000000000000e-01) (8, 4, 5.00000000000000000000e-01) (8, 4, 5.00000000000000000000e-01) (8, 4, 5.00000000000000000000e-01) (8, 4, 5.00000000000000000000e-01) (0, 0, 0.00000000000000000000e+00) (15, 6, 5.00000000000000000000e-01) (0, 6, 0.00000000000000000000e+00) 
connections (connected_to_neuron, weight)=(0, -1.13361374583596401067e+02) (1, -5.38988236863377281338e+01) (2, 4.17917474000508164522e+01) (3, 2.20899518548424907749e+02) (4, -3.99454770029798802988e-02) (5, -2.70544200689595051301e+01) (6, 4.17815510678935098099e+01) (7, -2.20539670324363861198e+01) (0, -2.76711410233553465332e+01) (1, 7.31779159699480885592e+00) (2, -2.04578016229070200893e+01) (3, -3.98290273407404349371e+00) (4, -2.57188950980340678143e+01) (5, 3.10726244250367571453e+01) (6, 6.82490249633438939014e+00) (7, -2.89610115262450484863e+00) (0, -2.18665892451987318168e+01) (1, -1.15176533018288362875e+00) (2, -1.39010130949559975733e+01) (3, -4.46583709598384004380e+00) (4, -2.35390166701001000149e+01) (5, 2.81230576174881328200e+01) (6, 4.45292518471005216441e+00) (7, -1.79085010121162735430e+00) (0, -1.36970083756055657886e+02) (1, 2.49400551384756070661e+01) (2, -1.17491368679809813358e+01) (3, 5.30285497272063892638e+01) (4, 1.16316296064232673757e+01) (5, -1.85299479698554026008e+00) (6, 7.38766411179246915708e+01) (7, -8.16703002239476738566e+00) (0, -6.64869398882882336466e+01) (1, -7.07247586964851238100e-01) (2, 4.23936506806260524627e+01) (3, -2.46102252640702374720e+01) (4, 2.55509016968308557693e+01) (5, -1.04900602240014197974e+01) (6, 3.44811829157039682059e+01) (7, -3.41060092875889742103e+00) (0, 4.26557354411300536867e+02) (1, -9.44154596218541399821e+01) (2, -1.06898895512647143846e+02) (3, 1.24434139154274543415e+01) (4, -1.18332800660546936911e+02) (5, -2.07638022570831033420e+01) (6, -4.51383848595325360975e+01) (7, -5.66004164885128560059e+01) (0, -8.07427001084536932751e+00) (1, -1.02986434774833988115e+01) (2, 1.21746847700227682765e+01) (3, -2.34304029874324974969e+01) (4, -1.01028413525231002268e+01) (5, -6.31472432580779354794e+01) (6, 3.03976090234562796866e+01) (7, -1.51569083936909088095e+01) (0, 9.06726696097370137295e+01) (1, -8.87947922784382512873e+01) (2, 1.07921567494582468782e+01) (3, 5.03695134826024073504e+01) (4, 2.94338692607003871160e+01) (5, -1.28103329430354264673e+01) (6, -3.62184721782767695686e+01) (7, -4.39964466098801167959e+01) (0, -2.00362593686502350465e+01) (1, -2.36143237875824567595e+01) (2, 4.18277670026031458406e+01) (3, -2.30138104581643645474e+01) (4, -4.24767947137812118541e+00) (5, 1.09886310210614315253e+01) (6, -8.83060946793077761185e+00) (7, 9.75494764969188410397e-01) (0, -4.60121978168437948398e+01) (1, 6.93227366740552675139e+00) (2, 6.74499724865857164247e+00) (3, 6.17019122554913135303e+00) (4, 7.44929792885955865955e+00) (5, -2.09872512106764252948e+00) (6, 2.36865438850476905941e+01) (7, -2.71527320064301891378e+00) (0, -2.16855083057001820634e+01) (1, -1.92829640054489139800e+01) (2, 2.88854178285743046217e+01) (3, -1.22409392901391029795e+01) (4, -4.60417404085066461761e+00) (5, 9.59471422237132465227e+00) (6, -1.47445163669000622875e+00) (7, -2.90708731592165592339e-01) (0, -2.14314380665298465090e+01) (1, 1.82598182803992656886e+01) (2, 3.50336097049662242853e+00) (3, -2.62467095306860542792e+00) (4, 3.67230275806699202334e+00) (5, 7.58250794403603989302e-01) (6, -5.47964804270112182394e+00) (7, 3.25950249875300412938e+00) (0, -6.79003694951040870365e+02) (1, 1.50000000000000000000e+03) (2, -1.50000000000000000000e+03) (3, -1.50000000000000000000e+03) (4, -1.50000000000000000000e+03) (5, -1.50000000000000000000e+03) (6, 4.67523944078912563782e+02) (7, 2.75526602538808674581e+02) (0, -3.93552995401327763147e+01) (1, -1.47699868045134063976e+01) (2, 2.78038920609478914514e+01) (3, -4.88882657398534181681e+00) (4, -4.69407019978335249277e+00) (5, 9.39101322885373157590e+00) (6, 9.58693965320745000724e+00) (7, -3.25063385040994345943e+00) (8, -6.71854952182824871620e-01) (9, -7.83924660094867764570e+00) (10, 8.78787971159346881223e+00) (11, 1.96341648481373742818e+00) (12, 1.65653673842678483830e+00) (13, 9.28278962862923995303e-01) (14, 5.45003871571269060681e-01) (15, -2.40505164516774039285e+00) (16, 6.43926786484742397221e+00) (17, -3.43508276014023161693e+00) (18, -1.10551598394179482199e+01) (19, 1.29293502195697329604e+00) (20, -1.56342373952426494377e+00) (21, 4.38708835258960760939e+00) (22, -6.53355262752529419856e-01) 
