FANN_FLO_2.1
num_layers=3
learning_rate=0.700000
connection_rate=1.000000
network_type=0
learning_momentum=0.000000
training_algorithm=2
train_error_function=1
train_stop_function=0
cascade_output_change_fraction=0.010000
quickprop_decay=-0.000100
quickprop_mu=1.750000
rprop_increase_factor=1.200000
rprop_decrease_factor=0.500000
rprop_delta_min=0.000000
rprop_delta_max=50.000000
rprop_delta_zero=0.100000
cascade_output_stagnation_epochs=12
cascade_candidate_change_fraction=0.010000
cascade_candidate_stagnation_epochs=12
cascade_max_out_epochs=150
cascade_max_cand_epochs=150
cascade_num_candidate_groups=2
bit_fail_limit=3.49999999999999977796e-01
cascade_candidate_limit=1.00000000000000000000e+03
cascade_weight_multiplier=4.00000000000000022204e-01
cascade_activation_functions_count=10
cascade_activation_functions=3 5 7 8 10 11 14 15 16 17 
cascade_activation_steepnesses_count=4
cascade_activation_steepnesses=2.50000000000000000000e-01 5.00000000000000000000e-01 7.50000000000000000000e-01 1.00000000000000000000e+00 
layer_sizes=8 10 2 
scale_included=0
neurons (num_inputs, activation_function, activation_steepness)=(0, 0, 0.00000000000000000000e+00) (0, 0, 0.00000000000000000000e+00) (0, 0, 0.00000000000000000000e+00) (0, 0, 0.00000000000000000000e+00) (0, 0, 0.00000000000000000000e+00) (0, 0, 0.00000000000000000000e+00) (0, 0, 0.00000000000000000000e+00) (0, 0, 0.00000000000000000000e+00) (8, 4, 5.00000000000000000000e-01) (8, 4, 5.00000000000000000000e-01) (8, 4, 5.00000000000000000000e-01) (8, 4, 5.00000000000000000000e-01) (8, 4, 5.00000000000000000000e-01) (8, 4, 5.00000000000000000000e-01) (8, 4, 5.00000000000000000000e-01) (8, 4, 5.00000000000000000000e-01) (8, 4, 5.00000000000000000000e-01) (0, 0, 0.00000000000000000000e+00) (10, 6, 5.00000000000000000000e-01) (0, 6, 0.00000000000000000000e+00) 
connections (connected_to_neuron, weight)=(0, 7.29766927808071727668e+02) (1, -7.62312622166773962817e+02) (2, 2.12533674007373534209e+01) (3, -9.91616908690704235596e+02) (4, -1.50000000000000000000e+03) (5, -1.50000000000000000000e+03) (6, 1.20659001866126132541e+02) (7, 2.93408367184465760147e+02) (0, 3.39443115158152409094e+02) (1, 3.36143261280778631317e+02) (2, 3.57673201759525838384e+01) (3, -4.82026728072483422238e+02) (4, -1.50000000000000000000e+03) (5, 2.27973278872432899789e+02) (6, -4.87453017476993920809e+02) (7, 4.58888555685515314053e+02) (0, 5.08010738977728465215e+02) (1, 1.46760958488410238942e+02) (2, -6.31723853771727590356e+02) (3, -1.12863860435642322955e+03) (4, -1.50000000000000000000e+03) (5, -9.52601188478174094598e+01) (6, 1.09496101406648199372e+03) (7, 6.21751253621317005127e+02) (0, -3.08910900663759093732e+02) (1, 3.89085121167712713941e+02) (2, -1.60559619958955380525e+02) (3, 2.68433524956443307019e+02) (4, -1.47069210992819932926e+02) (5, 5.38607008975005143725e+01) (6, 5.30176001659538769673e+02) (7, -8.86031760107240558000e+01) (0, -1.47114608801938317129e+02) (1, 1.76067312274816742956e+02) (2, -7.63003322815669946522e+01) (3, 3.78413922815215215678e+01) (4, -2.75480780258196666921e+01) (5, 4.71703382316393771134e+00) (6, 4.15252253742844246176e+01) (7, -3.56654954722325934213e+00) (0, 2.07121724161741383341e+02) (1, 6.24284167487685294873e+02) (2, -7.45604928706314581177e+02) (3, 3.39867803484423802729e+02) (4, -1.68633278421659412061e+02) (5, -2.99616534358825781226e+00) (6, 4.32696286897612651501e+02) (7, -8.09676524588456800302e+02) (0, -2.92210997140428263563e+00) (1, 2.72525562783778729781e+00) (2, -6.36066088291325915094e+00) (3, 7.11090482067083051732e+00) (4, -4.09200786237928468836e+01) (5, 4.26466180351202872600e+00) (6, 5.52580737444198621944e+00) (7, 4.29190955934197582167e+00) (0, -4.93083035599039263275e+01) (1, 5.24821352450885996177e+01) (2, -2.09462816177664166162e+01) (3, 5.05042006128355058792e+00) (4, -1.81697120876794819821e+01) (5, 6.04609561433172348899e-01) (6, 2.66566978774785532380e+01) (7, 5.81375735887623368292e-01) (0, 2.14017115191832772325e+02) (1, -6.01613112131485422651e+02) (2, 2.05853001613731350972e+02) (3, -3.91028306753796869089e+02) (4, -8.62505955945719506417e+02) (5, -1.50000000000000000000e+03) (6, 1.38725697809665348359e+02) (7, 1.38059260139205008500e+02) (8, 3.14793783006039973316e+00) (9, 2.59134814009450753503e+00) (10, 1.43833051453475180281e+00) (11, -1.15501368698463369178e+00) (12, 2.26446986969679020518e+00) (13, -8.65045458505960485063e-01) (14, -6.37606317397834310157e+00) (15, -2.85296584793297869354e+00) (16, 1.33000113018535515153e+00) (17, 6.26098451443023007457e-01) 
