FANN_FLO_2.1
num_layers=3
learning_rate=0.700000
connection_rate=1.000000
network_type=0
learning_momentum=0.000000
training_algorithm=2
train_error_function=1
train_stop_function=0
cascade_output_change_fraction=0.010000
quickprop_decay=-0.000100
quickprop_mu=1.750000
rprop_increase_factor=1.200000
rprop_decrease_factor=0.500000
rprop_delta_min=0.000000
rprop_delta_max=50.000000
rprop_delta_zero=0.100000
cascade_output_stagnation_epochs=12
cascade_candidate_change_fraction=0.010000
cascade_candidate_stagnation_epochs=12
cascade_max_out_epochs=150
cascade_max_cand_epochs=150
cascade_num_candidate_groups=2
bit_fail_limit=3.49999999999999977796e-01
cascade_candidate_limit=1.00000000000000000000e+03
cascade_weight_multiplier=4.00000000000000022204e-01
cascade_activation_functions_count=10
cascade_activation_functions=3 5 7 8 10 11 14 15 16 17 
cascade_activation_steepnesses_count=4
cascade_activation_steepnesses=2.50000000000000000000e-01 5.00000000000000000000e-01 7.50000000000000000000e-01 1.00000000000000000000e+00 
layer_sizes=8 9 2 
scale_included=0
neurons (num_inputs, activation_function, activation_steepness)=(0, 0, 0.00000000000000000000e+00) (0, 0, 0.00000000000000000000e+00) (0, 0, 0.00000000000000000000e+00) (0, 0, 0.00000000000000000000e+00) (0, 0, 0.00000000000000000000e+00) (0, 0, 0.00000000000000000000e+00) (0, 0, 0.00000000000000000000e+00) (0, 0, 0.00000000000000000000e+00) (8, 4, 5.00000000000000000000e-01) (8, 4, 5.00000000000000000000e-01) (8, 4, 5.00000000000000000000e-01) (8, 4, 5.00000000000000000000e-01) (8, 4, 5.00000000000000000000e-01) (8, 4, 5.00000000000000000000e-01) (8, 4, 5.00000000000000000000e-01) (8, 4, 5.00000000000000000000e-01) (0, 0, 0.00000000000000000000e+00) (9, 6, 5.00000000000000000000e-01) (0, 6, 0.00000000000000000000e+00) 
connections (connected_to_neuron, weight)=(0, 1.52414508756153033175e+01) (1, -1.83846594402398828549e+01) (2, 1.32140926330971053559e+00) (3, -5.18403316680054526699e+00) (4, -1.15172464384395212278e+01) (5, -3.21940319356505355586e+01) (6, 1.68152653883267930723e+01) (7, 8.92336384453325415222e+00) (0, 5.01308412745992484361e+01) (1, -3.55970969519355717736e+00) (2, -3.95007551684514481849e+01) (3, -6.87302632065319318855e+00) (4, -2.12258401090689297064e+01) (5, 4.19664615330800501170e+01) (6, 2.15240320083133838125e+01) (7, -1.69689857819811180661e+01) (0, -3.84487085100298543239e+02) (1, -1.83172198733891633537e+02) (2, 3.19472016355196785753e+02) (3, 5.69889277298206820888e+02) (4, -1.50000000000000000000e+03) (5, 8.73929221432013378035e+02) (6, -3.67527771635823398810e+02) (7, -1.28464958310979483258e+02) (0, 8.52277533139237561954e+01) (1, -7.53924645274206142176e+01) (2, 3.25528103179524350708e+01) (3, -3.80572408438116127627e+01) (4, -1.06362686585091040570e+02) (5, 7.39739278047932913296e+01) (6, 9.74891867411576562574e+00) (7, 3.41053177955534678745e+01) (0, -1.33776550994085710045e+03) (1, -7.06691514600005689317e+02) (2, 8.82061749101677492035e+02) (3, 1.50000000000000000000e+03) (4, -7.07064677390272677826e+00) (5, -1.50000000000000000000e+03) (6, -1.78324404143571172199e+02) (7, 5.78950340447409303124e+02) (0, 8.64187789721943886434e+01) (1, 1.38537418435322456922e+00) (2, -3.81555430696460584628e+00) (3, -8.78656142582880903547e+01) (4, -8.76931222344955045855e+01) (5, 9.88243171296947409132e+00) (6, -2.81182633578846683520e+01) (7, 4.19065061182668188167e+01) (0, -1.92203344245324956319e+02) (1, -9.07822194621931544134e+01) (2, -1.91948331647207851347e+02) (3, 1.12608449656088009760e+03) (4, -6.01749981603001288022e+02) (5, -1.50000000000000000000e+03) (6, 9.03809915511817848710e+02) (7, -1.07368217772313656155e+02) (0, 6.27735368427438658046e+01) (1, -6.58328868335923687027e+01) (2, 1.70696548276141086831e+01) (3, 7.14602568532001924950e+01) (4, 3.60886677697449371749e+01) (5, -2.39191516612276657838e+01) (6, -1.54540235427314144090e+02) (7, 9.71328401417682698593e+01) (8, 2.03286150820446831489e+00) (9, -1.66216320603265188538e+00) (10, 2.07712305633755667245e+00) (11, -8.72034885638445889100e-01) (12, -1.20161180649388854569e+00) (13, 1.44931688320793372604e+00) (14, -2.56497204874312334510e+00) (15, 1.42375882122817154496e+00) (16, 5.73429696497326002458e-01) 
