FANN_FLO_2.1
num_layers=3
learning_rate=0.700000
connection_rate=1.000000
network_type=0
learning_momentum=0.000000
training_algorithm=2
train_error_function=1
train_stop_function=0
cascade_output_change_fraction=0.010000
quickprop_decay=-0.000100
quickprop_mu=1.750000
rprop_increase_factor=1.200000
rprop_decrease_factor=0.500000
rprop_delta_min=0.000000
rprop_delta_max=50.000000
rprop_delta_zero=0.100000
cascade_output_stagnation_epochs=12
cascade_candidate_change_fraction=0.010000
cascade_candidate_stagnation_epochs=12
cascade_max_out_epochs=150
cascade_max_cand_epochs=150
cascade_num_candidate_groups=2
bit_fail_limit=3.49999999999999977796e-01
cascade_candidate_limit=1.00000000000000000000e+03
cascade_weight_multiplier=4.00000000000000022204e-01
cascade_activation_functions_count=10
cascade_activation_functions=3 5 7 8 10 11 14 15 16 17 
cascade_activation_steepnesses_count=4
cascade_activation_steepnesses=2.50000000000000000000e-01 5.00000000000000000000e-01 7.50000000000000000000e-01 1.00000000000000000000e+00 
layer_sizes=8 15 2 
scale_included=0
neurons (num_inputs, activation_function, activation_steepness)=(0, 0, 0.00000000000000000000e+00) (0, 0, 0.00000000000000000000e+00) (0, 0, 0.00000000000000000000e+00) (0, 0, 0.00000000000000000000e+00) (0, 0, 0.00000000000000000000e+00) (0, 0, 0.00000000000000000000e+00) (0, 0, 0.00000000000000000000e+00) (0, 0, 0.00000000000000000000e+00) (8, 4, 5.00000000000000000000e-01) (8, 4, 5.00000000000000000000e-01) (8, 4, 5.00000000000000000000e-01) (8, 4, 5.00000000000000000000e-01) (8, 4, 5.00000000000000000000e-01) (8, 4, 5.00000000000000000000e-01) (8, 4, 5.00000000000000000000e-01) (8, 4, 5.00000000000000000000e-01) (8, 4, 5.00000000000000000000e-01) (8, 4, 5.00000000000000000000e-01) (8, 4, 5.00000000000000000000e-01) (8, 4, 5.00000000000000000000e-01) (8, 4, 5.00000000000000000000e-01) (8, 4, 5.00000000000000000000e-01) (0, 0, 0.00000000000000000000e+00) (15, 6, 5.00000000000000000000e-01) (0, 6, 0.00000000000000000000e+00) 
connections (connected_to_neuron, weight)=(0, -1.75051614115932892446e+02) (1, -3.22977199520864871829e+02) (2, -2.12960190439835400866e+02) (3, 7.57830795653979635063e+02) (4, -4.61521402577277342516e+02) (5, 9.08242870495506906536e+01) (6, -4.85114641268345820890e+01) (7, 9.39116906048700172960e+00) (0, 3.57436219317133520690e+02) (1, -1.09684091501696798332e+03) (2, 1.10699645955297864930e+03) (3, 1.21878116335414915739e+03) (4, -1.50000000000000000000e+03) (5, -1.50000000000000000000e+03) (6, -6.34808241861221404179e+02) (7, -1.77498198938468362940e+02) (0, 1.37510255581917795098e+03) (1, -4.08790390677179686918e+02) (2, 5.27891729131333477198e+02) (3, 1.35241290184900572058e+03) (4, -1.50000000000000000000e+03) (5, -1.50000000000000000000e+03) (6, -5.86938833865284323110e+02) (7, -1.32670020430392014532e+03) (0, 2.33803351752478505432e+00) (1, 1.35432608036520978345e+01) (2, -1.41193443411388805941e+01) (3, 1.75462142519173518451e+01) (4, -7.48731282016816095393e+01) (5, 2.18466787533145634370e+01) (6, -4.49041546171667249610e+00) (7, 1.97867172793977026402e+01) (0, -2.20419243769762744023e+02) (1, 9.30346786773615463062e+02) (2, 1.50000000000000000000e+03) (3, 1.50000000000000000000e+03) (4, -1.50000000000000000000e+03) (5, -1.50000000000000000000e+03) (6, -1.06381308308343204772e+03) (7, -1.27646436341311255092e+03) (0, 2.88249504711602311247e+00) (1, -1.66263006572334042232e+01) (2, -6.12196297147550794193e+00) (3, 2.14958931651878835112e+01) (4, -1.29308441571664562986e+01) (5, -1.53880426596372394954e+01) (6, 2.20572271015692766838e+00) (7, -1.32178058853923952043e+00) (0, -1.05429473639877979707e+01) (1, -3.81957279421889381865e+01) (2, 4.03418113361305472608e+01) (3, -4.25324411664474624217e+01) (4, 4.09169020309260034196e+01) (5, 2.14286114673385661433e+01) (6, -2.41932020621467529509e+01) (7, 1.03911961347016585933e+01) (0, -9.57658376679960809952e+00) (1, 2.46394628852402952646e+01) (2, -1.41772162217778898707e+01) (3, 3.14047095587465499023e+01) (4, -1.02756754785133104235e+01) (5, -1.28580193873449264430e+01) (6, -5.42033590592228975424e+00) (7, -1.66798518427809128184e+01) (0, -1.01625217005198840070e+03) (1, 2.41955960080538602597e+02) (2, -2.24784453339171506059e+02) (3, -5.61100717820918703183e+02) (4, 1.24206032151036151845e+03) (5, 1.50000000000000000000e+03) (6, -1.24666604169605852803e+03) (7, 2.68264016434617531104e+02) (0, 2.00159292524262566459e+00) (1, -1.33539955821289524351e+01) (2, 4.98874148594769284415e+00) (3, -1.09987972805621900818e+01) (4, 7.03399918021038956795e+01) (5, -2.11087131741066045265e+01) (6, -4.64713563541018115366e-01) (7, -1.53161766641263170641e+01) (0, -2.67839665717064541184e+01) (1, -4.42243524614496479330e+01) (2, -1.79260522972488409721e+01) (3, 1.37368092520016560343e+01) (4, -8.04554902210150757469e+00) (5, 8.73032458568567548696e+00) (6, 5.04335573999055384320e+01) (7, -2.55378694067100076026e+00) (0, -3.74521035691293917580e+01) (1, 2.88788108086202406355e+01) (2, 1.52855007704441936411e-01) (3, -4.88497898457121024762e+01) (4, 6.56086637725837249491e+01) (5, -4.57129764099874122962e+01) (6, 5.98052471804385032961e-01) (7, -7.70198468312471362651e+00) (0, 3.20125408153137129830e+02) (1, -1.24021928473064406262e+02) (2, -9.53339103305020216794e+02) (3, 8.81956102201501010995e+01) (4, 5.67159771747846775725e+02) (5, -1.50000000000000000000e+03) (6, -4.31868956977443929190e+02) (7, 4.45823090678412299326e+01) (0, -2.72633870928831470337e+02) (1, 9.15237750336240054594e+01) (2, -1.50000000000000000000e+03) (3, 2.94462053075904520938e+02) (4, -4.03784486992470448286e+01) (5, -1.57797587728905426729e+02) (6, 5.25875878378550964953e+02) (7, 2.89213133259011158316e+02) (8, -2.20125789338184452149e+00) (9, 2.19034251082821418422e+00) (10, 3.23680348960716202100e+00) (11, 1.26903818562388686075e+01) (12, 8.12046677770639657723e-01) (13, -7.40784949591527563939e+00) (14, 2.35213951306713031641e+00) (15, -5.83671107048594528521e+00) (16, -2.34187326570194853659e+00) (17, 1.25919773257848586212e+01) (18, 4.70863494243115709992e+00) (19, -2.21114550722232028335e+00) (20, 6.70423310418990769932e+00) (21, -4.85712009360663010682e+00) (22, -1.23759876006401938753e+01) 
