FANN_FLO_2.1
num_layers=3
learning_rate=0.700000
connection_rate=1.000000
network_type=0
learning_momentum=0.000000
training_algorithm=2
train_error_function=1
train_stop_function=0
cascade_output_change_fraction=0.010000
quickprop_decay=-0.000100
quickprop_mu=1.750000
rprop_increase_factor=1.200000
rprop_decrease_factor=0.500000
rprop_delta_min=0.000000
rprop_delta_max=50.000000
rprop_delta_zero=0.100000
cascade_output_stagnation_epochs=12
cascade_candidate_change_fraction=0.010000
cascade_candidate_stagnation_epochs=12
cascade_max_out_epochs=150
cascade_max_cand_epochs=150
cascade_num_candidate_groups=2
bit_fail_limit=3.49999999999999977796e-01
cascade_candidate_limit=1.00000000000000000000e+03
cascade_weight_multiplier=4.00000000000000022204e-01
cascade_activation_functions_count=10
cascade_activation_functions=3 5 7 8 10 11 14 15 16 17 
cascade_activation_steepnesses_count=4
cascade_activation_steepnesses=2.50000000000000000000e-01 5.00000000000000000000e-01 7.50000000000000000000e-01 1.00000000000000000000e+00 
layer_sizes=8 11 2 
scale_included=0
neurons (num_inputs, activation_function, activation_steepness)=(0, 0, 0.00000000000000000000e+00) (0, 0, 0.00000000000000000000e+00) (0, 0, 0.00000000000000000000e+00) (0, 0, 0.00000000000000000000e+00) (0, 0, 0.00000000000000000000e+00) (0, 0, 0.00000000000000000000e+00) (0, 0, 0.00000000000000000000e+00) (0, 0, 0.00000000000000000000e+00) (8, 4, 5.00000000000000000000e-01) (8, 4, 5.00000000000000000000e-01) (8, 4, 5.00000000000000000000e-01) (8, 4, 5.00000000000000000000e-01) (8, 4, 5.00000000000000000000e-01) (8, 4, 5.00000000000000000000e-01) (8, 4, 5.00000000000000000000e-01) (8, 4, 5.00000000000000000000e-01) (8, 4, 5.00000000000000000000e-01) (8, 4, 5.00000000000000000000e-01) (0, 0, 0.00000000000000000000e+00) (11, 6, 5.00000000000000000000e-01) (0, 6, 0.00000000000000000000e+00) 
connections (connected_to_neuron, weight)=(0, 2.89086811786625652587e+01) (1, -6.41822631556970293332e+01) (2, -9.70051506583736333766e+00) (3, 6.44792020739691906783e+01) (4, 3.10745385149956820925e+00) (5, 5.22495518424333926788e+00) (6, -6.59411230196551922944e+00) (7, -6.38100284436544651356e+00) (0, 2.65244627816699818368e+00) (1, 3.61146029841449376363e+01) (2, -6.31639001469190048965e+01) (3, 8.85860944760690394162e+00) (4, -6.81435031515327551688e+01) (5, -2.79923617283378064258e+02) (6, -3.58620786775689879278e+01) (7, 1.43359962774012590359e+01) (0, -4.46963482168412795659e+00) (1, 7.39389027955182243090e+00) (2, -4.50981019916089032051e+00) (3, -4.91819921904494972154e+00) (4, 3.94509027281671853515e+00) (5, -3.85797438568350559152e+00) (6, 1.41507059834593396097e+00) (7, 9.01752642994413267097e-01) (0, -6.69518212066419948769e+01) (1, 3.59392900519892748434e+02) (2, 1.69898984703466453539e+01) (3, 2.48204606662660268057e+02) (4, 3.95242543646420301684e+02) (5, -7.07238369335178163055e+02) (6, -1.94021161560724294759e+02) (7, -2.08407092018955239610e+02) (0, 1.36663857973966007542e+00) (1, 7.60208987567426319742e+00) (2, -1.53119912396748354411e+01) (3, -4.17246829793007378839e+00) (4, 8.50179525871969055117e+00) (5, -3.63543939280833399152e+01) (6, -2.55062785809925030023e+00) (7, -6.33081247174445582715e-01) (0, 9.00502604473427481935e+02) (1, -3.22552987757651294487e+02) (2, -6.96331035947443183431e+02) (3, -1.96259320091822182519e+01) (4, 8.75000537709509103479e+02) (5, 1.77544135595649464676e+02) (6, -1.50000000000000000000e+03) (7, -4.20903231004118367764e+02) (0, -3.90859819636451746305e+01) (1, -1.14275729162178496523e+01) (2, -4.76173937622775653722e+01) (3, -6.20196116424192709360e+01) (4, 2.65228707340315068564e+01) (5, 2.00774891550457184053e+01) (6, 5.60010376743898916629e+01) (7, 8.88883506512995325011e+00) (0, 1.10276676064015504153e+02) (1, 7.38707545361369142256e+01) (2, -3.73943734534301086114e+02) (3, 1.16388140988949771781e+02) (4, -6.88135186364388232505e+02) (5, -3.55108753918051206711e+02) (6, 2.83149074923454350028e+02) (7, 1.48566172964631192599e+02) (0, -7.32917549405304580290e+00) (1, 3.26501744542488969714e+00) (2, -3.85857740973684615327e+00) (3, -1.06345499691362626038e+01) (4, 3.54952118047950238022e+00) (5, 7.82504376114028565858e-01) (6, 4.20210575805042818587e+00) (7, 2.61694777448489146465e+00) (0, 2.70680321476420751026e+01) (1, -1.04214225375239948335e+02) (2, -2.69685072720365717203e+01) (3, -9.91246550973435347487e+01) (4, 1.31376678072255401730e+02) (5, 1.34646353032164363128e+01) (6, 2.85856482963173732514e+01) (7, -3.17374161436839088424e+01) (8, -2.18211736110144860490e+00) (9, -5.56780150652885463813e+00) (10, -5.54281064246508314852e+00) (11, 2.10682681605417476689e+00) (12, 8.37227093397605059977e+00) (13, 2.72217580716993268197e+00) (14, -1.20017311761928713310e+01) (15, -1.51826701756297621770e+00) (16, 1.09907869339511510276e+01) (17, 7.96441388688116003181e+00) (18, 1.24509760417062786964e+00) 
