FANN_FLO_2.1
num_layers=3
learning_rate=0.700000
connection_rate=1.000000
network_type=0
learning_momentum=0.000000
training_algorithm=2
train_error_function=1
train_stop_function=0
cascade_output_change_fraction=0.010000
quickprop_decay=-0.000100
quickprop_mu=1.750000
rprop_increase_factor=1.200000
rprop_decrease_factor=0.500000
rprop_delta_min=0.000000
rprop_delta_max=50.000000
rprop_delta_zero=0.100000
cascade_output_stagnation_epochs=12
cascade_candidate_change_fraction=0.010000
cascade_candidate_stagnation_epochs=12
cascade_max_out_epochs=150
cascade_max_cand_epochs=150
cascade_num_candidate_groups=2
bit_fail_limit=3.49999999999999977796e-01
cascade_candidate_limit=1.00000000000000000000e+03
cascade_weight_multiplier=4.00000000000000022204e-01
cascade_activation_functions_count=10
cascade_activation_functions=3 5 7 8 10 11 14 15 16 17 
cascade_activation_steepnesses_count=4
cascade_activation_steepnesses=2.50000000000000000000e-01 5.00000000000000000000e-01 7.50000000000000000000e-01 1.00000000000000000000e+00 
layer_sizes=8 11 2 
scale_included=0
neurons (num_inputs, activation_function, activation_steepness)=(0, 0, 0.00000000000000000000e+00) (0, 0, 0.00000000000000000000e+00) (0, 0, 0.00000000000000000000e+00) (0, 0, 0.00000000000000000000e+00) (0, 0, 0.00000000000000000000e+00) (0, 0, 0.00000000000000000000e+00) (0, 0, 0.00000000000000000000e+00) (0, 0, 0.00000000000000000000e+00) (8, 4, 5.00000000000000000000e-01) (8, 4, 5.00000000000000000000e-01) (8, 4, 5.00000000000000000000e-01) (8, 4, 5.00000000000000000000e-01) (8, 4, 5.00000000000000000000e-01) (8, 4, 5.00000000000000000000e-01) (8, 4, 5.00000000000000000000e-01) (8, 4, 5.00000000000000000000e-01) (8, 4, 5.00000000000000000000e-01) (8, 4, 5.00000000000000000000e-01) (0, 0, 0.00000000000000000000e+00) (11, 6, 5.00000000000000000000e-01) (0, 6, 0.00000000000000000000e+00) 
connections (connected_to_neuron, weight)=(0, 5.32924508189650737222e+02) (1, 4.02884930774550070964e+02) (2, -7.37181165293254252902e+02) (3, 9.94127996449385705091e+02) (4, -1.50000000000000000000e+03) (5, -1.50000000000000000000e+03) (6, -8.41991575869794360187e+02) (7, -4.81385797417118226349e+01) (0, -1.50000000000000000000e+03) (1, 1.35519151826136862837e+02) (2, -2.35571559316665997130e+02) (3, -3.54586177213402663710e+02) (4, -2.80702224060250159710e+02) (5, 1.50000000000000000000e+03) (6, 8.15650090559462000783e+02) (7, 1.53530725922854145438e+02) (0, 6.89477587273174918892e+01) (1, -3.27877779053558739975e+01) (2, -1.24188060579156793750e+01) (3, 1.39519260858884326382e+01) (4, 1.25791686178173489630e+00) (5, 1.04270828157382151602e+01) (6, -2.08167212432730863725e+01) (7, -2.73125831128396470149e+01) (0, -2.95497411261524916881e+02) (1, -6.02345485597817145162e+01) (2, 1.15824016485604744275e+02) (3, -9.62153171918026686171e+01) (4, -2.20719484140252404814e+02) (5, 2.40711148727725003482e+02) (6, 1.28996684492324646953e+02) (7, 2.69452974424131035391e+01) (0, 3.90524845406339409237e+01) (1, -1.40859474576855149053e+02) (2, 8.34267688048441868887e+01) (3, 5.66261708622317794237e+00) (4, 8.71335338815070485907e+01) (5, -1.67305694240944973217e+01) (6, -2.31527714454172839353e+00) (7, -5.02258526504562965442e+01) (0, 6.15134956318745018677e+00) (1, 1.39453842815326178872e+00) (2, -3.58318856407758588034e+01) (3, 2.50156847313137937761e+01) (4, -1.62201036476966216071e+01) (5, -3.75590960766540220561e+01) (6, -3.76380521066647366624e+00) (7, 3.54131321924162500991e+00) (0, 1.10743672605040615053e+03) (1, -9.84568264999117559455e+02) (2, -1.37094655552282574718e+03) (3, -4.54463118127911229749e+02) (4, -1.50000000000000000000e+03) (5, 9.79537245298652550218e+01) (6, -7.56310767399985934389e+02) (7, 1.43952015007429076832e+03) (0, 1.23813579909007430047e+02) (1, -7.18805710136521042841e+02) (2, 3.48234407309268135577e+02) (3, 4.96364157149127834145e+02) (4, -1.50000000000000000000e+03) (5, 8.42310797039720796420e+02) (6, -4.04958527701342177352e+02) (7, 2.13097257548253452342e+02) (0, 5.15470788050439878702e+01) (1, 3.47960140373253352664e+02) (2, -9.35152221056265034349e+02) (3, 1.17159150999311080454e+02) (4, -3.78939742730716602637e+02) (5, -1.50000000000000000000e+03) (6, -5.44942017846776494139e+01) (7, 6.05037081772839968608e+01) (0, -5.81032123221952523373e-01) (1, -6.20663240714952095800e+01) (2, 4.78691876384065295724e+01) (3, -9.00378624460243059957e+00) (4, -1.45716155658390498218e+01) (5, -8.07297913170371543856e+01) (6, 4.21158322207373743140e+01) (7, 1.67818016224205912579e+01) (8, 2.08332790816254309618e+00) (9, -2.01638587582407913246e+00) (10, 5.21383977938438825106e+00) (11, -5.22066048189693088233e+00) (12, 1.71589073333539743338e+00) (13, -5.17674664112952065409e+00) (14, 2.06399409864144489646e+00) (15, 4.64706057277871753541e+00) (16, 3.17676639442953678838e+00) (17, -1.14126555002558949248e+00) (18, 1.35807840285210179587e+00) 
