FANN_FLO_2.1
num_layers=3
learning_rate=0.700000
connection_rate=1.000000
network_type=0
learning_momentum=0.000000
training_algorithm=2
train_error_function=1
train_stop_function=0
cascade_output_change_fraction=0.010000
quickprop_decay=-0.000100
quickprop_mu=1.750000
rprop_increase_factor=1.200000
rprop_decrease_factor=0.500000
rprop_delta_min=0.000000
rprop_delta_max=50.000000
rprop_delta_zero=0.100000
cascade_output_stagnation_epochs=12
cascade_candidate_change_fraction=0.010000
cascade_candidate_stagnation_epochs=12
cascade_max_out_epochs=150
cascade_max_cand_epochs=150
cascade_num_candidate_groups=2
bit_fail_limit=3.49999999999999977796e-01
cascade_candidate_limit=1.00000000000000000000e+03
cascade_weight_multiplier=4.00000000000000022204e-01
cascade_activation_functions_count=10
cascade_activation_functions=3 5 7 8 10 11 14 15 16 17 
cascade_activation_steepnesses_count=4
cascade_activation_steepnesses=2.50000000000000000000e-01 5.00000000000000000000e-01 7.50000000000000000000e-01 1.00000000000000000000e+00 
layer_sizes=8 16 2 
scale_included=0
neurons (num_inputs, activation_function, activation_steepness)=(0, 0, 0.00000000000000000000e+00) (0, 0, 0.00000000000000000000e+00) (0, 0, 0.00000000000000000000e+00) (0, 0, 0.00000000000000000000e+00) (0, 0, 0.00000000000000000000e+00) (0, 0, 0.00000000000000000000e+00) (0, 0, 0.00000000000000000000e+00) (0, 0, 0.00000000000000000000e+00) (8, 4, 5.00000000000000000000e-01) (8, 4, 5.00000000000000000000e-01) (8, 4, 5.00000000000000000000e-01) (8, 4, 5.00000000000000000000e-01) (8, 4, 5.00000000000000000000e-01) (8, 4, 5.00000000000000000000e-01) (8, 4, 5.00000000000000000000e-01) (8, 4, 5.00000000000000000000e-01) (8, 4, 5.00000000000000000000e-01) (8, 4, 5.00000000000000000000e-01) (8, 4, 5.00000000000000000000e-01) (8, 4, 5.00000000000000000000e-01) (8, 4, 5.00000000000000000000e-01) (8, 4, 5.00000000000000000000e-01) (8, 4, 5.00000000000000000000e-01) (0, 0, 0.00000000000000000000e+00) (16, 6, 5.00000000000000000000e-01) (0, 6, 0.00000000000000000000e+00) 
connections (connected_to_neuron, weight)=(0, -1.53361887677472328306e+01) (1, -8.64981689868870944338e+01) (2, 1.52452720603984829495e+02) (3, -9.41711818482861389157e+01) (4, -2.84096968126676578947e+01) (5, 8.37079409046396989424e+01) (6, 1.20296875053595453409e+01) (7, 3.04934671330981430515e+01) (0, -3.01668165903150296003e+01) (1, -2.84607641965633817449e+01) (2, -2.87558764706120868482e+01) (3, 4.58032668873202979398e+01) (4, -6.30599023603515576042e+01) (5, 6.86037722364943505227e+01) (6, 1.41999391294067827118e+01) (7, 2.03532815130554851635e+01) (0, 9.41114424106874707832e+02) (1, -3.06965572493155889333e+02) (2, 1.48178650185677497575e+03) (3, 7.23762620141356478598e+02) (4, -1.50000000000000000000e+03) (5, -1.50000000000000000000e+03) (6, -5.90685168467536300341e+02) (7, -1.31077137619099949006e+03) (0, -1.66257718910435357884e+02) (1, 3.15581666438112833362e+01) (2, -1.67287102626248418424e+00) (3, 1.12359788315521868185e+02) (4, 3.19788837061855737431e+01) (5, -5.54386257618400435376e+01) (6, -2.55479228272101082098e+01) (7, -4.53115917320698784465e+01) (0, -1.47572437004061725929e+03) (1, -3.46584691127132771271e+02) (2, 3.15635299399282764909e+00) (3, 4.26618855446651252805e+02) (4, 1.50000000000000000000e+03) (5, 1.50000000000000000000e+03) (6, -1.40008456853901725481e+03) (7, -6.58276951880176056875e+02) (0, -1.17395422592804038686e+03) (1, -5.42376871060625944665e+02) (2, -7.86801593954702639166e+02) (3, -1.03943138133638035470e+03) (4, 1.22498956356559028791e+03) (5, 6.97928488866229713494e+02) (6, -5.55428895167404903077e+02) (7, 6.58470744388590787821e+02) (0, 2.35890697525040557991e+01) (1, -1.40345210565290335580e+03) (2, 1.70455295206527523533e+02) (3, -7.63243437710448660027e+01) (4, -5.82942276398543185678e+02) (5, -1.50000000000000000000e+03) (6, -7.77669480191018124060e+02) (7, 1.62475547316967947609e+02) (0, 1.98390650363187603489e+02) (1, -2.18292949056186500911e+02) (2, -6.09954892445260043132e+02) (3, -4.44302709031224310365e+02) (4, 4.32692304402599233981e+02) (5, -1.50000000000000000000e+03) (6, 6.02357786261504415393e+01) (7, 2.81243907307288964148e+02) (0, -2.86614190247266620304e+01) (1, 6.84255354394851451616e+02) (2, 6.72943098611174036705e+02) (3, -1.34494544018102897098e+03) (4, -7.78331393478615893855e+01) (5, 2.00444869108462562224e+01) (6, -1.03605154302898824881e+02) (7, -2.40287590240344627546e+02) (0, -1.82765001009232861406e+02) (1, 1.38813594432460195094e+03) (2, -1.34709216732662548566e+03) (3, -1.29598776379377159174e+03) (4, -5.58167283304755414974e+02) (5, 1.50000000000000000000e+03) (6, 5.62007104943992203516e+02) (7, -5.70301819797565713088e+02) (0, 2.49998903655692686243e+02) (1, 8.10599025919117934791e+01) (2, -1.76243082108752631143e+01) (3, -1.39920707972950197018e+02) (4, 4.17268424997794568299e+02) (5, -2.21415232800713738470e+02) (6, -3.17884961142703673431e+02) (7, -3.14001830719762118349e+01) (0, 1.86698074371024276275e+01) (1, -4.41029389015724504475e+01) (2, 2.65459621827609826283e+00) (3, -3.26785364915147624743e+01) (4, 6.09458271800839028742e+01) (5, -2.43111183622243878233e+01) (6, 1.34756113592208350838e+01) (7, -1.60828093841631836192e+00) (0, 4.97461908884779369089e+00) (1, -1.63299271953756317544e+01) (2, 1.31839815411136251910e+00) (3, -1.01724435299957356449e+01) (4, 5.67602002720303921990e+00) (5, -2.34413044562626105005e+01) (6, 4.24376972439059052533e+00) (7, 4.78066648044239173032e+00) (0, 1.48329180154266555292e+03) (1, -1.48869806959248512612e+03) (2, -1.22542428503776113757e+03) (3, -1.49999980799998957082e+03) (4, -1.50000000000000000000e+03) (5, -1.50000000000000000000e+03) (6, 8.24136375736258514735e+02) (7, -9.20951359995953566795e+02) (0, 2.12007918859246586862e+02) (1, 8.20278303701595064013e+01) (2, -1.00537986945143870798e+03) (3, -4.42724469399334168429e+02) (4, 1.13282821628363376476e+03) (5, -1.50000000000000000000e+03) (6, 3.85064047270604845608e+01) (7, 3.63650468595198859134e+01) (8, 2.37163069208417498501e+00) (9, 1.62025342060540311628e+00) (10, 1.21833697719204803178e+00) (11, -1.90140922875342388565e+00) (12, -1.39517371053352823296e+00) (13, 6.66443315552482928865e-01) (14, 1.69329393695771268646e+00) (15, 3.29515568373507727884e+00) (16, -2.99975549980979261377e+00) (17, -1.39877389111961392132e+00) (18, 1.41491466114006070320e+00) (19, -2.17153157799935181416e+00) (20, -5.32144889600808657093e+00) (21, 1.50000000000000000000e+03) (22, 4.05143131255382549227e+00) (23, -2.26478537027448334484e+00) 
