FANN_FLO_2.1
num_layers=4
learning_rate=0.700000
connection_rate=1.000000
network_type=0
learning_momentum=0.000000
training_algorithm=2
train_error_function=1
train_stop_function=0
cascade_output_change_fraction=0.010000
quickprop_decay=-0.000100
quickprop_mu=1.750000
rprop_increase_factor=1.200000
rprop_decrease_factor=0.500000
rprop_delta_min=0.000000
rprop_delta_max=50.000000
rprop_delta_zero=0.100000
cascade_output_stagnation_epochs=12
cascade_candidate_change_fraction=0.010000
cascade_candidate_stagnation_epochs=12
cascade_max_out_epochs=150
cascade_max_cand_epochs=150
cascade_num_candidate_groups=2
bit_fail_limit=3.49999999999999977796e-01
cascade_candidate_limit=1.00000000000000000000e+03
cascade_weight_multiplier=4.00000000000000022204e-01
cascade_activation_functions_count=10
cascade_activation_functions=3 5 7 8 10 11 14 15 16 17 
cascade_activation_steepnesses_count=4
cascade_activation_steepnesses=2.50000000000000000000e-01 5.00000000000000000000e-01 7.50000000000000000000e-01 1.00000000000000000000e+00 
layer_sizes=8 16 16 2 
scale_included=0
neurons (num_inputs, activation_function, activation_steepness)=(0, 0, 0.00000000000000000000e+00) (0, 0, 0.00000000000000000000e+00) (0, 0, 0.00000000000000000000e+00) (0, 0, 0.00000000000000000000e+00) (0, 0, 0.00000000000000000000e+00) (0, 0, 0.00000000000000000000e+00) (0, 0, 0.00000000000000000000e+00) (0, 0, 0.00000000000000000000e+00) (8, 4, 5.00000000000000000000e-01) (8, 4, 5.00000000000000000000e-01) (8, 4, 5.00000000000000000000e-01) (8, 4, 5.00000000000000000000e-01) (8, 4, 5.00000000000000000000e-01) (8, 4, 5.00000000000000000000e-01) (8, 4, 5.00000000000000000000e-01) (8, 4, 5.00000000000000000000e-01) (8, 4, 5.00000000000000000000e-01) (8, 4, 5.00000000000000000000e-01) (8, 4, 5.00000000000000000000e-01) (8, 4, 5.00000000000000000000e-01) (8, 4, 5.00000000000000000000e-01) (8, 4, 5.00000000000000000000e-01) (8, 4, 5.00000000000000000000e-01) (0, 0, 0.00000000000000000000e+00) (16, 4, 5.00000000000000000000e-01) (16, 4, 5.00000000000000000000e-01) (16, 4, 5.00000000000000000000e-01) (16, 4, 5.00000000000000000000e-01) (16, 4, 5.00000000000000000000e-01) (16, 4, 5.00000000000000000000e-01) (16, 4, 5.00000000000000000000e-01) (16, 4, 5.00000000000000000000e-01) (16, 4, 5.00000000000000000000e-01) (16, 4, 5.00000000000000000000e-01) (16, 4, 5.00000000000000000000e-01) (16, 4, 5.00000000000000000000e-01) (16, 4, 5.00000000000000000000e-01) (16, 4, 5.00000000000000000000e-01) (16, 4, 5.00000000000000000000e-01) (0, 0, 0.00000000000000000000e+00) (16, 6, 5.00000000000000000000e-01) (0, 6, 0.00000000000000000000e+00) 
connections (connected_to_neuron, weight)=(0, -4.03509012722944930829e+02) (1, -3.05536929153692199179e+02) (2, 1.19598616324047588932e+03) (3, -3.35429127713509899422e+02) (4, -1.42424450105827781954e+03) (5, 1.45709610113173170021e+02) (6, -1.11161705395403396324e+03) (7, 1.47146109104705942627e+03) (0, 3.52441039523067134454e+00) (1, 1.15739396482183725112e+01) (2, -1.39205313509812285133e+01) (3, -1.86572945706226676066e+01) (4, 2.18658600195523540322e+01) (5, -1.67821096054437752798e+01) (6, 1.66512343954035415550e+01) (7, -1.22814004774116796170e+01) (0, -4.96773936562149831531e+00) (1, -1.33202028690509732822e-01) (2, -1.81349452315037638073e+01) (3, 2.14067545964008843384e+02) (4, -8.91468258877415991037e+01) (5, -5.78036970579888915722e+01) (6, 6.15403383421945893161e+00) (7, 5.25771879540138620257e+00) (0, -4.76927647930402031307e+02) (1, 4.15240431445272008659e+02) (2, -1.30720572688319839472e+03) (3, 7.22273571570863850866e+02) (4, 1.00259064267769929302e+03) (5, 7.72788377766960593362e+02) (6, -1.45778677202559856596e+03) (7, 1.36046806456029230503e+03) (0, 1.38928613538851686826e+03) (1, 1.35400685948015757276e+03) (2, -9.36059859202807615475e+02) (3, -5.44141386221797233702e+02) (4, -5.94526337314629017783e+02) (5, 5.90740496996513797967e+02) (6, -1.43201650905197288921e+03) (7, 1.98859903589768919119e+02) (0, -1.07415891525117604033e+03) (1, -1.45768341239759888595e+03) (2, 1.37953354212441377058e+03) (3, 1.22532479201429737259e+03) (4, 1.50000000000000000000e+03) (5, 1.36225668177026386729e+03) (6, -1.46012145050113394973e+03) (7, 1.28832979776259406890e+02) (0, -9.57744716008423779385e+02) (1, -1.00244500728853891403e+00) (2, 1.50000000000000000000e+03) (3, 8.23123456279144107839e+01) (4, -5.02580559769559101824e+02) (5, 1.20787357583537959727e+03) (6, -7.31987148904679202133e+02) (7, -9.83961635422108997773e+01) (0, 2.63300566400618976104e+01) (1, 8.25037640737986635031e+01) (2, 1.26581417768180557459e+01) (3, -1.54754026838549094691e+02) (4, -1.57137553358717880769e+01) (5, 1.17212236608800015603e+01) (6, 6.01165283691293836910e+01) (7, -3.58224771373316102085e+01) (0, -1.78617386205451964543e+01) (1, 3.31645677926744610886e+01) (2, -2.18048342518988285121e+01) (3, 5.01318046528964611497e+00) (4, 6.69225443353329580987e+01) (5, -5.04845075128056137714e+01) (6, -1.52365800929770447425e+01) (7, -2.48166936917641489657e+00) (0, -5.97281567625111620146e+02) (1, -5.87005331219655317909e+02) (2, -1.43963360564047502521e+03) (3, -1.41639944264827249754e+03) (4, -6.26031787795596528667e+02) (5, -8.33105009686781158962e+02) (6, 1.48506343429948856283e+03) (7, 1.48531856382959176699e+03) (0, 2.80111973241423903858e+01) (1, -1.56171531239589462814e+01) (2, -3.10321968374798657919e+01) (3, -4.94909153963069101678e+01) (4, -1.05320247784941713576e+02) (5, 9.24845434055104078652e+01) (6, -1.19348919955970700357e+00) (7, 2.24797978513500460451e+01) (0, 1.81227806942343590890e+02) (1, 8.74430659393770781662e+01) (2, -1.41685543605767384179e+03) (3, -1.17095556277411947121e+03) (4, 1.49533606305895818878e+03) (5, 1.49351999897003179285e+03) (6, 1.46215674374870945940e+03) (7, -6.50835050073252219249e+00) (0, -1.48363768348386793150e+03) (1, -5.77965416639258592113e+02) (2, 1.13283680034283793248e+03) (3, 1.01869998677220348782e+03) (4, -1.04399759127263973824e+03) (5, -4.49325211936692028303e+02) (6, -6.65828172595526098121e+02) (7, 1.45363057660608819788e+03) (0, 7.66975828868992266507e+01) (1, 2.42485698945206422650e+02) (2, 2.37100799017315786443e+01) (3, 6.73831436338392222751e+02) (4, -1.47828939653075394745e+03) (5, -4.18836377242839716928e+02) (6, 2.56144281276557023830e+02) (7, 7.35506683287450044872e+01) (0, 8.07919917767325159730e+02) (1, -6.48973875612487972830e+02) (2, 1.40211499413098658806e+03) (3, -1.17440168839040225635e+02) (4, 1.66203469198371010407e+02) (5, -1.07245077355558078125e+03) (6, -5.31843012215757426020e+02) (7, -3.80434831141404483645e+00) (8, -6.40514178069996660270e+02) (9, -1.43193140557545348202e+03) (10, 9.61374549585558497711e+02) (11, -1.19999563644780891991e+03) (12, -3.27546928458500076431e+02) (13, 7.13236034064083014528e+02) (14, 1.33388909499602527831e+03) (15, -1.73095067541088155849e+02) (16, 7.81960272638144601842e+02) (17, 3.15071005847607295891e+02) (18, 9.97506431190355101535e+02) (19, -7.55742000039580489101e+02) (20, -1.84428689286943352954e+02) (21, 1.14904682871836439517e+03) (22, -4.00225839205162003509e+02) (23, 5.46481445201047790761e+01) (8, -6.66307561398553360732e+01) (9, 1.63504325914879302672e+02) (10, -2.02035620794287609669e+02) (11, 1.26514924965379037758e+02) (12, 1.02580858681231660512e+02) (13, 5.42714901395567608233e+02) (14, -2.10423072257156391629e+01) (15, -1.39771050680119884646e+02) (16, 6.47144400285874098699e+02) (17, -5.37170392873595005767e+02) (18, 1.51838256218271681064e+02) (19, 5.89917159902533239091e+00) (20, -6.50519318748157616028e+02) (21, 6.04393465665709470613e+01) (22, 1.06330910262733752347e+02) (23, -2.49200494530345224575e+01) (8, 1.49293339481672387592e+03) (9, -1.50000000000000000000e+03) (10, -1.49136990239977876627e+02) (11, 1.74608658896942245065e+02) (12, -1.44981954164227295223e+03) (13, -1.49123032899340773838e+03) (14, 1.45547217704676313588e+03) (15, 9.98030769683284916027e+02) (16, 2.90845469872711817061e+02) (17, 1.64933201727015529059e+02) (18, -1.60151065271718664462e+02) (19, -1.12395296229399104959e+03) (20, 8.21830182563045354982e+02) (21, 1.38671429462367541419e+03) (22, 1.49616867860816773828e+03) (23, 1.12644628329694654667e+02) (8, 1.51998090116000781791e+02) (9, -1.06234023176944060651e+03) (10, -8.25867491991498241077e+02) (11, 9.72618768490176393016e+01) (12, 2.34531694163156913646e+02) (13, -5.39263335345457562653e+02) (14, 1.28805255757069176070e+03) (15, 1.48947714505428939447e+03) (16, -1.13922609643488272013e+03) (17, -1.49856742542811889507e+03) (18, -8.55914802279014566011e+02) (19, -1.21389347987552923769e+02) (20, 1.42326642330041295281e+03) (21, 1.50000000000000000000e+03) (22, 8.42644229636101613323e+02) (23, 1.16833940680264845469e+02) (8, 1.93838892372141543774e+02) (9, -9.01666912549128369392e+02) (10, -9.87082934512702536267e+02) (11, -5.74097991396415068266e+02) (12, 2.91085348694496758526e+02) (13, 7.78586670092405029209e+02) (14, 1.19853888717913775963e+02) (15, -1.05871970690794825032e+02) (16, 1.49323348604929265093e+03) (17, -7.30062318057420384321e+02) (18, -3.05734778564653197463e+02) (19, 6.79187142062243424334e+02) (20, -5.83208894910222966246e+02) (21, 1.19898172237461130862e+03) (22, -7.94673703977674449561e+02) (23, 1.26550430453853252288e+02) (8, -2.88886368978104428606e+02) (9, -3.90566673636396728853e+02) (10, 7.19383412395334403300e+02) (11, 1.13392937642620221794e+01) (12, -1.75086269356881096826e+01) (13, -1.44793459905268747434e+02) (14, 8.69759651307307848356e+01) (15, -4.38054931886266771812e+01) (16, 6.72211704028237733155e+01) (17, -7.68650978086175086901e+02) (18, 1.74065562544316151161e+02) (19, -5.71105613047502856716e+02) (20, 1.65357292149399739856e+02) (21, 2.70724878536794051342e+02) (22, -5.43073014330503198721e+01) (23, 2.40491239367928955062e+01) (8, -1.15270203347553930939e+02) (9, 1.50000000000000000000e+03) (10, -1.15011961958248366500e+03) (11, 1.42487686334037516644e+03) (12, 1.42166709953623217189e+03) (13, 1.27810530977910434558e+03) (14, -7.75644584504784461387e+02) (15, -1.42835710264606245801e+03) (16, -5.38017963126807998719e+01) (17, -7.29217959479556157021e+01) (18, -7.06138457640324190834e+02) (19, 1.31150768192440204984e+03) (20, -1.43499868227358615513e+03) (21, 1.49958645737554365951e+03) (22, -1.30508639557829428668e+03) (23, -1.72546985559297468171e+02) (8, -1.10472705090408931028e+03) (9, 6.18085038800116990387e+02) (10, -1.15941656417170065652e+03) (11, 1.09576509695064760308e+03) (12, 3.30114794684954119930e+02) (13, 3.28381291983015273672e+02) (14, 1.41361507495407931856e+03) (15, 1.18498406826164682570e+03) (16, -1.26809907573382179180e+03) (17, 4.04553066376369201862e+02) (18, 1.17682860622095532221e+02) (19, -1.14914261633254432127e+03) (20, 7.83374339421357035462e+02) (21, -2.81473843417704401304e+01) (22, 1.22112740215444637215e+03) (23, -4.26411261798877433193e+02) (8, 3.40664658863518241105e+02) (9, -2.15818626995793323431e+02) (10, -1.10130850931607756138e+03) (11, 1.76317522442398740168e+02) (12, -7.68682861974200704935e+02) (13, 5.56154123159149889943e+02) (14, 4.98027328634558216436e+02) (15, -7.24581405941987554797e+02) (16, -1.37996672121619496920e+02) (17, 3.33854377095515815199e+02) (18, 2.26335686837794838766e+02) (19, 9.98153265130521049286e+02) (20, -1.28396247679180987689e+03) (21, 9.86230611566802622292e+02) (22, 7.36202129553966528874e+02) (23, -1.21486371446748506742e+02) (8, -1.33259340346547674017e+03) (9, -9.42276602904096648672e+02) (10, -1.25066516494177176355e+03) (11, 5.21508409133667782953e+02) (12, -1.34509393416905845697e+03) (13, 6.91608585403125289304e+02) (14, 1.34811073695396362382e+03) (15, 1.37717953567394420133e+03) (16, -1.30341014016491044458e+03) (17, 1.32249352562867693450e+03) (18, -8.21726543406214091192e+02) (19, 1.17860843919967692273e+03) (20, -2.70760933606879859781e+02) (21, 1.21391088049815903105e+03) (22, 7.95802722594359920549e+02) (23, 4.60634901489684636999e+02) (8, 2.69735036465056225552e+02) (9, -9.50801841302722436922e+02) (10, 2.40509911176690877710e+02) (11, -2.21007324218758071765e+02) (12, -1.13528562679252416956e+02) (13, 8.77775801976790006620e+01) (14, 5.08435342187153821669e+02) (15, 6.57912197749316192130e+02) (16, 8.20492684245054761050e+02) (17, -3.59222737586815014765e+02) (18, -6.52464395593622043634e+02) (19, -2.66340725091631384203e+02) (20, -3.89702906070277492745e+02) (21, 6.26603377518670185964e+02) (22, -1.11250898970533239662e+03) (23, 4.65365535714711086257e+02) (8, 1.50000000000000000000e+03) (9, -5.45806812644850538163e+02) (10, -1.23874937666165260453e+03) (11, -1.29709275962749461542e+03) (12, 1.03883168986137860657e+02) (13, -5.40806146148851325961e+02) (14, 2.49181346022261820394e+01) (15, 1.48899238034125755803e+03) (16, -2.54145527966290217137e+02) (17, -1.37232764608958927965e+03) (18, -1.01242760662261161997e+03) (19, 1.49149676925595213106e+03) (20, 1.47137208842820018617e+03) (21, 1.50000000000000000000e+03) (22, -2.35202741557086369539e+02) (23, 4.66200051537587114581e+02) (8, 2.50914256082404051540e+02) (9, -5.60048606572860990127e+02) (10, -1.21232606530301336534e+03) (11, -3.66569026917485416561e+01) (12, -2.65531668503512833013e+02) (13, 1.46354400471463191025e+03) (14, -9.11830756473830660980e+02) (15, -3.13988835842007915744e+02) (16, 1.78136047653168418492e+02) (17, 2.76587801738663472406e+02) (18, -3.88263057026175673059e+01) (19, 6.26814613956709081322e+02) (20, 6.26536751873648086075e+02) (21, 1.03711983120833656358e+03) (22, -8.88411879541451185105e+02) (23, 2.34452181345447485228e+02) (8, 8.67467807069174227763e+02) (9, -6.76020662920774043414e+02) (10, -2.12751006961173715126e+02) (11, -1.10867653410961497684e+03) (12, 8.70742406665369117036e+02) (13, 1.10319992937561188739e+01) (14, 5.04057264472151473456e+02) (15, -1.03151694412997812833e+03) (16, 1.13263452401055292285e+03) (17, 1.25530243234065596880e+03) (18, -5.32127374665020283828e+02) (19, 7.40911549924663518141e+02) (20, -1.10668617756893422666e+03) (21, 7.60205323404691284850e+02) (22, -1.37845415044318974651e+03) (23, 6.10738331066917339740e+02) (8, -1.47150442283491997841e+03) (9, 7.72643879671788113228e+02) (10, 1.39559233855532852431e+03) (11, -8.01118100531216327909e+02) (12, 1.50000000000000000000e+03) (13, 1.47270726591021434615e+03) (14, -3.79472266996308405851e+02) (15, 3.86467315865967634636e+02) (16, 1.50000000000000000000e+03) (17, -7.72872198365949543586e+02) (18, 1.50000000000000000000e+03) (19, -1.42814680891694797538e+03) (20, 6.43846565660921612562e+01) (21, -1.44856109451825409451e+03) (22, 6.47560747680778376889e+01) (23, -3.96028472833931459718e+02) (24, 6.75768801223674997480e-01) (25, 9.77409034889063388363e-01) (26, 8.72727653088287147476e-01) (27, 1.74261461429351571795e+00) (28, 3.86486549522110089949e-01) (29, -9.54053961176373199748e-01) (30, -7.36825535319634128406e-01) (31, 7.28402178784117726451e-01) (32, -5.69548785572802973576e-01) (33, 3.61860947996769710677e-01) (34, -9.36494437274478230826e-01) (35, 4.89166441770395477029e-01) (36, -6.78072149879929253480e-01) (37, -3.87161093006415213402e-01) (38, -7.02474213402995650846e-01) (39, -1.50864838714801252628e+00) 
