FANN_FLO_2.1
num_layers=3
learning_rate=0.700000
connection_rate=1.000000
network_type=0
learning_momentum=0.000000
training_algorithm=2
train_error_function=1
train_stop_function=0
cascade_output_change_fraction=0.010000
quickprop_decay=-0.000100
quickprop_mu=1.750000
rprop_increase_factor=1.200000
rprop_decrease_factor=0.500000
rprop_delta_min=0.000000
rprop_delta_max=50.000000
rprop_delta_zero=0.100000
cascade_output_stagnation_epochs=12
cascade_candidate_change_fraction=0.010000
cascade_candidate_stagnation_epochs=12
cascade_max_out_epochs=150
cascade_max_cand_epochs=150
cascade_num_candidate_groups=2
bit_fail_limit=3.49999999999999977796e-01
cascade_candidate_limit=1.00000000000000000000e+03
cascade_weight_multiplier=4.00000000000000022204e-01
cascade_activation_functions_count=10
cascade_activation_functions=3 5 7 8 10 11 14 15 16 17 
cascade_activation_steepnesses_count=4
cascade_activation_steepnesses=2.50000000000000000000e-01 5.00000000000000000000e-01 7.50000000000000000000e-01 1.00000000000000000000e+00 
layer_sizes=8 9 2 
scale_included=0
neurons (num_inputs, activation_function, activation_steepness)=(0, 0, 0.00000000000000000000e+00) (0, 0, 0.00000000000000000000e+00) (0, 0, 0.00000000000000000000e+00) (0, 0, 0.00000000000000000000e+00) (0, 0, 0.00000000000000000000e+00) (0, 0, 0.00000000000000000000e+00) (0, 0, 0.00000000000000000000e+00) (0, 0, 0.00000000000000000000e+00) (8, 4, 5.00000000000000000000e-01) (8, 4, 5.00000000000000000000e-01) (8, 4, 5.00000000000000000000e-01) (8, 4, 5.00000000000000000000e-01) (8, 4, 5.00000000000000000000e-01) (8, 4, 5.00000000000000000000e-01) (8, 4, 5.00000000000000000000e-01) (8, 4, 5.00000000000000000000e-01) (0, 0, 0.00000000000000000000e+00) (9, 6, 5.00000000000000000000e-01) (0, 6, 0.00000000000000000000e+00) 
connections (connected_to_neuron, weight)=(0, 1.73663369719114335510e+01) (1, 1.93030322871928450290e+00) (2, 2.95378705026324850369e-01) (3, -1.28802098664681903273e+01) (4, 4.82302436125208178197e+00) (5, -2.27679840462166360737e+01) (6, -4.98745021334103277866e+00) (7, 1.89114729039979989622e+00) (0, -1.50000000000000000000e+03) (1, -1.12216348676328448164e+03) (2, 5.99894428968061674823e+02) (3, 7.53934314230239806420e+02) (4, -7.76340364386817554987e+02) (5, 1.43336601187908581778e+03) (6, -1.50000000000000000000e+03) (7, -9.76151284468341145839e+02) (0, -8.22150050614964584383e+02) (1, 4.58179568845889320983e+02) (2, 2.43664277705209180169e+01) (3, -5.96442200450896734765e+02) (4, -4.06255210831417201689e+01) (5, -3.63159253722405821918e+02) (6, 2.20018192690017514224e+02) (7, 4.65397349391066995850e+02) (0, 4.20024455107156427403e+02) (1, 9.27989270764865182173e+02) (2, -9.81757016726974256926e+02) (3, -1.70147535044760132905e+02) (4, 9.93359711083355477967e+02) (5, -5.95153242116257615635e+02) (6, -7.86817326509556437486e+02) (7, -2.35213867491769747176e+02) (0, 1.71970977554067090409e+01) (1, 2.05541786045890395584e+00) (2, 5.48002123203216839897e+00) (3, -2.43676981163498602712e+01) (4, 5.37132464481033977677e+00) (5, -2.42689863884229559687e+01) (6, 2.11824308872207933696e-01) (7, 2.57847636584181083563e+00) (0, -2.77485463119019641454e+02) (1, 5.78861379785972047785e+01) (2, 8.03340040744408156570e+02) (3, 4.41608515475703313768e+02) (4, -5.78465861498778053829e+02) (5, 4.03251742041941042771e+02) (6, 7.36975032271241445869e+01) (7, -7.50676645098119593058e+02) (0, 3.41383621251920885697e+01) (1, 8.00277754195755051114e+01) (2, -8.51151818740742527325e+01) (3, -9.78612345792262630084e+01) (4, 1.56686395281939176982e+01) (5, -8.92661845532959290495e+01) (6, -3.83498157302788769130e+01) (7, 1.12267844815634219913e+02) (0, 1.50000000000000000000e+03) (1, -7.87001698954418458243e+01) (2, -1.28799717020578077609e+03) (3, -1.25967611220131448135e+03) (4, 6.97312943526977619513e+02) (5, -5.79476030427651949140e+02) (6, 3.72367290598645155342e+01) (7, 1.18778600940840945555e+02) (8, 6.55042167549069720422e+00) (9, 1.19738790579658038737e+00) (10, -1.02254379079435331334e+00) (11, -9.13810150168494095269e-01) (12, -6.64388233892698032435e+00) (13, 5.20224524918657338368e-01) (14, 8.71975651382663419220e-01) (15, -5.40567882744408256812e-01) (16, -3.12574304158558913258e-01) 
