FANN_FLO_2.1
num_layers=3
learning_rate=0.700000
connection_rate=1.000000
network_type=0
learning_momentum=0.000000
training_algorithm=2
train_error_function=1
train_stop_function=0
cascade_output_change_fraction=0.010000
quickprop_decay=-0.000100
quickprop_mu=1.750000
rprop_increase_factor=1.200000
rprop_decrease_factor=0.500000
rprop_delta_min=0.000000
rprop_delta_max=50.000000
rprop_delta_zero=0.100000
cascade_output_stagnation_epochs=12
cascade_candidate_change_fraction=0.010000
cascade_candidate_stagnation_epochs=12
cascade_max_out_epochs=150
cascade_max_cand_epochs=150
cascade_num_candidate_groups=2
bit_fail_limit=3.49999999999999977796e-01
cascade_candidate_limit=1.00000000000000000000e+03
cascade_weight_multiplier=4.00000000000000022204e-01
cascade_activation_functions_count=10
cascade_activation_functions=3 5 7 8 10 11 14 15 16 17 
cascade_activation_steepnesses_count=4
cascade_activation_steepnesses=2.50000000000000000000e-01 5.00000000000000000000e-01 7.50000000000000000000e-01 1.00000000000000000000e+00 
layer_sizes=8 15 2 
scale_included=0
neurons (num_inputs, activation_function, activation_steepness)=(0, 0, 0.00000000000000000000e+00) (0, 0, 0.00000000000000000000e+00) (0, 0, 0.00000000000000000000e+00) (0, 0, 0.00000000000000000000e+00) (0, 0, 0.00000000000000000000e+00) (0, 0, 0.00000000000000000000e+00) (0, 0, 0.00000000000000000000e+00) (0, 0, 0.00000000000000000000e+00) (8, 4, 5.00000000000000000000e-01) (8, 4, 5.00000000000000000000e-01) (8, 4, 5.00000000000000000000e-01) (8, 4, 5.00000000000000000000e-01) (8, 4, 5.00000000000000000000e-01) (8, 4, 5.00000000000000000000e-01) (8, 4, 5.00000000000000000000e-01) (8, 4, 5.00000000000000000000e-01) (8, 4, 5.00000000000000000000e-01) (8, 4, 5.00000000000000000000e-01) (8, 4, 5.00000000000000000000e-01) (8, 4, 5.00000000000000000000e-01) (8, 4, 5.00000000000000000000e-01) (8, 4, 5.00000000000000000000e-01) (0, 0, 0.00000000000000000000e+00) (15, 6, 5.00000000000000000000e-01) (0, 6, 0.00000000000000000000e+00) 
connections (connected_to_neuron, weight)=(0, 1.04682532664797918187e+01) (1, 3.04384583499131267104e+01) (2, -8.60640754397578007229e+01) (3, 1.57866146188638566628e+02) (4, -2.11667519971326143491e+01) (5, -1.04756812859623607892e+02) (6, -8.13691340838951759906e+00) (7, -8.28997074099895030486e+01) (0, -7.89376056079400541421e+02) (1, -3.38408444511417712874e+02) (2, 2.51058387890019254485e+01) (3, 1.50000000000000000000e+03) (4, -1.14158146209951178207e+03) (5, -1.50000000000000000000e+03) (6, -1.39296230807812833064e+02) (7, -3.01842307865860206562e+01) (0, -2.29871643818750499122e+02) (1, 3.08797502901810446474e+02) (2, -6.71954443566151411460e+01) (3, 1.08805183260358546704e+02) (4, 8.54432703295025106627e+01) (5, 1.85098100360556685473e+02) (6, -8.38005936927125674174e+01) (7, -2.46782998530329450659e+02) (0, 6.15597137094236472876e+01) (1, -7.38017634547250764854e+01) (2, -2.63276380902674347340e+01) (3, -1.13325453357684686750e+01) (4, 4.60815230908804878140e+01) (5, -1.03956210041462817628e+01) (6, -2.80952428590895522120e+01) (7, 2.22745115382040594909e+01) (0, -2.59665471909270522133e+01) (1, 5.63987212573109601976e+01) (2, -1.88400734222588795319e+02) (3, 3.79010157420056032151e+02) (4, -2.03535874305798756723e+02) (5, -6.24640962726429620488e+01) (6, -9.63096182161832281565e+00) (7, -4.71338732858931450664e+01) (0, -1.50000000000000000000e+03) (1, -1.50000000000000000000e+03) (2, -1.50000000000000000000e+03) (3, 1.36864058332019476438e+03) (4, 5.02547211865478857362e+02) (5, -1.50000000000000000000e+03) (6, -1.50000000000000000000e+03) (7, 3.82652954932432862734e+02) (0, -7.42414046547920293051e+02) (1, -1.50000000000000000000e+03) (2, -1.50000000000000000000e+03) (3, -1.09932764328793723507e+03) (4, -5.10981677362490529504e+02) (5, -1.50000000000000000000e+03) (6, 1.47830276080947760420e+03) (7, 1.50000000000000000000e+03) (0, -1.50000000000000000000e+03) (1, -1.50000000000000000000e+03) (2, -1.50000000000000000000e+03) (3, -2.85476831761909238594e+02) (4, 7.29074061482782099120e+02) (5, -4.27425014860105704884e+02) (6, -1.50000000000000000000e+03) (7, 1.49247051048248795269e+03) (0, 9.67180741328966462333e+01) (1, -1.75017152760766123265e+02) (2, 4.34852385654230033651e+01) (3, -5.96291757707104679298e+01) (4, 6.79653397944383073082e+01) (5, -6.44726745261632174788e+01) (6, -3.03667738077135096475e+00) (7, 3.48682876567790955846e+01) (0, 1.54275150847448117020e+01) (1, -7.25402847839890796422e+01) (2, -5.22047227105506284062e+00) (3, -2.65957836457447562850e+01) (4, 4.86086015759329939101e+01) (5, -3.08956712553963228629e+01) (6, 2.40772721901088644358e+01) (7, 4.91989152117748318460e+00) (0, 1.50000000000000000000e+03) (1, 1.50000000000000000000e+03) (2, -1.40490208879829378930e+03) (3, -1.50000000000000000000e+03) (4, -1.41649010130864303392e+03) (5, 1.50000000000000000000e+03) (6, 1.10191099370225879284e+03) (7, -1.50000000000000000000e+03) (0, -1.79206453592177581413e+01) (1, -1.68732551717400525604e+02) (2, 4.27065375593094643136e+02) (3, 3.56112917980219094716e+01) (4, -1.67249128351216484134e+02) (5, 9.84948687137651432977e+01) (6, -1.74406963763065704143e+02) (7, -5.19857301480941131899e+01) (0, 1.12207841096093534361e+03) (1, -1.47659377311042544534e+03) (2, -1.15905170804945169039e+03) (3, 1.50000000000000000000e+03) (4, -9.74675838778058050593e+02) (5, -1.50000000000000000000e+03) (6, 3.48074247487221612118e+02) (7, -1.19345977428500560791e+02) (0, 7.62698082658087770369e+01) (1, -7.47176046506676101444e+01) (2, 2.84352976886457540218e+01) (3, -5.10812411539509358960e+00) (4, -1.78275522716960267644e+02) (5, -7.26851195496319633094e+01) (6, -4.45800952241656531783e+01) (7, 6.62808478250897934458e+01) (8, 2.22568699726073049305e+00) (9, -1.64448343513571293428e+00) (10, -5.64196138640675748377e-01) (11, 5.44624037017968021246e-01) (12, 5.63335442026777433178e-01) (13, -8.64509767114912786035e-01) (14, -7.84693398320954083047e-01) (15, -7.79782163150425700060e-01) (16, 5.39073985562406043925e-01) (17, 1.01779358834927169397e+00) (18, 3.17009161634619340830e-01) (19, 6.44166795686928139730e-01) (20, -1.59954753884627920435e+00) (21, 6.67790901792976510087e-01) (22, -2.40178024361899472572e-01) 
