FANN_FLO_2.1
num_layers=3
learning_rate=0.700000
connection_rate=1.000000
network_type=0
learning_momentum=0.000000
training_algorithm=2
train_error_function=1
train_stop_function=0
cascade_output_change_fraction=0.010000
quickprop_decay=-0.000100
quickprop_mu=1.750000
rprop_increase_factor=1.200000
rprop_decrease_factor=0.500000
rprop_delta_min=0.000000
rprop_delta_max=50.000000
rprop_delta_zero=0.100000
cascade_output_stagnation_epochs=12
cascade_candidate_change_fraction=0.010000
cascade_candidate_stagnation_epochs=12
cascade_max_out_epochs=150
cascade_max_cand_epochs=150
cascade_num_candidate_groups=2
bit_fail_limit=3.49999999999999977796e-01
cascade_candidate_limit=1.00000000000000000000e+03
cascade_weight_multiplier=4.00000000000000022204e-01
cascade_activation_functions_count=10
cascade_activation_functions=3 5 7 8 10 11 14 15 16 17 
cascade_activation_steepnesses_count=4
cascade_activation_steepnesses=2.50000000000000000000e-01 5.00000000000000000000e-01 7.50000000000000000000e-01 1.00000000000000000000e+00 
layer_sizes=8 16 2 
scale_included=0
neurons (num_inputs, activation_function, activation_steepness)=(0, 0, 0.00000000000000000000e+00) (0, 0, 0.00000000000000000000e+00) (0, 0, 0.00000000000000000000e+00) (0, 0, 0.00000000000000000000e+00) (0, 0, 0.00000000000000000000e+00) (0, 0, 0.00000000000000000000e+00) (0, 0, 0.00000000000000000000e+00) (0, 0, 0.00000000000000000000e+00) (8, 4, 5.00000000000000000000e-01) (8, 4, 5.00000000000000000000e-01) (8, 4, 5.00000000000000000000e-01) (8, 4, 5.00000000000000000000e-01) (8, 4, 5.00000000000000000000e-01) (8, 4, 5.00000000000000000000e-01) (8, 4, 5.00000000000000000000e-01) (8, 4, 5.00000000000000000000e-01) (8, 4, 5.00000000000000000000e-01) (8, 4, 5.00000000000000000000e-01) (8, 4, 5.00000000000000000000e-01) (8, 4, 5.00000000000000000000e-01) (8, 4, 5.00000000000000000000e-01) (8, 4, 5.00000000000000000000e-01) (8, 4, 5.00000000000000000000e-01) (0, 0, 0.00000000000000000000e+00) (16, 6, 5.00000000000000000000e-01) (0, 6, 0.00000000000000000000e+00) 
connections (connected_to_neuron, weight)=(0, -4.01533825770677083256e+02) (1, -3.46102359204122649317e+02) (2, -4.77827330842506000863e+02) (3, 3.00982201283484926080e+02) (4, 1.50000000000000000000e+03) (5, -8.92136833121379709155e+02) (6, 5.65086487949628377692e+01) (7, -3.79356515584041858347e+02) (0, -1.50000000000000000000e+03) (1, 1.20541808561257153087e+03) (2, 1.24535002311934272257e+03) (3, -1.68636517115600781835e+02) (4, -1.45125924645752411379e+03) (5, 1.26094032247980362627e+03) (6, -1.50000000000000000000e+03) (7, -3.04752836322506141187e+02) (0, 3.31381797799461796927e+00) (1, 3.04593345616192268110e+00) (2, -1.93345628950978709604e+00) (3, 1.29819823589420391130e+01) (4, 4.72495717261176029211e+00) (5, 1.71086501378469009182e+01) (6, -2.66386534151171510132e+01) (7, -7.45275406760129488504e+00) (0, -3.54185623629652956978e+00) (1, -1.34332912251942993009e+00) (2, -4.66188266536409712248e-01) (3, -6.73821939608925291054e+00) (4, -2.19936957137281030583e+00) (5, -1.18334775843841342180e+01) (6, 2.04609857643785773007e+01) (7, 3.12363114363718219479e+00) (0, -4.67051738513747451975e+01) (1, 3.14520227410030521753e+01) (2, 2.43754701131567266259e+01) (3, -1.95401053319155302290e+01) (4, -6.53304302129230851648e+00) (5, 9.72840003041552069118e-03) (6, 8.02068503347630894496e+01) (7, -1.64539085822786574909e+01) (0, 4.98393230114327366209e+02) (1, -1.00308605182167082148e+03) (2, -1.50000000000000000000e+03) (3, 1.20311134153601847174e+03) (4, 4.94750330334751822647e+02) (5, -4.60569837728928234810e+02) (6, -1.50000000000000000000e+03) (7, 7.43258906811606152587e+01) (0, 2.05086736227625898721e+00) (1, 1.54774204172710057037e+01) (2, -2.44706245712439907081e+00) (3, -3.64544876204876988623e+00) (4, -4.98748120111429305013e+00) (5, -5.85051871897525455068e+00) (6, -2.67962092498672213026e+01) (7, 3.59542868927798131562e-01) (0, 8.32772783338183586466e+01) (1, -8.50396810319341398099e+02) (2, -1.79256614239984344294e+02) (3, 8.15415666334939260196e+02) (4, 1.50000000000000000000e+03) (5, -4.18743728525354754311e+02) (6, 3.07194232524055728106e+01) (7, -8.70592789183699210298e+02) (0, -3.78087027957587679339e+02) (1, -5.87952258539064700926e+02) (2, -5.86251328736846971879e+02) (3, 3.45721984943347024455e+02) (4, 1.12442632993258871466e+03) (5, -4.50024323765917472429e+02) (6, 9.97358999286742573531e+02) (7, 1.39771657474332982929e+02) (0, -2.37185641390509289295e+02) (1, 5.75900562487600780059e+01) (2, 1.14660189741025944632e-01) (3, 5.19877620432666915917e+01) (4, -6.88276713932842199029e+01) (5, 1.65404514545103836554e+02) (6, 1.41918607079534893955e+02) (7, -2.74904918723189979346e+01) (0, -1.50000000000000000000e+03) (1, -1.50000000000000000000e+03) (2, -1.50000000000000000000e+03) (3, -1.94311592175264593152e+02) (4, 1.50000000000000000000e+03) (5, 1.06379185708381487530e+03) (6, -1.50000000000000000000e+03) (7, -7.11460804975971200292e+02) (0, 2.13777478863144239085e+01) (1, -6.03427700968962810180e+01) (2, -4.95692909366208311894e+00) (3, -1.13068008091838168028e+00) (4, 1.61919295152839453067e+01) (5, -2.28857631362314295487e+00) (6, 1.22606365782375026363e+00) (7, -4.39354437014668786077e+00) (0, -1.15283068619689834122e+03) (1, 1.15459866759732790342e+03) (2, 4.49490366538975649746e+01) (3, -4.68855930078141000195e+02) (4, -9.46525211735924131062e+02) (5, 1.09334014773752755900e+03) (6, 2.85051510432604175094e+02) (7, -6.07684448738325855288e+01) (0, -2.28376716890785624869e+00) (1, 3.47549183725400112621e+01) (2, -1.69776008009014596212e+01) (3, 1.43802999364876047395e+01) (4, -1.42622107247120037954e+01) (5, -4.34756185309442511056e+00) (6, -3.89360613155271053643e+01) (7, -5.37372168781650927372e+00) (0, -9.98544508775454531246e+00) (1, -1.31124524911830442342e+00) (2, -7.98438402236362492204e+01) (3, 4.49259553033028513624e+00) (4, 6.60763071143840647892e+01) (5, -6.09516422101356027952e+01) (6, 9.23390613649805480634e+00) (7, 1.00045230755927194721e+00) (8, 1.61296777550764547371e+00) (9, 4.45540031408547643199e-01) (10, -1.08002059118997415510e+01) (11, -1.16279854370749085035e+01) (12, 7.03734706691112377186e-01) (13, 1.97976813763321635165e+00) (14, -3.30445643053339637163e+01) (15, 6.16352924457486461840e-01) (16, 1.35553884524500123376e+00) (17, -1.10783753776210747155e+00) (18, 5.29935160441726949010e-01) (19, -5.59478575790153254133e+00) (20, 6.76232149787933112250e-01) (21, 2.94667291387254515200e+01) (22, -3.39753916848160919528e+00) (23, 9.60172190955350579600e+00) 
