FANN_FLO_2.1
num_layers=3
learning_rate=0.700000
connection_rate=1.000000
network_type=0
learning_momentum=0.000000
training_algorithm=2
train_error_function=1
train_stop_function=0
cascade_output_change_fraction=0.010000
quickprop_decay=-0.000100
quickprop_mu=1.750000
rprop_increase_factor=1.200000
rprop_decrease_factor=0.500000
rprop_delta_min=0.000000
rprop_delta_max=50.000000
rprop_delta_zero=0.100000
cascade_output_stagnation_epochs=12
cascade_candidate_change_fraction=0.010000
cascade_candidate_stagnation_epochs=12
cascade_max_out_epochs=150
cascade_max_cand_epochs=150
cascade_num_candidate_groups=2
bit_fail_limit=3.49999999999999977796e-01
cascade_candidate_limit=1.00000000000000000000e+03
cascade_weight_multiplier=4.00000000000000022204e-01
cascade_activation_functions_count=10
cascade_activation_functions=3 5 7 8 10 11 14 15 16 17 
cascade_activation_steepnesses_count=4
cascade_activation_steepnesses=2.50000000000000000000e-01 5.00000000000000000000e-01 7.50000000000000000000e-01 1.00000000000000000000e+00 
layer_sizes=8 10 2 
scale_included=0
neurons (num_inputs, activation_function, activation_steepness)=(0, 0, 0.00000000000000000000e+00) (0, 0, 0.00000000000000000000e+00) (0, 0, 0.00000000000000000000e+00) (0, 0, 0.00000000000000000000e+00) (0, 0, 0.00000000000000000000e+00) (0, 0, 0.00000000000000000000e+00) (0, 0, 0.00000000000000000000e+00) (0, 0, 0.00000000000000000000e+00) (8, 4, 5.00000000000000000000e-01) (8, 4, 5.00000000000000000000e-01) (8, 4, 5.00000000000000000000e-01) (8, 4, 5.00000000000000000000e-01) (8, 4, 5.00000000000000000000e-01) (8, 4, 5.00000000000000000000e-01) (8, 4, 5.00000000000000000000e-01) (8, 4, 5.00000000000000000000e-01) (8, 4, 5.00000000000000000000e-01) (0, 0, 0.00000000000000000000e+00) (10, 6, 5.00000000000000000000e-01) (0, 6, 0.00000000000000000000e+00) 
connections (connected_to_neuron, weight)=(0, -5.28514502325028843188e+01) (1, 3.76935140197860505396e+01) (2, -5.55325837536961675056e+00) (3, -1.61495668062402728538e+01) (4, 1.82606423737080127978e+01) (5, -1.23023423759492658291e+01) (6, -1.33610929007254171097e+01) (7, -2.17251125732455063755e+00) (0, -1.82087940474325655771e+01) (1, -1.03536663388395879792e+01) (2, 9.10208407361017712844e+00) (3, 8.70941910547441437984e+01) (4, -1.77058983625891634972e+01) (5, 3.10532480898568152838e+01) (6, 1.96058172435698843117e+01) (7, -3.74105596801647308780e+01) (0, -5.96111521187781612241e+00) (1, -7.91798030509548880218e+01) (2, 6.68917785462062965962e+01) (3, 1.89688528483724724083e+02) (4, 1.14241897247211543487e+01) (5, 1.35430590660610477016e+02) (6, -1.15619221109346117515e+01) (7, -1.22366243305735096669e+02) (0, -1.20599789980687219781e+01) (1, -3.62098933282383139698e+00) (2, -7.33227583634463275786e-01) (3, -9.16516156902241441173e+00) (4, 6.11014343695628703301e+00) (5, 3.15187723792068759110e+01) (6, -2.40612128024642135671e+00) (7, 7.65186557115627419279e+00) (0, 5.48776126889971607170e+01) (1, -1.84324077050284074630e+02) (2, -1.71995090248890619478e+02) (3, 1.49908151935266488408e+02) (4, 6.00121466643429641863e+01) (5, -1.11887657504768128547e+02) (6, 1.44902233207124497838e+00) (7, -5.21191224253727725113e+00) (0, -2.52095255370166988484e+01) (1, -5.16235690578241790405e+00) (2, 4.70410734830784349469e+00) (3, 5.95102355834881180385e+01) (4, 3.55606891773761759623e+01) (5, 6.97480559180257557728e+01) (6, 9.10618411269077121517e+00) (7, -6.43555485350156715185e+01) (0, 1.50000000000000000000e+03) (1, 9.22285806731600814601e+02) (2, 7.83342882112890606550e+02) (3, -1.09185494037498415310e+03) (4, 3.02329934687793581816e+02) (5, -1.43229461999924780002e+02) (6, -1.31076700881852912062e+03) (7, 4.88824503398753904548e+01) (0, 3.57416785039612205921e+00) (1, 2.00559759702668882753e+00) (2, 2.23143266789423133645e+00) (3, -6.36653783877603096641e+00) (4, -3.15407623399675784981e+00) (5, -1.56477195833135631631e+01) (6, 5.37744859635651994978e+00) (7, 3.04821049444508718196e-01) (0, -5.97989181225597974390e+01) (1, -1.68959959147493208320e+01) (2, 1.81659046315645227310e+01) (3, -2.87648586132581591812e+01) (4, 1.58387616148472361033e+01) (5, -9.13739667593668514201e+01) (6, 2.92555092926664919162e+01) (7, 1.08718000030052735383e+02) (8, -4.25584432316911609462e+00) (9, 1.78299246678455380888e+00) (10, -1.83967057334747208230e+00) (11, -5.63713370185854856231e+00) (12, -1.42153228594624767567e+01) (13, -1.27814344453492467757e+00) (14, 9.75937138157303762931e-01) (15, -9.29488171294600640238e+00) (16, 8.23464019392646462414e-01) (17, 5.67245595093952292842e+00) 
