FANN_FLO_2.1
num_layers=3
learning_rate=0.700000
connection_rate=1.000000
network_type=0
learning_momentum=0.000000
training_algorithm=2
train_error_function=1
train_stop_function=0
cascade_output_change_fraction=0.010000
quickprop_decay=-0.000100
quickprop_mu=1.750000
rprop_increase_factor=1.200000
rprop_decrease_factor=0.500000
rprop_delta_min=0.000000
rprop_delta_max=50.000000
rprop_delta_zero=0.100000
cascade_output_stagnation_epochs=12
cascade_candidate_change_fraction=0.010000
cascade_candidate_stagnation_epochs=12
cascade_max_out_epochs=150
cascade_max_cand_epochs=150
cascade_num_candidate_groups=2
bit_fail_limit=3.49999999999999977796e-01
cascade_candidate_limit=1.00000000000000000000e+03
cascade_weight_multiplier=4.00000000000000022204e-01
cascade_activation_functions_count=10
cascade_activation_functions=3 5 7 8 10 11 14 15 16 17 
cascade_activation_steepnesses_count=4
cascade_activation_steepnesses=2.50000000000000000000e-01 5.00000000000000000000e-01 7.50000000000000000000e-01 1.00000000000000000000e+00 
layer_sizes=8 16 2 
scale_included=0
neurons (num_inputs, activation_function, activation_steepness)=(0, 0, 0.00000000000000000000e+00) (0, 0, 0.00000000000000000000e+00) (0, 0, 0.00000000000000000000e+00) (0, 0, 0.00000000000000000000e+00) (0, 0, 0.00000000000000000000e+00) (0, 0, 0.00000000000000000000e+00) (0, 0, 0.00000000000000000000e+00) (0, 0, 0.00000000000000000000e+00) (8, 4, 5.00000000000000000000e-01) (8, 4, 5.00000000000000000000e-01) (8, 4, 5.00000000000000000000e-01) (8, 4, 5.00000000000000000000e-01) (8, 4, 5.00000000000000000000e-01) (8, 4, 5.00000000000000000000e-01) (8, 4, 5.00000000000000000000e-01) (8, 4, 5.00000000000000000000e-01) (8, 4, 5.00000000000000000000e-01) (8, 4, 5.00000000000000000000e-01) (8, 4, 5.00000000000000000000e-01) (8, 4, 5.00000000000000000000e-01) (8, 4, 5.00000000000000000000e-01) (8, 4, 5.00000000000000000000e-01) (8, 4, 5.00000000000000000000e-01) (0, 0, 0.00000000000000000000e+00) (16, 6, 5.00000000000000000000e-01) (0, 6, 0.00000000000000000000e+00) 
connections (connected_to_neuron, weight)=(0, -3.10028549110165876357e+01) (1, -9.53417192435940563655e+01) (2, -6.38985204421335506453e+00) (3, 4.33108349912908110468e+01) (4, -5.92979481444399851853e+01) (5, 9.92093268320499674928e+01) (6, 6.24087292669486046748e+01) (7, 1.21520757312697416097e+01) (0, 1.04291487206552275779e+02) (1, -2.04146898715063173313e+02) (2, -4.70818420898102019123e+01) (3, 2.53732519910978538746e+02) (4, 6.31364958252754320256e+01) (5, 2.11905296169843182952e+02) (6, 2.38329464221229736509e+00) (7, -1.88591269890563125955e+02) (0, 2.05203291482028582493e+01) (1, -4.39719355014924495606e+00) (2, -5.65055430178504281002e+01) (3, 2.29188019400028686334e+00) (4, 8.24608541241181711712e+01) (5, 2.28204598767122917025e+01) (6, -3.16926872203779232962e+01) (7, 1.94184908936962763448e+01) (0, -1.18499330402640623561e+02) (1, -1.91292821934176458853e+02) (2, 4.30357819739846036100e+02) (3, -2.82502477749236959426e+02) (4, 8.06286360351434609584e+02) (5, -1.50000000000000000000e+03) (6, -2.35917845633501990221e+01) (7, -1.72372476278365418523e+01) (0, 2.60216660649782092207e+01) (1, 1.13461540398513463401e+02) (2, 7.73308891977693662056e+01) (3, -4.27426194863070207930e+01) (4, -2.82068018318881513551e+02) (5, -6.54766060183402260009e+02) (6, -1.81864467750024942916e+02) (7, -2.93662210986283955805e+00) (0, 6.51257472626668931781e+00) (1, -5.86618755578771633452e+00) (2, 1.34407978618261267911e+01) (3, 1.25309156733361319880e+01) (4, -1.64168027383332670865e+01) (5, 4.89709528885377332053e-01) (6, -5.39638449460620961418e+01) (7, 4.07069143501405683594e+00) (0, 1.42684313868719563345e+01) (1, 1.12623790956448743827e+00) (2, -6.35370287382626042216e+00) (3, 9.91371961733973705577e+00) (4, -1.47467066665389516800e+01) (5, -4.76576013592930891605e+01) (6, -1.60581259488705505589e+01) (7, -4.41970779012059367119e+00) (0, 4.58047543689875880091e+01) (1, -6.49715609053522058502e+01) (2, 1.04600920847462845131e+02) (3, 3.32724695993031502894e+01) (4, -5.03652924368762171525e+01) (5, 2.39629860249828055885e+02) (6, -2.14714533787056609526e+01) (7, -9.43369170023321714780e+01) (0, 6.77262369162542512413e+01) (1, -2.30253127400477168862e+01) (2, 2.93325332114337804512e+01) (3, -2.95227972409768391060e+01) (4, -2.49469875483242731207e+01) (5, -1.36913437330455650454e+02) (6, -6.34922799352118474303e+01) (7, -7.52446247649662414148e+00) (0, -3.71143791929089559289e+01) (1, 2.76311450218885852337e+01) (2, 2.27212212286050139198e+01) (3, -3.12524709532841100668e+01) (4, 9.39900452043872292052e+00) (5, 6.63643228156968945086e+00) (6, -3.43727728809512598218e+01) (7, 2.52163524924923621029e+00) (0, -1.50000000000000000000e+03) (1, 4.83417510216872699402e+02) (2, 7.91886007097337625282e+01) (3, 1.49984544922376062459e+03) (4, -6.79490345592978997047e+02) (5, 8.41120241183687085140e+01) (6, -1.50000000000000000000e+03) (7, -4.17525973651219572957e+01) (0, -1.50000000000000000000e+03) (1, 1.50000000000000000000e+03) (2, -1.50000000000000000000e+03) (3, -6.24041412536640677899e+02) (4, 3.05056481639470291611e+02) (5, 1.74434952810625844677e+02) (6, -1.50000000000000000000e+03) (7, 3.71541086638684362242e+02) (0, -6.59255971266939582165e+02) (1, 1.50000000000000000000e+03) (2, -5.74599819234403867085e+02) (3, -8.16274408457965279240e+01) (4, 1.57031217192635097035e+02) (5, -4.98118902303084610139e+02) (6, -1.50000000000000000000e+03) (7, 1.42177602068183290385e+02) (0, -1.14272703066069539091e+02) (1, 8.92652200740726158301e+01) (2, -1.84034024575387206824e+02) (3, -9.55047541184868862274e+01) (4, -1.50000000000000000000e+03) (5, 8.35936074167977665184e+01) (6, 2.63665426998532439029e+02) (7, 5.52055923516560824282e+02) (0, 1.04901908479300857380e+02) (1, -1.23062593048193292589e+02) (2, 8.02674540814672212719e+01) (3, -2.30613900492203129033e+02) (4, 5.40515864774466763265e+01) (5, -5.33819277172375450391e+01) (6, 4.56463769196495405822e+01) (7, 3.61145507697116441292e+00) (8, -3.08658716139729483174e+00) (9, 2.66572988069026495239e+00) (10, 1.96713985276478475761e+00) (11, 2.28605745387515391087e+00) (12, 3.17552796456219477150e+00) (13, 7.52004650339223790212e+00) (14, -9.75637375668466511058e+00) (15, 2.17344058517205018788e+00) (16, 6.59853193957831329897e+00) (17, 3.00134263292651182198e+00) (18, -4.48316231558881561625e+00) (19, -2.86110514197805043679e+00) (20, -4.24786685877196301675e+00) (21, 1.98069435131689397522e+00) (22, -1.29413194249864993424e+00) (23, -3.69524263793276031009e+00) 
