FANN_FLO_2.1
num_layers=3
learning_rate=0.700000
connection_rate=1.000000
network_type=0
learning_momentum=0.000000
training_algorithm=2
train_error_function=1
train_stop_function=0
cascade_output_change_fraction=0.010000
quickprop_decay=-0.000100
quickprop_mu=1.750000
rprop_increase_factor=1.200000
rprop_decrease_factor=0.500000
rprop_delta_min=0.000000
rprop_delta_max=50.000000
rprop_delta_zero=0.100000
cascade_output_stagnation_epochs=12
cascade_candidate_change_fraction=0.010000
cascade_candidate_stagnation_epochs=12
cascade_max_out_epochs=150
cascade_max_cand_epochs=150
cascade_num_candidate_groups=2
bit_fail_limit=3.49999999999999977796e-01
cascade_candidate_limit=1.00000000000000000000e+03
cascade_weight_multiplier=4.00000000000000022204e-01
cascade_activation_functions_count=10
cascade_activation_functions=3 5 7 8 10 11 14 15 16 17 
cascade_activation_steepnesses_count=4
cascade_activation_steepnesses=2.50000000000000000000e-01 5.00000000000000000000e-01 7.50000000000000000000e-01 1.00000000000000000000e+00 
layer_sizes=8 10 2 
scale_included=0
neurons (num_inputs, activation_function, activation_steepness)=(0, 0, 0.00000000000000000000e+00) (0, 0, 0.00000000000000000000e+00) (0, 0, 0.00000000000000000000e+00) (0, 0, 0.00000000000000000000e+00) (0, 0, 0.00000000000000000000e+00) (0, 0, 0.00000000000000000000e+00) (0, 0, 0.00000000000000000000e+00) (0, 0, 0.00000000000000000000e+00) (8, 4, 5.00000000000000000000e-01) (8, 4, 5.00000000000000000000e-01) (8, 4, 5.00000000000000000000e-01) (8, 4, 5.00000000000000000000e-01) (8, 4, 5.00000000000000000000e-01) (8, 4, 5.00000000000000000000e-01) (8, 4, 5.00000000000000000000e-01) (8, 4, 5.00000000000000000000e-01) (8, 4, 5.00000000000000000000e-01) (0, 0, 0.00000000000000000000e+00) (10, 6, 5.00000000000000000000e-01) (0, 6, 0.00000000000000000000e+00) 
connections (connected_to_neuron, weight)=(0, 1.10167263786706007522e+03) (1, -5.86515740295423370299e+02) (2, -1.50000000000000000000e+03) (3, 6.37381983489837011803e+01) (4, -1.49579127247866472317e+03) (5, -1.50000000000000000000e+03) (6, -1.35587896636224013491e+03) (7, 1.50000000000000000000e+03) (0, -3.25744249789449895616e+01) (1, 1.27415541975079520398e+01) (2, 8.80920433395336601734e+01) (3, -9.06691161924918560544e+01) (4, 3.32337650448820696170e+01) (5, 1.28442404600606607801e+01) (6, 1.79287730334005743771e+01) (7, -9.18545802510418063491e+00) (0, 4.60691095117893141264e+01) (1, -6.63794277167598920641e+01) (2, 1.40234876577016009946e+01) (3, 4.10296038279412922378e+00) (4, 7.29834246047414936243e+00) (5, 6.70028615601291388515e+00) (6, -2.59465739665039549777e+01) (7, 8.27009242162787039376e+00) (0, 1.44198356342268532160e+01) (1, -1.21682217049532095388e+01) (2, 2.38522045191621678839e+01) (3, -4.78207595766172701701e+01) (4, 1.40924074573038442537e+01) (5, -9.58095393823875696171e+00) (6, 4.74223880011748910590e+00) (7, -6.66491774238937573216e+00) (0, 3.89318518313394974939e+02) (1, 7.63005516977845218207e+02) (2, -8.37496385949310848673e+01) (3, -2.02074109741185310440e+02) (4, 7.75706698101138698576e+01) (5, -1.50000000000000000000e+03) (6, -1.34936500605154833465e+03) (7, 8.30197466289287007157e+01) (0, -1.50000000000000000000e+03) (1, -1.50000000000000000000e+03) (2, 1.50000000000000000000e+03) (3, 4.80598792444009234259e+02) (4, 1.50000000000000000000e+03) (5, 1.50000000000000000000e+03) (6, -1.50000000000000000000e+03) (7, -1.43754142016699643136e+03) (0, -1.50000000000000000000e+03) (1, 8.69992633927951601436e+02) (2, 5.78257869196744195506e+02) (3, -1.44299340323361843730e+03) (4, -7.91344202177219472105e+02) (5, 1.50000000000000000000e+03) (6, -6.00080225992674968438e+02) (7, 8.10032546624234100818e+02) (0, -1.50000000000000000000e+03) (1, 6.09284011616244697507e+02) (2, 1.65459594005889734092e+01) (3, 4.18622307834749278754e+02) (4, -2.09781780238681875517e+02) (5, -2.09160228863264393340e+02) (6, 4.81990359764674991538e+01) (7, -3.39908156741425049319e+00) (0, 1.50000000000000000000e+03) (1, -4.14243389234898188533e+02) (2, -8.78013196235561281355e+02) (3, 3.56408145630418175642e+02) (4, -1.50000000000000000000e+03) (5, -1.50000000000000000000e+03) (6, -7.67406808840460030297e+02) (7, 9.11053973906724046117e+00) (8, 1.00890642898309246256e+00) (9, 2.16543047517388309586e+00) (10, 1.22509772381450776635e+00) (11, -4.56953939480728976719e+00) (12, 6.11917914016578468051e-01) (13, -6.13724903794686582614e-01) (14, -6.47066563749513767867e-01) (15, -1.22821465009001773439e+00) (16, 6.97795514057646504291e-01) (17, -1.89821551973625401999e+00) 
