FANN_FLO_2.1
num_layers=4
learning_rate=0.700000
connection_rate=1.000000
network_type=0
learning_momentum=0.000000
training_algorithm=2
train_error_function=1
train_stop_function=0
cascade_output_change_fraction=0.010000
quickprop_decay=-0.000100
quickprop_mu=1.750000
rprop_increase_factor=1.200000
rprop_decrease_factor=0.500000
rprop_delta_min=0.000000
rprop_delta_max=50.000000
rprop_delta_zero=0.100000
cascade_output_stagnation_epochs=12
cascade_candidate_change_fraction=0.010000
cascade_candidate_stagnation_epochs=12
cascade_max_out_epochs=150
cascade_max_cand_epochs=150
cascade_num_candidate_groups=2
bit_fail_limit=3.49999999999999977796e-01
cascade_candidate_limit=1.00000000000000000000e+03
cascade_weight_multiplier=4.00000000000000022204e-01
cascade_activation_functions_count=10
cascade_activation_functions=3 5 7 8 10 11 14 15 16 17 
cascade_activation_steepnesses_count=4
cascade_activation_steepnesses=2.50000000000000000000e-01 5.00000000000000000000e-01 7.50000000000000000000e-01 1.00000000000000000000e+00 
layer_sizes=8 9 9 2 
scale_included=0
neurons (num_inputs, activation_function, activation_steepness)=(0, 0, 0.00000000000000000000e+00) (0, 0, 0.00000000000000000000e+00) (0, 0, 0.00000000000000000000e+00) (0, 0, 0.00000000000000000000e+00) (0, 0, 0.00000000000000000000e+00) (0, 0, 0.00000000000000000000e+00) (0, 0, 0.00000000000000000000e+00) (0, 0, 0.00000000000000000000e+00) (8, 4, 5.00000000000000000000e-01) (8, 4, 5.00000000000000000000e-01) (8, 4, 5.00000000000000000000e-01) (8, 4, 5.00000000000000000000e-01) (8, 4, 5.00000000000000000000e-01) (8, 4, 5.00000000000000000000e-01) (8, 4, 5.00000000000000000000e-01) (8, 4, 5.00000000000000000000e-01) (0, 0, 0.00000000000000000000e+00) (9, 4, 5.00000000000000000000e-01) (9, 4, 5.00000000000000000000e-01) (9, 4, 5.00000000000000000000e-01) (9, 4, 5.00000000000000000000e-01) (9, 4, 5.00000000000000000000e-01) (9, 4, 5.00000000000000000000e-01) (9, 4, 5.00000000000000000000e-01) (9, 4, 5.00000000000000000000e-01) (0, 0, 0.00000000000000000000e+00) (9, 6, 5.00000000000000000000e-01) (0, 6, 0.00000000000000000000e+00) 
connections (connected_to_neuron, weight)=(0, -6.27833386079475985753e+02) (1, 1.05788119116384427798e+03) (2, -1.44220399847528005921e+03) (3, -1.11708275188953706447e+02) (4, 1.15582454932638120226e+03) (5, 1.84968476253065205128e+02) (6, 1.61210665176233931106e+02) (7, -3.10194914070177787835e+02) (0, -4.47207139737758950560e+02) (1, 6.89799320121571781783e+02) (2, 3.66905959983906370780e+02) (3, 1.05010152300478716825e+03) (4, -9.24988228023081830997e+01) (5, 1.13072358570366895947e+03) (6, -6.51443515341088641435e+02) (7, -7.05553288667006768264e+01) (0, -1.49823818031189898647e+03) (1, 4.18837022009148768120e+02) (2, 1.49281474379448013678e+03) (3, 7.73330865958312188013e+02) (4, -4.34327203228776284050e+02) (5, 1.93468502899817053731e+02) (6, -3.87537341174679397682e+02) (7, -5.42998790241839746074e+00) (0, -6.20038290907122814133e+02) (1, 1.66556503409304752950e+02) (2, 8.82987995965915274610e+02) (3, 5.34091850743649615652e+02) (4, -1.10546581369487489610e+03) (5, -4.72571733042258188107e+02) (6, 1.11115519734246367989e+03) (7, -9.47136072529782495621e+02) (0, 6.08916474132517350881e+02) (1, 1.47860804995236298964e+03) (2, 5.99961230671784846891e+02) (3, -1.45191686284563616027e+03) (4, -1.61135524910350511618e+02) (5, 1.16573037385081852335e+03) (6, 1.49800299906230725355e+03) (7, -1.07939530720194761670e+03) (0, 1.48975242806735514023e+03) (1, -1.16841589691066687351e+02) (2, 1.07224820555480869189e+03) (3, -1.28535490288286473515e+03) (4, -5.80296423254015280691e+02) (5, -1.49786180112569604717e+03) (6, 1.90458613893457794575e+02) (7, 2.64838350130148910466e+02) (0, 9.88458629809359763385e+02) (1, -1.20476543794719759717e+03) (2, 1.42621260493250224499e+03) (3, 8.41458201078977367615e+02) (4, 5.92429539056379439899e+02) (5, -1.35158832226180948055e+03) (6, -4.52644053092386133841e+00) (7, 7.11789477132136028104e+01) (0, 4.59976180888066437547e+02) (1, -2.70725922034860332133e+02) (2, -3.04720193584429409839e+02) (3, -1.46244729853129297226e+03) (4, 6.25402165580686073554e+02) (5, 2.21146741088984128965e+02) (6, 3.35925922339489602564e+02) (7, 2.33696525966560699317e+02) (8, 4.19151734878052195654e+02) (9, -1.46578964854235027815e+03) (10, 1.24294633701169641427e+03) (11, -1.27191081045382816228e+03) (12, 1.47837401892998400399e+03) (13, 1.31075525153166245218e+03) (14, 5.43143006613253334081e+01) (15, -1.50000000000000000000e+03) (16, 1.03802886693099844706e+03) (8, -9.04876399699124362996e+02) (9, -8.10088632883492437031e+02) (10, 1.50000000000000000000e+03) (11, 1.50000000000000000000e+03) (12, 1.40608947488634294132e+03) (13, 1.50000000000000000000e+03) (14, -8.61822806955027999720e+02) (15, 1.50000000000000000000e+03) (16, 2.20835509149795626627e+02) (8, 1.48887257235234460495e+03) (9, 7.15054116398985684100e+02) (10, -1.34148271196136374783e+03) (11, -1.49590184316398153896e+03) (12, 6.97438122735052616008e+02) (13, 1.48266386322857260893e+03) (14, 1.49894220852216881212e+03) (15, -1.50000000000000000000e+03) (16, -8.38003520449736697628e+02) (8, -8.71289406463549426007e+02) (9, -1.48763853194656394408e+03) (10, 8.85480858124804854015e+02) (11, 1.50000000000000000000e+03) (12, 1.43763743425742654836e+03) (13, 1.50000000000000000000e+03) (14, -1.21240031022977473185e+03) (15, 1.50000000000000000000e+03) (16, 5.12197934713996346545e+02) (8, -4.73453272683494049033e+02) (9, -1.46869368247508941749e+03) (10, 6.80606750954611925408e+02) (11, 1.50000000000000000000e+03) (12, 1.40608947488634294132e+03) (13, 1.50000000000000000000e+03) (14, -1.44239765685329871303e+03) (15, 1.50000000000000000000e+03) (16, 1.45978274472235034409e+03) (8, 1.36401800880625273749e+03) (9, -1.25000382879982521445e+03) (10, 1.07519286977402686034e+02) (11, 1.50000000000000000000e+03) (12, 5.13246857440255439542e+02) (13, 8.92219451032684332858e+02) (14, -2.42527609132719447871e+02) (15, 1.31705404864022398215e+02) (16, 3.06810763249211149173e+01) (8, -1.28945845647046621707e+03) (9, 9.70612637587038193487e+02) (10, 1.04824281151651052824e+03) (11, 5.69565601818057871242e+02) (12, 6.86982404740188826509e+02) (13, -9.86249791392629845177e+02) (14, -1.45229238082179836056e+03) (15, 1.50000000000000000000e+03) (16, 1.18235970415409883572e+03) (8, 1.43569769073847442087e+03) (9, -1.29322113762823687466e+03) (10, -6.17121537185312945439e+02) (11, -1.50000000000000000000e+03) (12, 8.73981354601521388759e+02) (13, 1.43450551788026359645e+03) (14, -9.76461699297095719885e+02) (15, -1.50000000000000000000e+03) (16, 1.46423879953433061019e+03) (17, 4.79848440616281804449e-02) (18, -5.82250875461643446762e-02) (19, 5.77068993984369171812e-01) (20, -3.55626550508751498869e-02) (21, -5.11446804520625936119e-02) (22, -3.64322390676652604902e-02) (23, -5.32043709699528633017e-01) (24, 4.22340347962640971780e-01) (25, -1.24798372024197534030e-02) 
