FANN_FLO_2.1
num_layers=3
learning_rate=0.700000
connection_rate=1.000000
network_type=0
learning_momentum=0.000000
training_algorithm=2
train_error_function=1
train_stop_function=0
cascade_output_change_fraction=0.010000
quickprop_decay=-0.000100
quickprop_mu=1.750000
rprop_increase_factor=1.200000
rprop_decrease_factor=0.500000
rprop_delta_min=0.000000
rprop_delta_max=50.000000
rprop_delta_zero=0.100000
cascade_output_stagnation_epochs=12
cascade_candidate_change_fraction=0.010000
cascade_candidate_stagnation_epochs=12
cascade_max_out_epochs=150
cascade_max_cand_epochs=150
cascade_num_candidate_groups=2
bit_fail_limit=3.49999999999999977796e-01
cascade_candidate_limit=1.00000000000000000000e+03
cascade_weight_multiplier=4.00000000000000022204e-01
cascade_activation_functions_count=10
cascade_activation_functions=3 5 7 8 10 11 14 15 16 17 
cascade_activation_steepnesses_count=4
cascade_activation_steepnesses=2.50000000000000000000e-01 5.00000000000000000000e-01 7.50000000000000000000e-01 1.00000000000000000000e+00 
layer_sizes=8 16 2 
scale_included=0
neurons (num_inputs, activation_function, activation_steepness)=(0, 0, 0.00000000000000000000e+00) (0, 0, 0.00000000000000000000e+00) (0, 0, 0.00000000000000000000e+00) (0, 0, 0.00000000000000000000e+00) (0, 0, 0.00000000000000000000e+00) (0, 0, 0.00000000000000000000e+00) (0, 0, 0.00000000000000000000e+00) (0, 0, 0.00000000000000000000e+00) (8, 4, 5.00000000000000000000e-01) (8, 4, 5.00000000000000000000e-01) (8, 4, 5.00000000000000000000e-01) (8, 4, 5.00000000000000000000e-01) (8, 4, 5.00000000000000000000e-01) (8, 4, 5.00000000000000000000e-01) (8, 4, 5.00000000000000000000e-01) (8, 4, 5.00000000000000000000e-01) (8, 4, 5.00000000000000000000e-01) (8, 4, 5.00000000000000000000e-01) (8, 4, 5.00000000000000000000e-01) (8, 4, 5.00000000000000000000e-01) (8, 4, 5.00000000000000000000e-01) (8, 4, 5.00000000000000000000e-01) (8, 4, 5.00000000000000000000e-01) (0, 0, 0.00000000000000000000e+00) (16, 6, 5.00000000000000000000e-01) (0, 6, 0.00000000000000000000e+00) 
connections (connected_to_neuron, weight)=(0, 6.23974525956209689070e+01) (1, 1.38930006070591957723e+03) (2, 1.46998145349504943624e+03) (3, 4.75378408992384891008e+01) (4, -1.38566766683202536115e+03) (5, -1.45712511419110001043e+03) (6, -1.41843310004323234352e+03) (7, -1.48375079519282042639e+01) (0, 1.42376071478071342113e+01) (1, -1.04574025336559614630e+02) (2, -2.57736564302433901474e+00) (3, 7.45649074555348221338e+01) (4, 6.81186091399598154794e+01) (5, -1.44189259318709268598e+01) (6, 8.75486631660170488978e-01) (7, 5.43901117708725290179e-01) (0, -1.43726965309662491066e+00) (1, 2.88274574663156784027e+01) (2, -3.58403602068054283336e+00) (3, -7.45544455299139041671e+00) (4, 2.40853196379168732477e+00) (5, 3.57290907659075740455e+00) (6, -9.06255927079351586428e+00) (7, -1.06717094969138184268e+01) (0, -2.10753671373246440623e+01) (1, -2.82522623110192014906e+01) (2, 5.50765095867901877114e+01) (3, 1.29463473764038621283e+01) (4, -9.66253400107361812843e+01) (5, -4.28372397619184894779e+01) (6, 2.06580236059582809105e+01) (7, 1.97756062081794361518e+01) (0, 2.44188840088467484790e+00) (1, -1.31493710640147956070e+01) (2, -4.37691420381339710843e+01) (3, 4.24779184367581663651e+01) (4, 2.01227263204048760770e+01) (5, -3.35451662516954982607e+01) (6, 1.23087195493775798383e+01) (7, -6.51719326857804404085e+00) (0, -4.01231846919761565573e+01) (1, -1.15896127267054520615e+01) (2, -3.35580849114084429630e+01) (3, -5.73889355022059248768e+01) (4, 1.20699881084285138400e+02) (5, 2.56285904374812956164e+00) (6, 5.45744267513900371824e-01) (7, 2.81215857609915715898e+01) (0, -4.38008342033979314323e+00) (1, -2.63627379173892872899e+00) (2, 9.75041036585358256161e+00) (3, 9.84027385731663351010e+00) (4, -1.72692727291696321856e+01) (5, 2.97470234798713095703e-01) (6, 1.06351291863086228062e+01) (7, -5.50626442419637296410e+00) (0, -1.58139456656533852197e+01) (1, 1.49488916061088286114e+01) (2, 9.02500728884062652924e+00) (3, -2.44496963863674432460e+00) (4, -3.32349641473719046303e+01) (5, 2.56643698014065924085e+00) (6, 2.32527678456080089120e+00) (7, 3.83164842908176295211e+00) (0, 1.14822398290971285917e+01) (1, -6.30098877984934357954e+00) (2, 1.00547628104703772323e+01) (3, 2.59519582929151448880e+00) (4, -1.18827554962235684144e+01) (5, -1.26033704162810931138e+01) (6, 5.67976234244545707952e+00) (7, 3.35545273015268996630e+00) (0, 6.63180897891041087888e+00) (1, -1.82128589149665209845e+00) (2, 8.05708693518572260928e+00) (3, -1.45274855708148331601e+00) (4, -1.12022650721766723336e+01) (5, 1.03333407534292991414e+01) (6, -1.95423471371812840225e+00) (7, -7.29838543038300269217e+00) (0, 9.55666409851583438240e+01) (1, -6.75176473991003689434e+01) (2, -2.07747403011617763013e+02) (3, -4.44177560574138752258e+01) (4, 4.86943697231274867931e+01) (5, -2.15740424297407713539e+01) (6, 6.12663607396274016992e+01) (7, 2.14135228382841660277e+01) (0, -6.44285264570981563992e+00) (1, 3.88393623423719303034e+00) (2, 2.82799992258894905550e-01) (3, 3.58292801193345678001e+00) (4, -1.77270169653116340669e+01) (5, 4.07672594207694238833e+00) (6, -6.02554179896183983445e-01) (7, 1.37385690402598625859e+00) (0, -3.69317057114868063650e+00) (1, 4.63096365669253362540e+00) (2, -2.85670372346270173836e+00) (3, -1.26122049562070226436e+00) (4, 9.00446499240139708320e+00) (5, -6.59384044198133612014e+00) (6, 1.40695739630040866919e-01) (7, 1.55787660823606644023e+00) (0, -1.50000000000000000000e+03) (1, -1.50000000000000000000e+03) (2, -1.34777204842433525300e+03) (3, -1.49999949359997322063e+03) (4, -1.50000000000000000000e+03) (5, -1.50000000000000000000e+03) (6, -1.50000000000000000000e+03) (7, 2.23599564063179684581e+02) (0, 1.53220033998098141836e+01) (1, -4.76456418114072288716e+00) (2, 6.59709099384073027750e+01) (3, -1.94900933529231075170e+01) (4, -2.70525986037391419359e+01) (5, -5.99095454883028182280e+01) (6, 1.76424991784091496072e+01) (7, 1.81973763560033496844e+01) (8, 1.43775804973465337611e+00) (9, -2.86682780550065574587e+00) (10, -5.55482345228366991563e+00) (11, 5.96125131268950703145e+00) (12, -7.83708405925122342239e+00) (13, -6.03982213183565441739e+00) (14, -9.88755179864377886645e+00) (15, -1.76410249556729539222e+01) (16, 4.76181617462411033159e+00) (17, 8.36713526137437035857e+00) (18, -2.18866061688439428323e+00) (19, 1.69463250451675229158e+01) (20, 8.23747445211347439908e+00) (21, 1.50000000000000000000e+03) (22, -4.60458904050094730565e+00) (23, 3.07542677451657509025e+00) 
