FANN_FLO_2.1
num_layers=3
learning_rate=0.700000
connection_rate=1.000000
network_type=0
learning_momentum=0.000000
training_algorithm=2
train_error_function=1
train_stop_function=0
cascade_output_change_fraction=0.010000
quickprop_decay=-0.000100
quickprop_mu=1.750000
rprop_increase_factor=1.200000
rprop_decrease_factor=0.500000
rprop_delta_min=0.000000
rprop_delta_max=50.000000
rprop_delta_zero=0.100000
cascade_output_stagnation_epochs=12
cascade_candidate_change_fraction=0.010000
cascade_candidate_stagnation_epochs=12
cascade_max_out_epochs=150
cascade_max_cand_epochs=150
cascade_num_candidate_groups=2
bit_fail_limit=3.49999999999999977796e-01
cascade_candidate_limit=1.00000000000000000000e+03
cascade_weight_multiplier=4.00000000000000022204e-01
cascade_activation_functions_count=10
cascade_activation_functions=3 5 7 8 10 11 14 15 16 17 
cascade_activation_steepnesses_count=4
cascade_activation_steepnesses=2.50000000000000000000e-01 5.00000000000000000000e-01 7.50000000000000000000e-01 1.00000000000000000000e+00 
layer_sizes=8 10 2 
scale_included=0
neurons (num_inputs, activation_function, activation_steepness)=(0, 0, 0.00000000000000000000e+00) (0, 0, 0.00000000000000000000e+00) (0, 0, 0.00000000000000000000e+00) (0, 0, 0.00000000000000000000e+00) (0, 0, 0.00000000000000000000e+00) (0, 0, 0.00000000000000000000e+00) (0, 0, 0.00000000000000000000e+00) (0, 0, 0.00000000000000000000e+00) (8, 4, 5.00000000000000000000e-01) (8, 4, 5.00000000000000000000e-01) (8, 4, 5.00000000000000000000e-01) (8, 4, 5.00000000000000000000e-01) (8, 4, 5.00000000000000000000e-01) (8, 4, 5.00000000000000000000e-01) (8, 4, 5.00000000000000000000e-01) (8, 4, 5.00000000000000000000e-01) (8, 4, 5.00000000000000000000e-01) (0, 0, 0.00000000000000000000e+00) (10, 6, 5.00000000000000000000e-01) (0, 6, 0.00000000000000000000e+00) 
connections (connected_to_neuron, weight)=(0, -1.62257399680185216084e+02) (1, -2.22758540680072130158e+01) (2, -1.18990972968806048016e+02) (3, -7.09765944666529549067e+01) (4, 1.69233301302285752854e+02) (5, -1.74780543802562704059e+02) (6, 6.54127670428517831169e+01) (7, 1.25890663735467498441e+02) (0, -2.70053554085454301514e+01) (1, -1.64231357267336193217e+02) (2, 2.11312020858173411852e+02) (3, -1.67141646620770330856e+02) (4, 5.78376084908899557036e+01) (5, 2.96852520613341646083e+01) (6, -1.28051696228015590151e+01) (7, -1.12800152264075421726e+01) (0, -5.55857581089497557514e+02) (1, -6.64051469504100964514e+02) (2, 1.17686307396033748773e+03) (3, 1.50000000000000000000e+03) (4, -8.97121066095263472562e+02) (5, 1.50000000000000000000e+03) (6, -1.34414580246333639479e+03) (7, 5.40758988050591369756e+02) (0, -4.92242349361328365376e+02) (1, -4.64713183256722928149e+01) (2, 3.65361848963169052240e+02) (3, -9.00147859944349306716e+01) (4, 3.85172832159076534708e+01) (5, 1.87767545743861830942e+02) (6, -6.26148850632298490382e+02) (7, -4.94288715367052802208e+01) (0, 1.50000000000000000000e+03) (1, -3.64037379749283672936e+02) (2, -1.21019569797132521671e+03) (3, 1.50000000000000000000e+03) (4, -3.22220185064387010243e+02) (5, 4.04519111098198209220e+02) (6, 9.51677444223424345182e+02) (7, -1.30727274016303272219e+03) (0, 4.73531249775693741100e+00) (1, 2.33105465761304401440e+02) (2, -7.21762609937389129300e+02) (3, 3.31364201815780290872e+02) (4, 2.59572225968837528853e+02) (5, -2.57710469627685142768e+02) (6, -1.01775060904091475322e+02) (7, 2.63227130887199365361e+01) (0, -8.78015095168307766471e+02) (1, 1.61691172783981102157e+02) (2, -4.76867525487658554084e+02) (3, 2.35128206675539018988e+02) (4, 1.48941383125090652584e+02) (5, -4.85953951753906707722e+01) (6, 6.79241444921625543429e+02) (7, -2.39472545978508684072e+01) (0, 6.24228980140546099165e+01) (1, 1.68699718077762611301e+02) (2, -6.54575998318154006483e+02) (3, 3.17487763229743450211e+02) (4, -5.38727347989274747420e+01) (5, 1.84462899055640328072e+01) (6, -3.79498003207109263712e+02) (7, 1.08541925199446268380e+02) (0, -1.43013739201554062674e+03) (1, 8.43684867700675567903e+02) (2, -1.50000000000000000000e+03) (3, -1.50000000000000000000e+03) (4, 1.46289223788911635893e+03) (5, -1.50000000000000000000e+03) (6, -1.39879491277144961714e+03) (7, 1.43745747008846092285e+03) (8, 8.65359790185789790051e-01) (9, 1.55652274387610201067e+00) (10, 6.59566907129582546965e-01) (11, -4.83107623806569352887e-01) (12, 6.84494878094161762760e-01) (13, 6.57639673087016873865e-01) (14, -9.12347028609190036086e-01) (15, 1.12945728081461060910e+00) (16, -1.55441595419787104149e+00) (17, -1.22248079185005265046e+00) 
