FANN_FLO_2.1
num_layers=3
learning_rate=0.700000
connection_rate=1.000000
network_type=0
learning_momentum=0.000000
training_algorithm=2
train_error_function=1
train_stop_function=0
cascade_output_change_fraction=0.010000
quickprop_decay=-0.000100
quickprop_mu=1.750000
rprop_increase_factor=1.200000
rprop_decrease_factor=0.500000
rprop_delta_min=0.000000
rprop_delta_max=50.000000
rprop_delta_zero=0.100000
cascade_output_stagnation_epochs=12
cascade_candidate_change_fraction=0.010000
cascade_candidate_stagnation_epochs=12
cascade_max_out_epochs=150
cascade_max_cand_epochs=150
cascade_num_candidate_groups=2
bit_fail_limit=3.49999999999999977796e-01
cascade_candidate_limit=1.00000000000000000000e+03
cascade_weight_multiplier=4.00000000000000022204e-01
cascade_activation_functions_count=10
cascade_activation_functions=3 5 7 8 10 11 14 15 16 17 
cascade_activation_steepnesses_count=4
cascade_activation_steepnesses=2.50000000000000000000e-01 5.00000000000000000000e-01 7.50000000000000000000e-01 1.00000000000000000000e+00 
layer_sizes=8 11 2 
scale_included=0
neurons (num_inputs, activation_function, activation_steepness)=(0, 0, 0.00000000000000000000e+00) (0, 0, 0.00000000000000000000e+00) (0, 0, 0.00000000000000000000e+00) (0, 0, 0.00000000000000000000e+00) (0, 0, 0.00000000000000000000e+00) (0, 0, 0.00000000000000000000e+00) (0, 0, 0.00000000000000000000e+00) (0, 0, 0.00000000000000000000e+00) (8, 4, 5.00000000000000000000e-01) (8, 4, 5.00000000000000000000e-01) (8, 4, 5.00000000000000000000e-01) (8, 4, 5.00000000000000000000e-01) (8, 4, 5.00000000000000000000e-01) (8, 4, 5.00000000000000000000e-01) (8, 4, 5.00000000000000000000e-01) (8, 4, 5.00000000000000000000e-01) (8, 4, 5.00000000000000000000e-01) (8, 4, 5.00000000000000000000e-01) (0, 0, 0.00000000000000000000e+00) (11, 6, 5.00000000000000000000e-01) (0, 6, 0.00000000000000000000e+00) 
connections (connected_to_neuron, weight)=(0, -1.12171101801299499812e+01) (1, -1.11105216620369461111e+02) (2, 1.68996124895208680528e+02) (3, 6.74200480132088557639e+01) (4, -2.64940027413108971643e+01) (5, 9.65498659716034524081e+00) (6, 6.44896467870568479430e-02) (7, -7.78890311026013080209e+01) (0, 4.61187444070456553646e+00) (1, -2.27747391410358268615e+01) (2, -1.08603151726079943273e+02) (3, 1.01606291829484248979e+02) (4, -3.27610009373582045100e+01) (5, 6.45095876484285497554e+01) (6, -1.06596979546162735630e+01) (7, -4.90593102447556788093e+01) (0, -1.50000000000000000000e+03) (1, 4.90189560526794991802e+02) (2, 2.04883416308275806417e-01) (3, 8.76968769321652885651e+00) (4, 1.36299621919870560305e+02) (5, -1.73415170989142779945e+02) (6, 4.88783442730307058355e+01) (7, 3.22813488650476870134e+02) (0, 8.39925958955300977493e+00) (1, 1.08516725163544025534e+00) (2, -2.54286808575681977374e+00) (3, -5.93977179576262326322e+00) (4, -2.19501121577437920962e+01) (5, 1.37776962624773569033e+00) (6, 3.56856654433765640988e+00) (7, 3.18057822807270484944e+00) (0, -5.25925858173523081973e+01) (1, -1.58914028069405383059e-01) (2, -3.01694123043272313112e+01) (3, 5.61268770671581407328e+01) (4, -2.15247955192769708788e+01) (5, 4.41851502577095978097e+00) (6, -3.37029463984285815314e+00) (7, 1.25516629541949242821e+01) (0, -5.78448005864148697697e+01) (1, 4.85798895780561679203e+01) (2, -9.29374026898633331939e+00) (3, 3.03736508910398654848e+01) (4, -1.33715995709870050234e+01) (5, 1.31796023817285394841e+01) (6, 1.42976452473111734776e+01) (7, -1.62823432111377073284e+01) (0, 7.24853563933334470448e+01) (1, -3.25487093666236333434e+01) (2, -4.69888128440276886977e+02) (3, 7.67136706441791034194e+02) (4, -4.81832440604294390596e+02) (5, -1.35127693031049574302e+02) (6, 2.73099825638442794684e+01) (7, -1.37209608517640702985e+02) (0, -5.36343134326432675607e+01) (1, 6.15427295558595915281e+02) (2, -3.08230159562189101052e+02) (3, -8.97529841445168017344e+02) (4, 4.00237114259309578301e+02) (5, -5.01857230833948506188e+02) (6, -3.03503932289774411402e+02) (7, 1.87463228072099497012e+02) (0, -8.12225038413662474568e+01) (1, 2.92893810053940022442e+01) (2, 7.15886658011979903904e+01) (3, -4.57648701807455097423e+02) (4, 1.50056138825069950826e+02) (5, 1.03474867633373469289e+03) (6, 2.25247408732649915919e+02) (7, 5.99983112925216133249e+01) (0, 8.02418649300972397498e+00) (1, 8.07047710680113894455e+00) (2, -6.00886385158094427084e+00) (3, -5.14220721985495998752e+00) (4, -2.44084047639483046055e+01) (5, 3.63092239918727699433e+00) (6, 3.70908848026764048633e-01) (7, 2.96730153257157214242e+00) (8, 1.74916230938191108457e+00) (9, 5.59210437895981549161e+00) (10, 4.36886052372804822852e+00) (11, -1.62499939359106164716e+01) (12, -4.43882615762974541695e+00) (13, -1.86031612678424118634e+00) (14, 1.25834895069393426503e+00) (15, -4.87898228024116686896e+00) (16, -6.55095886723032760912e-01) (17, 1.50775244059580515454e+01) (18, 7.58707365621267282307e-01) 
