FANN_FLO_2.1
num_layers=3
learning_rate=0.700000
connection_rate=1.000000
network_type=0
learning_momentum=0.000000
training_algorithm=2
train_error_function=1
train_stop_function=0
cascade_output_change_fraction=0.010000
quickprop_decay=-0.000100
quickprop_mu=1.750000
rprop_increase_factor=1.200000
rprop_decrease_factor=0.500000
rprop_delta_min=0.000000
rprop_delta_max=50.000000
rprop_delta_zero=0.100000
cascade_output_stagnation_epochs=12
cascade_candidate_change_fraction=0.010000
cascade_candidate_stagnation_epochs=12
cascade_max_out_epochs=150
cascade_max_cand_epochs=150
cascade_num_candidate_groups=2
bit_fail_limit=3.49999999999999977796e-01
cascade_candidate_limit=1.00000000000000000000e+03
cascade_weight_multiplier=4.00000000000000022204e-01
cascade_activation_functions_count=10
cascade_activation_functions=3 5 7 8 10 11 14 15 16 17 
cascade_activation_steepnesses_count=4
cascade_activation_steepnesses=2.50000000000000000000e-01 5.00000000000000000000e-01 7.50000000000000000000e-01 1.00000000000000000000e+00 
layer_sizes=8 9 2 
scale_included=0
neurons (num_inputs, activation_function, activation_steepness)=(0, 0, 0.00000000000000000000e+00) (0, 0, 0.00000000000000000000e+00) (0, 0, 0.00000000000000000000e+00) (0, 0, 0.00000000000000000000e+00) (0, 0, 0.00000000000000000000e+00) (0, 0, 0.00000000000000000000e+00) (0, 0, 0.00000000000000000000e+00) (0, 0, 0.00000000000000000000e+00) (8, 4, 5.00000000000000000000e-01) (8, 4, 5.00000000000000000000e-01) (8, 4, 5.00000000000000000000e-01) (8, 4, 5.00000000000000000000e-01) (8, 4, 5.00000000000000000000e-01) (8, 4, 5.00000000000000000000e-01) (8, 4, 5.00000000000000000000e-01) (8, 4, 5.00000000000000000000e-01) (0, 0, 0.00000000000000000000e+00) (9, 6, 5.00000000000000000000e-01) (0, 6, 0.00000000000000000000e+00) 
connections (connected_to_neuron, weight)=(0, 2.57841302832644423404e+01) (1, 4.61681586026303349968e+01) (2, -1.82582659710809025455e+00) (3, -1.30128522976336391537e+01) (4, 3.16880025232828650417e+01) (5, -5.68491347603114647313e+01) (6, -3.60332015288876945647e+01) (7, -9.37173165708662558870e+00) (0, -2.40454634791450239106e+00) (1, -2.71325498493675816292e+01) (2, 2.07286365936695027301e+00) (3, -6.42779209129937978418e+00) (4, 2.21621999370957247777e+01) (5, -7.20876810104935916712e+00) (6, 5.10731526178873540545e+00) (7, 5.31989140880102295839e-01) (0, -8.27234511249243809061e+01) (1, -9.31795304007952012171e+01) (2, 1.55476013781255261392e+02) (3, -6.95393959453276352178e+02) (4, -1.50000000000000000000e+03) (5, -1.50000000000000000000e+03) (6, 4.09721600467935104462e+02) (7, 3.15916390308281847865e+02) (0, -3.96972931231608949787e+00) (1, -2.82941688368044808044e+01) (2, 9.73832161629711423600e-01) (3, -5.84898893584933077250e+00) (4, 2.37579687293917167779e+01) (5, -7.72900407337322192802e+00) (6, 5.51569401692730210129e+00) (7, 6.64128328095125008979e-01) (0, -2.90855980792612115238e+02) (1, -3.94204322388214791317e+02) (2, -1.28593344411846771891e+02) (3, 2.31951360281159509213e+02) (4, 2.66294177759079786938e+02) (5, -1.50000000000000000000e+03) (6, 6.28503689529852863416e+02) (7, 3.36119447021919256713e+02) (0, -4.88030120804055513872e+01) (1, -1.40617042536240347772e+02) (2, 5.07097523532947107583e+01) (3, 3.08812496359774797838e+02) (4, 3.86641386971383838045e+02) (5, 1.50000000000000000000e+03) (6, -1.54998788883563122454e+02) (7, 4.29413361289757702366e+01) (0, -9.22818395151034678747e+02) (1, 9.54447684868332657970e+02) (2, -9.67627563623816172367e+02) (3, -1.07752762646558039705e+03) (4, 1.31426591074554494298e+03) (5, -1.50000000000000000000e+03) (6, -2.20599560618809022117e+02) (7, 3.63151514930505129541e+02) (0, 1.08716934286351074590e+00) (1, -1.22065939671482182050e+00) (2, 9.70466891439933831975e+00) (3, -1.99563279403675686297e+01) (4, -2.04825211872745711617e+01) (5, -2.78342925838424442020e+01) (6, 2.93237234348338660084e+00) (7, 5.87959879813452257480e+00) (8, 2.28482869875913330304e+00) (9, 3.88936950076778416019e+01) (10, -1.06903948820919070251e+00) (11, -3.82255477287184319835e+01) (12, -2.06505931891238381226e+00) (13, 2.63015532628438686302e+00) (14, -6.39201536394503722072e-01) (15, 3.92525996724632886270e+00) (16, -2.77045259587464620665e+00) 
