FANN_FLO_2.1
num_layers=3
learning_rate=0.700000
connection_rate=1.000000
network_type=0
learning_momentum=0.000000
training_algorithm=2
train_error_function=1
train_stop_function=0
cascade_output_change_fraction=0.010000
quickprop_decay=-0.000100
quickprop_mu=1.750000
rprop_increase_factor=1.200000
rprop_decrease_factor=0.500000
rprop_delta_min=0.000000
rprop_delta_max=50.000000
rprop_delta_zero=0.100000
cascade_output_stagnation_epochs=12
cascade_candidate_change_fraction=0.010000
cascade_candidate_stagnation_epochs=12
cascade_max_out_epochs=150
cascade_max_cand_epochs=150
cascade_num_candidate_groups=2
bit_fail_limit=3.49999999999999977796e-01
cascade_candidate_limit=1.00000000000000000000e+03
cascade_weight_multiplier=4.00000000000000022204e-01
cascade_activation_functions_count=10
cascade_activation_functions=3 5 7 8 10 11 14 15 16 17 
cascade_activation_steepnesses_count=4
cascade_activation_steepnesses=2.50000000000000000000e-01 5.00000000000000000000e-01 7.50000000000000000000e-01 1.00000000000000000000e+00 
layer_sizes=8 15 2 
scale_included=0
neurons (num_inputs, activation_function, activation_steepness)=(0, 0, 0.00000000000000000000e+00) (0, 0, 0.00000000000000000000e+00) (0, 0, 0.00000000000000000000e+00) (0, 0, 0.00000000000000000000e+00) (0, 0, 0.00000000000000000000e+00) (0, 0, 0.00000000000000000000e+00) (0, 0, 0.00000000000000000000e+00) (0, 0, 0.00000000000000000000e+00) (8, 4, 5.00000000000000000000e-01) (8, 4, 5.00000000000000000000e-01) (8, 4, 5.00000000000000000000e-01) (8, 4, 5.00000000000000000000e-01) (8, 4, 5.00000000000000000000e-01) (8, 4, 5.00000000000000000000e-01) (8, 4, 5.00000000000000000000e-01) (8, 4, 5.00000000000000000000e-01) (8, 4, 5.00000000000000000000e-01) (8, 4, 5.00000000000000000000e-01) (8, 4, 5.00000000000000000000e-01) (8, 4, 5.00000000000000000000e-01) (8, 4, 5.00000000000000000000e-01) (8, 4, 5.00000000000000000000e-01) (0, 0, 0.00000000000000000000e+00) (15, 6, 5.00000000000000000000e-01) (0, 6, 0.00000000000000000000e+00) 
connections (connected_to_neuron, weight)=(0, 3.89118854421462216919e+01) (1, -1.70196056317680586289e+01) (2, 9.05137558519519602740e-01) (3, 1.80463080054701983101e+01) (4, -2.13082127953559705702e+01) (5, 1.76614668588819978545e+00) (6, 5.44441950147388595838e+01) (7, 7.62907028520684615813e+00) (0, -2.97606714790765465750e+02) (1, 3.90467927274717851560e+02) (2, -7.90844609181104232221e+01) (3, 2.57441051107651958318e+02) (4, 1.31898963650801448466e+02) (5, -1.31750995469449406983e+02) (6, 3.27434497516789946303e+01) (7, -2.62625923592235430704e+01) (0, -2.49876393071894646880e+01) (1, 3.12192524417714922791e+00) (2, 1.74112563957814678872e+01) (3, -8.93760435156401022994e+00) (4, 4.62302886551556913020e+00) (5, 3.94837186887512192612e+00) (6, 5.24175762366648534396e+00) (7, -6.70842444828803063928e+00) (0, -5.75218923796231695889e+00) (1, -3.91550069536533218439e+00) (2, 1.14016487608506800200e+01) (3, -8.92144162565999643277e+00) (4, 7.90785264937695142606e+00) (5, 3.10989939424003214441e+00) (6, 9.90412427705214648554e-01) (7, -6.57564750861852598263e+00) (0, -2.54243276198089688478e+02) (1, 1.16324650276254821790e+01) (2, 2.02884489891035514120e+02) (3, -1.82399323196357187271e+02) (4, 1.39499494892945222091e+02) (5, -4.84205723080319572205e+01) (6, 1.17873978412553725548e+02) (7, -1.08397417450828843499e+01) (0, -1.50000000000000000000e+03) (1, -1.50000000000000000000e+03) (2, -1.50000000000000000000e+03) (3, -1.50000000000000000000e+03) (4, 5.14627613962104419443e+02) (5, 1.50000000000000000000e+03) (6, -1.42200943687909079927e+03) (7, -2.09909418745115374350e+02) (0, 3.82032505218643292366e+00) (1, -3.83670426496564118679e+01) (2, 8.95126278845280864971e+00) (3, 3.03993891392909283411e+01) (4, -7.41525537229704134745e+00) (5, 1.35711661943610240044e+00) (6, 3.65582585647976117116e+01) (7, -1.96349658601477159436e+01) (0, -1.50000000000000000000e+03) (1, -1.50000000000000000000e+03) (2, -1.41758798092726328832e+03) (3, 1.49778771779159887956e+03) (4, -1.41677746255254965035e+03) (5, 1.12042255429193778582e+03) (6, -2.33551055813076118284e+02) (7, 2.44226317075070475937e+01) (0, -6.13604543740549388531e+01) (1, -1.91627608771708324298e+01) (2, -7.44651562235004949031e+00) (3, -2.05731281677935662344e+01) (4, 2.91243993701904919646e+01) (5, 3.40946590901584585254e+01) (6, 5.42239752015392539874e+01) (7, 1.46679794819203941358e+01) (0, 1.33897801562105698281e+01) (1, 1.03796999007434234130e+01) (2, 4.85850999607047295825e+00) (3, -6.10502098645984503378e+00) (4, 1.89759655813182459561e+00) (5, -3.99626538055941882277e+00) (6, -3.53120055198142566155e+01) (7, 2.66108938798846761387e+00) (0, -6.18572000891919504539e+00) (1, -1.87157902403787836931e+01) (2, -1.97556565917491617768e+01) (3, 7.96438833446014804451e+00) (4, -1.37418488590869181110e+01) (5, 1.42696636153324707408e+01) (6, -5.84070075122226639586e-02) (7, -9.06779973459108545875e-01) (0, -4.84310118888215779265e+00) (1, 5.19904990095616348356e+00) (2, 1.94589725120951548831e+01) (3, -1.44601890063731151059e+01) (4, 1.39437609160987072698e+01) (5, 1.55018417958972132276e+00) (6, -6.88348138295340827852e+00) (7, -1.08473869246990481940e+01) (0, -2.32494873342236871849e+02) (1, 4.21698511429805549255e+01) (2, 2.01174825788204643118e+01) (3, 1.47908073526153529542e+01) (4, -1.77451210162699304362e+01) (5, 2.38000809247798912338e+01) (6, 2.70225066088734820369e+02) (7, -1.99721758392871819865e+01) (0, -3.31819902105392657177e+02) (1, -2.53778424543858619700e+02) (2, -1.16292642471803219451e+02) (3, 8.82316449429193312426e+02) (4, 9.52653687484801707797e+02) (5, -1.50000000000000000000e+03) (6, 1.61512613042018500664e+02) (7, 2.42128895197390761496e+02) (8, 2.24115740582137901171e+00) (9, -1.67409146882547044122e+00) (10, 2.97678508671096553329e+00) (11, -4.53846975720087719708e+00) (12, 7.94890676118911732040e-01) (13, 1.02604082629684301153e+00) (14, -6.02727757792669738279e-01) (15, 1.84336314812082058268e+00) (16, -7.36703319406965539962e-01) (17, -1.51222025011767469138e+00) (18, -3.43537779593919712084e+00) (19, 1.28439772351419034813e+00) (20, -1.30869745514296176303e+00) (21, -7.56959407711933818241e-01) (22, 2.10776213526125832942e+00) 
