FANN_FLO_2.1
num_layers=3
learning_rate=0.700000
connection_rate=1.000000
network_type=0
learning_momentum=0.000000
training_algorithm=2
train_error_function=1
train_stop_function=0
cascade_output_change_fraction=0.010000
quickprop_decay=-0.000100
quickprop_mu=1.750000
rprop_increase_factor=1.200000
rprop_decrease_factor=0.500000
rprop_delta_min=0.000000
rprop_delta_max=50.000000
rprop_delta_zero=0.100000
cascade_output_stagnation_epochs=12
cascade_candidate_change_fraction=0.010000
cascade_candidate_stagnation_epochs=12
cascade_max_out_epochs=150
cascade_max_cand_epochs=150
cascade_num_candidate_groups=2
bit_fail_limit=3.49999999999999977796e-01
cascade_candidate_limit=1.00000000000000000000e+03
cascade_weight_multiplier=4.00000000000000022204e-01
cascade_activation_functions_count=10
cascade_activation_functions=3 5 7 8 10 11 14 15 16 17 
cascade_activation_steepnesses_count=4
cascade_activation_steepnesses=2.50000000000000000000e-01 5.00000000000000000000e-01 7.50000000000000000000e-01 1.00000000000000000000e+00 
layer_sizes=8 9 2 
scale_included=0
neurons (num_inputs, activation_function, activation_steepness)=(0, 0, 0.00000000000000000000e+00) (0, 0, 0.00000000000000000000e+00) (0, 0, 0.00000000000000000000e+00) (0, 0, 0.00000000000000000000e+00) (0, 0, 0.00000000000000000000e+00) (0, 0, 0.00000000000000000000e+00) (0, 0, 0.00000000000000000000e+00) (0, 0, 0.00000000000000000000e+00) (8, 4, 5.00000000000000000000e-01) (8, 4, 5.00000000000000000000e-01) (8, 4, 5.00000000000000000000e-01) (8, 4, 5.00000000000000000000e-01) (8, 4, 5.00000000000000000000e-01) (8, 4, 5.00000000000000000000e-01) (8, 4, 5.00000000000000000000e-01) (8, 4, 5.00000000000000000000e-01) (0, 0, 0.00000000000000000000e+00) (9, 6, 5.00000000000000000000e-01) (0, 6, 0.00000000000000000000e+00) 
connections (connected_to_neuron, weight)=(0, -1.78097884881664555223e+02) (1, 1.34434856902016207414e+02) (2, 1.53338032790142246853e+01) (3, -5.59937424672341776954e+01) (4, -1.24999508972064731438e+02) (5, 3.30086215880561155700e+01) (6, 7.55212656640483004367e+01) (7, 2.42982904466965798917e+01) (0, 1.50000000000000000000e+03) (1, 1.50000000000000000000e+03) (2, 1.50000000000000000000e+03) (3, 2.10250258298438751581e+02) (4, 9.69638458654616783861e+01) (5, -8.82051693779347374402e+02) (6, 1.50000000000000000000e+03) (7, -5.82637880009703394535e+02) (0, -1.56585412643111006048e+01) (1, -6.49409978013696242982e+00) (2, 4.21090943153946710709e+01) (3, -1.85395815390695837266e+01) (4, 5.61568054830569085567e+00) (5, -3.15376759082213498075e+00) (6, 1.66554027154993811166e+00) (7, 3.21742906234604664206e+00) (0, 9.88035161723882637830e+00) (1, 3.17550100399106005611e+00) (2, -3.27938189350486481999e+01) (3, 9.38361759167083953059e+00) (4, -1.71775360892423734072e-01) (5, 3.06905009428917741054e-01) (6, 3.18976107952585063998e+00) (7, -3.49516458544568964228e+00) (0, 1.50000000000000000000e+03) (1, 1.50000000000000000000e+03) (2, 1.50000000000000000000e+03) (3, -1.37376771115254496181e+03) (4, -1.11482127670267414032e+03) (5, -1.50000000000000000000e+03) (6, 1.50000000000000000000e+03) (7, 1.48760731901970007129e+03) (0, 1.50000000000000000000e+03) (1, 1.50000000000000000000e+03) (2, 1.50000000000000000000e+03) (3, -3.83596304504114925749e+02) (4, -1.50000000000000000000e+03) (5, -5.89469443020689141122e+02) (6, 1.50000000000000000000e+03) (7, 2.42429643412029321325e+02) (0, -6.70589662987469239397e+01) (1, -1.37736418659153400768e+02) (2, -1.67505634836501087648e+02) (3, -2.55467289526689967261e+02) (4, -1.50000000000000000000e+03) (5, -1.50000000000000000000e+03) (6, 1.49994680006549219797e+03) (7, 2.85741087594042369346e+02) (0, 1.61374819310847925635e+01) (1, 8.91150525663567947277e+01) (2, -9.18852594731289826768e+01) (3, 8.72842047056188903298e+01) (4, 4.17595064080116373795e-01) (5, -2.35098423661133075768e+01) (6, 1.38016290755458364004e+01) (7, -1.86194597363288174563e+01) (8, -1.19951801508147637421e+00) (9, 4.95796723802787109303e-01) (10, -5.51735890511317705887e+00) (11, -1.64306560253218059131e+01) (12, 8.07675873827740975486e-01) (13, 3.86949813351785409932e-01) (14, 2.09827419266617715143e-01) (15, -1.39512213963801778860e+00) (16, 5.06091765502604484794e+00) 
