FANN_FLO_2.1
num_layers=3
learning_rate=0.700000
connection_rate=1.000000
network_type=0
learning_momentum=0.000000
training_algorithm=2
train_error_function=1
train_stop_function=0
cascade_output_change_fraction=0.010000
quickprop_decay=-0.000100
quickprop_mu=1.750000
rprop_increase_factor=1.200000
rprop_decrease_factor=0.500000
rprop_delta_min=0.000000
rprop_delta_max=50.000000
rprop_delta_zero=0.100000
cascade_output_stagnation_epochs=12
cascade_candidate_change_fraction=0.010000
cascade_candidate_stagnation_epochs=12
cascade_max_out_epochs=150
cascade_max_cand_epochs=150
cascade_num_candidate_groups=2
bit_fail_limit=3.49999999999999977796e-01
cascade_candidate_limit=1.00000000000000000000e+03
cascade_weight_multiplier=4.00000000000000022204e-01
cascade_activation_functions_count=10
cascade_activation_functions=3 5 7 8 10 11 14 15 16 17 
cascade_activation_steepnesses_count=4
cascade_activation_steepnesses=2.50000000000000000000e-01 5.00000000000000000000e-01 7.50000000000000000000e-01 1.00000000000000000000e+00 
layer_sizes=8 11 2 
scale_included=0
neurons (num_inputs, activation_function, activation_steepness)=(0, 0, 0.00000000000000000000e+00) (0, 0, 0.00000000000000000000e+00) (0, 0, 0.00000000000000000000e+00) (0, 0, 0.00000000000000000000e+00) (0, 0, 0.00000000000000000000e+00) (0, 0, 0.00000000000000000000e+00) (0, 0, 0.00000000000000000000e+00) (0, 0, 0.00000000000000000000e+00) (8, 4, 5.00000000000000000000e-01) (8, 4, 5.00000000000000000000e-01) (8, 4, 5.00000000000000000000e-01) (8, 4, 5.00000000000000000000e-01) (8, 4, 5.00000000000000000000e-01) (8, 4, 5.00000000000000000000e-01) (8, 4, 5.00000000000000000000e-01) (8, 4, 5.00000000000000000000e-01) (8, 4, 5.00000000000000000000e-01) (8, 4, 5.00000000000000000000e-01) (0, 0, 0.00000000000000000000e+00) (11, 6, 5.00000000000000000000e-01) (0, 6, 0.00000000000000000000e+00) 
connections (connected_to_neuron, weight)=(0, -1.50000000000000000000e+03) (1, -1.09553972084566271405e+03) (2, -7.33596508407733608692e+02) (3, -9.25039396586440716419e+02) (4, 1.50000000000000000000e+03) (5, -4.20640359745291391391e+02) (6, 1.40806511128966303659e+03) (7, 3.70871617272489004336e+02) (0, -1.22028390037591393025e+02) (1, 6.37154861073725911069e+01) (2, 9.00353508720802153675e+00) (3, 1.14233451381268352520e+02) (4, -7.86592483422213906152e+00) (5, -1.52320973547501314904e+00) (6, 7.92430546337348573616e+01) (7, -5.54184815139976194587e+01) (0, -3.42175863928723984486e+01) (1, -1.49975410369977612390e+03) (2, -2.16940213552239612227e+02) (3, 1.50000000000000000000e+03) (4, -1.42868924879347832757e+03) (5, 3.54609524945871498858e+02) (6, -1.50000000000000000000e+03) (7, 3.57578132309614261430e+02) (0, 1.64419041729750716740e+02) (1, 3.47531904061415218621e+02) (2, 1.11588148431688779283e+02) (3, 1.03730886715076280780e+02) (4, -1.13937276858070504204e+03) (5, 1.50000000000000000000e+03) (6, 1.67512756673087807258e+02) (7, -7.81877423638657518268e+01) (0, -1.18701520295349531864e+01) (1, 9.94145715470114410550e+00) (2, -1.92579575955016899513e+01) (3, 2.77038993514594231726e+01) (4, -5.96620131147430541318e+01) (5, 5.71157012878250256449e+01) (6, 2.53118120311382561738e+01) (7, 7.45448946790935718099e+00) (0, -1.50000000000000000000e+03) (1, 3.67580399131794763434e+02) (2, 1.32821747804671730364e+02) (3, -1.33274418700876321964e+03) (4, 1.49136928847673630116e+03) (5, -1.50000000000000000000e+03) (6, -5.67578746098222495675e+02) (7, 1.72827672567278767701e+02) (0, 1.01667573035855145491e+01) (1, -1.92869061757731650175e+01) (2, 8.31522257029571276732e-01) (3, -2.96413489932402676175e+01) (4, 9.96433337847336098037e+00) (5, -2.46331973680647120517e+00) (6, -1.08755520191874377467e+00) (7, 1.20925935152108543491e+01) (0, -1.50000000000000000000e+03) (1, -1.38465343932993005183e+03) (2, -7.53054470748813400860e+02) (3, -1.23689064343089444264e+03) (4, 1.50000000000000000000e+03) (5, -1.50000000000000000000e+03) (6, 1.50000000000000000000e+03) (7, 1.97735899139415721493e+02) (0, -1.50000000000000000000e+03) (1, 1.28475068099153872936e+02) (2, -7.26833531269309332856e+02) (3, -7.75599985466096427444e+02) (4, 1.50000000000000000000e+03) (5, -9.13610595083327439170e+01) (6, 1.49758064914200463136e+03) (7, -3.58249797691662877241e+02) (0, 1.50000000000000000000e+03) (1, 8.90146384967459425752e+02) (2, -1.50000000000000000000e+03) (3, 1.15008999066986734761e+03) (4, -1.50000000000000000000e+03) (5, 1.50000000000000000000e+03) (6, -1.50000000000000000000e+03) (7, -1.47440382679365598051e+03) (8, -2.65313541236422478775e+00) (9, 5.36826834684342202308e+00) (10, 5.34020135474447332768e+00) (11, 3.00077300419592862823e+00) (12, -3.47534599465921978378e+00) (13, -3.82770594766945704279e+00) (14, 9.45621567396659479243e+00) (15, -3.45745391025555059983e+00) (16, -1.70493154807108093785e+00) (17, 5.55154762709165705559e+00) (18, -4.81653577054670023472e+00) 
