FANN_FLO_2.1
num_layers=3
learning_rate=0.700000
connection_rate=1.000000
network_type=0
learning_momentum=0.000000
training_algorithm=2
train_error_function=1
train_stop_function=0
cascade_output_change_fraction=0.010000
quickprop_decay=-0.000100
quickprop_mu=1.750000
rprop_increase_factor=1.200000
rprop_decrease_factor=0.500000
rprop_delta_min=0.000000
rprop_delta_max=50.000000
rprop_delta_zero=0.100000
cascade_output_stagnation_epochs=12
cascade_candidate_change_fraction=0.010000
cascade_candidate_stagnation_epochs=12
cascade_max_out_epochs=150
cascade_max_cand_epochs=150
cascade_num_candidate_groups=2
bit_fail_limit=3.49999999999999977796e-01
cascade_candidate_limit=1.00000000000000000000e+03
cascade_weight_multiplier=4.00000000000000022204e-01
cascade_activation_functions_count=10
cascade_activation_functions=3 5 7 8 10 11 14 15 16 17 
cascade_activation_steepnesses_count=4
cascade_activation_steepnesses=2.50000000000000000000e-01 5.00000000000000000000e-01 7.50000000000000000000e-01 1.00000000000000000000e+00 
layer_sizes=8 11 2 
scale_included=0
neurons (num_inputs, activation_function, activation_steepness)=(0, 0, 0.00000000000000000000e+00) (0, 0, 0.00000000000000000000e+00) (0, 0, 0.00000000000000000000e+00) (0, 0, 0.00000000000000000000e+00) (0, 0, 0.00000000000000000000e+00) (0, 0, 0.00000000000000000000e+00) (0, 0, 0.00000000000000000000e+00) (0, 0, 0.00000000000000000000e+00) (8, 4, 5.00000000000000000000e-01) (8, 4, 5.00000000000000000000e-01) (8, 4, 5.00000000000000000000e-01) (8, 4, 5.00000000000000000000e-01) (8, 4, 5.00000000000000000000e-01) (8, 4, 5.00000000000000000000e-01) (8, 4, 5.00000000000000000000e-01) (8, 4, 5.00000000000000000000e-01) (8, 4, 5.00000000000000000000e-01) (8, 4, 5.00000000000000000000e-01) (0, 0, 0.00000000000000000000e+00) (11, 6, 5.00000000000000000000e-01) (0, 6, 0.00000000000000000000e+00) 
connections (connected_to_neuron, weight)=(0, -3.68479060354952636658e+01) (1, 3.62791308401225691682e+01) (2, 6.68794985044074223879e+01) (3, -5.64621040510998923878e+01) (4, -1.00123012145666010042e+02) (5, 1.29933181809985768496e+02) (6, -3.39785764829924730179e+01) (7, -6.33594185249779400237e+01) (0, 1.30204962302633498439e+03) (1, -6.51101393622698765284e+02) (2, 1.35430118393568909596e+03) (3, -1.39142075411607856950e+03) (4, -7.02491286310940722615e+02) (5, 2.29462389346828587122e+02) (6, -7.98768546662489939081e+02) (7, 1.44089054656802034060e+02) (0, -1.70052260677650899368e+01) (1, -5.72947768126471004280e+01) (2, 2.30133394899069656958e+02) (3, 8.92608809858342624466e+01) (4, -1.25149002206462895970e+02) (5, 1.01995956078399018452e+02) (6, 1.39197312706565075047e+01) (7, -2.37234836866167114522e+02) (0, -1.38181568993049125993e+02) (1, 3.80623870302035101076e+01) (2, 5.40198947905932413960e+01) (3, 6.11876302981876165177e+02) (4, 2.80600162518780507526e+02) (5, -2.73876969499211497805e+00) (6, 8.41733983744860694287e+01) (7, -6.63841512996160759030e+02) (0, 1.50000000000000000000e+03) (1, -6.16679490409021809683e+02) (2, 1.09368015782397401381e+03) (3, -9.19083805731819097673e+02) (4, -1.50000000000000000000e+03) (5, 9.49864868724125273047e+01) (6, -8.06119022017210681952e+02) (7, 1.74629810817597963535e+01) (0, 2.82914854418713105133e+02) (1, -4.70737843251038583503e+01) (2, 8.38556020512672972700e+00) (3, -1.66206789690247518365e+02) (4, -2.11469966221420293095e+02) (5, -1.33855824817673454419e+01) (6, -1.03726077900876498461e+03) (7, 8.72844393744094730891e+01) (0, 7.35413320257325011653e+01) (1, 3.00973950950420210404e+01) (2, -2.86492409597486030748e+01) (3, 6.53387509741712335654e+01) (4, -3.36460391438568393596e+01) (5, -3.34666664538511184901e+01) (6, -3.79502531111814267462e+00) (7, 1.31750625583886638026e+01) (0, -5.30105403771756982678e+02) (1, -6.56890311871003973465e+01) (2, -9.59821186549153026135e+02) (3, 1.50000000000000000000e+03) (4, 5.49728221306876321250e+02) (5, 3.33754012460038552490e+02) (6, 1.10874385898387430416e+02) (7, -3.76715360684991026119e+02) (0, 2.31658716657255553173e+02) (1, -7.49929407305453423760e+01) (2, -1.08111533512800885859e+01) (3, -1.05772753627288992107e+02) (4, 1.01146037640993071705e+02) (5, 4.24150763500103344938e+00) (6, -1.95600508416113598287e+02) (7, 5.38242832361266252406e+01) (0, 1.27401217291707644108e+03) (1, -6.19175608642680685989e+02) (2, 9.21044516798408039904e+02) (3, -1.15648267021776155161e+03) (4, 6.37036860260376897713e+02) (5, -4.65946374292333302947e+02) (6, -5.43377263666514863871e+02) (7, -1.04107254867510846452e+02) (8, 1.63476251507991454659e+00) (9, -9.74626376147382900150e-01) (10, -7.46706461481100891575e+00) (11, -1.17805247592796717981e+01) (12, 2.59982162481008716171e+00) (13, 3.72712727978521041194e+00) (14, -1.50521041518187459474e+00) (15, -1.55178549477686278379e+00) (16, 2.00720321296763470897e+00) (17, -6.32829216175401665367e-01) (18, 9.26482744608396191488e-01) 
