FANN_FLO_2.1
num_layers=3
learning_rate=0.700000
connection_rate=1.000000
network_type=0
learning_momentum=0.000000
training_algorithm=2
train_error_function=1
train_stop_function=0
cascade_output_change_fraction=0.010000
quickprop_decay=-0.000100
quickprop_mu=1.750000
rprop_increase_factor=1.200000
rprop_decrease_factor=0.500000
rprop_delta_min=0.000000
rprop_delta_max=50.000000
rprop_delta_zero=0.100000
cascade_output_stagnation_epochs=12
cascade_candidate_change_fraction=0.010000
cascade_candidate_stagnation_epochs=12
cascade_max_out_epochs=150
cascade_max_cand_epochs=150
cascade_num_candidate_groups=2
bit_fail_limit=3.49999999999999977796e-01
cascade_candidate_limit=1.00000000000000000000e+03
cascade_weight_multiplier=4.00000000000000022204e-01
cascade_activation_functions_count=10
cascade_activation_functions=3 5 7 8 10 11 14 15 16 17 
cascade_activation_steepnesses_count=4
cascade_activation_steepnesses=2.50000000000000000000e-01 5.00000000000000000000e-01 7.50000000000000000000e-01 1.00000000000000000000e+00 
layer_sizes=8 8 2 
scale_included=0
neurons (num_inputs, activation_function, activation_steepness)=(0, 0, 0.00000000000000000000e+00) (0, 0, 0.00000000000000000000e+00) (0, 0, 0.00000000000000000000e+00) (0, 0, 0.00000000000000000000e+00) (0, 0, 0.00000000000000000000e+00) (0, 0, 0.00000000000000000000e+00) (0, 0, 0.00000000000000000000e+00) (0, 0, 0.00000000000000000000e+00) (8, 4, 5.00000000000000000000e-01) (8, 4, 5.00000000000000000000e-01) (8, 4, 5.00000000000000000000e-01) (8, 4, 5.00000000000000000000e-01) (8, 4, 5.00000000000000000000e-01) (8, 4, 5.00000000000000000000e-01) (8, 4, 5.00000000000000000000e-01) (0, 0, 0.00000000000000000000e+00) (8, 6, 5.00000000000000000000e-01) (0, 6, 0.00000000000000000000e+00) 
connections (connected_to_neuron, weight)=(0, 4.63478954815705890269e+01) (1, -9.38285215243922010586e+00) (2, -3.95182217291866635378e+01) (3, 5.37051603148143215094e+01) (4, 1.08362411606005863973e+01) (5, 5.07189811014393612254e+01) (6, -6.98863898835586780933e+01) (7, -2.93930764174438365899e+01) (0, 6.03576309895211132739e-02) (1, 1.51271191322777251997e+01) (2, -3.48532914956041084409e+00) (3, 8.55779747884003505476e+00) (4, -1.17036595419762043946e+01) (5, -1.85090632284992082646e+01) (6, 3.93502298765640716738e+01) (7, 4.46089334621711497419e+00) (0, -6.70515154149352952118e+02) (1, 4.61543545135466217744e+02) (2, 8.71598389078925606555e+02) (3, -1.50000000000000000000e+03) (4, 9.72553620784528902732e+02) (5, 1.50000000000000000000e+03) (6, 1.12494180266061803763e+02) (7, 7.94453742185624065542e+01) (0, 3.24685771784817447383e+01) (1, -1.25710121464063302454e+01) (2, -5.46966800871534264417e+00) (3, -2.04780983409867936018e+01) (4, 6.29667498044013171921e+01) (5, 6.31421327009227817406e-02) (6, -1.60146957863653156551e+01) (7, -1.83020341975823335190e+01) (0, -8.35390296983641889028e+00) (1, 3.75689633782996379452e+00) (2, 4.18540921921947806084e+00) (3, 5.58311819315789392704e+00) (4, -2.97185534717486135037e+01) (5, -1.13380056473211432433e+00) (6, 3.85479657181251678111e+00) (7, 1.02560059598364574640e+01) (0, -3.21007309539816221289e+00) (1, 1.49189190363574795128e+01) (2, -3.12890788283466081410e+00) (3, 6.95989352536775385261e+00) (4, -1.02827127920883878431e+01) (5, -1.57790219043970747492e+01) (6, 3.57219410858887940208e+01) (7, 3.90501710632452470051e+00) (0, -2.27308221325647927813e+01) (1, 3.75048979271948539349e+01) (2, 3.60357334903814807703e+00) (3, 2.79608125813512797819e+00) (4, -7.74466857095923302268e+01) (5, 1.80005076115557436367e+01) (6, 2.06396952353683021952e-01) (7, -4.11141736328120510624e-01) (8, 1.05944502001695539661e+00) (9, -2.73317765237711398640e+01) (10, -9.02832183995222581352e-01) (11, 4.34741712935191859657e+00) (12, 5.37199518659791586117e+00) (13, 2.72295106502187103104e+01) (14, -2.01259641312923847067e+01) (15, -4.32101224993604926539e+00) 
