FANN_FLO_2.1
num_layers=3
learning_rate=0.700000
connection_rate=1.000000
network_type=0
learning_momentum=0.000000
training_algorithm=2
train_error_function=1
train_stop_function=0
cascade_output_change_fraction=0.010000
quickprop_decay=-0.000100
quickprop_mu=1.750000
rprop_increase_factor=1.200000
rprop_decrease_factor=0.500000
rprop_delta_min=0.000000
rprop_delta_max=50.000000
rprop_delta_zero=0.100000
cascade_output_stagnation_epochs=12
cascade_candidate_change_fraction=0.010000
cascade_candidate_stagnation_epochs=12
cascade_max_out_epochs=150
cascade_max_cand_epochs=150
cascade_num_candidate_groups=2
bit_fail_limit=3.49999999999999977796e-01
cascade_candidate_limit=1.00000000000000000000e+03
cascade_weight_multiplier=4.00000000000000022204e-01
cascade_activation_functions_count=10
cascade_activation_functions=3 5 7 8 10 11 14 15 16 17 
cascade_activation_steepnesses_count=4
cascade_activation_steepnesses=2.50000000000000000000e-01 5.00000000000000000000e-01 7.50000000000000000000e-01 1.00000000000000000000e+00 
layer_sizes=8 10 2 
scale_included=0
neurons (num_inputs, activation_function, activation_steepness)=(0, 0, 0.00000000000000000000e+00) (0, 0, 0.00000000000000000000e+00) (0, 0, 0.00000000000000000000e+00) (0, 0, 0.00000000000000000000e+00) (0, 0, 0.00000000000000000000e+00) (0, 0, 0.00000000000000000000e+00) (0, 0, 0.00000000000000000000e+00) (0, 0, 0.00000000000000000000e+00) (8, 4, 5.00000000000000000000e-01) (8, 4, 5.00000000000000000000e-01) (8, 4, 5.00000000000000000000e-01) (8, 4, 5.00000000000000000000e-01) (8, 4, 5.00000000000000000000e-01) (8, 4, 5.00000000000000000000e-01) (8, 4, 5.00000000000000000000e-01) (8, 4, 5.00000000000000000000e-01) (8, 4, 5.00000000000000000000e-01) (0, 0, 0.00000000000000000000e+00) (10, 6, 5.00000000000000000000e-01) (0, 6, 0.00000000000000000000e+00) 
connections (connected_to_neuron, weight)=(0, 1.50000000000000000000e+03) (1, 5.94781790825550501722e+02) (2, 1.50000000000000000000e+03) (3, -5.86215812931517810114e+00) (4, -7.78183990545168171593e+02) (5, -1.22643180260015810745e+03) (6, 1.50000000000000000000e+03) (7, 1.71230552724886535998e+02) (0, -8.78090203807784597245e+00) (1, -6.18799488785749840503e+00) (2, 2.12243913533158456985e+00) (3, 8.53916240709934726283e+00) (4, -5.57163756755742056725e+00) (5, -1.73851131760547961136e+00) (6, -5.89734351322430683240e+00) (7, 1.92016040519259312269e+00) (0, -4.13104869225784057107e+02) (1, 9.74689261857038644621e+01) (2, 2.50339930121673184260e+01) (3, 3.39967368760045644649e+02) (4, -2.86654326616587809440e+02) (5, -4.23720740395969102110e+01) (6, 4.23630500609289185832e+02) (7, -1.17262685000154846193e+02) (0, 5.12709163385680355418e+01) (1, -2.43488797425515919315e+01) (2, -2.72070041843462639974e+01) (3, 2.38417043812509774625e+01) (4, -3.91342649919743523768e+00) (5, 8.14271596204351055803e+00) (6, -1.42497456328600520692e+02) (7, 1.23763700024595451055e+01) (0, 1.77730495913898884908e+01) (1, 3.44491236312684812049e+00) (2, -5.86095481023695263900e+00) (3, 1.28485237918786197042e+01) (4, -3.05775471265299962909e+01) (5, -5.23560202402695074042e-01) (6, -2.16505007986333719572e+00) (7, -4.62435500813599986714e+00) (0, 9.56898682145047416725e+01) (1, -1.16548839188962631397e+02) (2, -3.20708470347543197931e+02) (3, 3.00767404634125739449e+02) (4, -2.27022036391991179016e+02) (5, 3.88980850925156076414e+01) (6, 5.11397308830232333321e+00) (7, 1.85764642355248582817e+02) (0, 3.14010078554606366197e+02) (1, -8.19961094891690095210e+02) (2, -1.94174063256111338660e+02) (3, -5.52796444024565190034e+01) (4, 1.50000000000000000000e+03) (5, -1.07624840532989807684e+02) (6, -4.52238214036541421592e+01) (7, 2.45040444167600206526e+01) (0, -2.73227337594820880895e+02) (1, -1.94537108166047261193e+01) (2, 3.76287260527784610531e+01) (3, 1.93700555603759823953e+02) (4, -5.17917207079705761430e+01) (5, -2.23936292430380667895e+01) (6, 1.60017773413870344257e+02) (7, -6.28911069757316365525e+00) (0, -1.60722085904716216476e+01) (1, -2.09819621302238079608e+00) (2, -6.22579624168703560372e+00) (3, 1.34908869969662603694e+01) (4, -1.83877225526836718394e+00) (5, -1.32740399136871989327e+00) (6, 1.58885626388029277400e+00) (7, 1.62638766144192192797e+00) (8, -2.98471435859865152906e+00) (9, 6.45041974649678273579e+00) (10, -1.88477586739969837915e+00) (11, -1.96892289015511390282e+00) (12, 4.95314486496747985456e+00) (13, 4.91736142397310338481e+00) (14, 3.56115211898009276226e+00) (15, 1.02226533641893113646e+00) (16, -4.63734340425370206162e+00) (17, -5.53655226953520873678e+00) 
