FANN_FLO_2.1
num_layers=4
learning_rate=0.700000
connection_rate=1.000000
network_type=0
learning_momentum=0.000000
training_algorithm=2
train_error_function=1
train_stop_function=0
cascade_output_change_fraction=0.010000
quickprop_decay=-0.000100
quickprop_mu=1.750000
rprop_increase_factor=1.200000
rprop_decrease_factor=0.500000
rprop_delta_min=0.000000
rprop_delta_max=50.000000
rprop_delta_zero=0.100000
cascade_output_stagnation_epochs=12
cascade_candidate_change_fraction=0.010000
cascade_candidate_stagnation_epochs=12
cascade_max_out_epochs=150
cascade_max_cand_epochs=150
cascade_num_candidate_groups=2
bit_fail_limit=3.49999999999999977796e-01
cascade_candidate_limit=1.00000000000000000000e+03
cascade_weight_multiplier=4.00000000000000022204e-01
cascade_activation_functions_count=10
cascade_activation_functions=3 5 7 8 10 11 14 15 16 17 
cascade_activation_steepnesses_count=4
cascade_activation_steepnesses=2.50000000000000000000e-01 5.00000000000000000000e-01 7.50000000000000000000e-01 1.00000000000000000000e+00 
layer_sizes=8 10 10 2 
scale_included=0
neurons (num_inputs, activation_function, activation_steepness)=(0, 0, 0.00000000000000000000e+00) (0, 0, 0.00000000000000000000e+00) (0, 0, 0.00000000000000000000e+00) (0, 0, 0.00000000000000000000e+00) (0, 0, 0.00000000000000000000e+00) (0, 0, 0.00000000000000000000e+00) (0, 0, 0.00000000000000000000e+00) (0, 0, 0.00000000000000000000e+00) (8, 4, 5.00000000000000000000e-01) (8, 4, 5.00000000000000000000e-01) (8, 4, 5.00000000000000000000e-01) (8, 4, 5.00000000000000000000e-01) (8, 4, 5.00000000000000000000e-01) (8, 4, 5.00000000000000000000e-01) (8, 4, 5.00000000000000000000e-01) (8, 4, 5.00000000000000000000e-01) (8, 4, 5.00000000000000000000e-01) (0, 0, 0.00000000000000000000e+00) (10, 4, 5.00000000000000000000e-01) (10, 4, 5.00000000000000000000e-01) (10, 4, 5.00000000000000000000e-01) (10, 4, 5.00000000000000000000e-01) (10, 4, 5.00000000000000000000e-01) (10, 4, 5.00000000000000000000e-01) (10, 4, 5.00000000000000000000e-01) (10, 4, 5.00000000000000000000e-01) (10, 4, 5.00000000000000000000e-01) (0, 0, 0.00000000000000000000e+00) (10, 6, 5.00000000000000000000e-01) (0, 6, 0.00000000000000000000e+00) 
connections (connected_to_neuron, weight)=(0, -5.33287328594776909085e+02) (1, -3.50687178146953385749e+02) (2, -1.73407875768838835029e+02) (3, 1.44964794806569761931e+03) (4, 1.43714647998117243333e+03) (5, -8.92159314850329224100e+02) (6, -4.67324390115861092454e+02) (7, 1.53304606689999189939e+02) (0, -1.11440074870545072372e+03) (1, -9.38399783150894336359e+02) (2, 4.66062440930815625961e+02) (3, 1.47757796188849692953e+03) (4, -2.11822886195536909781e+02) (5, -5.52019482820017174163e+02) (6, 4.97421035586382458860e+02) (7, 1.81739841666159094302e+02) (0, -1.92569394015056531089e+02) (1, 2.41064363125056672743e+02) (2, 1.32772682387626872469e+00) (3, 1.03729563700463614850e+02) (4, -4.38240215597486368893e+01) (5, 3.77082015365896650039e+00) (6, -1.59060029267457316848e+01) (7, -1.63324682185469178819e+01) (0, 1.44535895782572561075e+03) (1, 1.32720504805701875739e+03) (2, -1.29835676866638527827e+03) (3, -1.30165624594902465105e+03) (4, 7.78929295563250093437e+02) (5, -5.15588356272297005489e+02) (6, -8.96759451729483771487e+02) (7, 8.58586310589743391120e+01) (0, -8.63628391076730963505e+01) (1, -1.07076382330858294267e+02) (2, 2.12396356125100460588e+01) (3, -3.41878195937080775479e+01) (4, 6.27902465693274791647e+01) (5, -3.78528840309630027150e+02) (6, 2.76570063178626639910e+02) (7, -1.84045675488062165925e+01) (0, -6.88627482288345049710e+02) (1, -3.11855808500613193246e+02) (2, 4.52562690809917626211e+02) (3, 1.49925691301271558586e+03) (4, 1.49931622417844732809e+03) (5, -1.30828848635789881882e+03) (6, -1.27871176436187170111e+03) (7, 7.47292029536950622060e+02) (0, 1.55831753894893214607e+01) (1, 6.82404307477919758185e+01) (2, -4.21409943584216080126e+01) (3, 2.79719896415432742742e+01) (4, -1.37377180643593650444e+01) (5, 2.59682831392016453265e+01) (6, -5.54403217035270756696e+01) (7, -1.99241670442935898677e+01) (0, -1.47674814888394212176e+03) (1, 1.47984863785621269017e+03) (2, 1.41238362780902457416e+03) (3, 1.30718936806790651417e+02) (4, 1.47935984618323300310e+03) (5, 2.74186190268579196072e+02) (6, 2.00143542868075229535e+02) (7, -1.30396628008030188539e+03) (0, -2.88671797988381051425e+01) (1, 1.80904863617818563171e+01) (2, -2.31587164814496127008e+01) (3, -5.45826780885878903860e+01) (4, 2.51809136773536543785e+01) (5, 1.11390952900864199648e+01) (6, 3.32721099703751264087e+01) (7, 1.46931353330149132574e+01) (8, -1.94894927665455952592e+02) (9, -3.59971909542641341773e+01) (10, 1.50000000000000000000e+03) (11, -1.07089005370132485950e+03) (12, -1.34617476305880749976e+01) (13, -8.92338477452450774763e+02) (14, -4.56792877885282777584e+00) (15, 1.05125673121884074135e+03) (16, -9.10575881409070291284e+01) (17, -3.39006597748624983524e+02) (8, 3.91140502716419064200e+02) (9, 1.16474184987885632836e+03) (10, -1.37512191722412876516e+03) (11, 6.52741323186118961530e+02) (12, -5.64935587133878343025e+01) (13, -1.00273963689174172487e+03) (14, 1.19402375980229612651e+03) (15, 7.14807375994394760710e+02) (16, -1.19523316643959503836e+02) (17, 1.92074813302241267365e+02) (8, 1.13696157904961114582e+03) (9, 1.03931962335857519975e+02) (10, 1.22165244931094139247e+03) (11, -1.14853111166913072339e+03) (12, -4.11894192971965537708e+02) (13, -9.47027875334175973876e+02) (14, 5.66908788259224820649e+02) (15, -7.35719151006985612185e+02) (16, 6.24121874006563871262e+02) (17, 4.63541490928671464644e+02) (8, 7.09028200363964856479e+02) (9, -1.00658234388922244307e+03) (10, -1.15390493877202857220e+03) (11, 6.33626280345073951139e+02) (12, -9.42664018150112724470e+02) (13, 1.27147917598343269674e+03) (14, -1.20926782334577228539e+03) (15, 1.29168382656676044462e+03) (16, -1.26140648480590721192e+03) (17, 3.23200352210737321457e+02) (8, 1.24114346087801209251e+03) (9, 6.02378024323281124452e+02) (10, -2.46693631905930743642e+02) (11, -8.57329537903770528828e+02) (12, 7.25453785292912925797e+02) (13, -5.82311457289147597294e+02) (14, -2.58626064747280508982e+02) (15, 9.21089759316839291614e+01) (16, 1.27035408567397212209e+03) (17, -2.51977255315757645349e+02) (8, 5.12671306209844942714e+02) (9, -8.62326703906628267760e+02) (10, -3.37548101015023178206e+02) (11, 2.08417012823823938561e+02) (12, -2.47129058505003939672e+02) (13, 7.57021819712089836685e+02) (14, 2.65862639050294717435e+02) (15, 8.35867021358071269788e+02) (16, -8.73029252519398937693e+02) (17, -9.19747518155658241312e+01) (8, -1.12534784534447283022e+02) (9, -2.17107433163633118056e+02) (10, 1.48988315940396523729e+03) (11, -1.13539945001272485570e+03) (12, 1.36526908526778242958e+03) (13, -8.99773845750634563956e+02) (14, 2.61454000258210271568e+02) (15, 2.08823026980316711843e+02) (16, 4.77243782930649842910e+02) (17, -9.43665304630065634228e+02) (8, -2.21404857131091432620e+02) (9, -5.41182972829553250449e+02) (10, 4.16523436655756938762e+02) (11, -1.46509766734001436816e+03) (12, -2.02718207418646329643e+02) (13, -7.89983074584144251418e+00) (14, -8.47241617373033818694e+02) (15, 1.38671179104632255985e+03) (16, -9.04764037213175470242e+02) (17, 5.84331398429897035385e+02) (8, -2.30444583515555819986e+02) (9, -1.44890337174315931179e+02) (10, 1.49686366055872417746e+03) (11, -3.80401895067974805897e+02) (12, 5.13184280452236862402e+02) (13, 6.18372907132502632521e+02) (14, 2.28919080558475940279e+02) (15, -9.86898418177502549042e+02) (16, 6.07157632233467666083e+02) (17, -9.78958084640923971165e+02) (18, -9.32939164336691106882e-01) (19, 4.39291953700202519872e-01) (20, -5.48654091848446490154e-01) (21, 5.64335895083033278752e-01) (22, -4.20092197526141020170e-01) (23, -6.13636654509747359043e-01) (24, -9.39436836320844542714e-02) (25, 8.44322485824272273014e-01) (26, -5.02127423081297763474e-01) (27, 1.25894105834866620874e+00) 
