FANN_FLO_2.1
num_layers=3
learning_rate=0.700000
connection_rate=1.000000
network_type=0
learning_momentum=0.000000
training_algorithm=2
train_error_function=1
train_stop_function=0
cascade_output_change_fraction=0.010000
quickprop_decay=-0.000100
quickprop_mu=1.750000
rprop_increase_factor=1.200000
rprop_decrease_factor=0.500000
rprop_delta_min=0.000000
rprop_delta_max=50.000000
rprop_delta_zero=0.100000
cascade_output_stagnation_epochs=12
cascade_candidate_change_fraction=0.010000
cascade_candidate_stagnation_epochs=12
cascade_max_out_epochs=150
cascade_max_cand_epochs=150
cascade_num_candidate_groups=2
bit_fail_limit=3.49999999999999977796e-01
cascade_candidate_limit=1.00000000000000000000e+03
cascade_weight_multiplier=4.00000000000000022204e-01
cascade_activation_functions_count=10
cascade_activation_functions=3 5 7 8 10 11 14 15 16 17 
cascade_activation_steepnesses_count=4
cascade_activation_steepnesses=2.50000000000000000000e-01 5.00000000000000000000e-01 7.50000000000000000000e-01 1.00000000000000000000e+00 
layer_sizes=8 11 2 
scale_included=0
neurons (num_inputs, activation_function, activation_steepness)=(0, 0, 0.00000000000000000000e+00) (0, 0, 0.00000000000000000000e+00) (0, 0, 0.00000000000000000000e+00) (0, 0, 0.00000000000000000000e+00) (0, 0, 0.00000000000000000000e+00) (0, 0, 0.00000000000000000000e+00) (0, 0, 0.00000000000000000000e+00) (0, 0, 0.00000000000000000000e+00) (8, 4, 5.00000000000000000000e-01) (8, 4, 5.00000000000000000000e-01) (8, 4, 5.00000000000000000000e-01) (8, 4, 5.00000000000000000000e-01) (8, 4, 5.00000000000000000000e-01) (8, 4, 5.00000000000000000000e-01) (8, 4, 5.00000000000000000000e-01) (8, 4, 5.00000000000000000000e-01) (8, 4, 5.00000000000000000000e-01) (8, 4, 5.00000000000000000000e-01) (0, 0, 0.00000000000000000000e+00) (11, 6, 5.00000000000000000000e-01) (0, 6, 0.00000000000000000000e+00) 
connections (connected_to_neuron, weight)=(0, 1.50000000000000000000e+03) (1, -4.27533724113008190670e+02) (2, -1.46218602025310542558e+03) (3, -1.38048549262859728515e+03) (4, 1.25770477071512260636e+02) (5, -1.34551886120202448183e+03) (6, 1.50000000000000000000e+03) (7, 1.01975591860418887791e+02) (0, -7.64351842915397927669e+00) (1, 1.19500016113202160994e+01) (2, 5.56938175714718575193e+00) (3, 5.37047625515250315331e-01) (4, -2.34735443806470520656e+01) (5, 2.47017421611233567447e+00) (6, 1.91942692938025993854e+00) (7, -2.08376400561537250544e-01) (0, -1.01574223947200135143e+01) (1, -6.98081908600556211297e+00) (2, -5.18205209859643289860e+00) (3, -3.56673105497349363091e+00) (4, 1.32003467577232509456e+01) (5, 2.38487995629386269059e+01) (6, -4.60309688658850433285e+01) (7, -6.10895996843148747502e+00) (0, -2.23267809318930119389e+02) (1, 7.96425901698559073338e+02) (2, -3.74331941358310075429e+02) (3, -9.99250993949399912708e+02) (4, -1.91440414754979038037e+01) (5, -1.52820703870772376831e+02) (6, 5.76048157148125369531e+02) (7, -1.32976962171952095559e+02) (0, -3.44437109109673031071e+02) (1, 2.03156087828006292284e+02) (2, 2.69516029181505700763e+02) (3, 3.02875367777021331506e+01) (4, -2.86420676607606097264e+01) (5, -1.72077131005284712728e+02) (6, -1.50000000000000000000e+03) (7, -3.00746849624884013963e+01) (0, 5.44251967765881430883e-03) (1, 7.04910199574364959574e+00) (2, 2.75963642240845441478e+00) (3, 3.67472686207910459455e-01) (4, -7.88578973377319858429e+00) (5, -1.17894718287178879024e+01) (6, 2.83650686329725765233e+01) (7, 3.21017626358666507969e+00) (0, 1.50000000000000000000e+03) (1, -1.43433233775029316348e+03) (2, -6.88533039738592037793e+02) (3, -2.03871371268011273514e+02) (4, -1.50000000000000000000e+03) (5, -1.59027361177754311683e+01) (6, 1.50000000000000000000e+03) (7, -6.18274923654410599738e+02) (0, 4.31391324858251667962e+00) (1, 9.95608102462565480728e-01) (2, 3.49712836678696792347e+00) (3, 8.70803674204244648749e-01) (4, -1.68759552445081055794e+01) (5, -4.10790195644074263015e-01) (6, 1.99569373001824379443e+00) (7, 4.19365861650556670526e-01) (0, 4.74846203140537603815e+00) (1, -6.24435343217518590286e-01) (2, 3.57279703458029906926e+00) (3, 4.92385021247884746565e-01) (4, -1.51046968614786472074e+01) (5, -1.00092883211296057588e+00) (6, 2.88565828425374570898e+00) (7, 5.24417609055872313562e-01) (0, -5.68296540951120210394e+00) (1, -4.05516238722366395564e+00) (2, 8.29419920854184589132e+00) (3, 1.65277608337489478885e+00) (4, -2.11974724936892711114e+00) (5, -9.81966701727772894870e-01) (6, -1.04383156137341419623e+01) (7, -3.05685283829761145213e+00) (8, 7.21825793443074292810e-01) (9, -7.30070186170998525199e+00) (10, 8.81455603873070714371e+00) (11, -1.22930246521462938070e+00) (12, -3.25861773911992713693e+00) (13, 9.28221603116216975593e+00) (14, 1.12437740821099296795e+00) (15, 2.51228619231288980984e+01) (16, -2.02444690516010084025e+01) (17, 1.50557056209234509936e+01) (18, -9.06323466238964314812e+00) 
