FANN_FLO_2.1
num_layers=3
learning_rate=0.700000
connection_rate=1.000000
network_type=0
learning_momentum=0.000000
training_algorithm=2
train_error_function=1
train_stop_function=0
cascade_output_change_fraction=0.010000
quickprop_decay=-0.000100
quickprop_mu=1.750000
rprop_increase_factor=1.200000
rprop_decrease_factor=0.500000
rprop_delta_min=0.000000
rprop_delta_max=50.000000
rprop_delta_zero=0.100000
cascade_output_stagnation_epochs=12
cascade_candidate_change_fraction=0.010000
cascade_candidate_stagnation_epochs=12
cascade_max_out_epochs=150
cascade_max_cand_epochs=150
cascade_num_candidate_groups=2
bit_fail_limit=3.49999999999999977796e-01
cascade_candidate_limit=1.00000000000000000000e+03
cascade_weight_multiplier=4.00000000000000022204e-01
cascade_activation_functions_count=10
cascade_activation_functions=3 5 7 8 10 11 14 15 16 17 
cascade_activation_steepnesses_count=4
cascade_activation_steepnesses=2.50000000000000000000e-01 5.00000000000000000000e-01 7.50000000000000000000e-01 1.00000000000000000000e+00 
layer_sizes=8 9 2 
scale_included=0
neurons (num_inputs, activation_function, activation_steepness)=(0, 0, 0.00000000000000000000e+00) (0, 0, 0.00000000000000000000e+00) (0, 0, 0.00000000000000000000e+00) (0, 0, 0.00000000000000000000e+00) (0, 0, 0.00000000000000000000e+00) (0, 0, 0.00000000000000000000e+00) (0, 0, 0.00000000000000000000e+00) (0, 0, 0.00000000000000000000e+00) (8, 4, 5.00000000000000000000e-01) (8, 4, 5.00000000000000000000e-01) (8, 4, 5.00000000000000000000e-01) (8, 4, 5.00000000000000000000e-01) (8, 4, 5.00000000000000000000e-01) (8, 4, 5.00000000000000000000e-01) (8, 4, 5.00000000000000000000e-01) (8, 4, 5.00000000000000000000e-01) (0, 0, 0.00000000000000000000e+00) (9, 6, 5.00000000000000000000e-01) (0, 6, 0.00000000000000000000e+00) 
connections (connected_to_neuron, weight)=(0, 1.50000000000000000000e+03) (1, 1.11844347137759859834e+03) (2, -4.18318899159965667423e+02) (3, 4.45744445597120375169e+02) (4, -1.28813579563074040379e+03) (5, 1.20898290478527587766e+03) (6, -1.00468612739349748608e+03) (7, -4.48573823447397558084e+02) (0, -1.52488261461040264244e+00) (1, -2.01952044677866693334e+00) (2, -7.67240267482719673353e-01) (3, 4.53744122863688925662e+00) (4, -1.39613031890103567179e+00) (5, -1.59273897794445158382e+01) (6, 1.76424675282902998497e+00) (7, 8.23912817661330443286e+00) (0, -1.07813986593514215429e+02) (1, -3.63069663210926876218e+01) (2, -1.53048118318607322408e+02) (3, 2.07063165444188186370e+01) (4, -1.98054164838290688522e+02) (5, -2.58241200939352836485e+02) (6, 1.63764526597961207699e+02) (7, 3.50440831722705468110e+02) (0, -4.33351846266524987072e+00) (1, -1.70669054161636353228e+01) (2, -1.02525546994993188576e+01) (3, 8.50837506654142217144e+00) (4, 1.31989169002120299012e+01) (5, -1.69354354791690582260e+01) (6, 8.47254749508739912756e+00) (7, 3.46082848891046390705e+00) (0, -3.31005083707111282365e+02) (1, 1.98117283608529845651e+02) (2, -7.70077821105996804363e+02) (3, 9.48057275280691214903e+02) (4, 4.43404246402255125759e+02) (5, -1.50000000000000000000e+03) (6, 3.46232954917044196463e+02) (7, 9.62373431464467543606e+00) (0, 8.61841114525761099685e+02) (1, -1.02911866758543396827e+03) (2, 2.88445589857724655758e+02) (3, 5.81459000769357885474e+02) (4, -4.12576296902572551062e+02) (5, -7.29032136293258417936e+02) (6, 9.38385581548131654017e+02) (7, -2.90591413032149603168e+02) (0, -2.44959964921993616827e+02) (1, -2.77186270024868633755e+02) (2, 1.50000000000000000000e+03) (3, 3.59120040889147162488e+02) (4, -1.01086304918896519212e+03) (5, -6.62114878726380538865e+02) (6, -2.15485278975929134049e+02) (7, -1.33620322464483962221e+02) (0, -2.80993376310296127940e+02) (1, -1.36909612075068366721e+03) (2, 1.04755664931313185662e+03) (3, -6.37157206091703073980e+02) (4, 1.46935597001831683883e+03) (5, -1.50000000000000000000e+03) (6, 7.47485027441633747003e+02) (7, -2.97903897609093633037e+02) (8, 2.95977833341859186689e+00) (9, 2.97633970101815625853e+00) (10, -1.25099652724464172060e+00) (11, 5.64479840819751998993e+00) (12, -3.37200037153409137858e+00) (13, -1.40090748961686450969e+00) (14, 2.67352722629734174120e+00) (15, -3.09438547613535996916e+00) (16, -2.57036053586729096310e+00) 
