FANN_FLO_2.1
num_layers=3
learning_rate=0.700000
connection_rate=1.000000
network_type=0
learning_momentum=0.000000
training_algorithm=2
train_error_function=1
train_stop_function=0
cascade_output_change_fraction=0.010000
quickprop_decay=-0.000100
quickprop_mu=1.750000
rprop_increase_factor=1.200000
rprop_decrease_factor=0.500000
rprop_delta_min=0.000000
rprop_delta_max=50.000000
rprop_delta_zero=0.100000
cascade_output_stagnation_epochs=12
cascade_candidate_change_fraction=0.010000
cascade_candidate_stagnation_epochs=12
cascade_max_out_epochs=150
cascade_max_cand_epochs=150
cascade_num_candidate_groups=2
bit_fail_limit=3.49999999999999977796e-01
cascade_candidate_limit=1.00000000000000000000e+03
cascade_weight_multiplier=4.00000000000000022204e-01
cascade_activation_functions_count=10
cascade_activation_functions=3 5 7 8 10 11 14 15 16 17 
cascade_activation_steepnesses_count=4
cascade_activation_steepnesses=2.50000000000000000000e-01 5.00000000000000000000e-01 7.50000000000000000000e-01 1.00000000000000000000e+00 
layer_sizes=8 16 2 
scale_included=0
neurons (num_inputs, activation_function, activation_steepness)=(0, 0, 0.00000000000000000000e+00) (0, 0, 0.00000000000000000000e+00) (0, 0, 0.00000000000000000000e+00) (0, 0, 0.00000000000000000000e+00) (0, 0, 0.00000000000000000000e+00) (0, 0, 0.00000000000000000000e+00) (0, 0, 0.00000000000000000000e+00) (0, 0, 0.00000000000000000000e+00) (8, 4, 5.00000000000000000000e-01) (8, 4, 5.00000000000000000000e-01) (8, 4, 5.00000000000000000000e-01) (8, 4, 5.00000000000000000000e-01) (8, 4, 5.00000000000000000000e-01) (8, 4, 5.00000000000000000000e-01) (8, 4, 5.00000000000000000000e-01) (8, 4, 5.00000000000000000000e-01) (8, 4, 5.00000000000000000000e-01) (8, 4, 5.00000000000000000000e-01) (8, 4, 5.00000000000000000000e-01) (8, 4, 5.00000000000000000000e-01) (8, 4, 5.00000000000000000000e-01) (8, 4, 5.00000000000000000000e-01) (8, 4, 5.00000000000000000000e-01) (0, 0, 0.00000000000000000000e+00) (16, 6, 5.00000000000000000000e-01) (0, 6, 0.00000000000000000000e+00) 
connections (connected_to_neuron, weight)=(0, -1.58467749598293863755e+02) (1, 2.40549076188444495017e+01) (2, 3.99323314184168509655e+01) (3, 4.08892876409197526755e+02) (4, -1.59219880183919002548e+02) (5, 1.50000000000000000000e+03) (6, -7.42797004620766330163e+01) (7, -3.02626679425942839430e+01) (0, 1.04178626261739145775e+03) (1, 1.11044978763016774792e+03) (2, 1.29757529928706685496e+03) (3, -4.83192310271144776834e+02) (4, -1.50000000000000000000e+03) (5, 1.50000000000000000000e+03) (6, -2.77748790500284883365e+02) (7, -9.84541340182418309723e+01) (0, -3.13148759503125859283e+02) (1, -4.20527693716912324362e+02) (2, 4.40044095943900117618e+01) (3, -1.91368343872466851963e+02) (4, 8.10551197983366051858e+01) (5, 2.71753501506836755652e+02) (6, 2.15500945435187247767e+02) (7, 7.32033374976461317374e+01) (0, -3.98230754556701640468e+01) (1, 3.10263725367419063161e+01) (2, -2.42645776825094898754e+01) (3, 2.67950795348723822542e+01) (4, -2.31355157443203012235e+01) (5, 3.43424437732578837768e+01) (6, 1.93398753246415004980e+01) (7, -5.30976887034691458211e+00) (0, 1.80721547188312371190e+02) (1, 1.33435591540331006399e+03) (2, 1.50000000000000000000e+03) (3, -1.13496061867104822340e+03) (4, -2.41478707058275915642e+02) (5, 1.50000000000000000000e+03) (6, -1.16014675719687460287e+02) (7, -5.72301886549139226190e+02) (0, 1.45447253249568597688e+00) (1, -7.47000494738455156352e+00) (2, -1.28662558486369640320e+01) (3, -6.22238066092366892690e+00) (4, -3.87162120518075303366e+00) (5, 1.00361893952159846322e+01) (6, 2.08012908405484218122e+01) (7, 1.84419408552113783806e+00) (0, 2.90024493921984856115e+02) (1, -2.78707782140741244348e+02) (2, -1.03040577074390604650e+01) (3, 6.20222682322113740838e+01) (4, 1.55388584641293334698e+01) (5, 3.07252379243565982847e+01) (6, -2.32991074194449112156e+02) (7, 3.50617202421023037573e+01) (0, -6.40082991943899060061e+01) (1, 6.36508101439920892517e+01) (2, 6.68502589722281292950e+00) (3, 9.86168172146117711918e+01) (4, -9.27539588599874065267e+01) (5, -1.33781428402894306373e+02) (6, 2.25306682474498707336e+01) (7, -4.68859227129896183328e+01) (0, -2.69506211331839722334e+02) (1, 4.08855152819631939565e+02) (2, -6.38772679218685084379e+02) (3, -4.79777187725535583240e+01) (4, -4.86024253240627999162e+01) (5, 1.50000000000000000000e+03) (6, -7.71771481961102495006e+02) (7, 8.13449917456828416107e+02) (0, 1.50000000000000000000e+03) (1, 7.07928859909453876753e+02) (2, 7.18993565673952275574e+02) (3, 1.00520999863938129693e+02) (4, -6.62882118130316371207e+02) (5, 1.50000000000000000000e+03) (6, -8.09933355842267019398e+02) (7, -5.21782828302651296326e+02) (0, -3.45628297588699950893e+01) (1, -6.80239301703207388528e+00) (2, 3.74626728464649900729e+01) (3, -2.44828822710718227995e+01) (4, -3.37517170277982714310e+01) (5, -4.04065375668230086781e-01) (6, 1.94786230981251726746e+01) (7, 1.29114913462666276445e+01) (0, -1.20312542359788796631e+01) (1, 2.84422393822992845003e+01) (2, 2.32369886378794525683e+01) (3, 1.12558532630906888983e+01) (4, 1.41557647352755611170e-01) (5, 3.28054442875785312594e+01) (6, 2.28751423905747977017e+01) (7, -3.32321663030244494053e+01) (0, 9.09864262069925530341e+02) (1, -8.70273437741612497121e+02) (2, -7.73411128331467807584e+02) (3, -1.45664964929073744315e+03) (4, -4.02605710956451900984e+02) (5, 5.25685281581713752530e+02) (6, -1.27942907201409843765e+03) (7, 1.26719530103951092315e+03) (0, -1.44514172503971005668e+00) (1, 2.96546669656743366872e-01) (2, -7.03606857784578920700e+00) (3, -4.30365440990841197078e+00) (4, 2.01178459584475710642e+00) (5, 4.79722953284360009718e+00) (6, 1.28712000706720317567e+01) (7, -2.44217032798786348735e+00) (0, 7.03233311600663739682e+01) (1, 4.31320003479968363536e+01) (2, -3.38845231020781483267e+01) (3, 3.82549940215228332363e+01) (4, 2.13981254557707387676e+01) (5, 3.40649726050876466843e+01) (6, -9.67093078634153044959e+01) (7, 8.03461695667757602735e-02) (8, 3.37878651423741827031e+00) (9, 3.34469692975670751522e+00) (10, 1.75317591441959952370e+00) (11, -1.69794991929247718332e+00) (12, 4.36682401791316721074e+00) (13, 4.49398731221733704899e+00) (14, -3.12196917104836080270e+00) (15, 4.18156436058605951445e+00) (16, 3.00486971228153754154e+00) (17, 2.82572665790023602739e+00) (18, -4.47908698751621425771e+00) (19, -4.98966553483539865255e+00) (20, 5.11471416425879898959e-01) (21, -7.12642589161447670421e+00) (22, -3.75344296327860815765e+00) (23, -4.32559317760007377984e+00) 
