FANN_FLO_2.1
num_layers=3
learning_rate=0.700000
connection_rate=1.000000
network_type=0
learning_momentum=0.000000
training_algorithm=2
train_error_function=1
train_stop_function=0
cascade_output_change_fraction=0.010000
quickprop_decay=-0.000100
quickprop_mu=1.750000
rprop_increase_factor=1.200000
rprop_decrease_factor=0.500000
rprop_delta_min=0.000000
rprop_delta_max=50.000000
rprop_delta_zero=0.100000
cascade_output_stagnation_epochs=12
cascade_candidate_change_fraction=0.010000
cascade_candidate_stagnation_epochs=12
cascade_max_out_epochs=150
cascade_max_cand_epochs=150
cascade_num_candidate_groups=2
bit_fail_limit=3.49999999999999977796e-01
cascade_candidate_limit=1.00000000000000000000e+03
cascade_weight_multiplier=4.00000000000000022204e-01
cascade_activation_functions_count=10
cascade_activation_functions=3 5 7 8 10 11 14 15 16 17 
cascade_activation_steepnesses_count=4
cascade_activation_steepnesses=2.50000000000000000000e-01 5.00000000000000000000e-01 7.50000000000000000000e-01 1.00000000000000000000e+00 
layer_sizes=8 9 2 
scale_included=0
neurons (num_inputs, activation_function, activation_steepness)=(0, 0, 0.00000000000000000000e+00) (0, 0, 0.00000000000000000000e+00) (0, 0, 0.00000000000000000000e+00) (0, 0, 0.00000000000000000000e+00) (0, 0, 0.00000000000000000000e+00) (0, 0, 0.00000000000000000000e+00) (0, 0, 0.00000000000000000000e+00) (0, 0, 0.00000000000000000000e+00) (8, 4, 5.00000000000000000000e-01) (8, 4, 5.00000000000000000000e-01) (8, 4, 5.00000000000000000000e-01) (8, 4, 5.00000000000000000000e-01) (8, 4, 5.00000000000000000000e-01) (8, 4, 5.00000000000000000000e-01) (8, 4, 5.00000000000000000000e-01) (8, 4, 5.00000000000000000000e-01) (0, 0, 0.00000000000000000000e+00) (9, 6, 5.00000000000000000000e-01) (0, 6, 0.00000000000000000000e+00) 
connections (connected_to_neuron, weight)=(0, 2.04354134852157010016e+01) (1, 3.41491791750737050393e+01) (2, -3.60297812858324419949e+01) (3, 1.28747479539802718307e+01) (4, -1.20859067264044579559e+01) (5, -2.89128302467188262881e+01) (6, 1.16461202314782763523e+01) (7, -2.08291935934785144013e+01) (0, -1.13107651572431592513e+02) (1, -3.48153635058865631891e+02) (2, 3.78324351825105679836e+02) (3, 7.36751178893723874808e+01) (4, -1.50000000000000000000e+03) (5, 3.81494369425946786123e+02) (6, 3.79087444973917229163e+02) (7, 4.41726320137410422006e+00) (0, 1.01810134347634345886e+03) (1, -4.95826845802357865978e+02) (2, 8.09850086953508480292e+02) (3, -3.77795176214785158209e+02) (4, -3.02355176598688728973e+02) (5, 1.28235848873544313165e+02) (6, -1.13832997554051689804e+03) (7, 6.90931331974859972433e+01) (0, -8.46860911889316803070e+00) (1, -3.75481677040794750155e+01) (2, 3.59960754333171664143e+01) (3, -1.86682519902765591269e+01) (4, 1.68685137303499850248e+01) (5, 2.58803360413057710332e+01) (6, -1.72936941601568747728e+01) (7, 2.01030731622546348092e+01) (0, -3.26736494530986874452e+02) (1, 1.50179805286255117380e+02) (2, -3.08562403740720640144e+02) (3, 1.46610559003241178289e+02) (4, 2.62411806901913813306e+01) (5, 2.71458925945099053934e+02) (6, 1.27254751129158492517e+02) (7, 2.28866331398975759726e+01) (0, 4.87796469694121768157e+01) (1, -1.50430333680005531960e+02) (2, -1.09272058861279184327e+01) (3, -4.43046096848928812051e+01) (4, 1.14175438601910045122e+02) (5, -5.52774553501385383925e+01) (6, 4.39995931543922864648e+01) (7, -7.71968538983242158480e+00) (0, -5.90477507122887459445e+01) (1, 1.79683389902877792110e+02) (2, -8.98951196124339446669e+01) (3, -3.38391072142276971846e+00) (4, -1.13753385257451600232e+00) (5, 1.05817692555784489628e+02) (6, -4.06952400911121259242e+01) (7, -3.42886850071031830112e+01) (0, -6.27534064654491771762e+02) (1, -9.11601995861866498672e+02) (2, 1.43448719078427916429e+03) (3, 1.44955545433892075380e+03) (4, 7.69878774973696522466e+02) (5, -8.87081059321180873667e+02) (6, -1.25934562242992981851e+02) (7, -1.12523565977440694041e+03) (8, 1.05945121465311675735e+01) (9, 1.90744021087941595383e+00) (10, 5.71638822776091015676e-01) (11, 1.12309886715852602634e+01) (12, -2.89826520474658089199e+00) (13, 2.04422209647104180519e+00) (14, 1.87051422296751401753e+00) (15, 1.84575867733319631814e-01) (16, -1.05252527408841896062e+01) 
