FANN_FLO_2.1
num_layers=3
learning_rate=0.700000
connection_rate=1.000000
network_type=0
learning_momentum=0.000000
training_algorithm=2
train_error_function=1
train_stop_function=0
cascade_output_change_fraction=0.010000
quickprop_decay=-0.000100
quickprop_mu=1.750000
rprop_increase_factor=1.200000
rprop_decrease_factor=0.500000
rprop_delta_min=0.000000
rprop_delta_max=50.000000
rprop_delta_zero=0.100000
cascade_output_stagnation_epochs=12
cascade_candidate_change_fraction=0.010000
cascade_candidate_stagnation_epochs=12
cascade_max_out_epochs=150
cascade_max_cand_epochs=150
cascade_num_candidate_groups=2
bit_fail_limit=3.49999999999999977796e-01
cascade_candidate_limit=1.00000000000000000000e+03
cascade_weight_multiplier=4.00000000000000022204e-01
cascade_activation_functions_count=10
cascade_activation_functions=3 5 7 8 10 11 14 15 16 17 
cascade_activation_steepnesses_count=4
cascade_activation_steepnesses=2.50000000000000000000e-01 5.00000000000000000000e-01 7.50000000000000000000e-01 1.00000000000000000000e+00 
layer_sizes=8 11 2 
scale_included=0
neurons (num_inputs, activation_function, activation_steepness)=(0, 0, 0.00000000000000000000e+00) (0, 0, 0.00000000000000000000e+00) (0, 0, 0.00000000000000000000e+00) (0, 0, 0.00000000000000000000e+00) (0, 0, 0.00000000000000000000e+00) (0, 0, 0.00000000000000000000e+00) (0, 0, 0.00000000000000000000e+00) (0, 0, 0.00000000000000000000e+00) (8, 4, 5.00000000000000000000e-01) (8, 4, 5.00000000000000000000e-01) (8, 4, 5.00000000000000000000e-01) (8, 4, 5.00000000000000000000e-01) (8, 4, 5.00000000000000000000e-01) (8, 4, 5.00000000000000000000e-01) (8, 4, 5.00000000000000000000e-01) (8, 4, 5.00000000000000000000e-01) (8, 4, 5.00000000000000000000e-01) (8, 4, 5.00000000000000000000e-01) (0, 0, 0.00000000000000000000e+00) (11, 6, 5.00000000000000000000e-01) (0, 6, 0.00000000000000000000e+00) 
connections (connected_to_neuron, weight)=(0, -3.79019345414938442218e+01) (1, 4.05388315187998529154e+01) (2, -3.52882955537023548231e+01) (3, 1.81591371248973416641e+01) (4, -1.61995272960548710728e+01) (5, -3.40738656720264501132e+01) (6, 3.97701956984016735674e+00) (7, -5.54507013982371899097e-01) (0, -1.31352657996612105507e+01) (1, -1.70223250668629937365e+01) (2, -2.12513502968749747879e+01) (3, 1.67868931180372342737e+01) (4, 1.13631019129800936440e+01) (5, 2.70697281282824908644e+00) (6, 5.23804884898316558406e+00) (7, 1.62431428204086847344e+00) (0, -8.84363304749740208877e+00) (1, 8.95375560344614518371e-01) (2, -8.81323527376231119490e+00) (3, 9.53420905989529887670e-01) (4, 2.47306594423652237325e+00) (5, -8.26200093923658762662e+00) (6, 7.33025960393259978787e+00) (7, -6.92034481472890039555e-01) (0, 6.72354234316221436529e+02) (1, -1.14100717465386173899e+03) (2, -1.41222754107443097382e+03) (3, 1.50000000000000000000e+03) (4, -1.50000000000000000000e+03) (5, -7.90704618641404408663e+02) (6, 4.31201520465931480430e+02) (7, -6.49308170699066806719e+01) (0, -1.14714026727498774605e+00) (1, -2.33280884952225093798e+01) (2, 1.13623347310168787416e+00) (3, 2.53908925627776937972e+00) (4, 7.60724944180306028585e+00) (5, 2.29014946516562467593e+00) (6, 2.68131960951880854438e+00) (7, 9.59069865867790749547e-01) (0, -3.97087764942590055739e+01) (1, -5.81594922148268267392e+01) (2, -6.84009000950950962761e+00) (3, 2.98923301188244181503e+01) (4, -4.67745875102989288052e+01) (5, 7.68597930625931127224e+01) (6, 5.09987274054392969447e+01) (7, 1.20293713495243945744e+01) (0, 1.20381269152231752173e+02) (1, 4.86010423928854834230e+02) (2, 4.49764368397562996904e+00) (3, 9.94438445744393817449e+01) (4, -6.91742710866146353510e+02) (5, 9.74890526424217114254e+02) (6, -2.02879695188447698229e+02) (7, -4.27677742013226918516e+02) (0, 5.24346851826770603111e+02) (1, 7.55646551676949343346e+02) (2, -2.48792637403536360807e+01) (3, -6.86449859009652868735e+02) (4, -3.50430332196843664860e+02) (5, -1.50000000000000000000e+03) (6, -1.50000000000000000000e+03) (7, 3.27052691304713292197e+01) (0, 3.68909577228767062707e+01) (1, -3.35081664705657233938e+00) (2, 4.17756948783379726819e+01) (3, -2.89316690165462873097e+01) (4, -3.91403306477600452240e+01) (5, -1.82814557846738559022e+01) (6, -5.41430549149628816963e+01) (7, 3.69073712737446069099e+00) (0, -6.05261691442281176023e+02) (1, 7.12734353365138986192e+02) (2, -1.40238123956205322429e+03) (3, -3.45666599653215882881e+02) (4, 2.68445734501241759062e+02) (5, 5.22106688784445438500e+01) (6, -1.92018985357674239367e+02) (7, 1.55888847272509934783e+02) (8, 9.04546013128767611988e+00) (9, -2.97580306616136063269e+01) (10, -1.17440271630967849603e+01) (11, 5.65852797094001935818e+00) (12, 3.20689624783789071216e+01) (13, -2.11694516817962519184e+00) (14, 1.71925823723061088621e+00) (15, -1.35113420098106580269e+01) (16, 6.11740246019354483309e+00) (17, -2.67891175967240346978e+00) (18, 1.47934883541740530566e-01) 
