FANN_FLO_2.1
num_layers=3
learning_rate=0.700000
connection_rate=1.000000
network_type=0
learning_momentum=0.000000
training_algorithm=2
train_error_function=1
train_stop_function=0
cascade_output_change_fraction=0.010000
quickprop_decay=-0.000100
quickprop_mu=1.750000
rprop_increase_factor=1.200000
rprop_decrease_factor=0.500000
rprop_delta_min=0.000000
rprop_delta_max=50.000000
rprop_delta_zero=0.100000
cascade_output_stagnation_epochs=12
cascade_candidate_change_fraction=0.010000
cascade_candidate_stagnation_epochs=12
cascade_max_out_epochs=150
cascade_max_cand_epochs=150
cascade_num_candidate_groups=2
bit_fail_limit=3.49999999999999977796e-01
cascade_candidate_limit=1.00000000000000000000e+03
cascade_weight_multiplier=4.00000000000000022204e-01
cascade_activation_functions_count=10
cascade_activation_functions=3 5 7 8 10 11 14 15 16 17 
cascade_activation_steepnesses_count=4
cascade_activation_steepnesses=2.50000000000000000000e-01 5.00000000000000000000e-01 7.50000000000000000000e-01 1.00000000000000000000e+00 
layer_sizes=8 10 2 
scale_included=0
neurons (num_inputs, activation_function, activation_steepness)=(0, 0, 0.00000000000000000000e+00) (0, 0, 0.00000000000000000000e+00) (0, 0, 0.00000000000000000000e+00) (0, 0, 0.00000000000000000000e+00) (0, 0, 0.00000000000000000000e+00) (0, 0, 0.00000000000000000000e+00) (0, 0, 0.00000000000000000000e+00) (0, 0, 0.00000000000000000000e+00) (8, 4, 5.00000000000000000000e-01) (8, 4, 5.00000000000000000000e-01) (8, 4, 5.00000000000000000000e-01) (8, 4, 5.00000000000000000000e-01) (8, 4, 5.00000000000000000000e-01) (8, 4, 5.00000000000000000000e-01) (8, 4, 5.00000000000000000000e-01) (8, 4, 5.00000000000000000000e-01) (8, 4, 5.00000000000000000000e-01) (0, 0, 0.00000000000000000000e+00) (10, 6, 5.00000000000000000000e-01) (0, 6, 0.00000000000000000000e+00) 
connections (connected_to_neuron, weight)=(0, 2.53120281284483183981e+01) (1, -2.86630420827585794541e+01) (2, 9.04497543182571206444e+00) (3, -3.29936462641907768401e+00) (4, -5.57675709384190820828e+00) (5, 1.43265911923936641870e+01) (6, -4.36528191967387968475e+00) (7, -6.29087589635825672474e+00) (0, 3.47583293171673517463e+01) (1, -4.46239558146986539100e+01) (2, 1.91677954941657517907e+01) (3, -5.02109871995925960420e+00) (4, -8.63109317705238687779e+00) (5, 1.41056890012607354379e+01) (6, -4.45432299671713227696e+00) (7, -5.16160677964029801501e+00) (0, 1.40586488517879092797e+03) (1, -1.18088760084140926665e+03) (2, 4.57589032595024747252e+01) (3, 1.33148633133553403241e+03) (4, -1.17631993869644261963e+02) (5, -8.01597249624347227837e+01) (6, -1.12267649119457004758e+02) (7, -3.65928072232521401475e+02) (0, -7.31581363425216011365e+01) (1, 4.35965875777418290227e+01) (2, 7.01552215845901798730e+01) (3, -4.94679430648435740636e+01) (4, 8.37450706177819625964e+00) (5, 1.98670534212884604131e+01) (6, -2.78717109422772892913e+01) (7, -3.26834946381990931741e+01) (0, 7.32906205269771220401e+01) (1, -1.76535624768176376165e+02) (2, -3.73703451207324910399e+00) (3, 1.11162040998283572435e+02) (4, -1.04914299992011947893e+01) (5, -2.81928978140300157129e-01) (6, 3.84578619355681894376e+01) (7, 3.80553499231267444713e+00) (0, -1.37993190673052890105e+01) (1, 1.81670457823711686274e+01) (2, 9.33528100470540955769e+00) (3, -2.57823604207882546291e+01) (4, 1.46731550584257308678e+00) (5, 4.44510077983168827576e-01) (6, -6.76244866088193585796e+00) (7, 4.96882984385523407411e+00) (0, -6.12163316984836498591e+01) (1, 2.90029025552630450591e+01) (2, 4.64294217336990442391e+01) (3, -9.20009066569273237235e+00) (4, -6.21424882745180973131e+00) (5, 1.76638183921672222709e+01) (6, -6.18366873810469641626e+00) (7, -2.82527290542584381683e+01) (0, 2.96183183940546095048e-02) (1, -3.13067750235737340958e+00) (2, 1.25223063097313680458e+01) (3, -1.25554988752372409522e+01) (4, 2.54735992943716160752e+00) (5, -1.29972924134807377161e-01) (6, -3.66830260795580143096e+00) (7, -7.56551531985085290444e-01) (0, 7.69186172034164741262e+01) (1, 5.17241688780497455014e+01) (2, 3.27434859836206669570e+02) (3, 4.14055782071939290745e+02) (4, -1.50000000000000000000e+03) (5, -4.87915216434103570009e+02) (6, 2.63810450105737231752e+02) (7, 8.62635492225964298996e+02) (8, 3.64712845668339324945e+00) (9, -3.20452012015446641158e+00) (10, -1.25527099590491952874e+00) (11, -6.92765141663180195053e+00) (12, -1.04536059072431020134e+00) (13, -2.63472583674014160238e+00) (14, 6.19855486157016333237e+00) (15, 5.75703931493439835521e+00) (16, 1.01225531121102574339e+00) (17, 1.09895237529244815811e+00) 
