FANN_FLO_2.1
num_layers=3
learning_rate=0.700000
connection_rate=1.000000
network_type=0
learning_momentum=0.000000
training_algorithm=2
train_error_function=1
train_stop_function=0
cascade_output_change_fraction=0.010000
quickprop_decay=-0.000100
quickprop_mu=1.750000
rprop_increase_factor=1.200000
rprop_decrease_factor=0.500000
rprop_delta_min=0.000000
rprop_delta_max=50.000000
rprop_delta_zero=0.100000
cascade_output_stagnation_epochs=12
cascade_candidate_change_fraction=0.010000
cascade_candidate_stagnation_epochs=12
cascade_max_out_epochs=150
cascade_max_cand_epochs=150
cascade_num_candidate_groups=2
bit_fail_limit=3.49999999999999977796e-01
cascade_candidate_limit=1.00000000000000000000e+03
cascade_weight_multiplier=4.00000000000000022204e-01
cascade_activation_functions_count=10
cascade_activation_functions=3 5 7 8 10 11 14 15 16 17 
cascade_activation_steepnesses_count=4
cascade_activation_steepnesses=2.50000000000000000000e-01 5.00000000000000000000e-01 7.50000000000000000000e-01 1.00000000000000000000e+00 
layer_sizes=8 10 2 
scale_included=0
neurons (num_inputs, activation_function, activation_steepness)=(0, 0, 0.00000000000000000000e+00) (0, 0, 0.00000000000000000000e+00) (0, 0, 0.00000000000000000000e+00) (0, 0, 0.00000000000000000000e+00) (0, 0, 0.00000000000000000000e+00) (0, 0, 0.00000000000000000000e+00) (0, 0, 0.00000000000000000000e+00) (0, 0, 0.00000000000000000000e+00) (8, 4, 5.00000000000000000000e-01) (8, 4, 5.00000000000000000000e-01) (8, 4, 5.00000000000000000000e-01) (8, 4, 5.00000000000000000000e-01) (8, 4, 5.00000000000000000000e-01) (8, 4, 5.00000000000000000000e-01) (8, 4, 5.00000000000000000000e-01) (8, 4, 5.00000000000000000000e-01) (8, 4, 5.00000000000000000000e-01) (0, 0, 0.00000000000000000000e+00) (10, 6, 5.00000000000000000000e-01) (0, 6, 0.00000000000000000000e+00) 
connections (connected_to_neuron, weight)=(0, 3.83846303632222474178e+00) (1, 1.32558536455085995698e+00) (2, -6.38371015935316510337e+00) (3, 6.79930686356755931143e+00) (4, -6.28539748027521216756e-01) (5, 2.67878769132486316273e-01) (6, -1.60844065713698936015e+00) (7, -1.83740600360017647397e+00) (0, -1.19467504715614705191e+01) (1, 1.65778698021536818885e+00) (2, 9.06580768194696062778e+00) (3, -1.05643538097857110358e+01) (4, 5.05459204152100216589e+00) (5, -5.61507537606190432200e+00) (6, 2.42821619493421403391e+00) (7, 3.36109214395706024092e+00) (0, 1.79488084317945777002e+02) (1, -1.85902065701795322639e+01) (2, -2.48132044296310922959e+01) (3, 7.97010690757479522972e+01) (4, -1.70024092794891181768e+01) (5, -1.13631420028489415586e+02) (6, -7.57763891195521921418e+01) (7, 2.93145544701755547123e+01) (0, 2.53483216453303619176e+01) (1, 8.25182682488523653319e+01) (2, -2.22100506525363613264e+02) (3, 5.86515579719821715798e+01) (4, 1.63543549992736600984e+01) (5, 6.41641237673257620600e+01) (6, -7.15246652247306258232e+01) (7, 3.22465730655019910955e+01) (0, -8.31749688954673160879e+01) (1, 8.74846929895076073080e+01) (2, -2.34751298753526285168e+01) (3, 5.71245333094522891315e+01) (4, 6.76805145738818652035e+01) (5, -2.24866706696891966999e+01) (6, -3.76876468755977782621e+01) (7, -2.08793988103344503315e+01) (0, -1.80669387533935633883e+02) (1, 1.19106864007979339704e+02) (2, -2.31250716285330462085e+01) (3, -3.57834033113788585467e-01) (4, 7.29658935763775531314e+01) (5, 2.09472632235528735123e+01) (6, 2.98767862377419781694e+01) (7, -3.78711267748502180552e+01) (0, -7.62120267883300517298e+00) (1, 1.38090552660781497707e+02) (2, -8.08558987633185637378e+01) (3, 4.92675191006112697778e+02) (4, -2.93106081918512586526e+02) (5, -3.88065791284225042546e+02) (6, -3.60319005246520816854e+02) (7, 6.64829608368553266473e+01) (0, -4.26993934724526713609e+00) (1, 5.70268491068543497136e+01) (2, -6.58212581272460681703e+01) (3, 7.22868684614199565885e+01) (4, -4.21951583149690989671e+01) (5, 1.95884415968221873072e+02) (6, 2.10812770882897240199e+01) (7, -1.23341093343810001670e+02) (0, -1.24847756162135340219e+02) (1, 1.15977609858224650452e+03) (2, -2.41648827528637610840e+02) (3, 1.43994521140428844319e+02) (4, 1.37201933011672565499e+02) (5, 8.45186535453294709441e+02) (6, 2.24749831230489178324e+02) (7, -1.10808362075746956066e+02) (8, -8.76349148569271818587e+00) (9, -9.60858287410844980059e+00) (10, 2.93769438321329134922e+00) (11, 1.69518210082092291024e+00) (12, 1.32381734607664047765e+00) (13, 2.53006443425419647042e+00) (14, 2.40550071568854972881e+00) (15, -2.17162574736025959510e+00) (16, -2.32763875913427753517e+00) (17, 5.52190194123193478504e+00) 
