FANN_FLO_2.1
num_layers=3
learning_rate=0.700000
connection_rate=1.000000
network_type=0
learning_momentum=0.000000
training_algorithm=2
train_error_function=1
train_stop_function=0
cascade_output_change_fraction=0.010000
quickprop_decay=-0.000100
quickprop_mu=1.750000
rprop_increase_factor=1.200000
rprop_decrease_factor=0.500000
rprop_delta_min=0.000000
rprop_delta_max=50.000000
rprop_delta_zero=0.100000
cascade_output_stagnation_epochs=12
cascade_candidate_change_fraction=0.010000
cascade_candidate_stagnation_epochs=12
cascade_max_out_epochs=150
cascade_max_cand_epochs=150
cascade_num_candidate_groups=2
bit_fail_limit=3.49999999999999977796e-01
cascade_candidate_limit=1.00000000000000000000e+03
cascade_weight_multiplier=4.00000000000000022204e-01
cascade_activation_functions_count=10
cascade_activation_functions=3 5 7 8 10 11 14 15 16 17 
cascade_activation_steepnesses_count=4
cascade_activation_steepnesses=2.50000000000000000000e-01 5.00000000000000000000e-01 7.50000000000000000000e-01 1.00000000000000000000e+00 
layer_sizes=8 10 2 
scale_included=0
neurons (num_inputs, activation_function, activation_steepness)=(0, 0, 0.00000000000000000000e+00) (0, 0, 0.00000000000000000000e+00) (0, 0, 0.00000000000000000000e+00) (0, 0, 0.00000000000000000000e+00) (0, 0, 0.00000000000000000000e+00) (0, 0, 0.00000000000000000000e+00) (0, 0, 0.00000000000000000000e+00) (0, 0, 0.00000000000000000000e+00) (8, 4, 5.00000000000000000000e-01) (8, 4, 5.00000000000000000000e-01) (8, 4, 5.00000000000000000000e-01) (8, 4, 5.00000000000000000000e-01) (8, 4, 5.00000000000000000000e-01) (8, 4, 5.00000000000000000000e-01) (8, 4, 5.00000000000000000000e-01) (8, 4, 5.00000000000000000000e-01) (8, 4, 5.00000000000000000000e-01) (0, 0, 0.00000000000000000000e+00) (10, 6, 5.00000000000000000000e-01) (0, 6, 0.00000000000000000000e+00) 
connections (connected_to_neuron, weight)=(0, 2.20090160876678595514e+02) (1, -3.78492261761294344069e+02) (2, 1.42881437822768452861e+03) (3, 1.86167645339863412346e+02) (4, -4.81695416956640599437e+02) (5, -1.46825555082344226321e+03) (6, -1.93568001586636114553e+02) (7, 9.66911953314775587387e+01) (0, -3.06817877605897226800e+00) (1, -1.09362610609963315511e+01) (2, -6.40901928121005397543e+01) (3, 4.47959270046552475719e+01) (4, -4.23823926100661765304e+01) (5, 4.60684800444860442781e+01) (6, 1.99525875803818379950e+01) (7, 7.39090309233087516816e+00) (0, -7.84949544000534693566e+00) (1, -6.39517066405494887249e+01) (2, -8.83815570669343770760e+01) (3, 1.21108804676300522374e+02) (4, -4.69585054235996040006e+01) (5, -1.25070949656591974275e+01) (6, 6.42007139778372817318e+01) (7, 2.82079196282442836718e+01) (0, -2.06424922066139124865e+01) (1, -3.40436049568899861129e+01) (2, 1.94871458158805488381e+01) (3, 4.02573611562108268913e+01) (4, -1.10801344428405840858e+02) (5, 8.12501368719902643534e+01) (6, 1.38937527619213678776e+01) (7, 2.93161286310791240339e+01) (0, -2.46787793423727475073e+00) (1, -4.25592391762971899993e+00) (2, 1.04841371803116878425e+01) (3, -2.04497427933957069968e+01) (4, 3.43692582252830476364e+01) (5, -3.18203032519863100447e+01) (6, 5.54723720906253969787e+00) (7, -6.51588658748746940574e+00) (0, 8.50350423947302402894e+01) (1, 5.43280668982909901388e+02) (2, -7.09711816102814196938e+01) (3, 2.82501986888558409561e+00) (4, -1.28157828999355592714e+03) (5, -3.63377776493336909880e+02) (6, 1.50000000000000000000e+03) (7, -6.48927213863097108515e+02) (0, 7.02915323849579021243e+00) (1, 1.08317196095320255722e+02) (2, -1.71429964331147260737e+02) (3, 2.03584359767743961811e+02) (4, 1.55899984090409997606e+01) (5, -1.14620577688998366739e+02) (6, 2.63198349289757327352e-01) (7, 1.58593822499010972393e+00) (0, 2.74255148893761280249e+01) (1, -2.48385180569276009521e+01) (2, 3.33511330046876750544e+01) (3, -2.03029699104393017706e+01) (4, -3.78425286448861015742e+01) (5, -1.91026480852696067814e+00) (6, 1.72609897235594296205e+01) (7, -5.43602050763982003190e+00) (0, 1.50000000000000000000e+03) (1, -1.46949103639706891045e+03) (2, 3.09393053633738155384e+01) (3, -2.96702886279193990049e+02) (4, -4.92690438940064495910e+02) (5, 4.96063687230738352696e+01) (6, 5.59514884599943343346e+02) (7, 7.94293967865020107411e+01) (8, 2.05602580803245382768e+00) (9, 2.56324358645106142873e+00) (10, -1.64278486207121621199e+00) (11, -3.89749081572930311523e+00) (12, -5.17737609243086271960e+00) (13, -2.78212413678799697081e+00) (14, 1.57727171933998944198e+00) (15, 3.67871952913113231531e+00) (16, -1.56471997803155238316e+00) (17, 2.58544225947868344662e+00) 
