FANN_FLO_2.1
num_layers=3
learning_rate=0.700000
connection_rate=1.000000
network_type=0
learning_momentum=0.000000
training_algorithm=2
train_error_function=1
train_stop_function=0
cascade_output_change_fraction=0.010000
quickprop_decay=-0.000100
quickprop_mu=1.750000
rprop_increase_factor=1.200000
rprop_decrease_factor=0.500000
rprop_delta_min=0.000000
rprop_delta_max=50.000000
rprop_delta_zero=0.100000
cascade_output_stagnation_epochs=12
cascade_candidate_change_fraction=0.010000
cascade_candidate_stagnation_epochs=12
cascade_max_out_epochs=150
cascade_max_cand_epochs=150
cascade_num_candidate_groups=2
bit_fail_limit=3.49999999999999977796e-01
cascade_candidate_limit=1.00000000000000000000e+03
cascade_weight_multiplier=4.00000000000000022204e-01
cascade_activation_functions_count=10
cascade_activation_functions=3 5 7 8 10 11 14 15 16 17 
cascade_activation_steepnesses_count=4
cascade_activation_steepnesses=2.50000000000000000000e-01 5.00000000000000000000e-01 7.50000000000000000000e-01 1.00000000000000000000e+00 
layer_sizes=8 11 2 
scale_included=0
neurons (num_inputs, activation_function, activation_steepness)=(0, 0, 0.00000000000000000000e+00) (0, 0, 0.00000000000000000000e+00) (0, 0, 0.00000000000000000000e+00) (0, 0, 0.00000000000000000000e+00) (0, 0, 0.00000000000000000000e+00) (0, 0, 0.00000000000000000000e+00) (0, 0, 0.00000000000000000000e+00) (0, 0, 0.00000000000000000000e+00) (8, 4, 5.00000000000000000000e-01) (8, 4, 5.00000000000000000000e-01) (8, 4, 5.00000000000000000000e-01) (8, 4, 5.00000000000000000000e-01) (8, 4, 5.00000000000000000000e-01) (8, 4, 5.00000000000000000000e-01) (8, 4, 5.00000000000000000000e-01) (8, 4, 5.00000000000000000000e-01) (8, 4, 5.00000000000000000000e-01) (8, 4, 5.00000000000000000000e-01) (0, 0, 0.00000000000000000000e+00) (11, 6, 5.00000000000000000000e-01) (0, 6, 0.00000000000000000000e+00) 
connections (connected_to_neuron, weight)=(0, -1.74524153494641637963e+02) (1, 7.33407746276458905044e+00) (2, 3.77349390469008527660e+00) (3, -1.49846741538852967324e+02) (4, -1.50000000000000000000e+03) (5, -1.50000000000000000000e+03) (6, 1.43200922634051135418e+01) (7, 6.59363908010086220202e+02) (0, -1.81850274497651764882e+00) (1, 1.22330563016944449117e+00) (2, 1.36682351651639741874e+01) (3, -2.87839907988506116254e+00) (4, -8.25042358096475969553e-01) (5, -1.35329491705063968965e+01) (6, -5.61121746862696735292e+00) (7, -1.65506301748043149757e-01) (0, 5.86898527943222134695e+01) (1, -1.06947475103812479347e+02) (2, 2.46879702488669749982e+01) (3, -1.46258066920383651421e+01) (4, 2.35441121092460946329e+02) (5, -3.06234317343013344725e+02) (6, 7.25084068557866885385e+01) (7, -3.07583718691537129075e+01) (0, -1.50000000000000000000e+03) (1, -1.50000000000000000000e+03) (2, -1.50000000000000000000e+03) (3, -1.50000000000000000000e+03) (4, -1.50000000000000000000e+03) (5, -1.50000000000000000000e+03) (6, -1.50000000000000000000e+03) (7, 1.29436702212619798047e+03) (0, 1.20776042332125427947e+02) (1, 9.68502815700211158401e+02) (2, -1.51427666508138088375e+02) (3, 1.48687327619444999982e+02) (4, -1.50000000000000000000e+03) (5, -5.08266733322402217254e+02) (6, 9.39264813153687896374e+02) (7, -6.11274102075166979375e+02) (0, -1.78027508760442243485e+00) (1, -7.56885084447750600134e+00) (2, 1.02107057989682115107e+01) (3, -1.55038258122834466946e+01) (4, 1.51533949650920511942e+01) (5, -9.96351018499148644025e+00) (6, 2.20424639027283664205e+00) (7, 3.77391309603162250497e-01) (0, -2.72300711134851525230e+01) (1, 2.80105034695046697379e+01) (2, -2.22087588606427885907e+01) (3, -3.39026818517665695651e+00) (4, -5.83906806174175851964e+00) (5, -3.08236671415915424177e+01) (6, 6.87714566874490884629e+01) (7, -1.83093114226854360993e+01) (0, -1.04582630331166768656e+02) (1, 4.32053543427220319018e+01) (2, -4.49388501760734087043e+01) (3, -5.93703303633121066696e+01) (4, 1.48176984434905591570e+02) (5, -1.22947031457451856795e+02) (6, 3.49951766683750165043e+01) (7, 6.73342024433335524236e+01) (0, 4.51850997807990939492e+00) (1, -1.29479112911071680969e+01) (2, 1.54139336443601795423e+01) (3, -3.36117971372957882181e+01) (4, 3.43693867059484432502e+01) (5, -2.11648597748748130698e+01) (6, -8.55214536638840144844e-02) (7, 3.43042819520569197689e-01) (0, 5.07415524657387595475e-01) (1, 2.64003920654105916910e+00) (2, 1.97009693551678810586e+00) (3, -6.40771618361344597048e+00) (4, 2.78389825166296596137e+01) (5, -4.20094508817562086733e+01) (6, 2.25827191542829952553e+00) (7, -1.45695371146438668042e+00) (8, -1.59877012645953708869e+00) (9, 4.80201705252464439155e+00) (10, 5.84149067254264142690e+00) (11, -8.46524478672094460308e-01) (12, 3.32550037552209198921e+00) (13, -1.22478204315123626600e+01) (14, -3.60905899139886487959e+00) (15, 1.25432217433922277294e+00) (16, 1.05061594228709456189e+01) (17, -9.13767428000364390073e+00) (18, -1.67743995192350864309e-01) 
