FANN_FLO_2.1
num_layers=3
learning_rate=0.700000
connection_rate=1.000000
network_type=0
learning_momentum=0.000000
training_algorithm=2
train_error_function=1
train_stop_function=0
cascade_output_change_fraction=0.010000
quickprop_decay=-0.000100
quickprop_mu=1.750000
rprop_increase_factor=1.200000
rprop_decrease_factor=0.500000
rprop_delta_min=0.000000
rprop_delta_max=50.000000
rprop_delta_zero=0.100000
cascade_output_stagnation_epochs=12
cascade_candidate_change_fraction=0.010000
cascade_candidate_stagnation_epochs=12
cascade_max_out_epochs=150
cascade_max_cand_epochs=150
cascade_num_candidate_groups=2
bit_fail_limit=3.49999999999999977796e-01
cascade_candidate_limit=1.00000000000000000000e+03
cascade_weight_multiplier=4.00000000000000022204e-01
cascade_activation_functions_count=10
cascade_activation_functions=3 5 7 8 10 11 14 15 16 17 
cascade_activation_steepnesses_count=4
cascade_activation_steepnesses=2.50000000000000000000e-01 5.00000000000000000000e-01 7.50000000000000000000e-01 1.00000000000000000000e+00 
layer_sizes=8 8 2 
scale_included=0
neurons (num_inputs, activation_function, activation_steepness)=(0, 0, 0.00000000000000000000e+00) (0, 0, 0.00000000000000000000e+00) (0, 0, 0.00000000000000000000e+00) (0, 0, 0.00000000000000000000e+00) (0, 0, 0.00000000000000000000e+00) (0, 0, 0.00000000000000000000e+00) (0, 0, 0.00000000000000000000e+00) (0, 0, 0.00000000000000000000e+00) (8, 4, 5.00000000000000000000e-01) (8, 4, 5.00000000000000000000e-01) (8, 4, 5.00000000000000000000e-01) (8, 4, 5.00000000000000000000e-01) (8, 4, 5.00000000000000000000e-01) (8, 4, 5.00000000000000000000e-01) (8, 4, 5.00000000000000000000e-01) (0, 0, 0.00000000000000000000e+00) (8, 6, 5.00000000000000000000e-01) (0, 6, 0.00000000000000000000e+00) 
connections (connected_to_neuron, weight)=(0, -6.30551653212482765554e+00) (1, 1.91441534356606629652e-01) (2, 3.57142056502316540545e+00) (3, -2.27924350656348870814e+01) (4, 2.94017856856188686265e+00) (5, 2.26312332832448817044e+01) (6, -4.96032931899320761460e+00) (7, 1.13971477671593888203e+01) (0, 1.53070253964078176523e+02) (1, -1.86624771220796930038e+02) (2, 3.14180603036755883295e+02) (3, 3.04579288871105177350e+02) (4, -2.15339115823959218687e+02) (5, -1.24685906732000105990e+02) (6, -3.17441718050685324215e+02) (7, 3.28379035970544990164e+01) (0, 5.10411631309430390502e+02) (1, 4.40388426398924877958e+02) (2, 2.41063271837797294950e+01) (3, -2.53271199237864152565e+02) (4, 1.04055012108226424061e+03) (5, -1.50000000000000000000e+03) (6, -1.93862651966909680823e+02) (7, -3.31867824489347128747e+02) (0, 1.33507913229728472970e+02) (1, -1.84740814893737393731e+02) (2, -2.19238267061244727074e+02) (3, 5.50699671763443276973e+01) (4, -1.60651087709401252823e+02) (5, 6.58167965565577883780e+00) (6, -3.07176467720189343424e+01) (7, 1.35479370212270652019e+02) (0, 1.01860927880167025705e+02) (1, -9.83897722400836727275e+01) (2, -4.79277875211986170711e+00) (3, -8.37604335322448037005e+01) (4, -2.12538342569767422674e+02) (5, -1.50000000000000000000e+03) (6, -1.00828606969849957409e+02) (7, -2.47423592032393315776e+01) (0, -6.91141593665432596438e-01) (1, 2.03260646444497566909e-01) (2, -3.27943710317631911266e+01) (3, 1.73307925930882511523e+01) (4, -2.62271758820776668131e+01) (5, -9.18590601880935366808e+01) (6, 1.51457543133516203682e+00) (7, 5.54158109662711506616e+00) (0, 4.96192595028897827092e+01) (1, 5.81963621245277806793e+01) (2, -5.54258770714275328828e+02) (3, 1.07198386950541220131e+02) (4, 3.36661742151641263376e+01) (5, 7.46189075717180259062e+01) (6, 1.65830425815347496155e+02) (7, 7.20107344815647110181e+01) (8, 2.55363102851468726229e+00) (9, 1.51126651735495243223e+00) (10, 2.35190173638881017126e+00) (11, 1.56150332752706844097e+00) (12, 2.50765270175937615704e+00) (13, -3.15186256662332864309e+00) (14, 9.30889092320975608530e-01) (15, -3.69056711678058046999e+00) 
