FANN_FLO_2.1
num_layers=3
learning_rate=0.700000
connection_rate=1.000000
network_type=0
learning_momentum=0.000000
training_algorithm=2
train_error_function=1
train_stop_function=0
cascade_output_change_fraction=0.010000
quickprop_decay=-0.000100
quickprop_mu=1.750000
rprop_increase_factor=1.200000
rprop_decrease_factor=0.500000
rprop_delta_min=0.000000
rprop_delta_max=50.000000
rprop_delta_zero=0.100000
cascade_output_stagnation_epochs=12
cascade_candidate_change_fraction=0.010000
cascade_candidate_stagnation_epochs=12
cascade_max_out_epochs=150
cascade_max_cand_epochs=150
cascade_num_candidate_groups=2
bit_fail_limit=3.49999999999999977796e-01
cascade_candidate_limit=1.00000000000000000000e+03
cascade_weight_multiplier=4.00000000000000022204e-01
cascade_activation_functions_count=10
cascade_activation_functions=3 5 7 8 10 11 14 15 16 17 
cascade_activation_steepnesses_count=4
cascade_activation_steepnesses=2.50000000000000000000e-01 5.00000000000000000000e-01 7.50000000000000000000e-01 1.00000000000000000000e+00 
layer_sizes=8 16 2 
scale_included=0
neurons (num_inputs, activation_function, activation_steepness)=(0, 0, 0.00000000000000000000e+00) (0, 0, 0.00000000000000000000e+00) (0, 0, 0.00000000000000000000e+00) (0, 0, 0.00000000000000000000e+00) (0, 0, 0.00000000000000000000e+00) (0, 0, 0.00000000000000000000e+00) (0, 0, 0.00000000000000000000e+00) (0, 0, 0.00000000000000000000e+00) (8, 4, 5.00000000000000000000e-01) (8, 4, 5.00000000000000000000e-01) (8, 4, 5.00000000000000000000e-01) (8, 4, 5.00000000000000000000e-01) (8, 4, 5.00000000000000000000e-01) (8, 4, 5.00000000000000000000e-01) (8, 4, 5.00000000000000000000e-01) (8, 4, 5.00000000000000000000e-01) (8, 4, 5.00000000000000000000e-01) (8, 4, 5.00000000000000000000e-01) (8, 4, 5.00000000000000000000e-01) (8, 4, 5.00000000000000000000e-01) (8, 4, 5.00000000000000000000e-01) (8, 4, 5.00000000000000000000e-01) (8, 4, 5.00000000000000000000e-01) (0, 0, 0.00000000000000000000e+00) (16, 6, 5.00000000000000000000e-01) (0, 6, 0.00000000000000000000e+00) 
connections (connected_to_neuron, weight)=(0, -1.92063436626965877707e+00) (1, 3.01510817390169227892e+00) (2, -1.76329365639006852007e+00) (3, -4.85388635279387026245e-01) (4, -1.26330013930044438020e+00) (5, -4.74034252597736482926e+00) (6, -1.91430519348147187841e+00) (7, -1.14798210499840225296e+00) (0, 1.04250259361092048493e+02) (1, 3.89627836295650979537e+02) (2, 1.69372950644145099375e+01) (3, 2.01443755854089175727e+02) (4, -9.41295605830446675100e+02) (5, 2.35373267732144455522e+02) (6, -5.87390283692891784995e+02) (7, 2.79916801967958335240e+01) (0, 4.18213896063134598080e+01) (1, 6.22173300059151642927e+02) (2, 6.51379937995303180287e+02) (3, 5.03828425860720443552e+01) (4, -1.02764950262990987540e+03) (5, -8.60950714252728971587e+02) (6, -9.28170357630242165214e+02) (7, -3.20801991771764278383e+02) (0, -1.21965659813051658489e+02) (1, -5.33594789269688174471e+00) (2, -3.23449287316254583402e+01) (3, 4.11953935257407977133e+01) (4, 1.37900937862170707149e+02) (5, 9.31804171265911378441e+01) (6, -7.52658440966442299214e+00) (7, 4.64482780919900761774e+00) (0, -9.17981910975693153887e+01) (1, 3.52093044701293308663e+02) (2, 1.75963366310995297681e+02) (3, -9.13393197927989746177e+01) (4, -3.45905605573296554667e+02) (5, -6.89035073808070208656e+00) (6, -3.51528992543631829903e+02) (7, 2.86344447754540105677e+01) (0, 1.23536858208393618952e+03) (1, -1.40225308885418735372e+03) (2, -1.46614488016829614025e+03) (3, -1.42649621966952872754e+03) (4, 4.44886869746210251719e+01) (5, 2.14480510608550325458e+01) (6, 1.50000000000000000000e+03) (7, -1.84250132419202969913e+02) (0, 2.88321867344327245064e+01) (1, -2.79736037650866649074e+01) (2, 7.03295260838699132222e+00) (3, -2.69318696618354902483e+00) (4, -1.46758605717555816739e+01) (5, 7.61465816628590452808e+00) (6, -1.06004782057061852640e+01) (7, 4.90735289997032086973e+00) (0, -1.01273174747424448583e+02) (1, -2.26901466365170705330e+02) (2, -1.15065227860579526009e+02) (3, -5.63700594759285067425e+01) (4, 3.59010845976132344504e+01) (5, 1.28364805755719572744e+02) (6, 2.50069493833937741556e+02) (7, -1.77453932521017492263e+01) (0, 1.38863832072509444515e+03) (1, 3.02881715874702251767e+02) (2, -1.29670115351254548841e+03) (3, -1.50000000000000000000e+03) (4, -1.50000000000000000000e+03) (5, -4.79403885740940438609e+02) (6, 1.32476135753103858406e+03) (7, -1.50000000000000000000e+03) (0, 7.41881220462056205633e+01) (1, -7.74331645970918316380e+01) (2, 3.71447902642368461557e+01) (3, -3.60897928114146324674e+01) (4, 6.05835166651347520883e+01) (5, 1.50000000000000000000e+03) (6, 1.63067828293542333995e+02) (7, -3.52425970451495800262e+01) (0, -2.05154234174288454540e+01) (1, -1.23891558568562700771e+01) (2, -1.61671901202086104377e+02) (3, 9.57384373312356018459e+01) (4, 1.08451715041203570422e+02) (5, 3.02907207554331625587e+00) (6, -2.22650380960073146497e+00) (7, -3.69681131540121787893e+00) (0, 1.50000000000000000000e+03) (1, -1.12586116340433136429e+03) (2, -1.46848143268195644850e+03) (3, -1.50000000000000000000e+03) (4, 9.15876087286359052086e+02) (5, 6.97458543798472533126e+02) (6, 1.50000000000000000000e+03) (7, -1.50000000000000000000e+03) (0, -1.79526154364464645141e+02) (1, 4.45301575137710699437e+02) (2, 1.87861068363032357453e+00) (3, -6.37562578739280070295e+02) (4, 1.47982259407780748006e+03) (5, 1.48877368064509573742e+03) (6, -3.96525232174920461148e+02) (7, -2.78455170612701635946e+02) (0, 1.47045669843629468687e+02) (1, 2.10586695138000230543e+01) (2, -8.02892969326067529323e+00) (3, 4.42150341171711787069e+01) (4, 3.30116855160914184353e+01) (5, -1.31303420705042356076e+02) (6, -7.72958668033057421098e+01) (7, -4.23689142455705507473e+01) (0, -6.75712379590484943037e+02) (1, 1.10828849390372806738e+03) (2, -4.12756517945408972992e+02) (3, -2.24489699199174026489e+02) (4, 4.09482901567019894173e+02) (5, -6.29648910297481734233e+02) (6, -1.50000000000000000000e+03) (7, 1.81649457744893311428e+02) (8, 1.14921102141934881047e+01) (9, -3.75113850443535579160e+00) (10, -4.09982735415030674631e+00) (11, 7.01279650234216345162e-01) (12, 4.55843162763764908618e+00) (13, -7.16398897437566684054e-01) (14, 1.71414146219485763467e+00) (15, -9.20569084364854961500e-01) (16, -2.45222797006763570948e+01) (17, 8.77214382284860705319e-01) (18, 9.01868126351910381899e-01) (19, 1.61584848819562587607e+00) (20, 2.36075935120673763290e-01) (21, 1.65720615237667789899e+00) (22, -2.73350240825995260963e+00) (23, -2.69017378644697346957e+00) 
