FANN_FLO_2.1
num_layers=3
learning_rate=0.700000
connection_rate=1.000000
network_type=0
learning_momentum=0.000000
training_algorithm=2
train_error_function=1
train_stop_function=0
cascade_output_change_fraction=0.010000
quickprop_decay=-0.000100
quickprop_mu=1.750000
rprop_increase_factor=1.200000
rprop_decrease_factor=0.500000
rprop_delta_min=0.000000
rprop_delta_max=50.000000
rprop_delta_zero=0.100000
cascade_output_stagnation_epochs=12
cascade_candidate_change_fraction=0.010000
cascade_candidate_stagnation_epochs=12
cascade_max_out_epochs=150
cascade_max_cand_epochs=150
cascade_num_candidate_groups=2
bit_fail_limit=3.49999999999999977796e-01
cascade_candidate_limit=1.00000000000000000000e+03
cascade_weight_multiplier=4.00000000000000022204e-01
cascade_activation_functions_count=10
cascade_activation_functions=3 5 7 8 10 11 14 15 16 17 
cascade_activation_steepnesses_count=4
cascade_activation_steepnesses=2.50000000000000000000e-01 5.00000000000000000000e-01 7.50000000000000000000e-01 1.00000000000000000000e+00 
layer_sizes=8 9 2 
scale_included=0
neurons (num_inputs, activation_function, activation_steepness)=(0, 0, 0.00000000000000000000e+00) (0, 0, 0.00000000000000000000e+00) (0, 0, 0.00000000000000000000e+00) (0, 0, 0.00000000000000000000e+00) (0, 0, 0.00000000000000000000e+00) (0, 0, 0.00000000000000000000e+00) (0, 0, 0.00000000000000000000e+00) (0, 0, 0.00000000000000000000e+00) (8, 4, 5.00000000000000000000e-01) (8, 4, 5.00000000000000000000e-01) (8, 4, 5.00000000000000000000e-01) (8, 4, 5.00000000000000000000e-01) (8, 4, 5.00000000000000000000e-01) (8, 4, 5.00000000000000000000e-01) (8, 4, 5.00000000000000000000e-01) (8, 4, 5.00000000000000000000e-01) (0, 0, 0.00000000000000000000e+00) (9, 6, 5.00000000000000000000e-01) (0, 6, 0.00000000000000000000e+00) 
connections (connected_to_neuron, weight)=(0, 1.77094481432405270738e+00) (1, 7.86069568918187222550e+00) (2, -4.71391063746962668546e+00) (3, 3.78046436676778008223e-02) (4, -2.03472999851362956747e+00) (5, 5.14219712310301968472e+00) (6, -2.98932654067218228633e+00) (7, -2.08546596572149534055e+00) (0, -3.72670600472152813154e+01) (1, 5.98323483572003844699e+00) (2, -8.35275190138891758806e+01) (3, 1.72948381527697591764e+02) (4, -5.61572136453786452392e+00) (5, 5.62847367335725712323e-01) (6, 3.02031551331812018191e+01) (7, -3.76318299323082854357e+01) (0, -3.77264570849816536224e+01) (1, -1.42341612962519619145e+01) (2, 4.94423040097118828839e+01) (3, -2.35578789689436121080e+01) (4, 1.87460667734766452952e+01) (5, 5.05404740092438675703e+00) (6, 1.26051070266130000874e+01) (7, -1.62284153121645680073e+01) (0, -1.29221497259268573998e+01) (1, -6.45956828255223158841e-01) (2, 5.28785934200496754443e+00) (3, 2.67336219609153935561e-01) (4, 1.76835056618258312788e+00) (5, -2.68956134651824374515e+00) (6, 5.08591250109915193889e+00) (7, 1.62966742906068495778e+00) (0, -7.58378303009934597867e+02) (1, 4.72666035898483073652e+02) (2, 1.22266079088022891597e+02) (3, -6.26558072789148582160e+02) (4, -7.09189953313480032193e+02) (5, 1.50000000000000000000e+03) (6, 7.72363750666299097247e+02) (7, -5.57034246055891699712e+01) (0, -3.44786511100614632142e+02) (1, 3.16882389708559166763e+01) (2, 1.20484420594679974670e+02) (3, -1.93138310942886590738e+01) (4, 7.74592097880346557304e+01) (5, 2.65271287839478020487e+01) (6, 6.06963108250213565498e+01) (7, 4.76595564998165528436e+01) (0, -4.03374487236663838985e+01) (1, -3.17896479483698932711e+01) (2, 7.77394418348165032739e+01) (3, -4.43499219718784658539e+01) (4, 3.98913067593254737631e+01) (5, 8.31150753249741214290e+00) (6, 1.46770486329443397011e+01) (7, -2.89610524445469117438e+01) (0, -2.45772794687821686921e+02) (1, 3.41198565916908137297e+02) (2, -5.78960815318935217988e+01) (3, 8.64273729972864117599e+01) (4, -1.38311699951030959710e+02) (5, -5.98275911901639290136e+00) (6, -9.17108185654821710386e+01) (7, 1.38305625313578524072e+01) (8, 2.61230331972463414303e+00) (9, -5.11021703215609912618e-01) (10, 2.86843420735385379317e+00) (11, 2.48070007734549902167e+00) (12, -9.33387133708539429300e-01) (13, -5.81805469885196324675e-01) (14, -2.64751840237278823764e+00) (15, -4.82629646903424802673e-01) (16, -1.12013274418398323107e+00) 
