FANN_FLO_2.1
num_layers=3
learning_rate=0.700000
connection_rate=1.000000
network_type=0
learning_momentum=0.000000
training_algorithm=2
train_error_function=1
train_stop_function=0
cascade_output_change_fraction=0.010000
quickprop_decay=-0.000100
quickprop_mu=1.750000
rprop_increase_factor=1.200000
rprop_decrease_factor=0.500000
rprop_delta_min=0.000000
rprop_delta_max=50.000000
rprop_delta_zero=0.100000
cascade_output_stagnation_epochs=12
cascade_candidate_change_fraction=0.010000
cascade_candidate_stagnation_epochs=12
cascade_max_out_epochs=150
cascade_max_cand_epochs=150
cascade_num_candidate_groups=2
bit_fail_limit=3.49999999999999977796e-01
cascade_candidate_limit=1.00000000000000000000e+03
cascade_weight_multiplier=4.00000000000000022204e-01
cascade_activation_functions_count=10
cascade_activation_functions=3 5 7 8 10 11 14 15 16 17 
cascade_activation_steepnesses_count=4
cascade_activation_steepnesses=2.50000000000000000000e-01 5.00000000000000000000e-01 7.50000000000000000000e-01 1.00000000000000000000e+00 
layer_sizes=8 9 2 
scale_included=0
neurons (num_inputs, activation_function, activation_steepness)=(0, 0, 0.00000000000000000000e+00) (0, 0, 0.00000000000000000000e+00) (0, 0, 0.00000000000000000000e+00) (0, 0, 0.00000000000000000000e+00) (0, 0, 0.00000000000000000000e+00) (0, 0, 0.00000000000000000000e+00) (0, 0, 0.00000000000000000000e+00) (0, 0, 0.00000000000000000000e+00) (8, 4, 5.00000000000000000000e-01) (8, 4, 5.00000000000000000000e-01) (8, 4, 5.00000000000000000000e-01) (8, 4, 5.00000000000000000000e-01) (8, 4, 5.00000000000000000000e-01) (8, 4, 5.00000000000000000000e-01) (8, 4, 5.00000000000000000000e-01) (8, 4, 5.00000000000000000000e-01) (0, 0, 0.00000000000000000000e+00) (9, 6, 5.00000000000000000000e-01) (0, 6, 0.00000000000000000000e+00) 
connections (connected_to_neuron, weight)=(0, -1.45864914792495596885e+01) (1, 2.75447654200703428984e+00) (2, -2.31757609972216238603e+00) (3, 6.35778114990356080227e-01) (4, 7.80946708911573050926e+00) (5, -1.02301616299606852323e+01) (6, 4.98986492471968290374e+00) (7, -2.26191325558406308716e+00) (0, 4.93781701175140526061e+01) (1, -1.30805521322657739347e+02) (2, -2.55745539153927552434e+02) (3, -1.02463779832064545872e+02) (4, 1.62604506484860223736e+02) (5, -9.48214418818282979373e+02) (6, 2.94720685403305715511e+01) (7, 2.28116487724456760589e+02) (0, -8.50685519889393226833e+00) (1, -4.79044310489751534732e+00) (2, -1.39842920906218637356e+00) (3, 1.03798354369826437704e+01) (4, 2.09170670158439397923e+00) (5, -2.55349806938416401536e+00) (6, 1.92149757868074324563e+01) (7, -8.83932231800075562944e+00) (0, 4.25476467728941884161e+02) (1, -1.50000000000000000000e+03) (2, -1.50000000000000000000e+03) (3, 1.47873880695566299437e+03) (4, -1.05424968936662298802e+03) (5, -3.71900048145069703764e+01) (6, 6.27806409439608842149e+02) (7, 2.20841334918963411837e+02) (0, -2.00185578967306128106e+01) (1, -2.56170805874604479158e+00) (2, 2.74140260709783660786e+01) (3, -2.44358664102083409375e+01) (4, 3.16064580940802279940e+01) (5, -2.53754344054473079950e+01) (6, 4.82960334565789750627e+00) (7, -1.10049650553764095662e+01) (0, -7.35264461587268414178e+01) (1, 1.76649329402557242474e+02) (2, 2.10368872535151098191e+02) (3, -4.42421116102394819336e+02) (4, 4.41544481506907615653e+01) (5, -1.50000000000000000000e+03) (6, 2.52483574956970073799e+01) (7, -1.65799265210752153621e+01) (0, -1.29364918031593958858e+02) (1, 1.48010035131573278733e+01) (2, 6.77948966622268329729e+01) (3, 2.02567531124664128583e+01) (4, -5.33912226879664544299e+01) (5, -7.60169935920472568114e+01) (6, 1.51253715611517208117e+02) (7, 1.04578013232445066194e+01) (0, -1.50000000000000000000e+03) (1, -3.33403164641191551709e+02) (2, -2.41573920416871033012e+02) (3, 1.12566299237230182939e+02) (4, 1.50000000000000000000e+03) (5, -9.25652170096603640559e+02) (6, 8.32738263236425041214e+02) (7, -2.18724118935873718783e+02) (8, -2.04097830547242402588e+01) (9, 3.58855904072941633842e+00) (10, -2.11816370890755711898e+00) (11, 2.90416165195790831888e+00) (12, 1.09651609100598985691e+01) (13, -3.67474774450243168999e+00) (14, 1.37610986386363509659e+00) (15, 2.10432619635124984470e+00) (16, 1.86842803406010504741e-01) 
