FANN_FLO_2.1
num_layers=3
learning_rate=0.700000
connection_rate=1.000000
network_type=0
learning_momentum=0.000000
training_algorithm=2
train_error_function=1
train_stop_function=0
cascade_output_change_fraction=0.010000
quickprop_decay=-0.000100
quickprop_mu=1.750000
rprop_increase_factor=1.200000
rprop_decrease_factor=0.500000
rprop_delta_min=0.000000
rprop_delta_max=50.000000
rprop_delta_zero=0.100000
cascade_output_stagnation_epochs=12
cascade_candidate_change_fraction=0.010000
cascade_candidate_stagnation_epochs=12
cascade_max_out_epochs=150
cascade_max_cand_epochs=150
cascade_num_candidate_groups=2
bit_fail_limit=3.49999999999999977796e-01
cascade_candidate_limit=1.00000000000000000000e+03
cascade_weight_multiplier=4.00000000000000022204e-01
cascade_activation_functions_count=10
cascade_activation_functions=3 5 7 8 10 11 14 15 16 17 
cascade_activation_steepnesses_count=4
cascade_activation_steepnesses=2.50000000000000000000e-01 5.00000000000000000000e-01 7.50000000000000000000e-01 1.00000000000000000000e+00 
layer_sizes=8 11 2 
scale_included=0
neurons (num_inputs, activation_function, activation_steepness)=(0, 0, 0.00000000000000000000e+00) (0, 0, 0.00000000000000000000e+00) (0, 0, 0.00000000000000000000e+00) (0, 0, 0.00000000000000000000e+00) (0, 0, 0.00000000000000000000e+00) (0, 0, 0.00000000000000000000e+00) (0, 0, 0.00000000000000000000e+00) (0, 0, 0.00000000000000000000e+00) (8, 4, 5.00000000000000000000e-01) (8, 4, 5.00000000000000000000e-01) (8, 4, 5.00000000000000000000e-01) (8, 4, 5.00000000000000000000e-01) (8, 4, 5.00000000000000000000e-01) (8, 4, 5.00000000000000000000e-01) (8, 4, 5.00000000000000000000e-01) (8, 4, 5.00000000000000000000e-01) (8, 4, 5.00000000000000000000e-01) (8, 4, 5.00000000000000000000e-01) (0, 0, 0.00000000000000000000e+00) (11, 6, 5.00000000000000000000e-01) (0, 6, 0.00000000000000000000e+00) 
connections (connected_to_neuron, weight)=(0, 7.97918502840278591748e+01) (1, -7.23526579734598840332e+01) (2, 1.12514839042470143227e+02) (3, -5.21423904999987044562e+01) (4, 1.52726183567499447236e+02) (5, -2.32845478088656641091e+01) (6, -1.51198212538603655730e+02) (7, 1.99237511006449530271e+01) (0, 2.14319439906371256299e+00) (1, -6.14629943752526930467e+00) (2, 7.61435505652414579281e-01) (3, 1.57428518591658517245e+00) (4, -5.58122049700845046516e+00) (5, -1.13174901936675942338e+00) (6, 2.73182124133630344076e+00) (7, 1.95321895973830650384e+00) (0, 3.71671093077887462641e+02) (1, 1.79802730598581348431e+02) (2, -2.81173384921057731844e+02) (3, -1.58501271679473632048e+02) (4, -3.79612989562848611058e+02) (5, -4.26057316006787232254e+02) (6, 1.50000000000000000000e+03) (7, 4.00197187493476349118e+02) (0, -9.22214165689230824796e+00) (1, -5.82469198259253317929e+01) (2, 1.03957977477977490111e+01) (3, -5.82861764153300043745e+00) (4, 1.76402922592261610646e+01) (5, 1.07201392109751303394e+01) (6, 1.73612810951525489145e+01) (7, -7.96372415134815536675e+00) (0, -8.83739766353397548926e+00) (1, 2.45695951975772182152e+01) (2, 9.50910141133595203655e+01) (3, -5.37213009967602062034e+01) (4, -6.60906390209260763413e+01) (5, -2.36722294271567434976e+01) (6, -3.89441761470696192760e+01) (7, 1.09773273220102307590e+01) (0, 6.65155903531731595990e+00) (1, 6.34580908283517430846e+01) (2, -1.00241469749035534420e+01) (3, 3.25472285467565880523e+00) (4, -1.63405791886149565073e+01) (5, -1.24968902897943685559e+01) (6, -1.16449232920399730062e+01) (7, 7.39117879045503034519e+00) (0, 1.42331140462556135162e+02) (1, -1.27997310707151434883e+00) (2, -5.87714868301288646535e+01) (3, 3.55897376415685641859e+02) (4, 2.40209389013825983739e+02) (5, -1.42755058993265834033e+02) (6, -1.00035284037182066186e+02) (7, -1.11156306785291789652e+02) (0, -2.96067585996674893067e+02) (1, -2.74574275951435481602e+02) (2, 2.10547782759516394435e+02) (3, 8.29669235448940689537e+00) (4, 1.65125137138886444177e+01) (5, -9.77685324142387202073e+01) (6, 2.38757596940867529156e+02) (7, 4.07844758914634724078e+01) (0, 3.83023632017002091388e+00) (1, -6.65019263238885649514e+00) (2, 6.34078305062464675501e+00) (3, -4.82213899135222945347e+00) (4, -7.23130834580797454691e+00) (5, -4.40991734558281489598e+00) (6, -3.59615639022305133565e+00) (7, 1.04972086340585804010e+01) (0, 1.38029758424265111216e+02) (1, -1.11813142951052668650e+01) (2, -1.00306142184035266496e+02) (3, 1.57170138638450879398e+02) (4, -1.10186819681821603467e+02) (5, 1.34541581539158610070e+01) (6, -4.63086763512386667685e+01) (7, -6.52016166113134865157e+00) (8, -2.17787361580338112432e+00) (9, -1.05500168446163566927e+01) (10, -2.33515307675709538060e+00) (11, 9.60244070498759150212e+00) (12, 3.55513246579477959486e+00) (13, 9.64633290089104988851e+00) (14, -2.12235611998780004939e+00) (15, 1.76351056362987423931e+00) (16, 3.25195908291368995791e+00) (17, 1.53668117308827145706e+00) (18, -4.50355337437625635744e+00) 
