FANN_FLO_2.1
num_layers=3
learning_rate=0.700000
connection_rate=1.000000
network_type=0
learning_momentum=0.000000
training_algorithm=2
train_error_function=1
train_stop_function=0
cascade_output_change_fraction=0.010000
quickprop_decay=-0.000100
quickprop_mu=1.750000
rprop_increase_factor=1.200000
rprop_decrease_factor=0.500000
rprop_delta_min=0.000000
rprop_delta_max=50.000000
rprop_delta_zero=0.100000
cascade_output_stagnation_epochs=12
cascade_candidate_change_fraction=0.010000
cascade_candidate_stagnation_epochs=12
cascade_max_out_epochs=150
cascade_max_cand_epochs=150
cascade_num_candidate_groups=2
bit_fail_limit=3.49999999999999977796e-01
cascade_candidate_limit=1.00000000000000000000e+03
cascade_weight_multiplier=4.00000000000000022204e-01
cascade_activation_functions_count=10
cascade_activation_functions=3 5 7 8 10 11 14 15 16 17 
cascade_activation_steepnesses_count=4
cascade_activation_steepnesses=2.50000000000000000000e-01 5.00000000000000000000e-01 7.50000000000000000000e-01 1.00000000000000000000e+00 
layer_sizes=8 11 2 
scale_included=0
neurons (num_inputs, activation_function, activation_steepness)=(0, 0, 0.00000000000000000000e+00) (0, 0, 0.00000000000000000000e+00) (0, 0, 0.00000000000000000000e+00) (0, 0, 0.00000000000000000000e+00) (0, 0, 0.00000000000000000000e+00) (0, 0, 0.00000000000000000000e+00) (0, 0, 0.00000000000000000000e+00) (0, 0, 0.00000000000000000000e+00) (8, 4, 5.00000000000000000000e-01) (8, 4, 5.00000000000000000000e-01) (8, 4, 5.00000000000000000000e-01) (8, 4, 5.00000000000000000000e-01) (8, 4, 5.00000000000000000000e-01) (8, 4, 5.00000000000000000000e-01) (8, 4, 5.00000000000000000000e-01) (8, 4, 5.00000000000000000000e-01) (8, 4, 5.00000000000000000000e-01) (8, 4, 5.00000000000000000000e-01) (0, 0, 0.00000000000000000000e+00) (11, 6, 5.00000000000000000000e-01) (0, 6, 0.00000000000000000000e+00) 
connections (connected_to_neuron, weight)=(0, 1.88076827658242279995e+02) (1, -4.26233823717659845443e+01) (2, -5.60662535327106184013e+01) (3, -1.66138229021905594607e+01) (4, 1.12289494409659003082e+01) (5, 6.82221261675578549699e+00) (6, -3.67465977565266683769e+01) (7, 1.45940696410795354154e+01) (0, -1.11885844496953481553e+01) (1, 1.52373578338519006792e+01) (2, -2.32734010852321882012e+00) (3, 1.05282730345677464356e+01) (4, 1.90353489257703287763e+01) (5, -2.55496776791340485246e+00) (6, -9.28576420879571173828e+00) (7, -4.23176462946968701129e-01) (0, -1.20061671493445079051e+01) (1, 5.81973168788957195829e+00) (2, -5.50991613492217346959e+00) (3, -2.50023528374526105011e+00) (4, -1.96256262739938813766e+00) (5, -6.27024062810272031498e+00) (6, 2.30816121472485278332e+01) (7, -5.61524363474151688713e-01) (0, 3.64780633756472738582e+01) (1, 4.61844627247259498226e-01) (2, 3.75527955811503399985e+00) (3, 7.45322094084293507166e+00) (4, -1.34963595483563398858e+01) (5, -5.83987061233252990888e+00) (6, -4.23453668192095520340e+01) (7, 1.06469075055575910227e+01) (0, -3.29189943614142688233e+00) (1, 2.46862189151248756502e+00) (2, -6.42840950160876190012e+00) (3, -8.63744198765596138401e+00) (4, -2.05103362430952991247e+01) (5, -4.64815421930745598100e-01) (6, 1.89134985107881554711e+01) (7, -3.59240780103336732054e+00) (0, 6.82823614270268741677e+00) (1, 1.23377518863020760875e+01) (2, -1.58510159039234288514e+00) (3, 9.45947508463510544630e+00) (4, -1.75913990394269115214e+00) (5, 1.20783283464481918656e+01) (6, -3.51761936374610773015e+00) (7, -1.05562253780373183076e+01) (0, 3.96392260519896098003e+01) (1, -2.36211288744142677842e+01) (2, -9.05033168769631934936e+00) (3, -4.41006072553260519697e+00) (4, -2.94432825474012034306e+01) (5, -3.24840440414988362861e+00) (6, 3.68563093674975235103e+01) (7, 2.75565545480520057708e+01) (0, -2.09441656924910347470e+02) (1, -4.33167502874694534398e+01) (2, -2.43726605614962252844e+01) (3, -3.08441582039634774048e+01) (4, -3.24148768974687300215e+01) (5, -4.45656032464765132772e+01) (6, 8.34698760815726075180e+01) (7, -2.95692266579612201838e+01) (0, 2.14744214343631290021e+00) (1, 8.54317808895447328155e+00) (2, 2.07173629189391554917e+01) (3, -2.27173108610607776825e+01) (4, -2.07213353421195094484e+01) (5, 2.04742197170769699710e+01) (6, 8.32136970520884915459e+01) (7, -1.68395372776030285422e+01) (0, -7.76789944406395704846e+00) (1, 5.27575289817957759908e-01) (2, -3.98380388804811502723e+00) (3, 7.17624753054352737536e+00) (4, 1.18806755746263026374e+00) (5, -1.02787941349835545424e+01) (6, -1.67480248662562392070e+00) (7, 7.45005094870654893668e+00) (8, -4.07820799340871698035e+00) (9, 1.29548162495596272947e+01) (10, -6.99684091193300172762e+00) (11, -4.79613650942498548346e+00) (12, 1.29654339186496940783e+01) (13, -1.02576372536833506643e+01) (14, -4.17220065165457132395e+00) (15, 0.00000000000000000000e+00) (16, 1.01751618312088503160e+01) (17, -5.93340096930546234688e-01) (18, -2.47476551070056283166e+00) 
