FANN_FLO_2.1
num_layers=4
learning_rate=0.700000
connection_rate=1.000000
network_type=0
learning_momentum=0.000000
training_algorithm=2
train_error_function=1
train_stop_function=0
cascade_output_change_fraction=0.010000
quickprop_decay=-0.000100
quickprop_mu=1.750000
rprop_increase_factor=1.200000
rprop_decrease_factor=0.500000
rprop_delta_min=0.000000
rprop_delta_max=50.000000
rprop_delta_zero=0.100000
cascade_output_stagnation_epochs=12
cascade_candidate_change_fraction=0.010000
cascade_candidate_stagnation_epochs=12
cascade_max_out_epochs=150
cascade_max_cand_epochs=150
cascade_num_candidate_groups=2
bit_fail_limit=3.49999999999999977796e-01
cascade_candidate_limit=1.00000000000000000000e+03
cascade_weight_multiplier=4.00000000000000022204e-01
cascade_activation_functions_count=10
cascade_activation_functions=3 5 7 8 10 11 14 15 16 17 
cascade_activation_steepnesses_count=4
cascade_activation_steepnesses=2.50000000000000000000e-01 5.00000000000000000000e-01 7.50000000000000000000e-01 1.00000000000000000000e+00 
layer_sizes=8 15 15 2 
scale_included=0
neurons (num_inputs, activation_function, activation_steepness)=(0, 0, 0.00000000000000000000e+00) (0, 0, 0.00000000000000000000e+00) (0, 0, 0.00000000000000000000e+00) (0, 0, 0.00000000000000000000e+00) (0, 0, 0.00000000000000000000e+00) (0, 0, 0.00000000000000000000e+00) (0, 0, 0.00000000000000000000e+00) (0, 0, 0.00000000000000000000e+00) (8, 4, 5.00000000000000000000e-01) (8, 4, 5.00000000000000000000e-01) (8, 4, 5.00000000000000000000e-01) (8, 4, 5.00000000000000000000e-01) (8, 4, 5.00000000000000000000e-01) (8, 4, 5.00000000000000000000e-01) (8, 4, 5.00000000000000000000e-01) (8, 4, 5.00000000000000000000e-01) (8, 4, 5.00000000000000000000e-01) (8, 4, 5.00000000000000000000e-01) (8, 4, 5.00000000000000000000e-01) (8, 4, 5.00000000000000000000e-01) (8, 4, 5.00000000000000000000e-01) (8, 4, 5.00000000000000000000e-01) (0, 0, 0.00000000000000000000e+00) (15, 4, 5.00000000000000000000e-01) (15, 4, 5.00000000000000000000e-01) (15, 4, 5.00000000000000000000e-01) (15, 4, 5.00000000000000000000e-01) (15, 4, 5.00000000000000000000e-01) (15, 4, 5.00000000000000000000e-01) (15, 4, 5.00000000000000000000e-01) (15, 4, 5.00000000000000000000e-01) (15, 4, 5.00000000000000000000e-01) (15, 4, 5.00000000000000000000e-01) (15, 4, 5.00000000000000000000e-01) (15, 4, 5.00000000000000000000e-01) (15, 4, 5.00000000000000000000e-01) (15, 4, 5.00000000000000000000e-01) (0, 0, 0.00000000000000000000e+00) (15, 6, 5.00000000000000000000e-01) (0, 6, 0.00000000000000000000e+00) 
connections (connected_to_neuron, weight)=(0, -4.77530026953619824326e+02) (1, -1.16493953999951622791e+03) (2, 2.73071250231747626458e+02) (3, -5.58721774554998546591e+02) (4, 1.29785960429310671316e+03) (5, -3.99419454614571407092e+02) (6, 1.07866962676282446409e+03) (7, -6.68062415926041541780e+00) (0, 5.39499693069986729910e+00) (1, 1.38996656484875948934e+01) (2, -3.33755655232724208759e+01) (3, 9.53703470414171050606e+00) (4, 7.02161027952222696058e+01) (5, -3.60941478417794954225e+01) (6, -1.34813446225769006936e+00) (7, -1.74863456807242485525e+01) (0, 2.98391025012886927925e+02) (1, 1.48926855824366748493e+03) (2, -1.30491164391714664816e+03) (3, -1.24976736263594079901e+03) (4, -6.23658417456004372070e+02) (5, 8.03286368810354474590e+02) (6, 3.01396701884167669050e+02) (7, 7.70219458928392697317e+01) (0, -2.25799249572204097092e+01) (1, -1.85745636400144462641e+01) (2, -5.67370725738295611507e+00) (3, 1.63401411687340107903e+01) (4, -2.02303978042865928444e+01) (5, 3.63816629013490882016e+01) (6, 2.32992784231967036135e+01) (7, 1.94140300503268536936e+00) (0, -1.14221148456754022504e+02) (1, -6.77188932889095318579e-01) (2, 3.29534792040551849368e+01) (3, 1.47031777563151240429e+03) (4, -3.72505411625961528443e+02) (5, 5.62048951473274769342e+02) (6, -1.05437058164257609860e+03) (7, 4.39844239768027911452e+00) (0, 8.81440034562384795436e+01) (1, -1.59985648085419882136e+02) (2, -5.30432378836383236376e+02) (3, -6.61203110972138347279e+02) (4, 1.36099872603687072115e+03) (5, -5.88227586624689024575e+02) (6, 4.70197904140172795451e+01) (7, 1.03183388889079211026e+02) (0, 1.92483769906530284288e+01) (1, -2.10641312932000097646e+01) (2, 6.92285983141332081914e+01) (3, 5.55337396648522059195e+01) (4, -2.42472117014148089709e+01) (5, -3.07784189293009085020e+01) (6, -3.19814857626379591693e+01) (7, -4.65136352186751977911e+01) (0, 4.20469123788114643503e+02) (1, 1.33027945989422437378e+03) (2, -1.45490697402248633807e+03) (3, -1.48971567736090423750e+03) (4, -8.57743052029154341653e+02) (5, 2.15606230096605685276e+02) (6, 1.19187267176944033054e+03) (7, 1.23000574963524400118e+02) (0, 1.16851493385599837893e+02) (1, -1.74541733135906696361e+02) (2, 8.15171947181661380455e+02) (3, -8.06702497373011624404e+01) (4, 1.42872890882394017353e+03) (5, -1.50000000000000000000e+03) (6, -1.08945378563881104128e+03) (7, 6.92494793855216244083e+01) (0, -2.13475232863082524659e+01) (1, -4.23504289721423674564e+01) (2, 6.04907714671770477821e+01) (3, 3.70472088178390919211e+01) (4, -3.49959399084389204404e+01) (5, 1.36122802994547726030e+02) (6, -1.37325664563731578482e+02) (7, 2.67077596366536873518e+01) (0, 6.84098021173702250053e+02) (1, 1.00297960925570941981e+03) (2, 1.44798892343685884043e+03) (3, 1.46706417202570446534e+03) (4, -1.50000000000000000000e+03) (5, -1.50000000000000000000e+03) (6, -1.48598695989478915180e+03) (7, -8.75630633137422336176e+01) (0, 2.16808635535081350554e+02) (1, -3.33529892577749706106e+02) (2, 6.00582909375268855001e+02) (3, 1.35863636107251682006e+03) (4, 4.93217900789090890612e+02) (5, -8.25232457952455774830e+02) (6, 1.79771718875951336258e+01) (7, -1.28904660739870064390e+03) (0, -1.40137470620126714493e+03) (1, -3.14017491664272654361e+02) (2, -8.36226324138322524959e+02) (3, 4.67621787821329519375e+02) (4, 1.33101783423918755034e+03) (5, 6.16907434738109259342e+02) (6, 6.69199662049447056233e+02) (7, 2.12351517670289837270e+02) (0, -3.53422778267219683812e+01) (1, 2.84658750691520623377e+01) (2, -1.89366999533022273283e+01) (3, -4.49852115625578896640e+00) (4, 8.76677142971014120576e+01) (5, -2.96617383295370160567e+01) (6, 1.20633071725468337121e+01) (7, -3.50415770089620437489e+01) (8, 4.67076397115970607388e+01) (9, -7.37878082647425003415e+02) (10, 6.14726937805347915855e+02) (11, -1.16945524620115770631e+03) (12, -1.84898651382504169760e+02) (13, -8.47296363507034122620e+00) (14, 1.27845537306855391080e+02) (15, -6.05942236292644224704e+02) (16, -6.53544176044505434220e+02) (17, 4.28785981439491933997e+02) (18, 8.02185134965724955691e+02) (19, -6.94162962383600472549e+01) (20, 1.74331978467825678081e+02) (21, -4.47026027157778742094e+02) (22, 5.61103162651236402780e+02) (8, -1.30183338220872633428e+03) (9, -1.49998206270692003272e+03) (10, -1.50000000000000000000e+03) (11, 4.56962992608083027335e+01) (12, 9.68961098437397822636e+02) (13, 1.48172487760276385416e+03) (14, 1.50000000000000000000e+03) (15, 1.44134895929556842020e+03) (16, 3.46393890038415463550e+02) (17, -1.49943026878326236329e+03) (18, 6.06873002469927996572e+02) (19, -1.31651884243120798601e+03) (20, 2.12598999817028413872e+02) (21, -6.74538364098509759970e+02) (22, 3.69542306731563371613e+02) (8, -1.50000000000000000000e+03) (9, 3.52497775661510274858e+02) (10, -5.70640955941675088070e+02) (11, 4.02189014076429714351e+02) (12, 1.14713590750602634216e+03) (13, 2.66744963775743315182e+02) (14, 1.25886118185470351705e+02) (15, 5.98555462826205484816e+02) (16, -1.50000000000000000000e+03) (17, -9.87092661635704644141e+02) (18, -1.32897614413838323344e+03) (19, 3.15412782723820612318e+02) (20, -1.00679145535625025332e+03) (21, 1.50000000000000000000e+03) (22, 1.01429708769325588946e+03) (8, -1.76225941547525337683e+01) (9, 1.08979461738566541840e+02) (10, 8.22417232998424424295e+02) (11, -4.09361220683801150244e+02) (12, 1.29729857545421077702e+03) (13, -2.08703787109449706350e+02) (14, 2.41939902279398154405e+02) (15, -7.10021102598633206071e+02) (16, -6.35824766892314983124e+01) (17, 1.94590526400269041574e+01) (18, -1.68846142457422189409e+02) (19, 2.01212160166507469938e+00) (20, -7.18131118458585092412e+02) (21, -2.15611985845301603604e+02) (22, -3.42976666825038023489e+01) (8, -9.93929431247859611176e+02) (9, -1.19644684494513558093e+03) (10, -1.16809305997292744905e+03) (11, -1.98091027058102014280e+02) (12, -2.21417016060393734733e+02) (13, -2.01598508879310145403e+02) (14, -1.28503206306760713318e+01) (15, 9.51088252446747787872e+02) (16, -1.12811434393586273472e+03) (17, 1.09241883499440064043e+03) (18, 1.49997518003768618655e+03) (19, 1.17026547593511691048e+03) (20, 6.58058841181252773822e+02) (21, -1.06461291193288525392e+03) (22, -1.26143961493858967060e+02) (8, -1.68680195956485022180e+02) (9, -2.25645321748950294705e+02) (10, 4.27546690691490169911e+01) (11, -1.09397795524145226409e+03) (12, 7.39983648104009603230e+02) (13, -1.41589195342615596473e+02) (14, -7.68783351324192835818e+02) (15, 1.12651905813041992133e+02) (16, -2.99275626690752233117e+02) (17, 3.36340850119846521693e+01) (18, 5.44137038496624612094e+01) (19, 3.33279835108243275954e+02) (20, 3.44302649975670874483e+02) (21, -6.08773799753502771637e+02) (22, 3.09461257846525768400e+02) (8, -3.73219687431062425276e+02) (9, -8.23004245031839218427e+02) (10, 1.79517727513371141868e+02) (11, -3.10109848685281974667e+02) (12, -1.52283260737110708760e+02) (13, 1.05562639246962862671e+03) (14, -6.84932909873083644925e+02) (15, 8.33504110621331619768e+02) (16, 2.64424747327338479863e+02) (17, 1.49963309917998981291e+03) (18, 7.49772621337829150434e+02) (19, 1.37767962075998696037e+02) (20, 8.21218244246249241769e+02) (21, -1.46461148543841204628e+03) (22, -5.22151679679011067492e+02) (8, -7.68007706684785716789e+02) (9, 8.61327350132740207300e+02) (10, -2.46414374356795804033e+02) (11, -1.37875859261629352659e+03) (12, 1.20638862089930057664e+03) (13, -4.46538382583939608139e+01) (14, 1.29535343068586001891e+02) (15, 4.70226531732999660562e+02) (16, -1.93137574115262111718e+01) (17, 1.16524403678209097279e+02) (18, -5.28422964147887341824e+02) (19, -3.27864762637533431189e+02) (20, 8.09024697420523352775e+02) (21, 1.50000000000000000000e+03) (22, 3.00443783365626245541e+02) (8, -1.02280210602958675281e+03) (9, 6.40337527570569136515e+02) (10, -8.08146955083907755579e+02) (11, 1.27846489433684655523e+03) (12, -1.31374299059940994994e+03) (13, 4.19197397050090899029e+02) (14, -4.49941543536090932776e+02) (15, -8.25150298963425967713e+01) (16, -3.83085904294490887878e+02) (17, 3.85733267730165266585e+02) (18, 7.91650598502673574330e+02) (19, 3.83886249832153851003e+02) (20, -9.40418540648399925885e+02) (21, 1.46904416645499622973e+03) (22, -9.75217934581982746067e+01) (8, 5.28075564914657746840e+01) (9, -1.14918164369965538185e+02) (10, 7.99098429833180716741e+01) (11, 4.23129128846758419513e+02) (12, -5.66019282622468040245e+02) (13, -1.15633055199674458891e+03) (14, 1.23814365807714966650e+03) (15, -8.32459144084895896754e+00) (16, -5.23560232174140907091e+01) (17, 4.40459723348161162448e+02) (18, 3.02257939557183988200e+02) (19, -6.24106870901829058340e+00) (20, 1.04938725758247073827e+03) (21, 5.38864091112614346457e+02) (22, -2.20185719012281850837e+02) (8, 1.46651848532901027511e+02) (9, -2.06331807150531631123e+02) (10, 2.41851005211144098439e+02) (11, 4.10885512489426957927e+02) (12, 3.82915912717238597907e+02) (13, -1.24851706275805042878e+02) (14, 2.63141474720429073386e+02) (15, 2.21950377862066233092e+02) (16, -1.92983212226225049335e+02) (17, 7.43694312944475512950e+01) (18, -3.17618214746976050833e+01) (19, 8.32472037310104973074e+00) (20, -3.22654489820781918752e+02) (21, 2.56903582050831914785e+02) (22, -2.36597178447089220299e+02) (8, -3.49098758419967055033e+02) (9, -2.98824915505331603072e+02) (10, -3.49780502910086966040e+02) (11, -1.49898282429907908408e+03) (12, 1.49313552082859996517e+03) (13, 3.09346862825305663591e+02) (14, -6.53818848561493837224e+02) (15, 1.42087505262805711936e+03) (16, 1.52982681145522114718e+01) (17, 6.39340066432469598112e+02) (18, -1.41927730698264713283e+03) (19, 3.45192726387000334398e+02) (20, 2.14142263148474398804e+02) (21, -5.33699999257429567479e+02) (22, 2.86732485329892483605e+02) (8, 3.52252286585733941138e+02) (9, -9.79085962700517939084e+02) (10, 3.10670311497538193635e+02) (11, -1.37798593176383451464e+03) (12, 9.74357255950550666057e+02) (13, -2.83615569825379543190e+00) (14, 4.64833756136133047221e+02) (15, 4.86824191852982210094e+02) (16, 1.42569649856039490032e+02) (17, 2.56029661230772887848e+02) (18, -1.30499911639482093051e+03) (19, 1.18707134864281385944e+02) (20, 1.02650696122253566500e+03) (21, 9.79468181877605843511e+02) (22, 2.34287018791816308294e+02) (8, 4.48743183307339208454e+01) (9, 1.28911937399444173025e+03) (10, 1.49727853572491994782e+03) (11, 1.25282899343982762730e+03) (12, -5.87112871406511430905e+02) (13, -9.59480513594565991298e+02) (14, -4.95001527810529353246e+02) (15, -1.45527705219984954965e+03) (16, 1.50000000000000000000e+03) (17, 1.33788262237623121109e+03) (18, 2.23958635540219859195e+02) (19, -9.73353832246031174691e+02) (20, 5.26408497038332029661e+02) (21, -1.10127187860061258107e+03) (22, -6.21827344120506722902e+02) (23, 5.68438731658189144724e-01) (24, 6.75890066701033576102e-01) (25, 5.45441158383666246934e-01) (26, -1.01561809819985837677e+00) (27, -5.24457372227714269108e-01) (28, 1.21835713291566705152e+00) (29, -4.72663676966587731343e-01) (30, 1.78333548066467145743e-01) (31, 8.67961139278253135387e-01) (32, -6.29664214520088361127e-01) (33, -4.89467777041512064340e-01) (34, -2.85904584322490773474e-01) (35, 1.70677153770025835655e+00) (36, -5.12697119171298343332e-01) (37, -1.47166174076567402018e-01) 
