FANN_FLO_2.1
num_layers=3
learning_rate=0.700000
connection_rate=1.000000
network_type=0
learning_momentum=0.000000
training_algorithm=2
train_error_function=1
train_stop_function=0
cascade_output_change_fraction=0.010000
quickprop_decay=-0.000100
quickprop_mu=1.750000
rprop_increase_factor=1.200000
rprop_decrease_factor=0.500000
rprop_delta_min=0.000000
rprop_delta_max=50.000000
rprop_delta_zero=0.100000
cascade_output_stagnation_epochs=12
cascade_candidate_change_fraction=0.010000
cascade_candidate_stagnation_epochs=12
cascade_max_out_epochs=150
cascade_max_cand_epochs=150
cascade_num_candidate_groups=2
bit_fail_limit=3.49999999999999977796e-01
cascade_candidate_limit=1.00000000000000000000e+03
cascade_weight_multiplier=4.00000000000000022204e-01
cascade_activation_functions_count=10
cascade_activation_functions=3 5 7 8 10 11 14 15 16 17 
cascade_activation_steepnesses_count=4
cascade_activation_steepnesses=2.50000000000000000000e-01 5.00000000000000000000e-01 7.50000000000000000000e-01 1.00000000000000000000e+00 
layer_sizes=8 9 2 
scale_included=0
neurons (num_inputs, activation_function, activation_steepness)=(0, 0, 0.00000000000000000000e+00) (0, 0, 0.00000000000000000000e+00) (0, 0, 0.00000000000000000000e+00) (0, 0, 0.00000000000000000000e+00) (0, 0, 0.00000000000000000000e+00) (0, 0, 0.00000000000000000000e+00) (0, 0, 0.00000000000000000000e+00) (0, 0, 0.00000000000000000000e+00) (8, 4, 5.00000000000000000000e-01) (8, 4, 5.00000000000000000000e-01) (8, 4, 5.00000000000000000000e-01) (8, 4, 5.00000000000000000000e-01) (8, 4, 5.00000000000000000000e-01) (8, 4, 5.00000000000000000000e-01) (8, 4, 5.00000000000000000000e-01) (8, 4, 5.00000000000000000000e-01) (0, 0, 0.00000000000000000000e+00) (9, 6, 5.00000000000000000000e-01) (0, 6, 0.00000000000000000000e+00) 
connections (connected_to_neuron, weight)=(0, -1.17291168555211370972e+02) (1, 2.63923481835258428418e+02) (2, -1.63853748554123427539e+02) (3, -2.43320984175003815153e+02) (4, -1.53419331827249898481e+01) (5, 3.38858954825329817595e+02) (6, -1.76104048429160286560e+02) (7, 6.29812872149813216538e+01) (0, 5.57974176404451100098e+02) (1, 1.31764264130460855995e+03) (2, -1.25006211377558042841e+03) (3, 1.50000000000000000000e+03) (4, -1.39118147371292394610e+02) (5, -1.96741099243547949982e+02) (6, -7.02916925114017544729e+02) (7, -1.78775034423621576707e+02) (0, -2.84953582468167724073e+02) (1, -4.19174442952181820488e+01) (2, 1.16073040955192379187e+01) (3, -5.30275413071286720879e+02) (4, 6.90715812256634308142e+02) (5, -1.88101674098724878093e+01) (6, 1.01974906843206412077e+02) (7, -3.13869494367272316993e+01) (0, 1.50000000000000000000e+03) (1, -6.95400689439098641742e+02) (2, 3.21987139755387772766e+02) (3, -6.43548829310163341688e+02) (4, -1.48719994184223551770e+01) (5, -8.23705092856511100763e+00) (6, 1.50000000000000000000e+03) (7, -2.47684364128258032167e+01) (0, -4.01237185221390689094e+02) (1, -5.02643896673971767086e+02) (2, -7.81891389772201932828e+02) (3, -2.44776045294893833670e+02) (4, 3.55846542062484445523e+02) (5, 4.47486069983461732136e+02) (6, 1.25312534710118961812e+03) (7, 4.51800538424873963095e+01) (0, 3.75278923385081508712e+00) (1, -7.22517254944696318830e+00) (2, 1.02166245127994450570e+01) (3, -2.04622648246843823472e+01) (4, -5.69967266968615149381e+01) (5, 8.97111280605369643126e+00) (6, 5.52923719758661924573e+00) (7, 2.10623282471677626404e+01) (0, -3.45624363377505048334e+01) (1, 8.96813461227649639795e+01) (2, -6.95401809834862945081e+01) (3, 6.66013080180803598296e+01) (4, 3.84679411335060521537e+01) (5, 1.18352467423002654101e+01) (6, -9.62447146788233531822e+00) (7, -3.43439373173937454453e+01) (0, -1.22825751776181029129e+01) (1, 2.26702662016998992556e+01) (2, -5.27215749294091562405e+00) (3, 5.28603462469429086212e+00) (4, 6.40478168311476139252e+01) (5, -9.48941621999560069867e+00) (6, -6.50221963062686558743e+00) (7, -2.25966376998938542897e+01) (8, 1.58890494322754771694e+00) (9, -1.45918457330111062120e+00) (10, -7.66205746187513914158e-01) (11, -1.16091534413071406640e+00) (12, -1.68423621999434658392e+00) (13, 7.20349076971441082406e+00) (14, 1.09274757576384828894e+00) (15, 6.74014373228912866409e+00) (16, -4.99302506267925760852e+00) 
