FANN_FLO_2.1
num_layers=3
learning_rate=0.700000
connection_rate=1.000000
network_type=0
learning_momentum=0.000000
training_algorithm=2
train_error_function=1
train_stop_function=0
cascade_output_change_fraction=0.010000
quickprop_decay=-0.000100
quickprop_mu=1.750000
rprop_increase_factor=1.200000
rprop_decrease_factor=0.500000
rprop_delta_min=0.000000
rprop_delta_max=50.000000
rprop_delta_zero=0.100000
cascade_output_stagnation_epochs=12
cascade_candidate_change_fraction=0.010000
cascade_candidate_stagnation_epochs=12
cascade_max_out_epochs=150
cascade_max_cand_epochs=150
cascade_num_candidate_groups=2
bit_fail_limit=3.49999999999999977796e-01
cascade_candidate_limit=1.00000000000000000000e+03
cascade_weight_multiplier=4.00000000000000022204e-01
cascade_activation_functions_count=10
cascade_activation_functions=3 5 7 8 10 11 14 15 16 17 
cascade_activation_steepnesses_count=4
cascade_activation_steepnesses=2.50000000000000000000e-01 5.00000000000000000000e-01 7.50000000000000000000e-01 1.00000000000000000000e+00 
layer_sizes=8 11 2 
scale_included=0
neurons (num_inputs, activation_function, activation_steepness)=(0, 0, 0.00000000000000000000e+00) (0, 0, 0.00000000000000000000e+00) (0, 0, 0.00000000000000000000e+00) (0, 0, 0.00000000000000000000e+00) (0, 0, 0.00000000000000000000e+00) (0, 0, 0.00000000000000000000e+00) (0, 0, 0.00000000000000000000e+00) (0, 0, 0.00000000000000000000e+00) (8, 4, 5.00000000000000000000e-01) (8, 4, 5.00000000000000000000e-01) (8, 4, 5.00000000000000000000e-01) (8, 4, 5.00000000000000000000e-01) (8, 4, 5.00000000000000000000e-01) (8, 4, 5.00000000000000000000e-01) (8, 4, 5.00000000000000000000e-01) (8, 4, 5.00000000000000000000e-01) (8, 4, 5.00000000000000000000e-01) (8, 4, 5.00000000000000000000e-01) (0, 0, 0.00000000000000000000e+00) (11, 6, 5.00000000000000000000e-01) (0, 6, 0.00000000000000000000e+00) 
connections (connected_to_neuron, weight)=(0, -3.65533847932643141121e+01) (1, 7.39214004605666303860e+01) (2, 3.49957181784532922464e+00) (3, 9.01068783660705605598e+01) (4, -1.06208800165274013239e+01) (5, -4.18703108052128456507e+01) (6, -6.75317596436209583999e+01) (7, -1.35741085398856959898e+01) (0, 3.03207899291451894896e+02) (1, -4.88271361914271096794e+02) (2, -1.45181255041380995863e+03) (3, 5.79114802709103457801e+01) (4, -7.61589951909447222533e+02) (5, 1.50000000000000000000e+03) (6, 1.67589573651198193716e+01) (7, 1.84733102565784406579e+02) (0, -2.26892197715089132259e+01) (1, 1.76749669476086879172e+01) (2, -1.22460222688421424664e+02) (3, -2.26105238427190258221e+01) (4, -3.56559267068958218871e+00) (5, 1.63683722124574408952e+01) (6, 2.87551001729648660898e+01) (7, 3.50363785677262598028e+01) (0, 1.68024916406018789417e+01) (1, -1.97196656423842284767e+01) (2, 4.06241714326449780970e+01) (3, -3.43692193035359778719e+01) (4, -5.79067346770469626449e+00) (5, -4.95369831842226133745e+01) (6, -2.09222185261490309927e+01) (7, 1.79765500812941647624e+00) (0, -1.50000000000000000000e+03) (1, -1.50000000000000000000e+03) (2, -6.35404655140913746436e+02) (3, 1.50000000000000000000e+03) (4, 1.50000000000000000000e+03) (5, -1.46078533577219263861e+03) (6, -1.50000000000000000000e+03) (7, 3.72454718354346709930e+02) (0, -9.53959814914680009679e+02) (1, -1.40253774950390129561e+03) (2, 6.52916511944043691074e+02) (3, -1.22790500198152085432e+03) (4, 4.60415058588937711193e+02) (5, -1.50000000000000000000e+03) (6, 1.42670570803972714202e+03) (7, 1.61934523105763528150e+00) (0, 1.25927169724759934866e+02) (1, -1.95348359362738904110e+02) (2, -6.67747772593366903493e+02) (3, 1.14638136087657244389e+03) (4, -1.50000000000000000000e+03) (5, 3.22489725553260981883e+01) (6, 2.14326236853889213307e+02) (7, -5.64745478108049638877e+01) (0, 1.88421504899988008219e+02) (1, -1.85404473349394152137e+02) (2, 9.08336962417671429648e+01) (3, -3.20879238719107434008e+02) (4, 3.34787943119982514872e+02) (5, 1.50000000000000000000e+03) (6, 3.10419546093233122974e+02) (7, 1.21968574479427456225e+01) (0, 3.86023276632740461878e+01) (1, -7.43863819662590231019e+01) (2, -2.20446446189589728704e+01) (3, -7.94948649403997080753e+01) (4, 5.05324821352092854454e+01) (5, -1.62698515400120911067e+01) (6, -7.40378878585215893793e+00) (7, 5.07175042570255669716e+01) (0, -1.50000000000000000000e+03) (1, -1.50000000000000000000e+03) (2, 1.55686555981832299267e+02) (3, 1.50000000000000000000e+03) (4, 1.50000000000000000000e+03) (5, -1.50000000000000000000e+03) (6, -1.50000000000000000000e+03) (7, -7.11309686062096790948e+00) (8, 3.84019004006843966970e-01) (9, 6.52676712661397373516e-01) (10, -1.59183878393106237326e+00) (11, 1.84032374367817519456e+00) (12, -9.14640821558086236642e-01) (13, -1.46776412693036606427e+00) (14, 7.73838130134432478080e-01) (15, 1.27114425036195299867e+00) (16, 1.43374103451755052774e+00) (17, -5.07797948533033727259e-01) (18, -1.37964838080154206246e+00) 
