FANN_FLO_2.1
num_layers=4
learning_rate=0.700000
connection_rate=1.000000
network_type=0
learning_momentum=0.000000
training_algorithm=2
train_error_function=1
train_stop_function=0
cascade_output_change_fraction=0.010000
quickprop_decay=-0.000100
quickprop_mu=1.750000
rprop_increase_factor=1.200000
rprop_decrease_factor=0.500000
rprop_delta_min=0.000000
rprop_delta_max=50.000000
rprop_delta_zero=0.100000
cascade_output_stagnation_epochs=12
cascade_candidate_change_fraction=0.010000
cascade_candidate_stagnation_epochs=12
cascade_max_out_epochs=150
cascade_max_cand_epochs=150
cascade_num_candidate_groups=2
bit_fail_limit=3.49999999999999977796e-01
cascade_candidate_limit=1.00000000000000000000e+03
cascade_weight_multiplier=4.00000000000000022204e-01
cascade_activation_functions_count=10
cascade_activation_functions=3 5 7 8 10 11 14 15 16 17 
cascade_activation_steepnesses_count=4
cascade_activation_steepnesses=2.50000000000000000000e-01 5.00000000000000000000e-01 7.50000000000000000000e-01 1.00000000000000000000e+00 
layer_sizes=8 11 11 2 
scale_included=0
neurons (num_inputs, activation_function, activation_steepness)=(0, 0, 0.00000000000000000000e+00) (0, 0, 0.00000000000000000000e+00) (0, 0, 0.00000000000000000000e+00) (0, 0, 0.00000000000000000000e+00) (0, 0, 0.00000000000000000000e+00) (0, 0, 0.00000000000000000000e+00) (0, 0, 0.00000000000000000000e+00) (0, 0, 0.00000000000000000000e+00) (8, 4, 5.00000000000000000000e-01) (8, 4, 5.00000000000000000000e-01) (8, 4, 5.00000000000000000000e-01) (8, 4, 5.00000000000000000000e-01) (8, 4, 5.00000000000000000000e-01) (8, 4, 5.00000000000000000000e-01) (8, 4, 5.00000000000000000000e-01) (8, 4, 5.00000000000000000000e-01) (8, 4, 5.00000000000000000000e-01) (8, 4, 5.00000000000000000000e-01) (0, 0, 0.00000000000000000000e+00) (11, 4, 5.00000000000000000000e-01) (11, 4, 5.00000000000000000000e-01) (11, 4, 5.00000000000000000000e-01) (11, 4, 5.00000000000000000000e-01) (11, 4, 5.00000000000000000000e-01) (11, 4, 5.00000000000000000000e-01) (11, 4, 5.00000000000000000000e-01) (11, 4, 5.00000000000000000000e-01) (11, 4, 5.00000000000000000000e-01) (11, 4, 5.00000000000000000000e-01) (0, 0, 0.00000000000000000000e+00) (11, 6, 5.00000000000000000000e-01) (0, 6, 0.00000000000000000000e+00) 
connections (connected_to_neuron, weight)=(0, -5.27159701166826195617e+01) (1, 3.62477719987672344359e+01) (2, -2.01307242497403500181e+01) (3, -1.74063876217113708833e+01) (4, -9.13433076725484127678e+00) (5, 3.68361766399009411543e+01) (6, -1.15351438461579788863e-01) (7, 1.33544884831114210044e+01) (0, -1.50000000000000000000e+03) (1, -1.50000000000000000000e+03) (2, -1.50000000000000000000e+03) (3, -1.50000000000000000000e+03) (4, -1.47688989693366988831e+03) (5, -1.50000000000000000000e+03) (6, -1.50000000000000000000e+03) (7, -1.12987975800711888041e+03) (0, 8.35450899081416196168e+02) (1, 9.88923967127376613462e+02) (2, -1.33128172116711880335e+03) (3, -1.10623190021443360820e+03) (4, 1.35050221196860275086e+03) (5, -3.04448427446388848239e+02) (6, 1.47357197406989826050e+03) (7, -1.45759950517329320974e+03) (0, 8.31657736554859461364e+00) (1, -4.24161962258375808688e+01) (2, 4.37189777048588101849e+00) (3, -6.60033746931635363353e+01) (4, 1.50682125491213732005e+01) (5, 6.99674709380527701796e+01) (6, -1.02881187317743005849e+01) (7, 1.34995907608276355383e+00) (0, -7.12869493623574435048e+00) (1, -2.11682690177827232958e+01) (2, 5.28926925756957366787e+00) (3, 3.86881598082164046559e+01) (4, -5.84860247670465653869e+01) (5, -3.23512338457671546621e+01) (6, -5.93544892212310415402e+00) (7, 2.96098436677813232620e+01) (0, 2.60225956211400522022e+01) (1, 2.35404629232378681536e+01) (2, -4.11220146253427145666e+01) (3, 2.48513695784676940548e+02) (4, -5.16461556731167164003e+01) (5, -3.60321577394522805093e+01) (6, -1.40562927176761974124e+02) (7, 8.53113269514734895438e+00) (0, -9.02683452119348999076e+01) (1, -3.32324438027449033939e+01) (2, 6.75455340883926425022e+01) (3, -1.13930124229137433645e+02) (4, 2.48672079842863738008e+01) (5, 2.03827507923379940280e+01) (6, 8.57801709586357219450e+01) (7, 2.36408550152355516616e+01) (0, -8.13621561281959088774e+02) (1, -1.65091839544806049389e+02) (2, -1.18637571092670577855e+03) (3, -5.51242890478594631531e+02) (4, 8.17131327400881673384e+02) (5, 3.64840495797860796756e+02) (6, 6.18512625518663412549e+02) (7, 1.11130819203043256493e+03) (0, -3.12205886460012074224e+01) (1, -1.30763807914988223757e+01) (2, 5.16101959370999452403e+01) (3, -5.82471938385952086037e+01) (4, 7.35981209584502096277e+01) (5, -7.28967877045781591505e+01) (6, 1.04807243181735976201e+00) (7, 1.50848120161822745189e+01) (0, -6.12306821798842459970e+00) (1, 3.99188535088390779038e+01) (2, -2.09874875007052494880e+01) (3, 1.93290647890843239054e+01) (4, -7.03057531212985225011e+01) (5, 1.12337883018446106576e+02) (6, 1.84636707608225556498e+01) (7, -2.49429978436006543063e+01) (8, 1.50000000000000000000e+03) (9, 1.50000000000000000000e+03) (10, -6.21984805196683169015e+02) (11, 1.50000000000000000000e+03) (12, -2.70670041351264387686e+02) (13, -9.98992104736321607561e+02) (14, -1.64136931135422571515e+02) (15, 2.99023117129708237982e+00) (16, 1.19906471326238352049e+03) (17, 1.39600194271729401407e+03) (18, -1.40573582433304295591e+02) (8, -4.45243474192290818792e+02) (9, 1.50000000000000000000e+03) (10, 7.15536595429538579083e+02) (11, 4.82076410279957599414e+02) (12, -8.88897732125429683947e+02) (13, 2.10039322694829223792e+02) (14, -1.79431250478826171957e+01) (15, 5.23903427993743093793e+01) (16, 6.45506447528706530647e+02) (17, -8.65607658577056895410e+01) (18, 1.06111512527722755550e+01) (8, -2.02966051935538189355e+02) (9, 1.50000000000000000000e+03) (10, -1.43675192755581264237e+02) (11, 1.08522284570202464238e+03) (12, 1.59485247368317146766e+02) (13, 1.24702789888304573651e+03) (14, 4.84058089731851396209e+02) (15, 5.43804631473848019141e+01) (16, -1.41140083328542846175e+03) (17, -1.36046521825707668540e+03) (18, 1.48251828183807305095e+02) (8, 4.80578566755544784428e+02) (9, 1.50000000000000000000e+03) (10, -3.55078764165991799473e+02) (11, -1.03923226105249659668e+03) (12, 5.34852418419098626146e+02) (13, -9.69730356027475977498e+02) (14, -9.17401428598378060997e+02) (15, 6.11680808121854170167e+02) (16, 6.15725479961634164283e+02) (17, 1.11705285685261901563e+03) (18, 1.24036999158476419325e+02) (8, -1.91375728977268892095e+02) (9, 1.50000000000000000000e+03) (10, 1.71207199538916881920e+02) (11, 4.96148809017471847937e+01) (12, -3.26430301411613115192e+01) (13, 7.46683234971430920268e+01) (14, -1.29049922174144626297e+02) (15, 1.27929552912626235184e+02) (16, -1.90809281754108297946e+02) (17, -2.18765099110099754398e+02) (18, 1.78863175301355511237e+02) (8, 1.33020712340522982231e+03) (9, 1.50000000000000000000e+03) (10, -2.32676169411856704983e+02) (11, -5.93328642240269118702e+02) (12, 7.87001393118786154446e+02) (13, -1.25126373333874425953e+03) (14, -1.17581936007150875412e+03) (15, -1.48972524675935073901e+03) (16, 1.33190239003362739822e+03) (17, 1.50000000000000000000e+03) (18, 1.35312536979748301746e+03) (8, 1.41471948733316207836e+03) (9, 1.50000000000000000000e+03) (10, -1.05488474543532038297e+03) (11, -5.33078474020824160107e+02) (12, 1.23057882677397560656e+03) (13, 1.20290444352969373654e+02) (14, 4.73815175287968258999e+02) (15, -1.11724140783559892043e+03) (16, 7.46637822121050191981e+01) (17, -1.04168229286875180151e+03) (18, 7.98313759303433812420e+02) (8, -5.60774672013804291737e+01) (9, 1.50000000000000000000e+03) (10, 1.14108527457813724304e+00) (11, 8.76238104359401063448e+02) (12, 7.52143210818150350860e+02) (13, -6.39533578436663674438e+02) (14, -7.96659941892772138772e+01) (15, 2.88376037233023282624e+02) (16, -5.15787214722501289543e+02) (17, -5.19170688933235169316e+02) (18, 1.49872639640291140495e+02) (8, -1.25668949517860414744e+03) (9, 1.50000000000000000000e+03) (10, 7.41164348399413825064e+02) (11, 7.34800511723648924090e+02) (12, -5.24332157698686273761e+02) (13, 3.89275584863071060227e+02) (14, -5.91037038426128980007e+00) (15, 8.54511963756285126692e+02) (16, -1.12365886922107847568e+03) (17, -1.16849167272683598640e+03) (18, 4.55347532584881321327e+02) (8, -1.26762417242027436259e+03) (9, 1.50000000000000000000e+03) (10, 1.14884901053895396217e+03) (11, 1.09657916700623400175e+03) (12, -9.11384978303869047522e+02) (13, 1.43194894542755469047e+03) (14, 6.70438563402195654817e+02) (15, 1.27557278359316592287e+03) (16, -1.46302492110959246929e+03) (17, -1.49758724902105973342e+03) (18, -2.53427562816385545830e+02) (19, -4.09224378689661438813e-01) (20, 6.90039480171194985481e-01) (21, 6.42870069996899884401e-01) (22, -5.00286286310381300702e-01) (23, 1.04939150069201136972e+00) (24, -3.45648735621922109651e-01) (25, -7.93334731648277613481e-01) (26, 5.08738234713240200513e-01) (27, -1.40332518907374437234e+00) (28, 1.10181603802980032647e+00) (29, -4.77150557582390721922e-01) 
