FANN_FLO_2.1
num_layers=3
learning_rate=0.700000
connection_rate=1.000000
network_type=0
learning_momentum=0.000000
training_algorithm=2
train_error_function=1
train_stop_function=0
cascade_output_change_fraction=0.010000
quickprop_decay=-0.000100
quickprop_mu=1.750000
rprop_increase_factor=1.200000
rprop_decrease_factor=0.500000
rprop_delta_min=0.000000
rprop_delta_max=50.000000
rprop_delta_zero=0.100000
cascade_output_stagnation_epochs=12
cascade_candidate_change_fraction=0.010000
cascade_candidate_stagnation_epochs=12
cascade_max_out_epochs=150
cascade_max_cand_epochs=150
cascade_num_candidate_groups=2
bit_fail_limit=3.49999999999999977796e-01
cascade_candidate_limit=1.00000000000000000000e+03
cascade_weight_multiplier=4.00000000000000022204e-01
cascade_activation_functions_count=10
cascade_activation_functions=3 5 7 8 10 11 14 15 16 17 
cascade_activation_steepnesses_count=4
cascade_activation_steepnesses=2.50000000000000000000e-01 5.00000000000000000000e-01 7.50000000000000000000e-01 1.00000000000000000000e+00 
layer_sizes=8 16 2 
scale_included=0
neurons (num_inputs, activation_function, activation_steepness)=(0, 0, 0.00000000000000000000e+00) (0, 0, 0.00000000000000000000e+00) (0, 0, 0.00000000000000000000e+00) (0, 0, 0.00000000000000000000e+00) (0, 0, 0.00000000000000000000e+00) (0, 0, 0.00000000000000000000e+00) (0, 0, 0.00000000000000000000e+00) (0, 0, 0.00000000000000000000e+00) (8, 4, 5.00000000000000000000e-01) (8, 4, 5.00000000000000000000e-01) (8, 4, 5.00000000000000000000e-01) (8, 4, 5.00000000000000000000e-01) (8, 4, 5.00000000000000000000e-01) (8, 4, 5.00000000000000000000e-01) (8, 4, 5.00000000000000000000e-01) (8, 4, 5.00000000000000000000e-01) (8, 4, 5.00000000000000000000e-01) (8, 4, 5.00000000000000000000e-01) (8, 4, 5.00000000000000000000e-01) (8, 4, 5.00000000000000000000e-01) (8, 4, 5.00000000000000000000e-01) (8, 4, 5.00000000000000000000e-01) (8, 4, 5.00000000000000000000e-01) (0, 0, 0.00000000000000000000e+00) (16, 6, 5.00000000000000000000e-01) (0, 6, 0.00000000000000000000e+00) 
connections (connected_to_neuron, weight)=(0, -3.72182798881755294573e+00) (1, 1.16466350306416348559e+01) (2, 1.35174941392011334074e+01) (3, 3.88950492161025884741e+00) (4, -3.57842258278376235126e+01) (5, 6.15360138127183109447e+00) (6, 6.82874900880343904674e+00) (7, 6.54397059666878888606e+00) (0, 2.57093266404787321733e+01) (1, -2.75588320304283040940e+00) (2, 1.97733445133056378040e+01) (3, 4.59185898280557935891e+00) (4, -4.27252670122660660468e+01) (5, 3.90562874354517290953e+01) (6, -4.10861868460111097079e+01) (7, -2.79372002745112701927e-01) (0, 9.37325123624755818241e+00) (1, -3.55131977904902527143e+01) (2, 5.83147654212128614404e+01) (3, -5.98470201465457662948e+01) (4, 1.24036283285514002728e+02) (5, 1.81913062283912054795e+01) (6, -3.60957936405822081838e+01) (7, -3.72757247647588396688e+00) (0, 1.39051495071593535613e+02) (1, -2.78569372651558694542e+02) (2, -1.10126234187357052718e+01) (3, 1.08639982852370650335e+02) (4, 2.43295620336241569248e+02) (5, -1.41832193284592989357e+02) (6, -9.31374954014640081823e+01) (7, -4.23179203539704786863e+01) (0, -1.59293679586605545495e+01) (1, -3.36479316586507763986e+01) (2, 7.19435820101749499145e+01) (3, 2.16502579707751010574e+01) (4, -5.58578979533031017013e+01) (5, -2.87904609466618346403e+01) (6, -3.08790905932091686026e+00) (7, -8.41190494054220749831e+00) (0, 9.36705292117208614400e+01) (1, -7.91645538268673902849e+01) (2, 2.32010035459840011640e+01) (3, 1.43545777053822085634e+01) (4, 1.24000731536873889382e+01) (5, -2.45505209333075669065e+01) (6, -2.49420323038545745931e+01) (7, 5.61102792146396822659e+00) (0, -8.44833825304413288393e+00) (1, 1.65829066110166074566e+01) (2, 3.49237763298048875527e+00) (3, -1.06488341733178248916e+01) (4, -2.28161155815195755281e+01) (5, 3.86576911664881839314e+00) (6, 5.16117247691533354015e+00) (7, 2.14846694912348468165e+00) (0, 6.76915265836158681623e+01) (1, 1.98088762985988573462e+01) (2, -3.01612191013894346270e+01) (3, 4.12607099512021164855e+01) (4, -3.38129677371328662971e+00) (5, -9.02609426946704651584e+00) (6, -4.83398353048613174110e+01) (7, -4.68251167125309741834e+00) (0, 5.29119068411261110896e+01) (1, 1.58023896535356449533e+01) (2, -1.10980940325078577757e+02) (3, -2.04890041542382261852e+00) (4, -2.01085931239331792142e+01) (5, 5.01043070488463300194e+01) (6, -6.11777361409881663690e+01) (7, 2.05086733405059806756e+00) (0, 6.58708366151997792848e-01) (1, 3.49712307833062894247e+01) (2, -4.29740804041995527740e+00) (3, -5.03627230383355684040e+00) (4, -2.91850411547441224158e+00) (5, 6.61617631663296634770e+00) (6, -1.47129992354583638559e+01) (7, -1.04054877518037063311e+01) (0, 3.71310061400046098612e+00) (1, -1.04156244848968597694e+01) (2, -1.91024146268348467004e+01) (3, 3.47451563337699482759e+01) (4, -1.43665312884420570683e+00) (5, 1.58250422101065595371e+01) (6, -9.51284727241103311712e+00) (7, -3.81619800011139531648e+00) (0, 7.74084516627392247301e+01) (1, -4.64223491723165082590e+01) (2, -2.17205622919121950076e+01) (3, 4.71680192716383785978e+01) (4, -1.39722041321059951002e+01) (5, -3.08255280082764926419e+01) (6, -2.96947015330675334610e+01) (7, 9.32801674546012371536e+00) (0, 2.22115344274232917599e+00) (1, -9.61868762139099153785e+00) (2, -5.44481990045948549550e-01) (3, 3.85721882950238370569e+00) (4, -2.44114700016950658679e+00) (5, -1.38345585638130641470e+00) (6, 4.54615567719228508281e+00) (7, 1.99959997950360723884e+00) (0, -1.21116300169060181702e+02) (1, 1.36734878167521969772e+02) (2, -3.04614973230283681005e+01) (3, 1.03210432091998587367e+01) (4, 1.15412085599175654238e+02) (5, 2.25435214111780801716e+01) (6, 7.29242815529140102626e+01) (7, -7.14756986048810460943e+01) (0, 1.66204942824966394710e+02) (1, -1.26855918433250735688e+02) (2, 3.14763754628567049565e+01) (3, -1.16376659838090191101e+02) (4, -1.07100327008789300010e+01) (5, -1.84766444538973679812e+01) (6, 5.29107932881766700461e+01) (7, 4.93742684177914341603e+01) (8, 4.58975507970057172713e+00) (9, -2.76566161358508377788e+00) (10, 5.68626386611805134663e+00) (11, 2.53914190501415770740e+00) (12, 5.79864631021018173129e+00) (13, 4.78661026797075450645e+00) (14, 7.36060395297244074442e+00) (15, -4.71956703285100331868e+00) (16, 3.63664087424022408612e+00) (17, -4.91240224854821772027e+00) (18, 3.81960710949317672203e+00) (19, 2.24308018095496253252e+00) (20, -1.41150645712181237457e+01) (21, 2.69396366786495056189e+00) (22, -2.06157103255799833974e+00) (23, -4.92661682817443757898e+00) 
