FANN_FLO_2.1
num_layers=3
learning_rate=0.700000
connection_rate=1.000000
network_type=0
learning_momentum=0.000000
training_algorithm=2
train_error_function=1
train_stop_function=0
cascade_output_change_fraction=0.010000
quickprop_decay=-0.000100
quickprop_mu=1.750000
rprop_increase_factor=1.200000
rprop_decrease_factor=0.500000
rprop_delta_min=0.000000
rprop_delta_max=50.000000
rprop_delta_zero=0.100000
cascade_output_stagnation_epochs=12
cascade_candidate_change_fraction=0.010000
cascade_candidate_stagnation_epochs=12
cascade_max_out_epochs=150
cascade_max_cand_epochs=150
cascade_num_candidate_groups=2
bit_fail_limit=3.49999999999999977796e-01
cascade_candidate_limit=1.00000000000000000000e+03
cascade_weight_multiplier=4.00000000000000022204e-01
cascade_activation_functions_count=10
cascade_activation_functions=3 5 7 8 10 11 14 15 16 17 
cascade_activation_steepnesses_count=4
cascade_activation_steepnesses=2.50000000000000000000e-01 5.00000000000000000000e-01 7.50000000000000000000e-01 1.00000000000000000000e+00 
layer_sizes=8 15 2 
scale_included=0
neurons (num_inputs, activation_function, activation_steepness)=(0, 0, 0.00000000000000000000e+00) (0, 0, 0.00000000000000000000e+00) (0, 0, 0.00000000000000000000e+00) (0, 0, 0.00000000000000000000e+00) (0, 0, 0.00000000000000000000e+00) (0, 0, 0.00000000000000000000e+00) (0, 0, 0.00000000000000000000e+00) (0, 0, 0.00000000000000000000e+00) (8, 4, 5.00000000000000000000e-01) (8, 4, 5.00000000000000000000e-01) (8, 4, 5.00000000000000000000e-01) (8, 4, 5.00000000000000000000e-01) (8, 4, 5.00000000000000000000e-01) (8, 4, 5.00000000000000000000e-01) (8, 4, 5.00000000000000000000e-01) (8, 4, 5.00000000000000000000e-01) (8, 4, 5.00000000000000000000e-01) (8, 4, 5.00000000000000000000e-01) (8, 4, 5.00000000000000000000e-01) (8, 4, 5.00000000000000000000e-01) (8, 4, 5.00000000000000000000e-01) (8, 4, 5.00000000000000000000e-01) (0, 0, 0.00000000000000000000e+00) (15, 6, 5.00000000000000000000e-01) (0, 6, 0.00000000000000000000e+00) 
connections (connected_to_neuron, weight)=(0, -5.00532442422239327584e+01) (1, -1.97562608157710357659e+01) (2, -7.40395350492916719531e+01) (3, -2.28711666495609478034e+01) (4, -9.58785306937360246593e+01) (5, 4.36570221925002712737e+01) (6, 9.77103101452349278588e+01) (7, 3.09199341986183107167e+01) (0, 1.07075102161807558332e+03) (1, -2.83595183851175988821e+02) (2, -1.50000000000000000000e+03) (3, -1.50000000000000000000e+03) (4, -8.08153097628534851538e+02) (5, 1.50000000000000000000e+03) (6, 1.46685810355547147310e+02) (7, 2.03903153094566050640e+02) (0, 5.89385520054942162460e+02) (1, 7.79095782740533167043e+01) (2, 1.06940102842314740883e+03) (3, -3.63272183399245079727e+02) (4, -8.96958902549819981687e+02) (5, 8.64976196061465429921e+01) (6, -1.37349331977766746604e+03) (7, 1.12893060175463858741e+02) (0, 7.28587153104537037507e+01) (1, 9.21956927936996795125e-01) (2, 7.39254617841464209960e+01) (3, -1.04796809959132687595e+02) (4, 6.76802243985150369099e+01) (5, 4.25879280900916201702e-01) (6, -8.17742481065475033120e+01) (7, -1.90230951425131635801e+01) (0, -1.50000000000000000000e+03) (1, -1.23896814517189386606e+03) (2, 1.50000000000000000000e+03) (3, 1.50000000000000000000e+03) (4, 1.50594375413348359416e+02) (5, -1.48482007437248489623e+03) (6, 9.80164309720520463998e+02) (7, 1.50000000000000000000e+03) (0, -1.92743939444170251818e+02) (1, 1.77692877480628482090e+02) (2, -1.92233361998115611868e+02) (3, 1.95889926373836857465e+02) (4, -3.38661755974993582186e+02) (5, 3.69893240326912078331e+01) (6, 2.47592000750866674252e+02) (7, 7.66825124848905392838e+00) (0, 2.96660912257881420828e+02) (1, 6.06089667331323767030e+02) (2, 8.15147723490993485029e+02) (3, -1.50000000000000000000e+03) (4, 4.06981770102479003981e+02) (5, 1.50000000000000000000e+03) (6, -3.04259140164956932040e+02) (7, 1.11240075037613479481e+02) (0, -1.50000000000000000000e+03) (1, -8.71386843954111782296e+02) (2, 1.50000000000000000000e+03) (3, 1.40574065594732746831e+03) (4, -1.48677482834422335145e+03) (5, -1.50000000000000000000e+03) (6, -1.22475305732782385348e+03) (7, 8.32236273961921028786e+02) (0, 1.48693445871538557412e+02) (1, 1.22156718291228294504e+01) (2, -1.56565478833748244369e+02) (3, -3.08408650613904136151e+01) (4, -3.86296457871660336991e+01) (5, 1.66243321314201779160e+02) (6, -5.27498212689718144475e+01) (7, -7.30383821287439900516e+01) (0, 1.50000000000000000000e+03) (1, 1.50000000000000000000e+03) (2, 1.44976229993481894098e+02) (3, -1.50000000000000000000e+03) (4, 9.27421343386802277564e+02) (5, -1.70946080413549168497e+02) (6, 1.50000000000000000000e+03) (7, -5.79898470983558667058e+01) (0, 1.41220257762777123389e+03) (1, 1.42353791794539802140e+03) (2, -5.55449041733959347766e+02) (3, -1.45761250635845499346e+03) (4, -1.50000000000000000000e+03) (5, 1.16592147859015904032e+03) (6, 4.24246773420722774972e+02) (7, -9.39605128780580002967e+02) (0, 1.50000000000000000000e+03) (1, 1.50000000000000000000e+03) (2, -1.50000000000000000000e+03) (3, -1.50000000000000000000e+03) (4, 1.31310535293760381137e+03) (5, -1.18297092546728868001e+03) (6, 1.50000000000000000000e+03) (7, 9.33681799758127340283e+02) (0, -8.65465685957808972262e+01) (1, 8.55898088964921726074e+01) (2, -1.80951314801138138932e+01) (3, -3.94094101496460638145e+01) (4, -2.22130649442576633135e+01) (5, 8.44214428609815428217e+01) (6, 1.42325145592014266072e+01) (7, 5.61089543603186484688e+01) (0, 1.45902284544269519984e+02) (1, -1.33218402271792115243e+02) (2, 1.73179852748479447655e+02) (3, -3.16531045037601614922e+01) (4, 2.81033012779678976756e+01) (5, -4.19202084600665045855e+01) (6, -7.84845492521639869210e+01) (7, -6.54857884860337691180e+00) (8, -1.86536583024329960523e+00) (9, 2.54910403102710425571e+00) (10, 5.91150667993191158978e-01) (11, -1.28859802306755866219e+00) (12, -2.32509353150510067465e+00) (13, -1.36365745251869641130e+00) (14, 1.77244279000028748250e+00) (15, -5.34993913051995839680e-01) (16, -1.48854768122913116990e+00) (17, 4.85222289864696154638e+00) (18, 1.66009728103513054531e-01) (19, 2.73124862150087110990e+00) (20, -2.39706224727121863793e+00) (21, 1.18215772203467950341e+00) (22, -4.38449573163307171342e+00) 
