FANN_FLO_2.1
num_layers=3
learning_rate=0.700000
connection_rate=1.000000
network_type=0
learning_momentum=0.000000
training_algorithm=2
train_error_function=1
train_stop_function=0
cascade_output_change_fraction=0.010000
quickprop_decay=-0.000100
quickprop_mu=1.750000
rprop_increase_factor=1.200000
rprop_decrease_factor=0.500000
rprop_delta_min=0.000000
rprop_delta_max=50.000000
rprop_delta_zero=0.100000
cascade_output_stagnation_epochs=12
cascade_candidate_change_fraction=0.010000
cascade_candidate_stagnation_epochs=12
cascade_max_out_epochs=150
cascade_max_cand_epochs=150
cascade_num_candidate_groups=2
bit_fail_limit=3.49999999999999977796e-01
cascade_candidate_limit=1.00000000000000000000e+03
cascade_weight_multiplier=4.00000000000000022204e-01
cascade_activation_functions_count=10
cascade_activation_functions=3 5 7 8 10 11 14 15 16 17 
cascade_activation_steepnesses_count=4
cascade_activation_steepnesses=2.50000000000000000000e-01 5.00000000000000000000e-01 7.50000000000000000000e-01 1.00000000000000000000e+00 
layer_sizes=8 16 2 
scale_included=0
neurons (num_inputs, activation_function, activation_steepness)=(0, 0, 0.00000000000000000000e+00) (0, 0, 0.00000000000000000000e+00) (0, 0, 0.00000000000000000000e+00) (0, 0, 0.00000000000000000000e+00) (0, 0, 0.00000000000000000000e+00) (0, 0, 0.00000000000000000000e+00) (0, 0, 0.00000000000000000000e+00) (0, 0, 0.00000000000000000000e+00) (8, 4, 5.00000000000000000000e-01) (8, 4, 5.00000000000000000000e-01) (8, 4, 5.00000000000000000000e-01) (8, 4, 5.00000000000000000000e-01) (8, 4, 5.00000000000000000000e-01) (8, 4, 5.00000000000000000000e-01) (8, 4, 5.00000000000000000000e-01) (8, 4, 5.00000000000000000000e-01) (8, 4, 5.00000000000000000000e-01) (8, 4, 5.00000000000000000000e-01) (8, 4, 5.00000000000000000000e-01) (8, 4, 5.00000000000000000000e-01) (8, 4, 5.00000000000000000000e-01) (8, 4, 5.00000000000000000000e-01) (8, 4, 5.00000000000000000000e-01) (0, 0, 0.00000000000000000000e+00) (16, 6, 5.00000000000000000000e-01) (0, 6, 0.00000000000000000000e+00) 
connections (connected_to_neuron, weight)=(0, -1.50000000000000000000e+03) (1, -1.50000000000000000000e+03) (2, 1.21284288159775928762e+03) (3, 1.50000000000000000000e+03) (4, 1.50000000000000000000e+03) (5, -2.55150691306534980640e+02) (6, 1.48588882186363662186e+03) (7, -3.64617738530826443366e+02) (0, 1.20550240923084444944e+02) (1, -3.12367884701787886570e+02) (2, 8.86340376455904959130e+01) (3, -2.91736227939138395016e+01) (4, -9.44329641183037260532e+00) (5, -1.03895105077592759812e+01) (6, 2.86298473428913844430e+01) (7, 3.44441114378897452752e+01) (0, -1.50000000000000000000e+03) (1, -1.50000000000000000000e+03) (2, -1.50000000000000000000e+03) (3, -4.03129917821222193197e+02) (4, 6.17826325289544115549e+02) (5, -8.49037235844618862757e+01) (6, 1.30147034385589881822e+03) (7, 2.04211864899173406229e+02) (0, -6.86187584949802076295e+00) (1, -1.59502486849470379582e+01) (2, 1.15917645356574983140e+01) (3, -2.14019786641521436721e-01) (4, -2.49708955343790472980e+00) (5, 9.60502925915861460737e+00) (6, 4.69006882492751575597e+00) (7, -4.93790669121876479863e+00) (0, 5.54566423456591905961e+00) (1, -2.10465755398765367090e+02) (2, 4.94361157183085637712e+01) (3, 5.10319477875589178062e-01) (4, -2.47750214140579885225e+01) (5, 1.70694270241257122223e+01) (6, 4.94762736178388209396e+01) (7, 9.36868480516690915749e+00) (0, -1.21672197235777005631e+02) (1, -1.81410173416306790273e+01) (2, 1.77600503565878931056e+01) (3, 9.40089725780297271740e+01) (4, -7.64611472427825944465e+00) (5, -2.25556500375053259333e+00) (6, -1.71328346719897410821e+01) (7, -2.51425126072383342546e+01) (0, -6.50541966706260723186e+02) (1, 5.92532520831246188209e+02) (2, 3.26723470951310957844e+02) (3, -2.33465568721700918786e+02) (4, -1.10394330567394808895e+03) (5, 1.43220750888891257091e+03) (6, -8.54351485596128441102e+02) (7, -4.25837832851796008526e+02) (0, 3.14529038224790099321e+02) (1, -5.48809653244901596736e+02) (2, 4.43685799283690130324e+02) (3, 5.23202212579257945890e+01) (4, 7.78114285082059820020e-01) (5, 2.79810954612147781972e+01) (6, -4.83772882983805970980e+02) (7, -4.49588966412690709262e+01) (0, -1.50000000000000000000e+03) (1, -1.50000000000000000000e+03) (2, -1.50000000000000000000e+03) (3, -1.42193447724978818769e+03) (4, 1.46442222876924984121e+03) (5, -1.13322784785341823977e+02) (6, -8.00163537659845701455e+02) (7, 3.18763965662747466467e+02) (0, -3.86043226545237700975e+02) (1, 4.67108385209917287284e+02) (2, -5.25310327652481277028e+01) (3, -1.89638184826256861015e+02) (4, -7.60337640708371736764e+02) (5, 1.50000000000000000000e+03) (6, -3.05218876349092511191e+02) (7, -4.99865050570025516663e+02) (0, -7.30797955942718147071e+00) (1, -4.33531579586862534370e+01) (2, -1.59322797349378646459e+01) (3, 2.49433577715897811800e+01) (4, -1.10584871204489960661e+01) (5, 4.22143035370087282843e+00) (6, 2.18250295055198080263e+01) (7, 9.61169962252521714596e-01) (0, -6.13560023813509701540e+02) (1, -1.51922469942577066604e+02) (2, -1.17563103396938913647e+03) (3, -2.43443921734352699104e+02) (4, 8.27414938179403520735e+01) (5, -8.20498431338190130191e+02) (6, 1.09154390383630448014e+03) (7, 2.70278071047767696200e+02) (0, 7.09157096975420619955e-01) (1, 6.12007825568215864109e+01) (2, -5.19436712781969518460e+01) (3, 4.34238912032432864407e+01) (4, -4.41894823542579118225e+00) (5, -4.96886480031598409823e+00) (6, -1.08281994283234350718e+01) (7, -4.29546624362748463710e+00) (0, 3.77851959021656291782e+00) (1, 3.20103253571590951054e+00) (2, 1.13139627229055488300e+01) (3, -1.44487248157691698935e+01) (4, -7.56129283809625629686e+00) (5, 3.68994905879366319468e+00) (6, -1.64297494209010004340e+01) (7, 1.45993190095103608783e+00) (0, 2.64098315127185628626e+02) (1, 4.20277597437582812745e+01) (2, 3.34177650294238830497e+01) (3, -2.39523475133432043549e+02) (4, -2.20472521734715314778e+02) (5, 5.78269277919916149244e+01) (6, -3.87815235435483998572e+02) (7, 1.16074574693529740443e+02) (8, -1.04793167959419952773e+00) (9, -3.93556323456872769739e+00) (10, -9.90490610275956084863e-01) (11, -3.03513094323702192767e+00) (12, -5.81092031080958015821e+00) (13, 2.83998138483713624680e+00) (14, 1.22647715198266582526e+00) (15, 1.75052964097683894096e+00) (16, -1.27694198172683726078e+00) (17, 7.94256190355756674926e-01) (18, 6.69089478763161871200e+00) (19, 3.05453924447788183194e-01) (20, -6.57963780287185162621e+00) (21, -5.75426831752128364883e+00) (22, 2.26574592209267855480e+00) (23, 7.52686255526820779949e+00) 
