FANN_FLO_2.1
num_layers=3
learning_rate=0.700000
connection_rate=1.000000
network_type=0
learning_momentum=0.000000
training_algorithm=2
train_error_function=1
train_stop_function=0
cascade_output_change_fraction=0.010000
quickprop_decay=-0.000100
quickprop_mu=1.750000
rprop_increase_factor=1.200000
rprop_decrease_factor=0.500000
rprop_delta_min=0.000000
rprop_delta_max=50.000000
rprop_delta_zero=0.100000
cascade_output_stagnation_epochs=12
cascade_candidate_change_fraction=0.010000
cascade_candidate_stagnation_epochs=12
cascade_max_out_epochs=150
cascade_max_cand_epochs=150
cascade_num_candidate_groups=2
bit_fail_limit=3.49999999999999977796e-01
cascade_candidate_limit=1.00000000000000000000e+03
cascade_weight_multiplier=4.00000000000000022204e-01
cascade_activation_functions_count=10
cascade_activation_functions=3 5 7 8 10 11 14 15 16 17 
cascade_activation_steepnesses_count=4
cascade_activation_steepnesses=2.50000000000000000000e-01 5.00000000000000000000e-01 7.50000000000000000000e-01 1.00000000000000000000e+00 
layer_sizes=8 9 2 
scale_included=0
neurons (num_inputs, activation_function, activation_steepness)=(0, 0, 0.00000000000000000000e+00) (0, 0, 0.00000000000000000000e+00) (0, 0, 0.00000000000000000000e+00) (0, 0, 0.00000000000000000000e+00) (0, 0, 0.00000000000000000000e+00) (0, 0, 0.00000000000000000000e+00) (0, 0, 0.00000000000000000000e+00) (0, 0, 0.00000000000000000000e+00) (8, 4, 5.00000000000000000000e-01) (8, 4, 5.00000000000000000000e-01) (8, 4, 5.00000000000000000000e-01) (8, 4, 5.00000000000000000000e-01) (8, 4, 5.00000000000000000000e-01) (8, 4, 5.00000000000000000000e-01) (8, 4, 5.00000000000000000000e-01) (8, 4, 5.00000000000000000000e-01) (0, 0, 0.00000000000000000000e+00) (9, 6, 5.00000000000000000000e-01) (0, 6, 0.00000000000000000000e+00) 
connections (connected_to_neuron, weight)=(0, -2.89492311345923880594e+01) (1, 2.60270681679192570357e+01) (2, -1.87852159398622511333e+01) (3, 1.63094447869709959775e+01) (4, 5.40002688360277538493e-01) (5, -1.22879721248955231516e+01) (6, 9.80665277706075499964e+00) (7, -5.53915899761778351973e+00) (0, 9.47951665514695037018e+02) (1, -1.79704705429532396010e+02) (2, -1.50000000000000000000e+03) (3, 2.89320790510181836908e+02) (4, 2.95794061953462176007e+02) (5, -5.72784622776229412011e+02) (6, -1.88938074147671613900e+02) (7, 6.77371644596808852867e+00) (0, 1.71386898134865695020e+00) (1, 1.32390544440690955952e+01) (2, -2.79150629676943289326e+01) (3, 2.79387592612917252666e+01) (4, -1.62226481759673362149e+01) (5, 4.34462277576087956277e+01) (6, -4.98388137437498190963e+00) (7, -8.62552423350025776472e+00) (0, 1.12691018321887348463e+01) (1, -6.00079679050558834064e+00) (2, -3.45299400338414108624e-01) (3, 1.53099815609846423570e+01) (4, -1.79440563849708070165e+01) (5, -1.81035198365211122962e+01) (6, 1.02754160801399656577e+01) (7, -9.66354311153000011814e+00) (0, -2.93750355404306276341e+02) (1, 9.75565298263994833405e+01) (2, -4.60038026547603237759e+02) (3, 1.75875903681613721119e+02) (4, 2.00220970901501374328e+02) (5, 1.50000000000000000000e+03) (6, 4.34584863920780662738e+02) (7, -6.59613920919796555609e+02) (0, 5.70825475321987596544e+02) (1, -3.97074584299946138799e+02) (2, -4.53176570624816349664e+02) (3, 1.29714795080948965733e+03) (4, -9.75251267907133069457e+02) (5, -1.50000000000000000000e+03) (6, -1.24284860950048241079e+02) (7, 1.13172026596469464721e+02) (0, 1.33229556447651944495e+01) (1, 1.08122577387848899377e+01) (2, -5.83157004687260283049e+00) (3, -1.34314584170832973520e+00) (4, 3.73138481106667754261e+01) (5, 3.56067841375711058305e+00) (6, -4.80713760443958459945e+00) (7, -1.77886316644251571972e+01) (0, 1.56518930428107410080e+02) (1, 4.33462717393952686962e+02) (2, -2.94524505452469725242e+02) (3, -3.71604816984593981033e+02) (4, 1.50000000000000000000e+03) (5, 1.50000000000000000000e+03) (6, -7.99162224047591109866e+01) (7, -3.05352481902629563137e+02) (8, -4.39691992889814997625e+00) (9, -4.73714563950814770976e+00) (10, 4.09640472612755335291e+00) (11, -3.69912883542443271523e+00) (12, -2.67671730746374914034e+00) (13, 5.09444215827450275214e+00) (14, 2.87798351794696660733e+00) (15, -3.46263176913942460899e+00) (16, -8.49467999404037166222e-01) 
