FANN_FLO_2.1
num_layers=3
learning_rate=0.700000
connection_rate=1.000000
network_type=0
learning_momentum=0.000000
training_algorithm=2
train_error_function=1
train_stop_function=0
cascade_output_change_fraction=0.010000
quickprop_decay=-0.000100
quickprop_mu=1.750000
rprop_increase_factor=1.200000
rprop_decrease_factor=0.500000
rprop_delta_min=0.000000
rprop_delta_max=50.000000
rprop_delta_zero=0.100000
cascade_output_stagnation_epochs=12
cascade_candidate_change_fraction=0.010000
cascade_candidate_stagnation_epochs=12
cascade_max_out_epochs=150
cascade_max_cand_epochs=150
cascade_num_candidate_groups=2
bit_fail_limit=3.49999999999999977796e-01
cascade_candidate_limit=1.00000000000000000000e+03
cascade_weight_multiplier=4.00000000000000022204e-01
cascade_activation_functions_count=10
cascade_activation_functions=3 5 7 8 10 11 14 15 16 17 
cascade_activation_steepnesses_count=4
cascade_activation_steepnesses=2.50000000000000000000e-01 5.00000000000000000000e-01 7.50000000000000000000e-01 1.00000000000000000000e+00 
layer_sizes=8 9 2 
scale_included=0
neurons (num_inputs, activation_function, activation_steepness)=(0, 0, 0.00000000000000000000e+00) (0, 0, 0.00000000000000000000e+00) (0, 0, 0.00000000000000000000e+00) (0, 0, 0.00000000000000000000e+00) (0, 0, 0.00000000000000000000e+00) (0, 0, 0.00000000000000000000e+00) (0, 0, 0.00000000000000000000e+00) (0, 0, 0.00000000000000000000e+00) (8, 4, 5.00000000000000000000e-01) (8, 4, 5.00000000000000000000e-01) (8, 4, 5.00000000000000000000e-01) (8, 4, 5.00000000000000000000e-01) (8, 4, 5.00000000000000000000e-01) (8, 4, 5.00000000000000000000e-01) (8, 4, 5.00000000000000000000e-01) (8, 4, 5.00000000000000000000e-01) (0, 0, 0.00000000000000000000e+00) (9, 6, 5.00000000000000000000e-01) (0, 6, 0.00000000000000000000e+00) 
connections (connected_to_neuron, weight)=(0, 1.09328382021349284514e+02) (1, -1.16608000499205637368e+01) (2, 1.60449624671683295674e+02) (3, 5.16653380115633424907e+01) (4, -4.93508262101291052204e+02) (5, -2.05721578315438478057e+02) (6, 8.68252927357119261842e+01) (7, 3.22201487272316853705e+02) (0, -9.88734695224283370862e+01) (1, 4.87428206914295785168e+01) (2, 3.19614818787268745837e+02) (3, -2.98076320475185276848e+01) (4, 9.13415152425190399299e+02) (5, -1.50000000000000000000e+03) (6, -4.88575217497153971635e+02) (7, 7.37233059515570090525e+01) (0, -2.69768144889204783965e+01) (1, 1.94492645324103747839e+01) (2, 3.44926639295324788392e+00) (3, 5.91683744287438348475e-02) (4, 5.20114869258385792428e-01) (5, 3.31574571496105585666e+00) (6, -1.30303993467090400982e-01) (7, -4.81215293834336321765e+00) (0, -1.46445209393986488067e+03) (1, 1.32502836578017627289e+03) (2, -4.08273512865132317984e+02) (3, 5.14773281458006749745e+02) (4, 1.37250229586605314580e+02) (5, -5.40579040651718258914e+01) (6, 3.70905188672594022137e+02) (7, -1.63153115433374047427e+01) (0, -8.64204959356286472882e+00) (1, 5.22752404682450322326e-01) (2, -3.58984690052509858305e+00) (3, 6.63798665494051221003e+00) (4, -1.52472270872721127333e+00) (5, -3.82249789401456574467e+00) (6, 4.26242012461077557361e+00) (7, 3.10281332045689506316e+00) (0, -2.25557000670201404091e+01) (1, 2.25179301450513946747e+01) (2, -4.39871020197468709512e+00) (3, 2.97135783284222121381e+00) (4, -3.00567681962112676075e+00) (5, 2.83522301618510930155e+00) (6, -1.79960614027031451378e+00) (7, -2.78949126448515727361e+00) (0, -1.49929541630578978584e+03) (1, 1.19742800205093453769e+03) (2, -2.42788612084916017864e+01) (3, -1.26121647298267859583e+02) (4, -7.40662520632387639807e+01) (5, -1.79801490906544501058e+02) (6, 5.05931281220101254803e+02) (7, 1.68457062596089670592e+01) (0, -1.50380885953337841698e+01) (1, 5.62718250432329369914e+00) (2, -4.76719504483409828310e+00) (3, 6.08678185585398168200e+00) (4, -2.35678062683599875982e+00) (5, -3.62451419361574345146e+00) (6, 5.79009579680232810972e+00) (7, 4.28528735321186449170e+00) (8, 6.99053679348871970234e-01) (9, 9.33584758660183200440e-01) (10, 3.53024196018913682948e+00) (11, -1.06900331970778350588e+00) (12, -7.33122217995719349659e+00) (13, -4.26073532867758153486e+00) (14, -4.19127896636219299253e-01) (15, 6.33575951425597505562e+00) (16, 8.18365992817973508799e-01) 
