FANN_FLO_2.1
num_layers=3
learning_rate=0.700000
connection_rate=1.000000
network_type=0
learning_momentum=0.000000
training_algorithm=2
train_error_function=1
train_stop_function=0
cascade_output_change_fraction=0.010000
quickprop_decay=-0.000100
quickprop_mu=1.750000
rprop_increase_factor=1.200000
rprop_decrease_factor=0.500000
rprop_delta_min=0.000000
rprop_delta_max=50.000000
rprop_delta_zero=0.100000
cascade_output_stagnation_epochs=12
cascade_candidate_change_fraction=0.010000
cascade_candidate_stagnation_epochs=12
cascade_max_out_epochs=150
cascade_max_cand_epochs=150
cascade_num_candidate_groups=2
bit_fail_limit=3.49999999999999977796e-01
cascade_candidate_limit=1.00000000000000000000e+03
cascade_weight_multiplier=4.00000000000000022204e-01
cascade_activation_functions_count=10
cascade_activation_functions=3 5 7 8 10 11 14 15 16 17 
cascade_activation_steepnesses_count=4
cascade_activation_steepnesses=2.50000000000000000000e-01 5.00000000000000000000e-01 7.50000000000000000000e-01 1.00000000000000000000e+00 
layer_sizes=8 8 2 
scale_included=0
neurons (num_inputs, activation_function, activation_steepness)=(0, 0, 0.00000000000000000000e+00) (0, 0, 0.00000000000000000000e+00) (0, 0, 0.00000000000000000000e+00) (0, 0, 0.00000000000000000000e+00) (0, 0, 0.00000000000000000000e+00) (0, 0, 0.00000000000000000000e+00) (0, 0, 0.00000000000000000000e+00) (0, 0, 0.00000000000000000000e+00) (8, 4, 5.00000000000000000000e-01) (8, 4, 5.00000000000000000000e-01) (8, 4, 5.00000000000000000000e-01) (8, 4, 5.00000000000000000000e-01) (8, 4, 5.00000000000000000000e-01) (8, 4, 5.00000000000000000000e-01) (8, 4, 5.00000000000000000000e-01) (0, 0, 0.00000000000000000000e+00) (8, 6, 5.00000000000000000000e-01) (0, 6, 0.00000000000000000000e+00) 
connections (connected_to_neuron, weight)=(0, -1.37613662131819069145e+03) (1, 1.48450976201150501765e+03) (2, 2.88561562630748596803e+02) (3, -8.25153372210357929362e+02) (4, 3.36135087007709330464e+02) (5, -1.50000000000000000000e+03) (6, -1.37016048259426224831e+03) (7, 2.90532335660999251559e+02) (0, -1.50000000000000000000e+03) (1, -1.50000000000000000000e+03) (2, -1.50000000000000000000e+03) (3, -5.98133008372726635571e+02) (4, -4.81617053258882720002e+02) (5, 1.50000000000000000000e+03) (6, -1.50000000000000000000e+03) (7, -9.15528949065543429242e+01) (0, 1.94309739012457953322e+02) (1, -2.55906152387841601126e+01) (2, 1.02501331565923138101e+02) (3, -6.95726689689869033373e+01) (4, 2.50193528123563559973e+01) (5, -2.15086907183139928179e+01) (6, -1.99252481376001981062e+02) (7, 1.72926898775011572695e+01) (0, 1.50000000000000000000e+03) (1, 1.45506715126027688711e+03) (2, -1.82447370156792374019e+02) (3, -1.29043502919796355854e+03) (4, 9.08955568392825199453e+01) (5, 1.03915307508325554409e+02) (6, 1.50000000000000000000e+03) (7, 2.82484308221584967669e+02) (0, 4.79362886534663612537e+00) (1, 2.74875369522276979950e+00) (2, 5.26969455251855034561e+00) (3, -2.88125044876545421957e+00) (4, -1.41470876777070087016e+00) (5, 5.38492392574625555746e-01) (6, -1.12909918791754240175e+01) (7, 2.71604557384388778374e+00) (0, -9.43766495905084923379e+01) (1, -5.19934784918234669249e+01) (2, -2.24727647899092310979e+01) (3, -1.30481146195155957912e+02) (4, 1.41570026659264613045e+02) (5, -9.11401342816252224566e+01) (6, 1.41653004764524723669e+02) (7, -9.05235669084509364524e-01) (0, -3.32254987124336409465e+00) (1, 3.57275626221736786192e+00) (2, 1.21125980117022691296e+00) (3, 2.37554725223750331509e+01) (4, -3.00251078225683176726e+00) (5, 4.73515581553837705542e+00) (6, -1.49986392772351031510e+01) (7, -5.40070603982335395443e+00) (8, -6.41985361454956104943e-01) (9, 8.95508618262899513951e-01) (10, -1.94786815713219496615e+00) (11, -1.54103370863841582228e+00) (12, 6.31089868342994098072e+00) (13, 1.19290877848353771284e+00) (14, -1.90175836728936764608e+00) (15, -8.24727393006817299792e-01) 
