FANN_FLO_2.1
num_layers=4
learning_rate=0.700000
connection_rate=1.000000
network_type=0
learning_momentum=0.000000
training_algorithm=2
train_error_function=1
train_stop_function=0
cascade_output_change_fraction=0.010000
quickprop_decay=-0.000100
quickprop_mu=1.750000
rprop_increase_factor=1.200000
rprop_decrease_factor=0.500000
rprop_delta_min=0.000000
rprop_delta_max=50.000000
rprop_delta_zero=0.100000
cascade_output_stagnation_epochs=12
cascade_candidate_change_fraction=0.010000
cascade_candidate_stagnation_epochs=12
cascade_max_out_epochs=150
cascade_max_cand_epochs=150
cascade_num_candidate_groups=2
bit_fail_limit=3.49999999999999977796e-01
cascade_candidate_limit=1.00000000000000000000e+03
cascade_weight_multiplier=4.00000000000000022204e-01
cascade_activation_functions_count=10
cascade_activation_functions=3 5 7 8 10 11 14 15 16 17 
cascade_activation_steepnesses_count=4
cascade_activation_steepnesses=2.50000000000000000000e-01 5.00000000000000000000e-01 7.50000000000000000000e-01 1.00000000000000000000e+00 
layer_sizes=8 10 10 2 
scale_included=0
neurons (num_inputs, activation_function, activation_steepness)=(0, 0, 0.00000000000000000000e+00) (0, 0, 0.00000000000000000000e+00) (0, 0, 0.00000000000000000000e+00) (0, 0, 0.00000000000000000000e+00) (0, 0, 0.00000000000000000000e+00) (0, 0, 0.00000000000000000000e+00) (0, 0, 0.00000000000000000000e+00) (0, 0, 0.00000000000000000000e+00) (8, 4, 5.00000000000000000000e-01) (8, 4, 5.00000000000000000000e-01) (8, 4, 5.00000000000000000000e-01) (8, 4, 5.00000000000000000000e-01) (8, 4, 5.00000000000000000000e-01) (8, 4, 5.00000000000000000000e-01) (8, 4, 5.00000000000000000000e-01) (8, 4, 5.00000000000000000000e-01) (8, 4, 5.00000000000000000000e-01) (0, 0, 0.00000000000000000000e+00) (10, 4, 5.00000000000000000000e-01) (10, 4, 5.00000000000000000000e-01) (10, 4, 5.00000000000000000000e-01) (10, 4, 5.00000000000000000000e-01) (10, 4, 5.00000000000000000000e-01) (10, 4, 5.00000000000000000000e-01) (10, 4, 5.00000000000000000000e-01) (10, 4, 5.00000000000000000000e-01) (10, 4, 5.00000000000000000000e-01) (0, 0, 0.00000000000000000000e+00) (10, 6, 5.00000000000000000000e-01) (0, 6, 0.00000000000000000000e+00) 
connections (connected_to_neuron, weight)=(0, -1.81313810742844935930e+02) (1, 5.66748178651522493965e+02) (2, -1.58541398547828080723e+01) (3, -2.67889139136831204269e+02) (4, -5.24785535141241439305e+02) (5, 1.50000000000000000000e+03) (6, -2.45639051985878438700e+02) (7, -2.24174476096795629587e+01) (0, 1.72651446528101018885e+02) (1, -2.34567737554860030968e+02) (2, 9.74072733937627646128e+01) (3, 1.50000000000000000000e+03) (4, -3.28067825314217600408e+02) (5, -1.45507199433517416765e+03) (6, 1.50000000000000000000e+03) (7, 1.59536106307925592773e+02) (0, 1.76092140130536023435e+00) (1, 1.92214961701494857493e+01) (2, -2.07880858368651573187e+01) (3, -4.67479726121935215133e+01) (4, 3.30105842635010233721e+01) (5, 7.87066860693597014631e+00) (6, 2.92249238319722088875e+01) (7, -1.87580514016965480550e+01) (0, -2.59376533656844117104e+01) (1, 1.31164058377658196974e+01) (2, 1.64546433425852889343e+01) (3, 4.24317299017577624909e+01) (4, -1.21870467450666239984e+01) (5, 2.15640282896767985221e+01) (6, -2.42003838092876328858e+01) (7, -1.35297055987172204494e-01) (0, 5.92612997780327077635e+02) (1, 9.23626270916201441707e+00) (2, -1.45567430942426881302e+02) (3, 2.13870264521056441254e+01) (4, 1.80987668619413625493e+02) (5, -3.39616479856461410236e+02) (6, -3.58094895072520330359e+02) (7, -2.67976405596513238550e+01) (0, -1.58839955980725591189e+01) (1, -1.63104810891969016495e+01) (2, -4.84372257376909587379e+01) (3, 2.53901704233586471560e+01) (4, 7.48163409962773187090e+01) (5, 1.97155189429753990860e-01) (6, 9.24132585634811398734e+00) (7, 6.54642160228179470494e+00) (0, -7.09090057270982185855e+01) (1, 1.10389256790940990527e+02) (2, -1.95564555167412976289e+02) (3, 5.48717498462994370811e+01) (4, 6.96953592521594913478e+01) (5, -1.68714512614327212248e+01) (6, 3.18751441776763932978e+01) (7, -1.90912920945255422112e+01) (0, -5.36083962736024801643e+01) (1, -5.73968446581129114747e+02) (2, -1.50269532515713848397e+01) (3, 1.05543098857240408961e+02) (4, 1.90720520924629113324e+02) (5, -1.44868269945656862774e+02) (6, 4.75886895160408414540e+02) (7, -4.62272476392187599004e+01) (0, 4.63856890587894724831e+02) (1, -9.91307603924855584410e+02) (2, -1.93371570080952523085e+02) (3, 1.80043412657610673477e+02) (4, -4.20817766952269039393e+02) (5, -2.51914386914542973273e+02) (6, 1.22823712189259686056e+03) (7, -6.61128244331244587784e+01) (8, 6.61878924160496779905e+01) (9, 1.35926988862170446737e+03) (10, 1.46430526668610627894e+03) (11, 7.51675800225840248459e+02) (12, -1.49496958283688854863e+03) (13, -1.33333586419298649162e+03) (14, 6.63733620878185320180e+02) (15, 7.45934585049946690560e+02) (16, -1.02705085210566699061e+03) (17, 4.59485360192595067019e+02) (8, 1.50000000000000000000e+03) (9, -7.34429399876877823772e+02) (10, -4.98227349961521497335e+02) (11, 1.35397855987096727404e+03) (12, 8.82839343494016588920e+02) (13, -1.49998016108608294417e+03) (14, -1.41547017090337431000e+03) (15, -1.05703698384279718425e+02) (16, 1.50000000000000000000e+03) (17, 2.31555365132058142308e+02) (8, 3.42601896103118352954e+00) (9, -2.21799238653749135608e+01) (10, 3.55788299378373684689e+00) (11, 8.02768732782661764702e+00) (12, 2.42589014188937888150e+01) (13, 3.07380450229646626781e+01) (14, 1.85717785838986841895e+01) (15, 1.38807223088143985024e+01) (16, 3.49103517556368814212e+01) (17, -5.64081339239995358525e+01) (8, 1.48593929977135621812e+03) (9, -4.52062792917310673602e+02) (10, -1.42215473727377730029e+03) (11, 5.78576000709806450573e+01) (12, 1.50000000000000000000e+03) (13, 1.01569336889213252562e+03) (14, 1.29578496078829601856e+02) (15, -5.73911666834456127617e+02) (16, 1.47446086533969855736e+03) (17, -1.48828589993856871843e+03) (8, -1.44806923604928488203e+03) (9, 1.41399537778963008350e+03) (10, -9.19438849623913483811e+02) (11, 4.17002496794229728039e+02) (12, -3.47085045636817312698e+02) (13, -1.21849044486147889188e+02) (14, -1.50000000000000000000e+03) (15, -1.42516817108478039700e+03) (16, -4.40067209057668264904e+02) (17, 1.50000000000000000000e+03) (8, -1.50000000000000000000e+03) (9, 1.44923820884205360926e+03) (10, 1.32574599775364777088e+03) (11, 1.40480477807773627319e+03) (12, -1.41485481456679963230e+03) (13, -1.40219856818613584437e+03) (14, 2.52931109134538672834e+02) (15, -8.29946292917698656311e+02) (16, -1.50000000000000000000e+03) (17, 1.37475100758586859229e+03) (8, -2.12634606257220809766e+02) (9, 5.99200456366274693210e+02) (10, -4.81403034586473040690e+02) (11, 4.74226379676201531765e+02) (12, -3.99207534841972915274e+02) (13, -4.98548175191289601571e+02) (14, 3.39714940015304989629e+02) (15, 1.58747815389783653472e+02) (16, -1.91868022365099193394e+02) (17, 3.11999484814433799329e+02) (8, -3.96891237727645886935e+01) (9, -1.14501229088373023046e+02) (10, -1.22697559896773540800e+02) (11, -3.24133920700179714913e+02) (12, 4.84544375721373157262e+01) (13, -3.88705921369419968414e+02) (14, 1.43180897502549356659e+02) (15, -4.71820205221635490034e+02) (16, -2.24572645427193066325e+02) (17, 8.42045525542509722072e+02) (8, -1.06143035411599771578e+03) (9, 7.77376279536010997617e+02) (10, 1.36389761040408103554e+02) (11, 1.12648755614803508251e+03) (12, -4.38604158848090150968e+01) (13, -1.05442039803446232327e+03) (14, -1.21262844850992010493e+02) (15, 1.91292296243382486942e+00) (16, -1.10539605083997912516e+03) (17, 1.29312504810395398636e+03) (18, -6.58224680084505409106e-01) (19, 1.30319082317136536453e+00) (20, -1.21043885621795865859e+00) (21, 1.17195210858776754925e+00) (22, -5.87199377101018771263e-01) (23, -7.63791366051837061768e-01) (24, -7.76649728044640608182e-01) (25, -9.28911568995983594199e-01) (26, 6.71697565401247809191e-01) (27, 4.27112494310202747694e-02) 
