FANN_FLO_2.1
num_layers=3
learning_rate=0.700000
connection_rate=1.000000
network_type=0
learning_momentum=0.000000
training_algorithm=2
train_error_function=1
train_stop_function=0
cascade_output_change_fraction=0.010000
quickprop_decay=-0.000100
quickprop_mu=1.750000
rprop_increase_factor=1.200000
rprop_decrease_factor=0.500000
rprop_delta_min=0.000000
rprop_delta_max=50.000000
rprop_delta_zero=0.100000
cascade_output_stagnation_epochs=12
cascade_candidate_change_fraction=0.010000
cascade_candidate_stagnation_epochs=12
cascade_max_out_epochs=150
cascade_max_cand_epochs=150
cascade_num_candidate_groups=2
bit_fail_limit=3.49999999999999977796e-01
cascade_candidate_limit=1.00000000000000000000e+03
cascade_weight_multiplier=4.00000000000000022204e-01
cascade_activation_functions_count=10
cascade_activation_functions=3 5 7 8 10 11 14 15 16 17 
cascade_activation_steepnesses_count=4
cascade_activation_steepnesses=2.50000000000000000000e-01 5.00000000000000000000e-01 7.50000000000000000000e-01 1.00000000000000000000e+00 
layer_sizes=8 16 2 
scale_included=0
neurons (num_inputs, activation_function, activation_steepness)=(0, 0, 0.00000000000000000000e+00) (0, 0, 0.00000000000000000000e+00) (0, 0, 0.00000000000000000000e+00) (0, 0, 0.00000000000000000000e+00) (0, 0, 0.00000000000000000000e+00) (0, 0, 0.00000000000000000000e+00) (0, 0, 0.00000000000000000000e+00) (0, 0, 0.00000000000000000000e+00) (8, 4, 5.00000000000000000000e-01) (8, 4, 5.00000000000000000000e-01) (8, 4, 5.00000000000000000000e-01) (8, 4, 5.00000000000000000000e-01) (8, 4, 5.00000000000000000000e-01) (8, 4, 5.00000000000000000000e-01) (8, 4, 5.00000000000000000000e-01) (8, 4, 5.00000000000000000000e-01) (8, 4, 5.00000000000000000000e-01) (8, 4, 5.00000000000000000000e-01) (8, 4, 5.00000000000000000000e-01) (8, 4, 5.00000000000000000000e-01) (8, 4, 5.00000000000000000000e-01) (8, 4, 5.00000000000000000000e-01) (8, 4, 5.00000000000000000000e-01) (0, 0, 0.00000000000000000000e+00) (16, 6, 5.00000000000000000000e-01) (0, 6, 0.00000000000000000000e+00) 
connections (connected_to_neuron, weight)=(0, -6.80190369984536715720e+01) (1, -2.18842215976235756614e+01) (2, 4.35072884008795455202e+01) (3, -1.75914151726737060244e+02) (4, -2.66109337080530679032e+01) (5, -3.44738418308946990010e+01) (6, 1.69852147082640783537e+02) (7, -2.48371510693623100963e+01) (0, 6.83602648727330564071e+00) (1, 2.53797838487164781895e+01) (2, 2.70256254955086312464e+01) (3, -4.50218501632379286548e+01) (4, 1.34588786001190907626e+01) (5, -1.82159303107440742053e+01) (6, -1.27855557940120796445e+01) (7, 3.21138989578859934682e+00) (0, -2.81409413568040704945e+01) (1, 7.30770332565105746880e+01) (2, -3.56189823603263420182e+01) (3, -2.36655500827429641220e+01) (4, 6.62129728265886683403e+01) (5, 1.97228487795947371453e+00) (6, -1.01192327979732143994e+00) (7, -1.36644147142249110516e+01) (0, -2.73553668189662069210e+01) (1, 4.44943591598812133725e+01) (2, -4.46884448325393890400e+01) (3, 1.33246250853018377569e+01) (4, 1.22872956776089417019e+01) (5, -2.35587832036808428882e+01) (6, 8.08924221289435085858e-01) (7, -5.40559030826449848917e+00) (0, -1.17258514910078787352e+02) (1, -2.09871111229531948084e+01) (2, 7.25125758798255191095e+01) (3, 7.24539098434299120299e+01) (4, -1.05699334519793993081e+02) (5, 4.57771547620821692703e+01) (6, -4.48581316714636457732e+01) (7, 2.13597639112648920445e+01) (0, -7.34538016211779609677e+00) (1, 1.32854405372440318445e+01) (2, -1.35560406934848991511e+01) (3, 4.11727349794926933413e+00) (4, -4.64542541567263267410e+00) (5, -5.47427290563098534193e+00) (6, -1.05150371086975269463e+00) (7, -4.43890559211059521072e-01) (0, -1.50000000000000000000e+03) (1, -1.50000000000000000000e+03) (2, 1.27671818272406562755e+03) (3, 1.50000000000000000000e+03) (4, -1.50000000000000000000e+03) (5, -1.50000000000000000000e+03) (6, -3.74223180484210502073e+02) (7, 5.40442178870657770062e+01) (0, -1.50000000000000000000e+03) (1, -1.50000000000000000000e+03) (2, -4.50366747976747092252e+02) (3, 1.50000000000000000000e+03) (4, -1.50000000000000000000e+03) (5, -1.50000000000000000000e+03) (6, -1.50000000000000000000e+03) (7, 3.41976985312132455874e+02) (0, 3.11708450683746534082e+01) (1, -5.98879894975443693994e+00) (2, -2.73236777260393282063e+01) (3, 3.17401947186256307987e+01) (4, -3.76153006666998024343e+01) (5, -1.84403663223448210928e+00) (6, -2.00721319035154692756e+01) (7, -1.95651387703970192078e+00) (0, -6.22966389787607610629e+01) (1, 8.79839058907022746325e+01) (2, 3.05068785172250649396e+01) (3, 8.62577774045302589911e+01) (4, -1.07793506619000169167e+02) (5, 4.21319792709231251138e+01) (6, -1.34634806506631349521e+02) (7, -2.40717020150164557890e+01) (0, 1.03909879780933283655e+03) (1, -1.50000000000000000000e+03) (2, 6.84228335952065663150e+02) (3, 1.05151862524115381348e+03) (4, 7.87344308327323147978e+01) (5, 1.06892321586962452784e+02) (6, -9.42996100420563038824e+02) (7, -5.51638683261804203539e+02) (0, 3.53680680471314374813e+01) (1, -1.31968979379334342639e+02) (2, -1.49414340186681986467e+01) (3, 3.86248883639873454854e+01) (4, -5.71203647774658573866e+00) (5, 1.10516839264616251626e+02) (6, 1.28080687394771626231e+01) (7, -2.21391890094643528641e+01) (0, -1.03237040949850197080e+02) (1, 7.99627392975911845951e+01) (2, -1.47624547972678016095e+02) (3, -1.50000000000000000000e+03) (4, 2.33299437094388991909e+02) (5, 3.15452318260053175436e+02) (6, 6.53735402772226962043e+02) (7, 2.21501394759458776207e+01) (0, -3.13807217001111098398e+01) (1, -1.11481271844272034066e+00) (2, -1.83785848545758938144e+02) (3, -1.14743521843924625614e+02) (4, 1.25731480510567124043e+02) (5, 1.55821780066680144472e+01) (6, 1.04056113455683004076e+02) (7, -5.71942146894330072371e+00) (0, 1.82838074505403483272e+02) (1, -5.01599742386539332983e+02) (2, -1.35071812804243904793e+02) (3, 2.70923519268143934369e+02) (4, 5.78987182232657573877e+02) (5, 9.67936549436399040758e+00) (6, -1.50000000000000000000e+03) (7, 1.70945845497069619512e+01) (8, -3.99613718708410781133e+00) (9, 4.03291103702669229136e+00) (10, 1.99465724519674747484e+00) (11, -1.52279375245790404847e+01) (12, -4.68165656296222199018e-01) (13, 3.52845884796392397220e+01) (14, 1.13618311793828241640e+00) (15, 1.55650874110058090594e+00) (16, -1.05270855353834171808e+01) (17, -1.94548522222867958931e+00) (18, 2.55399528526553787344e+00) (19, 3.75372719373992458358e+00) (20, -9.90983286492364445763e-01) (21, 1.04089918010440274365e+00) (22, 1.24407433788318866341e+00) (23, -5.86573408162868403792e+00) 
