FANN_FLO_2.1
num_layers=3
learning_rate=0.700000
connection_rate=1.000000
network_type=0
learning_momentum=0.000000
training_algorithm=2
train_error_function=1
train_stop_function=0
cascade_output_change_fraction=0.010000
quickprop_decay=-0.000100
quickprop_mu=1.750000
rprop_increase_factor=1.200000
rprop_decrease_factor=0.500000
rprop_delta_min=0.000000
rprop_delta_max=50.000000
rprop_delta_zero=0.100000
cascade_output_stagnation_epochs=12
cascade_candidate_change_fraction=0.010000
cascade_candidate_stagnation_epochs=12
cascade_max_out_epochs=150
cascade_max_cand_epochs=150
cascade_num_candidate_groups=2
bit_fail_limit=3.49999999999999977796e-01
cascade_candidate_limit=1.00000000000000000000e+03
cascade_weight_multiplier=4.00000000000000022204e-01
cascade_activation_functions_count=10
cascade_activation_functions=3 5 7 8 10 11 14 15 16 17 
cascade_activation_steepnesses_count=4
cascade_activation_steepnesses=2.50000000000000000000e-01 5.00000000000000000000e-01 7.50000000000000000000e-01 1.00000000000000000000e+00 
layer_sizes=8 11 2 
scale_included=0
neurons (num_inputs, activation_function, activation_steepness)=(0, 0, 0.00000000000000000000e+00) (0, 0, 0.00000000000000000000e+00) (0, 0, 0.00000000000000000000e+00) (0, 0, 0.00000000000000000000e+00) (0, 0, 0.00000000000000000000e+00) (0, 0, 0.00000000000000000000e+00) (0, 0, 0.00000000000000000000e+00) (0, 0, 0.00000000000000000000e+00) (8, 4, 5.00000000000000000000e-01) (8, 4, 5.00000000000000000000e-01) (8, 4, 5.00000000000000000000e-01) (8, 4, 5.00000000000000000000e-01) (8, 4, 5.00000000000000000000e-01) (8, 4, 5.00000000000000000000e-01) (8, 4, 5.00000000000000000000e-01) (8, 4, 5.00000000000000000000e-01) (8, 4, 5.00000000000000000000e-01) (8, 4, 5.00000000000000000000e-01) (0, 0, 0.00000000000000000000e+00) (11, 6, 5.00000000000000000000e-01) (0, 6, 0.00000000000000000000e+00) 
connections (connected_to_neuron, weight)=(0, -2.91859251353449025146e+01) (1, 4.11354801076350042877e+01) (2, -5.38527247119076957205e+00) (3, 3.22692246765454138213e+00) (4, -4.08193398353203951157e-01) (5, -1.29553200584733403389e+01) (6, -2.92971101682814598632e+01) (7, 4.99701862739208557684e+00) (0, -8.79616129631329783933e+01) (1, 3.26699553304736483028e+01) (2, -4.39627306349194881818e+01) (3, -3.07670852309251579015e+01) (4, 4.18129618650653682721e+01) (5, -3.42887490499185787485e+01) (6, 4.69139510960728003397e+01) (7, 1.70020856149999914919e+01) (0, -2.49702641225825686888e+02) (1, 3.00904388572197547091e+02) (2, 3.70992757052097260839e+02) (3, -3.28039610404893153373e+02) (4, -1.50000000000000000000e+03) (5, -3.94841430577969788374e+02) (6, -1.84249142895740448012e+02) (7, 2.17381271348799742782e+02) (0, -9.49060072597209192224e+00) (1, 1.84787819475377688150e+01) (2, 2.35291765493065296866e+00) (3, 1.33068759502433353603e+00) (4, -8.18846320770776969766e+00) (5, -7.55923946238952204624e+00) (6, -2.88809677967583873226e+01) (7, 5.40047874620311585403e+00) (0, -4.36620954759004931134e+01) (1, -5.79878860525334403064e+02) (2, -3.39091344600158151934e+02) (3, -3.69460002547794374550e+02) (4, -1.39813702157730261888e+02) (5, 4.85923657667141597472e+01) (6, 1.28915647638973808853e+02) (7, 5.64224368901214347716e+02) (0, 1.60373429995008862647e+01) (1, 5.66714081896760148993e+01) (2, 2.60170527020651945804e+02) (3, 6.39143723934343981341e+01) (4, 2.97743809628204800788e+01) (5, -9.17119159751351844534e+02) (6, 1.84202253747659028704e+02) (7, 1.07395030353719178606e+02) (0, 2.05381768785992818493e+02) (1, -6.78529052562467768439e+02) (2, -5.26888019046269278078e+02) (3, 4.97119913805336182122e+02) (4, 4.39204498626850181608e+02) (5, -4.46468479415329852600e+02) (6, 6.39521196391288185623e+02) (7, -4.56003803964752933098e+02) (0, -1.63137448581290165350e+01) (1, 9.10229465343618215911e+00) (2, -1.17823752445299376745e+01) (3, 5.16743939154826392723e+00) (4, 3.19483094295301794929e+00) (5, 2.23781804519202687231e+00) (6, 5.14505360600440120322e+00) (7, 3.24149337305707496704e-01) (0, -7.81633173102890964401e+02) (1, -3.10539599743729979764e+02) (2, 1.50000000000000000000e+03) (3, 3.40773756030160541286e+02) (4, -1.75939246487912470229e+02) (5, -1.35022011425088248870e+03) (6, -3.97557304631533554584e+02) (7, -4.37588547791820644761e+02) (0, -5.77115801955299119186e+01) (1, 6.38365191050481417534e+00) (2, -1.87586725677354735353e+01) (3, 4.26664523109532254352e+01) (4, 2.23287366757175647081e+01) (5, 6.38433334817722020205e+00) (6, -1.69781424260045055163e+00) (7, -1.24735656088048951773e+01) (8, 1.62469269754635234904e+01) (9, 2.90718249940784101426e+00) (10, 4.41677924498087293159e+00) (11, -1.65275679585840578056e+01) (12, 5.91287051939327512606e-01) (13, -1.98755733202015361094e+00) (14, -4.22063244374305845952e+00) (15, -4.90662916339356058870e+00) (16, -3.87564221044004408867e+00) (17, 2.11047099775016011591e+00) (18, 2.00753410762367501263e+00) 
