FANN_FLO_2.1
num_layers=3
learning_rate=0.700000
connection_rate=1.000000
network_type=0
learning_momentum=0.000000
training_algorithm=2
train_error_function=1
train_stop_function=0
cascade_output_change_fraction=0.010000
quickprop_decay=-0.000100
quickprop_mu=1.750000
rprop_increase_factor=1.200000
rprop_decrease_factor=0.500000
rprop_delta_min=0.000000
rprop_delta_max=50.000000
rprop_delta_zero=0.100000
cascade_output_stagnation_epochs=12
cascade_candidate_change_fraction=0.010000
cascade_candidate_stagnation_epochs=12
cascade_max_out_epochs=150
cascade_max_cand_epochs=150
cascade_num_candidate_groups=2
bit_fail_limit=3.49999999999999977796e-01
cascade_candidate_limit=1.00000000000000000000e+03
cascade_weight_multiplier=4.00000000000000022204e-01
cascade_activation_functions_count=10
cascade_activation_functions=3 5 7 8 10 11 14 15 16 17 
cascade_activation_steepnesses_count=4
cascade_activation_steepnesses=2.50000000000000000000e-01 5.00000000000000000000e-01 7.50000000000000000000e-01 1.00000000000000000000e+00 
layer_sizes=8 11 2 
scale_included=0
neurons (num_inputs, activation_function, activation_steepness)=(0, 0, 0.00000000000000000000e+00) (0, 0, 0.00000000000000000000e+00) (0, 0, 0.00000000000000000000e+00) (0, 0, 0.00000000000000000000e+00) (0, 0, 0.00000000000000000000e+00) (0, 0, 0.00000000000000000000e+00) (0, 0, 0.00000000000000000000e+00) (0, 0, 0.00000000000000000000e+00) (8, 4, 5.00000000000000000000e-01) (8, 4, 5.00000000000000000000e-01) (8, 4, 5.00000000000000000000e-01) (8, 4, 5.00000000000000000000e-01) (8, 4, 5.00000000000000000000e-01) (8, 4, 5.00000000000000000000e-01) (8, 4, 5.00000000000000000000e-01) (8, 4, 5.00000000000000000000e-01) (8, 4, 5.00000000000000000000e-01) (8, 4, 5.00000000000000000000e-01) (0, 0, 0.00000000000000000000e+00) (11, 6, 5.00000000000000000000e-01) (0, 6, 0.00000000000000000000e+00) 
connections (connected_to_neuron, weight)=(0, -8.93476477140980932745e+02) (1, -1.49999974799998722119e+03) (2, 1.08750444719096464041e+02) (3, 9.66556574428015267131e+01) (4, 3.04974218802570007369e+01) (5, -9.74842983160053449865e+02) (6, -1.50000000000000000000e+03) (7, 4.68848650964628575366e+02) (0, -1.49898139323873851936e+03) (1, -2.18043869398281799477e+02) (2, -6.84923792595328905009e+02) (3, -4.28680368257645412200e+01) (4, 1.00977439393648660371e+03) (5, 1.42710397659099825773e+01) (6, 1.50000000000000000000e+03) (7, -6.22214577158313431937e+02) (0, -7.63778470221603527079e+01) (1, 2.77690948752807820199e+01) (2, -1.08792521674245268315e+01) (3, -3.74750937879893513127e+01) (4, 1.19769855297977532160e+01) (5, 1.06526930545140189110e+02) (6, 3.93093846706045653150e+01) (7, 1.42513811228326012781e+01) (0, -9.65400151779806037666e+02) (1, 2.77292504286465771202e+02) (2, 2.16665753605370383639e+02) (3, 8.44595969638598234042e+01) (4, -5.15055845581150265389e+02) (5, 3.33250409320777180255e+02) (6, 6.28260028857825858495e+01) (7, -7.23302495000294864980e+00) (0, 3.73736923384947772320e+01) (1, -4.68885366724955900963e+01) (2, -5.09834122765719826020e+01) (3, 2.60957195382181019738e+01) (4, -1.90879549274172404694e+02) (5, -1.45250503864266562459e+02) (6, 2.01955470781401771774e+02) (7, -1.49422876033900013937e+01) (0, -7.51792054066792161393e+02) (1, -1.67552530382574644818e+02) (2, -4.35396591657042904444e+02) (3, -3.09568476150671301639e+02) (4, 1.50000000000000000000e+03) (5, -1.62378273209549831790e+02) (6, 1.30658194307080549379e+02) (7, -2.72800253889996540124e+01) (0, -2.13018595026164936357e+00) (1, -2.03805546655772289455e+01) (2, -2.59393059991615473336e+01) (3, 3.12030256505335472639e+01) (4, -5.59248814666332716428e+00) (5, 7.43746464300463827612e+00) (6, -1.49177156457897979180e+01) (7, -4.34990880562437887136e+00) (0, 2.68736878034177983920e+01) (1, -2.31353840726327675270e+01) (2, 2.83507849562202736138e+01) (3, -2.47472319058066219100e+01) (4, -7.92043615897476982468e+00) (5, 6.48619999222845144971e+00) (6, -2.40616168563337531339e+01) (7, 1.20563140856260861966e+01) (0, -4.96660367981418389149e+01) (1, 2.46100199440831923781e+00) (2, -6.31780983074484154827e+01) (3, -1.04055431751818659336e+02) (4, 2.93599613696168546539e+02) (5, 1.63374648168323062691e+02) (6, 4.87377855072378025625e+01) (7, 1.17966307740981974916e+01) (0, 6.96445872532128529286e-01) (1, 1.78359175862776564436e+00) (2, -2.12968876749772917378e+00) (3, 1.91109528051654353753e+00) (4, 7.92305858974937327055e-01) (5, -1.90658966574991461940e+00) (6, 2.69019453324421453644e+00) (7, -5.20566973096117435738e-01) (8, -2.05686386952194810718e+00) (9, 1.81732850028753856186e+00) (10, -1.40575814988757152868e+00) (11, 1.46486228246673135800e+01) (12, -1.93489534640711635660e+00) (13, 1.27094727900036885693e+00) (14, 1.42779075364663192715e+01) (15, 1.55913629095958272686e+00) (16, -7.05889020859166826938e-01) (17, 6.52065048758462939560e+00) (18, -4.56632733261565171290e+00) 
