FANN_FLO_2.1
num_layers=3
learning_rate=0.700000
connection_rate=1.000000
network_type=0
learning_momentum=0.000000
training_algorithm=2
train_error_function=1
train_stop_function=0
cascade_output_change_fraction=0.010000
quickprop_decay=-0.000100
quickprop_mu=1.750000
rprop_increase_factor=1.200000
rprop_decrease_factor=0.500000
rprop_delta_min=0.000000
rprop_delta_max=50.000000
rprop_delta_zero=0.100000
cascade_output_stagnation_epochs=12
cascade_candidate_change_fraction=0.010000
cascade_candidate_stagnation_epochs=12
cascade_max_out_epochs=150
cascade_max_cand_epochs=150
cascade_num_candidate_groups=2
bit_fail_limit=3.49999999999999977796e-01
cascade_candidate_limit=1.00000000000000000000e+03
cascade_weight_multiplier=4.00000000000000022204e-01
cascade_activation_functions_count=10
cascade_activation_functions=3 5 7 8 10 11 14 15 16 17 
cascade_activation_steepnesses_count=4
cascade_activation_steepnesses=2.50000000000000000000e-01 5.00000000000000000000e-01 7.50000000000000000000e-01 1.00000000000000000000e+00 
layer_sizes=8 10 2 
scale_included=0
neurons (num_inputs, activation_function, activation_steepness)=(0, 0, 0.00000000000000000000e+00) (0, 0, 0.00000000000000000000e+00) (0, 0, 0.00000000000000000000e+00) (0, 0, 0.00000000000000000000e+00) (0, 0, 0.00000000000000000000e+00) (0, 0, 0.00000000000000000000e+00) (0, 0, 0.00000000000000000000e+00) (0, 0, 0.00000000000000000000e+00) (8, 4, 5.00000000000000000000e-01) (8, 4, 5.00000000000000000000e-01) (8, 4, 5.00000000000000000000e-01) (8, 4, 5.00000000000000000000e-01) (8, 4, 5.00000000000000000000e-01) (8, 4, 5.00000000000000000000e-01) (8, 4, 5.00000000000000000000e-01) (8, 4, 5.00000000000000000000e-01) (8, 4, 5.00000000000000000000e-01) (0, 0, 0.00000000000000000000e+00) (10, 6, 5.00000000000000000000e-01) (0, 6, 0.00000000000000000000e+00) 
connections (connected_to_neuron, weight)=(0, -1.50000000000000000000e+03) (1, 1.49967665638839912390e+03) (2, -8.08645443952103391894e+02) (3, 1.50000000000000000000e+03) (4, -1.39615926927453074313e+03) (5, 1.30633539190320078660e+02) (6, 2.48792827380536124338e+02) (7, -3.61062656874543563390e+02) (0, 6.31952119133551718733e+02) (1, -1.50000000000000000000e+03) (2, 9.45913910798935944513e+02) (3, -4.78971812638474887081e+02) (4, -3.67667581031277620696e+02) (5, 2.73903910822256079882e+02) (6, 1.05171261961547571673e+02) (7, 2.92712433221444499054e+01) (0, -7.36075821655505535546e+01) (1, 1.40746584456499533644e+02) (2, -1.79189140230127577524e+02) (3, 7.37133258910752520165e+00) (4, 2.15784223553033484677e+02) (5, -3.07305464306893938442e+01) (6, 1.60037051964061447507e+01) (7, -5.75480553568862021052e+01) (0, 5.25646551039739506450e+02) (1, -2.05423612689881565530e+02) (2, 4.04893260600581527342e+02) (3, 6.19198774004243688296e+01) (4, -8.43672246039039691823e+02) (5, -4.40769904263330204230e+02) (6, -7.01767764145994874525e+02) (7, 8.52047644787101887687e+01) (0, 3.98874798502264704680e+00) (1, -3.47835392989382841122e+00) (2, -9.81660397991170441401e+00) (3, -1.78915575563580708796e+00) (4, 2.56474126623465714658e+01) (5, 5.62757872690271332417e-01) (6, -8.64324942522984507320e+00) (7, -2.62087098081189040499e+00) (0, 1.49613282166525232242e+03) (1, 1.00170462967764677842e+02) (2, 1.50000000000000000000e+03) (3, -2.66337809961790163982e+01) (4, 6.60756032457818037074e+02) (5, -4.05332056443332305662e+02) (6, -1.25057470415069633418e+03) (7, -1.34448324106110885623e+03) (0, -2.42244724176545283001e+01) (1, 8.34235617798446611459e+01) (2, -4.95039152045964669924e+01) (3, 2.14554823612931215848e+02) (4, -1.33644694516909157755e+03) (5, -3.16207213582155304721e+02) (6, -2.28541169255570054020e+02) (7, 2.28365705349567150506e+02) (0, 2.53850334693289880761e+00) (1, 3.69980697712700434820e+00) (2, 1.25499124243475570495e+01) (3, -9.16021075040935528477e+00) (4, -8.27281546168932280239e+00) (5, -7.43095142967622290797e+00) (6, 6.52380226036120980382e+00) (7, -1.40116856998856254002e+00) (0, 2.58673798472900955403e+02) (1, -1.50000000000000000000e+03) (2, 2.60825462979724306933e+02) (3, -1.13299437732810744706e+02) (4, -1.49170594852925063378e+02) (5, -1.63779313259987048923e+02) (6, 8.48543761518846054059e+02) (7, 1.53780779234652147380e+01) (8, 3.58141369938668940875e+00) (9, -1.98110166387147867972e+00) (10, -2.36534063311560416309e+00) (11, -3.58560740878536732268e+00) (12, 6.06946865335748242387e+00) (13, -4.98207130714967749707e-01) (14, 4.16868383847512280482e+00) (15, 4.23520967396380942915e+00) (16, -9.04166375433463676003e-01) (17, -3.79248504048058787674e+00) 
