FANN_FLO_2.1
num_layers=3
learning_rate=0.700000
connection_rate=1.000000
network_type=0
learning_momentum=0.000000
training_algorithm=2
train_error_function=1
train_stop_function=0
cascade_output_change_fraction=0.010000
quickprop_decay=-0.000100
quickprop_mu=1.750000
rprop_increase_factor=1.200000
rprop_decrease_factor=0.500000
rprop_delta_min=0.000000
rprop_delta_max=50.000000
rprop_delta_zero=0.100000
cascade_output_stagnation_epochs=12
cascade_candidate_change_fraction=0.010000
cascade_candidate_stagnation_epochs=12
cascade_max_out_epochs=150
cascade_max_cand_epochs=150
cascade_num_candidate_groups=2
bit_fail_limit=3.49999999999999977796e-01
cascade_candidate_limit=1.00000000000000000000e+03
cascade_weight_multiplier=4.00000000000000022204e-01
cascade_activation_functions_count=10
cascade_activation_functions=3 5 7 8 10 11 14 15 16 17 
cascade_activation_steepnesses_count=4
cascade_activation_steepnesses=2.50000000000000000000e-01 5.00000000000000000000e-01 7.50000000000000000000e-01 1.00000000000000000000e+00 
layer_sizes=8 9 2 
scale_included=0
neurons (num_inputs, activation_function, activation_steepness)=(0, 0, 0.00000000000000000000e+00) (0, 0, 0.00000000000000000000e+00) (0, 0, 0.00000000000000000000e+00) (0, 0, 0.00000000000000000000e+00) (0, 0, 0.00000000000000000000e+00) (0, 0, 0.00000000000000000000e+00) (0, 0, 0.00000000000000000000e+00) (0, 0, 0.00000000000000000000e+00) (8, 4, 5.00000000000000000000e-01) (8, 4, 5.00000000000000000000e-01) (8, 4, 5.00000000000000000000e-01) (8, 4, 5.00000000000000000000e-01) (8, 4, 5.00000000000000000000e-01) (8, 4, 5.00000000000000000000e-01) (8, 4, 5.00000000000000000000e-01) (8, 4, 5.00000000000000000000e-01) (0, 0, 0.00000000000000000000e+00) (9, 6, 5.00000000000000000000e-01) (0, 6, 0.00000000000000000000e+00) 
connections (connected_to_neuron, weight)=(0, -2.70172253563723927527e+02) (1, -1.28161678274120021115e+02) (2, -7.44398776322498321179e+01) (3, 2.60292704647005507468e+02) (4, 1.16891917856543770426e+02) (5, 3.00909733855355227661e+02) (6, 1.69510634246692262650e+02) (7, -1.41320920768475644991e+02) (0, 4.45666118627873743208e+02) (1, -2.94215174422993072767e+02) (2, 2.28863175165934535471e+02) (3, -4.47051627213765357283e+02) (4, -2.54069073814991526206e+02) (5, -3.55379149317503561178e+02) (6, -8.90727032570985599591e+00) (7, -3.42906923938858998469e+00) (0, -3.79001693756847487293e+02) (1, 3.27813788708603226496e+02) (2, -5.11347394588691258832e+02) (3, 1.05082707772390290302e+03) (4, -5.31441438916593877906e+00) (5, -2.92372185286168701168e+02) (6, 1.62146380888039765011e+01) (7, -3.89157683207605373354e+02) (0, 1.25915649833266320456e+03) (1, 5.12137254150459625635e+02) (2, 3.76865370117159329766e+02) (3, 4.78798435814934535415e+01) (4, -1.85234747225992691710e+02) (5, -1.50000000000000000000e+03) (6, -7.92322868131118752899e+02) (7, -1.31305143647042228849e+02) (0, 4.00870316392127392646e+01) (1, -8.75878267902434544112e+01) (2, -2.07869879925169653845e+00) (3, -1.43446810483835946570e+02) (4, 8.79292666402964613326e+01) (5, -4.05666094293642061075e+01) (6, -4.10418272783904924950e+00) (7, 5.87715963226706819000e+01) (0, 1.13015563409717074705e+02) (1, 1.95158120348947818457e+02) (2, 5.11128892111110673113e+01) (3, -6.60360387064161272974e+02) (4, -7.67400653272506474423e+02) (5, 4.53471115199224129810e+02) (6, 5.34779768206432436273e+02) (7, -2.61021796945448272709e+02) (0, -1.21700733957101654426e+01) (1, 2.90865009336302904330e+01) (2, 6.28447652943744685672e+01) (3, -2.11427269817811236408e+02) (4, 8.42486647647783257753e+01) (5, -1.59471011935232439782e+02) (6, -2.16431440074905943050e+01) (7, 1.30777155454515607858e+01) (0, -3.45493936948716225288e+02) (1, -6.24112097706260193775e+00) (2, -1.50000000000000000000e+03) (3, -6.74901847388277701612e+02) (4, 4.56816631971840880766e+00) (5, -1.17591871092202563887e+03) (6, 1.50000000000000000000e+03) (7, 1.32057987701561529548e+02) (8, 2.44639953977414004171e+00) (9, 8.78314748832760949782e-01) (10, -1.29490097570534601346e+00) (11, 2.75665781491111916424e+00) (12, 5.61290987238590610708e-01) (13, 4.11194424733620167434e-01) (14, 1.19208220265926012615e+00) (15, -1.49838718203774479143e+00) (16, -2.66172255420868397735e+00) 
