FANN_FLO_2.1
num_layers=3
learning_rate=0.700000
connection_rate=1.000000
network_type=0
learning_momentum=0.000000
training_algorithm=2
train_error_function=1
train_stop_function=0
cascade_output_change_fraction=0.010000
quickprop_decay=-0.000100
quickprop_mu=1.750000
rprop_increase_factor=1.200000
rprop_decrease_factor=0.500000
rprop_delta_min=0.000000
rprop_delta_max=50.000000
rprop_delta_zero=0.100000
cascade_output_stagnation_epochs=12
cascade_candidate_change_fraction=0.010000
cascade_candidate_stagnation_epochs=12
cascade_max_out_epochs=150
cascade_max_cand_epochs=150
cascade_num_candidate_groups=2
bit_fail_limit=3.49999999999999977796e-01
cascade_candidate_limit=1.00000000000000000000e+03
cascade_weight_multiplier=4.00000000000000022204e-01
cascade_activation_functions_count=10
cascade_activation_functions=3 5 7 8 10 11 14 15 16 17 
cascade_activation_steepnesses_count=4
cascade_activation_steepnesses=2.50000000000000000000e-01 5.00000000000000000000e-01 7.50000000000000000000e-01 1.00000000000000000000e+00 
layer_sizes=8 9 2 
scale_included=0
neurons (num_inputs, activation_function, activation_steepness)=(0, 0, 0.00000000000000000000e+00) (0, 0, 0.00000000000000000000e+00) (0, 0, 0.00000000000000000000e+00) (0, 0, 0.00000000000000000000e+00) (0, 0, 0.00000000000000000000e+00) (0, 0, 0.00000000000000000000e+00) (0, 0, 0.00000000000000000000e+00) (0, 0, 0.00000000000000000000e+00) (8, 4, 5.00000000000000000000e-01) (8, 4, 5.00000000000000000000e-01) (8, 4, 5.00000000000000000000e-01) (8, 4, 5.00000000000000000000e-01) (8, 4, 5.00000000000000000000e-01) (8, 4, 5.00000000000000000000e-01) (8, 4, 5.00000000000000000000e-01) (8, 4, 5.00000000000000000000e-01) (0, 0, 0.00000000000000000000e+00) (9, 6, 5.00000000000000000000e-01) (0, 6, 0.00000000000000000000e+00) 
connections (connected_to_neuron, weight)=(0, -8.22110850398948223017e+00) (1, 2.96478080531342147452e+00) (2, -5.15137801894384961265e-01) (3, -2.41774193059939257466e+01) (4, -4.74142825922381803139e+01) (5, 1.33248528146496933999e+01) (6, 3.85218237784810071389e+01) (7, 1.22631025241021660577e+01) (0, 3.80046595015528339445e+02) (1, -4.55690538030814451531e+01) (2, -3.88274002301159896433e+02) (3, -1.50000000000000000000e+03) (4, -4.89280924795411522155e+02) (5, 1.91582974068378035781e+02) (6, 1.05282796476155431264e+03) (7, -2.87389634286368675475e+02) (0, 3.71278754001603417123e+01) (1, 6.88092828623244088249e+01) (2, -1.00285830347466784929e+02) (3, 5.67245870558271718664e+01) (4, 3.67350010572150509347e+01) (5, 9.72604888531137277141e+01) (6, 4.21569438195598564789e+01) (7, -1.65805777126659066312e+01) (0, 1.09471734168210339533e+01) (1, 7.81783381185492309839e+00) (2, -6.69738893348231023595e+00) (3, 1.38879680750544167722e+01) (4, 3.82097245176108231135e+01) (5, -1.09561535556020217541e+01) (6, -3.94658694772644054183e+01) (7, -5.97389421627903960399e+00) (0, -1.50000000000000000000e+03) (1, 7.78466976093291577854e+02) (2, 1.19068338787654010957e+03) (3, -1.50000000000000000000e+03) (4, -4.77333305100737504745e+02) (5, 4.31426251041708781031e+02) (6, 1.41293857071995773822e+02) (7, 6.76657845231175087974e+01) (0, 1.63964507046140738566e+02) (1, 2.32919650506296562753e+02) (2, -1.16389427041896647097e+03) (3, 3.57442578299389737140e+01) (4, -7.27086339653486675161e+02) (5, -5.46786553672640479817e+02) (6, 2.72113679711317047349e+02) (7, 6.14734112443507001444e+02) (0, -1.44916911934447011845e+03) (1, -4.69583329404456264911e+02) (2, -1.32425955141064150666e+03) (3, 1.50000000000000000000e+03) (4, -2.93696859590577389554e+02) (5, 1.06423163987519615148e+03) (6, -1.50000000000000000000e+03) (7, -3.04823481782035003107e+02) (0, 1.71334336032632386093e+01) (1, -1.44883637163577327911e-01) (2, -6.29894362388322370805e+00) (3, -1.10349175104700378824e+01) (4, 2.59897333351643800015e+00) (5, -3.04154116111144601220e+00) (6, -9.87338927916453990008e+00) (7, 3.27483969841011024471e+00) (8, -5.60846536021064423494e+00) (9, -1.97186154237129418476e+00) (10, -2.43943658653059891606e+00) (11, -5.82973465739913532246e+00) (12, -2.45772484973721949686e+00) (13, -1.48977446717554196098e+00) (14, 1.65245151849956717349e+00) (15, 2.84714001268877403561e+00) (16, 7.79229322110512878652e+00) 
