FANN_FLO_2.1
num_layers=3
learning_rate=0.700000
connection_rate=1.000000
network_type=0
learning_momentum=0.000000
training_algorithm=2
train_error_function=1
train_stop_function=0
cascade_output_change_fraction=0.010000
quickprop_decay=-0.000100
quickprop_mu=1.750000
rprop_increase_factor=1.200000
rprop_decrease_factor=0.500000
rprop_delta_min=0.000000
rprop_delta_max=50.000000
rprop_delta_zero=0.100000
cascade_output_stagnation_epochs=12
cascade_candidate_change_fraction=0.010000
cascade_candidate_stagnation_epochs=12
cascade_max_out_epochs=150
cascade_max_cand_epochs=150
cascade_num_candidate_groups=2
bit_fail_limit=3.49999999999999977796e-01
cascade_candidate_limit=1.00000000000000000000e+03
cascade_weight_multiplier=4.00000000000000022204e-01
cascade_activation_functions_count=10
cascade_activation_functions=3 5 7 8 10 11 14 15 16 17 
cascade_activation_steepnesses_count=4
cascade_activation_steepnesses=2.50000000000000000000e-01 5.00000000000000000000e-01 7.50000000000000000000e-01 1.00000000000000000000e+00 
layer_sizes=8 9 2 
scale_included=0
neurons (num_inputs, activation_function, activation_steepness)=(0, 0, 0.00000000000000000000e+00) (0, 0, 0.00000000000000000000e+00) (0, 0, 0.00000000000000000000e+00) (0, 0, 0.00000000000000000000e+00) (0, 0, 0.00000000000000000000e+00) (0, 0, 0.00000000000000000000e+00) (0, 0, 0.00000000000000000000e+00) (0, 0, 0.00000000000000000000e+00) (8, 4, 5.00000000000000000000e-01) (8, 4, 5.00000000000000000000e-01) (8, 4, 5.00000000000000000000e-01) (8, 4, 5.00000000000000000000e-01) (8, 4, 5.00000000000000000000e-01) (8, 4, 5.00000000000000000000e-01) (8, 4, 5.00000000000000000000e-01) (8, 4, 5.00000000000000000000e-01) (0, 0, 0.00000000000000000000e+00) (9, 6, 5.00000000000000000000e-01) (0, 6, 0.00000000000000000000e+00) 
connections (connected_to_neuron, weight)=(0, -3.04518866151007330245e+02) (1, -1.50000000000000000000e+03) (2, -3.14087307360364231812e+00) (3, 7.88092604704513206570e+01) (4, -1.50000000000000000000e+03) (5, -1.33774572194582702878e+02) (6, -1.50000000000000000000e+03) (7, 1.35272003312046786050e+03) (0, -1.23913686212074452442e+02) (1, -3.42679010449829149820e+02) (2, -1.72244284606815760696e+01) (3, 3.51096245894200990278e+02) (4, 2.55333642355943055691e+02) (5, 1.06719166026583906159e+02) (6, 1.63886699664635386853e+02) (7, -2.76672959884821977994e+02) (0, -1.50000000000000000000e+03) (1, -1.50000000000000000000e+03) (2, -1.50000000000000000000e+03) (3, -1.50000000000000000000e+03) (4, -1.50000000000000000000e+03) (5, 1.50000000000000000000e+03) (6, -1.50000000000000000000e+03) (7, -1.40920605061846367789e+03) (0, -7.59720741451998264893e+02) (1, -8.70778057572700987521e+01) (2, 1.26654704573916831123e+02) (3, 7.16648509373673505252e+02) (4, -1.37724185552629205631e+03) (5, 1.50000000000000000000e+03) (6, -2.21281568791811089625e+01) (7, 9.73583291962898300653e+01) (0, 3.59449772036313603962e+01) (1, -8.67277440737057787601e+01) (2, -7.50323057451274522123e+00) (3, 1.75339871725479724773e+02) (4, 2.92679905439158982716e+00) (5, -4.88659232348469529938e+01) (6, 3.51978828406838228915e+00) (7, -3.97779962462939309376e+01) (0, 4.74040913686054466325e+02) (1, -1.50000000000000000000e+03) (2, 5.97305557216692591282e+02) (3, 1.37378223989267098659e+03) (4, -2.42371305540013395330e+02) (5, -2.22863431695809538269e+02) (6, -1.39847438792322293466e+02) (7, -6.23797346858474497822e+02) (0, -1.47393992534196286215e+03) (1, -9.76408260726193020673e+02) (2, 1.41726395147928656115e+03) (3, 1.50000000000000000000e+03) (4, 1.50000000000000000000e+03) (5, -9.22027095294394371194e+02) (6, 6.60730618808780718609e+02) (7, -1.38317759053926306478e+03) (0, 6.09532269320347594999e+01) (1, -6.50703898915517015666e+02) (2, 1.09463478201449447624e+03) (3, -1.50000000000000000000e+03) (4, 4.02485772554295877512e+01) (5, 1.01315994833945296705e+02) (6, -1.65828055525711818063e+02) (7, 3.48841309871679300159e+02) (8, 8.60294381390091622563e-01) (9, -2.51305803142699435426e+00) (10, 1.50000000000000000000e+03) (11, 2.02745125200887699179e+00) (12, 2.00617843189589084574e+00) (13, -1.27525598571911547019e+00) (14, -5.03206447913526089266e-01) (15, 2.80461043495375683676e+00) (16, -1.78460243496430703836e+00) 
