FANN_FLO_2.1
num_layers=3
learning_rate=0.700000
connection_rate=1.000000
network_type=0
learning_momentum=0.000000
training_algorithm=2
train_error_function=1
train_stop_function=0
cascade_output_change_fraction=0.010000
quickprop_decay=-0.000100
quickprop_mu=1.750000
rprop_increase_factor=1.200000
rprop_decrease_factor=0.500000
rprop_delta_min=0.000000
rprop_delta_max=50.000000
rprop_delta_zero=0.100000
cascade_output_stagnation_epochs=12
cascade_candidate_change_fraction=0.010000
cascade_candidate_stagnation_epochs=12
cascade_max_out_epochs=150
cascade_max_cand_epochs=150
cascade_num_candidate_groups=2
bit_fail_limit=3.49999999999999977796e-01
cascade_candidate_limit=1.00000000000000000000e+03
cascade_weight_multiplier=4.00000000000000022204e-01
cascade_activation_functions_count=10
cascade_activation_functions=3 5 7 8 10 11 14 15 16 17 
cascade_activation_steepnesses_count=4
cascade_activation_steepnesses=2.50000000000000000000e-01 5.00000000000000000000e-01 7.50000000000000000000e-01 1.00000000000000000000e+00 
layer_sizes=8 6 3 
scale_included=0
neurons (num_inputs, activation_function, activation_steepness)=(0, 0, 0.00000000000000000000e+00) (0, 0, 0.00000000000000000000e+00) (0, 0, 0.00000000000000000000e+00) (0, 0, 0.00000000000000000000e+00) (0, 0, 0.00000000000000000000e+00) (0, 0, 0.00000000000000000000e+00) (0, 0, 0.00000000000000000000e+00) (0, 0, 0.00000000000000000000e+00) (8, 4, 5.00000000000000000000e-01) (8, 4, 5.00000000000000000000e-01) (8, 4, 5.00000000000000000000e-01) (8, 4, 5.00000000000000000000e-01) (8, 4, 5.00000000000000000000e-01) (0, 0, 0.00000000000000000000e+00) (6, 6, 5.00000000000000000000e-01) (6, 6, 5.00000000000000000000e-01) (0, 6, 0.00000000000000000000e+00) 
connections (connected_to_neuron, weight)=(0, 8.30903771779854992019e+02) (1, -1.50000000000000000000e+03) (2, 1.13326914492755508945e+03) (3, -9.10863143547898175711e+02) (4, 6.21784006439498057262e+02) (5, 1.82180825410946994225e+02) (6, -1.42080656828963083171e+03) (7, 2.76471126706384040972e+02) (0, -4.64238159211708101282e+00) (1, 2.65701812971775463978e+00) (2, -1.43302749678115870502e+00) (3, 1.84847513790628359409e+00) (4, 6.56147176424872607958e-02) (5, 5.21068742838518908500e-02) (6, 4.60807925405413421061e+00) (7, -5.27043408199202190190e+00) (0, 6.54339880259486903924e+02) (1, 6.66824794844077473499e+02) (2, -3.62895603304836754432e+02) (3, 3.98674911548560601204e+02) (4, -3.29570230744005755241e+02) (5, 5.97118449503121837552e+01) (6, -1.50000000000000000000e+03) (7, -2.23550331791178280127e+02) (0, -1.37809786170742154532e+00) (1, -4.55705241915188175028e+00) (2, 2.61146948071618556497e+00) (3, -4.36810600119192660173e+00) (4, 2.16251037873770846076e+00) (5, -3.27494124147467757791e-01) (6, -2.69054721055914602967e-01) (7, -1.77612428209529626955e+00) (0, -1.50000000000000000000e+03) (1, -1.50000000000000000000e+03) (2, 6.12397621615390107763e+02) (3, 1.38433842963608685750e+03) (4, 3.48875504129021805966e+02) (5, -1.50000000000000000000e+03) (6, -1.50000000000000000000e+03) (7, -1.09458475996166339428e+03) (8, -1.51017482544525027954e+00) (9, -9.78625190301645275781e+00) (10, 2.35267616061972839603e+00) (11, 2.63444628740661599409e+01) (12, -2.80817916433148129229e+00) (13, 1.76007396775671676181e+00) (8, 1.14218677377657185090e+00) (9, 1.24741703449997025643e+01) (10, -8.67826014592062877639e-01) (11, -1.59455404125258599635e+01) (12, 1.49073278422191912718e+00) (13, 4.69905217476233316720e-01) 
