FANN_FLO_2.1
num_layers=3
learning_rate=0.700000
connection_rate=1.000000
network_type=0
learning_momentum=0.000000
training_algorithm=2
train_error_function=1
train_stop_function=0
cascade_output_change_fraction=0.010000
quickprop_decay=-0.000100
quickprop_mu=1.750000
rprop_increase_factor=1.200000
rprop_decrease_factor=0.500000
rprop_delta_min=0.000000
rprop_delta_max=50.000000
rprop_delta_zero=0.100000
cascade_output_stagnation_epochs=12
cascade_candidate_change_fraction=0.010000
cascade_candidate_stagnation_epochs=12
cascade_max_out_epochs=150
cascade_max_cand_epochs=150
cascade_num_candidate_groups=2
bit_fail_limit=3.49999999999999977796e-01
cascade_candidate_limit=1.00000000000000000000e+03
cascade_weight_multiplier=4.00000000000000022204e-01
cascade_activation_functions_count=10
cascade_activation_functions=3 5 7 8 10 11 14 15 16 17 
cascade_activation_steepnesses_count=4
cascade_activation_steepnesses=2.50000000000000000000e-01 5.00000000000000000000e-01 7.50000000000000000000e-01 1.00000000000000000000e+00 
layer_sizes=8 11 2 
scale_included=0
neurons (num_inputs, activation_function, activation_steepness)=(0, 0, 0.00000000000000000000e+00) (0, 0, 0.00000000000000000000e+00) (0, 0, 0.00000000000000000000e+00) (0, 0, 0.00000000000000000000e+00) (0, 0, 0.00000000000000000000e+00) (0, 0, 0.00000000000000000000e+00) (0, 0, 0.00000000000000000000e+00) (0, 0, 0.00000000000000000000e+00) (8, 4, 5.00000000000000000000e-01) (8, 4, 5.00000000000000000000e-01) (8, 4, 5.00000000000000000000e-01) (8, 4, 5.00000000000000000000e-01) (8, 4, 5.00000000000000000000e-01) (8, 4, 5.00000000000000000000e-01) (8, 4, 5.00000000000000000000e-01) (8, 4, 5.00000000000000000000e-01) (8, 4, 5.00000000000000000000e-01) (8, 4, 5.00000000000000000000e-01) (0, 0, 0.00000000000000000000e+00) (11, 6, 5.00000000000000000000e-01) (0, 6, 0.00000000000000000000e+00) 
connections (connected_to_neuron, weight)=(0, -9.07839645831352640926e+02) (1, -9.23757345301203372401e+02) (2, 1.50000000000000000000e+03) (3, -9.93528480677767447560e+02) (4, -1.79209452876444629510e+02) (5, 2.20725448528240917767e+02) (6, 3.11710476231206996545e+02) (7, 1.78086883083281236395e+02) (0, -1.44570587053241411013e+03) (1, -1.11531690574218464462e+03) (2, 1.45090925803686627660e+03) (3, 1.35479072570350103888e+03) (4, -1.00160066941333661816e+03) (5, 1.50000000000000000000e+03) (6, -1.44257193764633393585e+03) (7, -2.62286056762702799006e+02) (0, 3.17455138650989674431e+01) (1, 4.48820156290126206500e+01) (2, 5.78227021223836956665e+01) (3, -1.62864967214249787730e+02) (4, -3.68898692706320048273e+01) (5, -3.13395025264442885771e+01) (6, -5.66880877194052779089e+00) (7, -7.89229245535480572471e+00) (0, 1.33762502746757956373e+01) (1, -5.18010590850204692970e+01) (2, -5.00319406640779504869e+01) (3, 9.62615053566015035358e+01) (4, 4.58749144027904449672e+01) (5, -1.26446888919018913811e+01) (6, -1.34173140036598415037e+01) (7, 1.09617082785680395318e+01) (0, 4.60903881921732136107e+02) (1, 3.37373701255351022610e+02) (2, 1.50000000000000000000e+03) (3, -1.45517585163227909106e+03) (4, -1.09105672179608563965e+03) (5, 1.50000000000000000000e+03) (6, -1.26130399246335855423e+03) (7, -3.42342467199312920911e+02) (0, -3.52805897023066563634e+01) (1, -1.53057646973546809477e+02) (2, 1.35413124778775710411e+02) (3, 1.81712377117458913744e+02) (4, -1.19126598872860029132e+02) (5, 3.26908958284541384387e+01) (6, 3.25416685660782718514e+01) (7, -7.80630941173083101603e+01) (0, -8.13975551046011560175e+02) (1, -1.47500000000000000000e+03) (2, 1.45493417994947367333e+03) (3, 1.34035352602068473971e+03) (4, -1.45024291383436957403e+03) (5, 1.50000000000000000000e+03) (6, -6.85434267049018899343e+01) (7, 1.82006118178756764792e+02) (0, -1.41736442669186807342e-01) (1, -1.14076947375140180796e+00) (2, -4.81767454252982751939e+00) (3, 1.51436065713132173016e+00) (4, 3.37339631294866482136e+00) (5, 4.48966226637753518247e+00) (6, -1.09040376035502151186e-01) (7, -3.56833147686180707225e+00) (0, 8.19136337125542581816e+02) (1, -1.49578598941039854253e+03) (2, -9.44940593363404218508e+02) (3, 1.17530833594262205111e+02) (4, 1.34470190247052960331e+03) (5, 1.08747233484641469659e+03) (6, -1.35082242295707624180e+03) (7, -3.34599990209233411065e+01) (0, -1.22789695229445072755e+00) (1, -3.09533133027656539582e+01) (2, 1.15331776380636895851e+02) (3, -7.03028251456891517535e-01) (4, 7.16263970709891282240e+01) (5, -9.81707184127619285618e+01) (6, -2.78071748704868610957e+01) (7, -1.79034732755296310813e+01) (8, 3.89567417043214536676e+00) (9, 1.27018895983365398550e+00) (10, 1.85204348262014018012e+00) (11, 2.64275289796745704862e+00) (12, 5.33909210546554469090e+00) (13, -1.42007659892888793429e+00) (14, 5.16409345694921140257e-01) (15, -1.09242844196081243524e+01) (16, 1.39997458726810553031e+00) (17, -2.07649627638362499482e+00) (18, -4.16833174236591941231e-01) 
