FANN_FLO_2.1
num_layers=3
learning_rate=0.700000
connection_rate=1.000000
network_type=0
learning_momentum=0.000000
training_algorithm=2
train_error_function=1
train_stop_function=0
cascade_output_change_fraction=0.010000
quickprop_decay=-0.000100
quickprop_mu=1.750000
rprop_increase_factor=1.200000
rprop_decrease_factor=0.500000
rprop_delta_min=0.000000
rprop_delta_max=50.000000
rprop_delta_zero=0.100000
cascade_output_stagnation_epochs=12
cascade_candidate_change_fraction=0.010000
cascade_candidate_stagnation_epochs=12
cascade_max_out_epochs=150
cascade_max_cand_epochs=150
cascade_num_candidate_groups=2
bit_fail_limit=3.49999999999999977796e-01
cascade_candidate_limit=1.00000000000000000000e+03
cascade_weight_multiplier=4.00000000000000022204e-01
cascade_activation_functions_count=10
cascade_activation_functions=3 5 7 8 10 11 14 15 16 17 
cascade_activation_steepnesses_count=4
cascade_activation_steepnesses=2.50000000000000000000e-01 5.00000000000000000000e-01 7.50000000000000000000e-01 1.00000000000000000000e+00 
layer_sizes=8 16 2 
scale_included=0
neurons (num_inputs, activation_function, activation_steepness)=(0, 0, 0.00000000000000000000e+00) (0, 0, 0.00000000000000000000e+00) (0, 0, 0.00000000000000000000e+00) (0, 0, 0.00000000000000000000e+00) (0, 0, 0.00000000000000000000e+00) (0, 0, 0.00000000000000000000e+00) (0, 0, 0.00000000000000000000e+00) (0, 0, 0.00000000000000000000e+00) (8, 4, 5.00000000000000000000e-01) (8, 4, 5.00000000000000000000e-01) (8, 4, 5.00000000000000000000e-01) (8, 4, 5.00000000000000000000e-01) (8, 4, 5.00000000000000000000e-01) (8, 4, 5.00000000000000000000e-01) (8, 4, 5.00000000000000000000e-01) (8, 4, 5.00000000000000000000e-01) (8, 4, 5.00000000000000000000e-01) (8, 4, 5.00000000000000000000e-01) (8, 4, 5.00000000000000000000e-01) (8, 4, 5.00000000000000000000e-01) (8, 4, 5.00000000000000000000e-01) (8, 4, 5.00000000000000000000e-01) (8, 4, 5.00000000000000000000e-01) (0, 0, 0.00000000000000000000e+00) (16, 6, 5.00000000000000000000e-01) (0, 6, 0.00000000000000000000e+00) 
connections (connected_to_neuron, weight)=(0, -5.91049043479409519364e+00) (1, -2.67052991409690410052e+00) (2, 7.97808877434042784671e+00) (3, -9.02321940846118764057e+00) (4, -9.07194861699616517114e+00) (5, 1.12712958139841346039e+00) (6, -5.69122037612029885167e+00) (7, 1.44161658170106115051e+01) (0, 1.50000000000000000000e+03) (1, 2.32157732182959932743e+02) (2, 3.22150194367042104204e+01) (3, 6.59046219387695089154e+01) (4, -1.68629797218887176768e+02) (5, -8.24176798723756434129e+01) (6, -1.10102790123539239175e+03) (7, 5.68849822055422649214e+01) (0, -1.29733385293890854939e+01) (1, 2.55855136504546472054e+01) (2, 1.36428868425911076656e+02) (3, 1.06243235119268106814e+02) (4, -1.94085997023100560455e+01) (5, -7.91162934930142203171e+00) (6, -1.21824405825524539893e+00) (7, -1.00948763167159285103e+02) (0, 2.50127465982846750592e+01) (1, 1.37518271340131850167e+01) (2, -2.58877829265865102570e+01) (3, 2.41256809435353076765e+01) (4, 4.84391815291056959669e-01) (5, -4.57936459617559776802e+00) (6, -2.82506365105942336413e+01) (7, 4.40489058976558300884e+00) (0, -1.09890016023345093998e+01) (1, -7.41285098474926318346e+00) (2, 9.24326742330528894342e+00) (3, -7.73536144304279371653e+00) (4, 4.62950562452676273040e+00) (5, 1.51956541700033964659e+00) (6, -5.60193327587959899461e+00) (7, -3.40312764412001689251e+00) (0, -1.02463110355450321975e+01) (1, 6.46649163715273145314e-01) (2, -6.45944007030572908690e+00) (3, 1.25850665518483761929e+01) (4, 8.03052808179194999028e-01) (5, -5.08577261783363177017e+00) (6, 7.18572399626744662271e+00) (7, -2.95030656410024016978e+00) (0, -7.41137675520380856398e+00) (1, 4.03422461491453798743e+00) (2, 1.08207068463179578721e+00) (3, -7.05912696895827984633e+00) (4, -5.61547924560124123161e+00) (5, -1.53081390394960537016e+00) (6, 6.99031467728122901661e+00) (7, 3.97909858991638998305e+00) (0, 3.91376853186580575539e+00) (1, -7.73449495904508732558e-01) (2, -1.74395577564833859086e+00) (3, 2.93997701293254776189e+00) (4, -3.88945854600737883633e-01) (5, -8.02862830278638583970e-01) (6, -7.43474831646388079065e+00) (7, 4.92325334532430414214e+00) (0, -1.50000000000000000000e+03) (1, -1.42215893368822008824e+02) (2, -4.65278273661714010245e+01) (3, -1.03536967317457197169e+03) (4, 8.77412650705295618536e+02) (5, -5.84165332522651397085e+02) (6, -1.50000000000000000000e+03) (7, 3.43029190763128781327e+02) (0, -1.17726529441807805654e+01) (1, 5.53433117402610985636e+00) (2, -8.00539060759458642735e+00) (3, 8.61985119264388188753e+00) (4, -8.27478777149539324043e-01) (5, -6.49528884631381497883e+00) (6, 8.52904403077226191954e+00) (7, -2.66905682143645295312e+00) (0, 6.20370861752012615398e+02) (1, 6.52076585499424822956e+02) (2, -2.64186717647934074193e+02) (3, 2.58762236253295213828e+02) (4, -3.50482149340249179659e+02) (5, 2.47484724670295221927e+01) (6, -1.48987808622161446692e+03) (7, -1.60412176739909000389e+02) (0, 2.18929725316368255505e+01) (1, 2.29515601439882281909e+01) (2, 1.29813171123716628585e+01) (3, -1.92958182826923185793e+00) (4, -6.18767481977126632131e+00) (5, -5.09041577606664907840e-01) (6, -1.80236406308486003525e+01) (7, -9.98996021940939060713e-01) (0, 8.30571781733378244894e+00) (1, 3.02393507694552576837e+00) (2, 8.41213533568957316788e+00) (3, -2.57091722753195162099e+00) (4, 4.49804009535843363210e+00) (5, 8.46496257362627169130e+00) (6, -1.35502653512837980543e+01) (7, -9.90779479835973475588e+00) (0, -1.50000000000000000000e+03) (1, -1.50000000000000000000e+03) (2, -1.47556191701221587209e+03) (3, 9.49103904473837587830e+02) (4, -2.69563015734686246105e+02) (5, 1.50000000000000000000e+03) (6, -1.50000000000000000000e+03) (7, -4.50694717263286008802e+02) (0, 6.15147716873120884884e+02) (1, -2.92285580962509186520e+02) (2, -3.46843622737207738282e+02) (3, 7.21592088145062717786e+01) (4, 3.23963252074737738440e+02) (5, -7.27615934206953056673e+02) (6, -5.10148741076092790081e+02) (7, 1.98118569747672580661e+02) (8, -3.83815956434034655231e+00) (9, 3.67257279972581196503e+00) (10, -1.91174305516985776343e+00) (11, -5.46496043451787816281e+00) (12, 1.55765003655006832872e+01) (13, 9.52343342538694415111e+00) (14, 8.69962514673169273749e+00) (15, 1.24869998842083873569e+01) (16, -4.84586423931275955823e+00) (17, -1.41192514743345878259e+01) (18, 3.84229763681309943735e+00) (19, -8.99015075480869363389e+00) (20, 4.45457581049855289024e+00) (21, -2.25168360136006029393e+00) (22, 2.33922220678987802245e+00) (23, -1.69972691369210315848e+00) 
