FANN_FLO_2.1
num_layers=4
learning_rate=0.700000
connection_rate=1.000000
network_type=0
learning_momentum=0.000000
training_algorithm=2
train_error_function=1
train_stop_function=0
cascade_output_change_fraction=0.010000
quickprop_decay=-0.000100
quickprop_mu=1.750000
rprop_increase_factor=1.200000
rprop_decrease_factor=0.500000
rprop_delta_min=0.000000
rprop_delta_max=50.000000
rprop_delta_zero=0.100000
cascade_output_stagnation_epochs=12
cascade_candidate_change_fraction=0.010000
cascade_candidate_stagnation_epochs=12
cascade_max_out_epochs=150
cascade_max_cand_epochs=150
cascade_num_candidate_groups=2
bit_fail_limit=3.49999999999999977796e-01
cascade_candidate_limit=1.00000000000000000000e+03
cascade_weight_multiplier=4.00000000000000022204e-01
cascade_activation_functions_count=10
cascade_activation_functions=3 5 7 8 10 11 14 15 16 17 
cascade_activation_steepnesses_count=4
cascade_activation_steepnesses=2.50000000000000000000e-01 5.00000000000000000000e-01 7.50000000000000000000e-01 1.00000000000000000000e+00 
layer_sizes=8 9 9 2 
scale_included=0
neurons (num_inputs, activation_function, activation_steepness)=(0, 0, 0.00000000000000000000e+00) (0, 0, 0.00000000000000000000e+00) (0, 0, 0.00000000000000000000e+00) (0, 0, 0.00000000000000000000e+00) (0, 0, 0.00000000000000000000e+00) (0, 0, 0.00000000000000000000e+00) (0, 0, 0.00000000000000000000e+00) (0, 0, 0.00000000000000000000e+00) (8, 4, 5.00000000000000000000e-01) (8, 4, 5.00000000000000000000e-01) (8, 4, 5.00000000000000000000e-01) (8, 4, 5.00000000000000000000e-01) (8, 4, 5.00000000000000000000e-01) (8, 4, 5.00000000000000000000e-01) (8, 4, 5.00000000000000000000e-01) (8, 4, 5.00000000000000000000e-01) (0, 0, 0.00000000000000000000e+00) (9, 4, 5.00000000000000000000e-01) (9, 4, 5.00000000000000000000e-01) (9, 4, 5.00000000000000000000e-01) (9, 4, 5.00000000000000000000e-01) (9, 4, 5.00000000000000000000e-01) (9, 4, 5.00000000000000000000e-01) (9, 4, 5.00000000000000000000e-01) (9, 4, 5.00000000000000000000e-01) (0, 0, 0.00000000000000000000e+00) (9, 6, 5.00000000000000000000e-01) (0, 6, 0.00000000000000000000e+00) 
connections (connected_to_neuron, weight)=(0, -4.79161236012966185172e+02) (1, 1.33836632964057287154e+02) (2, -1.02282017743038534263e+03) (3, 1.11960019427464612818e+03) (4, -8.77353598333107356666e+02) (5, -1.49584161338023181997e+03) (6, -7.78240697195677512354e+02) (7, 1.33680264914529220732e+03) (0, -1.39211936678981942350e+03) (1, 2.03619105788614604080e+02) (2, -1.31277380287653045343e+03) (3, 8.22506446663567885480e+02) (4, -3.55272300282607034205e+02) (5, -1.62682881250022539632e+01) (6, 9.99733159309873713028e+02) (7, 6.40568570681738719941e+02) (0, -1.49859896695130578337e+03) (1, -1.43093390344056001595e+03) (2, 1.47275927554355689608e+03) (3, -1.47764468460668831540e+03) (4, 1.32497853802406689283e+03) (5, 5.95710863690139603932e+02) (6, -8.40924467659881088366e+02) (7, 1.40223353050319974500e+03) (0, 1.50704697945650025304e+02) (1, 2.98013480926670638382e+02) (2, 2.24105248192645603922e+02) (3, 2.92912568366189915992e+01) (4, -9.64124782402406822257e+02) (5, 2.79622905664309882923e+02) (6, -3.93712002888007361889e+02) (7, 1.97437169225425350305e+02) (0, 1.45182191116380681706e+03) (1, -4.12753894236216069658e+02) (2, 2.14850328602306973380e+02) (3, -9.93816010467517003235e+02) (4, 1.49849849604730661667e+03) (5, 1.49712693128557361888e+03) (6, -3.63087838541666428682e+02) (7, -5.53991295835416167392e+02) (0, 9.85761495138081841105e+02) (1, -8.94576732708643476144e+02) (2, -1.29926279234509752314e+03) (3, 1.40055008406459955950e+03) (4, -1.25974103162238452569e+03) (5, -7.65760271143675595340e+02) (6, 8.93392470121351834678e+02) (7, 6.94440455490828583152e+01) (0, 2.28350022479887968530e+02) (1, -3.26333434180076096709e+02) (2, -9.35648914876606340840e+02) (3, -8.99945014507644600599e+02) (4, 1.50000000000000000000e+03) (5, 1.50000000000000000000e+03) (6, 1.49104225333472641069e+03) (7, 3.49244556901411726813e+01) (0, -7.93456565603409444520e+02) (1, -2.05219297320008791985e+02) (2, 9.97373415664518347512e+02) (3, -2.23848977214725607610e+02) (4, 1.46253581971591211186e+03) (5, -1.50000000000000000000e+03) (6, 1.27428047826458055169e+01) (7, -2.18878305092673542731e+02) (8, -1.20236458576397217257e+03) (9, -1.87997743370044901212e+02) (10, 1.35360431049850120644e+02) (11, 1.29395554093835653475e+03) (12, -3.02283396265140254400e+02) (13, 1.01931797863920724012e+03) (14, 9.32271699303537957348e+01) (15, -1.50000000000000000000e+03) (16, -8.99418559240745707939e+02) (8, 1.50000000000000000000e+03) (9, -1.48485365113401871895e+03) (10, -1.13501248239403412299e+03) (11, -1.20877410861564749212e+03) (12, 4.66321575230178719806e+00) (13, 1.50000000000000000000e+03) (14, 1.06801029480324996257e+03) (15, 8.87123045699028239142e+02) (16, 1.49971001592464131136e+03) (8, -1.46483862011100313794e+03) (9, -1.03065055839436382712e+02) (10, 1.40213410577661875323e+02) (11, 1.44160946862875266561e+03) (12, -4.01335727937149840727e+02) (13, -1.49799118045626102003e+02) (14, 1.42155701009187782802e+03) (15, -1.24466820154704214474e+03) (16, 1.26648016532452652427e+03) (8, 1.43128693945976738178e+03) (9, 2.01955389969399092820e+01) (10, -1.42027537003795350756e+03) (11, -1.42248213321958974120e+03) (12, 1.66793655512956426890e+01) (13, 1.46081710654498556323e+03) (14, -1.48019326387208639062e+03) (15, 1.42908592216931174335e+03) (16, 1.01273333543237669119e+01) (8, 1.50000000000000000000e+03) (9, -7.77558666697201033458e+02) (10, 7.45800952883776773206e+01) (11, -1.20877410861564749212e+03) (12, 8.90881598279429454124e+02) (13, 1.50000000000000000000e+03) (14, -1.49947561827677463953e+03) (15, 4.49839316011379594329e+02) (16, 1.63254531283431958855e+02) (8, -1.22568578335523127976e+02) (9, 1.70030929432663583611e+02) (10, -7.87872040264681743338e+01) (11, 6.21391499188796103681e+01) (12, -1.96659356349860729551e+02) (13, -6.28627813245717277368e+01) (14, -4.33902830499833882527e+01) (15, -3.47963316381854284032e+01) (16, 2.35345177871550333748e+02) (8, -1.50000000000000000000e+03) (9, 7.99622244120208279128e+02) (10, -1.35952969784055039781e+03) (11, -7.10156859607524552302e+02) (12, 8.88857441421238263501e+02) (13, -1.35223412532588849899e+03) (14, -9.33434937073724540824e+02) (15, 7.04712547328331993413e+02) (16, 6.01200303108532125407e+02) (8, 1.50000000000000000000e+03) (9, -1.15786066960734910936e+03) (10, 2.90464410390614489188e+02) (11, 2.81797552652535728157e+02) (12, -1.47099363065435397857e+02) (13, 1.50000000000000000000e+03) (14, -1.46022191183037398332e+03) (15, 1.50000000000000000000e+03) (16, 1.32551331093169483211e+03) (17, -1.92570634047030508906e-01) (18, 4.63289785563835501692e-02) (19, 2.24863064393788864015e-01) (20, -4.16284753711349153615e-01) (21, 8.76019325782258634350e-02) (22, -8.09522607343505368194e-02) (23, -6.10364312626924365723e-01) (24, 3.42565280083837908620e-01) (25, -7.08501959280118248641e-02) 
