FANN_FLO_2.1
num_layers=3
learning_rate=0.700000
connection_rate=1.000000
network_type=0
learning_momentum=0.000000
training_algorithm=2
train_error_function=1
train_stop_function=0
cascade_output_change_fraction=0.010000
quickprop_decay=-0.000100
quickprop_mu=1.750000
rprop_increase_factor=1.200000
rprop_decrease_factor=0.500000
rprop_delta_min=0.000000
rprop_delta_max=50.000000
rprop_delta_zero=0.100000
cascade_output_stagnation_epochs=12
cascade_candidate_change_fraction=0.010000
cascade_candidate_stagnation_epochs=12
cascade_max_out_epochs=150
cascade_max_cand_epochs=150
cascade_num_candidate_groups=2
bit_fail_limit=3.49999999999999977796e-01
cascade_candidate_limit=1.00000000000000000000e+03
cascade_weight_multiplier=4.00000000000000022204e-01
cascade_activation_functions_count=10
cascade_activation_functions=3 5 7 8 10 11 14 15 16 17 
cascade_activation_steepnesses_count=4
cascade_activation_steepnesses=2.50000000000000000000e-01 5.00000000000000000000e-01 7.50000000000000000000e-01 1.00000000000000000000e+00 
layer_sizes=8 11 2 
scale_included=0
neurons (num_inputs, activation_function, activation_steepness)=(0, 0, 0.00000000000000000000e+00) (0, 0, 0.00000000000000000000e+00) (0, 0, 0.00000000000000000000e+00) (0, 0, 0.00000000000000000000e+00) (0, 0, 0.00000000000000000000e+00) (0, 0, 0.00000000000000000000e+00) (0, 0, 0.00000000000000000000e+00) (0, 0, 0.00000000000000000000e+00) (8, 4, 5.00000000000000000000e-01) (8, 4, 5.00000000000000000000e-01) (8, 4, 5.00000000000000000000e-01) (8, 4, 5.00000000000000000000e-01) (8, 4, 5.00000000000000000000e-01) (8, 4, 5.00000000000000000000e-01) (8, 4, 5.00000000000000000000e-01) (8, 4, 5.00000000000000000000e-01) (8, 4, 5.00000000000000000000e-01) (8, 4, 5.00000000000000000000e-01) (0, 0, 0.00000000000000000000e+00) (11, 6, 5.00000000000000000000e-01) (0, 6, 0.00000000000000000000e+00) 
connections (connected_to_neuron, weight)=(0, 1.81054914183163684349e+00) (1, -2.12260153047255517578e+00) (2, 5.23597838577535554805e+01) (3, -8.94237476410014835437e+01) (4, -3.85022922821043138697e+01) (5, -8.46261916802225471201e+01) (6, -1.66878389237290143399e+01) (7, 3.76958491101984591864e+01) (0, 4.90781758961650268702e+02) (1, 2.69376782308773101704e+02) (2, -5.95696523990885253852e+01) (3, -5.48325527665000322486e+02) (4, -1.53058198178424902380e+02) (5, 1.28717750424104309559e+02) (6, -1.07738344365183125184e+00) (7, -2.56257753815967760147e+02) (0, 3.62722901963880644871e+02) (1, -1.97822228961725159024e+02) (2, -1.50000000000000000000e+03) (3, -2.35179810651142929601e+02) (4, 2.81969742722124827594e+01) (5, 4.28427959258764943229e+01) (6, 2.54317882215555158609e+02) (7, 3.39730826702883348389e+02) (0, -2.01158153604541212189e+01) (1, -3.10597095188234220586e+02) (2, -5.24300397588168252128e+01) (3, -1.79723381960629211562e+02) (4, -6.49450400618684398069e+02) (5, -1.50000000000000000000e+03) (6, 9.98342869307856091154e+01) (7, 2.26967460514026555529e+02) (0, -6.80975646596289436729e+01) (1, 7.06460896423136830435e+01) (2, -5.21311070900032262898e+01) (3, 5.06860037628844182223e+01) (4, -7.80253888460177620345e+01) (5, 5.26194885709712210087e+01) (6, 1.01737082695113780773e+01) (7, 1.66181353387955410561e+00) (0, 3.15545561327215651204e+01) (1, 2.98652627910485222174e+01) (2, -2.25539940288711534322e+02) (3, 1.89491141088217496247e+01) (4, 2.26541307706661942944e+00) (5, 2.66765488990775310185e+01) (6, 2.37622602329210970140e+01) (7, 1.43675736759893499794e+01) (0, 5.44063607670949522799e+01) (1, -3.88358604726970968457e+00) (2, -2.05985020919347299184e+01) (3, -1.34698726521755318686e+01) (4, -2.60664036700958678949e+00) (5, 8.27251779743802728717e+00) (6, -2.06329481007151072092e+00) (7, -2.07978028291412400108e+01) (0, -1.50000000000000000000e+03) (1, -1.50000000000000000000e+03) (2, -1.50000000000000000000e+03) (3, 1.16894410808042744065e+03) (4, 1.50000000000000000000e+03) (5, -8.06687287062190193865e+02) (6, -1.50000000000000000000e+03) (7, -9.53621681474410998192e+00) (0, 6.68187968242463448121e+00) (1, 3.85943820921213642805e+01) (2, 1.88907660645448714831e+02) (3, -2.54310725509460922922e+02) (4, -1.11073193737797964786e+02) (5, -1.23996358704383435878e+01) (6, -1.08061156154891705228e+02) (7, 1.33468955555087063658e+02) (0, 1.01057126758100184816e+03) (1, 8.43826434092092313222e+02) (2, 1.67164326962720508618e+02) (3, -1.50000000000000000000e+03) (4, -1.50000000000000000000e+03) (5, 6.72603460554034086272e+02) (6, 5.28653808364945021481e+01) (7, -7.47573911789136332118e+02) (8, -1.03690722015537706291e+00) (9, -3.04371367629969524771e+00) (10, 5.50050667004038729146e+00) (11, 9.19303404048801731108e-01) (12, 1.98850898810527332294e+00) (13, -6.27101177996939185277e+00) (14, 3.17061943080216668278e+00) (15, 6.59302823747502653173e-02) (16, 1.23209118886892277089e+00) (17, -1.63978017903776573938e+00) (18, -7.58745092183442326750e-01) 
