FANN_FLO_2.1
num_layers=3
learning_rate=0.700000
connection_rate=1.000000
network_type=0
learning_momentum=0.000000
training_algorithm=2
train_error_function=1
train_stop_function=0
cascade_output_change_fraction=0.010000
quickprop_decay=-0.000100
quickprop_mu=1.750000
rprop_increase_factor=1.200000
rprop_decrease_factor=0.500000
rprop_delta_min=0.000000
rprop_delta_max=50.000000
rprop_delta_zero=0.100000
cascade_output_stagnation_epochs=12
cascade_candidate_change_fraction=0.010000
cascade_candidate_stagnation_epochs=12
cascade_max_out_epochs=150
cascade_max_cand_epochs=150
cascade_num_candidate_groups=2
bit_fail_limit=3.49999999999999977796e-01
cascade_candidate_limit=1.00000000000000000000e+03
cascade_weight_multiplier=4.00000000000000022204e-01
cascade_activation_functions_count=10
cascade_activation_functions=3 5 7 8 10 11 14 15 16 17 
cascade_activation_steepnesses_count=4
cascade_activation_steepnesses=2.50000000000000000000e-01 5.00000000000000000000e-01 7.50000000000000000000e-01 1.00000000000000000000e+00 
layer_sizes=8 8 2 
scale_included=0
neurons (num_inputs, activation_function, activation_steepness)=(0, 0, 0.00000000000000000000e+00) (0, 0, 0.00000000000000000000e+00) (0, 0, 0.00000000000000000000e+00) (0, 0, 0.00000000000000000000e+00) (0, 0, 0.00000000000000000000e+00) (0, 0, 0.00000000000000000000e+00) (0, 0, 0.00000000000000000000e+00) (0, 0, 0.00000000000000000000e+00) (8, 4, 5.00000000000000000000e-01) (8, 4, 5.00000000000000000000e-01) (8, 4, 5.00000000000000000000e-01) (8, 4, 5.00000000000000000000e-01) (8, 4, 5.00000000000000000000e-01) (8, 4, 5.00000000000000000000e-01) (8, 4, 5.00000000000000000000e-01) (0, 0, 0.00000000000000000000e+00) (8, 6, 5.00000000000000000000e-01) (0, 6, 0.00000000000000000000e+00) 
connections (connected_to_neuron, weight)=(0, -1.50000000000000000000e+03) (1, -1.50000000000000000000e+03) (2, -1.50000000000000000000e+03) (3, -1.47500000000000000000e+03) (4, -1.50000000000000000000e+03) (5, -1.50000000000000000000e+03) (6, -1.50000000000000000000e+03) (7, -1.19267497061598237451e+03) (0, -1.50000000000000000000e+03) (1, -1.50000000000000000000e+03) (2, -1.50000000000000000000e+03) (3, -1.47500000000000000000e+03) (4, -1.50000000000000000000e+03) (5, -1.50000000000000000000e+03) (6, -1.50000000000000000000e+03) (7, 1.47263999811777989635e+03) (0, 1.46679296911946494220e+03) (1, 9.25076555042816494279e+02) (2, -1.48048827021858915032e+03) (3, 1.22895581035191798946e+03) (4, -1.48159535778782105808e+03) (5, -1.49967501689763525974e+03) (6, -1.50000000000000000000e+03) (7, 1.48120914945750678271e+03) (0, -1.36939707978232422647e+03) (1, -1.15067052104992603745e+03) (2, 1.25370472702143365495e+03) (3, 5.45553874511356525545e+02) (4, 1.50000000000000000000e+03) (5, 1.50000000000000000000e+03) (6, 1.50000000000000000000e+03) (7, -1.45622515515431564381e+03) (0, -6.34966543409276962251e+00) (1, 8.90147072889605439627e+00) (2, 2.94005732642561801171e+00) (3, -1.34605085552339112098e+01) (4, -2.98535191771133412431e-01) (5, 6.81529947360675425472e+00) (6, 6.01863752364415915963e-01) (7, 9.32884175650721021722e-03) (0, -1.07156562871262906356e+02) (1, -2.59818967450580338152e+01) (2, 1.34980630666481374647e+02) (3, -1.77763195875090616482e+02) (4, 1.92855865003706794525e+00) (5, 1.07498120514970256778e+01) (6, 3.37231675970378148577e+01) (7, 4.22706631048915042470e+01) (0, 1.13492748445394099122e+02) (1, -2.06301763929525321828e+02) (2, -2.45658360751272830669e+01) (3, 3.82963084652325733259e+02) (4, -2.80282089296753289531e+00) (5, -1.01519680175065403205e+02) (6, -1.97168901086642840426e+01) (7, -7.41426072430354423659e+01) (8, 1.50000000000000000000e+03) (9, 1.50000000000000000000e+03) (10, 9.48746349564502322593e-01) (11, -2.30557737569227066965e-01) (12, 2.89455678675601779659e+00) (13, 1.79878722249989309034e+00) (14, 1.87379599111736250272e+00) (15, -2.80558616418657136293e+00) 
