FANN_FLO_2.1
num_layers=3
learning_rate=0.700000
connection_rate=1.000000
network_type=0
learning_momentum=0.000000
training_algorithm=2
train_error_function=1
train_stop_function=0
cascade_output_change_fraction=0.010000
quickprop_decay=-0.000100
quickprop_mu=1.750000
rprop_increase_factor=1.200000
rprop_decrease_factor=0.500000
rprop_delta_min=0.000000
rprop_delta_max=50.000000
rprop_delta_zero=0.100000
cascade_output_stagnation_epochs=12
cascade_candidate_change_fraction=0.010000
cascade_candidate_stagnation_epochs=12
cascade_max_out_epochs=150
cascade_max_cand_epochs=150
cascade_num_candidate_groups=2
bit_fail_limit=3.49999999999999977796e-01
cascade_candidate_limit=1.00000000000000000000e+03
cascade_weight_multiplier=4.00000000000000022204e-01
cascade_activation_functions_count=10
cascade_activation_functions=3 5 7 8 10 11 14 15 16 17 
cascade_activation_steepnesses_count=4
cascade_activation_steepnesses=2.50000000000000000000e-01 5.00000000000000000000e-01 7.50000000000000000000e-01 1.00000000000000000000e+00 
layer_sizes=8 11 3 
scale_included=0
neurons (num_inputs, activation_function, activation_steepness)=(0, 0, 0.00000000000000000000e+00) (0, 0, 0.00000000000000000000e+00) (0, 0, 0.00000000000000000000e+00) (0, 0, 0.00000000000000000000e+00) (0, 0, 0.00000000000000000000e+00) (0, 0, 0.00000000000000000000e+00) (0, 0, 0.00000000000000000000e+00) (0, 0, 0.00000000000000000000e+00) (8, 4, 5.00000000000000000000e-01) (8, 4, 5.00000000000000000000e-01) (8, 4, 5.00000000000000000000e-01) (8, 4, 5.00000000000000000000e-01) (8, 4, 5.00000000000000000000e-01) (8, 4, 5.00000000000000000000e-01) (8, 4, 5.00000000000000000000e-01) (8, 4, 5.00000000000000000000e-01) (8, 4, 5.00000000000000000000e-01) (8, 4, 5.00000000000000000000e-01) (0, 0, 0.00000000000000000000e+00) (11, 6, 5.00000000000000000000e-01) (11, 6, 5.00000000000000000000e-01) (0, 6, 0.00000000000000000000e+00) 
connections (connected_to_neuron, weight)=(0, 2.64244369091972544084e+02) (1, -6.08545027670761896843e+02) (2, -1.61204976143312308068e+02) (3, 2.24367525462775176948e+02) (4, 6.39491798436934573147e+02) (5, -1.50000000000000000000e+03) (6, -3.05434660744025961776e+02) (7, 1.76325660790634373143e+02) (0, 1.60963322974541895860e+01) (1, 2.83396997615806292004e+01) (2, -1.35087419095949172743e+01) (3, -5.56330554603428595328e+00) (4, -3.58643012480117651108e-01) (5, -3.39579665753876192014e+00) (6, -1.92775673860142973126e+01) (7, -9.28336464096227764742e+00) (0, 1.50000000000000000000e+03) (1, 1.50000000000000000000e+03) (2, 1.50000000000000000000e+03) (3, -1.50000000000000000000e+03) (4, -1.25912983225593762882e+02) (5, 5.88202317711753494223e+02) (6, 1.50000000000000000000e+03) (7, -3.35705606204161313144e+02) (0, 6.01904793072569148649e+01) (1, 4.18224706825218959239e+01) (2, -3.90042622218280072843e+01) (3, 1.67145889591157903453e+01) (4, 1.03039788024195910765e+01) (5, -1.12654325298762927332e+01) (6, -7.03443512891396380837e+01) (7, 1.33947380701548546256e+01) (0, -2.57765252872765309178e+01) (1, -3.63809196232297779261e+02) (2, 2.95516914422177769950e+01) (3, 1.13495543864571163795e+03) (4, 2.05867896588936716284e+00) (5, 6.29867612277450234615e+02) (6, -3.21034105423706080273e+02) (7, 2.98936448782812220770e+01) (0, 1.04601851688791551709e+01) (1, 4.20384100087501266785e+00) (2, -6.05273273925949428786e+00) (3, -1.85815032384237266427e+00) (4, 3.27088112722790036457e+00) (5, -2.61893941929122764378e+00) (6, -1.06193619413742030844e+01) (7, 6.08530633038376311816e+00) (0, 1.16843117125744856821e+03) (1, 5.26372158521181745527e+02) (2, 4.66443193832944075439e+02) (3, -7.52495197911018749437e+02) (4, 5.44963302196490985807e+02) (5, 1.50000000000000000000e+03) (6, 8.46589488638429088496e+01) (7, -3.28249437547979141527e+02) (0, 2.10019543306660203541e+01) (1, -4.23082465982761775081e+01) (2, 2.56846371112961477934e+01) (3, -1.51078549481941450949e+01) (4, -1.18126314055716861162e+01) (5, 2.48474191270766766593e+01) (6, -1.61691175028922096146e+01) (7, 1.45236942274792379948e+01) (0, -2.50738833926233809279e+02) (1, 3.63301362851868816506e+02) (2, -3.34774570050665687404e+01) (3, 1.45523182793481652197e+02) (4, -6.99490309370597032057e+01) (5, -2.49397917961268092313e+02) (6, 9.42900545223434676245e+01) (7, -5.71535159144339246495e+01) (0, -2.02325679520155432556e+00) (1, -9.88335839362309953593e-01) (2, -1.72512969283410866339e+00) (3, 4.69085655488742681030e+00) (4, -1.71848684499047132945e+00) (5, -3.87584192872830968213e+00) (6, -2.28181982525539206463e+00) (7, -1.46638754694087958264e+00) (8, 9.26722234264267696879e-01) (9, 1.32695871631099238108e+00) (10, -1.22785219661273048430e+00) (11, -3.08102048874204959006e+00) (12, 1.26599654113918402842e+00) (13, 7.16036062482648816285e+00) (14, -2.41717284568600065953e+00) (15, 2.51512729909290255748e+00) (16, 1.88851501333956472983e+00) (17, -5.16677702338434752249e+00) (18, -2.67350734596577321867e+00) (8, -9.35670181750227314410e-01) (9, -1.32248755221717706476e+00) (10, 7.29097009061124623486e-01) (11, 2.62464954095006364199e+00) (12, -1.45533204836908769408e+00) (13, -6.55615497901318278196e+00) (14, 2.04193331755350060419e+00) (15, -1.92960577447676118190e+00) (16, -1.27262989816262050979e+00) (17, 4.64015753226066607340e+00) (18, 5.43162919918336850600e+00) 
