FANN_FLO_2.1
num_layers=3
learning_rate=0.700000
connection_rate=1.000000
network_type=0
learning_momentum=0.000000
training_algorithm=2
train_error_function=1
train_stop_function=0
cascade_output_change_fraction=0.010000
quickprop_decay=-0.000100
quickprop_mu=1.750000
rprop_increase_factor=1.200000
rprop_decrease_factor=0.500000
rprop_delta_min=0.000000
rprop_delta_max=50.000000
rprop_delta_zero=0.100000
cascade_output_stagnation_epochs=12
cascade_candidate_change_fraction=0.010000
cascade_candidate_stagnation_epochs=12
cascade_max_out_epochs=150
cascade_max_cand_epochs=150
cascade_num_candidate_groups=2
bit_fail_limit=3.49999999999999977796e-01
cascade_candidate_limit=1.00000000000000000000e+03
cascade_weight_multiplier=4.00000000000000022204e-01
cascade_activation_functions_count=10
cascade_activation_functions=3 5 7 8 10 11 14 15 16 17 
cascade_activation_steepnesses_count=4
cascade_activation_steepnesses=2.50000000000000000000e-01 5.00000000000000000000e-01 7.50000000000000000000e-01 1.00000000000000000000e+00 
layer_sizes=8 9 3 
scale_included=0
neurons (num_inputs, activation_function, activation_steepness)=(0, 0, 0.00000000000000000000e+00) (0, 0, 0.00000000000000000000e+00) (0, 0, 0.00000000000000000000e+00) (0, 0, 0.00000000000000000000e+00) (0, 0, 0.00000000000000000000e+00) (0, 0, 0.00000000000000000000e+00) (0, 0, 0.00000000000000000000e+00) (0, 0, 0.00000000000000000000e+00) (8, 4, 5.00000000000000000000e-01) (8, 4, 5.00000000000000000000e-01) (8, 4, 5.00000000000000000000e-01) (8, 4, 5.00000000000000000000e-01) (8, 4, 5.00000000000000000000e-01) (8, 4, 5.00000000000000000000e-01) (8, 4, 5.00000000000000000000e-01) (8, 4, 5.00000000000000000000e-01) (0, 0, 0.00000000000000000000e+00) (9, 6, 5.00000000000000000000e-01) (9, 6, 5.00000000000000000000e-01) (0, 6, 0.00000000000000000000e+00) 
connections (connected_to_neuron, weight)=(0, -1.48006677688051824227e+00) (1, -1.76824625655523126611e+00) (2, -2.46178252633489247359e+00) (3, 2.09737439844357496099e+01) (4, 9.79034684503083774132e+00) (5, 6.73897171849147103018e-01) (6, -6.50151544346589371770e+00) (7, -8.30738956418944063387e+00) (0, -1.50000000000000000000e+03) (1, -1.50000000000000000000e+03) (2, -4.35732128638413541921e+02) (3, -1.41430250067205247433e+03) (4, 1.50000000000000000000e+03) (5, 1.50000000000000000000e+03) (6, -1.50000000000000000000e+03) (7, -6.18601367427274908550e+02) (0, -1.90730550969473853229e+02) (1, 5.16304684396171865046e+02) (2, -7.80827150433114752559e+02) (3, -9.44764423281667291121e+02) (4, -6.64645148184450476947e+02) (5, -1.50000000000000000000e+03) (6, 6.68696207688991307805e+02) (7, 3.75125698629707287068e+01) (0, -7.45452192716330301892e+01) (1, 7.21695198279029614952e+00) (2, 7.43525810075988573544e+01) (3, 4.20819367853943830937e+01) (4, -6.77367711000720618131e+00) (5, -4.60302997377536300405e+01) (6, 3.56133788147500638388e+01) (7, -9.14774630360029128440e+00) (0, 2.10114404029098977844e+02) (1, -4.51336012798194943230e+01) (2, -4.30388973146785502877e+01) (3, -3.88424666760621107642e+02) (4, -1.44813125168663191289e+02) (5, 8.98315601408148296514e+01) (6, 1.50000000000000000000e+03) (7, -1.36367531426668756467e+03) (0, 4.23667854477016305736e+01) (1, -2.37699287612352208043e+01) (2, -3.91294637534687623770e+01) (3, -3.21086760691467354434e+00) (4, -2.18922432408401856918e+00) (5, -2.99396268398016474066e+00) (6, -3.27934878940625118560e+00) (7, 2.06639900809329901676e+01) (0, -9.29502729876360717753e+02) (1, 9.08087551289899330698e+00) (2, 1.50000000000000000000e+03) (3, 1.13327592026383868529e+02) (4, 2.89118971587938744960e+02) (5, 5.68031711865983538701e+02) (6, -4.33160799691406054990e+02) (7, -4.63884740610893800294e+02) (0, 2.12871366915014476717e+02) (1, -1.18272921622826345356e+02) (2, 4.08893684326995199285e+01) (3, 6.34060130153582832691e+01) (4, 1.34266816892531181793e+02) (5, -1.36144436531559932746e+02) (6, -1.53757360741116855252e+02) (7, -8.56431252191697893750e+01) (8, -1.20032162165410216659e+00) (9, 1.02289031770241600761e+00) (10, -1.61904791509772416624e+00) (11, 5.82059497633723998966e-01) (12, -1.25987696351493738689e+00) (13, 8.22184332049714527990e-01) (14, 1.10259527320330952271e+00) (15, 1.09078856714801664118e+00) (16, 4.86967295075343309385e-01) (8, 1.26625205097956605726e+00) (9, -7.65555643319805634306e-01) (10, 1.59807987939891149587e+00) (11, -6.25404545756763186048e-01) (12, 1.81332137647630697863e+00) (13, -8.33623867697912079855e-01) (14, -1.24526674197386277854e+00) (15, -9.56290336848038879936e-01) (16, 2.03943753716612796723e+00) 
