FANN_FLO_2.1
num_layers=3
learning_rate=0.700000
connection_rate=1.000000
network_type=0
learning_momentum=0.000000
training_algorithm=2
train_error_function=1
train_stop_function=0
cascade_output_change_fraction=0.010000
quickprop_decay=-0.000100
quickprop_mu=1.750000
rprop_increase_factor=1.200000
rprop_decrease_factor=0.500000
rprop_delta_min=0.000000
rprop_delta_max=50.000000
rprop_delta_zero=0.100000
cascade_output_stagnation_epochs=12
cascade_candidate_change_fraction=0.010000
cascade_candidate_stagnation_epochs=12
cascade_max_out_epochs=150
cascade_max_cand_epochs=150
cascade_num_candidate_groups=2
bit_fail_limit=3.49999999999999977796e-01
cascade_candidate_limit=1.00000000000000000000e+03
cascade_weight_multiplier=4.00000000000000022204e-01
cascade_activation_functions_count=10
cascade_activation_functions=3 5 7 8 10 11 14 15 16 17 
cascade_activation_steepnesses_count=4
cascade_activation_steepnesses=2.50000000000000000000e-01 5.00000000000000000000e-01 7.50000000000000000000e-01 1.00000000000000000000e+00 
layer_sizes=8 8 2 
scale_included=0
neurons (num_inputs, activation_function, activation_steepness)=(0, 0, 0.00000000000000000000e+00) (0, 0, 0.00000000000000000000e+00) (0, 0, 0.00000000000000000000e+00) (0, 0, 0.00000000000000000000e+00) (0, 0, 0.00000000000000000000e+00) (0, 0, 0.00000000000000000000e+00) (0, 0, 0.00000000000000000000e+00) (0, 0, 0.00000000000000000000e+00) (8, 4, 5.00000000000000000000e-01) (8, 4, 5.00000000000000000000e-01) (8, 4, 5.00000000000000000000e-01) (8, 4, 5.00000000000000000000e-01) (8, 4, 5.00000000000000000000e-01) (8, 4, 5.00000000000000000000e-01) (8, 4, 5.00000000000000000000e-01) (0, 0, 0.00000000000000000000e+00) (8, 6, 5.00000000000000000000e-01) (0, 6, 0.00000000000000000000e+00) 
connections (connected_to_neuron, weight)=(0, -1.49596908606549732212e+03) (1, 1.21612519337069375069e+03) (2, -8.36099624479967644675e+01) (3, 6.56862588137115835707e+02) (4, -8.24996918750281452049e+02) (5, -1.50000000000000000000e+03) (6, 3.53769764066555296722e+02) (7, -4.96882402517254945451e+02) (0, -7.15527284279563602354e+00) (1, -9.87356203848859514949e+00) (2, 8.08958000630753737425e+00) (3, -1.36462338366700564052e+01) (4, 6.91629929181406222227e+00) (5, 1.07912878861007266451e+00) (6, 8.47235059724455297214e+00) (7, 1.08467889285289786905e+00) (0, -1.46007323788986429491e+01) (1, -2.27524498382258464346e+01) (2, 8.76159279206367602733e-01) (3, 2.60093839627977985174e+01) (4, 6.00937610069489291931e+00) (5, -1.80381973320760771173e+01) (6, 1.03443333952474407766e+01) (7, -1.32924628110909348599e+00) (0, 1.01359330807781073958e+01) (1, 2.35839692965774574418e+01) (2, -6.28852484061639884771e+01) (3, 7.74704373182449756996e+01) (4, 7.68126172354954661614e+00) (5, 3.21123756973290896966e+00) (6, -2.85992794929384182012e+01) (7, -3.02478897217249560470e+01) (0, 2.03030361178690199608e+01) (1, 1.65536500402455777348e+00) (2, 6.68086388207747816637e+00) (3, -3.06239978943813406786e+00) (4, -5.49586502442572122362e-01) (5, -2.04599307274443997784e+00) (6, -2.03626547369522619135e+01) (7, -1.91031247497464051754e+00) (0, -1.41158335197593487464e+03) (1, -1.50000000000000000000e+03) (2, -4.57332418217498059221e+02) (3, 8.16751217125082689563e+02) (4, 1.44621281076395075615e+03) (5, 1.20677101495173224066e+03) (6, -1.50000000000000000000e+03) (7, 1.58548942983173247967e+02) (0, 4.37358123195525990923e+02) (1, -6.86232962744418273360e+01) (2, 4.51540130844098314356e+02) (3, 5.36595945388750692473e+02) (4, 9.89110994424335899566e+02) (5, -5.20118710523212712360e+02) (6, -1.58544379645289978953e+02) (7, -8.20444033997041174189e+02) (8, -1.92032201872230667838e+00) (9, 2.83240992511421607603e+00) (10, 1.92108046654419184485e+00) (11, 2.64567238262221327005e+00) (12, 2.64762726752240595829e+00) (13, -1.88229284992111223218e+00) (14, -1.85147527688922219902e+00) (15, -3.96809120096103806752e-01) 
