FANN_FLO_2.1
num_layers=3
learning_rate=0.700000
connection_rate=1.000000
network_type=0
learning_momentum=0.000000
training_algorithm=2
train_error_function=1
train_stop_function=0
cascade_output_change_fraction=0.010000
quickprop_decay=-0.000100
quickprop_mu=1.750000
rprop_increase_factor=1.200000
rprop_decrease_factor=0.500000
rprop_delta_min=0.000000
rprop_delta_max=50.000000
rprop_delta_zero=0.100000
cascade_output_stagnation_epochs=12
cascade_candidate_change_fraction=0.010000
cascade_candidate_stagnation_epochs=12
cascade_max_out_epochs=150
cascade_max_cand_epochs=150
cascade_num_candidate_groups=2
bit_fail_limit=3.49999999999999977796e-01
cascade_candidate_limit=1.00000000000000000000e+03
cascade_weight_multiplier=4.00000000000000022204e-01
cascade_activation_functions_count=10
cascade_activation_functions=3 5 7 8 10 11 14 15 16 17 
cascade_activation_steepnesses_count=4
cascade_activation_steepnesses=2.50000000000000000000e-01 5.00000000000000000000e-01 7.50000000000000000000e-01 1.00000000000000000000e+00 
layer_sizes=8 9 2 
scale_included=0
neurons (num_inputs, activation_function, activation_steepness)=(0, 0, 0.00000000000000000000e+00) (0, 0, 0.00000000000000000000e+00) (0, 0, 0.00000000000000000000e+00) (0, 0, 0.00000000000000000000e+00) (0, 0, 0.00000000000000000000e+00) (0, 0, 0.00000000000000000000e+00) (0, 0, 0.00000000000000000000e+00) (0, 0, 0.00000000000000000000e+00) (8, 4, 5.00000000000000000000e-01) (8, 4, 5.00000000000000000000e-01) (8, 4, 5.00000000000000000000e-01) (8, 4, 5.00000000000000000000e-01) (8, 4, 5.00000000000000000000e-01) (8, 4, 5.00000000000000000000e-01) (8, 4, 5.00000000000000000000e-01) (8, 4, 5.00000000000000000000e-01) (0, 0, 0.00000000000000000000e+00) (9, 6, 5.00000000000000000000e-01) (0, 6, 0.00000000000000000000e+00) 
connections (connected_to_neuron, weight)=(0, -1.14225056984680193750e+02) (1, 8.43314427870676439625e+01) (2, 2.56998283768128699123e+00) (3, -3.94907467670168671248e+02) (4, -7.85644048100763399134e+01) (5, -5.66293251371410747197e+02) (6, 4.40825689529667528177e+01) (7, 7.87062988984360231370e+02) (0, -1.77951625104714167946e+02) (1, 2.77182121751364206830e+02) (2, -1.33382839618744043264e+02) (3, -4.92581036244129037982e+01) (4, 7.57859520697147900137e+02) (5, 1.50000000000000000000e+03) (6, 6.21857333748613427815e+02) (7, 2.54789241542466200485e+01) (0, -4.68595246467392385625e+01) (1, -1.59161324316154320968e+02) (2, -2.46954064067078391531e+01) (3, 1.50208975292165064275e+02) (4, -5.01723869583940924599e+01) (5, 1.79826725080575151594e+01) (6, 2.21387561826956044797e+02) (7, -5.95442818107106290881e+01) (0, 1.14364415765104858735e+01) (1, -1.52815181207776191741e+01) (2, -3.80792396865770266245e-01) (3, 7.64143828023724758225e+00) (4, 1.04131062367258806489e+01) (5, 2.41140912180748134830e+00) (6, -7.05240492944262831188e-01) (7, -1.02053088951933652595e+01) (0, -2.28590140792803664382e+00) (1, 5.73978267148081933158e+00) (2, 2.30902698625656865872e+00) (3, -1.52818564232465470276e+00) (4, 1.70727444304177966572e+00) (5, -9.29115484289235205040e+00) (6, -8.77251299062978495691e-01) (7, -7.53192808481708730994e+00) (0, -6.93415445798279250766e+00) (1, 1.14061172004432780369e+01) (2, -5.99511472982859761061e+00) (3, 3.15855016547661149318e+00) (4, 4.87937051028615509374e-01) (5, -3.37772805031116334362e+01) (6, -4.04793988066746734944e+00) (7, -5.11670913482906630776e+00) (0, -7.86803695728121521569e+00) (1, 1.33735853591209963298e+01) (2, -6.90564178477475287821e+00) (3, 3.52915152711728508095e+00) (4, 1.72280896147879836189e-01) (5, -3.82457927322130757375e+01) (6, -5.32023395409140409384e+00) (7, -5.10966751739602997873e+00) (0, -5.69710933509101735694e+01) (1, 1.59131711493183836126e+01) (2, 2.37072435433297457053e+01) (3, 2.79535342667988873089e+00) (4, -5.55880354510871086404e+01) (5, 7.56130507720505740110e+00) (6, 4.20597552478145999544e+01) (7, 1.27976132215311491080e+01) (8, 1.86419115243966349027e+00) (9, -3.57630253292436117718e+00) (10, -1.53971976030178092643e+00) (11, 2.09307610485634087993e+00) (12, -1.05195253674560866841e+01) (13, 4.74372921476293143428e+01) (14, -4.44540964484641705212e+01) (15, 1.64196243836130362226e+00) (16, 1.38360516658772825238e+00) 
