FANN_FLO_2.1
num_layers=3
learning_rate=0.700000
connection_rate=1.000000
network_type=0
learning_momentum=0.000000
training_algorithm=2
train_error_function=1
train_stop_function=0
cascade_output_change_fraction=0.010000
quickprop_decay=-0.000100
quickprop_mu=1.750000
rprop_increase_factor=1.200000
rprop_decrease_factor=0.500000
rprop_delta_min=0.000000
rprop_delta_max=50.000000
rprop_delta_zero=0.100000
cascade_output_stagnation_epochs=12
cascade_candidate_change_fraction=0.010000
cascade_candidate_stagnation_epochs=12
cascade_max_out_epochs=150
cascade_max_cand_epochs=150
cascade_num_candidate_groups=2
bit_fail_limit=3.49999999999999977796e-01
cascade_candidate_limit=1.00000000000000000000e+03
cascade_weight_multiplier=4.00000000000000022204e-01
cascade_activation_functions_count=10
cascade_activation_functions=3 5 7 8 10 11 14 15 16 17 
cascade_activation_steepnesses_count=4
cascade_activation_steepnesses=2.50000000000000000000e-01 5.00000000000000000000e-01 7.50000000000000000000e-01 1.00000000000000000000e+00 
layer_sizes=8 16 2 
scale_included=0
neurons (num_inputs, activation_function, activation_steepness)=(0, 0, 0.00000000000000000000e+00) (0, 0, 0.00000000000000000000e+00) (0, 0, 0.00000000000000000000e+00) (0, 0, 0.00000000000000000000e+00) (0, 0, 0.00000000000000000000e+00) (0, 0, 0.00000000000000000000e+00) (0, 0, 0.00000000000000000000e+00) (0, 0, 0.00000000000000000000e+00) (8, 4, 5.00000000000000000000e-01) (8, 4, 5.00000000000000000000e-01) (8, 4, 5.00000000000000000000e-01) (8, 4, 5.00000000000000000000e-01) (8, 4, 5.00000000000000000000e-01) (8, 4, 5.00000000000000000000e-01) (8, 4, 5.00000000000000000000e-01) (8, 4, 5.00000000000000000000e-01) (8, 4, 5.00000000000000000000e-01) (8, 4, 5.00000000000000000000e-01) (8, 4, 5.00000000000000000000e-01) (8, 4, 5.00000000000000000000e-01) (8, 4, 5.00000000000000000000e-01) (8, 4, 5.00000000000000000000e-01) (8, 4, 5.00000000000000000000e-01) (0, 0, 0.00000000000000000000e+00) (16, 6, 5.00000000000000000000e-01) (0, 6, 0.00000000000000000000e+00) 
connections (connected_to_neuron, weight)=(0, 5.87649755554642480582e-02) (1, -4.37208690676222505589e-03) (2, -2.25057523325942754333e-02) (3, -5.73856643570313379454e-02) (4, -8.04822858308596178478e-02) (5, 1.22111001008912908872e-02) (6, 9.45459307290007072710e-02) (7, 9.62325683233524464821e-02) (0, -9.23760590870091047311e-02) (1, -5.83402963666661902864e-02) (2, 7.14471152454184688096e-02) (3, -3.56309700478757845898e-02) (4, 4.90799041327819735026e-03) (5, -4.48892683891842919630e-02) (6, 7.93380633642980781506e-02) (7, -3.73073501483701108761e-02) (0, 7.64327675317640065078e-02) (1, -1.32505091950373202203e-02) (2, 4.75906721888582628921e-02) (3, 1.90906094437928372520e-02) (4, -6.39558975801750584367e-02) (5, 6.13464354365532774094e-02) (6, -8.94587682851965271258e-02) (7, 7.93838160765739514479e-02) (0, -4.56123507859163002109e-02) (1, 9.21610972607299072656e-02) (2, 7.74084718325506182524e-02) (3, -2.72410450837171774774e-02) (4, -9.95204489606685560599e-02) (5, -5.55481141328530506063e-02) (6, 4.36116146834435169932e-02) (7, 5.92445280849118113831e-02) (0, 4.00798004505008437226e-02) (1, -7.88941390461346259144e-02) (2, -9.81411377622356528860e-02) (3, 5.95975161097573521984e-02) (4, 3.33169625448727912964e-02) (5, 9.64047944568811876476e-02) (6, 5.58300829429936723569e-02) (7, 4.09409049479798128890e-02) (0, -6.19355033999011289625e-02) (1, 2.72771967914282736922e-02) (2, -9.46900665900120841467e-02) (3, 4.29724885034931877725e-02) (4, 8.23879298923601011140e-02) (5, 8.46479983575343652991e-02) (6, -9.43348631349930355494e-02) (7, 5.88206960271402470863e-02) (0, -2.86025123276190743060e-02) (1, 5.32558106371135986379e-02) (2, -2.20886960191830350464e-02) (3, 7.44159158232199358096e-03) (4, 1.46022445835507566625e-02) (5, -1.15474628142634427874e-02) (6, -1.31745937380879155065e-02) (7, 6.89898952877505688974e-02) (0, -1.93863670436496549065e-02) (1, -3.57661233956534097000e-02) (2, -5.82511512860827210258e-02) (3, -1.89068145142020915817e-02) (4, 8.68576396160965907844e-03) (5, 8.53604648874769222910e-02) (6, -5.96622879194063995834e-02) (7, -5.12344370780056165837e-02) (0, -9.35336756487738230081e-02) (1, -5.78034241915259261457e-02) (2, -9.16369224583643837700e-02) (3, 3.97832884793473465224e-02) (4, -6.13986312247608648218e-02) (5, 6.41931620678776737599e-02) (6, -1.92758080627889599734e-02) (7, -2.33341330414136155502e-02) (0, -8.52964263081017887158e-03) (1, -1.39658730695526728249e-02) (2, -8.03616460280365541013e-02) (3, -2.61417142285661971424e-02) (4, -2.93178762021344269106e-02) (5, -7.46965075797812183556e-02) (6, -6.73210196915420694408e-02) (7, 4.20796129603626181681e-02) (0, 7.85593045474484996671e-02) (1, 1.05902857793910148976e-02) (2, -5.04787969474315076357e-02) (3, -6.83845235911685611629e-03) (4, 9.90428244552436914949e-02) (5, 3.63466108045966962425e-02) (6, -3.78485585614823996647e-02) (7, -2.03435439853898239471e-02) (0, -9.94195139880405809318e-02) (1, 3.90029164255099869418e-03) (2, 6.07496429905242038561e-02) (3, 9.26625146368520447027e-03) (4, -1.07392449600882053384e-02) (5, -9.89126463258660493238e-02) (6, 5.80318159689279661206e-02) (7, -4.27291902561365011248e-03) (0, -5.67160690272758630237e-02) (1, 6.63948950006797017354e-02) (2, -6.44896320363824160360e-02) (3, -1.81146986687883496114e-02) (4, 3.05880555784412491716e-02) (5, 1.62345613909447364365e-02) (6, 5.85511697799141542231e-02) (7, -7.79415885424850490848e-02) (0, -9.77313131687240488343e-02) (1, 7.81895252419937264454e-02) (2, -4.08330118780286799307e-03) (3, -2.70491878807423632991e-02) (4, -9.65069838279035974171e-02) (5, 2.85956806107711819509e-02) (6, -8.49695764104958645158e-02) (7, 8.20523222096610216347e-02) (0, -6.08140350068216636870e-02) (1, -3.54483717746789939174e-02) (2, -2.47861316395719538663e-02) (3, -6.17712120416940915768e-02) (4, -9.91017624601984170596e-02) (5, 3.73653112890617658537e-02) (6, 1.78852454630322038609e-02) (7, -9.85212749581228786067e-02) (8, -5.87343985585033548369e-02) (9, -2.13651129434274528185e-02) (10, 1.07449780888107110366e-02) (11, 3.05263580646568180588e-02) (12, -2.02777577791773896965e-02) (13, -3.12232074323774422275e-02) (14, -7.37465624510729444996e-02) (15, 2.30061746836628666646e-02) (16, -6.48283139218138598769e-02) (17, -3.82361929973392550286e-02) (18, -9.51085254752415953927e-02) (19, 6.57597432398757675287e-02) (20, 7.79983698837216077315e-02) (21, 6.34426457947886712763e-02) (22, 8.78181561875068378287e-02) (23, 8.02670582982459301924e-02) 
