FANN_FLO_2.1
num_layers=3
learning_rate=0.700000
connection_rate=1.000000
network_type=0
learning_momentum=0.000000
training_algorithm=2
train_error_function=1
train_stop_function=0
cascade_output_change_fraction=0.010000
quickprop_decay=-0.000100
quickprop_mu=1.750000
rprop_increase_factor=1.200000
rprop_decrease_factor=0.500000
rprop_delta_min=0.000000
rprop_delta_max=50.000000
rprop_delta_zero=0.100000
cascade_output_stagnation_epochs=12
cascade_candidate_change_fraction=0.010000
cascade_candidate_stagnation_epochs=12
cascade_max_out_epochs=150
cascade_max_cand_epochs=150
cascade_num_candidate_groups=2
bit_fail_limit=3.49999999999999977796e-01
cascade_candidate_limit=1.00000000000000000000e+03
cascade_weight_multiplier=4.00000000000000022204e-01
cascade_activation_functions_count=10
cascade_activation_functions=3 5 7 8 10 11 14 15 16 17 
cascade_activation_steepnesses_count=4
cascade_activation_steepnesses=2.50000000000000000000e-01 5.00000000000000000000e-01 7.50000000000000000000e-01 1.00000000000000000000e+00 
layer_sizes=8 9 2 
scale_included=0
neurons (num_inputs, activation_function, activation_steepness)=(0, 0, 0.00000000000000000000e+00) (0, 0, 0.00000000000000000000e+00) (0, 0, 0.00000000000000000000e+00) (0, 0, 0.00000000000000000000e+00) (0, 0, 0.00000000000000000000e+00) (0, 0, 0.00000000000000000000e+00) (0, 0, 0.00000000000000000000e+00) (0, 0, 0.00000000000000000000e+00) (8, 4, 5.00000000000000000000e-01) (8, 4, 5.00000000000000000000e-01) (8, 4, 5.00000000000000000000e-01) (8, 4, 5.00000000000000000000e-01) (8, 4, 5.00000000000000000000e-01) (8, 4, 5.00000000000000000000e-01) (8, 4, 5.00000000000000000000e-01) (8, 4, 5.00000000000000000000e-01) (0, 0, 0.00000000000000000000e+00) (9, 6, 5.00000000000000000000e-01) (0, 6, 0.00000000000000000000e+00) 
connections (connected_to_neuron, weight)=(0, -7.93441555869524677291e+01) (1, -1.47572884801271527522e+02) (2, -1.08374215042257503683e+02) (3, 1.34602488011592981820e+02) (4, 3.42138475760502728917e+02) (5, 1.68551570939163923413e+02) (6, 7.39675509818661112149e+01) (7, -7.93018640549357485270e+01) (0, 6.27797819474245883953e+01) (1, -5.57891403003693326923e+01) (2, -3.70551863447053762002e+01) (3, 1.86990759574766585160e+01) (4, 7.57972674854197094874e+01) (5, -4.01888767766744692267e+01) (6, -4.16859465149262842232e+00) (7, -2.60575554088483265502e+01) (0, 1.50000000000000000000e+03) (1, 1.50000000000000000000e+03) (2, -3.73285137136471156794e+00) (3, -1.42633800436246633581e+03) (4, -9.41241738325787338226e+01) (5, -3.80490783307484264242e+02) (6, -3.66542789688736945664e+02) (7, -1.36150711569112354482e+03) (0, -3.54854640741068010357e+02) (1, -1.18345432053786581150e+02) (2, 1.50000000000000000000e+03) (3, 1.46269545723695182460e+03) (4, -5.87993966388525564071e+02) (5, -1.35263724938203063175e+03) (6, -4.74992130583459939430e+01) (7, 2.52956167269325682412e+01) (0, -5.40110461763870404184e+01) (1, -2.34858751704628598844e+00) (2, 4.76549743826315364004e+01) (3, 5.76921690093967498569e+01) (4, -4.66618824923544792682e+01) (5, 1.61658526410150500396e+01) (6, 3.13127250052897636579e+01) (7, -4.91017649573051642165e+01) (0, 4.39885461816314418115e+01) (1, 6.86606799112970634269e+02) (2, 3.37935862832903467279e+02) (3, -2.77266543322781672032e+02) (4, -1.50000000000000000000e+03) (5, 1.85342605104433943097e+02) (6, -2.61747571790953713844e+02) (7, 2.32920189974926152843e+01) (0, 2.01326537031878203265e+01) (1, 7.55733225012019573796e+01) (2, -8.81570127475717271182e+01) (3, 4.22413036999712332431e+01) (4, 5.75511655465678657606e+01) (5, -1.82874666851005116541e+01) (6, -6.48363187545814838586e+01) (7, -4.55704944474473272464e+00) (0, -1.50000000000000000000e+03) (1, -1.50000000000000000000e+03) (2, -1.50000000000000000000e+03) (3, 1.50000000000000000000e+03) (4, 1.72758913563086309750e+02) (5, -1.40991338131354427787e+03) (6, -1.50000000000000000000e+03) (7, 3.67824026713247519638e+02) (8, -1.68058106586198707788e+00) (9, -1.93967439923160878124e+00) (10, -7.09287162611081378749e-01) (11, 8.38029565892999123156e-02) (12, 2.43825097266635726356e+00) (13, -1.82197276144759756633e+00) (14, 1.25862619562567168430e+00) (15, 2.42378911752889614206e+00) (16, 4.88781716351128436848e-01) 
