FANN_FLO_2.1
num_layers=3
learning_rate=0.700000
connection_rate=1.000000
network_type=0
learning_momentum=0.000000
training_algorithm=2
train_error_function=1
train_stop_function=0
cascade_output_change_fraction=0.010000
quickprop_decay=-0.000100
quickprop_mu=1.750000
rprop_increase_factor=1.200000
rprop_decrease_factor=0.500000
rprop_delta_min=0.000000
rprop_delta_max=50.000000
rprop_delta_zero=0.100000
cascade_output_stagnation_epochs=12
cascade_candidate_change_fraction=0.010000
cascade_candidate_stagnation_epochs=12
cascade_max_out_epochs=150
cascade_max_cand_epochs=150
cascade_num_candidate_groups=2
bit_fail_limit=3.49999999999999977796e-01
cascade_candidate_limit=1.00000000000000000000e+03
cascade_weight_multiplier=4.00000000000000022204e-01
cascade_activation_functions_count=10
cascade_activation_functions=3 5 7 8 10 11 14 15 16 17 
cascade_activation_steepnesses_count=4
cascade_activation_steepnesses=2.50000000000000000000e-01 5.00000000000000000000e-01 7.50000000000000000000e-01 1.00000000000000000000e+00 
layer_sizes=8 11 2 
scale_included=0
neurons (num_inputs, activation_function, activation_steepness)=(0, 0, 0.00000000000000000000e+00) (0, 0, 0.00000000000000000000e+00) (0, 0, 0.00000000000000000000e+00) (0, 0, 0.00000000000000000000e+00) (0, 0, 0.00000000000000000000e+00) (0, 0, 0.00000000000000000000e+00) (0, 0, 0.00000000000000000000e+00) (0, 0, 0.00000000000000000000e+00) (8, 4, 5.00000000000000000000e-01) (8, 4, 5.00000000000000000000e-01) (8, 4, 5.00000000000000000000e-01) (8, 4, 5.00000000000000000000e-01) (8, 4, 5.00000000000000000000e-01) (8, 4, 5.00000000000000000000e-01) (8, 4, 5.00000000000000000000e-01) (8, 4, 5.00000000000000000000e-01) (8, 4, 5.00000000000000000000e-01) (8, 4, 5.00000000000000000000e-01) (0, 0, 0.00000000000000000000e+00) (11, 6, 5.00000000000000000000e-01) (0, 6, 0.00000000000000000000e+00) 
connections (connected_to_neuron, weight)=(0, 4.18982229061827879946e+01) (1, -3.06002955405927359323e+01) (2, 3.98073066979577649960e+00) (3, -2.34420007179591323165e+01) (4, -2.39149068636943127331e+01) (5, -5.04168839939301207664e+01) (6, -1.27495775963772395301e+01) (7, 7.68620486783303924483e+00) (0, 2.37026950528031846943e+02) (1, -2.84671693378721613499e+02) (2, 1.18594960033319566151e+02) (3, -2.85142961108383531155e+02) (4, 6.16780514628540927902e+01) (5, -4.68277933359395959201e+01) (6, -1.25435291427667422681e+02) (7, 1.26382990449725070903e+02) (0, -2.03730189217486469033e+02) (1, 3.33980466768418125412e+02) (2, -1.09847912836851790530e+02) (3, 7.37148763868658818410e+01) (4, -1.24018387953664202428e+02) (5, -3.81548579409198254098e+01) (6, 9.32845902468157817111e+01) (7, -1.12085078993323072893e+01) (0, -2.31650838419661795342e+01) (1, 6.84108632948978225841e+01) (2, 1.31881943472574357656e+03) (3, -7.34159685228885678043e+02) (4, 4.16656966479120228541e+02) (5, 1.50000000000000000000e+03) (6, -1.38875419125653735364e+02) (7, -2.88718389536027302711e+02) (0, -7.60499666862996548389e+01) (1, 1.52558244478952449441e+01) (2, -5.65745933873981670104e+01) (3, -5.41762493800871069993e+01) (4, 1.19884852522588047918e+01) (5, 3.78478494863959440409e+01) (6, 4.80992745583709364610e+01) (7, 9.17112567274357992630e+00) (0, 4.24510615224033305282e+00) (1, -7.90900752443786103640e+01) (2, 3.90136721963608863462e+01) (3, -9.63221645915881907740e+01) (4, 8.72846504904476461206e+01) (5, 2.80747638614897354614e+01) (6, 2.69733558752327304830e+01) (7, 4.33586438292467413191e+00) (0, -4.76415521483942825398e+01) (1, 1.01928744376474824662e+02) (2, -1.08371819946687665492e+02) (3, 1.33532371151497130768e+02) (4, -2.02596512025651307454e+01) (5, -2.42029226196863191944e+01) (6, -7.43719795843508357791e+00) (7, -3.38789342089798566349e+01) (0, -1.50000000000000000000e+03) (1, -1.50000000000000000000e+03) (2, -1.50000000000000000000e+03) (3, 5.64674837952426628362e+02) (4, 1.29231457712450855979e+03) (5, -1.50000000000000000000e+03) (6, -1.50000000000000000000e+03) (7, 1.45519470971734858722e+03) (0, 1.35652269990612398942e+03) (1, 1.06003021990679962983e+03) (2, -1.36356497548270158404e+03) (3, -1.50000000000000000000e+03) (4, -1.40784909257464187249e+03) (5, 1.50000000000000000000e+03) (6, 2.98474088002686642085e+02) (7, -1.31049743045781701767e+03) (0, 6.43321972853741073095e+01) (1, -1.00472206148819202554e+03) (2, 2.00622639435420808240e+02) (3, -1.50000000000000000000e+03) (4, 1.47287210417841947674e+03) (5, 1.50000000000000000000e+03) (6, 1.23140780284499237496e+03) (7, -1.19631492297896920718e+03) (8, 1.99229323145198899958e+00) (9, 2.44819884675491561410e+00) (10, -2.23113845142958355794e+00) (11, 2.27106897211868297148e+00) (12, -1.64720847054012198285e+00) (13, -2.07646240817598970452e+00) (14, 9.05847160232917780753e-01) (15, -2.61657708672930633398e+00) (16, 6.70647245732130525830e-01) (17, 1.65613183169890998414e+00) (18, 1.07762172891075029557e-02) 
