FANN_FLO_2.1
num_layers=3
learning_rate=0.700000
connection_rate=1.000000
network_type=0
learning_momentum=0.000000
training_algorithm=2
train_error_function=1
train_stop_function=0
cascade_output_change_fraction=0.010000
quickprop_decay=-0.000100
quickprop_mu=1.750000
rprop_increase_factor=1.200000
rprop_decrease_factor=0.500000
rprop_delta_min=0.000000
rprop_delta_max=50.000000
rprop_delta_zero=0.100000
cascade_output_stagnation_epochs=12
cascade_candidate_change_fraction=0.010000
cascade_candidate_stagnation_epochs=12
cascade_max_out_epochs=150
cascade_max_cand_epochs=150
cascade_num_candidate_groups=2
bit_fail_limit=3.49999999999999977796e-01
cascade_candidate_limit=1.00000000000000000000e+03
cascade_weight_multiplier=4.00000000000000022204e-01
cascade_activation_functions_count=10
cascade_activation_functions=3 5 7 8 10 11 14 15 16 17 
cascade_activation_steepnesses_count=4
cascade_activation_steepnesses=2.50000000000000000000e-01 5.00000000000000000000e-01 7.50000000000000000000e-01 1.00000000000000000000e+00 
layer_sizes=8 15 2 
scale_included=0
neurons (num_inputs, activation_function, activation_steepness)=(0, 0, 0.00000000000000000000e+00) (0, 0, 0.00000000000000000000e+00) (0, 0, 0.00000000000000000000e+00) (0, 0, 0.00000000000000000000e+00) (0, 0, 0.00000000000000000000e+00) (0, 0, 0.00000000000000000000e+00) (0, 0, 0.00000000000000000000e+00) (0, 0, 0.00000000000000000000e+00) (8, 4, 5.00000000000000000000e-01) (8, 4, 5.00000000000000000000e-01) (8, 4, 5.00000000000000000000e-01) (8, 4, 5.00000000000000000000e-01) (8, 4, 5.00000000000000000000e-01) (8, 4, 5.00000000000000000000e-01) (8, 4, 5.00000000000000000000e-01) (8, 4, 5.00000000000000000000e-01) (8, 4, 5.00000000000000000000e-01) (8, 4, 5.00000000000000000000e-01) (8, 4, 5.00000000000000000000e-01) (8, 4, 5.00000000000000000000e-01) (8, 4, 5.00000000000000000000e-01) (8, 4, 5.00000000000000000000e-01) (0, 0, 0.00000000000000000000e+00) (15, 6, 5.00000000000000000000e-01) (0, 6, 0.00000000000000000000e+00) 
connections (connected_to_neuron, weight)=(0, -2.08362409747042427455e+01) (1, -3.42952066558056642975e+01) (2, -1.32053168648682017761e+01) (3, 1.60441970303532599473e+01) (4, 5.79825594026795343439e+00) (5, -1.64535416889487073888e+01) (6, 4.33755968699738936323e+00) (7, 1.98518680354620036255e+00) (0, 1.11417980756274337395e+00) (1, 6.56258237638772978784e+00) (2, -3.77382900801939769053e+00) (3, -6.56882117537611431857e+00) (4, 4.80861559201336330460e+00) (5, -8.16900424269933367327e-01) (6, -4.17065447445086612266e-01) (7, -2.20013668748768065342e+00) (0, 1.16243184717800538408e+01) (1, -4.14862861512416074561e+01) (2, -1.58542331568464227587e+01) (3, 3.79304184563504023231e+01) (4, 5.28488029480495313805e+01) (5, 7.94651316712056754454e+00) (6, 4.19205545470261053964e+00) (7, -1.42064058819583962645e+01) (0, 1.62444627834629443441e+02) (1, -1.59126369248757328023e+02) (2, 3.90312765057322010875e+01) (3, -5.36436151010101411885e+01) (4, -3.34697273952707348599e+02) (5, 2.55382121798112137867e+02) (6, 5.43888238921422697558e+01) (7, 7.94145985685610469318e+01) (0, -1.62556269828138013622e+01) (1, -8.80638168081933159215e+00) (2, 8.94829692656086628233e+00) (3, 9.54437892075193872188e+00) (4, -1.52749841062589575280e+00) (5, -1.01591539966223431968e+00) (6, -2.02000320934175331411e-01) (7, -6.20289379587629152724e+00) (0, -9.93832795779142657011e+01) (1, 1.44732952747024455675e+02) (2, 6.15639033987137267445e+01) (3, -1.09768013824754277152e+02) (4, 9.10541156606195727363e+01) (5, 1.50000000000000000000e+03) (6, -7.05214845811954571531e+00) (7, 3.20701770515919406535e+02) (0, 4.74912787791318002917e+00) (1, -3.74031513904357418299e-02) (2, -2.84143276030199594118e+01) (3, 1.98226113089869926398e+01) (4, -9.18794746552675434259e+00) (5, 1.54188087520034695643e+01) (6, -2.50917956122893670567e+00) (7, 2.29548710881416395679e+00) (0, -1.35234116627880929240e-01) (1, -5.12622214300930156838e+00) (2, 2.22527823636581878475e+00) (3, 1.10138946189068717002e-02) (4, -2.74459589672258896798e+00) (5, 3.61705355550393026220e+00) (6, 5.38189909507258534838e-01) (7, 7.21758617156023518646e-01) (0, -2.46901911316265305629e+01) (1, -2.98772384311625280873e+01) (2, 5.01986591902188816761e+00) (3, -1.51951775799462645011e+01) (4, -5.16972712077467946301e+01) (5, 6.74481769901714933724e+00) (6, 2.01565093110925985798e+01) (7, 1.36926259576373610116e+01) (0, 3.81973617295931067162e+00) (1, 2.25139433333617455801e+00) (2, 3.60382066535198308799e+00) (3, -7.63494591388169485668e+00) (4, 9.46980336778517006735e-01) (5, -1.24585342502961027300e+00) (6, -7.90475975078975157118e+00) (7, 2.89687119302751650007e-01) (0, -6.52731626197608960638e+01) (1, -2.75107107599756197658e+01) (2, 7.13760379932357214017e+00) (3, -2.11779889738031315005e+01) (4, -8.44186346074281885876e+01) (5, 1.73424624247846537628e+02) (6, 4.01157767099582756032e+01) (7, -3.87685234118607127130e+01) (0, -1.50000000000000000000e+03) (1, -1.50000000000000000000e+03) (2, -1.50000000000000000000e+03) (3, -7.27742085505578188531e+02) (4, -1.49291615480306109021e+03) (5, -1.50000000000000000000e+03) (6, -4.44881875969420605088e+02) (7, -8.36455512789724764389e+01) (0, 5.78968862002291473345e-01) (1, 6.94274496084026004894e+00) (2, -1.40492330356327954632e+00) (3, 1.13947472906011718075e-01) (4, -1.89316628552162278254e+01) (5, 2.65989587428222229448e+00) (6, -3.89853090111785904881e+00) (7, 3.15659846484684436518e+00) (0, -5.75594001981356996112e+02) (1, 7.15511094679824988241e-01) (2, -1.03637359370962585103e+02) (3, 6.12856132566364166792e+01) (4, -7.30556373096155908797e+01) (5, -3.09212353350534669971e+02) (6, -1.50000000000000000000e+03) (7, 4.23221624777646638904e+01) (8, 5.26270930587377527843e+00) (9, -8.30032071631584678073e+00) (10, -3.94816952489172123819e+00) (11, 3.33475956208274126880e+00) (12, 3.18531124827915483877e+01) (13, 1.30337952509148125024e+00) (14, 4.10578461572172059846e+00) (15, -1.16740747961101920538e+01) (16, 6.17008497392421162431e+00) (17, 1.03183031196504302329e+01) (18, 2.55539621376134196140e+00) (19, -7.43205611992484271866e+00) (20, -6.58134103712968876465e+00) (21, -7.99630128706215348444e+00) (22, 2.51918561182897571271e+00) 
