FANN_FLO_2.1
num_layers=3
learning_rate=0.700000
connection_rate=1.000000
network_type=0
learning_momentum=0.000000
training_algorithm=2
train_error_function=1
train_stop_function=0
cascade_output_change_fraction=0.010000
quickprop_decay=-0.000100
quickprop_mu=1.750000
rprop_increase_factor=1.200000
rprop_decrease_factor=0.500000
rprop_delta_min=0.000000
rprop_delta_max=50.000000
rprop_delta_zero=0.100000
cascade_output_stagnation_epochs=12
cascade_candidate_change_fraction=0.010000
cascade_candidate_stagnation_epochs=12
cascade_max_out_epochs=150
cascade_max_cand_epochs=150
cascade_num_candidate_groups=2
bit_fail_limit=3.49999999999999977796e-01
cascade_candidate_limit=1.00000000000000000000e+03
cascade_weight_multiplier=4.00000000000000022204e-01
cascade_activation_functions_count=10
cascade_activation_functions=3 5 7 8 10 11 14 15 16 17 
cascade_activation_steepnesses_count=4
cascade_activation_steepnesses=2.50000000000000000000e-01 5.00000000000000000000e-01 7.50000000000000000000e-01 1.00000000000000000000e+00 
layer_sizes=8 10 2 
scale_included=0
neurons (num_inputs, activation_function, activation_steepness)=(0, 0, 0.00000000000000000000e+00) (0, 0, 0.00000000000000000000e+00) (0, 0, 0.00000000000000000000e+00) (0, 0, 0.00000000000000000000e+00) (0, 0, 0.00000000000000000000e+00) (0, 0, 0.00000000000000000000e+00) (0, 0, 0.00000000000000000000e+00) (0, 0, 0.00000000000000000000e+00) (8, 4, 5.00000000000000000000e-01) (8, 4, 5.00000000000000000000e-01) (8, 4, 5.00000000000000000000e-01) (8, 4, 5.00000000000000000000e-01) (8, 4, 5.00000000000000000000e-01) (8, 4, 5.00000000000000000000e-01) (8, 4, 5.00000000000000000000e-01) (8, 4, 5.00000000000000000000e-01) (8, 4, 5.00000000000000000000e-01) (0, 0, 0.00000000000000000000e+00) (10, 6, 5.00000000000000000000e-01) (0, 6, 0.00000000000000000000e+00) 
connections (connected_to_neuron, weight)=(0, 8.94344041569471954745e+01) (1, 4.23437122870707867150e+01) (2, 2.46200013035131689776e+02) (3, -6.42771698159297244501e+01) (4, -1.41046461713820548312e+02) (5, 6.57565216975610837835e+01) (6, -1.80097704683919118906e+02) (7, -1.67789994469061753968e+00) (0, -1.50000000000000000000e+03) (1, -1.50000000000000000000e+03) (2, 3.89436806577718243716e+02) (3, 1.10490138338944643692e+03) (4, 1.29524576633387914626e+03) (5, -1.12193110949784727381e+03) (6, -1.50000000000000000000e+03) (7, -1.39737677976947907155e+02) (0, -1.50000000000000000000e+03) (1, -6.62707608478355950865e+02) (2, 1.49893881857280439363e+03) (3, 1.06272164893234230476e+03) (4, 1.47770138642674078255e+03) (5, -7.61977949085913675020e+00) (6, -1.50000000000000000000e+03) (7, -2.59872937313096429079e+02) (0, -1.50000000000000000000e+03) (1, 1.17343981772157462729e+03) (2, -1.50000000000000000000e+03) (3, 1.17118906841995931245e+03) (4, -1.50000000000000000000e+03) (5, -1.50000000000000000000e+03) (6, -1.50000000000000000000e+03) (7, 2.23093655705880649975e+02) (0, 1.09103362931996412044e+03) (1, -5.40167313315260457784e+02) (2, -1.33376209521436294381e+03) (3, -1.38066989036034124183e+03) (4, -4.74408982644810691909e+02) (5, 3.24758365114787807215e+02) (6, 1.50000000000000000000e+03) (7, -3.75800831876993470360e+02) (0, -2.29102646909516280971e+01) (1, -2.21128027185169218072e+00) (2, -2.44082816043153457031e+02) (3, 1.65527303417223208726e+02) (4, 2.70383837263152031483e+02) (5, -1.19019147118285943066e+02) (6, 6.70193081998905615393e+00) (7, -4.58827443188475001534e+01) (0, 2.63048269228532269892e+01) (1, 3.78149833496916230047e+01) (2, 6.40669427697368263352e+01) (3, -5.20232918055071991148e+01) (4, -6.07204620737577442924e+01) (5, -5.09996745270244673520e+01) (6, -8.98973785021902358494e+01) (7, 5.10727861256401372003e+00) (0, 5.16128996428677169206e+01) (1, 7.85245204613817918471e+02) (2, -1.03160266550210735659e+03) (3, -1.76733572023845255217e+02) (4, -3.09265041791600253873e+02) (5, 7.72549886633180538098e+00) (6, 9.91589462779799113434e+00) (7, 1.62137112130395770748e+01) (0, 2.55500351414316497767e+01) (1, -8.31869557790411562337e+01) (2, -3.11233835278275083880e+00) (3, 1.33986561338393830312e+01) (4, -9.99763243271955914793e+00) (5, -1.94262852980345535059e+00) (6, -3.00201880099390656653e+01) (7, 1.65988533226362093842e+01) (8, 1.49488520072037278652e+00) (9, -2.00607447530750127029e+00) (10, -4.58579242098290429386e-01) (11, -8.46585772663213220746e-01) (12, 5.54546385598753133195e-01) (13, 1.66457483294161101561e+00) (14, 6.84827583141950357870e-01) (15, -1.07345850732271874683e+00) (16, 2.16494244719441342184e+00) (17, -1.44490182782791465321e+00) 
