FANN_FLO_2.1
num_layers=3
learning_rate=0.700000
connection_rate=1.000000
network_type=0
learning_momentum=0.000000
training_algorithm=2
train_error_function=1
train_stop_function=0
cascade_output_change_fraction=0.010000
quickprop_decay=-0.000100
quickprop_mu=1.750000
rprop_increase_factor=1.200000
rprop_decrease_factor=0.500000
rprop_delta_min=0.000000
rprop_delta_max=50.000000
rprop_delta_zero=0.100000
cascade_output_stagnation_epochs=12
cascade_candidate_change_fraction=0.010000
cascade_candidate_stagnation_epochs=12
cascade_max_out_epochs=150
cascade_max_cand_epochs=150
cascade_num_candidate_groups=2
bit_fail_limit=3.49999999999999977796e-01
cascade_candidate_limit=1.00000000000000000000e+03
cascade_weight_multiplier=4.00000000000000022204e-01
cascade_activation_functions_count=10
cascade_activation_functions=3 5 7 8 10 11 14 15 16 17 
cascade_activation_steepnesses_count=4
cascade_activation_steepnesses=2.50000000000000000000e-01 5.00000000000000000000e-01 7.50000000000000000000e-01 1.00000000000000000000e+00 
layer_sizes=8 11 2 
scale_included=0
neurons (num_inputs, activation_function, activation_steepness)=(0, 0, 0.00000000000000000000e+00) (0, 0, 0.00000000000000000000e+00) (0, 0, 0.00000000000000000000e+00) (0, 0, 0.00000000000000000000e+00) (0, 0, 0.00000000000000000000e+00) (0, 0, 0.00000000000000000000e+00) (0, 0, 0.00000000000000000000e+00) (0, 0, 0.00000000000000000000e+00) (8, 4, 5.00000000000000000000e-01) (8, 4, 5.00000000000000000000e-01) (8, 4, 5.00000000000000000000e-01) (8, 4, 5.00000000000000000000e-01) (8, 4, 5.00000000000000000000e-01) (8, 4, 5.00000000000000000000e-01) (8, 4, 5.00000000000000000000e-01) (8, 4, 5.00000000000000000000e-01) (8, 4, 5.00000000000000000000e-01) (8, 4, 5.00000000000000000000e-01) (0, 0, 0.00000000000000000000e+00) (11, 6, 5.00000000000000000000e-01) (0, 6, 0.00000000000000000000e+00) 
connections (connected_to_neuron, weight)=(0, -1.46500466322029922139e+02) (1, 3.31401002006907958730e+02) (2, 6.76509914396004035098e+01) (3, 1.29616611566050806914e+02) (4, -1.12020657239618415701e+02) (5, -6.78265543442541343211e+01) (6, 6.96370666997900258366e+01) (7, -6.29051005484017053959e+01) (0, 4.88980249105039320057e+02) (1, -7.88142007247599849507e+02) (2, -3.43420228672244945756e+02) (3, 8.38704436935165063005e+02) (4, 6.68365223903939238426e+01) (5, 3.20906451370567182835e+01) (6, 5.49939455147100915156e+01) (7, 5.23982058535073207395e+01) (0, 3.09302061738248301737e+00) (1, 4.95022805108829633269e+00) (2, -9.59985314413551371615e+00) (3, 7.49953096650015904601e+00) (4, 7.93419737471527164452e-01) (5, -2.51702527672104814371e+00) (6, -5.79011598530480675606e+00) (7, -1.44451027013481847483e+00) (0, -4.36604392720176122111e+01) (1, -1.77913347095896341443e+02) (2, 3.27998697157929598234e+02) (3, -1.57621508317849219338e+02) (4, 1.38047276238078580946e+02) (5, 1.64273712706706874087e+02) (6, 2.44618335818348136002e+01) (7, 1.20842612356719580902e+01) (0, -1.62363210167838872167e+02) (1, 1.02395747876864547266e+02) (2, -3.63321825580008672674e+00) (3, 9.44124786201608117153e+01) (4, -2.12957255590982441618e+01) (5, 4.82215536920836029822e+01) (6, 1.07163213326555791127e+02) (7, -1.23748243200214417925e+02) (0, 3.73913783509803806737e+02) (1, 1.27081126056512843547e+02) (2, 4.56258677809450574614e+01) (3, -1.19281251150879981537e+02) (4, -6.42452095488290183312e+02) (5, -1.50000000000000000000e+03) (6, 2.25265780870639702016e+02) (7, 2.10614214942660794350e+02) (0, -8.10709997645985026793e+02) (1, -1.50000000000000000000e+03) (2, -1.49459999935626979095e+03) (3, 1.50000000000000000000e+03) (4, -1.48338009379339951010e+03) (5, -1.07220810808338455900e+02) (6, 5.30215990839947721724e+02) (7, 2.62103331788766581667e+02) (0, 7.08502836851719848710e+02) (1, -5.83621280317371997626e+02) (2, -1.10647777931615382840e+03) (3, 1.50000000000000000000e+03) (4, 9.27564384554074905509e+00) (5, -1.12254506364526264406e+02) (6, -4.11788369254518329399e+02) (7, -3.54683795062906881412e+02) (0, 1.33432585803498682253e+02) (1, -1.50000000000000000000e+03) (2, -2.64085603415214507095e+02) (3, 2.21553102569370764741e+02) (4, -1.54893108534410060884e+02) (5, 1.67194645666355143021e+02) (6, 3.41420032839039606642e+02) (7, 1.68227104022501464442e+02) (0, -1.17839457032735867870e+03) (1, -2.26366653550707184195e+02) (2, -4.92571090130606421553e+02) (3, -9.14787394739657429454e+02) (4, -2.14500652807585282744e+02) (5, -4.78795894582647122206e+02) (6, -1.92636919660263288279e+02) (7, 7.58471478794286213088e+02) (8, -1.48329648287421123065e+00) (9, -1.11578074174724530820e+01) (10, 2.75524173054510956860e+00) (11, 2.02859605145661170411e+00) (12, 1.57797501612518575875e+00) (13, 8.51041188139126880685e-01) (14, -1.37737996944961889056e+01) (15, -8.21300373159429852876e+00) (16, -4.18343371901839056193e+00) (17, 1.28887482405918305517e+01) (18, 9.83710149900142027946e+00) 
