FANN_FLO_2.1
num_layers=3
learning_rate=0.700000
connection_rate=1.000000
network_type=0
learning_momentum=0.000000
training_algorithm=2
train_error_function=1
train_stop_function=0
cascade_output_change_fraction=0.010000
quickprop_decay=-0.000100
quickprop_mu=1.750000
rprop_increase_factor=1.200000
rprop_decrease_factor=0.500000
rprop_delta_min=0.000000
rprop_delta_max=50.000000
rprop_delta_zero=0.100000
cascade_output_stagnation_epochs=12
cascade_candidate_change_fraction=0.010000
cascade_candidate_stagnation_epochs=12
cascade_max_out_epochs=150
cascade_max_cand_epochs=150
cascade_num_candidate_groups=2
bit_fail_limit=3.49999999999999977796e-01
cascade_candidate_limit=1.00000000000000000000e+03
cascade_weight_multiplier=4.00000000000000022204e-01
cascade_activation_functions_count=10
cascade_activation_functions=3 5 7 8 10 11 14 15 16 17 
cascade_activation_steepnesses_count=4
cascade_activation_steepnesses=2.50000000000000000000e-01 5.00000000000000000000e-01 7.50000000000000000000e-01 1.00000000000000000000e+00 
layer_sizes=8 8 2 
scale_included=0
neurons (num_inputs, activation_function, activation_steepness)=(0, 0, 0.00000000000000000000e+00) (0, 0, 0.00000000000000000000e+00) (0, 0, 0.00000000000000000000e+00) (0, 0, 0.00000000000000000000e+00) (0, 0, 0.00000000000000000000e+00) (0, 0, 0.00000000000000000000e+00) (0, 0, 0.00000000000000000000e+00) (0, 0, 0.00000000000000000000e+00) (8, 4, 5.00000000000000000000e-01) (8, 4, 5.00000000000000000000e-01) (8, 4, 5.00000000000000000000e-01) (8, 4, 5.00000000000000000000e-01) (8, 4, 5.00000000000000000000e-01) (8, 4, 5.00000000000000000000e-01) (8, 4, 5.00000000000000000000e-01) (0, 0, 0.00000000000000000000e+00) (8, 6, 5.00000000000000000000e-01) (0, 6, 0.00000000000000000000e+00) 
connections (connected_to_neuron, weight)=(0, -1.50000000000000000000e+03) (1, -1.50000000000000000000e+03) (2, -1.02991346148919524239e+03) (3, 1.50000000000000000000e+03) (4, -1.40705063066747698031e+03) (5, -1.50000000000000000000e+03) (6, 3.26083050929544299379e+02) (7, 3.22448620081248236602e+02) (0, 5.62074193490902374037e+01) (1, -7.64406177147498908653e+01) (2, 1.15039788185645392105e+02) (3, -6.99852035622074453158e+01) (4, -2.84929036232529995232e+01) (5, 1.32599639952680110611e+01) (6, -4.74875453907357858441e+00) (7, 1.17453802946490792891e+01) (0, 4.93262524958843613376e+01) (1, 3.10791553091329930680e+01) (2, -1.31662505948356738372e+02) (3, -7.71738388891674276238e+01) (4, 8.38883838360513038879e+01) (5, -2.56945282666574037478e+01) (6, -1.75590325476622872714e+01) (7, 8.70916032566931335168e+01) (0, 2.15189362445422638359e+00) (1, 7.05141342793487098106e+01) (2, -6.20860518312453493195e+01) (3, 1.67800359208764078289e+01) (4, 3.83995702138079693100e+01) (5, -1.42813332069394807178e+01) (6, -5.33452378834135458874e+01) (7, 7.57336690884449481587e+00) (0, 1.37586628052554101487e+03) (1, -3.45252829918502982309e+02) (2, -1.94991991137037899762e+02) (3, -1.50000000000000000000e+03) (4, -4.60616354455878820318e+02) (5, 1.50000000000000000000e+03) (6, -5.80199028511742426417e+02) (7, -5.23957950066120361043e+02) (0, 7.20771841996980924705e+02) (1, 1.49365266697451488653e+03) (2, 5.06842864085559028808e+02) (3, -1.49316009916884308950e+03) (4, -1.04647773410384252202e+03) (5, -2.14770492354881753272e+02) (6, 1.70868159683718999986e+02) (7, -1.16658375005415155101e+03) (0, 2.81349914268692558039e+01) (1, -2.04248726576364916241e+01) (2, 3.24495268963862670830e+01) (3, -4.53201624583556323955e+01) (4, -1.54850497603331973551e+01) (5, 8.90885028962860303636e+00) (6, 1.69106332685902991386e+01) (7, -1.59962826355104628107e+01) (8, 1.47915602419848180027e+00) (9, 1.00133628079534675592e+00) (10, -2.55066236894866049667e+00) (11, 1.65500186031422447108e+00) (12, -1.16270631381787792336e+00) (13, -1.63177951123497178010e+00) (14, 2.29582205296371677505e+00) (15, 1.14607964145968937997e-01) 
