FANN_FLO_2.1
num_layers=3
learning_rate=0.700000
connection_rate=1.000000
network_type=0
learning_momentum=0.000000
training_algorithm=2
train_error_function=1
train_stop_function=0
cascade_output_change_fraction=0.010000
quickprop_decay=-0.000100
quickprop_mu=1.750000
rprop_increase_factor=1.200000
rprop_decrease_factor=0.500000
rprop_delta_min=0.000000
rprop_delta_max=50.000000
rprop_delta_zero=0.100000
cascade_output_stagnation_epochs=12
cascade_candidate_change_fraction=0.010000
cascade_candidate_stagnation_epochs=12
cascade_max_out_epochs=150
cascade_max_cand_epochs=150
cascade_num_candidate_groups=2
bit_fail_limit=3.49999999999999977796e-01
cascade_candidate_limit=1.00000000000000000000e+03
cascade_weight_multiplier=4.00000000000000022204e-01
cascade_activation_functions_count=10
cascade_activation_functions=3 5 7 8 10 11 14 15 16 17 
cascade_activation_steepnesses_count=4
cascade_activation_steepnesses=2.50000000000000000000e-01 5.00000000000000000000e-01 7.50000000000000000000e-01 1.00000000000000000000e+00 
layer_sizes=8 6 2 
scale_included=0
neurons (num_inputs, activation_function, activation_steepness)=(0, 0, 0.00000000000000000000e+00) (0, 0, 0.00000000000000000000e+00) (0, 0, 0.00000000000000000000e+00) (0, 0, 0.00000000000000000000e+00) (0, 0, 0.00000000000000000000e+00) (0, 0, 0.00000000000000000000e+00) (0, 0, 0.00000000000000000000e+00) (0, 0, 0.00000000000000000000e+00) (8, 4, 5.00000000000000000000e-01) (8, 4, 5.00000000000000000000e-01) (8, 4, 5.00000000000000000000e-01) (8, 4, 5.00000000000000000000e-01) (8, 4, 5.00000000000000000000e-01) (0, 0, 0.00000000000000000000e+00) (6, 6, 5.00000000000000000000e-01) (0, 6, 0.00000000000000000000e+00) 
connections (connected_to_neuron, weight)=(0, 5.03624269792799089673e-02) (1, -8.05716620657095372593e-02) (2, -3.17011100307272308818e-02) (3, 8.33524671696493912876e-02) (4, -4.06602617824116524536e-02) (5, -3.85943021788344026168e-02) (6, 2.39990196041616685174e-02) (7, 2.80812751029621762711e-02) (0, 7.84574644223967609946e-02) (1, -4.76588687510619765653e-02) (2, 3.06211857031462378331e-02) (3, -5.18584151097895851290e-02) (4, 7.41387585049682468208e-02) (5, 8.75723766173776285715e-03) (6, 4.32852029731154788750e-02) (7, 8.86873256592053821334e-02) (0, 9.23637563156151086829e-02) (1, -4.54966045245022154830e-02) (2, -9.80622126432092733328e-02) (3, -7.02233297969896974600e-02) (4, -5.16137412058374350776e-02) (5, 1.09717255230505073005e-02) (6, 3.00038409233665537279e-02) (7, -9.73225607137763459864e-02) (0, -7.25577041142836665077e-02) (1, -6.44135062867925434205e-02) (2, -2.83888075074375731410e-02) (3, 4.44338274290237839059e-02) (4, 3.11707399773707913293e-02) (5, -5.37758269909892408500e-02) (6, -1.11622641595045327123e-02) (7, -1.84668345334654190881e-02) (0, -3.43474874734504068141e-02) (1, 5.71366272998843557906e-02) (2, -3.51143688539321471853e-02) (3, 2.49922522342540601170e-02) (4, -8.14576763690661731498e-02) (5, 8.88846523334778926273e-02) (6, -4.69264741528998829967e-02) (7, 9.69997896365789868955e-02) (8, -5.87742179077001963838e-02) (9, 8.36947131334947330705e-02) (10, -5.48586269633267245571e-02) (11, -8.46354608928480689478e-02) (12, -7.54805069488362345709e-03) (13, 8.84265774999048737026e-02) 
