FANN_FLO_2.1
num_layers=4
learning_rate=0.700000
connection_rate=1.000000
network_type=0
learning_momentum=0.000000
training_algorithm=2
train_error_function=1
train_stop_function=0
cascade_output_change_fraction=0.010000
quickprop_decay=-0.000100
quickprop_mu=1.750000
rprop_increase_factor=1.200000
rprop_decrease_factor=0.500000
rprop_delta_min=0.000000
rprop_delta_max=50.000000
rprop_delta_zero=0.100000
cascade_output_stagnation_epochs=12
cascade_candidate_change_fraction=0.010000
cascade_candidate_stagnation_epochs=12
cascade_max_out_epochs=150
cascade_max_cand_epochs=150
cascade_num_candidate_groups=2
bit_fail_limit=3.49999999999999977796e-01
cascade_candidate_limit=1.00000000000000000000e+03
cascade_weight_multiplier=4.00000000000000022204e-01
cascade_activation_functions_count=10
cascade_activation_functions=3 5 7 8 10 11 14 15 16 17 
cascade_activation_steepnesses_count=4
cascade_activation_steepnesses=2.50000000000000000000e-01 5.00000000000000000000e-01 7.50000000000000000000e-01 1.00000000000000000000e+00 
layer_sizes=8 9 9 2 
scale_included=0
neurons (num_inputs, activation_function, activation_steepness)=(0, 0, 0.00000000000000000000e+00) (0, 0, 0.00000000000000000000e+00) (0, 0, 0.00000000000000000000e+00) (0, 0, 0.00000000000000000000e+00) (0, 0, 0.00000000000000000000e+00) (0, 0, 0.00000000000000000000e+00) (0, 0, 0.00000000000000000000e+00) (0, 0, 0.00000000000000000000e+00) (8, 4, 5.00000000000000000000e-01) (8, 4, 5.00000000000000000000e-01) (8, 4, 5.00000000000000000000e-01) (8, 4, 5.00000000000000000000e-01) (8, 4, 5.00000000000000000000e-01) (8, 4, 5.00000000000000000000e-01) (8, 4, 5.00000000000000000000e-01) (8, 4, 5.00000000000000000000e-01) (0, 0, 0.00000000000000000000e+00) (9, 4, 5.00000000000000000000e-01) (9, 4, 5.00000000000000000000e-01) (9, 4, 5.00000000000000000000e-01) (9, 4, 5.00000000000000000000e-01) (9, 4, 5.00000000000000000000e-01) (9, 4, 5.00000000000000000000e-01) (9, 4, 5.00000000000000000000e-01) (9, 4, 5.00000000000000000000e-01) (0, 0, 0.00000000000000000000e+00) (9, 6, 5.00000000000000000000e-01) (0, 6, 0.00000000000000000000e+00) 
connections (connected_to_neuron, weight)=(0, 5.46201894897909255633e+02) (1, 1.49071726104281651715e+03) (2, 5.65046693916718894002e+01) (3, 2.92542149128602737562e+01) (4, 1.50000000000000000000e+03) (5, 1.50000000000000000000e+03) (6, 2.05964133076650483645e+02) (7, 4.09687240558259304635e+01) (0, 2.09568142062716145091e+00) (1, 4.82391384836920877888e+00) (2, 3.48282550835287167956e+01) (3, -1.02672266467556134728e+01) (4, 2.01618384172370781471e+01) (5, 1.01007916255150618667e+02) (6, -4.43635963639328512187e+00) (7, 2.95272671972472755542e+00) (0, 4.69244741026531357875e+01) (1, 3.74770656298209061674e+01) (2, 2.50100349081485013869e+01) (3, 8.03037930509117643396e+01) (4, 1.33877726138515924958e+02) (5, 6.80673353207929267228e+02) (6, 3.69765487156910168665e+01) (7, 5.40660169509452828152e+01) (0, 6.13336748276546686043e+01) (1, 1.27649326564099592218e+01) (2, 5.63821138448267333843e+00) (3, 1.25824607140183033493e+01) (4, 4.92391685535882118074e+02) (5, 1.50000000000000000000e+03) (6, 5.24298009867576837451e+01) (7, 1.77039690752660696660e+01) (0, 2.82058331449304944272e+01) (1, 2.13902064486747818250e+01) (2, 9.29895084986220510359e+00) (3, 1.09026115406350896819e+02) (4, 2.28290282772179182302e+02) (5, 6.98167058439786273993e+02) (6, 1.35482942554473382302e+01) (7, 1.96690194847365745545e+02) (0, 2.65927315910221011563e+01) (1, 2.79079615304601957870e-01) (2, 4.53368167205755412397e+01) (3, 1.50000000000000000000e+03) (4, 1.50000000000000000000e+03) (5, 1.04362056225151741273e+03) (6, 1.90985124892445656819e+00) (7, 8.77349029658059187398e+00) (0, 1.49539326484634216285e+03) (1, 1.49908030512700770487e+03) (2, 8.69711298226946638579e+00) (3, 2.73454864991565038679e+01) (4, 1.50000000000000000000e+03) (5, 1.50000000000000000000e+03) (6, 1.49835496555812164843e+03) (7, 1.41208784196736985450e+02) (0, 1.51767141770810702894e+01) (1, 1.54320752304638091346e+01) (2, 3.94249350995418410548e+01) (3, 1.36049249823565077122e+01) (4, 6.34727459365106369660e+02) (5, 1.50000000000000000000e+03) (6, 6.62520951321184412564e+01) (7, 8.48299778616971345002e+00) (8, -1.33571690218312323850e+03) (9, 3.97369127279910173911e+02) (10, -9.45331747900202344681e+02) (11, -3.59918890422611866597e+02) (12, -1.16225696969803742320e+01) (13, -2.96930673680111851809e+02) (14, -7.57500774646708130433e+00) (15, -1.19925436756255544424e+03) (16, -3.62226562209534730385e+00) (8, 6.75074546382258972699e+02) (9, -3.74364158973367833205e-01) (10, -5.52131625777034173552e+02) (11, -4.12201672250646833362e+00) (12, -1.67805058177874633074e+00) (13, -1.36840482133991827141e+02) (14, -6.16596665088465112348e-01) (15, -8.56155701508031974356e+00) (16, 4.86300563931277718410e+00) (8, -1.97279223690324982954e+01) (9, 6.47995249780868221023e+00) (10, 7.13019951303264861053e+02) (11, 1.09135150641148559458e+01) (12, 7.88374778400213127583e+00) (13, -5.57591823917814622291e+02) (14, 1.22449410100773228294e+01) (15, 2.15957378369966050968e+01) (16, 1.58650230662652536040e+01) (8, -5.73949424078030077112e+01) (9, 1.72187787381807702047e+01) (10, 2.14781702925601294396e+01) (11, 8.07935910673421453509e+00) (12, 5.59461686476803699009e+00) (13, -1.39303204461401628578e+03) (14, 8.86159825253364119568e-01) (15, 1.66041358595442254398e+01) (16, 1.36427177666221410846e+01) (8, -3.33345609759361849456e+01) (9, 4.87203857392549508631e+01) (10, -2.58824548413144768233e+01) (11, -2.29083180304157458806e+01) (12, -2.73804331896882580111e+01) (13, -1.05219302700576179177e+02) (14, -3.76858587477280551070e+01) (15, -1.44750562422227844195e+01) (16, -3.16003205691399529087e+01) (8, -6.56213952989786889702e+02) (9, 2.49837491510844301956e+02) (10, 5.10023463879182727965e+01) (11, -3.94688185861438228130e+02) (12, 7.70239914678340831244e+00) (13, 8.06456711734903024080e+02) (14, -5.15226413345555389611e+00) (15, 7.37411153642293459853e+00) (16, 8.03322554383363396369e+00) (8, 5.22469231928672570575e+02) (9, 1.47270682188933551515e+03) (10, 3.06052745271478897848e+02) (11, -9.43931822603773071023e+02) (12, 1.11338970551628637651e+01) (13, 1.10871326956528868379e+01) (14, 9.58069114562916013256e+00) (15, -1.31878943008874102816e+03) (16, 8.73576368529349878145e+00) (8, 2.46771738959455220197e+01) (9, 1.62349960148630101386e+00) (10, 2.70172218030037081249e+00) (11, 9.21962718229841549089e+00) (12, 1.22867131540605853957e+01) (13, -9.30728882441225735533e+00) (14, 8.27581509808840998232e+00) (15, 1.88231815858688733556e+01) (16, 7.91897003509387964471e+00) (17, 1.50000000000000000000e+03) (18, -2.16104786320276431866e+00) (19, -3.64312651335119408458e+00) (20, -1.43333221810488939951e+01) (21, 0.00000000000000000000e+00) (22, 8.51998482517525523861e+00) (23, -3.01602995785136096529e+00) (24, -3.81949942932965447184e+00) (25, -2.65421561677762030129e+00) 
