FANN_FLO_2.1
num_layers=3
learning_rate=0.700000
connection_rate=1.000000
network_type=0
learning_momentum=0.000000
training_algorithm=2
train_error_function=1
train_stop_function=0
cascade_output_change_fraction=0.010000
quickprop_decay=-0.000100
quickprop_mu=1.750000
rprop_increase_factor=1.200000
rprop_decrease_factor=0.500000
rprop_delta_min=0.000000
rprop_delta_max=50.000000
rprop_delta_zero=0.100000
cascade_output_stagnation_epochs=12
cascade_candidate_change_fraction=0.010000
cascade_candidate_stagnation_epochs=12
cascade_max_out_epochs=150
cascade_max_cand_epochs=150
cascade_num_candidate_groups=2
bit_fail_limit=3.49999999999999977796e-01
cascade_candidate_limit=1.00000000000000000000e+03
cascade_weight_multiplier=4.00000000000000022204e-01
cascade_activation_functions_count=10
cascade_activation_functions=3 5 7 8 10 11 14 15 16 17 
cascade_activation_steepnesses_count=4
cascade_activation_steepnesses=2.50000000000000000000e-01 5.00000000000000000000e-01 7.50000000000000000000e-01 1.00000000000000000000e+00 
layer_sizes=8 9 2 
scale_included=0
neurons (num_inputs, activation_function, activation_steepness)=(0, 0, 0.00000000000000000000e+00) (0, 0, 0.00000000000000000000e+00) (0, 0, 0.00000000000000000000e+00) (0, 0, 0.00000000000000000000e+00) (0, 0, 0.00000000000000000000e+00) (0, 0, 0.00000000000000000000e+00) (0, 0, 0.00000000000000000000e+00) (0, 0, 0.00000000000000000000e+00) (8, 4, 5.00000000000000000000e-01) (8, 4, 5.00000000000000000000e-01) (8, 4, 5.00000000000000000000e-01) (8, 4, 5.00000000000000000000e-01) (8, 4, 5.00000000000000000000e-01) (8, 4, 5.00000000000000000000e-01) (8, 4, 5.00000000000000000000e-01) (8, 4, 5.00000000000000000000e-01) (0, 0, 0.00000000000000000000e+00) (9, 6, 5.00000000000000000000e-01) (0, 6, 0.00000000000000000000e+00) 
connections (connected_to_neuron, weight)=(0, -9.99111067373007131209e+01) (1, 7.01137855571974544233e+00) (2, 9.24673342360538725870e+01) (3, -6.63795106269575683200e+01) (4, 4.50518987854273760263e+01) (5, -1.41193918776563904771e+01) (6, 4.09307741321696454406e+01) (7, -9.34736204777210133443e+00) (0, 1.66909391641347748525e+00) (1, -5.79776648315104523590e+01) (2, 4.21532782650750714737e+00) (3, 1.13327469200948698358e+01) (4, -1.58129272867235304290e+00) (5, -4.74969854768201482642e+00) (6, 2.15022411802099995271e+01) (7, 2.32924885188276817871e+01) (0, -1.94282647596496138576e+00) (1, 2.87581249093928406069e+01) (2, -5.56713304318616497568e+00) (3, 1.42017502507926385302e-01) (4, -7.15876293383743966814e+00) (5, 1.00488276926210140516e+01) (6, -1.14751926499435654705e+01) (7, -1.36386541452626168791e+01) (0, -8.44600860758723115396e+00) (1, -7.41384886377327756435e+00) (2, 3.00843862660672112241e+00) (3, 1.80605294656206472048e+00) (4, 4.81267100027503591519e+00) (5, 1.94235352765741953185e+00) (6, 3.38547873799817677920e+00) (7, -6.45130975851108234842e-01) (0, -2.31148725991968603921e+02) (1, -1.09729689414256426971e+03) (2, 1.04477769438144264313e+02) (3, -3.61820079948288423566e+02) (4, -2.18800423476512094112e+02) (5, 1.50000000000000000000e+03) (6, 3.74823346751460064752e+01) (7, 1.77978343949875977614e+02) (0, -5.37173821392785733053e+00) (1, 6.90082169709127590806e+00) (2, -7.56854538726113190705e+00) (3, 1.35048257061736940443e+01) (4, 2.36565032096422918073e+01) (5, -3.83585955952700174976e+01) (6, -1.22419938750861252430e+01) (7, -3.41194559140651776374e-01) (0, -1.50000000000000000000e+03) (1, 2.27385142698715441156e+02) (2, -1.13311166694357666529e+03) (3, -3.26067871840744089695e+02) (4, -8.74116262475880944294e+02) (5, 1.50000000000000000000e+03) (6, 6.30955343293671333527e+00) (7, -7.29036134510023572375e+01) (0, -1.26868636727632247130e+03) (1, -1.27089144952921105869e+03) (2, -6.15477220986185216134e+02) (3, 1.50000000000000000000e+03) (4, -8.68461918883014902804e+01) (5, 7.72022153648254175096e+02) (6, -2.38068677043892080292e+02) (7, 3.35113269983968336874e+02) (8, 8.38780789661991099671e-01) (9, -1.47284017398570887813e+00) (10, -1.47008449807238128493e+00) (11, -2.17168782339659838243e+00) (12, 1.07303600225424489167e+00) (13, 5.19432881059644802058e-01) (14, 8.48135029889612646059e-01) (15, 7.96059255403352983294e-01) (16, 1.06672801792677907073e+00) 
