FANN_FLO_2.1
num_layers=3
learning_rate=0.700000
connection_rate=1.000000
network_type=0
learning_momentum=0.000000
training_algorithm=2
train_error_function=1
train_stop_function=0
cascade_output_change_fraction=0.010000
quickprop_decay=-0.000100
quickprop_mu=1.750000
rprop_increase_factor=1.200000
rprop_decrease_factor=0.500000
rprop_delta_min=0.000000
rprop_delta_max=50.000000
rprop_delta_zero=0.100000
cascade_output_stagnation_epochs=12
cascade_candidate_change_fraction=0.010000
cascade_candidate_stagnation_epochs=12
cascade_max_out_epochs=150
cascade_max_cand_epochs=150
cascade_num_candidate_groups=2
bit_fail_limit=3.49999999999999977796e-01
cascade_candidate_limit=1.00000000000000000000e+03
cascade_weight_multiplier=4.00000000000000022204e-01
cascade_activation_functions_count=10
cascade_activation_functions=3 5 7 8 10 11 14 15 16 17 
cascade_activation_steepnesses_count=4
cascade_activation_steepnesses=2.50000000000000000000e-01 5.00000000000000000000e-01 7.50000000000000000000e-01 1.00000000000000000000e+00 
layer_sizes=8 9 2 
scale_included=0
neurons (num_inputs, activation_function, activation_steepness)=(0, 0, 0.00000000000000000000e+00) (0, 0, 0.00000000000000000000e+00) (0, 0, 0.00000000000000000000e+00) (0, 0, 0.00000000000000000000e+00) (0, 0, 0.00000000000000000000e+00) (0, 0, 0.00000000000000000000e+00) (0, 0, 0.00000000000000000000e+00) (0, 0, 0.00000000000000000000e+00) (8, 4, 5.00000000000000000000e-01) (8, 4, 5.00000000000000000000e-01) (8, 4, 5.00000000000000000000e-01) (8, 4, 5.00000000000000000000e-01) (8, 4, 5.00000000000000000000e-01) (8, 4, 5.00000000000000000000e-01) (8, 4, 5.00000000000000000000e-01) (8, 4, 5.00000000000000000000e-01) (0, 0, 0.00000000000000000000e+00) (9, 6, 5.00000000000000000000e-01) (0, 6, 0.00000000000000000000e+00) 
connections (connected_to_neuron, weight)=(0, -4.43717294619323610050e+00) (1, 1.98023242290461887194e+01) (2, -2.13591580930023177132e+01) (3, -2.08108784633227505978e+00) (4, -5.85310193239348652838e+00) (5, -1.66415816565283458672e+00) (6, 1.66360906768225591534e+00) (7, 4.75571172206009062933e+00) (0, -6.02473448511489522161e+01) (1, 2.43443164414142898977e+02) (2, -1.19369959286908091656e+01) (3, -7.38943859798390256799e+00) (4, -1.25267151725385048167e+02) (5, -1.06176961521711774594e+02) (6, 9.64653866079851809445e+01) (7, 5.51569083643319473254e+01) (0, -2.11002881622615745982e+02) (1, -1.48709100359133259417e+02) (2, 3.91257840769418521631e+02) (3, 1.16241252276220976114e+02) (4, 6.13081490737506129562e+01) (5, -1.37320222991877045615e+02) (6, 7.55691400077235613253e+01) (7, -1.26834031309326107362e+01) (0, -2.56994578997849707491e+01) (1, 3.42296653629692855247e+01) (2, -1.08811597428823887412e+02) (3, 1.50698478026037633981e+02) (4, 1.12142579356365317267e+01) (5, 2.17647706880379168126e+01) (6, 2.23213674392307339645e+01) (7, -5.74382762397861128534e+01) (0, -7.21729095877969228923e+00) (1, -2.67081397141270526774e+00) (2, 8.56179840355462751234e+00) (3, -5.02408687258675934473e-01) (4, 3.10648220227777471791e+00) (5, 7.82530808414863554567e-01) (6, -3.14038600743165785545e+00) (7, 5.36433811437819230150e+00) (0, -6.98811655024627764732e+00) (1, 2.12640386628489501675e+01) (2, -2.44432158627430240472e+01) (3, -7.69052184305611064019e+00) (4, -1.03283398129160310930e+01) (5, -1.40399689165171093208e+00) (6, 1.89796111195007566330e+00) (7, 1.29084775810951359887e+01) (0, 4.49094491570256906243e+01) (1, 5.54568103203850228056e+02) (2, -2.38348437469843503322e+02) (3, 9.32237648352624887593e+02) (4, -1.50000000000000000000e+03) (5, 3.23228252588969326098e+02) (6, -4.00743801612729669159e+02) (7, -2.59967582476580616913e+02) (0, -1.14431719386440772723e+03) (1, -6.93238482140911514762e+02) (2, -1.76041563403495501916e+02) (3, 1.50000000000000000000e+03) (4, -1.24552157001042883167e+03) (5, -1.71615867238090004321e+02) (6, 8.03006136946693231948e+02) (7, -1.09908991511577511346e+02) (8, 5.83985939460966552161e+00) (9, -9.93309923347977186125e-01) (10, -9.45255820989143180633e-01) (11, -1.12023533979471467958e+00) (12, 5.23634453380168984893e+00) (13, -3.89027734236039002269e+00) (14, 3.02588816799717008621e+00) (15, 1.78190943472443041884e+00) (16, -2.94158440687190259055e+00) 
