FANN_FLO_2.1
num_layers=3
learning_rate=0.700000
connection_rate=1.000000
network_type=0
learning_momentum=0.000000
training_algorithm=2
train_error_function=1
train_stop_function=0
cascade_output_change_fraction=0.010000
quickprop_decay=-0.000100
quickprop_mu=1.750000
rprop_increase_factor=1.200000
rprop_decrease_factor=0.500000
rprop_delta_min=0.000000
rprop_delta_max=50.000000
rprop_delta_zero=0.100000
cascade_output_stagnation_epochs=12
cascade_candidate_change_fraction=0.010000
cascade_candidate_stagnation_epochs=12
cascade_max_out_epochs=150
cascade_max_cand_epochs=150
cascade_num_candidate_groups=2
bit_fail_limit=3.49999999999999977796e-01
cascade_candidate_limit=1.00000000000000000000e+03
cascade_weight_multiplier=4.00000000000000022204e-01
cascade_activation_functions_count=10
cascade_activation_functions=3 5 7 8 10 11 14 15 16 17 
cascade_activation_steepnesses_count=4
cascade_activation_steepnesses=2.50000000000000000000e-01 5.00000000000000000000e-01 7.50000000000000000000e-01 1.00000000000000000000e+00 
layer_sizes=8 10 2 
scale_included=0
neurons (num_inputs, activation_function, activation_steepness)=(0, 0, 0.00000000000000000000e+00) (0, 0, 0.00000000000000000000e+00) (0, 0, 0.00000000000000000000e+00) (0, 0, 0.00000000000000000000e+00) (0, 0, 0.00000000000000000000e+00) (0, 0, 0.00000000000000000000e+00) (0, 0, 0.00000000000000000000e+00) (0, 0, 0.00000000000000000000e+00) (8, 4, 5.00000000000000000000e-01) (8, 4, 5.00000000000000000000e-01) (8, 4, 5.00000000000000000000e-01) (8, 4, 5.00000000000000000000e-01) (8, 4, 5.00000000000000000000e-01) (8, 4, 5.00000000000000000000e-01) (8, 4, 5.00000000000000000000e-01) (8, 4, 5.00000000000000000000e-01) (8, 4, 5.00000000000000000000e-01) (0, 0, 0.00000000000000000000e+00) (10, 6, 5.00000000000000000000e-01) (0, 6, 0.00000000000000000000e+00) 
connections (connected_to_neuron, weight)=(0, -1.26973731144169036611e+02) (1, 9.62981675491752326934e+01) (2, 1.86594842730931489427e+01) (3, 3.92003180696274142747e+01) (4, -1.34461563816769800184e+01) (5, -4.56710566943455944511e+01) (6, 4.82848680619582495410e+01) (7, -6.01800648480112769789e+01) (0, 5.84052589725251252162e+01) (1, -4.95768137534892844087e+02) (2, 6.82431449569249792830e+01) (3, 3.39674303218268448745e+02) (4, 8.09929210137486705889e+01) (5, 2.10223537754501847985e+02) (6, -1.17219978390798573287e+02) (7, -2.22927862776496468200e+01) (0, -7.61106103462689143058e-01) (1, 8.29889091936343525902e+00) (2, 3.87737360382056150954e+00) (3, -8.49781425418930247417e+00) (4, -2.81392879477736723715e+00) (5, -3.78131837787670965767e+00) (6, -6.15666192256166366903e-01) (7, 5.21415290144831983232e-02) (0, -6.87349866125122446192e+01) (1, 1.98452628999508462471e+01) (2, 5.84554326957642302887e+01) (3, -8.88350851544757773581e+01) (4, -4.23463293279420867066e+01) (5, 1.27504590577142820962e+02) (6, 1.54602800019644405438e+02) (7, -5.57072857286880704919e+01) (0, -1.50000000000000000000e+03) (1, -7.86772084665565671457e+02) (2, 8.59658904988265959446e+01) (3, -1.73431895397321312657e+02) (4, -1.68850005241888965202e+02) (5, 2.20975105384298331046e+02) (6, 1.32280981980851970548e+03) (7, -1.30691907870842580763e+01) (0, -2.25883502404599916247e+01) (1, 7.79269780743705808845e+01) (2, -2.25564440827092539621e+02) (3, -4.75298576772843318849e+02) (4, 1.50000000000000000000e+03) (5, 2.20867087950024341581e+02) (6, -5.81529860499157621234e+02) (7, 6.61594434121952076566e+02) (0, -9.29397702287304809943e+02) (1, 4.91952934745761012891e+02) (2, 5.49723692367105982726e+01) (3, -3.44470819653124181059e+02) (4, 6.83393560234474932713e+01) (5, 6.60993176867869692614e+02) (6, -1.53417885494503547505e+01) (7, -5.86985642649400460868e+02) (0, -1.50000000000000000000e+03) (1, 8.02103724674943009632e+02) (2, -2.20364027589581212396e+02) (3, -1.50000000000000000000e+03) (4, 1.38489037517009160183e+03) (5, -1.21685736447223598589e+03) (6, -8.45427032755872915004e+02) (7, 7.92187373880110840219e+02) (0, -3.36392631994394051276e+01) (1, -6.25880644590637075453e+02) (2, -2.87233785748311333919e+02) (3, 6.32647485302318273170e+02) (4, 6.84413314336134817495e+02) (5, 1.28067811387252277200e+03) (6, -3.87581154591688175515e+02) (7, -4.15954225714254519630e+01) (8, -2.58748536076944901652e+00) (9, 1.48970562998907785079e+00) (10, 3.33858616525630935712e+00) (11, -1.83903312312969280384e+00) (12, 1.40027066003493660951e+00) (13, -1.28816196643416458478e+00) (14, 1.65899192053932686974e+00) (15, -1.75555209483853036367e+00) (16, 1.98612876518970038475e+00) (17, -6.42807251540596924499e-01) 
