FANN_FLO_2.1
num_layers=4
learning_rate=0.700000
connection_rate=1.000000
network_type=0
learning_momentum=0.000000
training_algorithm=2
train_error_function=1
train_stop_function=0
cascade_output_change_fraction=0.010000
quickprop_decay=-0.000100
quickprop_mu=1.750000
rprop_increase_factor=1.200000
rprop_decrease_factor=0.500000
rprop_delta_min=0.000000
rprop_delta_max=50.000000
rprop_delta_zero=0.100000
cascade_output_stagnation_epochs=12
cascade_candidate_change_fraction=0.010000
cascade_candidate_stagnation_epochs=12
cascade_max_out_epochs=150
cascade_max_cand_epochs=150
cascade_num_candidate_groups=2
bit_fail_limit=3.49999999999999977796e-01
cascade_candidate_limit=1.00000000000000000000e+03
cascade_weight_multiplier=4.00000000000000022204e-01
cascade_activation_functions_count=10
cascade_activation_functions=3 5 7 8 10 11 14 15 16 17 
cascade_activation_steepnesses_count=4
cascade_activation_steepnesses=2.50000000000000000000e-01 5.00000000000000000000e-01 7.50000000000000000000e-01 1.00000000000000000000e+00 
layer_sizes=8 16 16 2 
scale_included=0
neurons (num_inputs, activation_function, activation_steepness)=(0, 0, 0.00000000000000000000e+00) (0, 0, 0.00000000000000000000e+00) (0, 0, 0.00000000000000000000e+00) (0, 0, 0.00000000000000000000e+00) (0, 0, 0.00000000000000000000e+00) (0, 0, 0.00000000000000000000e+00) (0, 0, 0.00000000000000000000e+00) (0, 0, 0.00000000000000000000e+00) (8, 4, 5.00000000000000000000e-01) (8, 4, 5.00000000000000000000e-01) (8, 4, 5.00000000000000000000e-01) (8, 4, 5.00000000000000000000e-01) (8, 4, 5.00000000000000000000e-01) (8, 4, 5.00000000000000000000e-01) (8, 4, 5.00000000000000000000e-01) (8, 4, 5.00000000000000000000e-01) (8, 4, 5.00000000000000000000e-01) (8, 4, 5.00000000000000000000e-01) (8, 4, 5.00000000000000000000e-01) (8, 4, 5.00000000000000000000e-01) (8, 4, 5.00000000000000000000e-01) (8, 4, 5.00000000000000000000e-01) (8, 4, 5.00000000000000000000e-01) (0, 0, 0.00000000000000000000e+00) (16, 4, 5.00000000000000000000e-01) (16, 4, 5.00000000000000000000e-01) (16, 4, 5.00000000000000000000e-01) (16, 4, 5.00000000000000000000e-01) (16, 4, 5.00000000000000000000e-01) (16, 4, 5.00000000000000000000e-01) (16, 4, 5.00000000000000000000e-01) (16, 4, 5.00000000000000000000e-01) (16, 4, 5.00000000000000000000e-01) (16, 4, 5.00000000000000000000e-01) (16, 4, 5.00000000000000000000e-01) (16, 4, 5.00000000000000000000e-01) (16, 4, 5.00000000000000000000e-01) (16, 4, 5.00000000000000000000e-01) (16, 4, 5.00000000000000000000e-01) (0, 0, 0.00000000000000000000e+00) (16, 6, 5.00000000000000000000e-01) (0, 6, 0.00000000000000000000e+00) 
connections (connected_to_neuron, weight)=(0, -5.15801920400443009385e+02) (1, 5.50081121739430045636e+02) (2, 1.45652376418395056135e+03) (3, 7.30878210124773090683e+02) (4, -1.45122445008750082707e+03) (5, -1.26984260646542168161e+02) (6, -1.40432183794468187443e+03) (7, -1.06871214679846545437e+02) (0, 1.17209427541759828273e+03) (1, -4.91344545896246700067e+02) (2, 6.55288148891187461231e+02) (3, 2.96148034885152185325e+02) (4, -1.04148908447224116003e+02) (5, 7.33379316024233617100e+02) (6, -1.03423487095968994254e+03) (7, 3.42721483597582974312e+01) (0, 8.01475853033139628678e+02) (1, -5.15962703848148635188e+02) (2, -1.49321460126071747254e+03) (3, 1.36309820655800217537e+03) (4, 1.06801937337445065168e+03) (5, -1.26769004982569526874e+03) (6, -4.65385024902483110054e+02) (7, -5.24913537107522358838e+01) (0, -1.47390444122966073337e+03) (1, 1.49999210863633425106e+03) (2, -1.49351666996492963335e+03) (3, 5.44542217508549583727e+02) (4, 1.49664028458588290960e+03) (5, -9.99634796264516467090e+02) (6, 1.08181142411143127902e+03) (7, 3.19019636262208479138e+01) (0, -1.42404466572173282657e+03) (1, 1.50000000000000000000e+03) (2, 8.51416924795081627053e+02) (3, 1.20148799726138463484e+03) (4, -5.49023156539342494398e+02) (5, 1.49936638510281136405e+03) (6, -1.40421623762025410542e+03) (7, 3.90786287807750056800e+01) (0, 1.49283144421303222771e+03) (1, 9.76285302228346836273e+02) (2, 1.13912110276639168660e+03) (3, -1.48614320205990316026e+03) (4, -1.36672162637210726643e+03) (5, -6.38214879787654808752e+02) (6, 1.28181871062518939652e+03) (7, -1.17734496579471374389e+03) (0, -6.23683187504365491804e+02) (1, -4.28926393276771818819e+02) (2, 2.68016215536523873197e+02) (3, -6.47994806778548309012e+02) (4, 1.50000000000000000000e+03) (5, -1.21925926598783576082e+03) (6, 6.07709464060813729702e+02) (7, 5.24546377532384937581e+01) (0, 6.57797287529418781560e+02) (1, -1.08066403550942754919e+03) (2, -5.66721473411694091737e+02) (3, -1.34523264830996765795e+02) (4, -9.91624659229938970384e+02) (5, 1.50000000000000000000e+03) (6, 1.46604443332832261149e+03) (7, 2.24022472138673123254e+02) (0, 1.49759066714094342387e+03) (1, 1.18110006831939244876e+03) (2, 1.49433591527292128376e+03) (3, 1.42407651798617052918e+03) (4, -1.31842514161856729515e+03) (5, -1.42999999821186065674e+03) (6, 1.49570209158985881004e+03) (7, 1.22079124177087070535e+01) (0, -7.01557585809134565125e+01) (1, 5.15768086755550783096e+01) (2, -1.27242180084569625365e+02) (3, 1.44484450190657980784e+02) (4, 8.68755833498034775175e+01) (5, -1.20039764040957365410e+02) (6, 1.18263187708983579682e+02) (7, -8.58483768073022446288e+01) (0, 1.49758218992658225943e+03) (1, 1.32635886010288754733e+03) (2, -1.46075956121551189426e+03) (3, -1.46176478821988280288e+03) (4, -7.99278564677655481319e+02) (5, -1.26936642647171129283e+03) (6, 1.48834971822869442803e+03) (7, -1.40518547413133910595e+03) (0, -1.48759880601880945505e+03) (1, 2.54677026891416176113e+02) (2, 8.15346378854103704725e+02) (3, 9.20346509228072022779e+01) (4, -1.32253289982010841186e+02) (5, 1.68593250125677656115e+02) (6, 3.78436022811783061570e+02) (7, -6.45796784091382818360e+01) (0, 2.22989767234922283023e+02) (1, 4.54974613827178515635e+01) (2, 1.21267993389719066499e+02) (3, 1.77572085667924483232e+02) (4, -8.67943857880263522020e+02) (5, 3.22794900673201652808e+02) (6, -2.15047692360804347800e+02) (7, -5.64109105360704816690e+01) (0, 2.54343149025252373008e+01) (1, -5.93210436641402907298e+01) (2, -1.48873568558877445867e+03) (3, 1.34170365609418422537e+03) (4, 1.39641033972114314565e+03) (5, -3.53309840267960339588e+02) (6, -2.33586467629575423643e+02) (7, 4.41526243336595811684e+01) (0, -1.47189014840659615402e+03) (1, -4.94716032354269941607e+02) (2, -1.50000000000000000000e+03) (3, -1.50000000000000000000e+03) (4, -1.22262179525312353690e+03) (5, 1.50000000000000000000e+03) (6, -1.47906625162740920132e+03) (7, 6.44022094643929250424e+01) (8, -1.47959854321354760032e+03) (9, 1.45464270935713057042e+03) (10, 1.48681195177175982280e+03) (11, -1.00988899267159388273e+03) (12, -1.35588504821648621146e+03) (13, 1.04850180529381691485e+03) (14, -1.41625190263900981336e+03) (15, -1.43603563580050467863e+03) (16, -7.47957380056138390501e+02) (17, 1.48723102636908947716e+03) (18, 9.87557892813412536270e+02) (19, 1.45492508417510748586e+03) (20, -9.52479993305206107834e+02) (21, 6.93986330089892362594e+02) (22, 1.49768679385396558246e+03) (23, -1.33641696037243349338e+02) (8, 1.31599448623589614726e+03) (9, 1.34036623396115828655e+03) (10, -6.90606592461658266302e+01) (11, -1.38700217154453116564e+03) (12, 1.23014008258820263109e+03) (13, 1.32575166959088642216e+03) (14, 1.31562430449590010539e+03) (15, 1.10334057063729972015e+02) (16, -1.46270561790676197234e+03) (17, -1.26249733229864796158e+03) (18, 1.22553653287406177697e+03) (19, 1.27814538325263106344e+03) (20, 1.88725116947772420417e+02) (21, -1.17710912386736868029e+03) (22, 1.50000000000000000000e+03) (23, 5.80548409247657772880e+01) (8, 1.50000000000000000000e+03) (9, -8.07531537885404532062e+02) (10, 1.50000000000000000000e+03) (11, -6.27561552369049991285e+02) (12, 1.08605695994092957335e+03) (13, 7.87983649117249001392e+02) (14, -8.90829946359686459800e+01) (15, 3.27164084309029647102e+02) (16, 1.48905816957914021259e+03) (17, -7.35723584715735341888e+02) (18, -4.65536756002675645050e+02) (19, -4.23444139476276802725e+02) (20, -9.81969377008794026551e+02) (21, 1.98481450260256622187e+01) (22, 1.16017689378665409095e+03) (23, 1.23005186777510004958e+02) (8, -8.81386641352549190742e+02) (9, -1.42039178592261305312e+03) (10, 1.50000000000000000000e+03) (11, -1.32780045326937390371e+00) (12, 8.19675387859065949669e+02) (13, 1.24285709860468318766e+03) (14, -1.42474360154240434895e+03) (15, 1.49949807654200640172e+03) (16, 8.16531980521173977650e+02) (17, 7.16846214765917011391e+02) (18, -1.30465830942738693921e+03) (19, 1.49967759702096418550e+03) (20, -9.81969377008794026551e+02) (21, -1.42484389604650959882e+03) (22, 1.50000000000000000000e+03) (23, 7.60204822885319089210e+01) (8, 1.48897423117660741809e+03) (9, -5.04281565434392575753e+02) (10, -1.47901427046238563889e+03) (11, 1.43696408485387792098e+03) (12, -1.49281230716995787589e+03) (13, 1.46065810175972751495e+03) (14, 1.47620457216905288078e+03) (15, -1.49922833040543923744e+03) (16, 1.49004551276395386594e+03) (17, -1.03308281646817385990e+03) (18, 1.49956088931487556692e+03) (19, 1.43094781168813938166e+03) (20, -9.07995405948922098105e+02) (21, -1.39827659167607112067e+03) (22, -8.24246878470925594229e+02) (23, 1.98483151753481941171e+01) (8, 3.75839893749390625999e+02) (9, 1.45904785630518040307e+03) (10, -1.44983644623286204478e+03) (11, 1.45630106086763339590e+03) (12, -1.43416575714511509432e+03) (13, 1.03424296554893771827e+03) (14, 1.50000000000000000000e+03) (15, 1.43850790850016687727e+03) (16, 1.16495215629853134942e+02) (17, 1.42928000038623849832e+03) (18, 3.56699438428163546178e+02) (19, 1.50000000000000000000e+03) (20, 1.33947155373093642083e+03) (21, -1.49366152680019717991e+03) (22, 2.20133894394126656380e+02) (23, -6.93351255971540325618e+01) (8, -1.10188927788614137171e+03) (9, 1.42069012762579973241e+03) (10, 1.50000000000000000000e+03) (11, 1.50000000000000000000e+03) (12, -1.21043257626220588463e+03) (13, 1.44650018734071568360e+03) (14, -4.75326565845988454839e+02) (15, -1.38366443063326300944e+03) (16, 1.38874778834250014370e+03) (17, -1.44544728600292023657e+03) (18, -1.22588841868832150794e+03) (19, 1.09962057441169008598e+03) (20, -1.03092127062931467663e+03) (21, -1.47499892622823517740e+03) (22, 1.50000000000000000000e+03) (23, 2.15830740396569950690e+02) (8, 1.50000000000000000000e+03) (9, -8.29209909548262771750e+02) (10, 1.50000000000000000000e+03) (11, 1.50000000000000000000e+03) (12, -1.03139425020900466734e+03) (13, 1.30184508133434746924e+03) (14, -1.36584406732476918478e+03) (15, 1.06292430577851996532e+03) (16, -5.68465555703366298701e+00) (17, 4.85523114427809503013e+02) (18, -7.28303418225894233728e+02) (19, 1.49945554038124896579e+03) (20, -8.45718209073629168415e+02) (21, -1.32907763862034221347e+03) (22, 1.50000000000000000000e+03) (23, 2.30518409453788819974e+02) (8, -6.18858794399387534213e+02) (9, -1.64480274260293697353e+02) (10, -4.20222043915301810557e+02) (11, 1.49846603845460367666e+03) (12, -1.18173354978708675844e+03) (13, 8.88334836313022947252e+02) (14, -4.40126893786823927712e+02) (15, 6.17185678749223825434e+02) (16, -1.49645377796377215418e+03) (17, 6.12031504002263318398e+02) (18, -1.47747140911353130832e+03) (19, 1.49733100574954619333e+03) (20, 3.94588628645234535952e+01) (21, 4.42914267677535121948e+02) (22, 1.50000000000000000000e+03) (23, -5.89041806546477388906e+01) (8, 1.46474721372656608764e+03) (9, -1.35487869135360278960e+03) (10, -1.50000000000000000000e+03) (11, -1.49961406492537025770e+03) (12, 1.03686677731030613359e+02) (13, 7.54768495711180094077e+01) (14, 1.49549963158061427748e+03) (15, 7.71864854201103526066e+02) (16, 1.40643713820512152779e+03) (17, -1.17881756522013120048e+03) (18, 1.39242064817273853805e+03) (19, -1.45486802782926883992e+03) (20, 3.38604648394701598590e+02) (21, 1.46003356019708257918e+03) (22, -8.24246878470925594229e+02) (23, 1.70972878133350945973e+02) (8, 1.37928831233858545602e+03) (9, 9.15143997151012627000e+02) (10, -1.49297941741389331582e+03) (11, -1.49945317154136887439e+03) (12, -1.49658767058443618225e+03) (13, 4.45438664030377822201e+02) (14, 1.48368752961730206152e+03) (15, 1.38570488801641999999e+03) (16, 6.79973016202521989726e+02) (17, -1.02390764262364496062e+03) (18, 1.47996663988559839709e+03) (19, 4.33001658548539126059e+02) (20, 1.33947155373093642083e+03) (21, -4.56719928921622795315e+02) (22, -8.22892220701026644747e+02) (23, 4.33652539377657291197e+01) (8, 1.01296770795363806883e+03) (9, 1.15757681050255905575e+03) (10, 3.28542860426136940077e+02) (11, -1.23093918793021884994e+03) (12, 1.37048931735764813311e+03) (13, 1.89283324912124641060e+02) (14, 1.48905517163716331197e+03) (15, 9.04026615728801807848e+00) (16, -1.39526527425160520579e+03) (17, -1.43029518085769177560e+03) (18, -1.22011425361729592964e+02) (19, -1.30027488205278518762e+03) (20, -1.21474210469975602678e+02) (21, 9.80586594080654094796e+02) (22, -8.24246878470925594229e+02) (23, 2.67744867148538467916e+01) (8, -8.57640496600125288751e+02) (9, 1.46531693473244081360e+03) (10, 1.43729895935727813594e+03) (11, 1.48082011756950669223e+03) (12, -1.45330601194392806974e+03) (13, -1.23707903402124338754e+03) (14, 1.14710388585297422992e+02) (15, 1.47866804697103793842e+03) (16, -7.44846210280028344641e+01) (17, -1.32006732446961859750e+03) (18, -6.76607683101406792048e+02) (19, 1.50000000000000000000e+03) (20, 1.33947155373093642083e+03) (21, -4.63515242926918745070e+02) (22, 1.48406750550635638319e+03) (23, -3.67585699974233008902e+01) (8, -1.07989047699356305543e+02) (9, -1.22843251267589653253e+03) (10, 1.50000000000000000000e+03) (11, -1.00784837366931515135e+03) (12, -1.35886264895448312018e+03) (13, 1.05915795415659158607e+03) (14, -1.21554320348683154407e+03) (15, 1.07322713288112731789e+03) (16, 1.41193312061809115221e+03) (17, 1.45795523311370970987e+03) (18, -1.34211030290482040073e+03) (19, -2.61569227535326604084e+02) (20, 1.49096113474781873265e+03) (21, -1.15006239103929175371e+02) (22, 1.50000000000000000000e+03) (23, 1.17791513455010594669e+01) (8, 1.50000000000000000000e+03) (9, 1.46834499285427523319e+03) (10, 1.50000000000000000000e+03) (11, 1.49859065806063222226e+03) (12, -1.46171264677708927593e+03) (13, -1.11824743386841328174e+03) (14, 5.04733671405217137362e+02) (15, 1.47947600815886016790e+03) (16, -8.11049011690292445564e+02) (17, -1.17091474435305121915e+03) (18, -1.44027120410863790312e+03) (19, 1.48352158093905495662e+03) (20, -4.08427186642185972687e+02) (21, -1.23289275774903808269e+03) (22, 1.50000000000000000000e+03) (23, 8.37315365030951852532e+02) (24, 2.83697107187201834344e-02) (25, -7.31868484576062794389e-01) (26, -1.14322460117272362012e+00) (27, -2.03266937035798178623e-01) (28, 2.51323395866420884470e-01) (29, 5.00169567876661003147e-01) (30, -4.28480734655060535587e-01) (31, -5.50010490295915338566e-02) (32, -6.55059535272279336304e-01) (33, 3.23796658529022896023e-01) (34, 7.15376378790862021972e-01) (35, 5.58644877344416590503e-01) (36, 3.01253488383392331595e-01) (37, -4.06031596773490321972e-01) (38, -2.04246749017157558370e-01) (39, 1.19385140162096958782e+00) 
