FANN_FLO_2.1
num_layers=4
learning_rate=0.700000
connection_rate=1.000000
network_type=0
learning_momentum=0.000000
training_algorithm=2
train_error_function=1
train_stop_function=0
cascade_output_change_fraction=0.010000
quickprop_decay=-0.000100
quickprop_mu=1.750000
rprop_increase_factor=1.200000
rprop_decrease_factor=0.500000
rprop_delta_min=0.000000
rprop_delta_max=50.000000
rprop_delta_zero=0.100000
cascade_output_stagnation_epochs=12
cascade_candidate_change_fraction=0.010000
cascade_candidate_stagnation_epochs=12
cascade_max_out_epochs=150
cascade_max_cand_epochs=150
cascade_num_candidate_groups=2
bit_fail_limit=3.49999999999999977796e-01
cascade_candidate_limit=1.00000000000000000000e+03
cascade_weight_multiplier=4.00000000000000022204e-01
cascade_activation_functions_count=10
cascade_activation_functions=3 5 7 8 10 11 14 15 16 17 
cascade_activation_steepnesses_count=4
cascade_activation_steepnesses=2.50000000000000000000e-01 5.00000000000000000000e-01 7.50000000000000000000e-01 1.00000000000000000000e+00 
layer_sizes=8 10 10 2 
scale_included=0
neurons (num_inputs, activation_function, activation_steepness)=(0, 0, 0.00000000000000000000e+00) (0, 0, 0.00000000000000000000e+00) (0, 0, 0.00000000000000000000e+00) (0, 0, 0.00000000000000000000e+00) (0, 0, 0.00000000000000000000e+00) (0, 0, 0.00000000000000000000e+00) (0, 0, 0.00000000000000000000e+00) (0, 0, 0.00000000000000000000e+00) (8, 4, 5.00000000000000000000e-01) (8, 4, 5.00000000000000000000e-01) (8, 4, 5.00000000000000000000e-01) (8, 4, 5.00000000000000000000e-01) (8, 4, 5.00000000000000000000e-01) (8, 4, 5.00000000000000000000e-01) (8, 4, 5.00000000000000000000e-01) (8, 4, 5.00000000000000000000e-01) (8, 4, 5.00000000000000000000e-01) (0, 0, 0.00000000000000000000e+00) (10, 4, 5.00000000000000000000e-01) (10, 4, 5.00000000000000000000e-01) (10, 4, 5.00000000000000000000e-01) (10, 4, 5.00000000000000000000e-01) (10, 4, 5.00000000000000000000e-01) (10, 4, 5.00000000000000000000e-01) (10, 4, 5.00000000000000000000e-01) (10, 4, 5.00000000000000000000e-01) (10, 4, 5.00000000000000000000e-01) (0, 0, 0.00000000000000000000e+00) (10, 6, 5.00000000000000000000e-01) (0, 6, 0.00000000000000000000e+00) 
connections (connected_to_neuron, weight)=(0, 8.67000017908077325046e+01) (1, -1.21064749936544302500e+00) (2, -4.27038746611263036357e+02) (3, -3.77583844634295189735e+02) (4, 4.52858885024392009200e+02) (5, -1.52025412339104121884e+02) (6, -7.09442978786185989293e+01) (7, 3.68772107800285766643e+02) (0, -1.38612035827867521220e+03) (1, -6.85288034608184233321e+01) (2, 8.04005418885718796673e+01) (3, 1.13426548516527958554e+02) (4, 4.04645652539044590412e+02) (5, -1.12369525490745922980e+03) (6, -1.07101906015038616715e+03) (7, 3.88781130989673158638e+02) (0, -1.36280924304669201774e+03) (1, -1.49482022513866741065e+03) (2, 1.39646631720589812176e+03) (3, -1.39290722832925780494e+02) (4, -1.38971990647064626501e+03) (5, 1.48156412841331939489e+03) (6, 6.63442551697087537832e+02) (7, 1.36557124002531691076e+03) (0, 1.06630118065538545125e+03) (1, 1.47172263337115373361e+03) (2, -9.45985735481993856411e+02) (3, 1.05325724533010589568e+01) (4, 5.81225411405712065971e+02) (5, 1.49529556474295509361e+03) (6, -1.47484685427922977397e+03) (7, -4.47665945440472796690e+01) (0, 3.96113644581507813314e+01) (1, 1.93354136777913829803e+01) (2, -8.64340393241914455302e+01) (3, -1.95387644034923213532e+00) (4, -1.41716496031507777076e+01) (5, 3.04452572700398071959e+01) (6, -1.57542583826805522307e+01) (7, 1.30360502468630592432e+01) (0, 1.44480761919600558940e+03) (1, -1.00731416474710579223e+03) (2, -1.40279997139900638103e+03) (3, -1.49917613234424010216e+02) (4, 3.77924122433033801371e+02) (5, 3.53932623692074514565e+02) (6, 3.62404250369243470686e+02) (7, -2.56236433283118536508e+01) (0, 1.33109000283764385131e+03) (1, -1.08757493308311268265e+03) (2, 4.20919227863941671330e+02) (3, -1.17513191205749365054e+02) (4, -9.38376047278623786951e+02) (5, 3.52319821350887991684e+02) (6, -3.65575580261119398529e+02) (7, 6.45992628094295184837e+01) (0, -2.01385082428064492888e+02) (1, -1.30821306783055911183e+03) (2, 1.48909811440287455753e+02) (3, 1.47615050413059725543e+03) (4, 9.10651348861798396683e+02) (5, -2.44818615826595333829e+02) (6, 5.24049000839371842630e+02) (7, -5.63781545232123448841e+02) (0, 2.12360229855326743120e+01) (1, 2.16541015146293869265e+00) (2, 1.98511876791943002729e+01) (3, 6.11568240354745924492e+01) (4, -1.73231039710523404551e+01) (5, 2.44687107844752915753e+01) (6, -3.12439399205166843387e+01) (7, -3.51879198612433299331e+01) (8, 8.65203247221343190176e+02) (9, -4.85608485538298168649e+02) (10, 5.09648387702363493190e+02) (11, -1.11286613208980634226e+03) (12, 1.50000000000000000000e+03) (13, -1.04955876266528230190e+03) (14, 6.45386702462713742534e+02) (15, 3.59884692168967319503e+02) (16, -1.49552000633716625089e+03) (17, 1.01262285173518284864e+03) (8, 1.50000000000000000000e+03) (9, -1.06697432386729929021e+03) (10, 1.50000000000000000000e+03) (11, 1.46798069711785728941e+03) (12, 1.50000000000000000000e+03) (13, -1.50000000000000000000e+03) (14, 1.43179999485015855498e+03) (15, 1.50000000000000000000e+03) (16, -1.50000000000000000000e+03) (17, -9.80897788148445499701e+01) (8, 1.10702841169817861555e+03) (9, 4.31596547293477783569e+02) (10, -1.49886399207825820667e+03) (11, -7.48082716367568650639e+02) (12, -3.62921100493893789007e+02) (13, 1.50000000000000000000e+03) (14, -1.33049936775300830050e+03) (15, 8.30495404768084767966e+02) (16, 1.41693447537661268143e+03) (17, 8.56694514317767996658e+00) (8, -3.20879200130412840508e+01) (9, 9.78061399187618690121e+02) (10, 1.41532655370495194802e+03) (11, -1.13029375443798940637e+02) (12, 9.08875634549291589792e+02) (13, 1.50000000000000000000e+03) (14, 1.49114603214789624985e+01) (15, 1.40002834721561953302e+03) (16, -1.39608385083547204886e+03) (17, 1.13236894219858740485e+02) (8, -2.10112285845332991130e+01) (9, 1.19508238140445346431e+01) (10, -1.96012476453841486546e+01) (11, -9.19406598527670126941e+00) (12, -1.48033000161809340511e+01) (13, 7.14754905224598786617e+01) (14, -3.71984198332356044148e+01) (15, -3.77318242442584264040e+01) (16, -4.04176695000594676799e+01) (17, 6.55940583254749611797e+01) (8, 1.40122907844516589648e+03) (9, 8.52555434319378036889e+02) (10, -2.92258958355598736034e+02) (11, -9.43612853655252706631e+02) (12, -1.39080299477152993859e+03) (13, 1.50000000000000000000e+03) (14, -1.35679999485015855498e+03) (15, -1.42426749886149468693e+03) (16, -9.49931518985614957273e+02) (17, 4.38132896677597443613e+02) (8, -9.08681938609076723878e+02) (9, -1.44406210071314990273e+03) (10, 1.32262860440705253495e+03) (11, -4.79687396543911290792e+01) (12, 9.98252291277341754494e+01) (13, -8.25390270641690790399e+02) (14, 1.30435866967177253173e+03) (15, 1.36110242982143859081e+03) (16, -1.50000000000000000000e+03) (17, 4.23960750597020933128e+02) (8, 7.76085025038718185897e+01) (9, 5.15691397976169810136e+02) (10, 1.50000000000000000000e+03) (11, 1.45059409039594493152e+03) (12, 1.50000000000000000000e+03) (13, -1.50000000000000000000e+03) (14, 1.43179999485015855498e+03) (15, 1.50000000000000000000e+03) (16, -1.50000000000000000000e+03) (17, 1.28807808690049341749e+03) (8, 1.34545336469105245669e+03) (9, -1.49408517197027754264e+03) (10, -8.94995132662750052077e+02) (11, -1.72950634417017710120e+02) (12, -1.58677961461805239196e+02) (13, -1.48191497704823473214e+03) (14, 1.48840056110878299478e+03) (15, 1.31120264176567525283e+03) (16, 2.71135392060355968624e+01) (17, -1.05277053020741945488e+02) (18, 2.44629946155453942280e-01) (19, 6.73360596495139129836e-01) (20, -1.54229910423736266134e-01) (21, -5.60406577236057912295e-01) (22, 4.07472993690113638454e-01) (23, -3.19225718911940903322e-01) (24, 6.23938391984204532292e-01) (25, 9.60535572966220718705e-01) (26, 4.27111597944307766483e-02) (27, -1.59100375435014518288e+00) 
