FANN_FLO_2.1
num_layers=3
learning_rate=0.700000
connection_rate=1.000000
network_type=0
learning_momentum=0.000000
training_algorithm=2
train_error_function=1
train_stop_function=0
cascade_output_change_fraction=0.010000
quickprop_decay=-0.000100
quickprop_mu=1.750000
rprop_increase_factor=1.200000
rprop_decrease_factor=0.500000
rprop_delta_min=0.000000
rprop_delta_max=50.000000
rprop_delta_zero=0.100000
cascade_output_stagnation_epochs=12
cascade_candidate_change_fraction=0.010000
cascade_candidate_stagnation_epochs=12
cascade_max_out_epochs=150
cascade_max_cand_epochs=150
cascade_num_candidate_groups=2
bit_fail_limit=3.49999999999999977796e-01
cascade_candidate_limit=1.00000000000000000000e+03
cascade_weight_multiplier=4.00000000000000022204e-01
cascade_activation_functions_count=10
cascade_activation_functions=3 5 7 8 10 11 14 15 16 17 
cascade_activation_steepnesses_count=4
cascade_activation_steepnesses=2.50000000000000000000e-01 5.00000000000000000000e-01 7.50000000000000000000e-01 1.00000000000000000000e+00 
layer_sizes=8 8 2 
scale_included=0
neurons (num_inputs, activation_function, activation_steepness)=(0, 0, 0.00000000000000000000e+00) (0, 0, 0.00000000000000000000e+00) (0, 0, 0.00000000000000000000e+00) (0, 0, 0.00000000000000000000e+00) (0, 0, 0.00000000000000000000e+00) (0, 0, 0.00000000000000000000e+00) (0, 0, 0.00000000000000000000e+00) (0, 0, 0.00000000000000000000e+00) (8, 4, 5.00000000000000000000e-01) (8, 4, 5.00000000000000000000e-01) (8, 4, 5.00000000000000000000e-01) (8, 4, 5.00000000000000000000e-01) (8, 4, 5.00000000000000000000e-01) (8, 4, 5.00000000000000000000e-01) (8, 4, 5.00000000000000000000e-01) (0, 0, 0.00000000000000000000e+00) (8, 6, 5.00000000000000000000e-01) (0, 6, 0.00000000000000000000e+00) 
connections (connected_to_neuron, weight)=(0, -2.41406086901571867998e+01) (1, 4.91957658463271911842e+01) (2, -6.42209700426023459841e+01) (3, 4.86681416214580337964e+01) (4, -2.19329144276275034287e+00) (5, 1.07709336749325892413e+01) (6, 1.23399125099248383464e+01) (7, -2.78896435597019056729e+01) (0, 8.81383186351253158364e+01) (1, -1.33084531105539190321e+03) (2, -2.44888401871091815565e+02) (3, 1.71137208318427610720e+02) (4, -9.73910085472570699494e+02) (5, 4.69174705044272059240e+02) (6, 1.50000000000000000000e+03) (7, -2.94738945790323441543e+02) (0, -2.81974982680339785190e+01) (1, 2.07260601806262521052e+01) (2, -2.33916585408475867780e+01) (3, -1.71168088204261330532e+01) (4, 1.03506706482988306561e+02) (5, -5.08241011007184440018e+01) (6, -2.15729304540839734727e+01) (7, -7.58123373949701839791e+00) (0, 1.53628716920512573552e+02) (1, 1.50000000000000000000e+03) (2, -3.03523092968693447347e+02) (3, 1.76117785812197041651e+02) (4, -1.25480875053343254422e+02) (5, 1.74756657290437516394e+02) (6, 2.36176718320561320752e+02) (7, -1.37376111965877794319e+03) (0, 1.60811802612187526584e+00) (1, 1.07566686121399257559e+00) (2, -1.62024362641776562555e+01) (3, 3.53617433704039640929e+01) (4, -2.56347995897830003287e+01) (5, -2.49256021712884878738e+00) (6, 1.43043998161452883267e+01) (7, -1.35400524547733240865e+01) (0, -6.73005301671769586846e+01) (1, 7.11594293596670013358e+02) (2, 4.81629885883344627473e+02) (3, -2.61476233687149203888e+02) (4, 6.65474122058200947549e+01) (5, 7.94909420633588381655e-01) (6, -1.15213977714940597252e+02) (7, -7.25111249918649605206e+02) (0, 4.77190747157412964441e+00) (1, -1.67986652492969623651e+00) (2, -1.10949767414911697472e+01) (3, 3.15586500124846374149e+01) (4, -2.23634732285756072656e+01) (5, -1.69220396800304406781e+00) (6, 9.65603903462526069745e+00) (7, -1.30518061290495737126e+01) (8, -1.93526177541897936862e+00) (9, 9.88736426901814846602e-01) (10, 7.12484079871242514947e-01) (11, 6.76722730741139977262e-01) (12, -1.40619080138696439519e+01) (13, -5.86279818590047741012e-01) (14, 1.36248027563574609644e+01) (15, -2.57964473250974213325e-01) 
