FANN_FLO_2.1
num_layers=3
learning_rate=0.700000
connection_rate=1.000000
network_type=0
learning_momentum=0.000000
training_algorithm=2
train_error_function=1
train_stop_function=0
cascade_output_change_fraction=0.010000
quickprop_decay=-0.000100
quickprop_mu=1.750000
rprop_increase_factor=1.200000
rprop_decrease_factor=0.500000
rprop_delta_min=0.000000
rprop_delta_max=50.000000
rprop_delta_zero=0.100000
cascade_output_stagnation_epochs=12
cascade_candidate_change_fraction=0.010000
cascade_candidate_stagnation_epochs=12
cascade_max_out_epochs=150
cascade_max_cand_epochs=150
cascade_num_candidate_groups=2
bit_fail_limit=3.49999999999999977796e-01
cascade_candidate_limit=1.00000000000000000000e+03
cascade_weight_multiplier=4.00000000000000022204e-01
cascade_activation_functions_count=10
cascade_activation_functions=3 5 7 8 10 11 14 15 16 17 
cascade_activation_steepnesses_count=4
cascade_activation_steepnesses=2.50000000000000000000e-01 5.00000000000000000000e-01 7.50000000000000000000e-01 1.00000000000000000000e+00 
layer_sizes=8 10 2 
scale_included=0
neurons (num_inputs, activation_function, activation_steepness)=(0, 0, 0.00000000000000000000e+00) (0, 0, 0.00000000000000000000e+00) (0, 0, 0.00000000000000000000e+00) (0, 0, 0.00000000000000000000e+00) (0, 0, 0.00000000000000000000e+00) (0, 0, 0.00000000000000000000e+00) (0, 0, 0.00000000000000000000e+00) (0, 0, 0.00000000000000000000e+00) (8, 4, 5.00000000000000000000e-01) (8, 4, 5.00000000000000000000e-01) (8, 4, 5.00000000000000000000e-01) (8, 4, 5.00000000000000000000e-01) (8, 4, 5.00000000000000000000e-01) (8, 4, 5.00000000000000000000e-01) (8, 4, 5.00000000000000000000e-01) (8, 4, 5.00000000000000000000e-01) (8, 4, 5.00000000000000000000e-01) (0, 0, 0.00000000000000000000e+00) (10, 6, 5.00000000000000000000e-01) (0, 6, 0.00000000000000000000e+00) 
connections (connected_to_neuron, weight)=(0, -1.21202283500685339845e+02) (1, 7.37226097368390924203e+02) (2, 2.00223213008037305372e+02) (3, -3.13433590202914103884e+02) (4, -1.42283708072490958330e+03) (5, -3.91343081894037823076e+02) (6, -2.05359817182002160507e+02) (7, 2.86206778000155168229e+02) (0, -4.83532967318067807838e+00) (1, -5.42499860119516119639e-01) (2, 2.60354157903833538512e+01) (3, 5.96941787484787944607e+00) (4, -3.84233325614820913074e+01) (5, 1.61496867788090554541e+01) (6, -8.75101554924911040345e-01) (7, 1.75750000653959559394e+00) (0, 6.27540668027372916526e+00) (1, -3.58373687167553889310e+00) (2, 1.35353562428992155731e+01) (3, 3.36395086485385306219e+01) (4, -3.69273665350517816819e+01) (5, -1.17821758856372742486e+01) (6, 2.21661462772122508369e+00) (7, 2.12770256678925528959e+00) (0, 9.92331835216179456438e+02) (1, -1.16455158659048242953e+03) (2, -1.50000000000000000000e+03) (3, -7.45308698483187185957e+02) (4, 4.26542474261731499041e+01) (5, 1.49999356479099492390e+03) (6, -1.50000000000000000000e+03) (7, -1.10549432495465651982e+02) (0, -1.15854274958401806117e+01) (1, 6.88844469759501976114e+01) (2, -7.25022380484490867047e+01) (3, 1.16205393129781370476e+02) (4, -4.30682775902744978680e+01) (5, -4.40780969328019693876e+01) (6, 2.30728989655754235244e+00) (7, 2.57632024934137904282e+00) (0, -1.50000000000000000000e+03) (1, -1.50000000000000000000e+03) (2, -1.50000000000000000000e+03) (3, 1.50000000000000000000e+03) (4, 3.74517255542431428239e+02) (5, 1.50000000000000000000e+03) (6, -1.50000000000000000000e+03) (7, -1.25802753869991943247e+03) (0, -1.50000000000000000000e+03) (1, -1.50000000000000000000e+03) (2, 1.06318554447191900181e+03) (3, 6.98575108386653027992e+02) (4, -8.69902692125811654478e+02) (5, -9.82164308744333197865e+02) (6, 9.50196318785124390160e+02) (7, 2.62493860693439387433e+02) (0, -3.66706274473210314113e+01) (1, 2.26283959458370880213e+01) (2, 1.96593916720008508037e+01) (3, 3.89777610713047479862e+01) (4, -1.85802995455571959837e+02) (5, 1.39685754307584517164e+02) (6, 1.92332047544633333302e+01) (7, -3.22340455561911642945e+00) (0, 6.01438166514457108747e+01) (1, -5.66094772672080068787e+01) (2, -7.68042127655712079104e+01) (3, -6.82688668889047676203e+01) (4, 5.65711916167243771270e+01) (5, -4.09791863071537250107e+01) (6, -1.97685845999502696202e+01) (7, 4.28903571819821181066e+01) (8, -2.24573808468577995612e+00) (9, 6.53980570975937247624e+00) (10, -5.14397106405816550989e+00) (11, 2.42531616844657404997e+00) (12, 3.77534720601151008168e+00) (13, 1.35963848176708257398e+00) (14, -7.79728744533708995057e-01) (15, -1.76803402045600477344e+00) (16, 3.82352915732751164057e+00) (17, -3.57468482768737993993e+00) 
