FANN_FLO_2.1
num_layers=3
learning_rate=0.700000
connection_rate=1.000000
network_type=0
learning_momentum=0.000000
training_algorithm=2
train_error_function=1
train_stop_function=0
cascade_output_change_fraction=0.010000
quickprop_decay=-0.000100
quickprop_mu=1.750000
rprop_increase_factor=1.200000
rprop_decrease_factor=0.500000
rprop_delta_min=0.000000
rprop_delta_max=50.000000
rprop_delta_zero=0.100000
cascade_output_stagnation_epochs=12
cascade_candidate_change_fraction=0.010000
cascade_candidate_stagnation_epochs=12
cascade_max_out_epochs=150
cascade_max_cand_epochs=150
cascade_num_candidate_groups=2
bit_fail_limit=3.49999999999999977796e-01
cascade_candidate_limit=1.00000000000000000000e+03
cascade_weight_multiplier=4.00000000000000022204e-01
cascade_activation_functions_count=10
cascade_activation_functions=3 5 7 8 10 11 14 15 16 17 
cascade_activation_steepnesses_count=4
cascade_activation_steepnesses=2.50000000000000000000e-01 5.00000000000000000000e-01 7.50000000000000000000e-01 1.00000000000000000000e+00 
layer_sizes=8 8 2 
scale_included=0
neurons (num_inputs, activation_function, activation_steepness)=(0, 0, 0.00000000000000000000e+00) (0, 0, 0.00000000000000000000e+00) (0, 0, 0.00000000000000000000e+00) (0, 0, 0.00000000000000000000e+00) (0, 0, 0.00000000000000000000e+00) (0, 0, 0.00000000000000000000e+00) (0, 0, 0.00000000000000000000e+00) (0, 0, 0.00000000000000000000e+00) (8, 4, 5.00000000000000000000e-01) (8, 4, 5.00000000000000000000e-01) (8, 4, 5.00000000000000000000e-01) (8, 4, 5.00000000000000000000e-01) (8, 4, 5.00000000000000000000e-01) (8, 4, 5.00000000000000000000e-01) (8, 4, 5.00000000000000000000e-01) (0, 0, 0.00000000000000000000e+00) (8, 6, 5.00000000000000000000e-01) (0, 6, 0.00000000000000000000e+00) 
connections (connected_to_neuron, weight)=(0, -3.66960302874004185014e+02) (1, 9.06651531950270737070e+02) (2, -7.63299398497102288275e+02) (3, -3.24364628750495000986e+02) (4, 4.98781970269366013326e+02) (5, -2.04790677627304916086e+02) (6, 2.71193490683531479135e+02) (7, -1.70624610949148859618e+02) (0, 1.50000000000000000000e+03) (1, 1.50000000000000000000e+03) (2, 1.50000000000000000000e+03) (3, -1.50000000000000000000e+03) (4, 1.50000000000000000000e+03) (5, 1.50000000000000000000e+03) (6, 1.50000000000000000000e+03) (7, 7.45070667395688246870e+02) (0, -1.50000000000000000000e+03) (1, -1.50000000000000000000e+03) (2, -1.50000000000000000000e+03) (3, 1.50000000000000000000e+03) (4, -1.50000000000000000000e+03) (5, -1.50000000000000000000e+03) (6, -1.50000000000000000000e+03) (7, -6.27669457600208943404e+02) (0, -1.20555697773298398090e+01) (1, 1.91194337136883973471e+02) (2, -5.40275446028566534551e+02) (3, 1.94537436072315408353e+01) (4, -4.38408169289605069707e+01) (5, 2.94298534938470936595e+02) (6, 6.62183397428444919797e+01) (7, -1.36250580335611459759e+02) (0, 6.14061332249291922381e+02) (1, -5.88118946041882168174e+02) (2, -5.51052200168825834226e+02) (3, -3.82484983744581796827e+01) (4, 8.55390548058558124467e+01) (5, 3.88648482210151030358e+02) (6, -5.88826341240831254709e+01) (7, -1.75399128885489346885e+02) (0, 1.50000000000000000000e+03) (1, -1.22806717602213052487e+03) (2, -5.82842672796302622373e+02) (3, 9.28725377324544410840e+02) (4, -2.02298186859130510129e+02) (5, 8.62304722946649064852e+01) (6, 5.47552776114989910639e+02) (7, -8.53076246964028541697e+01) (0, -5.26412719051756880617e+02) (1, 1.72874274981430573916e+02) (2, 1.51320057231309135659e+02) (3, -1.16868505364556000359e+02) (4, -1.40476277715673404600e+02) (5, -3.12371630523316223815e+00) (6, 2.49591413038939577973e+02) (7, 5.17084547475513858217e+01) (8, 6.13808136262642412007e-01) (9, -6.89501042760855664682e-01) (10, 1.50000000000000000000e+03) (11, -3.34118526731657805584e+00) (12, 3.08850867542925078268e+00) (13, -1.64007490158997248919e+00) (14, -1.23602543091199690295e+00) (15, 2.22224867125130343126e+00) 
