FANN_FLO_2.1
num_layers=3
learning_rate=0.700000
connection_rate=1.000000
network_type=0
learning_momentum=0.000000
training_algorithm=2
train_error_function=1
train_stop_function=0
cascade_output_change_fraction=0.010000
quickprop_decay=-0.000100
quickprop_mu=1.750000
rprop_increase_factor=1.200000
rprop_decrease_factor=0.500000
rprop_delta_min=0.000000
rprop_delta_max=50.000000
rprop_delta_zero=0.100000
cascade_output_stagnation_epochs=12
cascade_candidate_change_fraction=0.010000
cascade_candidate_stagnation_epochs=12
cascade_max_out_epochs=150
cascade_max_cand_epochs=150
cascade_num_candidate_groups=2
bit_fail_limit=3.49999999999999977796e-01
cascade_candidate_limit=1.00000000000000000000e+03
cascade_weight_multiplier=4.00000000000000022204e-01
cascade_activation_functions_count=10
cascade_activation_functions=3 5 7 8 10 11 14 15 16 17 
cascade_activation_steepnesses_count=4
cascade_activation_steepnesses=2.50000000000000000000e-01 5.00000000000000000000e-01 7.50000000000000000000e-01 1.00000000000000000000e+00 
layer_sizes=8 11 2 
scale_included=0
neurons (num_inputs, activation_function, activation_steepness)=(0, 0, 0.00000000000000000000e+00) (0, 0, 0.00000000000000000000e+00) (0, 0, 0.00000000000000000000e+00) (0, 0, 0.00000000000000000000e+00) (0, 0, 0.00000000000000000000e+00) (0, 0, 0.00000000000000000000e+00) (0, 0, 0.00000000000000000000e+00) (0, 0, 0.00000000000000000000e+00) (8, 4, 5.00000000000000000000e-01) (8, 4, 5.00000000000000000000e-01) (8, 4, 5.00000000000000000000e-01) (8, 4, 5.00000000000000000000e-01) (8, 4, 5.00000000000000000000e-01) (8, 4, 5.00000000000000000000e-01) (8, 4, 5.00000000000000000000e-01) (8, 4, 5.00000000000000000000e-01) (8, 4, 5.00000000000000000000e-01) (8, 4, 5.00000000000000000000e-01) (0, 0, 0.00000000000000000000e+00) (11, 6, 5.00000000000000000000e-01) (0, 6, 0.00000000000000000000e+00) 
connections (connected_to_neuron, weight)=(0, 1.50000000000000000000e+03) (1, 1.50000000000000000000e+03) (2, -1.47429909075144155395e+03) (3, -1.50000000000000000000e+03) (4, 1.50000000000000000000e+03) (5, 1.50000000000000000000e+03) (6, 1.50000000000000000000e+03) (7, 1.07207703149229445216e+02) (0, 2.08048356609162503617e+01) (1, -1.58803973698832265882e+02) (2, 3.98420092163402816965e+00) (3, -9.73796807094397109950e+01) (4, 1.93569253863474273203e+02) (5, -7.91497685301715563355e+01) (6, 3.73458992018002575719e+01) (7, 9.15703690838596315871e+01) (0, -2.49265859716601099194e+01) (1, 4.23327741568412108109e+00) (2, 2.68406111475839415093e+00) (3, -1.88707670977846611038e+01) (4, 8.18205267828372306838e+00) (5, 1.04154350532012198727e+01) (6, 1.26164558210709802921e+01) (7, -7.23288729458069390432e+00) (0, -6.24178137467074591882e+01) (1, 5.01130176973496546111e+01) (2, 1.56291276820505977696e+01) (3, -2.07357056449984291646e+01) (4, 9.11016105256491037778e+00) (5, 2.80773972115071295264e+01) (6, 2.18804708579277154001e+01) (7, -7.06962648978728136484e+00) (0, 8.93165681432305177623e+02) (1, -1.23168289098445666241e+03) (2, 6.63920329307830229482e+02) (3, -1.50000000000000000000e+03) (4, 3.31267047225438318492e+02) (5, 1.50000000000000000000e+03) (6, 1.50000000000000000000e+03) (7, -1.50000000000000000000e+03) (0, -9.68685279896420183832e+02) (1, -7.89518625684860353431e+02) (2, 1.19936886764922587645e+03) (3, -1.50000000000000000000e+03) (4, -6.17977867053106365347e+02) (5, 1.50000000000000000000e+03) (6, 7.39806960117234439167e+02) (7, -5.22897912872309348131e+02) (0, -4.25833071868633965096e+02) (1, 2.33947044026183704091e+02) (2, -5.71671154367888831871e+01) (3, -1.44006252236882232864e+02) (4, 1.98164478321241318781e+02) (5, -4.37023856495653149068e+01) (6, 8.89705698282600963012e+01) (7, 1.70435714792699606335e+01) (0, -8.12417735268667655646e+01) (1, 1.51400612345530731773e+02) (2, -9.20069520033067611564e+00) (3, 1.82129400058643042826e+01) (4, -2.28733242725027025699e+02) (5, 3.20411612717001332840e+01) (6, 1.46875184589735027885e+02) (7, -1.17109192594925971775e+02) (0, 1.73447644801172629059e+02) (1, -4.53872060104509245093e+01) (2, -1.25827835851218328145e+01) (3, 2.05158437994021092265e+01) (4, 1.48960428504984871978e+01) (5, -3.20443326515503059682e+01) (6, -1.28942106500160946325e+02) (7, 1.43140798885063613710e+00) (0, -1.50000000000000000000e+03) (1, 7.61098450351199062425e+02) (2, 5.33673283800190574766e+02) (3, -1.16681980758450936264e+03) (4, 1.22653194495366022920e+02) (5, 1.26658241345992905735e+02) (6, -2.17457700063336091034e+02) (7, 9.42488374398487707140e+01) (8, 1.24655391014536531813e+00) (9, -9.32005132201108921208e-01) (10, -5.73418906921382021125e+00) (11, -1.03513577259392031138e+00) (12, 3.35021692026513162599e-01) (13, 6.67853318811253071630e+00) (14, 1.16394511372332987165e+00) (15, -1.02578309960395275269e+00) (16, 5.18600441930987310357e-01) (17, -2.87413324125237190643e+00) (18, 1.20020036372086996712e-01) 
