FANN_FLO_2.1
num_layers=4
learning_rate=0.700000
connection_rate=1.000000
network_type=0
learning_momentum=0.000000
training_algorithm=2
train_error_function=1
train_stop_function=0
cascade_output_change_fraction=0.010000
quickprop_decay=-0.000100
quickprop_mu=1.750000
rprop_increase_factor=1.200000
rprop_decrease_factor=0.500000
rprop_delta_min=0.000000
rprop_delta_max=50.000000
rprop_delta_zero=0.100000
cascade_output_stagnation_epochs=12
cascade_candidate_change_fraction=0.010000
cascade_candidate_stagnation_epochs=12
cascade_max_out_epochs=150
cascade_max_cand_epochs=150
cascade_num_candidate_groups=2
bit_fail_limit=3.49999999999999977796e-01
cascade_candidate_limit=1.00000000000000000000e+03
cascade_weight_multiplier=4.00000000000000022204e-01
cascade_activation_functions_count=10
cascade_activation_functions=3 5 7 8 10 11 14 15 16 17 
cascade_activation_steepnesses_count=4
cascade_activation_steepnesses=2.50000000000000000000e-01 5.00000000000000000000e-01 7.50000000000000000000e-01 1.00000000000000000000e+00 
layer_sizes=8 15 15 2 
scale_included=0
neurons (num_inputs, activation_function, activation_steepness)=(0, 0, 0.00000000000000000000e+00) (0, 0, 0.00000000000000000000e+00) (0, 0, 0.00000000000000000000e+00) (0, 0, 0.00000000000000000000e+00) (0, 0, 0.00000000000000000000e+00) (0, 0, 0.00000000000000000000e+00) (0, 0, 0.00000000000000000000e+00) (0, 0, 0.00000000000000000000e+00) (8, 4, 5.00000000000000000000e-01) (8, 4, 5.00000000000000000000e-01) (8, 4, 5.00000000000000000000e-01) (8, 4, 5.00000000000000000000e-01) (8, 4, 5.00000000000000000000e-01) (8, 4, 5.00000000000000000000e-01) (8, 4, 5.00000000000000000000e-01) (8, 4, 5.00000000000000000000e-01) (8, 4, 5.00000000000000000000e-01) (8, 4, 5.00000000000000000000e-01) (8, 4, 5.00000000000000000000e-01) (8, 4, 5.00000000000000000000e-01) (8, 4, 5.00000000000000000000e-01) (8, 4, 5.00000000000000000000e-01) (0, 0, 0.00000000000000000000e+00) (15, 4, 5.00000000000000000000e-01) (15, 4, 5.00000000000000000000e-01) (15, 4, 5.00000000000000000000e-01) (15, 4, 5.00000000000000000000e-01) (15, 4, 5.00000000000000000000e-01) (15, 4, 5.00000000000000000000e-01) (15, 4, 5.00000000000000000000e-01) (15, 4, 5.00000000000000000000e-01) (15, 4, 5.00000000000000000000e-01) (15, 4, 5.00000000000000000000e-01) (15, 4, 5.00000000000000000000e-01) (15, 4, 5.00000000000000000000e-01) (15, 4, 5.00000000000000000000e-01) (15, 4, 5.00000000000000000000e-01) (0, 0, 0.00000000000000000000e+00) (15, 6, 5.00000000000000000000e-01) (0, 6, 0.00000000000000000000e+00) 
connections (connected_to_neuron, weight)=(0, 4.94107999356176833317e+02) (1, 6.51669147773523491196e+02) (2, 8.45481206008702770305e+02) (3, 1.13546691131810334241e+02) (4, -7.89106439950602293720e+02) (5, 3.74913894060970953603e+00) (6, -1.24635973298700992018e+03) (7, -2.54057203359133048082e+01) (0, 6.91754753828097477708e+02) (1, 1.34819414624645787626e+03) (2, 4.84088627187076042446e+02) (3, -1.13742679460251451928e+03) (4, 1.49969414989196366150e+03) (5, -8.21355503753684956791e+02) (6, -1.49971191841067411588e+03) (7, -9.90455304242308187668e+01) (0, -5.13274725736478387716e+01) (1, 5.40155046093715327515e+01) (2, 6.23945194919937762279e+00) (3, 1.84202759576099550642e-01) (4, -1.09049854230422610613e+02) (5, 4.29370522902374318619e+00) (6, 6.18757970772094907375e+01) (7, -1.85242418039771883365e+00) (0, -1.88503611940433337679e+01) (1, 2.09601214559684088101e+01) (2, -6.56872584326296493629e+00) (3, 7.26551166974450950420e+01) (4, -1.00548539940332261722e+02) (5, -2.23933413948945130301e+01) (6, 3.03132754450850185890e+01) (7, 9.02988999425530103338e+00) (0, -1.32234666061875088872e+02) (1, -1.07785120265415707763e+03) (2, -1.48666849945739363648e+03) (3, -8.56061509756900704815e+02) (4, -1.46444987141695605715e+03) (5, 1.13812311051092342495e+03) (6, 1.47420356703645552443e+03) (7, 1.18101908937300163416e+03) (0, 1.46692470153514204867e+03) (1, -1.49956890335453431362e+03) (2, 6.07982134948145585440e+02) (3, -1.49856051463991298078e+03) (4, -1.15016957361732193021e+03) (5, 9.15995673007031086854e+02) (6, -2.93734917874437428509e+02) (7, 1.36126548223598001641e+03) (0, -7.71060810952361208592e+01) (1, 6.62250565999010063933e+02) (2, -1.40973745624329285420e+03) (3, -3.54769527955449973433e+02) (4, -4.94340484447006133450e+02) (5, -3.15913344599365643717e+02) (6, 1.18635917229718984345e+03) (7, -6.28699629614350214979e+01) (0, -5.08795331052482779910e+00) (1, -1.15483972750208945257e+01) (2, -4.37640751565001124845e+01) (3, 2.72514463594531015644e+01) (4, 8.84478959185953499400e+01) (5, -3.91072098686843219184e+01) (6, 3.81069469675876382198e+00) (7, -1.91904069756934028135e+01) (0, -3.47879309651766144285e+00) (1, 2.63698379471220523129e+00) (2, -5.78114829454010603627e+00) (3, 4.79175039539228322383e+01) (4, -4.75360280197110682820e+01) (5, 1.24488671414224683076e+01) (6, -1.86662563606162308361e+01) (7, 1.47020925344914825672e+01) (0, -1.28512748461573914938e+03) (1, -1.36408284509111490479e+03) (2, 1.40749931949767392325e+03) (3, 8.07477314142097498006e+02) (4, 5.38170386259418364716e+02) (5, -4.18854897137219438719e+02) (6, 1.09617106914386044991e+03) (7, 3.19782407122646272768e+00) (0, -3.23365908887311377384e+02) (1, -4.73405278501225154741e+02) (2, 1.46875200620018927111e+03) (3, 1.49036370380642438249e+03) (4, 1.50000000000000000000e+03) (5, -1.25876404103233653586e+03) (6, 1.28605514684765466882e+03) (7, 1.98958298933217676563e+01) (0, -1.36998571760498350613e+02) (1, 7.39715827478997454136e+01) (2, -1.16059045833718926133e+02) (3, -4.44122442991179866567e+01) (4, 3.52717483067986222522e+02) (5, 9.31774143858278307562e+01) (6, 6.51080298567050306247e+01) (7, 2.11254628608200505369e+01) (0, 1.31583352015252557976e+03) (1, 1.46785835702251461043e+03) (2, -1.09730088083751570593e+03) (3, -8.54425164071359859008e+02) (4, -1.33592334046091104938e+03) (5, -1.05258311225267607369e+03) (6, 1.37283951852713357766e+03) (7, -7.83816809042827003395e+02) (0, -4.25575105190683586898e+01) (1, 1.49938661911666690685e+03) (2, -1.79293973703823752430e+01) (3, -1.48392683389938747496e+03) (4, -1.38012473669427413370e+03) (5, -1.49947318173460757862e+03) (6, 1.48037282965368581245e+03) (7, 7.37406395536135335078e+01) (8, 1.34597021130461371285e+02) (9, -4.03923512771932792020e+02) (10, 1.28349702547662309371e+03) (11, 1.48550799318206532007e+03) (12, 1.60495110929047584136e+01) (13, -2.22857744194628850209e+02) (14, 1.50000000000000000000e+03) (15, 7.81301619003732525925e+02) (16, 8.65976586219525529486e+02) (17, -1.42428493569039051181e+03) (18, -1.26037121069960835484e+03) (19, -1.90711863698231254283e+00) (20, -1.39161749937258900900e+03) (21, -6.02749022722122163032e+02) (22, 7.14339369942044299933e+01) (8, 6.28840281893658470835e+02) (9, 4.89720541976345273838e+01) (10, -6.86264425599280514234e+01) (11, 3.61733082123912055295e+01) (12, 8.34364632383324874354e+02) (13, 9.88731218806012037703e+01) (14, 1.15685495519170984835e+02) (15, 7.00339793476426166308e+02) (16, -5.96182474895710583951e+02) (17, -6.73093766129332607306e+02) (18, 3.56991264907470394974e+02) (19, -1.02243117114576662630e+02) (20, 1.52285247685700028342e+02) (21, -3.35993481778497615764e+00) (22, -6.54407710356525296191e+00) (8, 1.91026627759417095831e+02) (9, -1.07615088503999913883e+03) (10, 1.32595373584727781235e+02) (11, 1.23904776301335959943e+03) (12, -1.97620728957968537998e+02) (13, 1.11024093472312074482e+03) (14, -1.66481766338303600605e+02) (15, 8.11087259875748713966e+02) (16, -9.27121046668986991790e+02) (17, -3.82444349205678918224e+02) (18, -8.44503774567354525971e+02) (19, 1.16468420298788237233e+03) (20, -1.32169920725035740361e+03) (21, 9.18015938739179432559e+02) (22, -4.39590721819156371453e+00) (8, 4.16439496150891628190e+01) (9, -4.13340132865407952067e+02) (10, -1.50000000000000000000e+03) (11, 1.49591019271635173027e+03) (12, -1.41474485296299064885e+02) (13, 1.04442825824264923540e+03) (14, -4.20816072582809624691e+02) (15, 1.40567736453344241454e+03) (16, -8.99676755117338018408e+01) (17, -1.48205496844873948703e+02) (18, 1.23697287289567475455e+03) (19, -4.34978063083872314110e+02) (20, -1.36997549169952708326e+03) (21, 1.67299464475090559290e+02) (22, -3.89058448491354340604e+01) (8, -2.72498671032993456720e+02) (9, 5.56486963431510162081e+02) (10, 2.07874463412125578543e+02) (11, -1.42999999821186065674e+03) (12, -2.01513771410159883146e+01) (13, 1.75152055613729231709e+02) (14, 1.72736961546041136728e+01) (15, 6.46239888255561709229e+02) (16, 2.50529158684343315144e+02) (17, -2.27595953029924970679e+02) (18, 1.45167096554204908898e+03) (19, -1.65305166989731105787e+02) (20, -1.04902658160369071538e+02) (21, -5.31423196322225180666e+02) (22, 4.45114952945356705527e+01) (8, 7.93275693709076534788e+01) (9, 9.09443796438986851172e+02) (10, 1.50000000000000000000e+03) (11, -6.90100450309230154744e+02) (12, -2.94164466845712873067e+01) (13, -1.39196962083882954175e+03) (14, 2.55485905105767272971e+02) (15, 1.39138588523912858363e+03) (16, -4.99264611791942229502e+02) (17, -1.21852251348090317151e+03) (18, 6.03529349780678217030e+02) (19, -4.05729002854670909528e+02) (20, -2.99871759417985046525e+01) (21, 5.06229817410908538022e+02) (22, 5.59353443610717818046e+02) (8, 1.30411921086820575511e+03) (9, -1.43597953951399222206e+03) (10, -1.50000000000000000000e+03) (11, 6.68664985898464465208e+02) (12, 1.14891058532773536172e+03) (13, 1.09707252662168411916e+03) (14, -2.04139622505489228388e+02) (15, 3.82442964586821176454e+02) (16, 1.42104045737309252218e+03) (17, -3.84844190917421144604e+02) (18, -1.17792081338364027943e+03) (19, 2.48585620085222984699e+02) (20, -1.09069373749776696059e+03) (21, 1.49950697395709198645e+03) (22, -1.38455773247362373013e+02) (8, -9.76517602165686298576e+02) (9, -1.95498160564393458571e+02) (10, 7.75639540724231437707e+02) (11, 1.49856230351145950408e+03) (12, 1.50000000000000000000e+03) (13, -1.20312894966185558587e+03) (14, 7.44257817842712142919e+02) (15, -1.25763151531509879533e+03) (16, -9.11039387238629501553e+02) (17, 1.18958901103626681106e+03) (18, 7.57577268498979719880e+02) (19, -1.08959460009725239615e+03) (20, 8.79684739540131886315e+02) (21, -1.35391526689187048760e+03) (22, -1.61859048581600177386e+02) (8, 1.19089512560016669340e+03) (9, -1.11921702828325933865e+02) (10, -1.50000000000000000000e+03) (11, 8.28084066454943695135e+02) (12, 1.50000000000000000000e+03) (13, 1.32312877005050904700e+03) (14, -1.82651433344796004121e+02) (15, 4.18650133668719377056e+02) (16, -1.09249151579145222968e+03) (17, -7.40225135539956340835e+02) (18, 1.16831391531451504306e+03) (19, -7.63444501644140700591e+02) (20, 4.08337637593582556406e+01) (21, -2.84888136851820661377e+02) (22, -6.78541747534469550374e+01) (8, 7.50132300676822865171e+02) (9, 1.09705582338700355649e+03) (10, 4.63536090766884115055e+02) (11, -1.04654147985129156950e+03) (12, 8.24279996730064453914e+02) (13, -5.29618757315096786442e+02) (14, 2.60114193990118067745e+01) (15, 1.07293297770228514310e+03) (16, 1.12424013715300176841e+02) (17, -4.46455347367634587386e+01) (18, -8.60959426056730990240e+02) (19, 7.20619086280559884017e+01) (20, 5.43318864464235275591e+02) (21, -5.09480436221916420436e+02) (22, -2.02462290441317342982e+01) (8, 1.15184879779987181792e+03) (9, 1.02927101146255336062e+03) (10, 8.50044160902267890378e+02) (11, 6.87081470971887938504e+02) (12, 2.01738419256367791377e+02) (13, 1.20959733213908339167e+03) (14, 2.14435699005563321862e+02) (15, 1.55509040421689263667e+02) (16, -1.06486963065451573129e+03) (17, -1.37564199348485112750e+03) (18, -2.88366518079144043440e+02) (19, -2.15298472587276762624e+02) (20, -1.10390706885479221455e+03) (21, -1.49181272646707634522e+03) (22, 3.43079943127871388242e+02) (8, -1.48635166371534091923e+03) (9, 1.12738861823523029670e+03) (10, -1.50000000000000000000e+03) (11, 8.04793692800869422399e+01) (12, 1.50000000000000000000e+03) (13, -1.49150727713565561316e+03) (14, 1.49346859147636064336e+03) (15, 7.89146141505328614585e+02) (16, 1.49803610485614854042e+03) (17, -5.00424707239085364563e+02) (18, 7.89599509729962846905e+02) (19, 3.82527314495589564558e+02) (20, 9.27000323003625112506e+02) (21, -1.46432858712361735343e+03) (22, 6.64282504567613045765e+01) (8, -1.27897467032568874856e+03) (9, -8.73777163392162265154e+02) (10, 1.50000000000000000000e+03) (11, 9.18296276562953721623e+02) (12, 1.05285388182985934691e+03) (13, -3.17257416225933980058e+02) (14, -1.11350552404734798984e+03) (15, 1.41281529149333232454e+03) (16, 1.47696393197799807240e+03) (17, -1.39935409614477089235e+03) (18, -7.29831535494829381605e+02) (19, 3.54916878845333371828e+02) (20, 1.45399236760130747825e+03) (21, -9.56446363760518352137e+02) (22, 2.69876001240092421085e+02) (8, -5.24071850279006184792e+02) (9, -1.29519799286626835055e+03) (10, 6.04294584115931314727e+01) (11, 6.39301253100337703472e+02) (12, -1.19654472213017470494e+03) (13, 6.88858276652737572476e+02) (14, 1.12309496948555602103e+03) (15, -4.94107176675358800821e+02) (16, 1.50000000000000000000e+03) (17, 6.25110282144619077371e+02) (18, -1.35658753328085344947e+03) (19, -6.85944400669499856349e+01) (20, 1.13550561107017506401e+03) (21, -4.93029632149367046168e+02) (22, -7.37997960298360794695e+02) (23, 2.43359363610588963489e-01) (24, 3.27813861850483001525e-01) (25, 5.17411555897875685694e-01) (26, 7.16311584745167317934e-01) (27, -3.58102041254423464345e-01) (28, -4.38616286233257157701e-01) (29, 3.01968407438577224333e-01) (30, 3.37030494050292284136e-01) (31, 4.07931644714389363138e-02) (32, 8.76165575811204244694e-01) (33, 1.71780639495082154689e-01) (34, 4.55575374002908317639e-01) (35, -6.03219645811803317770e-01) (36, 5.91483412850698830887e-01) (37, -1.71587683358029163827e+00) 
