FANN_FLO_2.1
num_layers=3
learning_rate=0.700000
connection_rate=1.000000
network_type=0
learning_momentum=0.000000
training_algorithm=2
train_error_function=1
train_stop_function=0
cascade_output_change_fraction=0.010000
quickprop_decay=-0.000100
quickprop_mu=1.750000
rprop_increase_factor=1.200000
rprop_decrease_factor=0.500000
rprop_delta_min=0.000000
rprop_delta_max=50.000000
rprop_delta_zero=0.100000
cascade_output_stagnation_epochs=12
cascade_candidate_change_fraction=0.010000
cascade_candidate_stagnation_epochs=12
cascade_max_out_epochs=150
cascade_max_cand_epochs=150
cascade_num_candidate_groups=2
bit_fail_limit=3.49999999999999977796e-01
cascade_candidate_limit=1.00000000000000000000e+03
cascade_weight_multiplier=4.00000000000000022204e-01
cascade_activation_functions_count=10
cascade_activation_functions=3 5 7 8 10 11 14 15 16 17 
cascade_activation_steepnesses_count=4
cascade_activation_steepnesses=2.50000000000000000000e-01 5.00000000000000000000e-01 7.50000000000000000000e-01 1.00000000000000000000e+00 
layer_sizes=8 9 2 
scale_included=0
neurons (num_inputs, activation_function, activation_steepness)=(0, 0, 0.00000000000000000000e+00) (0, 0, 0.00000000000000000000e+00) (0, 0, 0.00000000000000000000e+00) (0, 0, 0.00000000000000000000e+00) (0, 0, 0.00000000000000000000e+00) (0, 0, 0.00000000000000000000e+00) (0, 0, 0.00000000000000000000e+00) (0, 0, 0.00000000000000000000e+00) (8, 4, 5.00000000000000000000e-01) (8, 4, 5.00000000000000000000e-01) (8, 4, 5.00000000000000000000e-01) (8, 4, 5.00000000000000000000e-01) (8, 4, 5.00000000000000000000e-01) (8, 4, 5.00000000000000000000e-01) (8, 4, 5.00000000000000000000e-01) (8, 4, 5.00000000000000000000e-01) (0, 0, 0.00000000000000000000e+00) (9, 6, 5.00000000000000000000e-01) (0, 6, 0.00000000000000000000e+00) 
connections (connected_to_neuron, weight)=(0, 2.90534956995416360215e+00) (1, 2.70666223876390032999e+00) (2, -1.20378491083459593369e+01) (3, 1.81383167744848954328e+01) (4, -3.60318582335692383367e+00) (5, -1.48892604026503132530e+01) (6, -1.40502142951288302442e+01) (7, 5.88556362324892834437e-01) (0, -1.16599604502636182701e+02) (1, -1.66072501004563434890e+02) (2, 2.48315918947537369377e+02) (3, -1.29492381080958409711e+02) (4, 1.24808161670746606831e+01) (5, 3.11944793094124896982e+01) (6, 3.98300775340211075104e+01) (7, 2.82198231257466281008e+00) (0, -3.39811648693166375779e+02) (1, -6.95902146982260774166e+01) (2, -2.22225453502426915975e+02) (3, 5.39779279754914909972e+02) (4, 3.76763471033694770540e+02) (5, -1.50000000000000000000e+03) (6, -1.69524586497991180067e+02) (7, -1.81268686879225725761e+02) (0, -2.84282503691186185790e+01) (1, -2.83032769563864583517e+01) (2, 1.54890716512867463450e+01) (3, -1.42296221365534343306e+01) (4, 2.12693768256240147707e+01) (5, -6.82186159619403476029e+00) (6, 3.89379706803160345885e+01) (7, 3.95024308339413554592e+00) (0, 5.44428709386146010729e+02) (1, -6.77292632565300323222e+01) (2, -9.04879332946206773158e+02) (3, -1.50000000000000000000e+03) (4, -4.04721420972578187047e+02) (5, 1.50000000000000000000e+03) (6, -4.30269992176175207987e+02) (7, -2.92413050600609892626e+02) (0, 5.61721393726857876061e+00) (1, 1.87048631990239840661e+02) (2, -8.47058493733825486061e+01) (3, -5.22509618051754785029e+01) (4, 2.98073259530932773487e+02) (5, -4.96161954114942744809e+01) (6, -6.64561445988481978020e+01) (7, -1.09741922688369228922e+02) (0, 2.53114895404946224744e+02) (1, 9.74709883884920031960e+02) (2, -6.90197946853492453556e+02) (3, -1.50000000000000000000e+03) (4, 1.96525158439973353097e+02) (5, 3.90667481850343733640e+02) (6, 1.48720943569462633604e+03) (7, -2.62079153879276304906e+02) (0, -3.85986082869895330560e+00) (1, 2.36333174466424011939e+00) (2, -3.76989937904779992550e+00) (3, -3.57698502148681707347e-01) (4, 6.81958243781241968406e+00) (5, -8.17397441723633266797e-01) (6, 4.91321849793863041356e+00) (7, -3.92838359356494626340e+00) (8, 3.57585652191264280475e+00) (9, 1.00896824027516451849e+00) (10, -2.51651535682378746372e+00) (11, 1.53674343643217459210e+00) (12, 1.16853884236866036872e+01) (13, 1.56081016239914505128e+00) (14, 1.81602542114194531742e+00) (15, -7.16277196936576743269e+00) (16, -1.53583919884459829674e+00) 
