FANN_FLO_2.1
num_layers=3
learning_rate=0.700000
connection_rate=1.000000
network_type=0
learning_momentum=0.000000
training_algorithm=2
train_error_function=1
train_stop_function=0
cascade_output_change_fraction=0.010000
quickprop_decay=-0.000100
quickprop_mu=1.750000
rprop_increase_factor=1.200000
rprop_decrease_factor=0.500000
rprop_delta_min=0.000000
rprop_delta_max=50.000000
rprop_delta_zero=0.100000
cascade_output_stagnation_epochs=12
cascade_candidate_change_fraction=0.010000
cascade_candidate_stagnation_epochs=12
cascade_max_out_epochs=150
cascade_max_cand_epochs=150
cascade_num_candidate_groups=2
bit_fail_limit=3.49999999999999977796e-01
cascade_candidate_limit=1.00000000000000000000e+03
cascade_weight_multiplier=4.00000000000000022204e-01
cascade_activation_functions_count=10
cascade_activation_functions=3 5 7 8 10 11 14 15 16 17 
cascade_activation_steepnesses_count=4
cascade_activation_steepnesses=2.50000000000000000000e-01 5.00000000000000000000e-01 7.50000000000000000000e-01 1.00000000000000000000e+00 
layer_sizes=8 16 2 
scale_included=0
neurons (num_inputs, activation_function, activation_steepness)=(0, 0, 0.00000000000000000000e+00) (0, 0, 0.00000000000000000000e+00) (0, 0, 0.00000000000000000000e+00) (0, 0, 0.00000000000000000000e+00) (0, 0, 0.00000000000000000000e+00) (0, 0, 0.00000000000000000000e+00) (0, 0, 0.00000000000000000000e+00) (0, 0, 0.00000000000000000000e+00) (8, 4, 5.00000000000000000000e-01) (8, 4, 5.00000000000000000000e-01) (8, 4, 5.00000000000000000000e-01) (8, 4, 5.00000000000000000000e-01) (8, 4, 5.00000000000000000000e-01) (8, 4, 5.00000000000000000000e-01) (8, 4, 5.00000000000000000000e-01) (8, 4, 5.00000000000000000000e-01) (8, 4, 5.00000000000000000000e-01) (8, 4, 5.00000000000000000000e-01) (8, 4, 5.00000000000000000000e-01) (8, 4, 5.00000000000000000000e-01) (8, 4, 5.00000000000000000000e-01) (8, 4, 5.00000000000000000000e-01) (8, 4, 5.00000000000000000000e-01) (0, 0, 0.00000000000000000000e+00) (16, 6, 5.00000000000000000000e-01) (0, 6, 0.00000000000000000000e+00) 
connections (connected_to_neuron, weight)=(0, 4.98420038621065542017e-01) (1, 3.08360120456168562697e+00) (2, 4.81608242708490585926e+00) (3, 5.96898037159557803832e-01) (4, -1.26876592390267362020e+01) (5, -2.66778777055764271253e+00) (6, -4.63187927457278325605e-01) (7, -2.12969421364347377690e+00) (0, -3.34565359113009419545e+00) (1, 9.51981208918938470731e+00) (2, 1.11618548734110785148e+01) (3, -6.66628204601164320309e+00) (4, -7.19331261871111422579e+01) (5, -1.73304273647283650917e+01) (6, -5.44367326125188277786e+00) (7, 1.34416495778144238216e+01) (0, -2.45227582038230707440e+02) (1, -1.57606097982192835616e+02) (2, -2.55361417694203737483e+02) (3, -1.60487237353380223226e+01) (4, 2.69688638179240285808e+02) (5, -1.17717931712003405664e+03) (6, -4.07350461044058704374e+02) (7, 3.58695538552174753022e+02) (0, -2.34808682779875255164e+01) (1, 2.25827907073695968165e+01) (2, 1.80391051282931549338e+01) (3, -1.84484571806613963929e+01) (4, 3.21112543551706908218e+00) (5, -9.20192055669157960018e-01) (6, -1.55335325690524950204e+00) (7, -2.40751900493127779512e+00) (0, 1.11528616328820277204e+02) (1, 1.72303385798948710317e+02) (2, 5.67127179216002446083e+02) (3, 6.90201759399241950632e+02) (4, 4.57716757563775047402e+01) (5, 2.57845364764685825776e+02) (6, -6.45311968690714252261e+02) (7, -7.73039128743445303371e+02) (0, -5.21474920872900238322e+00) (1, -1.30980425926229013811e+01) (2, -5.01430639456127309472e+01) (3, 1.73199953906685607308e+02) (4, -3.99078441937535046691e+01) (5, -7.66536969468082133972e+02) (6, -4.17809236296939232602e+01) (7, 9.15853727002561726067e+01) (0, -2.27627007240115119657e+02) (1, -1.94741810525652738306e+02) (2, -4.97915912762713475104e+01) (3, 1.29313417086869151262e+02) (4, -3.00395505694788425899e+02) (5, -1.01068387824935541630e+03) (6, 2.11345509453144501322e+02) (7, 2.29143791019067037951e+02) (0, -5.20304661202560154720e+01) (1, 5.19652790445541512554e+01) (2, -1.95221608607407937086e+00) (3, 4.75850270001777104767e+01) (4, 1.13305116713588116539e+01) (5, -1.46247203404034024743e+02) (6, -3.43188578355758906469e+01) (7, 6.41966532648446541742e+00) (0, 4.99224324568364124843e+02) (1, -1.35167196382458223525e+03) (2, 9.53531144255794174569e+02) (3, 1.21080485629379518286e+03) (4, -9.52568352070395235387e+02) (5, -7.65714377918899572251e+02) (6, -8.04137020848346679713e+01) (7, -9.12137638208370049142e+02) (0, -5.25955181550961697212e+02) (1, -3.27197940543450670248e+02) (2, 1.50000000000000000000e+03) (3, 1.50000000000000000000e+03) (4, 1.32318319492127579906e+03) (5, -6.93654479049986434802e+02) (6, -9.67281426285695033584e+02) (7, -1.44722861121756659486e+03) (0, -8.19474779408347231424e+00) (1, 1.97988556245396445377e+01) (2, -1.32091883641532721327e+01) (3, 9.59251201039521994574e+00) (4, 1.59614000688501334047e+00) (5, -1.64333203947810844170e+01) (6, 1.08580966409936507944e+01) (7, -1.40849246259615554777e+01) (0, -8.65038493414849227747e+01) (1, -1.55727800029966463313e+01) (2, -5.96778689714102554831e+01) (3, 1.41724721905540338440e+01) (4, 1.56124528170386838610e+02) (5, -3.15896291288531188002e+02) (6, -5.93598003939437077747e+01) (7, 1.49177793186245786217e+01) (0, -2.43681765494342073453e+02) (1, -1.00469615974016767268e+03) (2, 1.23604443323269833854e+03) (3, 9.50354307607132568592e+02) (4, -1.20199545647144361737e+02) (5, 6.01280177987931324424e+02) (6, -1.50000000000000000000e+03) (7, -9.30385272568419281924e+02) (0, 4.65301122727663685197e+00) (1, 5.65582330690295886910e+00) (2, -1.82983783992924187167e+00) (3, 9.80785632364129078553e+00) (4, -4.69447407799475957546e+00) (5, -7.28690261552056028904e+00) (6, 3.26408688478564967816e-01) (7, -1.00000017881639262640e+01) (0, 1.35422421672436371409e+02) (1, -4.51807846510952799690e+01) (2, -1.33984268473382059028e+02) (3, 7.79188660702556390447e+00) (4, -6.85856064078118663474e+01) (5, 4.77710001139935513947e+01) (6, -6.71333652758785177639e+01) (7, 2.80651761737626834758e+01) (8, -9.97218184734402512959e+00) (9, 3.27205653074373481459e+00) (10, 1.37263766587527840102e+01) (11, 2.25725234409632147248e+00) (12, -6.00557986539974386631e-01) (13, 1.77566634558470992644e+00) (14, 1.91932828808416289235e+00) (15, -2.38403716219530092957e+00) (16, 2.86167402471031095956e+00) (17, 3.17883105334437976452e-01) (18, -5.57057452375525219423e+00) (19, -1.41202697262807088663e+01) (20, 6.92737232467575458905e-01) (21, 9.12526352172794830153e+00) (22, 1.51287521594031137973e+00) (23, -3.28462007244107290216e-01) 
