FANN_FLO_2.1
num_layers=3
learning_rate=0.700000
connection_rate=1.000000
network_type=0
learning_momentum=0.000000
training_algorithm=2
train_error_function=1
train_stop_function=0
cascade_output_change_fraction=0.010000
quickprop_decay=-0.000100
quickprop_mu=1.750000
rprop_increase_factor=1.200000
rprop_decrease_factor=0.500000
rprop_delta_min=0.000000
rprop_delta_max=50.000000
rprop_delta_zero=0.100000
cascade_output_stagnation_epochs=12
cascade_candidate_change_fraction=0.010000
cascade_candidate_stagnation_epochs=12
cascade_max_out_epochs=150
cascade_max_cand_epochs=150
cascade_num_candidate_groups=2
bit_fail_limit=3.49999999999999977796e-01
cascade_candidate_limit=1.00000000000000000000e+03
cascade_weight_multiplier=4.00000000000000022204e-01
cascade_activation_functions_count=10
cascade_activation_functions=3 5 7 8 10 11 14 15 16 17 
cascade_activation_steepnesses_count=4
cascade_activation_steepnesses=2.50000000000000000000e-01 5.00000000000000000000e-01 7.50000000000000000000e-01 1.00000000000000000000e+00 
layer_sizes=8 16 2 
scale_included=0
neurons (num_inputs, activation_function, activation_steepness)=(0, 0, 0.00000000000000000000e+00) (0, 0, 0.00000000000000000000e+00) (0, 0, 0.00000000000000000000e+00) (0, 0, 0.00000000000000000000e+00) (0, 0, 0.00000000000000000000e+00) (0, 0, 0.00000000000000000000e+00) (0, 0, 0.00000000000000000000e+00) (0, 0, 0.00000000000000000000e+00) (8, 4, 5.00000000000000000000e-01) (8, 4, 5.00000000000000000000e-01) (8, 4, 5.00000000000000000000e-01) (8, 4, 5.00000000000000000000e-01) (8, 4, 5.00000000000000000000e-01) (8, 4, 5.00000000000000000000e-01) (8, 4, 5.00000000000000000000e-01) (8, 4, 5.00000000000000000000e-01) (8, 4, 5.00000000000000000000e-01) (8, 4, 5.00000000000000000000e-01) (8, 4, 5.00000000000000000000e-01) (8, 4, 5.00000000000000000000e-01) (8, 4, 5.00000000000000000000e-01) (8, 4, 5.00000000000000000000e-01) (8, 4, 5.00000000000000000000e-01) (0, 0, 0.00000000000000000000e+00) (16, 6, 5.00000000000000000000e-01) (0, 6, 0.00000000000000000000e+00) 
connections (connected_to_neuron, weight)=(0, 1.38209923525644217079e+03) (1, 1.47511398684461528319e+03) (2, -8.31204123656141177889e+02) (3, -1.27745736243614760497e+03) (4, -1.50000000000000000000e+03) (5, -1.50000000000000000000e+03) (6, -8.93421985432099290847e+02) (7, -6.16259839293190339049e+02) (0, -4.75423764399973123318e+01) (1, 3.21611877807465134538e+02) (2, -1.15517789012535581605e+03) (3, 1.31668557332579143804e+03) (4, 1.50000000000000000000e+03) (5, 5.96447355893993631071e+02) (6, -9.14564052737019892447e+01) (7, -2.35444567585917184260e+02) (0, 1.72279833119170278088e+00) (1, -9.57974035202246021470e+00) (2, -1.72915376285718819238e-01) (3, 2.58259632775433001228e+00) (4, -6.80654966099023184256e+00) (5, 1.91795405380728611888e+00) (6, -1.91550945845789932775e+00) (7, 3.98399582930980322715e+00) (0, 1.97135658040825987314e+01) (1, 5.68985888787593694360e+01) (2, 1.31147508592477564093e+01) (3, -4.11448736667681984613e+01) (4, -9.33391470888432337460e+01) (5, -1.77987328935617128423e+00) (6, -6.68219702187973396690e+00) (7, 1.20157375935544195045e+01) (0, -6.19679429842083440150e+00) (1, 4.47327080177014302365e+00) (2, 3.89250520726387065906e+01) (3, 1.09413949246500816770e+01) (4, -5.24109922301088033691e+01) (5, 2.21884535807435554489e+01) (6, 3.10622628058194694134e+00) (7, -2.79770297556847182818e+01) (0, -3.44978598868253101273e+01) (1, -2.15090570422760521296e+02) (2, 4.12928800459730496186e+02) (3, 2.06713759492555517738e+01) (4, 8.64601139876803728157e+01) (5, -4.05753290632684127104e+01) (6, -1.04060305000641491802e+02) (7, -5.39432772939272897617e+00) (0, 7.72967997958706476425e+00) (1, -3.19018475067533380241e+01) (2, 7.54080386714605577225e+00) (3, -2.37052262147582304408e+01) (4, 1.06950344336519727051e+01) (5, -9.26674974140214686713e+01) (6, -6.19307122222432671066e+00) (7, 2.92484697572468270721e+01) (0, -9.14050889773727526233e+00) (1, -1.30315353263165323305e+00) (2, -2.31659479026561569981e+01) (3, -1.70532785859519897542e+01) (4, 4.24412598807690777392e+00) (5, 1.80006017645069746891e+01) (6, 1.32735479264344213846e+01) (7, -1.60291493600503609507e+00) (0, -1.45589464624408094551e+02) (1, -1.19318745878240565617e+03) (2, 1.23989690527847841395e+02) (3, 3.66871224388903783620e+02) (4, 1.50000000000000000000e+03) (5, -1.00462881189049397790e+02) (6, -4.46506530694986452090e+02) (7, 1.90343193566069658118e+02) (0, 4.23787616151887050364e+02) (1, -4.69429542829079196053e+02) (2, -2.60328986251986577827e+02) (3, 4.24662759100842322368e+02) (4, 1.49996920956610119902e+03) (5, 1.50000000000000000000e+03) (6, 2.33292634152763724842e+02) (7, 1.68013024474054731172e+02) (0, -1.50000000000000000000e+03) (1, -1.50000000000000000000e+03) (2, -1.48545913693594229699e+03) (3, -1.47139347114797010363e+03) (4, 1.48443495299677601906e+03) (5, 1.50000000000000000000e+03) (6, -1.50000000000000000000e+03) (7, 5.57269010096345368765e+02) (0, -4.71763495273281364462e+02) (1, -2.85123785083793848116e+02) (2, -2.17707045867322612764e+01) (3, 2.06734002305508823838e+02) (4, 1.32855210658078476627e+02) (5, 1.50000000000000000000e+03) (6, -4.75818153389172096013e+02) (7, -1.74512419116139398056e+02) (0, -8.69884186759691591107e-01) (1, 2.48862552879015513918e-01) (2, 7.42114425102125530032e+00) (3, -3.18951280641854406639e+00) (4, 1.20871129528474270387e+01) (5, 7.92587750899809595495e+00) (6, 3.63997114484940942347e+00) (7, -4.71602702252597527632e+00) (0, -1.33057394567236855210e+01) (1, 6.63590014377613979235e+00) (2, 1.90558057850870390948e-02) (3, -3.09501844035376771913e+00) (4, -8.22404264094056181023e+00) (5, -2.30542268055708561292e+01) (6, 6.96249002100068636878e+00) (7, 4.11132766569470042839e+00) (0, -8.51402634835101146393e+00) (1, -3.17521822941450260203e+00) (2, -1.55879545814108571022e+01) (3, 3.85906956329125172545e+00) (4, -1.30218657557137920122e+01) (5, 2.63549584758192416700e+01) (6, 2.95484447544949846431e+00) (7, -7.46772486767517307271e+00) (8, -1.69013203111572796189e+00) (9, 3.29460784670093120852e+00) (10, -5.35688937756822980418e+00) (11, 6.24376563541847140471e+00) (12, -2.61542073765006399810e+01) (13, 1.48728258948933866890e+00) (14, 4.15213015126176099301e+00) (15, -1.22579415104707241113e+01) (16, 4.01667396977885893250e+00) (17, 2.98149672518668751309e+00) (18, 1.86356299161336447234e+00) (19, 2.18312010213599450026e+00) (20, -8.59946038730175743581e+00) (21, -6.47867464824597849571e+00) (22, 1.71616917657777214856e+01) (23, -3.86166718814500997681e+00) 
