FANN_FLO_2.1
num_layers=3
learning_rate=0.700000
connection_rate=1.000000
network_type=0
learning_momentum=0.000000
training_algorithm=2
train_error_function=1
train_stop_function=0
cascade_output_change_fraction=0.010000
quickprop_decay=-0.000100
quickprop_mu=1.750000
rprop_increase_factor=1.200000
rprop_decrease_factor=0.500000
rprop_delta_min=0.000000
rprop_delta_max=50.000000
rprop_delta_zero=0.100000
cascade_output_stagnation_epochs=12
cascade_candidate_change_fraction=0.010000
cascade_candidate_stagnation_epochs=12
cascade_max_out_epochs=150
cascade_max_cand_epochs=150
cascade_num_candidate_groups=2
bit_fail_limit=3.49999999999999977796e-01
cascade_candidate_limit=1.00000000000000000000e+03
cascade_weight_multiplier=4.00000000000000022204e-01
cascade_activation_functions_count=10
cascade_activation_functions=3 5 7 8 10 11 14 15 16 17 
cascade_activation_steepnesses_count=4
cascade_activation_steepnesses=2.50000000000000000000e-01 5.00000000000000000000e-01 7.50000000000000000000e-01 1.00000000000000000000e+00 
layer_sizes=8 9 2 
scale_included=0
neurons (num_inputs, activation_function, activation_steepness)=(0, 0, 0.00000000000000000000e+00) (0, 0, 0.00000000000000000000e+00) (0, 0, 0.00000000000000000000e+00) (0, 0, 0.00000000000000000000e+00) (0, 0, 0.00000000000000000000e+00) (0, 0, 0.00000000000000000000e+00) (0, 0, 0.00000000000000000000e+00) (0, 0, 0.00000000000000000000e+00) (8, 4, 5.00000000000000000000e-01) (8, 4, 5.00000000000000000000e-01) (8, 4, 5.00000000000000000000e-01) (8, 4, 5.00000000000000000000e-01) (8, 4, 5.00000000000000000000e-01) (8, 4, 5.00000000000000000000e-01) (8, 4, 5.00000000000000000000e-01) (8, 4, 5.00000000000000000000e-01) (0, 0, 0.00000000000000000000e+00) (9, 6, 5.00000000000000000000e-01) (0, 6, 0.00000000000000000000e+00) 
connections (connected_to_neuron, weight)=(0, 2.44121455954281344702e+02) (1, -2.81152488270847520369e+01) (2, 4.90581336206093894248e+01) (3, 2.85790180665758910550e+01) (4, 6.15456551857685667528e+01) (5, -2.60946609848112643704e+02) (6, -1.15484942711607857291e+02) (7, -2.31158538945410292342e+01) (0, 4.10336885328318601296e+02) (1, 5.94199064104203785064e+02) (2, -1.21933969077007532178e+03) (3, 7.08267567965433386235e+02) (4, -2.96569012974859901988e+02) (5, -1.19414402562533297214e+02) (6, -8.23957282635807132465e+02) (7, 6.62634586981293409735e+01) (0, -1.50000000000000000000e+03) (1, -1.50000000000000000000e+03) (2, -1.50000000000000000000e+03) (3, -1.50000000000000000000e+03) (4, -1.50000000000000000000e+03) (5, -1.49979195824418775373e+03) (6, -7.69246093944586732505e+02) (7, 5.92310602169137609962e+02) (0, -1.79794075556113597258e+00) (1, 3.94237986472223100876e+00) (2, 3.09627536453197693689e+00) (3, -2.67760559912417184236e+00) (4, -6.71293079550375537679e+00) (5, 1.87790802576033777349e+00) (6, 1.13344519979592051051e+00) (7, -4.62302446816553858078e-01) (0, -1.50000000000000000000e+03) (1, -1.50000000000000000000e+03) (2, -1.50000000000000000000e+03) (3, -1.50000000000000000000e+03) (4, -1.50000000000000000000e+03) (5, -1.49979195824418775373e+03) (6, -1.49982191464085053667e+03) (7, 5.84957471576974707972e+00) (0, -3.22150541284036473488e-01) (1, 8.13431038463893862911e+00) (2, 7.35698692291647393660e+00) (3, -9.51514061927688459264e+00) (4, -2.05673664974687397944e+01) (5, 8.36920722114578552464e+00) (6, -2.19756986976091805985e+00) (7, 2.53505956090399386937e+00) (0, 5.47904426077896502534e+01) (1, -5.04944722497135032313e+01) (2, 1.73557340896709376921e+02) (3, 1.55670797726823565199e+02) (4, -7.32006435329039248927e+01) (5, -1.83560693897335909242e+02) (6, -5.08925168059755321792e+01) (7, -3.87929016424817874054e+00) (0, -1.50000000000000000000e+03) (1, -1.50000000000000000000e+03) (2, -1.50000000000000000000e+03) (3, -1.50000000000000000000e+03) (4, -1.50000000000000000000e+03) (5, -1.49979195824418775373e+03) (6, -1.49982191464085053667e+03) (7, 2.84221407302130728567e+01) (8, 9.77691875886311456689e-01) (9, -1.79797728528801781245e+00) (10, 3.22786340161008100669e-01) (11, -5.38944336614869445867e+00) (12, 1.50000000000000000000e+03) (13, 2.89796588722181613917e+00) (14, 7.01198907437047602720e-01) (15, 1.50000000000000000000e+03) (16, 4.37472678903797429495e-01) 
