FANN_FLO_2.1
num_layers=3
learning_rate=0.700000
connection_rate=1.000000
network_type=0
learning_momentum=0.000000
training_algorithm=2
train_error_function=1
train_stop_function=0
cascade_output_change_fraction=0.010000
quickprop_decay=-0.000100
quickprop_mu=1.750000
rprop_increase_factor=1.200000
rprop_decrease_factor=0.500000
rprop_delta_min=0.000000
rprop_delta_max=50.000000
rprop_delta_zero=0.100000
cascade_output_stagnation_epochs=12
cascade_candidate_change_fraction=0.010000
cascade_candidate_stagnation_epochs=12
cascade_max_out_epochs=150
cascade_max_cand_epochs=150
cascade_num_candidate_groups=2
bit_fail_limit=3.49999999999999977796e-01
cascade_candidate_limit=1.00000000000000000000e+03
cascade_weight_multiplier=4.00000000000000022204e-01
cascade_activation_functions_count=10
cascade_activation_functions=3 5 7 8 10 11 14 15 16 17 
cascade_activation_steepnesses_count=4
cascade_activation_steepnesses=2.50000000000000000000e-01 5.00000000000000000000e-01 7.50000000000000000000e-01 1.00000000000000000000e+00 
layer_sizes=8 16 2 
scale_included=0
neurons (num_inputs, activation_function, activation_steepness)=(0, 0, 0.00000000000000000000e+00) (0, 0, 0.00000000000000000000e+00) (0, 0, 0.00000000000000000000e+00) (0, 0, 0.00000000000000000000e+00) (0, 0, 0.00000000000000000000e+00) (0, 0, 0.00000000000000000000e+00) (0, 0, 0.00000000000000000000e+00) (0, 0, 0.00000000000000000000e+00) (8, 4, 5.00000000000000000000e-01) (8, 4, 5.00000000000000000000e-01) (8, 4, 5.00000000000000000000e-01) (8, 4, 5.00000000000000000000e-01) (8, 4, 5.00000000000000000000e-01) (8, 4, 5.00000000000000000000e-01) (8, 4, 5.00000000000000000000e-01) (8, 4, 5.00000000000000000000e-01) (8, 4, 5.00000000000000000000e-01) (8, 4, 5.00000000000000000000e-01) (8, 4, 5.00000000000000000000e-01) (8, 4, 5.00000000000000000000e-01) (8, 4, 5.00000000000000000000e-01) (8, 4, 5.00000000000000000000e-01) (8, 4, 5.00000000000000000000e-01) (0, 0, 0.00000000000000000000e+00) (16, 6, 5.00000000000000000000e-01) (0, 6, 0.00000000000000000000e+00) 
connections (connected_to_neuron, weight)=(0, -1.47680596593568770913e+03) (1, 8.15511410843148382810e+02) (2, 5.67999963142526240745e+01) (3, -2.40897847344294262939e+02) (4, 7.95675392059765727026e+01) (5, 5.61160754081583732500e+01) (6, 1.50000000000000000000e+03) (7, 6.42963407168147256243e+01) (0, -3.32737671325024164659e+00) (1, -9.21702933900672327638e+00) (2, -4.94271657144381393323e+00) (3, -6.12229620951190600664e+00) (4, 1.75653291121431687216e-01) (5, 1.85555392905705418549e+00) (6, -5.61102053570910364044e+00) (7, -7.16191056860087937874e-02) (0, -5.14882692293982245246e+02) (1, 4.52482009320731549451e+02) (2, -1.50000000000000000000e+03) (3, -5.27349104945229019137e-01) (4, 2.31296946674048086834e+02) (5, 1.98502075411276905470e+02) (6, 1.87729713062260429979e+02) (7, 6.47058563043451897556e+01) (0, -9.43827006032388560186e+00) (1, -1.03254827533517612892e+02) (2, 1.51986120026091953150e+02) (3, -1.14327608385987105066e+01) (4, -1.12086125388241715228e+01) (5, 1.68152017592390521372e+01) (6, -3.44639256720575346549e+01) (7, -3.95766928290508568367e+00) (0, 1.26352952146803971800e+01) (1, -1.39411611650543303398e+01) (2, 4.19127889138365450350e+00) (3, 1.50898771821432386986e+01) (4, -3.03355366182455954416e+00) (5, 4.16863881302905081583e+00) (6, -3.71125512101342351912e+01) (7, -2.35438579128765024251e+00) (0, -1.50000000000000000000e+03) (1, -1.50000000000000000000e+03) (2, -1.50000000000000000000e+03) (3, -1.09295153886147159028e+03) (4, -1.50000000000000000000e+03) (5, 1.50000000000000000000e+03) (6, -1.50000000000000000000e+03) (7, -1.79025073419564989763e+02) (0, 7.70462564996823662256e+00) (1, 2.08149349381005510651e+00) (2, -1.75909046335405214734e+01) (3, -8.60598383308763743571e+01) (4, -2.65996770979872039220e+01) (5, -7.05956434959216139191e+00) (6, 6.53530319167733324548e+01) (7, 5.13445993647869780574e+00) (0, -7.73306108457639362896e-01) (1, 4.50015729241736295307e+00) (2, -3.82375951977099814982e+00) (3, -4.81309173035974957600e+00) (4, -2.81059497091263299495e+00) (5, -1.22132666000068490497e+00) (6, 1.24212047371372857896e+01) (7, -1.45617743466383076090e+00) (0, -1.03251079797180089770e+01) (1, -1.57376643705210605972e+00) (2, -1.56031798003498334282e+00) (3, -4.40879320977159316897e+00) (4, -4.09013957321477850115e+00) (5, 1.08403326849715231361e+01) (6, 3.44152312915311764385e+00) (7, -5.81048376573180647142e+00) (0, -3.93677179412234723443e+00) (1, -2.58409636878613913069e+00) (2, -1.29795250630009539883e+00) (3, -3.60896491428284127423e+00) (4, 1.11200500893433340543e+00) (5, 1.28057513237207687418e+00) (6, -4.17828653789162718368e+00) (7, 5.72530846702764151246e+00) (0, -1.98450468486251807576e+01) (1, -3.56376465909071740157e+01) (2, 4.37266777947487828015e+00) (3, -1.67111344502609640017e+01) (4, -4.67052440909297406080e+00) (5, 7.25445125298414428272e+00) (6, 2.17715400616197989336e+01) (7, 3.40199274725626743532e+00) (0, -1.50000000000000000000e+03) (1, 4.70456441758671701336e+02) (2, -6.46513188562515672686e+00) (3, -1.23995999447068570021e+02) (4, 8.49788411563626908674e+01) (5, 8.14059785934495905302e-01) (6, 1.50000000000000000000e+03) (7, -1.43278923578707008346e+02) (0, 3.02154381502468140752e+02) (1, -4.09877862257468109419e+02) (2, -1.50000000000000000000e+03) (3, -3.69069420201255240954e+02) (4, 5.99393692643663030140e+02) (5, 1.14920747850614574759e+02) (6, -1.50000000000000000000e+03) (7, 2.38923882809716374709e+01) (0, -1.15258132992535582417e+01) (1, 1.70741145430445975251e+01) (2, -2.81388844638919355390e+00) (3, 3.05272684091908033110e+01) (4, 3.24315517746435322266e+00) (5, 3.62612474377234894618e+00) (6, -7.79991488932188303806e+00) (7, -1.15475056032307072940e+01) (0, -5.30844888932216321109e+01) (1, 3.42257198240265338995e+01) (2, 3.89621668457524208407e+02) (3, -5.60054321208958754141e+01) (4, -1.03901529524750515066e+02) (5, 5.38179009390079841069e+01) (6, 1.50000000000000000000e+03) (7, -2.68708220619040332622e+02) (8, 4.41006099563242415229e+00) (9, 5.26335336690489441480e+01) (10, -3.71377836217360712823e+00) (11, -2.12326776523114313378e+00) (12, 8.25979617736214066781e+00) (13, -4.60904344473643519109e+01) (14, -3.95444659323365366177e+00) (15, -8.15385263298153617484e+00) (16, 2.02658297113882461815e+01) (17, -7.15021947468105523171e+00) (18, -1.41839654459374973072e+01) (19, 1.64616735784497469908e+00) (20, -3.11974131400833787353e+00) (21, -4.67865103535538207069e+00) (22, 4.02133294125641693739e+00) (23, 2.27018614929133644154e+00) 
