FANN_FLO_2.1
num_layers=3
learning_rate=0.700000
connection_rate=1.000000
network_type=0
learning_momentum=0.000000
training_algorithm=2
train_error_function=1
train_stop_function=0
cascade_output_change_fraction=0.010000
quickprop_decay=-0.000100
quickprop_mu=1.750000
rprop_increase_factor=1.200000
rprop_decrease_factor=0.500000
rprop_delta_min=0.000000
rprop_delta_max=50.000000
rprop_delta_zero=0.100000
cascade_output_stagnation_epochs=12
cascade_candidate_change_fraction=0.010000
cascade_candidate_stagnation_epochs=12
cascade_max_out_epochs=150
cascade_max_cand_epochs=150
cascade_num_candidate_groups=2
bit_fail_limit=3.49999999999999977796e-01
cascade_candidate_limit=1.00000000000000000000e+03
cascade_weight_multiplier=4.00000000000000022204e-01
cascade_activation_functions_count=10
cascade_activation_functions=3 5 7 8 10 11 14 15 16 17 
cascade_activation_steepnesses_count=4
cascade_activation_steepnesses=2.50000000000000000000e-01 5.00000000000000000000e-01 7.50000000000000000000e-01 1.00000000000000000000e+00 
layer_sizes=8 9 2 
scale_included=0
neurons (num_inputs, activation_function, activation_steepness)=(0, 0, 0.00000000000000000000e+00) (0, 0, 0.00000000000000000000e+00) (0, 0, 0.00000000000000000000e+00) (0, 0, 0.00000000000000000000e+00) (0, 0, 0.00000000000000000000e+00) (0, 0, 0.00000000000000000000e+00) (0, 0, 0.00000000000000000000e+00) (0, 0, 0.00000000000000000000e+00) (8, 4, 5.00000000000000000000e-01) (8, 4, 5.00000000000000000000e-01) (8, 4, 5.00000000000000000000e-01) (8, 4, 5.00000000000000000000e-01) (8, 4, 5.00000000000000000000e-01) (8, 4, 5.00000000000000000000e-01) (8, 4, 5.00000000000000000000e-01) (8, 4, 5.00000000000000000000e-01) (0, 0, 0.00000000000000000000e+00) (9, 6, 5.00000000000000000000e-01) (0, 6, 0.00000000000000000000e+00) 
connections (connected_to_neuron, weight)=(0, -2.06226419019320786674e+02) (1, -1.49662224129040237131e+03) (2, 4.61536028051324024091e+02) (3, 1.50000000000000000000e+03) (4, 7.69271759606147895738e+01) (5, -5.41200765801360716978e+02) (6, 3.98093954310224432902e+02) (7, -2.09492899218189080557e+02) (0, 5.16646426361272915528e+02) (1, -3.49508540227716252957e+02) (2, 1.49978778498070664682e+03) (3, -5.43199239345905837695e+01) (4, -1.05754401846791984099e+03) (5, -4.96013490017253559472e+02) (6, -2.67344799685970826886e+02) (7, -7.51751765873403996920e+02) (0, -1.22458239567710993612e+01) (1, 4.65420907839136432926e+00) (2, -9.34635753372887911894e+00) (3, 7.93536471711972790644e+00) (4, 3.45304628269677778007e+01) (5, -1.49963899492493677457e+01) (6, -7.56841483842033202478e-01) (7, -1.05434416027469719523e+01) (0, 1.53575310007820206692e+02) (1, -4.61595779331052881389e+02) (2, -4.45024261777451499711e+02) (3, -8.18258940409942283623e+01) (4, 7.99923056744176733446e+02) (5, -6.82559914137290888902e+02) (6, 4.69322404010976867994e+02) (7, -2.52645618956179333736e+02) (0, 1.48410742865593601891e+03) (1, 4.80277971566953169713e+02) (2, 2.27912464339634823318e+02) (3, -1.45012764906458369296e+03) (4, 1.35534815533868595594e+03) (5, -5.64842195932408344561e+02) (6, -1.54082064939757856337e+02) (7, -1.50000000000000000000e+03) (0, -1.64169690534537373594e+01) (1, 7.67027240595681725210e+00) (2, -2.14435735392839035285e+01) (3, 1.17934214202035114738e+01) (4, 4.69881586838234213133e+01) (5, -1.98118231844378698270e+01) (6, 1.87845476885080953089e+00) (7, -1.04623307592787941900e+01) (0, -5.08626810510780060781e+01) (1, 6.86851044232158045588e+01) (2, 1.77126381776512609179e+01) (3, -4.17172692182217019763e+01) (4, -7.26490831342640586143e+00) (5, 2.99767860356406590228e+00) (6, -6.62971649408489298594e+01) (7, 3.31734485602547906069e+01) (0, -1.15169203893812067463e+02) (1, -2.07450603425813788760e+01) (2, 4.87029727080579954990e-01) (3, 9.56608662364428710134e+01) (4, 1.54391571338691218074e+01) (5, -1.63523974647639320779e+01) (6, 6.65637476369427787404e+01) (7, -1.20731623892868196180e+01) (8, 2.43345876178747655416e+00) (9, 7.10268406164940580005e-01) (10, -6.79239570016586302614e+00) (11, -2.35494989453095371346e+00) (12, -8.65312136779339713399e-01) (13, 7.59566204868485339574e+00) (14, -4.93386213843553966818e-01) (15, -2.90691571958563832467e+00) (16, 2.29767173370876792715e-01) 
