FANN_FLO_2.1
num_layers=3
learning_rate=0.700000
connection_rate=1.000000
network_type=0
learning_momentum=0.000000
training_algorithm=2
train_error_function=1
train_stop_function=0
cascade_output_change_fraction=0.010000
quickprop_decay=-0.000100
quickprop_mu=1.750000
rprop_increase_factor=1.200000
rprop_decrease_factor=0.500000
rprop_delta_min=0.000000
rprop_delta_max=50.000000
rprop_delta_zero=0.100000
cascade_output_stagnation_epochs=12
cascade_candidate_change_fraction=0.010000
cascade_candidate_stagnation_epochs=12
cascade_max_out_epochs=150
cascade_max_cand_epochs=150
cascade_num_candidate_groups=2
bit_fail_limit=3.49999999999999977796e-01
cascade_candidate_limit=1.00000000000000000000e+03
cascade_weight_multiplier=4.00000000000000022204e-01
cascade_activation_functions_count=10
cascade_activation_functions=3 5 7 8 10 11 14 15 16 17 
cascade_activation_steepnesses_count=4
cascade_activation_steepnesses=2.50000000000000000000e-01 5.00000000000000000000e-01 7.50000000000000000000e-01 1.00000000000000000000e+00 
layer_sizes=8 16 2 
scale_included=0
neurons (num_inputs, activation_function, activation_steepness)=(0, 0, 0.00000000000000000000e+00) (0, 0, 0.00000000000000000000e+00) (0, 0, 0.00000000000000000000e+00) (0, 0, 0.00000000000000000000e+00) (0, 0, 0.00000000000000000000e+00) (0, 0, 0.00000000000000000000e+00) (0, 0, 0.00000000000000000000e+00) (0, 0, 0.00000000000000000000e+00) (8, 4, 5.00000000000000000000e-01) (8, 4, 5.00000000000000000000e-01) (8, 4, 5.00000000000000000000e-01) (8, 4, 5.00000000000000000000e-01) (8, 4, 5.00000000000000000000e-01) (8, 4, 5.00000000000000000000e-01) (8, 4, 5.00000000000000000000e-01) (8, 4, 5.00000000000000000000e-01) (8, 4, 5.00000000000000000000e-01) (8, 4, 5.00000000000000000000e-01) (8, 4, 5.00000000000000000000e-01) (8, 4, 5.00000000000000000000e-01) (8, 4, 5.00000000000000000000e-01) (8, 4, 5.00000000000000000000e-01) (8, 4, 5.00000000000000000000e-01) (0, 0, 0.00000000000000000000e+00) (16, 6, 5.00000000000000000000e-01) (0, 6, 0.00000000000000000000e+00) 
connections (connected_to_neuron, weight)=(0, 2.87180918938938987139e+02) (1, -1.82529777502314345838e+02) (2, 1.79097725055572567499e+02) (3, -3.04951648659781426431e+02) (4, -3.18072025061890162334e+00) (5, -1.18343598264297639844e+02) (6, -2.24120042587765794906e+02) (7, 8.76681177726751457158e+01) (0, 1.65403232886579907301e+01) (1, 3.23371372206900042912e+00) (2, -1.55833823394525801120e+01) (3, 5.38570571619413218656e+00) (4, 5.91190399537134858576e+00) (5, -5.69065722263498301459e+01) (6, 6.72149123982858895943e+01) (7, -3.36567361835271983139e+00) (0, -1.19648517557112040777e+03) (1, -1.49072476024191178112e+03) (2, -1.46499537440775225150e+03) (3, 1.50000000000000000000e+03) (4, 1.50000000000000000000e+03) (5, 1.50000000000000000000e+03) (6, -5.44052560274462734924e+02) (7, 3.15807247103039003377e+02) (0, 6.22279951704739957563e+01) (1, -7.66979044046505435972e+01) (2, 2.95559489876017984500e+01) (3, -8.40374824274368847909e+00) (4, 3.08038283759036772835e+01) (5, -1.16772992819123522246e+00) (6, -4.11143502993212877072e+01) (7, 3.10472237921814153694e+00) (0, 1.23471737061632580890e+02) (1, -1.07741998642702910161e+02) (2, 2.22248071212958961951e+01) (3, -5.09161048092772077212e+01) (4, 1.51904307255720461001e+01) (5, 3.57258935919338753706e+01) (6, -6.59875700792176189680e+01) (7, -1.07868493645293490601e+01) (0, -8.95098732829939436328e+00) (1, 1.99329669960671651552e+01) (2, 7.75733745276045194572e+00) (3, -2.29523266657028663928e+01) (4, 8.67510626070922619135e+00) (5, 2.76500046594454005344e+01) (6, -1.22048463835292650970e+01) (7, -3.80218942041455454373e+00) (0, -1.06720150743763542778e+03) (1, 7.59959204099816076905e+01) (2, -7.97405586796815100570e+02) (3, 1.00621724325872753525e+03) (4, -6.84020272785151064454e+02) (5, 1.50000000000000000000e+03) (6, 5.11955085478689284173e+02) (7, 3.74118586010239297934e+01) (0, 1.07397980033418005696e+00) (1, 3.85902177297923065780e+00) (2, -5.94972418746107134524e+00) (3, -1.68149557461431733429e+01) (4, 1.28100116865127322541e+01) (5, -6.88019535354052891307e+00) (6, 4.74104533380094395056e+00) (7, -7.43813974522316789795e-01) (0, -7.31912468857997282612e+01) (1, -7.21001646357271930299e-01) (2, -1.20307262922716859066e+02) (3, 1.85408770758869337669e+02) (4, -7.12056385420227542227e+01) (5, 2.45992528980369185021e+00) (6, 8.21623874372228755192e+01) (7, 7.96095631235705170070e+00) (0, -1.50000000000000000000e+03) (1, -1.50000000000000000000e+03) (2, -1.50000000000000000000e+03) (3, -1.17891928118165083106e+03) (4, 1.30313377405945720966e+03) (5, 1.50000000000000000000e+03) (6, 3.89190112400218708899e+02) (7, 3.59214731507891656292e+02) (0, -5.48490517400276331728e+01) (1, 2.80732312374534975774e+00) (2, -2.03163592857353336285e+02) (3, 1.54006267454651492699e+02) (4, -3.00462289254813050832e+01) (5, -1.34754803035833731428e+02) (6, 5.88847446364778264183e+01) (7, 3.94167086768487777704e+01) (0, 5.04160209548542947999e+00) (1, 3.18313966036768958290e+00) (2, -2.03104334544812070718e+00) (3, -2.24279692084149218090e+01) (4, 1.35301493496622811108e+01) (5, -6.01993540836536222827e+00) (6, 5.49228152175520456524e+00) (7, -4.87963908439638593961e+00) (0, -1.50000000000000000000e+03) (1, -1.50000000000000000000e+03) (2, -1.50000000000000000000e+03) (3, -6.14697462648385567263e+02) (4, 1.50000000000000000000e+03) (5, 1.50000000000000000000e+03) (6, -1.04088525732819130099e+03) (7, -5.04610333834683672194e+02) (0, 1.40786852803404713086e+03) (1, -1.36341551999921193783e+03) (2, 9.32394225350218903259e+02) (3, -1.44494478692033590050e+03) (4, -1.12637840691270866955e+03) (5, -1.50000000000000000000e+03) (6, -1.48963339491366718903e+03) (7, 1.32783953331076850191e+03) (0, -1.50000000000000000000e+03) (1, -1.42281279364663009801e+03) (2, -1.20655011433512959229e+03) (3, 1.50000000000000000000e+03) (4, 1.50000000000000000000e+03) (5, 1.50000000000000000000e+03) (6, -1.34641662820412716428e+03) (7, 9.41552792297483961192e+02) (8, -8.94369375582019898729e-01) (9, -1.85137586523765707014e+00) (10, -6.07083970693547136932e-01) (11, 2.12846908904741960455e+00) (12, 3.86822576716132804364e+00) (13, 4.43499398371238928718e+00) (14, -3.97561906991880942286e+00) (15, 7.79782155048051972557e+00) (16, 1.26525269357653868951e+00) (17, -3.15582365557508293108e+00) (18, -1.55291377083075632370e+00) (19, -8.43770250574992530801e+00) (20, -3.26455864923713789949e+00) (21, 8.36998182343529295579e-01) (22, -7.74550003205230597203e-01) (23, 5.48002246815816995706e-01) 
