FANN_FLO_2.1
num_layers=3
learning_rate=0.700000
connection_rate=1.000000
network_type=0
learning_momentum=0.000000
training_algorithm=2
train_error_function=1
train_stop_function=0
cascade_output_change_fraction=0.010000
quickprop_decay=-0.000100
quickprop_mu=1.750000
rprop_increase_factor=1.200000
rprop_decrease_factor=0.500000
rprop_delta_min=0.000000
rprop_delta_max=50.000000
rprop_delta_zero=0.100000
cascade_output_stagnation_epochs=12
cascade_candidate_change_fraction=0.010000
cascade_candidate_stagnation_epochs=12
cascade_max_out_epochs=150
cascade_max_cand_epochs=150
cascade_num_candidate_groups=2
bit_fail_limit=3.49999999999999977796e-01
cascade_candidate_limit=1.00000000000000000000e+03
cascade_weight_multiplier=4.00000000000000022204e-01
cascade_activation_functions_count=10
cascade_activation_functions=3 5 7 8 10 11 14 15 16 17 
cascade_activation_steepnesses_count=4
cascade_activation_steepnesses=2.50000000000000000000e-01 5.00000000000000000000e-01 7.50000000000000000000e-01 1.00000000000000000000e+00 
layer_sizes=8 15 2 
scale_included=0
neurons (num_inputs, activation_function, activation_steepness)=(0, 0, 0.00000000000000000000e+00) (0, 0, 0.00000000000000000000e+00) (0, 0, 0.00000000000000000000e+00) (0, 0, 0.00000000000000000000e+00) (0, 0, 0.00000000000000000000e+00) (0, 0, 0.00000000000000000000e+00) (0, 0, 0.00000000000000000000e+00) (0, 0, 0.00000000000000000000e+00) (8, 4, 5.00000000000000000000e-01) (8, 4, 5.00000000000000000000e-01) (8, 4, 5.00000000000000000000e-01) (8, 4, 5.00000000000000000000e-01) (8, 4, 5.00000000000000000000e-01) (8, 4, 5.00000000000000000000e-01) (8, 4, 5.00000000000000000000e-01) (8, 4, 5.00000000000000000000e-01) (8, 4, 5.00000000000000000000e-01) (8, 4, 5.00000000000000000000e-01) (8, 4, 5.00000000000000000000e-01) (8, 4, 5.00000000000000000000e-01) (8, 4, 5.00000000000000000000e-01) (8, 4, 5.00000000000000000000e-01) (0, 0, 0.00000000000000000000e+00) (15, 6, 5.00000000000000000000e-01) (0, 6, 0.00000000000000000000e+00) 
connections (connected_to_neuron, weight)=(0, -1.85994541161775899241e+01) (1, 3.76894377188786734223e+02) (2, -4.53076641501796302691e+02) (3, -3.97938669317672008674e+02) (4, 5.20302978120927832606e+02) (5, 1.29045366563502921053e+03) (6, -5.24497646148807575628e+02) (7, 1.26241293584464727928e+02) (0, -1.90389462959358041871e+02) (1, -2.68023261350011296145e+02) (2, 6.97259245254985444262e+02) (3, 3.55965695825196178248e+02) (4, -6.67246188667186970633e+02) (5, 3.49206324940248578059e+02) (6, -4.63160782401034964550e+02) (7, 6.73015834318043459916e+01) (0, 7.52342393755661831278e+00) (1, -3.16686547119110539672e-01) (2, -4.57603054503099038186e+00) (3, -5.89695224932186867761e+00) (4, 5.07725431533944338014e+00) (5, 8.66144965029357827291e+00) (6, -6.19348608337952288849e+00) (7, -3.88426097636647593703e+00) (0, 3.29829906121956906162e+00) (1, -2.15115164272782477539e+00) (2, 3.45949566158378862823e+00) (3, -2.12860567614034934536e+01) (4, 1.26005877445458498443e+01) (5, -1.26117028764652561179e+00) (6, -6.37097397653847785648e+00) (7, 2.85636532612126226027e+00) (0, 1.81167749286557437927e+01) (1, 2.69528778868688505099e+02) (2, -1.49946919919326614945e+03) (3, -8.57768324056595133698e+02) (4, -1.49559311765707525410e+03) (5, 4.91120301386945300237e+02) (6, 1.43426021513803584639e+03) (7, -2.50909575771769766561e+02) (0, -1.27412908739390307034e+01) (1, 6.50965431824577080988e+01) (2, -5.61783397588613055973e+01) (3, 1.16585937346867467568e+01) (4, 1.37219185819211233479e+01) (5, -1.86874005927295911533e+02) (6, -3.38090118897711349177e+01) (7, 4.77455387516625293642e+01) (0, -3.90809174279279081254e-01) (1, 4.29920265238131271701e+00) (2, 3.82154485941127530779e+00) (3, -3.25322913998967955251e+00) (4, -1.17346739614214001790e+01) (5, 1.47083875527546013018e+01) (6, -1.13460876464851097012e+01) (7, 1.72567451809754524028e+00) (0, 1.05195360020963502024e+01) (1, -5.60449728339142705380e+00) (2, -6.68237265534203039863e+00) (3, -2.60588980194100301446e+01) (4, 4.21268766083281320789e+01) (5, 1.13256617970300617060e+01) (6, 3.89489577209415127612e+00) (7, -1.79393977332215150966e+01) (0, 4.47792140297055318854e+00) (1, -2.09087925450563671959e+00) (2, 5.33568913373664788224e+00) (3, -3.60468415018619614543e+00) (4, 1.95863894571615553275e+01) (5, -8.08544619462322700087e+00) (6, -4.80437969231939021597e+00) (7, -7.00202058057694909365e+00) (0, 1.27677548316517412985e+01) (1, -4.99398449968104998220e+01) (2, 1.88130532457907726496e+01) (3, 4.22226359708609706445e+01) (4, 2.38794045421716191413e+02) (5, -2.96145343236614237981e+01) (6, -4.22134778448848493326e+01) (7, -5.34923596669436491879e+01) (0, 2.26896916200069824754e+01) (1, -2.54063394545933611823e+01) (2, 7.35875974451033521007e+00) (3, -3.41444063848960226437e+01) (4, 1.35933549646411027112e+01) (5, -6.01028744645642731825e+00) (6, -1.05569134366158436933e+01) (7, 1.09055146486102874093e+01) (0, 1.02441952400780351695e+01) (1, -4.03010240143137110636e+01) (2, 6.76558054021311505721e+00) (3, -1.31801040224998722294e+00) (4, 9.12492342356169139350e+00) (5, 3.03948730124032735489e+01) (6, 2.22319735359758041682e+00) (7, 8.00197743792777638205e-01) (0, 2.76559202268525666568e+02) (1, -5.55578977317765861699e+02) (2, -2.59432168320692937868e+02) (3, -2.04087569861959252648e+01) (4, 4.78627255313918396951e+02) (5, 1.50000000000000000000e+03) (6, -7.38387811040715291711e+02) (7, 1.32502162058880372797e+02) (0, -2.50522902440200745389e+01) (1, 9.47235649000629109651e+00) (2, -1.58047650430974613300e+01) (3, 9.87176094555401206776e+00) (4, -4.61850646524278332095e+01) (5, 3.05584869584585767655e+01) (6, 1.91660102445289446393e+01) (7, 1.78688115246875085518e+01) (8, 2.97456223009121023537e+00) (9, 2.23054658596989874297e+00) (10, 1.20867242112577688573e+01) (11, -1.44602370361421606049e+01) (12, 3.85345512037616799716e+01) (13, 7.76339052038933608024e-01) (14, -4.71743634799830058313e+00) (15, -6.38052854824164228376e+00) (16, 6.52883758617901310828e+00) (17, -1.88429591271091911864e+00) (18, 1.23679196547999943334e+01) (19, -8.37290635016410256242e+00) (20, 7.63600565876009529376e+00) (21, 3.04388440188685782672e+00) (22, -3.85097759338886236335e+00) 
