FANN_FLO_2.1
num_layers=3
learning_rate=0.700000
connection_rate=1.000000
network_type=0
learning_momentum=0.000000
training_algorithm=2
train_error_function=1
train_stop_function=0
cascade_output_change_fraction=0.010000
quickprop_decay=-0.000100
quickprop_mu=1.750000
rprop_increase_factor=1.200000
rprop_decrease_factor=0.500000
rprop_delta_min=0.000000
rprop_delta_max=50.000000
rprop_delta_zero=0.100000
cascade_output_stagnation_epochs=12
cascade_candidate_change_fraction=0.010000
cascade_candidate_stagnation_epochs=12
cascade_max_out_epochs=150
cascade_max_cand_epochs=150
cascade_num_candidate_groups=2
bit_fail_limit=3.49999999999999977796e-01
cascade_candidate_limit=1.00000000000000000000e+03
cascade_weight_multiplier=4.00000000000000022204e-01
cascade_activation_functions_count=10
cascade_activation_functions=3 5 7 8 10 11 14 15 16 17 
cascade_activation_steepnesses_count=4
cascade_activation_steepnesses=2.50000000000000000000e-01 5.00000000000000000000e-01 7.50000000000000000000e-01 1.00000000000000000000e+00 
layer_sizes=8 11 2 
scale_included=0
neurons (num_inputs, activation_function, activation_steepness)=(0, 0, 0.00000000000000000000e+00) (0, 0, 0.00000000000000000000e+00) (0, 0, 0.00000000000000000000e+00) (0, 0, 0.00000000000000000000e+00) (0, 0, 0.00000000000000000000e+00) (0, 0, 0.00000000000000000000e+00) (0, 0, 0.00000000000000000000e+00) (0, 0, 0.00000000000000000000e+00) (8, 4, 5.00000000000000000000e-01) (8, 4, 5.00000000000000000000e-01) (8, 4, 5.00000000000000000000e-01) (8, 4, 5.00000000000000000000e-01) (8, 4, 5.00000000000000000000e-01) (8, 4, 5.00000000000000000000e-01) (8, 4, 5.00000000000000000000e-01) (8, 4, 5.00000000000000000000e-01) (8, 4, 5.00000000000000000000e-01) (8, 4, 5.00000000000000000000e-01) (0, 0, 0.00000000000000000000e+00) (11, 6, 5.00000000000000000000e-01) (0, 6, 0.00000000000000000000e+00) 
connections (connected_to_neuron, weight)=(0, 2.86609427605783251281e+00) (1, -5.50371319928268505350e+01) (2, 4.67334599899682530122e+01) (3, 1.30086780808830795308e+01) (4, -3.23189560510487012834e+01) (5, 4.33357883737178681827e+01) (6, -7.38422511484339683108e+00) (7, 6.44413157852333728925e+00) (0, -3.75203702469328206348e+01) (1, -7.75157865490538284803e+01) (2, 7.33998364993851168947e+01) (3, 4.80528965323577992308e+01) (4, -5.31128390239743879420e+01) (5, 7.33447625801945974899e+01) (6, 1.77558214569307359909e+01) (7, -3.06624403459853533960e+00) (0, 6.18392823906228716879e+00) (1, -8.47945790103247887259e-01) (2, -1.10355756859361564537e+00) (3, -2.44225669062973871348e+00) (4, -1.09239230160842248907e+00) (5, 9.43218973795266868443e-01) (6, -2.77341137054772168824e+00) (7, 5.13741404937883783255e-01) (0, -1.66170905247697149321e+01) (1, 7.33689273933614138912e+00) (2, 2.17195176249909955857e+01) (3, -1.19312559698659246266e+01) (4, 1.56604374380972899417e+00) (5, 2.55717878006236798427e+00) (6, -2.13640398285264199174e+00) (7, -2.43616720659155072681e+00) (0, 1.33384344882540881372e+03) (1, -5.42604702764208923327e+02) (2, -8.48194372334727972884e+02) (3, -1.49845688441795505241e+03) (4, -4.36139974538246747215e+02) (5, 7.51842396557105871580e+02) (6, 3.51694422213452071446e+01) (7, -6.19488852737866750431e+02) (0, -3.78508789666795519846e-01) (1, 4.60934311853323475106e+00) (2, 3.42951929861771205310e+01) (3, -3.05250235950429811282e+01) (4, 1.13194980972819503329e+00) (5, 6.67403891704386786898e+00) (6, -1.50142717251508202025e+01) (7, -9.40556597826240237126e-01) (0, 3.65485880125787048200e+01) (1, 8.31715809924342508452e+00) (2, -8.82402996376880288665e+00) (3, 4.20673418579922842042e+00) (4, -1.08317175341432694324e+01) (5, 2.29239464823796845749e+00) (6, -2.50633519360022347655e+01) (7, -1.49616702404811992011e+01) (0, -1.64818886920999148060e+02) (1, -2.60879283380775461865e+01) (2, -1.50000000000000000000e+03) (3, 4.12009289074210187209e+02) (4, -1.18045131510744226944e+03) (5, -1.50000000000000000000e+03) (6, 6.38621371886743190771e+02) (7, 1.73733843508000688871e+02) (0, -4.55758435350319217605e+01) (1, 1.73757170112144905261e+01) (2, 1.87717841072337741082e+01) (3, 8.51514551322487989182e+01) (4, -3.83745180764526381267e+01) (5, 4.40574688622195012044e+01) (6, 1.18438082169410563438e+01) (7, -2.66883356381810976643e+01) (0, -6.08423794332427974041e+02) (1, -5.06235763257633308854e+01) (2, 3.50172707842064241390e+01) (3, 1.04600773429637953882e+02) (4, -4.05345468616325717903e+02) (5, 3.40822470985119025499e+02) (6, 2.38634340691688294100e+02) (7, -7.26874363920638586478e+01) (8, 1.28109350621263384795e+01) (9, -1.22117623612681871492e+01) (10, -6.41291226953769033514e+00) (11, -3.77839434319200639933e+00) (12, -2.34156592189849277474e+00) (13, 3.16595698479381182366e+00) (14, 1.69131636706574042250e+01) (15, 3.96794551718623855763e+00) (16, 6.99149259500975617243e+00) (17, -6.62553232738980923955e+00) (18, -4.62918336603778612925e+00) 
