FANN_FLO_2.1
num_layers=3
learning_rate=0.700000
connection_rate=1.000000
network_type=0
learning_momentum=0.000000
training_algorithm=2
train_error_function=1
train_stop_function=0
cascade_output_change_fraction=0.010000
quickprop_decay=-0.000100
quickprop_mu=1.750000
rprop_increase_factor=1.200000
rprop_decrease_factor=0.500000
rprop_delta_min=0.000000
rprop_delta_max=50.000000
rprop_delta_zero=0.100000
cascade_output_stagnation_epochs=12
cascade_candidate_change_fraction=0.010000
cascade_candidate_stagnation_epochs=12
cascade_max_out_epochs=150
cascade_max_cand_epochs=150
cascade_num_candidate_groups=2
bit_fail_limit=3.49999999999999977796e-01
cascade_candidate_limit=1.00000000000000000000e+03
cascade_weight_multiplier=4.00000000000000022204e-01
cascade_activation_functions_count=10
cascade_activation_functions=3 5 7 8 10 11 14 15 16 17 
cascade_activation_steepnesses_count=4
cascade_activation_steepnesses=2.50000000000000000000e-01 5.00000000000000000000e-01 7.50000000000000000000e-01 1.00000000000000000000e+00 
layer_sizes=8 11 2 
scale_included=0
neurons (num_inputs, activation_function, activation_steepness)=(0, 0, 0.00000000000000000000e+00) (0, 0, 0.00000000000000000000e+00) (0, 0, 0.00000000000000000000e+00) (0, 0, 0.00000000000000000000e+00) (0, 0, 0.00000000000000000000e+00) (0, 0, 0.00000000000000000000e+00) (0, 0, 0.00000000000000000000e+00) (0, 0, 0.00000000000000000000e+00) (8, 4, 5.00000000000000000000e-01) (8, 4, 5.00000000000000000000e-01) (8, 4, 5.00000000000000000000e-01) (8, 4, 5.00000000000000000000e-01) (8, 4, 5.00000000000000000000e-01) (8, 4, 5.00000000000000000000e-01) (8, 4, 5.00000000000000000000e-01) (8, 4, 5.00000000000000000000e-01) (8, 4, 5.00000000000000000000e-01) (8, 4, 5.00000000000000000000e-01) (0, 0, 0.00000000000000000000e+00) (11, 6, 5.00000000000000000000e-01) (0, 6, 0.00000000000000000000e+00) 
connections (connected_to_neuron, weight)=(0, -8.46949400193044823482e+01) (1, 1.14991944924291388475e+02) (2, 4.22519874354411172135e+02) (3, -8.94387512442784782252e+01) (4, 1.44972898565189757392e+03) (5, -1.35490409827837947887e+03) (6, 1.50000000000000000000e+03) (7, -1.49999981999999295113e+03) (0, -2.38255927041064063943e+00) (1, 1.05903661717947361609e+01) (2, -1.52333797847003236114e+01) (3, 3.54385591862242765870e+00) (4, -1.52670475951717783403e+01) (5, 3.08777777566568722989e+00) (6, 1.50561958068120791410e+01) (7, 5.43083028333054773640e-01) (0, 9.52443691620820516164e+01) (1, -1.25458551932806813056e+02) (2, 1.57158472672436346329e+02) (3, -1.24664069402551760390e+02) (4, -2.44838177288719663238e+02) (5, 2.24236788449699787407e+02) (6, -1.24837852768965298367e+01) (7, 8.92944926319174037133e+00) (0, 2.37084771866281954544e+02) (1, 2.24322437228655843455e+02) (2, -3.75966008074492989977e+01) (3, -8.18422477612113823398e+01) (4, -1.22632072864297416714e+01) (5, -2.32799092397234410612e+01) (6, -1.49542914690694829005e+02) (7, 2.01313367949646782051e+00) (0, 6.28610407937000825740e+00) (1, -7.26380152732853723307e+00) (2, -2.04710251618628440440e+01) (3, -3.52983018138292976573e+01) (4, 3.18954545544399650225e+01) (5, -2.05549457139137494721e+01) (6, 8.88879670613553329872e+00) (7, 6.23821533064907551847e+00) (0, 3.24204013718853275350e+02) (1, 1.19363521835447556896e+02) (2, -7.60705600940897141982e+01) (3, -1.42319777338582724724e+02) (4, 4.77301523158922407220e+01) (5, -2.05327817938107770601e+01) (6, 6.25159915269575776620e+01) (7, -1.06609565805972081876e+01) (0, -1.50000000000000000000e+03) (1, -1.17872036085354579882e+03) (2, -2.38909684060166796371e+02) (3, 5.46178438129755818409e+02) (4, 6.05417077211900505063e+01) (5, 1.71502200187446675272e+02) (6, 4.20487817998459888713e+02) (7, -3.54133619647405373243e+00) (0, 2.13142851433568703001e+00) (1, -3.08925318815320260057e+00) (2, -4.99826026169817581035e+01) (3, -6.20558261179616934555e+01) (4, 6.92677922583260965439e+01) (5, -4.01937188256754183158e+01) (6, -3.24452873440734723687e+00) (7, 1.60821199746634206917e+01) (0, 4.21125807268266783012e+00) (1, -6.33264494541661626670e+00) (2, -2.31835725306872149076e+01) (3, -2.99694565879516972018e+01) (4, 2.41061305633246547586e+01) (5, -1.83570879043794263907e+01) (6, 1.50287840889246666620e+01) (7, 4.79942166837089256859e+00) (0, -7.26091876762764520947e+00) (1, 1.69275305914731575285e+02) (2, -2.36919055109294220074e+02) (3, -3.09774648543653619015e+00) (4, -6.47826831077339306830e+01) (5, 1.99472812613608532217e+01) (6, 1.00362405127301300922e+02) (7, 1.77907114053725265990e+01) (8, 4.81804335877377254427e-01) (9, -3.12846998311561685924e+00) (10, 7.12510683084129237130e-01) (11, 2.26963584627110837033e+00) (12, 1.06109500041912188095e+01) (13, -1.69765453480623662585e+00) (14, 2.07223813038360793470e+00) (15, -5.90500368703474443066e+00) (16, -9.24888202014403049134e+00) (17, 1.89918794861731643486e+00) (18, -2.84940939385120328708e-01) 
