FANN_FLO_2.1
num_layers=3
learning_rate=0.700000
connection_rate=1.000000
network_type=0
learning_momentum=0.000000
training_algorithm=2
train_error_function=1
train_stop_function=0
cascade_output_change_fraction=0.010000
quickprop_decay=-0.000100
quickprop_mu=1.750000
rprop_increase_factor=1.200000
rprop_decrease_factor=0.500000
rprop_delta_min=0.000000
rprop_delta_max=50.000000
rprop_delta_zero=0.100000
cascade_output_stagnation_epochs=12
cascade_candidate_change_fraction=0.010000
cascade_candidate_stagnation_epochs=12
cascade_max_out_epochs=150
cascade_max_cand_epochs=150
cascade_num_candidate_groups=2
bit_fail_limit=3.49999999999999977796e-01
cascade_candidate_limit=1.00000000000000000000e+03
cascade_weight_multiplier=4.00000000000000022204e-01
cascade_activation_functions_count=10
cascade_activation_functions=3 5 7 8 10 11 14 15 16 17 
cascade_activation_steepnesses_count=4
cascade_activation_steepnesses=2.50000000000000000000e-01 5.00000000000000000000e-01 7.50000000000000000000e-01 1.00000000000000000000e+00 
layer_sizes=8 8 2 
scale_included=0
neurons (num_inputs, activation_function, activation_steepness)=(0, 0, 0.00000000000000000000e+00) (0, 0, 0.00000000000000000000e+00) (0, 0, 0.00000000000000000000e+00) (0, 0, 0.00000000000000000000e+00) (0, 0, 0.00000000000000000000e+00) (0, 0, 0.00000000000000000000e+00) (0, 0, 0.00000000000000000000e+00) (0, 0, 0.00000000000000000000e+00) (8, 4, 5.00000000000000000000e-01) (8, 4, 5.00000000000000000000e-01) (8, 4, 5.00000000000000000000e-01) (8, 4, 5.00000000000000000000e-01) (8, 4, 5.00000000000000000000e-01) (8, 4, 5.00000000000000000000e-01) (8, 4, 5.00000000000000000000e-01) (0, 0, 0.00000000000000000000e+00) (8, 6, 5.00000000000000000000e-01) (0, 6, 0.00000000000000000000e+00) 
connections (connected_to_neuron, weight)=(0, -1.50000000000000000000e+03) (1, -1.50000000000000000000e+03) (2, -1.50000000000000000000e+03) (3, -5.26134451222849634178e+02) (4, 8.53589038080750128756e+02) (5, 1.38292791422753452935e+03) (6, -1.50000000000000000000e+03) (7, -2.85209272232723719753e+02) (0, -1.06651728521464264077e+01) (1, 3.78552773281144894213e+01) (2, 8.17053889914605813161e-01) (3, -3.20993103216180131199e+01) (4, -2.01679057163775823369e+01) (5, 8.77343203069901811375e+00) (6, 4.41275484496315826277e+01) (7, -1.72657573173423486423e+01) (0, -1.50000000000000000000e+03) (1, -1.50000000000000000000e+03) (2, -1.49459999935626979095e+03) (3, -1.49791751975912438866e+03) (4, 1.42630103459802353427e+03) (5, 1.39176941546927969284e+03) (6, 2.78365866169511491535e+02) (7, 1.50000000000000000000e+03) (0, 1.80807529980799834846e+01) (1, 1.43712910867861126007e+02) (2, -8.91265766877116334399e+01) (3, 1.05103712481247519861e+01) (4, -1.11596940894216402285e+02) (5, 9.23740928548791018216e+00) (6, 1.93087365421302799007e+01) (7, -2.07028054444230207309e+01) (0, -7.21062048359878389192e+01) (1, 7.01649652742796714477e+00) (2, 4.37476731287696694039e+01) (3, 5.82018528746430785503e+00) (4, -2.78838691102813136524e+01) (5, 3.86008615699132633381e+01) (6, 1.20733490633701698869e+01) (7, -2.20666599980521702662e+01) (0, -1.49805599961376196916e+03) (1, -9.78110289116327294323e+02) (2, 4.91448095246908280842e+02) (3, 1.49748342905271738346e+03) (4, 2.15800358574326224925e+02) (5, -7.25499231690780987947e+01) (6, -3.64621622046306697484e+02) (7, 5.00383942491736831926e+02) (0, 1.50000000000000000000e+03) (1, 1.50000000000000000000e+03) (2, 1.50000000000000000000e+03) (3, 1.50000000000000000000e+03) (4, 1.49745205916984673422e+03) (5, 1.13541980142559964406e+03) (6, 1.50000000000000000000e+03) (7, -5.61683531496249315751e+02) (8, -2.78683425641771786996e-01) (9, -2.42940431997567163336e+00) (10, -6.05793233824264421017e-01) (11, -9.28821369914712202664e-01) (12, 1.71241438448722882448e+00) (13, -2.36733185834909054535e+00) (14, 5.27205516696503839746e-01) (15, 2.28060023394012212350e+00) 
