FANN_FLO_2.1
num_layers=3
learning_rate=0.700000
connection_rate=1.000000
network_type=0
learning_momentum=0.000000
training_algorithm=2
train_error_function=1
train_stop_function=0
cascade_output_change_fraction=0.010000
quickprop_decay=-0.000100
quickprop_mu=1.750000
rprop_increase_factor=1.200000
rprop_decrease_factor=0.500000
rprop_delta_min=0.000000
rprop_delta_max=50.000000
rprop_delta_zero=0.100000
cascade_output_stagnation_epochs=12
cascade_candidate_change_fraction=0.010000
cascade_candidate_stagnation_epochs=12
cascade_max_out_epochs=150
cascade_max_cand_epochs=150
cascade_num_candidate_groups=2
bit_fail_limit=3.49999999999999977796e-01
cascade_candidate_limit=1.00000000000000000000e+03
cascade_weight_multiplier=4.00000000000000022204e-01
cascade_activation_functions_count=10
cascade_activation_functions=3 5 7 8 10 11 14 15 16 17 
cascade_activation_steepnesses_count=4
cascade_activation_steepnesses=2.50000000000000000000e-01 5.00000000000000000000e-01 7.50000000000000000000e-01 1.00000000000000000000e+00 
layer_sizes=8 10 2 
scale_included=0
neurons (num_inputs, activation_function, activation_steepness)=(0, 0, 0.00000000000000000000e+00) (0, 0, 0.00000000000000000000e+00) (0, 0, 0.00000000000000000000e+00) (0, 0, 0.00000000000000000000e+00) (0, 0, 0.00000000000000000000e+00) (0, 0, 0.00000000000000000000e+00) (0, 0, 0.00000000000000000000e+00) (0, 0, 0.00000000000000000000e+00) (8, 4, 5.00000000000000000000e-01) (8, 4, 5.00000000000000000000e-01) (8, 4, 5.00000000000000000000e-01) (8, 4, 5.00000000000000000000e-01) (8, 4, 5.00000000000000000000e-01) (8, 4, 5.00000000000000000000e-01) (8, 4, 5.00000000000000000000e-01) (8, 4, 5.00000000000000000000e-01) (8, 4, 5.00000000000000000000e-01) (0, 0, 0.00000000000000000000e+00) (10, 6, 5.00000000000000000000e-01) (0, 6, 0.00000000000000000000e+00) 
connections (connected_to_neuron, weight)=(0, -2.84110520510739696931e+01) (1, 1.15315621351547221707e+01) (2, 4.59921448688934919602e+00) (3, -7.26320960552673433597e+00) (4, -3.48660588578556321360e-02) (5, -1.05462351835287537760e+00) (6, 8.53430582134026671781e+00) (7, 3.13605459347988890784e+00) (0, -2.02155124807797426101e+00) (1, 9.54361709154710524672e+00) (2, -4.69296384186445703079e+00) (3, 3.26795281838509010797e+00) (4, 1.73795328680062466375e+00) (5, 9.11916156514847725534e-02) (6, -8.15204325867080825674e+00) (7, 8.05998725842983487766e-01) (0, 2.22635866552577610378e+00) (1, 6.97905448817316198529e+00) (2, -9.48523822491105228494e-01) (3, 5.43759256346393105019e+00) (4, 5.07146302600613374523e+00) (5, -8.83406825826377750666e-01) (6, -4.52923527653068180854e+00) (7, -4.63346062601243335877e+00) (0, -2.57619393582309541557e+01) (1, 4.52012141362839781067e+00) (2, 1.62249914187069279592e+01) (3, -1.30202353531544243737e+01) (4, 6.13201480627826533976e+00) (5, 2.52095268734441679825e+00) (6, 7.25661863244520510818e+00) (7, -4.00352673919167934002e+00) (0, -6.44925198269423134434e+01) (1, 2.45732955510251755982e+01) (2, 1.80541927824842360906e+01) (3, -1.80607976748924130561e+01) (4, 1.09636008273206648767e+01) (5, -7.28253693531771517655e+00) (6, 2.24495981339424659495e+01) (7, 3.06903362768449605724e+00) (0, -1.53740076943169903245e+01) (1, -2.21671415212455391597e+00) (2, 1.55583443408441919331e+01) (3, -1.23309302566056508965e+01) (4, 8.16759976133098675177e+00) (5, 2.94573120714801417463e+00) (6, 4.07312049566500178344e+00) (7, -5.36441052035061716197e+00) (0, 7.79408220015523944824e+00) (1, -7.44242094182047821960e+01) (2, 5.76248894136047979941e+01) (3, -1.75018019840201247916e+02) (4, 4.88939307924598267618e+01) (5, -7.91373718992861228116e+01) (6, 4.09559114406921409568e+01) (7, 2.02410210243501964555e+01) (0, 3.68746975235529106385e+00) (1, -6.46693881308628704119e+00) (2, 1.22111428842380469462e+01) (3, -1.56171409964958520789e+01) (4, 3.72977260440907287808e-01) (5, -4.25305234639861029500e-01) (6, 1.19519158568627315020e+01) (7, -4.83184889219807978122e+00) (0, -1.60087013092442248308e+02) (1, -1.75408579595360066605e+02) (2, 4.57738873566505844792e+02) (3, -3.86627359525260339002e-01) (4, -1.16723727489836775817e+02) (5, -3.67796640239943926076e+01) (6, 6.17539575725450688992e+01) (7, -1.53504634333391891232e+02) (8, -4.66105831335523390635e+00) (9, 2.76200507337637413130e+00) (10, -2.66146386536455681338e+00) (11, 6.44618714901642064774e+00) (12, 2.05567487959442019019e+00) (13, -5.09563581939755838590e+00) (14, -1.83313978587903014805e+00) (15, 1.57726075714844249376e+00) (16, 4.62347663939249198251e+00) (17, 1.86052488508033325720e-01) 
