FANN_FLO_2.1
num_layers=3
learning_rate=0.700000
connection_rate=1.000000
network_type=0
learning_momentum=0.000000
training_algorithm=2
train_error_function=1
train_stop_function=0
cascade_output_change_fraction=0.010000
quickprop_decay=-0.000100
quickprop_mu=1.750000
rprop_increase_factor=1.200000
rprop_decrease_factor=0.500000
rprop_delta_min=0.000000
rprop_delta_max=50.000000
rprop_delta_zero=0.100000
cascade_output_stagnation_epochs=12
cascade_candidate_change_fraction=0.010000
cascade_candidate_stagnation_epochs=12
cascade_max_out_epochs=150
cascade_max_cand_epochs=150
cascade_num_candidate_groups=2
bit_fail_limit=3.49999999999999977796e-01
cascade_candidate_limit=1.00000000000000000000e+03
cascade_weight_multiplier=4.00000000000000022204e-01
cascade_activation_functions_count=10
cascade_activation_functions=3 5 7 8 10 11 14 15 16 17 
cascade_activation_steepnesses_count=4
cascade_activation_steepnesses=2.50000000000000000000e-01 5.00000000000000000000e-01 7.50000000000000000000e-01 1.00000000000000000000e+00 
layer_sizes=8 9 2 
scale_included=0
neurons (num_inputs, activation_function, activation_steepness)=(0, 0, 0.00000000000000000000e+00) (0, 0, 0.00000000000000000000e+00) (0, 0, 0.00000000000000000000e+00) (0, 0, 0.00000000000000000000e+00) (0, 0, 0.00000000000000000000e+00) (0, 0, 0.00000000000000000000e+00) (0, 0, 0.00000000000000000000e+00) (0, 0, 0.00000000000000000000e+00) (8, 4, 5.00000000000000000000e-01) (8, 4, 5.00000000000000000000e-01) (8, 4, 5.00000000000000000000e-01) (8, 4, 5.00000000000000000000e-01) (8, 4, 5.00000000000000000000e-01) (8, 4, 5.00000000000000000000e-01) (8, 4, 5.00000000000000000000e-01) (8, 4, 5.00000000000000000000e-01) (0, 0, 0.00000000000000000000e+00) (9, 6, 5.00000000000000000000e-01) (0, 6, 0.00000000000000000000e+00) 
connections (connected_to_neuron, weight)=(0, -2.16052606394162864945e+02) (1, -3.18657544949173150428e+01) (2, 1.38220479379772740458e+02) (3, -2.94302630680043080247e+02) (4, -1.09763132891147051851e+02) (5, 1.53738784279460759308e+02) (6, 4.68941902540263356514e+02) (7, -1.56798771527563843620e+02) (0, -1.35296532125263723856e+02) (1, 5.08465606259196647443e+01) (2, 5.07622474082505874549e+01) (3, 1.55943213632954154946e+02) (4, 1.04573945780260737592e+03) (5, -1.49999820272378860864e+03) (6, -4.32611685173708735874e+02) (7, -1.63559142511820709842e+00) (0, -1.50000000000000000000e+03) (1, 2.52969328332164394624e+02) (2, 8.68986859274797097896e+02) (3, -1.50000000000000000000e+03) (4, 5.85229910673650238095e+02) (5, 6.86152948322813074356e+01) (6, -1.50000000000000000000e+03) (7, -8.82936380984674258343e+01) (0, -8.59514161708814050655e+00) (1, -7.73253829839369011268e+00) (2, 3.15149493753087988068e+01) (3, -2.39053648991213663066e+01) (4, 9.13136272334221921199e+00) (5, -4.59883988348885708319e+00) (6, 5.38485484806739389541e+00) (7, -2.26488341783579416600e+00) (0, 8.09707404882852301853e+01) (1, 7.07648866954217652392e+01) (2, -6.93639421403875786609e+01) (3, -1.42778812610140931838e+02) (4, -2.77443936582703969407e+01) (5, 2.75552756878568381183e+01) (6, -2.79091303085242046222e+01) (7, 1.72182295516348133901e+01) (0, 9.20379580940131972966e+02) (1, -1.50000000000000000000e+03) (2, 4.68837967691573055617e+02) (3, 4.92701289818459258640e+02) (4, -1.50000000000000000000e+03) (5, -1.50000000000000000000e+03) (6, -5.38922637612784910743e+02) (7, -6.66311050202952004362e-01) (0, -2.34173325117359610203e+02) (1, -2.24818164383859055988e+01) (2, 2.20634529677607133635e+02) (3, -4.34275692371013661841e+01) (4, -4.25293880581364120985e+01) (5, 4.59455850326083492519e+01) (6, -2.49504618590793754151e+01) (7, -1.37191270796277393629e+01) (0, -2.00758011856625229186e+00) (1, -9.36025214373336744700e+00) (2, 2.09968804413064233927e+01) (3, -1.35220331803016424743e+01) (4, 6.87037294814435473000e+00) (5, -5.47871574124679305839e+00) (6, 2.17438368737539677866e+00) (7, -1.44208882587419395804e+00) (8, -5.83676375260915647480e-01) (9, 8.63181590403595655481e-01) (10, -1.25039890278153587033e+00) (11, 2.61995481582559630596e+00) (12, 6.61792051511868151259e-01) (13, 5.07467753313190828024e-01) (14, 6.01814805669721231141e-01) (15, -3.14726068254624236076e+00) (16, -1.23727134010307701639e-01) 
