FANN_FLO_2.1
num_layers=3
learning_rate=0.700000
connection_rate=1.000000
network_type=0
learning_momentum=0.000000
training_algorithm=2
train_error_function=1
train_stop_function=0
cascade_output_change_fraction=0.010000
quickprop_decay=-0.000100
quickprop_mu=1.750000
rprop_increase_factor=1.200000
rprop_decrease_factor=0.500000
rprop_delta_min=0.000000
rprop_delta_max=50.000000
rprop_delta_zero=0.100000
cascade_output_stagnation_epochs=12
cascade_candidate_change_fraction=0.010000
cascade_candidate_stagnation_epochs=12
cascade_max_out_epochs=150
cascade_max_cand_epochs=150
cascade_num_candidate_groups=2
bit_fail_limit=3.49999999999999977796e-01
cascade_candidate_limit=1.00000000000000000000e+03
cascade_weight_multiplier=4.00000000000000022204e-01
cascade_activation_functions_count=10
cascade_activation_functions=3 5 7 8 10 11 14 15 16 17 
cascade_activation_steepnesses_count=4
cascade_activation_steepnesses=2.50000000000000000000e-01 5.00000000000000000000e-01 7.50000000000000000000e-01 1.00000000000000000000e+00 
layer_sizes=8 10 2 
scale_included=0
neurons (num_inputs, activation_function, activation_steepness)=(0, 0, 0.00000000000000000000e+00) (0, 0, 0.00000000000000000000e+00) (0, 0, 0.00000000000000000000e+00) (0, 0, 0.00000000000000000000e+00) (0, 0, 0.00000000000000000000e+00) (0, 0, 0.00000000000000000000e+00) (0, 0, 0.00000000000000000000e+00) (0, 0, 0.00000000000000000000e+00) (8, 4, 5.00000000000000000000e-01) (8, 4, 5.00000000000000000000e-01) (8, 4, 5.00000000000000000000e-01) (8, 4, 5.00000000000000000000e-01) (8, 4, 5.00000000000000000000e-01) (8, 4, 5.00000000000000000000e-01) (8, 4, 5.00000000000000000000e-01) (8, 4, 5.00000000000000000000e-01) (8, 4, 5.00000000000000000000e-01) (0, 0, 0.00000000000000000000e+00) (10, 6, 5.00000000000000000000e-01) (0, 6, 0.00000000000000000000e+00) 
connections (connected_to_neuron, weight)=(0, -1.50000000000000000000e+03) (1, -1.50000000000000000000e+03) (2, 6.18548665612435797811e+02) (3, -1.10156404459398686413e+03) (4, 1.01937519393020045300e+03) (5, 7.01794902001590344298e+02) (6, -1.50000000000000000000e+03) (7, -2.81480785455242710213e+02) (0, 1.37458102874026018014e+01) (1, -2.52704291750386182969e+01) (2, 9.41399040751285376416e+00) (3, -1.81859706908987028839e+01) (4, -2.54896803057049048391e+01) (5, 1.72335639049964441938e+01) (6, -1.55703268626719104617e+01) (7, 7.48275450880465609060e+00) (0, -3.97250563890685896240e+02) (1, 5.07810191549029184443e+02) (2, -2.34474917365744346398e+02) (3, 3.59913098206672600554e+02) (4, -2.88019799849265780267e+02) (5, -1.34853101686338391119e+02) (6, 1.68531286076856900991e+02) (7, -2.22155807609054534169e+00) (0, 7.61667120238360553230e+01) (1, 6.37192412564094290417e+00) (2, -3.23502073343314151543e+01) (3, -3.11777119597009999552e+01) (4, -1.03418439225683957972e+01) (5, -1.76034909060181128382e+01) (6, -1.58371943728660680151e+00) (7, -1.25000165391455517749e+01) (0, -9.95928931551434004632e+00) (1, 6.02296523203574949434e+01) (2, 7.92802292050677579027e+02) (3, -2.89180877263555828449e+02) (4, -9.21256480585028612040e+01) (5, 1.63097023515266026372e+00) (6, -2.11757192590116261499e+02) (7, -7.75604762345970186743e+01) (0, 1.50000000000000000000e+03) (1, -1.43380172005515987621e+03) (2, -1.40072733131374388904e+03) (3, 4.02354551295486430718e+02) (4, -9.23580215215137513951e+02) (5, -9.63946901330460718782e+02) (6, 1.50000000000000000000e+03) (7, 6.18139182397464196583e+02) (0, -1.49802859340711961522e+03) (1, -1.43400708467897038645e+03) (2, 3.33944491526766057632e+02) (3, 1.49975174216492496271e+03) (4, 1.50000000000000000000e+03) (5, 6.96314866163771625907e+02) (6, -1.41650257410597646412e+03) (7, 1.50000000000000000000e+03) (0, -6.73622463025346576160e+01) (1, 2.75208972711703871994e+01) (2, -1.35697641618812411934e+02) (3, -1.59914606456648300536e+01) (4, 1.46481724849020906731e+02) (5, -3.64687670823501708384e+00) (6, 2.41566932896759887228e+01) (7, -6.59378163642738357453e+00) (0, -9.09353760213227779730e+00) (1, -2.09407561912814550453e+01) (2, -5.73521766564111317166e+01) (3, 4.67035440906339474054e+01) (4, 3.01390242282147653441e+01) (5, -2.38128425273843369325e+01) (6, -1.46771931529769208424e+01) (7, 1.89778859559080714803e+00) (8, -1.27626396363143279622e+00) (9, 2.57173443283894709310e+00) (10, -2.34651828501133197236e-01) (11, -1.34052134204096784487e+00) (12, 1.55136118326250072030e+00) (13, 7.80455692685608548587e-01) (14, -5.02203341350034637713e-01) (15, 6.60504246022622143464e-01) (16, 1.28439096910422390074e+00) (17, -1.13451466570323900029e+00) 
