FANN_FLO_2.1
num_layers=3
learning_rate=0.700000
connection_rate=1.000000
network_type=0
learning_momentum=0.000000
training_algorithm=2
train_error_function=1
train_stop_function=0
cascade_output_change_fraction=0.010000
quickprop_decay=-0.000100
quickprop_mu=1.750000
rprop_increase_factor=1.200000
rprop_decrease_factor=0.500000
rprop_delta_min=0.000000
rprop_delta_max=50.000000
rprop_delta_zero=0.100000
cascade_output_stagnation_epochs=12
cascade_candidate_change_fraction=0.010000
cascade_candidate_stagnation_epochs=12
cascade_max_out_epochs=150
cascade_max_cand_epochs=150
cascade_num_candidate_groups=2
bit_fail_limit=3.49999999999999977796e-01
cascade_candidate_limit=1.00000000000000000000e+03
cascade_weight_multiplier=4.00000000000000022204e-01
cascade_activation_functions_count=10
cascade_activation_functions=3 5 7 8 10 11 14 15 16 17 
cascade_activation_steepnesses_count=4
cascade_activation_steepnesses=2.50000000000000000000e-01 5.00000000000000000000e-01 7.50000000000000000000e-01 1.00000000000000000000e+00 
layer_sizes=8 8 2 
scale_included=0
neurons (num_inputs, activation_function, activation_steepness)=(0, 0, 0.00000000000000000000e+00) (0, 0, 0.00000000000000000000e+00) (0, 0, 0.00000000000000000000e+00) (0, 0, 0.00000000000000000000e+00) (0, 0, 0.00000000000000000000e+00) (0, 0, 0.00000000000000000000e+00) (0, 0, 0.00000000000000000000e+00) (0, 0, 0.00000000000000000000e+00) (8, 4, 5.00000000000000000000e-01) (8, 4, 5.00000000000000000000e-01) (8, 4, 5.00000000000000000000e-01) (8, 4, 5.00000000000000000000e-01) (8, 4, 5.00000000000000000000e-01) (8, 4, 5.00000000000000000000e-01) (8, 4, 5.00000000000000000000e-01) (0, 0, 0.00000000000000000000e+00) (8, 6, 5.00000000000000000000e-01) (0, 6, 0.00000000000000000000e+00) 
connections (connected_to_neuron, weight)=(0, -1.00483533850126178777e+01) (1, 1.51994198902643269378e+01) (2, -1.33486426037982930382e+01) (3, -1.23820707701455745564e+00) (4, 1.81367619315585759665e+00) (5, -2.71776131852425102409e+01) (6, -2.25686958052158948007e+00) (7, 5.63135635960347258333e+00) (0, 2.25393648012317875384e+01) (1, -5.03492169947347356640e+00) (2, 3.72373946682530387875e+01) (3, -2.68540214412929429955e+01) (4, 1.39616591761914907721e+01) (5, -3.84061207857612245675e+01) (6, 1.04445440826298234782e+01) (7, -6.92615701104646497299e+00) (0, 1.83297149588055603431e+01) (1, -4.60424371925341535672e+00) (2, 1.45814320509139392357e+01) (3, -7.33612191645277711416e+00) (4, -6.93046389338258883583e+00) (5, -2.89411167470160606285e+01) (6, -1.18134118403823187293e+01) (7, 3.77325107847227059210e+00) (0, 4.50052486827855602769e+02) (1, -8.31397501233200273418e+01) (2, 6.89603547380169885628e+01) (3, 1.09277693654555022817e+02) (4, -1.42682172392864208632e+03) (5, -1.50000000000000000000e+03) (6, 1.10853890254260772963e+03) (7, -1.55346219353932298191e+02) (0, -8.52174080174543391308e+00) (1, 1.57635202717206581724e+01) (2, -1.46704423074120473558e+01) (3, -1.63932397621775005625e+00) (4, 2.35868037262849528091e+00) (5, -3.28884144717162598681e+01) (6, -4.38086049237376862209e+00) (7, 6.43782017612842327736e+00) (0, -1.50000000000000000000e+03) (1, -1.50000000000000000000e+03) (2, 8.27330005610897046608e+02) (3, 2.42357210692290578891e+01) (4, -7.28784603221147790464e+02) (5, -2.63621670373713811841e+02) (6, 8.13619107495714644074e+01) (7, 9.40430193404428109716e+02) (0, 1.21880698861361125296e+02) (1, 1.80041419666599949778e+02) (2, 6.72838594071055808854e+01) (3, -6.56149486763139520917e+02) (4, 2.98989017821150468990e+02) (5, 2.91478682313494232403e+02) (6, 1.04889539824504325338e+02) (7, -1.77916295242357307416e+02) (8, -2.98693058116191316742e+01) (9, 3.00064555763741691585e-01) (10, 1.87817370964782748288e+00) (11, -1.38026924364827419112e+00) (12, 2.75940923186303841419e+01) (13, 8.99030895805090879414e-01) (14, 2.29572512770771036683e-01) (15, -4.14563540679061481864e-01) 
