FANN_FLO_2.1
num_layers=3
learning_rate=0.700000
connection_rate=1.000000
network_type=0
learning_momentum=0.000000
training_algorithm=2
train_error_function=1
train_stop_function=0
cascade_output_change_fraction=0.010000
quickprop_decay=-0.000100
quickprop_mu=1.750000
rprop_increase_factor=1.200000
rprop_decrease_factor=0.500000
rprop_delta_min=0.000000
rprop_delta_max=50.000000
rprop_delta_zero=0.100000
cascade_output_stagnation_epochs=12
cascade_candidate_change_fraction=0.010000
cascade_candidate_stagnation_epochs=12
cascade_max_out_epochs=150
cascade_max_cand_epochs=150
cascade_num_candidate_groups=2
bit_fail_limit=3.49999999999999977796e-01
cascade_candidate_limit=1.00000000000000000000e+03
cascade_weight_multiplier=4.00000000000000022204e-01
cascade_activation_functions_count=10
cascade_activation_functions=3 5 7 8 10 11 14 15 16 17 
cascade_activation_steepnesses_count=4
cascade_activation_steepnesses=2.50000000000000000000e-01 5.00000000000000000000e-01 7.50000000000000000000e-01 1.00000000000000000000e+00 
layer_sizes=8 16 2 
scale_included=0
neurons (num_inputs, activation_function, activation_steepness)=(0, 0, 0.00000000000000000000e+00) (0, 0, 0.00000000000000000000e+00) (0, 0, 0.00000000000000000000e+00) (0, 0, 0.00000000000000000000e+00) (0, 0, 0.00000000000000000000e+00) (0, 0, 0.00000000000000000000e+00) (0, 0, 0.00000000000000000000e+00) (0, 0, 0.00000000000000000000e+00) (8, 4, 5.00000000000000000000e-01) (8, 4, 5.00000000000000000000e-01) (8, 4, 5.00000000000000000000e-01) (8, 4, 5.00000000000000000000e-01) (8, 4, 5.00000000000000000000e-01) (8, 4, 5.00000000000000000000e-01) (8, 4, 5.00000000000000000000e-01) (8, 4, 5.00000000000000000000e-01) (8, 4, 5.00000000000000000000e-01) (8, 4, 5.00000000000000000000e-01) (8, 4, 5.00000000000000000000e-01) (8, 4, 5.00000000000000000000e-01) (8, 4, 5.00000000000000000000e-01) (8, 4, 5.00000000000000000000e-01) (8, 4, 5.00000000000000000000e-01) (0, 0, 0.00000000000000000000e+00) (16, 6, 5.00000000000000000000e-01) (0, 6, 0.00000000000000000000e+00) 
connections (connected_to_neuron, weight)=(0, -4.52954289932268494567e+00) (1, -3.00708045352372508319e+01) (2, 1.41817416095501336315e+01) (3, 1.19649348078079256652e+02) (4, -4.54533276788692361947e+01) (5, 3.99329752727450966177e+01) (6, -1.02749909436071860114e+02) (7, -6.66896949285545925790e+00) (0, 1.44757807739790314372e+03) (1, -2.33036165553683531471e+02) (2, 1.13016670501495013923e+03) (3, -6.54315720571417841711e+02) (4, -3.63464049923234711059e+01) (5, -1.50000000000000000000e+03) (6, -6.08686232208257592902e+02) (7, -1.10681835165219325745e+02) (0, 1.33326970203191791597e+02) (1, -1.14842890882196030589e+02) (2, -1.29229076257909213155e+02) (3, 7.24193657179244780764e+01) (4, 2.99102790335569679314e+01) (5, 8.46106979527151423781e+01) (6, -4.19292548097111961170e+00) (7, 1.84226577975253498209e+01) (0, 1.13561170381786473627e+03) (1, -1.50000000000000000000e+03) (2, -1.50000000000000000000e+03) (3, -1.50000000000000000000e+03) (4, -1.50000000000000000000e+03) (5, -1.50000000000000000000e+03) (6, 1.50000000000000000000e+03) (7, 4.00593910483729374050e+01) (0, -8.96124192938709107636e+00) (1, 1.97382110457837178785e+01) (2, -1.89455087349391639862e+01) (3, 1.89630230048658319220e+01) (4, -1.00728984204454992124e+01) (5, -1.37812918254003982099e+01) (6, -9.11006462909438496922e+00) (7, -3.87964156828622330764e+00) (0, -2.56576686023622357880e+00) (1, 9.07472689649371844212e+00) (2, -1.55913701824087844727e+01) (3, 1.27807900268334861948e+01) (4, -5.46056161971508835506e+00) (5, -1.40021355951422012964e+01) (6, -5.16594695822937399754e+00) (7, -1.42361646861655133378e+00) (0, 5.29281741997894457086e+01) (1, -1.31861628007165041510e+01) (2, -5.90306273678117108261e+01) (3, 7.13303225419658133433e+01) (4, 1.60123970290645445402e+01) (5, 4.24566202516158099911e+01) (6, -5.64727624229470563932e+01) (7, -2.26670901030546083632e+01) (0, -8.69770254497788982917e+02) (1, 9.66112141850424677614e+02) (2, -1.04214861217792122261e+03) (3, 1.50000000000000000000e+03) (4, 1.50000000000000000000e+03) (5, 1.50000000000000000000e+03) (6, -1.49398654499850658794e+03) (7, -8.36230815985822459879e+02) (0, 4.70189828784830183395e+02) (1, -4.35848251603020116818e+02) (2, -2.92815235184491825748e+02) (3, -5.10462298157010422983e+02) (4, 2.50989265994625895928e+02) (5, 6.96631427373387737134e+01) (6, 3.36062673788926417728e+02) (7, -1.24545211643904437437e+02) (0, 1.50000000000000000000e+03) (1, 1.50000000000000000000e+03) (2, 1.50000000000000000000e+03) (3, 1.50000000000000000000e+03) (4, 1.50000000000000000000e+03) (5, 1.50000000000000000000e+03) (6, 1.50000000000000000000e+03) (7, 1.15097757598836960824e+03) (0, -1.64609592600464904599e+00) (1, -4.61729680164498113015e+00) (2, 3.50641859971175264832e+01) (3, -2.97095678204281909984e+01) (4, 5.76849686320713495036e+00) (5, 2.06300772280704514117e+01) (6, 2.78276471937464808803e+00) (7, 1.52311394631310298431e-01) (0, -1.50000000000000000000e+03) (1, -1.50000000000000000000e+03) (2, -1.50000000000000000000e+03) (3, -1.50000000000000000000e+03) (4, -1.50000000000000000000e+03) (5, -1.50000000000000000000e+03) (6, -1.50000000000000000000e+03) (7, -3.80011633250010845586e+02) (0, 2.27994589475505506471e+02) (1, -1.86104030875456487593e+02) (2, -3.59465332940658868210e+01) (3, 1.12833120460044185052e+01) (4, -5.36113479440478286620e+01) (5, 1.52731501279925709014e+02) (6, -6.89440936800880024293e+01) (7, 3.81989375632654004633e+00) (0, 1.02696317282378527125e+03) (1, -1.49984992868892345541e+03) (2, -1.36764799257199433669e+03) (3, -1.50000000000000000000e+03) (4, -1.28090160734781790097e+02) (5, 4.94503693070649092078e+02) (6, 1.50000000000000000000e+03) (7, 9.80405705730754277738e+01) (0, -1.62404515260082682460e+01) (1, -8.50363286810823737483e+00) (2, -5.21114436541999381802e+01) (3, 1.32455139281920892813e+01) (4, 2.07747607295084044665e+01) (5, 7.62992242724191385150e+01) (6, -8.89308311591039597488e+01) (7, 7.41116672617617240348e+01) (8, 4.05460412164510064503e-01) (9, 3.01410707979777692245e+00) (10, 5.36977553739718116432e-01) (11, 1.20794067536638127791e+00) (12, -1.35800639234996456395e+01) (13, 1.97797196970179989250e+01) (14, 2.09319654973389290831e+00) (15, -1.54555220982689833775e+00) (16, -1.33479616207043383369e+00) (17, -4.22660969286875509709e+00) (18, 7.37594831082584878601e+00) (19, 1.50000000000000000000e+03) (20, 7.37254058274050216859e-01) (21, 1.24927263714364245040e+00) (22, 1.28447836586317398755e+00) (23, -6.34340481118119470239e+00) 
