FANN_FLO_2.1
num_layers=3
learning_rate=0.700000
connection_rate=1.000000
network_type=0
learning_momentum=0.000000
training_algorithm=2
train_error_function=1
train_stop_function=0
cascade_output_change_fraction=0.010000
quickprop_decay=-0.000100
quickprop_mu=1.750000
rprop_increase_factor=1.200000
rprop_decrease_factor=0.500000
rprop_delta_min=0.000000
rprop_delta_max=50.000000
rprop_delta_zero=0.100000
cascade_output_stagnation_epochs=12
cascade_candidate_change_fraction=0.010000
cascade_candidate_stagnation_epochs=12
cascade_max_out_epochs=150
cascade_max_cand_epochs=150
cascade_num_candidate_groups=2
bit_fail_limit=3.49999999999999977796e-01
cascade_candidate_limit=1.00000000000000000000e+03
cascade_weight_multiplier=4.00000000000000022204e-01
cascade_activation_functions_count=10
cascade_activation_functions=3 5 7 8 10 11 14 15 16 17 
cascade_activation_steepnesses_count=4
cascade_activation_steepnesses=2.50000000000000000000e-01 5.00000000000000000000e-01 7.50000000000000000000e-01 1.00000000000000000000e+00 
layer_sizes=8 10 2 
scale_included=0
neurons (num_inputs, activation_function, activation_steepness)=(0, 0, 0.00000000000000000000e+00) (0, 0, 0.00000000000000000000e+00) (0, 0, 0.00000000000000000000e+00) (0, 0, 0.00000000000000000000e+00) (0, 0, 0.00000000000000000000e+00) (0, 0, 0.00000000000000000000e+00) (0, 0, 0.00000000000000000000e+00) (0, 0, 0.00000000000000000000e+00) (8, 4, 5.00000000000000000000e-01) (8, 4, 5.00000000000000000000e-01) (8, 4, 5.00000000000000000000e-01) (8, 4, 5.00000000000000000000e-01) (8, 4, 5.00000000000000000000e-01) (8, 4, 5.00000000000000000000e-01) (8, 4, 5.00000000000000000000e-01) (8, 4, 5.00000000000000000000e-01) (8, 4, 5.00000000000000000000e-01) (0, 0, 0.00000000000000000000e+00) (10, 6, 5.00000000000000000000e-01) (0, 6, 0.00000000000000000000e+00) 
connections (connected_to_neuron, weight)=(0, -6.33813460240989030581e+01) (1, 6.61195015191353405726e+01) (2, -1.22271256568908537332e+01) (3, -1.31368186994925313371e+01) (4, -4.44148301607212374620e+01) (5, -7.79878058302640226884e+01) (6, 2.79277168665839425898e+01) (7, -7.18902878768389630437e+00) (0, -2.50105867703604644703e+02) (1, -1.50000000000000000000e+03) (2, -7.60054742119056186311e+02) (3, 4.70124970123529919874e+02) (4, 2.37739319242026283518e+01) (5, 1.06476973840285586448e+03) (6, 7.57821970453545361579e+01) (7, 7.97193873488160761553e+02) (0, 1.28666913550650576781e+02) (1, 4.48914803271058985956e+02) (2, -4.79009865498655472038e+02) (3, -5.48251874186634154285e+02) (4, -2.76585880763339844179e+02) (5, 1.50000000000000000000e+03) (6, 4.47130469860030501650e+01) (7, -4.47879898731021512504e+02) (0, 6.87080026762873927737e+01) (1, -6.08169856664031556193e+01) (2, 2.18359572112059119320e+01) (3, -4.26671854330511948206e+01) (4, -1.26876744635160996211e+01) (5, -7.08126806218888162903e+01) (6, -9.58792606172666808106e+01) (7, 7.09664569638833455656e+01) (0, -6.10258543804182181702e+02) (1, -1.44240015520438169006e+03) (2, -1.34508301686168329070e+03) (3, 1.14282234182200795658e+03) (4, -1.50000000000000000000e+03) (5, 1.50000000000000000000e+03) (6, 1.50000000000000000000e+03) (7, -1.37948166712697315006e+02) (0, 4.13463575471852919918e+01) (1, 5.23516898364285623302e+01) (2, 1.29916285071737036105e+02) (3, -7.24895590139501511118e+00) (4, 2.70189446533225691383e+02) (5, 1.50000000000000000000e+03) (6, 3.49463517338283438107e+01) (7, -6.67232763861090774071e+01) (0, 9.28070560206690409188e+00) (1, 1.26141836712909984897e+01) (2, -2.23978333200264778657e-01) (3, 1.18645363455363028748e+01) (4, -4.26004934925300915438e+00) (5, -2.42646115770292283287e+01) (6, -7.58756844304919475519e+00) (7, -2.55077452058572928806e+00) (0, -2.50416348778395629893e+01) (1, 7.28097261809117402009e+00) (2, -1.56362707074457443213e+01) (3, 1.39364845072673624315e+01) (4, -1.52663366796791546420e+01) (5, 1.36866158182061816717e+01) (6, 1.63786179112888952147e+01) (7, -4.87007169912729964700e-01) (0, -7.65791881463657432505e+02) (1, -1.48868371482472548450e+03) (2, -1.49980026231056854158e+03) (3, 1.45846429397511019488e+03) (4, -1.46338947993547117221e+03) (5, 1.50000000000000000000e+03) (6, 1.48024158046604043193e+03) (7, 1.11698426533570895458e+02) (8, 1.31331357833338091545e+00) (9, 2.35382037388699183467e+00) (10, 2.04054196128232723240e+00) (11, 1.71101598918193098520e+00) (12, 1.95637004566536498729e+00) (13, 2.36630797129133751966e+00) (14, 3.78858626004206122673e+00) (15, -4.24353811404238978611e+00) (16, 1.43188305899705725643e+00) (17, -5.98010365798835952234e+00) 
