FANN_FLO_2.1
num_layers=3
learning_rate=0.700000
connection_rate=1.000000
network_type=0
learning_momentum=0.000000
training_algorithm=2
train_error_function=1
train_stop_function=0
cascade_output_change_fraction=0.010000
quickprop_decay=-0.000100
quickprop_mu=1.750000
rprop_increase_factor=1.200000
rprop_decrease_factor=0.500000
rprop_delta_min=0.000000
rprop_delta_max=50.000000
rprop_delta_zero=0.100000
cascade_output_stagnation_epochs=12
cascade_candidate_change_fraction=0.010000
cascade_candidate_stagnation_epochs=12
cascade_max_out_epochs=150
cascade_max_cand_epochs=150
cascade_num_candidate_groups=2
bit_fail_limit=3.49999999999999977796e-01
cascade_candidate_limit=1.00000000000000000000e+03
cascade_weight_multiplier=4.00000000000000022204e-01
cascade_activation_functions_count=10
cascade_activation_functions=3 5 7 8 10 11 14 15 16 17 
cascade_activation_steepnesses_count=4
cascade_activation_steepnesses=2.50000000000000000000e-01 5.00000000000000000000e-01 7.50000000000000000000e-01 1.00000000000000000000e+00 
layer_sizes=8 9 2 
scale_included=0
neurons (num_inputs, activation_function, activation_steepness)=(0, 0, 0.00000000000000000000e+00) (0, 0, 0.00000000000000000000e+00) (0, 0, 0.00000000000000000000e+00) (0, 0, 0.00000000000000000000e+00) (0, 0, 0.00000000000000000000e+00) (0, 0, 0.00000000000000000000e+00) (0, 0, 0.00000000000000000000e+00) (0, 0, 0.00000000000000000000e+00) (8, 4, 5.00000000000000000000e-01) (8, 4, 5.00000000000000000000e-01) (8, 4, 5.00000000000000000000e-01) (8, 4, 5.00000000000000000000e-01) (8, 4, 5.00000000000000000000e-01) (8, 4, 5.00000000000000000000e-01) (8, 4, 5.00000000000000000000e-01) (8, 4, 5.00000000000000000000e-01) (0, 0, 0.00000000000000000000e+00) (9, 6, 5.00000000000000000000e-01) (0, 6, 0.00000000000000000000e+00) 
connections (connected_to_neuron, weight)=(0, 2.48758273270260644949e+02) (1, 2.02119791064359588972e+02) (2, -5.71848733583933722002e+02) (3, -1.21212588044360671802e+02) (4, 1.60004186618181705626e+02) (5, -1.13098481358404939101e+02) (6, 2.42783032835016626905e+02) (7, -1.47842502331629276568e+02) (0, 1.46064891561185419278e+02) (1, -8.30497337024182570531e+02) (2, 5.75299379690222963291e+02) (3, 3.21528373129660565155e+02) (4, -3.85529952111823092764e+02) (5, 8.62761534594969134560e+02) (6, 2.00507415923629082499e+02) (7, -9.29214922640526992836e+02) (0, -4.55412423607498908495e+01) (1, 4.43611544705167588631e+01) (2, 4.10693632258191883011e+01) (3, -6.19973085474437084486e+01) (4, 3.86425342654816930121e+01) (5, -3.74450734331897763241e+01) (6, 3.47798705624999300312e+01) (7, 2.14305945803937589744e+01) (0, 1.50000000000000000000e+03) (1, 1.50000000000000000000e+03) (2, 1.50000000000000000000e+03) (3, 1.50000000000000000000e+03) (4, 6.63172164926821551489e+02) (5, -1.50000000000000000000e+03) (6, 1.50000000000000000000e+03) (7, 1.44952801568526780329e+02) (0, 5.08667091293168169841e+01) (1, 5.58015667336987863933e+00) (2, 2.00131213579295149430e+02) (3, 7.20735541987518644191e+01) (4, 1.26506590500049100001e+02) (5, -1.91257603125970007341e+02) (6, -1.33592555741141808312e+02) (7, -1.52898759962904193799e+02) (0, 1.50000000000000000000e+03) (1, -6.52814972102898309458e+02) (2, -6.73198050407833306963e+02) (3, -1.68632103010217520023e+02) (4, -5.09008556325247639052e+02) (5, 2.91770650748718640699e+00) (6, -2.15115851264048075109e+02) (7, 1.95606651785023927914e+02) (0, 6.34679466686913201556e+02) (1, 3.31611214625278989843e+02) (2, -3.36401481825489554467e+02) (3, 5.75378605804740459462e+02) (4, 1.50000000000000000000e+03) (5, -8.23507987405854919416e+02) (6, -1.13522137191769797937e+03) (7, -3.79983748493559517101e+02) (0, 1.50000000000000000000e+03) (1, 1.44384291203950851923e+03) (2, -1.17314694978749594156e+03) (3, -1.48492431329777195970e+03) (4, -1.33594754569130736854e+03) (5, -1.10982306996506144969e+03) (6, 1.50000000000000000000e+03) (7, 8.88352562877045784262e+02) (8, -7.09691870896118071066e-01) (9, -1.03858003892230321696e+00) (10, -1.90033010746415542691e+00) (11, 5.61665989203265825225e-01) (12, -7.69366372298846190603e-01) (13, -5.43045516660812133125e-01) (14, -3.49974752142444389680e-01) (15, 3.91803498677422035179e-01) (16, 1.46630691032709803423e+00) 
