FANN_FLO_2.1
num_layers=3
learning_rate=0.700000
connection_rate=1.000000
network_type=0
learning_momentum=0.000000
training_algorithm=2
train_error_function=1
train_stop_function=0
cascade_output_change_fraction=0.010000
quickprop_decay=-0.000100
quickprop_mu=1.750000
rprop_increase_factor=1.200000
rprop_decrease_factor=0.500000
rprop_delta_min=0.000000
rprop_delta_max=50.000000
rprop_delta_zero=0.100000
cascade_output_stagnation_epochs=12
cascade_candidate_change_fraction=0.010000
cascade_candidate_stagnation_epochs=12
cascade_max_out_epochs=150
cascade_max_cand_epochs=150
cascade_num_candidate_groups=2
bit_fail_limit=3.49999999999999977796e-01
cascade_candidate_limit=1.00000000000000000000e+03
cascade_weight_multiplier=4.00000000000000022204e-01
cascade_activation_functions_count=10
cascade_activation_functions=3 5 7 8 10 11 14 15 16 17 
cascade_activation_steepnesses_count=4
cascade_activation_steepnesses=2.50000000000000000000e-01 5.00000000000000000000e-01 7.50000000000000000000e-01 1.00000000000000000000e+00 
layer_sizes=8 15 2 
scale_included=0
neurons (num_inputs, activation_function, activation_steepness)=(0, 0, 0.00000000000000000000e+00) (0, 0, 0.00000000000000000000e+00) (0, 0, 0.00000000000000000000e+00) (0, 0, 0.00000000000000000000e+00) (0, 0, 0.00000000000000000000e+00) (0, 0, 0.00000000000000000000e+00) (0, 0, 0.00000000000000000000e+00) (0, 0, 0.00000000000000000000e+00) (8, 4, 5.00000000000000000000e-01) (8, 4, 5.00000000000000000000e-01) (8, 4, 5.00000000000000000000e-01) (8, 4, 5.00000000000000000000e-01) (8, 4, 5.00000000000000000000e-01) (8, 4, 5.00000000000000000000e-01) (8, 4, 5.00000000000000000000e-01) (8, 4, 5.00000000000000000000e-01) (8, 4, 5.00000000000000000000e-01) (8, 4, 5.00000000000000000000e-01) (8, 4, 5.00000000000000000000e-01) (8, 4, 5.00000000000000000000e-01) (8, 4, 5.00000000000000000000e-01) (8, 4, 5.00000000000000000000e-01) (0, 0, 0.00000000000000000000e+00) (15, 6, 5.00000000000000000000e-01) (0, 6, 0.00000000000000000000e+00) 
connections (connected_to_neuron, weight)=(0, -1.50000000000000000000e+03) (1, -1.50000000000000000000e+03) (2, 6.69184905343975628966e+02) (3, -3.88761335466046347165e+01) (4, -1.21794580747920826980e+03) (5, 5.18967006127395166004e+02) (6, -1.50000000000000000000e+03) (7, 4.79449713017533838411e+02) (0, -2.58569252981035440087e+01) (1, 1.48362356197069136243e+01) (2, -6.66635041697008201567e+00) (3, -2.78738319843562853961e+00) (4, -9.10979269360622900820e+00) (5, 7.20291249833564961591e+00) (6, -1.66254032004538321310e+00) (7, 3.11102780920470545212e+00) (0, 5.33956337310002822960e+02) (1, 3.93481710732878980252e+02) (2, -1.08198910049585583693e+03) (3, -4.12332298026281193870e+02) (4, -1.39625828571990450655e+03) (5, -3.57324641967421371191e+02) (6, -1.50000000000000000000e+03) (7, 1.23374075238758928208e+03) (0, 6.77305392048751571110e+01) (1, -6.81746464775605858222e+01) (2, 1.26328673899423961302e+02) (3, -2.24763539652568255178e+02) (4, 1.55978393789315248341e+01) (5, -4.13931613872442554225e+01) (6, -5.79220851806470236056e+01) (7, 7.79427591495748117723e+01) (0, -3.23441733049966302360e+01) (1, 1.49171885243143833577e+01) (2, -2.28963026273891578910e+01) (3, 2.11268915804053989405e+01) (4, 1.11374466940357201850e+01) (5, -2.31326102195888311241e-01) (6, 2.75409636090767584449e+01) (7, -7.24985380741814555705e+00) (0, 4.70258045539146394276e+01) (1, -1.90337109266253428075e+01) (2, 1.55067933611438473207e+01) (3, -5.49214836193869260228e+01) (4, -2.11082286310102018589e+00) (5, 6.03227762592546046250e+00) (6, 1.16032369304738907090e+01) (7, 7.88545497949097118351e+00) (0, 3.10469867903563958578e+01) (1, -6.46883645513503751090e+01) (2, 1.49457321933084386956e+02) (3, 1.95408745610228145040e+01) (4, -1.13042954001368755712e+02) (5, -3.96610826907571167865e+00) (6, -6.05707445541978160009e+01) (7, 6.74463769790570495388e+01) (0, 4.26594851476431244919e+02) (1, -1.50000000000000000000e+03) (2, -6.39872987797131486332e+02) (3, -1.02682052148225102428e+03) (4, -1.47671754066890866852e+03) (5, -4.58286263280635239425e+02) (6, -2.26047348140403613570e+02) (7, 1.44176432573532929382e+03) (0, -3.08262645567495894738e+02) (1, 8.37195715854026275338e+02) (2, -5.21640814483901976928e+02) (3, 1.50000000000000000000e+03) (4, -1.65067180223389442517e+02) (5, -1.50000000000000000000e+03) (6, 5.29982904039362551885e+02) (7, -7.93146512670855827309e+02) (0, -1.40071977595439676634e+02) (1, -5.31946098136603993112e+01) (2, -1.28422332873677248699e+02) (3, 1.31970839382009302199e+02) (4, 2.91750121404377438239e+01) (5, 8.71395101032324070900e+00) (6, 1.51053160429091633432e+02) (7, 3.90483467856126651441e+01) (0, 4.40371897790760783664e+02) (1, 1.08416391648023181915e+03) (2, -1.02879735269655725460e+03) (3, 1.13073547942844925274e+03) (4, -6.28318082529227467603e+02) (5, -1.50000000000000000000e+03) (6, 1.08177982567145690496e+02) (7, -5.57545982748016967889e+02) (0, -5.12495744388068374064e+02) (1, 1.22615264318872348781e+02) (2, -1.24298721999637606928e+02) (3, 1.36592797834896543918e+02) (4, 2.15334337566811967690e+02) (5, -7.78450656759167429755e+01) (6, 8.90887205832012654128e+01) (7, 1.21378780304135478474e+01) (0, -1.50000000000000000000e+03) (1, 1.26773285966353867593e+02) (2, -1.34503381849737115772e+03) (3, 5.31967997245638002823e+02) (4, -6.04164083451607211828e+02) (5, 1.20793767247341634175e+03) (6, -1.50000000000000000000e+03) (7, -5.14946994061581477808e+01) (0, 1.48082373735605727916e+02) (1, -1.08378771306941828811e+02) (2, 5.80901358898314015278e+02) (3, 6.53286342625605811918e+02) (4, 1.50000000000000000000e+03) (5, -1.30912963771189629369e+03) (6, 8.25215384835468626079e+02) (7, -1.94240470366026869442e+02) (8, 1.11532270090009744123e+00) (9, -5.29856964716544887040e+00) (10, 8.69872590548149471346e-01) (11, 1.96975330686617300380e+00) (12, 2.57137203370578548700e+00) (13, -2.80451895735328182724e+00) (14, 3.00442182052322115382e+00) (15, 2.79648423908552912209e+00) (16, -3.58397749723240144348e+00) (17, -2.20108351460486328932e+00) (18, -3.93260146358452500337e+00) (19, -2.32204388257209437540e+00) (20, 9.76786271550448059742e-01) (21, -3.89874633387486646541e+00) (22, 3.29669767352262388371e+00) 
