FANN_FLO_2.1
num_layers=3
learning_rate=0.700000
connection_rate=1.000000
network_type=0
learning_momentum=0.000000
training_algorithm=2
train_error_function=1
train_stop_function=0
cascade_output_change_fraction=0.010000
quickprop_decay=-0.000100
quickprop_mu=1.750000
rprop_increase_factor=1.200000
rprop_decrease_factor=0.500000
rprop_delta_min=0.000000
rprop_delta_max=50.000000
rprop_delta_zero=0.100000
cascade_output_stagnation_epochs=12
cascade_candidate_change_fraction=0.010000
cascade_candidate_stagnation_epochs=12
cascade_max_out_epochs=150
cascade_max_cand_epochs=150
cascade_num_candidate_groups=2
bit_fail_limit=3.49999999999999977796e-01
cascade_candidate_limit=1.00000000000000000000e+03
cascade_weight_multiplier=4.00000000000000022204e-01
cascade_activation_functions_count=10
cascade_activation_functions=3 5 7 8 10 11 14 15 16 17 
cascade_activation_steepnesses_count=4
cascade_activation_steepnesses=2.50000000000000000000e-01 5.00000000000000000000e-01 7.50000000000000000000e-01 1.00000000000000000000e+00 
layer_sizes=8 10 2 
scale_included=0
neurons (num_inputs, activation_function, activation_steepness)=(0, 0, 0.00000000000000000000e+00) (0, 0, 0.00000000000000000000e+00) (0, 0, 0.00000000000000000000e+00) (0, 0, 0.00000000000000000000e+00) (0, 0, 0.00000000000000000000e+00) (0, 0, 0.00000000000000000000e+00) (0, 0, 0.00000000000000000000e+00) (0, 0, 0.00000000000000000000e+00) (8, 4, 5.00000000000000000000e-01) (8, 4, 5.00000000000000000000e-01) (8, 4, 5.00000000000000000000e-01) (8, 4, 5.00000000000000000000e-01) (8, 4, 5.00000000000000000000e-01) (8, 4, 5.00000000000000000000e-01) (8, 4, 5.00000000000000000000e-01) (8, 4, 5.00000000000000000000e-01) (8, 4, 5.00000000000000000000e-01) (0, 0, 0.00000000000000000000e+00) (10, 6, 5.00000000000000000000e-01) (0, 6, 0.00000000000000000000e+00) 
connections (connected_to_neuron, weight)=(0, 3.10326270054377353347e+01) (1, -2.64786099079603438611e+01) (2, -3.00538976588272035428e+01) (3, 4.29920678245726222144e+01) (4, -2.73686975433017778414e+01) (5, 2.72188220182122897484e+01) (6, -2.76701515839405196573e+01) (7, -1.58955111985551909015e+01) (0, -6.75085556441165124397e+01) (1, 1.23095533463285192965e+02) (2, 7.34911017750131918547e+01) (3, -1.32163066311184831392e+01) (4, -1.62730176761608902325e+01) (5, -2.04228843295724686868e+02) (6, 7.28442613108005758704e+01) (7, -5.63170666649798761227e+01) (0, -2.05894700872168421313e+01) (1, 2.65779494253185148978e+01) (2, -5.31104148131462920901e+02) (3, 3.47638892185914528454e+02) (4, 5.95675623018800138198e+02) (5, -2.90507631641333887274e+02) (6, -1.46853973093893870328e+02) (7, -1.39815206784229559389e+02) (0, 1.82706395317033241099e+02) (1, 7.66752766290300428409e+02) (2, -3.32662177613768079709e+01) (3, -2.83667409805917202448e+02) (4, -3.36981735593089524627e+02) (5, -8.84186237647176085375e+02) (6, -1.03073914211020237985e+02) (7, 1.24026536938001299859e+02) (0, 3.55394292773666052199e+02) (1, 5.22054804436724779748e+01) (2, -1.97286110720151071973e+02) (3, 1.33229752930713232217e+02) (4, 1.27808827774676842637e+02) (5, -3.68159492954231071238e+00) (6, -4.67641493457580963877e+02) (7, -6.71013418208924292685e+01) (0, 1.49986492335231287143e+03) (1, 9.67284881115127177509e+02) (2, 5.39146243687762876107e+02) (3, -9.42820388283343277180e+02) (4, -2.44000948576159117920e+02) (5, 5.82266599436710407645e+02) (6, -8.48662078043385463388e+02) (7, -1.40249185049516154322e+03) (0, 1.04697918432024053459e+02) (1, 1.93684509423217519952e+02) (2, -2.33005157531137228943e+02) (3, -6.46534832304859037322e+01) (4, 1.65987362313464529961e+02) (5, -1.89950281466412008058e+02) (6, 7.17041548541841109454e+01) (7, -5.13894414570345716697e+01) (0, 4.67983428453142153103e+02) (1, -3.83912614471063079691e+02) (2, -1.10035141673064026691e+03) (3, 1.08236349663319970205e+03) (4, 9.31203312603937092717e+02) (5, -8.32099045876861623583e+02) (6, -3.91386969293198887954e+02) (7, 5.87570510529387917131e+01) (0, 1.88721147478168404632e+02) (1, -1.48165058857120271796e+02) (2, -1.59194040361586303334e+02) (3, 1.43771992330014910522e+02) (4, -2.37501738923617068622e+02) (5, 1.02206484868272571020e+03) (6, 4.46075814005749634816e+02) (7, -1.29827547465343286603e+03) (8, 2.76385070979851299455e+00) (9, -2.25737251694302631932e+00) (10, 1.05565566125076415460e+00) (11, 7.27419524930890681880e-01) (12, -1.43530780361915621945e+00) (13, 4.51833629262868574639e-01) (14, -7.51988383055193998494e-01) (15, 1.14871748482440513839e-01) (16, -1.36895721391469127326e+00) (17, 1.67633905981955405595e-01) 
