FANN_FLO_2.1
num_layers=3
learning_rate=0.700000
connection_rate=1.000000
network_type=0
learning_momentum=0.000000
training_algorithm=2
train_error_function=1
train_stop_function=0
cascade_output_change_fraction=0.010000
quickprop_decay=-0.000100
quickprop_mu=1.750000
rprop_increase_factor=1.200000
rprop_decrease_factor=0.500000
rprop_delta_min=0.000000
rprop_delta_max=50.000000
rprop_delta_zero=0.100000
cascade_output_stagnation_epochs=12
cascade_candidate_change_fraction=0.010000
cascade_candidate_stagnation_epochs=12
cascade_max_out_epochs=150
cascade_max_cand_epochs=150
cascade_num_candidate_groups=2
bit_fail_limit=3.49999999999999977796e-01
cascade_candidate_limit=1.00000000000000000000e+03
cascade_weight_multiplier=4.00000000000000022204e-01
cascade_activation_functions_count=10
cascade_activation_functions=3 5 7 8 10 11 14 15 16 17 
cascade_activation_steepnesses_count=4
cascade_activation_steepnesses=2.50000000000000000000e-01 5.00000000000000000000e-01 7.50000000000000000000e-01 1.00000000000000000000e+00 
layer_sizes=8 9 2 
scale_included=0
neurons (num_inputs, activation_function, activation_steepness)=(0, 0, 0.00000000000000000000e+00) (0, 0, 0.00000000000000000000e+00) (0, 0, 0.00000000000000000000e+00) (0, 0, 0.00000000000000000000e+00) (0, 0, 0.00000000000000000000e+00) (0, 0, 0.00000000000000000000e+00) (0, 0, 0.00000000000000000000e+00) (0, 0, 0.00000000000000000000e+00) (8, 4, 5.00000000000000000000e-01) (8, 4, 5.00000000000000000000e-01) (8, 4, 5.00000000000000000000e-01) (8, 4, 5.00000000000000000000e-01) (8, 4, 5.00000000000000000000e-01) (8, 4, 5.00000000000000000000e-01) (8, 4, 5.00000000000000000000e-01) (8, 4, 5.00000000000000000000e-01) (0, 0, 0.00000000000000000000e+00) (9, 6, 5.00000000000000000000e-01) (0, 6, 0.00000000000000000000e+00) 
connections (connected_to_neuron, weight)=(0, -5.84299074928652316885e+02) (1, 1.50000000000000000000e+03) (2, 1.49847320267215377498e+03) (3, -1.50000000000000000000e+03) (4, -3.66794098449308535237e+02) (5, -6.09754229543121255119e+02) (6, -5.56305216308719650442e+02) (7, 1.50000000000000000000e+03) (0, -1.18932029896286195481e+00) (1, 1.05710758447780790448e+01) (2, -2.70215226458017880873e+01) (3, 2.19789124931475114977e+01) (4, -8.18812898821129486748e+00) (5, 7.92191819488499859858e+00) (6, -7.19839307074679002341e+00) (7, -6.49890435827456247608e+00) (0, -1.50000000000000000000e+03) (1, -1.50000000000000000000e+03) (2, -1.50000000000000000000e+03) (3, -1.50000000000000000000e+03) (4, -1.50000000000000000000e+03) (5, -1.50000000000000000000e+03) (6, -1.50000000000000000000e+03) (7, -1.89363284596719232411e+01) (0, -1.50000000000000000000e+03) (1, -1.50000000000000000000e+03) (2, -1.50000000000000000000e+03) (3, -1.50000000000000000000e+03) (4, -1.50000000000000000000e+03) (5, -1.50000000000000000000e+03) (6, -1.50000000000000000000e+03) (7, 1.29220219398935363131e+01) (0, -4.16043084234471383098e+00) (1, -5.77483281029497241832e+00) (2, 2.73247788493891725636e+01) (3, -2.51831428521079807581e+01) (4, 1.15351825985972613609e+01) (5, -1.12735879694645841909e+01) (6, 1.16993794949245621950e+01) (7, 7.89916262551217496224e+00) (0, -1.22190750142951696233e+01) (1, 1.48770502785381868449e+01) (2, 4.23050869094966053297e+00) (3, 3.43195981074510658715e+00) (4, 6.95268014149356461395e-01) (5, -1.75266408251003262819e+01) (6, 8.71178871762460360628e+00) (7, -9.63948578958716240095e+00) (0, -1.50000000000000000000e+03) (1, -1.50000000000000000000e+03) (2, -1.50000000000000000000e+03) (3, -1.50000000000000000000e+03) (4, -1.50000000000000000000e+03) (5, -1.50000000000000000000e+03) (6, -1.50000000000000000000e+03) (7, 4.55404097900600923765e+00) (0, 1.16450472497889359147e+03) (1, -8.14042014678306486530e+02) (2, -1.01663983096946651585e+02) (3, 5.79810053932247456032e+02) (4, -1.50000000000000000000e+03) (5, 1.26544372786573649137e+03) (6, -1.20418157274796226375e+03) (7, -2.11556262328771708781e+02) (8, 5.57235866967945892014e+00) (9, -1.41279475427844083413e+01) (10, 1.50000000000000000000e+03) (11, 1.50000000000000000000e+03) (12, -1.42816730507054749921e+01) (13, -6.47205302040824470566e+00) (14, 1.50000000000000000000e+03) (15, -9.88098710504131672039e-01) (16, 8.88998042119239428871e+00) 
