FANN_FLO_2.1
num_layers=3
learning_rate=0.700000
connection_rate=1.000000
network_type=0
learning_momentum=0.000000
training_algorithm=2
train_error_function=1
train_stop_function=0
cascade_output_change_fraction=0.010000
quickprop_decay=-0.000100
quickprop_mu=1.750000
rprop_increase_factor=1.200000
rprop_decrease_factor=0.500000
rprop_delta_min=0.000000
rprop_delta_max=50.000000
rprop_delta_zero=0.100000
cascade_output_stagnation_epochs=12
cascade_candidate_change_fraction=0.010000
cascade_candidate_stagnation_epochs=12
cascade_max_out_epochs=150
cascade_max_cand_epochs=150
cascade_num_candidate_groups=2
bit_fail_limit=3.49999999999999977796e-01
cascade_candidate_limit=1.00000000000000000000e+03
cascade_weight_multiplier=4.00000000000000022204e-01
cascade_activation_functions_count=10
cascade_activation_functions=3 5 7 8 10 11 14 15 16 17 
cascade_activation_steepnesses_count=4
cascade_activation_steepnesses=2.50000000000000000000e-01 5.00000000000000000000e-01 7.50000000000000000000e-01 1.00000000000000000000e+00 
layer_sizes=8 15 2 
scale_included=0
neurons (num_inputs, activation_function, activation_steepness)=(0, 0, 0.00000000000000000000e+00) (0, 0, 0.00000000000000000000e+00) (0, 0, 0.00000000000000000000e+00) (0, 0, 0.00000000000000000000e+00) (0, 0, 0.00000000000000000000e+00) (0, 0, 0.00000000000000000000e+00) (0, 0, 0.00000000000000000000e+00) (0, 0, 0.00000000000000000000e+00) (8, 4, 5.00000000000000000000e-01) (8, 4, 5.00000000000000000000e-01) (8, 4, 5.00000000000000000000e-01) (8, 4, 5.00000000000000000000e-01) (8, 4, 5.00000000000000000000e-01) (8, 4, 5.00000000000000000000e-01) (8, 4, 5.00000000000000000000e-01) (8, 4, 5.00000000000000000000e-01) (8, 4, 5.00000000000000000000e-01) (8, 4, 5.00000000000000000000e-01) (8, 4, 5.00000000000000000000e-01) (8, 4, 5.00000000000000000000e-01) (8, 4, 5.00000000000000000000e-01) (8, 4, 5.00000000000000000000e-01) (0, 0, 0.00000000000000000000e+00) (15, 6, 5.00000000000000000000e-01) (0, 6, 0.00000000000000000000e+00) 
connections (connected_to_neuron, weight)=(0, -3.24297133185754162810e+01) (1, -1.41125528314957158216e+01) (2, 2.94873372003108045192e+01) (3, -8.76481671778738835599e+00) (4, 3.61016505341409299490e+01) (5, -3.41844144735543054026e+00) (6, 3.91076615913037883843e+01) (7, -1.02958776468009656213e+01) (0, 7.22084251581115097451e+01) (1, 6.00459449340819606533e+00) (2, -2.19252478951271747576e+01) (3, 4.67327699707014776465e+00) (4, -3.48019229235814648860e+01) (5, 8.01723151008091883263e-01) (6, -8.40914674285495209460e+01) (7, 2.93277318643373163809e+01) (0, -1.24115044279850454956e+01) (1, -3.43920416706601884016e+02) (2, 1.12608300053802793173e+02) (3, 3.42872298081624649058e+02) (4, 1.63795133350338176115e+02) (5, -3.76662644737476881573e+01) (6, -2.96079200377613780404e+01) (7, -4.45770172681211747090e+01) (0, 7.39959437468485869971e+00) (1, -2.37746889345230583146e+00) (2, 9.19967695221533127148e-03) (3, 4.72213636045502127558e+00) (4, -1.03485988299983837635e+01) (5, -4.50985141485208984591e+00) (6, -6.80198448120343268641e+00) (7, 2.25296790057820750519e+00) (0, 1.88986917294476455709e+02) (1, 3.27036744354497272980e+02) (2, 3.19970608049570103049e+02) (3, -1.12991191870440147227e+02) (4, -4.93805980643716452505e+02) (5, -6.08247556306539877369e+02) (6, -4.80214630423398034509e+02) (7, 1.72866147005981815710e+02) (0, -9.05954480636260655046e+02) (1, 7.75809738282951428801e+01) (2, -8.79351569100448045901e+02) (3, 1.23117614018229551220e+03) (4, -7.70879857902225126054e+02) (5, 9.32926257850191404941e+02) (6, -4.49294252684384389340e+02) (7, 1.40419328018798978519e+03) (0, -5.92513929378772630230e+01) (1, 1.30260436701159427741e+01) (2, -4.01661858447792425864e+01) (3, 2.05486659795724335709e+02) (4, 7.23854817644330807980e+01) (5, -3.32259583813380530160e+01) (6, 6.76813136648195357026e+00) (7, -4.66685064022173108356e+01) (0, 2.56381117978476140706e+02) (1, -4.94501859429636070331e+01) (2, 1.14564517081054944470e+02) (3, 5.32016595061404473199e+02) (4, 4.53838857485918538259e+02) (5, -2.36792322157118491077e+02) (6, 2.87841621871227175689e+02) (7, -5.34572979628192797463e+02) (0, -1.70866896035789261887e+00) (1, -1.50177225302449013355e+00) (2, 3.68068583554002781710e+00) (3, -9.96805673198688069192e+00) (4, -9.48777984907246185742e+00) (5, 7.70108884869887688751e+00) (6, -5.71785629694579133897e-01) (7, 4.22618111791701700497e+00) (0, -4.65599780093830304395e+02) (1, 1.13290223548384631158e+02) (2, 6.66076971414342011713e+01) (3, 2.67277558524815390228e+02) (4, 5.21161545702776081157e+01) (5, -2.67773980496822616715e+02) (6, 2.28196067546457697972e+02) (7, 6.72128006842354750461e+01) (0, -2.35250383422181869264e+02) (1, 1.24848732364288835583e+02) (2, -2.50244050483269546703e+02) (3, 3.37898305719885172493e+02) (4, 1.62242276689346368812e+02) (5, -1.36262766571485087752e+02) (6, -6.11616657151894571598e+01) (7, -9.47364583411150960046e+01) (0, -4.28401544305886432085e+02) (1, -6.69015563208572416443e+02) (2, 1.49995065285171676805e+03) (3, 1.48153441870464394015e+03) (4, -1.31651561050276518472e+03) (5, -1.50000000000000000000e+03) (6, -6.11386941238655140296e+02) (7, -9.26873272593134743147e+02) (0, 4.44926019727738690790e+01) (1, -6.44147296346335167527e+01) (2, -1.68921105908101850446e+02) (3, 5.77706890223845448418e+01) (4, 3.18309051144295267477e+02) (5, 5.59732159831153452956e+00) (6, 5.51099084082639478765e+01) (7, -4.18308958445653757963e+01) (0, 1.00846450385900865854e+02) (1, 9.89976275148754893962e+01) (2, 1.50000000000000000000e+03) (3, 1.50000000000000000000e+03) (4, 1.24184114230286695602e+03) (5, -8.82067468298114818026e+02) (6, -4.75396493810048127671e+02) (7, -1.63546942234468843935e+02) (8, -5.70097438705262060665e+00) (9, 1.38495514687384879693e+00) (10, 2.37456937937666845428e+00) (11, -6.38850525287065629243e+00) (12, 3.65216547825216597545e+00) (13, -2.06225904980368079933e+00) (14, -1.98523261063829159490e+00) (15, 2.52332576868477609366e+00) (16, 4.52891486236229656726e+00) (17, 2.09198514852651706875e+00) (18, 2.27163094288773237395e+00) (19, 1.29016018860685632852e+00) (20, -2.43045878470893761403e+00) (21, 5.45701299044031085117e+00) (22, -1.05283150273994596802e+00) 
