FANN_FLO_2.1
num_layers=3
learning_rate=0.700000
connection_rate=1.000000
network_type=0
learning_momentum=0.000000
training_algorithm=2
train_error_function=1
train_stop_function=0
cascade_output_change_fraction=0.010000
quickprop_decay=-0.000100
quickprop_mu=1.750000
rprop_increase_factor=1.200000
rprop_decrease_factor=0.500000
rprop_delta_min=0.000000
rprop_delta_max=50.000000
rprop_delta_zero=0.100000
cascade_output_stagnation_epochs=12
cascade_candidate_change_fraction=0.010000
cascade_candidate_stagnation_epochs=12
cascade_max_out_epochs=150
cascade_max_cand_epochs=150
cascade_num_candidate_groups=2
bit_fail_limit=3.49999999999999977796e-01
cascade_candidate_limit=1.00000000000000000000e+03
cascade_weight_multiplier=4.00000000000000022204e-01
cascade_activation_functions_count=10
cascade_activation_functions=3 5 7 8 10 11 14 15 16 17 
cascade_activation_steepnesses_count=4
cascade_activation_steepnesses=2.50000000000000000000e-01 5.00000000000000000000e-01 7.50000000000000000000e-01 1.00000000000000000000e+00 
layer_sizes=8 9 2 
scale_included=0
neurons (num_inputs, activation_function, activation_steepness)=(0, 0, 0.00000000000000000000e+00) (0, 0, 0.00000000000000000000e+00) (0, 0, 0.00000000000000000000e+00) (0, 0, 0.00000000000000000000e+00) (0, 0, 0.00000000000000000000e+00) (0, 0, 0.00000000000000000000e+00) (0, 0, 0.00000000000000000000e+00) (0, 0, 0.00000000000000000000e+00) (8, 4, 5.00000000000000000000e-01) (8, 4, 5.00000000000000000000e-01) (8, 4, 5.00000000000000000000e-01) (8, 4, 5.00000000000000000000e-01) (8, 4, 5.00000000000000000000e-01) (8, 4, 5.00000000000000000000e-01) (8, 4, 5.00000000000000000000e-01) (8, 4, 5.00000000000000000000e-01) (0, 0, 0.00000000000000000000e+00) (9, 6, 5.00000000000000000000e-01) (0, 6, 0.00000000000000000000e+00) 
connections (connected_to_neuron, weight)=(0, 1.71265997565396794755e+01) (1, -6.27671388445510558540e+01) (2, -3.47352132111951590332e+01) (3, -5.29707233960598529166e+01) (4, 6.64223807240422985387e+01) (5, -6.89206716409550210756e+01) (6, 5.55500446782340304708e+01) (7, -6.72966303656157616153e-01) (0, -4.00960017741318281992e+01) (1, 7.79248076426798235161e+01) (2, -8.82342227028651393539e+01) (3, 1.04068140434946172945e+02) (4, -1.13993628235367250312e+01) (5, -2.16496090550134390185e+00) (6, -3.36822786063451360405e+01) (7, -2.02012835740501834891e+01) (0, -1.38673251987278177921e+02) (1, 1.49761702839127792686e+02) (2, -4.84837678531944504812e+01) (3, 5.85910663560177624731e+01) (4, -5.66545738944082160060e+01) (5, 3.63028431342744717369e+00) (6, 8.13106447882001219796e+01) (7, -2.53014251131969096775e+01) (0, 3.73181400407543378606e+02) (1, 5.55319805417550966808e+01) (2, -9.48231273943389965098e+02) (3, -2.24600368164067191401e+02) (4, 9.29702801094679671223e+02) (5, -5.82518103855685581038e+02) (6, 3.46279019298424429962e+02) (7, -1.96943238476894038058e+02) (0, -1.35070545843411586873e+01) (1, 2.79380562164836248940e+02) (2, -1.06394946503998610865e+02) (3, 1.45159143041891525172e+02) (4, -1.50000000000000000000e+03) (5, -1.50000000000000000000e+03) (6, 1.87564623054430057891e+02) (7, -4.19279229236005448911e+02) (0, 1.74220716572440323944e+01) (1, -1.14916456319687849685e+01) (2, -5.09535752024202093224e+00) (3, 2.43851537849447410622e+01) (4, -4.46518019294028931654e+01) (5, -1.40083227720293042040e+01) (6, -2.36123662876866191596e+00) (7, -6.63654767595176497963e+00) (0, 4.56780090713548588610e+02) (1, -1.60206272673795638184e+02) (2, -1.69110327937950756905e+02) (3, 1.69892496536372732407e+02) (4, -1.50000000000000000000e+03) (5, -1.50000000000000000000e+03) (6, -1.84350239568946221880e+02) (7, -1.43885746160031562368e+01) (0, -1.50000000000000000000e+03) (1, -1.50000000000000000000e+03) (2, -1.50000000000000000000e+03) (3, -1.50000000000000000000e+03) (4, 1.50000000000000000000e+03) (5, 1.50000000000000000000e+03) (6, 6.10621118802566002159e+02) (7, 3.13907183170401538064e+02) (8, -2.45156961200617518060e+00) (9, -1.67926768933653569604e+00) (10, -1.68256900792432317893e+00) (11, 3.53679892413360619230e-01) (12, 3.62334034249269043571e+00) (13, -4.41337490645373176079e+00) (14, 1.70832431429724374006e+00) (15, -1.28283414319917521418e+00) (16, 1.72633519669240342864e+00) 
