FANN_FLO_2.1
num_layers=4
learning_rate=0.700000
connection_rate=1.000000
network_type=0
learning_momentum=0.000000
training_algorithm=2
train_error_function=1
train_stop_function=0
cascade_output_change_fraction=0.010000
quickprop_decay=-0.000100
quickprop_mu=1.750000
rprop_increase_factor=1.200000
rprop_decrease_factor=0.500000
rprop_delta_min=0.000000
rprop_delta_max=50.000000
rprop_delta_zero=0.100000
cascade_output_stagnation_epochs=12
cascade_candidate_change_fraction=0.010000
cascade_candidate_stagnation_epochs=12
cascade_max_out_epochs=150
cascade_max_cand_epochs=150
cascade_num_candidate_groups=2
bit_fail_limit=3.49999999999999977796e-01
cascade_candidate_limit=1.00000000000000000000e+03
cascade_weight_multiplier=4.00000000000000022204e-01
cascade_activation_functions_count=10
cascade_activation_functions=3 5 7 8 10 11 14 15 16 17 
cascade_activation_steepnesses_count=4
cascade_activation_steepnesses=2.50000000000000000000e-01 5.00000000000000000000e-01 7.50000000000000000000e-01 1.00000000000000000000e+00 
layer_sizes=8 16 16 2 
scale_included=0
neurons (num_inputs, activation_function, activation_steepness)=(0, 0, 0.00000000000000000000e+00) (0, 0, 0.00000000000000000000e+00) (0, 0, 0.00000000000000000000e+00) (0, 0, 0.00000000000000000000e+00) (0, 0, 0.00000000000000000000e+00) (0, 0, 0.00000000000000000000e+00) (0, 0, 0.00000000000000000000e+00) (0, 0, 0.00000000000000000000e+00) (8, 4, 5.00000000000000000000e-01) (8, 4, 5.00000000000000000000e-01) (8, 4, 5.00000000000000000000e-01) (8, 4, 5.00000000000000000000e-01) (8, 4, 5.00000000000000000000e-01) (8, 4, 5.00000000000000000000e-01) (8, 4, 5.00000000000000000000e-01) (8, 4, 5.00000000000000000000e-01) (8, 4, 5.00000000000000000000e-01) (8, 4, 5.00000000000000000000e-01) (8, 4, 5.00000000000000000000e-01) (8, 4, 5.00000000000000000000e-01) (8, 4, 5.00000000000000000000e-01) (8, 4, 5.00000000000000000000e-01) (8, 4, 5.00000000000000000000e-01) (0, 0, 0.00000000000000000000e+00) (16, 4, 5.00000000000000000000e-01) (16, 4, 5.00000000000000000000e-01) (16, 4, 5.00000000000000000000e-01) (16, 4, 5.00000000000000000000e-01) (16, 4, 5.00000000000000000000e-01) (16, 4, 5.00000000000000000000e-01) (16, 4, 5.00000000000000000000e-01) (16, 4, 5.00000000000000000000e-01) (16, 4, 5.00000000000000000000e-01) (16, 4, 5.00000000000000000000e-01) (16, 4, 5.00000000000000000000e-01) (16, 4, 5.00000000000000000000e-01) (16, 4, 5.00000000000000000000e-01) (16, 4, 5.00000000000000000000e-01) (16, 4, 5.00000000000000000000e-01) (0, 0, 0.00000000000000000000e+00) (16, 6, 5.00000000000000000000e-01) (0, 6, 0.00000000000000000000e+00) 
connections (connected_to_neuron, weight)=(0, -1.07459573360036802114e+03) (1, 8.53168966782850247910e+02) (2, -1.37648395408068245160e+03) (3, 1.19517385812273073498e+03) (4, -2.64842668284984021909e+01) (5, -1.74849392241666862446e+02) (6, 5.61424655873471238010e+02) (7, 8.25348995249110544137e+01) (0, 7.10152179022330301450e+02) (1, -5.14220269401969858336e+02) (2, -1.48573454225994987610e+03) (3, -1.42139421817174934404e+03) (4, 1.21490813847693834759e+03) (5, -5.97041957005079893861e+02) (6, -1.24470050441629211946e+02) (7, 1.48067109922817917322e+03) (0, -4.37779520562029844655e+01) (1, 6.25948726304188483027e+01) (2, -1.07941964067783146675e+02) (3, 2.14678765113498783990e+01) (4, 4.75053253509190511750e+01) (5, -1.86272849113395260190e+01) (6, 6.00527414169103721520e+01) (7, -4.68741104518195399464e+01) (0, -6.40649306726324425654e+02) (1, 1.32884384058538353202e+03) (2, -1.33233155973510451986e+03) (3, -4.48065281010886963031e+02) (4, 1.41597007549376303359e+03) (5, -6.87097850057749838015e+02) (6, 4.89512474952735090028e+02) (7, -5.80262978207222204219e+01) (0, 1.17553620222324161659e+03) (1, 1.42833733475290728165e+03) (2, -1.39440639591540298170e+03) (3, -4.02190795429328261434e+02) (4, -6.02956748454564603890e+02) (5, -1.40154481218161822653e+03) (6, -6.90152448664582180982e+01) (7, -4.24995763100335324225e+01) (0, -2.27714406956866781684e+02) (1, 1.25097779190550636486e+03) (2, -1.43542303523591795056e+03) (3, 2.92583462151886465108e+02) (4, 7.51684980012928349424e+02) (5, 6.81867517066253185476e+02) (6, -6.76510144742629336179e+02) (7, 2.31869454934580723204e+01) (0, 1.38515841431114040461e+03) (1, -9.56583994540301887355e+02) (2, -2.19444012372106840303e+02) (3, -1.16142464098515824844e+03) (4, 4.53923375438745665633e+02) (5, -5.14660058666913869274e+02) (6, 3.94065714270917169415e+02) (7, -1.09999214236022186952e+01) (0, 4.33040618511218838194e+02) (1, 6.36925251031237053212e+02) (2, -8.06239089925996040620e+02) (3, -1.39225722911916454905e+03) (4, -1.42377279617726048855e+03) (5, 1.22595366206848780166e+03) (6, 8.37503614193092403184e+02) (7, 1.44643000767916277027e+02) (0, -4.39250520545059202959e+02) (1, -6.70879381304172710543e+01) (2, 7.28221329940188638830e+02) (3, 6.40181907498151474556e+01) (4, -4.90750732841671410966e+00) (5, -1.43686094740310011275e+02) (6, -9.14393968813964761466e+01) (7, 6.05444346327295761512e+01) (0, -4.48033428903963908851e+02) (1, 7.58900732866043426839e+02) (2, 3.64985060771544624458e+02) (3, 7.63324434169922199089e+01) (4, -6.24525272422219813961e+02) (5, 2.01305606417644867179e+02) (6, -6.93817311075819361577e+02) (7, 1.36637477129830870126e+02) (0, -4.73168408472174064627e+01) (1, -1.47712853885307939805e+01) (2, -2.07739066534233032257e+01) (3, -8.56001338308939523358e+01) (4, 1.52857041381684894077e+02) (5, -4.65321398905470005047e+01) (6, -3.67554753925796229286e-01) (7, 4.27245735273542805999e+01) (0, 1.46468046388282027692e+03) (1, -1.04790156859643889220e+03) (2, -1.48584163699122700564e+03) (3, -1.49461849290187728911e+03) (4, -3.10631791854361438254e+02) (5, -1.48644556376519744845e+03) (6, 1.47754575368116820755e+03) (7, 8.52363222981396617683e+00) (0, 1.43409182843195992518e+01) (1, 5.02025971179806020928e+01) (2, -5.11722501544462602396e+01) (3, -5.17714773739112956719e+01) (4, 8.91599676958205833444e+01) (5, -5.29125674960574912120e+01) (6, -5.75598793217382542764e+00) (7, 1.15299560461592385252e+01) (0, -6.86097517043523055236e+01) (1, 4.24367684740659640852e+01) (2, 1.56044240998028101330e+02) (3, 1.36278547172486099726e+02) (4, -9.85141767420520864107e+01) (5, 2.83610193167079245313e+01) (6, -4.91928705179013476823e+01) (7, -2.33959654661660465536e+01) (0, -5.11246923045500096805e+01) (1, 5.01359566571897090625e+01) (2, 3.49600646081838328794e-01) (3, 3.47079841842270342411e+00) (4, -8.04415497780382224846e+01) (5, 4.07761638401209367544e+01) (6, 1.43197145461194743632e+01) (7, 2.48838922396246537971e+01) (8, -5.90022870568193752661e+02) (9, 9.61533787724203307334e+02) (10, -1.50000000000000000000e+03) (11, -5.51913170153651094552e+02) (12, 9.34186766119737171721e+02) (13, 1.29938659395293780108e+03) (14, -7.32221852153970473864e+01) (15, 1.26510172140517693151e+03) (16, 1.36505225159229712517e+03) (17, -1.26410725406151300376e+03) (18, -1.17728942069787422042e+03) (19, -8.75446557488193320751e+02) (20, 2.55202884010299698048e+02) (21, -9.97617078093865757182e+02) (22, -1.28004413499695419887e+03) (23, -1.85796005952544646789e+02) (8, -1.45576904707628773394e+03) (9, 9.44261721452530082388e+02) (10, 1.50000000000000000000e+03) (11, 6.86284830826649567825e+02) (12, 6.68006083304624553421e+02) (13, 1.44071203070953788483e+03) (14, -1.36667425736061295538e+03) (15, -1.47489684102119326781e+03) (16, -1.44980135660993778401e+03) (17, 2.42691289290047023997e+02) (18, -1.35098610777503949976e+03) (19, 1.29730086318203757401e+03) (20, -9.27889725454060112497e+02) (21, 1.49931199883091767333e+03) (22, 6.39344836949399905279e+02) (23, 1.01762427236154701404e+03) (8, -5.18961064262184549989e+02) (9, -1.22996587441978454081e+03) (10, -1.50000000000000000000e+03) (11, -4.39614297786674342206e+02) (12, 3.03415057125170619656e+02) (13, 1.40091725240010021025e+01) (14, -3.78448431927601575353e+02) (15, -5.43344925307406924730e+02) (16, 3.66315677179593365054e+02) (17, -1.46696620084250707805e+03) (18, 6.25262960489850172507e+01) (19, 1.18652202225078985975e+03) (20, 1.10471878846638333016e+02) (21, 4.80982209342613316494e+02) (22, 7.28191060569126875635e+02) (23, 3.15087811694249637640e+02) (8, -1.12638466043272319439e+03) (9, -7.63771358681003789570e+02) (10, -1.50000000000000000000e+03) (11, 3.71032165594419154786e+02) (12, 6.18369095314402329677e+02) (13, -5.77700248349750609123e+02) (14, -2.11644182900451092166e+01) (15, 1.18463176493378159648e+03) (16, 1.10902946567004573808e+03) (17, 5.79875307959042970651e+02) (18, 7.87451167010025709914e+00) (19, 1.50000000000000000000e+03) (20, 1.34645782602998656330e+03) (21, -1.99478489532848328736e+02) (22, -7.92185616827710646248e+02) (23, 1.74981721984082305710e+01) (8, 1.24606736000578121093e+03) (9, 1.43496536507403129690e+03) (10, 1.50000000000000000000e+03) (11, 3.78218981047761815262e+02) (12, -6.31140820951418504592e+02) (13, 7.09860599780259690306e+02) (14, -6.96699997761384111072e+02) (15, 5.37856172676489663331e+01) (16, -1.35247674374926373275e+03) (17, -3.77205050413308242696e+02) (18, -1.37113086663090871298e+03) (19, -1.42962728701443234058e+03) (20, -7.95531997517858371793e+02) (21, 1.35430728313356803483e+03) (22, 7.72515230595750040266e+02) (23, -2.77784560735037302948e+02) (8, 3.05754778351345976262e+02) (9, -1.32122926670395054316e+03) (10, -1.50000000000000000000e+03) (11, -5.97753984872187629662e+02) (12, -3.70026714570590456788e+02) (13, -7.26410426830038773005e+02) (14, 7.38188699352587605063e+02) (15, 1.35198031984369868042e+03) (16, 1.48060330629601025976e+03) (17, -7.94489864289221145555e+02) (18, 1.11089004589884575580e+03) (19, -1.17945458377935187855e+03) (20, -2.75318564170668423685e+02) (21, 9.22656088260774254195e+02) (22, 1.46604482183770846859e+03) (23, -8.58820529739521703050e+02) (8, -3.48800422325393526535e+02) (9, 5.04628404590182313427e+01) (10, 1.50000000000000000000e+03) (11, 1.15851205642158515730e+03) (12, -2.90245128702172962676e+02) (13, -5.10857795744017721518e+02) (14, -1.18116180765659828467e+03) (15, 4.38982825907119945441e+02) (16, 2.53633574678496216848e+02) (17, -1.95897826370529230644e+02) (18, 2.50159414102675071945e+02) (19, 1.90164356745850341213e+02) (20, -5.77832677520778020153e+02) (21, 1.03374731895336003618e+03) (22, 2.34110412874898003111e+02) (23, -4.70031497438967392100e+02) (8, -1.40397155449199999566e+03) (9, -5.39563703957686584545e+02) (10, -1.50000000000000000000e+03) (11, 1.50000000000000000000e+03) (12, -1.48505143584463075968e+03) (13, 2.38040510915220373533e+01) (14, -8.04972601114040458015e+02) (15, 1.49938520686769379608e+03) (16, 1.44826240610949980692e+03) (17, -1.37983841213039568174e+03) (18, 6.29792257316189989069e+02) (19, 1.50000000000000000000e+03) (20, 1.49273810978304572927e+03) (21, -1.50000000000000000000e+03) (22, 1.46146503893848120015e+02) (23, 1.25611505075911190943e+03) (8, -1.12760455350690472187e+03) (9, -1.04986600142929364665e+03) (10, 1.50000000000000000000e+03) (11, 1.15480243105271625836e+02) (12, -6.82219655312920394863e+02) (13, 7.24940424267211795950e+01) (14, 1.01729759511507643310e+03) (15, -8.96874470936883767536e+02) (16, 6.59612458128197118867e+01) (17, -1.72761300843662240823e+02) (18, -6.80770368038986589454e+02) (19, 1.03370546174681976481e+03) (20, -9.29022410919957764008e+00) (21, 8.14511986787177420410e+02) (22, 5.48241002762019888905e+02) (23, 1.99414014704762735164e+02) (8, 1.28768849541766871880e+03) (9, 1.27473165890656810006e+03) (10, -1.50000000000000000000e+03) (11, 2.05053814139561936258e+01) (12, -1.18594335910962990965e+03) (13, 1.23719845815317785309e+03) (14, 3.23316255975847411719e+02) (15, -3.23561998559709763867e+02) (16, 4.41516571168866164498e+02) (17, -1.38270334672485795124e+01) (18, -1.05287893741814059467e+03) (19, 1.15439922629065293336e+02) (20, -1.00956977504004868251e+02) (21, -5.35639596965318787625e+02) (22, -1.26794610280985602913e+03) (23, 1.05769329166893143679e+02) (8, -7.15421111957136417914e+02) (9, -1.22842104411109949069e+03) (10, 1.50000000000000000000e+03) (11, 2.76257649601087962310e+02) (12, -1.66031996066621644559e+02) (13, -1.12842384221770103636e+02) (14, -1.55772664130489516765e+02) (15, 1.10725349519744622739e+03) (16, 3.35255397476892426312e+02) (17, -1.43762174596320096498e+03) (18, 9.22671646453243738506e+02) (19, -6.52669288670781156725e+02) (20, -1.49876347029181079051e+03) (21, 1.44258440342178391802e+03) (22, 9.28854814743939755317e+02) (23, 8.03866809392494246822e+02) (8, -3.15857208019481099370e+01) (9, 1.18791403941751445927e+03) (10, 1.50000000000000000000e+03) (11, 2.38765883544533998872e+01) (12, -2.17974768991442822141e+01) (13, 1.19242302901797961567e+03) (14, 3.11104855494971523910e+01) (15, -1.21936048839094860341e+03) (16, 1.50000000000000000000e+03) (17, -1.46738222955288733829e+03) (18, -1.33961289948932886773e+01) (19, 3.88013878308628079594e+01) (20, -2.17611608627327406396e+01) (21, 8.83422057174655378731e+02) (22, -3.11672308652323749811e+02) (23, -5.55697667059771447384e+02) (8, -1.34529162109490789589e+03) (9, 1.49993583836663810871e+03) (10, -1.50000000000000000000e+03) (11, 1.50000000000000000000e+03) (12, -1.50000000000000000000e+03) (13, 4.36690028977469296478e+02) (14, -1.48584018034209634607e+03) (15, 3.28908451225840167353e+02) (16, 1.14522979515899260150e+03) (17, -8.79832415685310593290e+02) (18, -1.11276162864062825975e+03) (19, -6.46271836365513763667e+02) (20, 1.34613020486322034230e+03) (21, -1.50000000000000000000e+03) (22, 1.42350533495258014227e+03) (23, 9.84231109681021621327e+02) (8, 1.34088401853446657697e+03) (9, 1.39356174822996194962e+03) (10, 1.50000000000000000000e+03) (11, 4.14392823052393509897e+02) (12, 2.67533759920653267272e+02) (13, -1.22175035015481466871e+03) (14, -4.80058231716439877346e+02) (15, 1.34681329690543611832e+03) (16, 1.00495844225207770251e+03) (17, 3.09665998037468966686e+02) (18, -1.34014354921286053468e+03) (19, -1.40727570583274450655e+03) (20, 4.46598514963017123591e+02) (21, -8.56535145774742773028e+02) (22, -8.24840655407172903324e+02) (23, -2.15248465920453554645e+02) (8, -3.55481558146869133452e+02) (9, -2.49000356316022788405e+02) (10, -1.50000000000000000000e+03) (11, -3.63038734640302550361e+02) (12, 3.30446159648825471322e+02) (13, -5.62975888865217086732e+01) (14, 1.91605175568020598575e+02) (15, 6.28914668754680633356e+02) (16, -5.68114817775206802253e+02) (17, 3.86953335453729948767e+02) (18, -9.37954963096637754916e+01) (19, -4.36738144147657649796e+01) (20, 1.49939902781552905253e+03) (21, -9.96347169670547714304e+02) (22, -1.02304908016019908246e+03) (23, 4.50187247148388564710e+02) (24, 4.17723387638959831047e-01) (25, -7.93551710221672146339e-01) (26, 6.87656290588675833675e-01) (27, 3.95212236674467365383e-01) (28, -9.20317012124881261848e-01) (29, 7.03387552725863507419e-01) (30, -4.74632712402373591054e-01) (31, 7.16375864586185406857e-01) (32, -5.21999128550644897473e-01) (33, 8.64228105089285936202e-01) (34, -5.19701481159090317163e-01) (35, -1.42485182529045717459e+00) (36, 1.50355087155652022979e+00) (37, -1.03112927702731593804e+00) (38, 3.27506178276879889033e-01) (39, 5.07208991876903492191e-01) 
