FANN_FLO_2.1
num_layers=3
learning_rate=0.700000
connection_rate=1.000000
network_type=0
learning_momentum=0.000000
training_algorithm=2
train_error_function=1
train_stop_function=0
cascade_output_change_fraction=0.010000
quickprop_decay=-0.000100
quickprop_mu=1.750000
rprop_increase_factor=1.200000
rprop_decrease_factor=0.500000
rprop_delta_min=0.000000
rprop_delta_max=50.000000
rprop_delta_zero=0.100000
cascade_output_stagnation_epochs=12
cascade_candidate_change_fraction=0.010000
cascade_candidate_stagnation_epochs=12
cascade_max_out_epochs=150
cascade_max_cand_epochs=150
cascade_num_candidate_groups=2
bit_fail_limit=3.49999999999999977796e-01
cascade_candidate_limit=1.00000000000000000000e+03
cascade_weight_multiplier=4.00000000000000022204e-01
cascade_activation_functions_count=10
cascade_activation_functions=3 5 7 8 10 11 14 15 16 17 
cascade_activation_steepnesses_count=4
cascade_activation_steepnesses=2.50000000000000000000e-01 5.00000000000000000000e-01 7.50000000000000000000e-01 1.00000000000000000000e+00 
layer_sizes=8 10 2 
scale_included=0
neurons (num_inputs, activation_function, activation_steepness)=(0, 0, 0.00000000000000000000e+00) (0, 0, 0.00000000000000000000e+00) (0, 0, 0.00000000000000000000e+00) (0, 0, 0.00000000000000000000e+00) (0, 0, 0.00000000000000000000e+00) (0, 0, 0.00000000000000000000e+00) (0, 0, 0.00000000000000000000e+00) (0, 0, 0.00000000000000000000e+00) (8, 4, 5.00000000000000000000e-01) (8, 4, 5.00000000000000000000e-01) (8, 4, 5.00000000000000000000e-01) (8, 4, 5.00000000000000000000e-01) (8, 4, 5.00000000000000000000e-01) (8, 4, 5.00000000000000000000e-01) (8, 4, 5.00000000000000000000e-01) (8, 4, 5.00000000000000000000e-01) (8, 4, 5.00000000000000000000e-01) (0, 0, 0.00000000000000000000e+00) (10, 6, 5.00000000000000000000e-01) (0, 6, 0.00000000000000000000e+00) 
connections (connected_to_neuron, weight)=(0, 5.47282357850041648817e+02) (1, -1.46759015723829037370e+02) (2, 1.38355393341777528349e+02) (3, 5.81084617756619223883e+01) (4, -3.07404489934993279121e+01) (5, -3.80072082330098680814e+02) (6, -2.49751830879255294349e+02) (7, -3.94991223756954639157e+01) (0, 1.80273962345827158060e+02) (1, -6.22078248998138292336e+02) (2, 8.00384291101699091087e+02) (3, -1.50000000000000000000e+03) (4, 7.86230544170370421853e+02) (5, 1.10434407139347143811e+02) (6, 1.31368520715669689025e+02) (7, -1.81351140676270546237e+02) (0, 8.21248889895709481834e+01) (1, -5.79105865141896458681e+01) (2, -6.35268649823412232536e+01) (3, 5.85131070114200966259e+01) (4, -3.03026173420765907451e+01) (5, -3.21299987926645158609e+00) (6, -2.46943587222394853598e+01) (7, -3.27029995708205845073e-01) (0, -9.96877234855383775880e+00) (1, -1.24075376738014597322e+03) (2, 6.73413980438956059515e+02) (3, -9.91929305968304788621e+01) (4, 1.40605969172661593802e+03) (5, 2.32505632741394748564e+02) (6, 9.54539962789585729297e+02) (7, -1.50000000000000000000e+03) (0, -1.05067437581515093825e+02) (1, 9.01894661987680251514e+02) (2, -2.09096300922476501682e+02) (3, -1.66497889701936230722e+02) (4, -4.16539908298448494861e+02) (5, -1.50000000000000000000e+03) (6, -2.98591637186536559057e+02) (7, 2.70255581997527087879e+02) (0, -2.33087189508605774790e+02) (1, 5.89258355635207863088e+02) (2, -1.50000000000000000000e+03) (3, 2.15869630350254851692e+02) (4, 1.51519483935219255955e+02) (5, -8.98639253629717416061e+01) (6, 1.88279354364283477707e+02) (7, 8.49201351862590598785e+01) (0, 4.83163091414263679013e+00) (1, 8.97377661449494823387e+00) (2, -1.48825713536121657654e+01) (3, -3.95440299123756844324e+00) (4, 1.24829044810929445930e+01) (5, -1.19873402080566417993e+01) (6, 6.93515785680500140842e+00) (7, -7.36424655262541616452e+00) (0, 1.86099381336313207669e+01) (1, -9.29026953970640434477e+00) (2, 1.66038732633137904315e+01) (3, -2.92996781045912335628e+01) (4, 1.10122361206206687001e+01) (5, -5.92202448309874984744e+00) (6, 1.30194016477409069132e+00) (7, -1.19466090966868971890e+01) (0, 5.43006598902260662065e-01) (1, 9.46590986148943080991e+00) (2, -1.46827787661081483606e+01) (3, 1.69553293219852552198e+00) (4, 9.28789345739689231607e+00) (5, -9.68247405663540661180e+00) (6, 6.50368554697010914367e+00) (7, -6.04688117149188641974e+00) (8, 1.05845067294832451132e+00) (9, 9.23709633068655611154e-01) (10, 3.60921374233305947143e+00) (11, 1.13083119449835445280e+00) (12, -4.31643837932171758887e-01) (13, -2.28745964240204013862e+00) (14, 8.21088973985887982110e+00) (15, -5.64095902722940145679e+00) (16, -8.13104251072120298716e+00) (17, -8.06297182440770671130e-02) 
