FANN_FLO_2.1
num_layers=3
learning_rate=0.700000
connection_rate=1.000000
network_type=0
learning_momentum=0.000000
training_algorithm=2
train_error_function=1
train_stop_function=0
cascade_output_change_fraction=0.010000
quickprop_decay=-0.000100
quickprop_mu=1.750000
rprop_increase_factor=1.200000
rprop_decrease_factor=0.500000
rprop_delta_min=0.000000
rprop_delta_max=50.000000
rprop_delta_zero=0.100000
cascade_output_stagnation_epochs=12
cascade_candidate_change_fraction=0.010000
cascade_candidate_stagnation_epochs=12
cascade_max_out_epochs=150
cascade_max_cand_epochs=150
cascade_num_candidate_groups=2
bit_fail_limit=3.49999999999999977796e-01
cascade_candidate_limit=1.00000000000000000000e+03
cascade_weight_multiplier=4.00000000000000022204e-01
cascade_activation_functions_count=10
cascade_activation_functions=3 5 7 8 10 11 14 15 16 17 
cascade_activation_steepnesses_count=4
cascade_activation_steepnesses=2.50000000000000000000e-01 5.00000000000000000000e-01 7.50000000000000000000e-01 1.00000000000000000000e+00 
layer_sizes=8 11 2 
scale_included=0
neurons (num_inputs, activation_function, activation_steepness)=(0, 0, 0.00000000000000000000e+00) (0, 0, 0.00000000000000000000e+00) (0, 0, 0.00000000000000000000e+00) (0, 0, 0.00000000000000000000e+00) (0, 0, 0.00000000000000000000e+00) (0, 0, 0.00000000000000000000e+00) (0, 0, 0.00000000000000000000e+00) (0, 0, 0.00000000000000000000e+00) (8, 4, 5.00000000000000000000e-01) (8, 4, 5.00000000000000000000e-01) (8, 4, 5.00000000000000000000e-01) (8, 4, 5.00000000000000000000e-01) (8, 4, 5.00000000000000000000e-01) (8, 4, 5.00000000000000000000e-01) (8, 4, 5.00000000000000000000e-01) (8, 4, 5.00000000000000000000e-01) (8, 4, 5.00000000000000000000e-01) (8, 4, 5.00000000000000000000e-01) (0, 0, 0.00000000000000000000e+00) (11, 6, 5.00000000000000000000e-01) (0, 6, 0.00000000000000000000e+00) 
connections (connected_to_neuron, weight)=(0, -4.92370421199700913917e+01) (1, 8.31221506740809559233e+01) (2, 7.00168490583093472424e+01) (3, 2.25044350926144502978e+01) (4, -9.15217417258478320718e+01) (5, 2.03312963518326519363e+01) (6, 2.00066384481118610950e+01) (7, -4.09062007935870326492e+01) (0, -4.96520125688634239580e-01) (1, -8.78978757614054551084e+00) (2, 2.89396887918324310363e+01) (3, -2.73035146242648529835e+01) (4, -1.17294410001009303812e+01) (5, 4.57379947756013649496e+01) (6, 2.56109406009364697354e+01) (7, -5.12419350232435988346e+00) (0, 1.09806840210048264339e+01) (1, -8.80537588228785139677e+00) (2, 1.57881109676222326499e+01) (3, -2.43299146801401775519e+01) (4, 6.03998195457926190244e+00) (5, 3.28883762141235314047e+00) (6, -1.30272929899931142472e+01) (7, -1.08616401878991841734e+00) (0, -8.78394764390172667845e+02) (1, -1.10707934502237549168e+03) (2, 8.25655848372790273970e+02) (3, 7.21299099741251666273e+02) (4, 1.24153787734237837981e+02) (5, 1.50000000000000000000e+03) (6, 9.45008979544057183375e+02) (7, -7.26215303280201624148e+02) (0, 1.76002620227794835728e+02) (1, -1.73437233438789100148e+01) (2, -5.52178164074403028394e+01) (3, -3.68565119237892986348e+01) (4, 6.80869743601372988451e+02) (5, -1.50000000000000000000e+03) (6, -9.52518914142494963926e+02) (7, 2.20652707011245183821e+02) (0, -7.16994755010431195075e+00) (1, 2.30075804191874979665e+01) (2, -7.39622243405371726510e+00) (3, 4.32217168552343533605e+00) (4, -2.30613983922633193624e-02) (5, 3.21977570864379103455e+01) (6, -1.07600179087751186557e+01) (7, -9.53144691565687551815e+00) (0, 4.90841053593892979734e+01) (1, 7.20962661951550654038e+00) (2, -2.58131462097245503173e+01) (3, -4.76050891243650013962e+01) (4, 6.69087864743081883745e+00) (5, -3.46707154153511680761e+01) (6, -3.21897698492135759807e+01) (7, 3.70660607005579691986e+01) (0, -1.50000000000000000000e+03) (1, -1.40836188023351178344e+03) (2, 5.68648722355263544159e+02) (3, -6.12054336164250685215e+02) (4, 1.50000000000000000000e+03) (5, 1.50000000000000000000e+03) (6, -1.50000000000000000000e+03) (7, -1.22031750696067160789e+03) (0, -1.50000000000000000000e+03) (1, -1.50000000000000000000e+03) (2, -1.50000000000000000000e+03) (3, 6.12434298934942660253e+01) (4, 1.50000000000000000000e+03) (5, 1.50000000000000000000e+03) (6, -1.50000000000000000000e+03) (7, 3.27826488886195534178e+02) (0, -1.50000000000000000000e+03) (1, -1.50000000000000000000e+03) (2, -1.50000000000000000000e+03) (3, -1.50000000000000000000e+03) (4, 1.50000000000000000000e+03) (5, 1.50000000000000000000e+03) (6, -1.50000000000000000000e+03) (7, 4.00004273519512594248e+01) (8, -8.64942542060265440185e-01) (9, 5.05893507157146515851e+00) (10, 5.66840110666324559219e+00) (11, -2.64414248667419027328e+00) (12, 4.69992777468695877019e+00) (13, 1.08411173552747719384e+00) (14, -1.70124566814499345035e+00) (15, -6.81581610731028741945e-01) (16, -9.22682222342147584371e-01) (17, -8.48312530067424463986e-01) (18, -2.43302470226315303847e+00) 
