FANN_FLO_2.1
num_layers=4
learning_rate=0.700000
connection_rate=1.000000
network_type=0
learning_momentum=0.000000
training_algorithm=2
train_error_function=1
train_stop_function=0
cascade_output_change_fraction=0.010000
quickprop_decay=-0.000100
quickprop_mu=1.750000
rprop_increase_factor=1.200000
rprop_decrease_factor=0.500000
rprop_delta_min=0.000000
rprop_delta_max=50.000000
rprop_delta_zero=0.100000
cascade_output_stagnation_epochs=12
cascade_candidate_change_fraction=0.010000
cascade_candidate_stagnation_epochs=12
cascade_max_out_epochs=150
cascade_max_cand_epochs=150
cascade_num_candidate_groups=2
bit_fail_limit=3.49999999999999977796e-01
cascade_candidate_limit=1.00000000000000000000e+03
cascade_weight_multiplier=4.00000000000000022204e-01
cascade_activation_functions_count=10
cascade_activation_functions=3 5 7 8 10 11 14 15 16 17 
cascade_activation_steepnesses_count=4
cascade_activation_steepnesses=2.50000000000000000000e-01 5.00000000000000000000e-01 7.50000000000000000000e-01 1.00000000000000000000e+00 
layer_sizes=8 9 9 2 
scale_included=0
neurons (num_inputs, activation_function, activation_steepness)=(0, 0, 0.00000000000000000000e+00) (0, 0, 0.00000000000000000000e+00) (0, 0, 0.00000000000000000000e+00) (0, 0, 0.00000000000000000000e+00) (0, 0, 0.00000000000000000000e+00) (0, 0, 0.00000000000000000000e+00) (0, 0, 0.00000000000000000000e+00) (0, 0, 0.00000000000000000000e+00) (8, 4, 5.00000000000000000000e-01) (8, 4, 5.00000000000000000000e-01) (8, 4, 5.00000000000000000000e-01) (8, 4, 5.00000000000000000000e-01) (8, 4, 5.00000000000000000000e-01) (8, 4, 5.00000000000000000000e-01) (8, 4, 5.00000000000000000000e-01) (8, 4, 5.00000000000000000000e-01) (0, 0, 0.00000000000000000000e+00) (9, 4, 5.00000000000000000000e-01) (9, 4, 5.00000000000000000000e-01) (9, 4, 5.00000000000000000000e-01) (9, 4, 5.00000000000000000000e-01) (9, 4, 5.00000000000000000000e-01) (9, 4, 5.00000000000000000000e-01) (9, 4, 5.00000000000000000000e-01) (9, 4, 5.00000000000000000000e-01) (0, 0, 0.00000000000000000000e+00) (9, 6, 5.00000000000000000000e-01) (0, 6, 0.00000000000000000000e+00) 
connections (connected_to_neuron, weight)=(0, 1.49982203042440005447e+03) (1, 1.49999951999998120300e+03) (2, 1.49859361602070134722e+03) (3, 1.49943767879088863992e+03) (4, -1.22269325063675114507e+03) (5, -1.02725616238408542813e+03) (6, 1.49974794851090837255e+03) (7, 1.04334501979699598451e+03) (0, 1.25244688026318709007e+01) (1, 3.73600175969185841041e+02) (2, -4.23927069764311511335e+02) (3, -1.53803928330486115783e+02) (4, -4.83064002369634806655e+02) (5, 1.49719978024960914809e+03) (6, 1.05769565409835394121e+02) (7, -7.48708901229279319978e+01) (0, 9.48651658449529122663e+00) (1, -3.09048872231472309124e+01) (2, 7.26946196904414136952e+01) (3, 2.74835959192561674058e+01) (4, -1.31364316325858290213e+01) (5, -5.89559595878787021661e+01) (6, 6.81126819537270478122e+00) (7, -4.64122406521336516860e-01) (0, -1.49468439269789905666e+03) (1, -1.37641058679808543275e+03) (2, 4.46812021376399002293e+02) (3, -1.35971197202169037155e+03) (4, 1.49995524639074574225e+03) (5, 1.48745028168316275696e+03) (6, -1.49287567837833034901e+03) (7, 1.39316261509641662997e+03) (0, 3.79703123384262184459e+01) (1, 5.24279912062059025857e+01) (2, -1.21289895692300664365e+01) (3, -5.86199187414554678810e+00) (4, -9.87754823449405883196e+00) (5, -4.38124953338550398030e+01) (6, -4.76473863173462888199e+01) (7, -1.78642676320158677594e-01) (0, -1.49979168230629920799e+03) (1, -1.49901319849948322371e+03) (2, 1.49971513416839252386e+03) (3, -1.49450367081610079367e+03) (4, -1.34851414565156755998e+03) (5, 1.50000000000000000000e+03) (6, -1.49973757881441520112e+03) (7, 9.09526475312911998117e+02) (0, 4.71905119213164336855e+00) (1, -3.45775742554936300621e+01) (2, 4.57461647981768049220e+00) (3, 1.18525056287794630094e+01) (4, 2.17083129501794651617e+01) (5, -4.88064392416851333678e+01) (6, -2.23411171457961493791e-01) (7, 3.22063624729447468553e+01) (0, -7.89590674748121045923e+02) (1, 2.29625889559932915063e+02) (2, -2.47980422949826845525e+02) (3, 1.49953315356585949303e+03) (4, 1.34097344250771448060e+03) (5, -1.18258687242385963145e+03) (6, -3.72537158496174001243e+01) (7, 4.36102546608418322194e+02) (8, 7.38885300739257331770e+02) (9, 1.50000000000000000000e+03) (10, -9.82096195929319037532e+02) (11, 1.50000000000000000000e+03) (12, 1.50000000000000000000e+03) (13, -1.35244245366606833159e+02) (14, 1.50000000000000000000e+03) (15, -1.33890476300884256489e+03) (16, 1.48945723209641414542e+03) (8, 1.25086924348414277119e+03) (9, -1.44863219734404242445e+03) (10, 1.12960307880173058948e+03) (11, -1.92172608005622862493e+02) (12, -1.49138516618651988210e+03) (13, 9.79447314968150067216e+02) (14, -1.30737346871482645838e+03) (15, 1.47673587408524008424e+03) (16, 3.95475474708031583759e+02) (8, -1.11003516004564335162e+03) (9, 1.45263637333657175077e+03) (10, -2.77453256173080831104e+02) (11, 6.86917776690942559981e+02) (12, 1.50000000000000000000e+03) (13, -8.75345283738167040610e+02) (14, 1.50000000000000000000e+03) (15, -1.26807107477636668591e+03) (16, -1.26689929477678617786e+02) (8, 7.38885300739257331770e+02) (9, 1.50000000000000000000e+03) (10, -9.82096195929319037532e+02) (11, 1.50000000000000000000e+03) (12, 1.50000000000000000000e+03) (13, -1.35244245366606833159e+02) (14, 1.50000000000000000000e+03) (15, -1.33890476300884256489e+03) (16, 1.10628322169663033492e+03) (8, 1.26193302844316258415e+03) (9, -1.46074416931520818252e+03) (10, 1.12960307880173058948e+03) (11, -1.12410378041185640541e+03) (12, -1.49138516618651988210e+03) (13, 1.07170738011562048086e+03) (14, 3.02416974332838492501e+02) (15, 1.47529355406040872367e+03) (16, 2.56500934247428631352e+02) (8, 9.34927721444284543395e+02) (9, -1.48077150775875884392e+03) (10, -3.80543144254851654296e+02) (11, -3.23203868334141077412e+02) (12, 1.50000000000000000000e+03) (13, 4.27532715907297955482e+01) (14, -4.91292083974174602190e+02) (15, 1.47537878141992564451e+03) (16, 1.48650697143444432413e+02) (8, 1.46223711031806828942e+03) (9, -9.51585034058013548020e+02) (10, -1.38774684365672192143e+03) (11, 1.50000000000000000000e+03) (12, -1.49267759510341647911e+03) (13, -1.46543844871810688346e+03) (14, -1.61612712352188736986e+02) (15, 8.88775986976827311992e+02) (16, 4.31514146646326253176e+01) (8, 1.11256635440586705954e+03) (9, -1.49438528171858297355e+03) (10, 1.12960307880173058948e+03) (11, -1.49360581092987808915e+03) (12, -1.49138516618651988210e+03) (13, 1.47524094038505882054e+03) (14, 6.33737306780295398312e+02) (15, 1.47529355406040872367e+03) (16, 4.05179728987248438443e+02) (17, 4.40068660620199068489e+02) (18, -3.85341542283506385047e+02) (19, 5.34213096202955983749e-01) (20, 1.43001681086821150757e+02) (21, -1.31212936573828358178e+02) (22, 6.52243947189436235057e-01) (23, 5.79076551058533423033e-02) (24, -6.70323701671430143278e+01) (25, -4.95344142482893268209e-01) 
