FANN_FLO_2.1
num_layers=3
learning_rate=0.700000
connection_rate=1.000000
network_type=0
learning_momentum=0.000000
training_algorithm=2
train_error_function=1
train_stop_function=0
cascade_output_change_fraction=0.010000
quickprop_decay=-0.000100
quickprop_mu=1.750000
rprop_increase_factor=1.200000
rprop_decrease_factor=0.500000
rprop_delta_min=0.000000
rprop_delta_max=50.000000
rprop_delta_zero=0.100000
cascade_output_stagnation_epochs=12
cascade_candidate_change_fraction=0.010000
cascade_candidate_stagnation_epochs=12
cascade_max_out_epochs=150
cascade_max_cand_epochs=150
cascade_num_candidate_groups=2
bit_fail_limit=3.49999999999999977796e-01
cascade_candidate_limit=1.00000000000000000000e+03
cascade_weight_multiplier=4.00000000000000022204e-01
cascade_activation_functions_count=10
cascade_activation_functions=3 5 7 8 10 11 14 15 16 17 
cascade_activation_steepnesses_count=4
cascade_activation_steepnesses=2.50000000000000000000e-01 5.00000000000000000000e-01 7.50000000000000000000e-01 1.00000000000000000000e+00 
layer_sizes=8 11 2 
scale_included=0
neurons (num_inputs, activation_function, activation_steepness)=(0, 0, 0.00000000000000000000e+00) (0, 0, 0.00000000000000000000e+00) (0, 0, 0.00000000000000000000e+00) (0, 0, 0.00000000000000000000e+00) (0, 0, 0.00000000000000000000e+00) (0, 0, 0.00000000000000000000e+00) (0, 0, 0.00000000000000000000e+00) (0, 0, 0.00000000000000000000e+00) (8, 4, 5.00000000000000000000e-01) (8, 4, 5.00000000000000000000e-01) (8, 4, 5.00000000000000000000e-01) (8, 4, 5.00000000000000000000e-01) (8, 4, 5.00000000000000000000e-01) (8, 4, 5.00000000000000000000e-01) (8, 4, 5.00000000000000000000e-01) (8, 4, 5.00000000000000000000e-01) (8, 4, 5.00000000000000000000e-01) (8, 4, 5.00000000000000000000e-01) (0, 0, 0.00000000000000000000e+00) (11, 6, 5.00000000000000000000e-01) (0, 6, 0.00000000000000000000e+00) 
connections (connected_to_neuron, weight)=(0, 2.44605086490044101311e+01) (1, -3.69789461220510702333e+01) (2, -1.59301274161843036126e+01) (3, 4.44448767643196234189e+01) (4, -3.29875552742402433637e+01) (5, 4.70346863554545535635e+00) (6, -5.14932292644319034025e+01) (7, 7.32265586303017190772e+00) (0, 2.21675271957284856228e+01) (1, -1.20642525274750855857e+01) (2, 7.32355515799369754859e+02) (3, -1.37189773116366836803e+03) (4, -2.69491013454786809689e+02) (5, 6.98283823336675055771e+01) (6, 1.98204316234285727205e+02) (7, 1.60898988078859228601e+00) (0, 1.58393019421403778324e+02) (1, 7.84863816600760202391e+01) (2, 1.11959798729056689837e+01) (3, 1.74187531683503124214e+02) (4, -5.72393153760507402694e+02) (5, 1.36902846737541835864e+02) (6, 1.74194055825734608334e+01) (7, -1.34913953240089995234e+02) (0, 1.06936863621095795907e+02) (1, -2.18785697751138940248e+02) (2, -3.01875207446808779821e+01) (3, -3.62892856433574308994e+01) (4, 6.69756874853529211578e+02) (5, -3.07376448541312811358e+02) (6, -1.51599987217848365617e+02) (7, -6.11251362253105554601e+01) (0, -1.50000000000000000000e+03) (1, -1.50000000000000000000e+03) (2, 3.75251984822386361884e+02) (3, 9.24046534617806514689e+02) (4, 1.09142748581395380825e+03) (5, 1.37338506841512980827e+03) (6, -1.50000000000000000000e+03) (7, 4.13343486448579881198e+02) (0, 1.15593819771485684100e+02) (1, -3.80935057314604705425e+02) (2, 2.59954862157130207834e+02) (3, 7.95480752515762361554e+01) (4, -3.28527911215221990915e+02) (5, -1.58465950354609361739e+02) (6, -1.77449978036000914017e+02) (7, 1.63796817853742112447e+02) (0, 7.91634062384854697569e+00) (1, -1.13786182973019016629e+01) (2, -8.96781712236255401649e+00) (3, 9.81833105160311880866e+00) (4, -5.62653146320784980361e+00) (5, -3.13542810536218752304e+00) (6, -2.16210318475596956489e+01) (7, 4.32952321608846535383e+00) (0, 1.84420599942126060000e+01) (1, -3.12798253694263941327e+01) (2, 3.73748230867279076506e+01) (3, -2.99273903823079137965e+02) (4, -2.00776904134840805227e+02) (5, 5.22316825107753999191e+01) (6, 2.25261083941288177357e+02) (7, -3.75900041468617160945e+01) (0, 4.31128003117162208468e+01) (1, -1.07364811305871924674e+02) (2, 8.88636858164302090302e+00) (3, -1.26472924899111887953e+02) (4, 8.90284793961890130731e+01) (5, -1.64746490618431131736e+01) (6, -5.31474365530058818763e+01) (7, 9.14256792773204693958e+01) (0, 1.02432598761781974872e+02) (1, -2.44854159578243468331e+02) (2, -2.49402475679031368827e+02) (3, -9.55149226318474831032e+01) (4, 1.58174059861209315159e+02) (5, -1.59890659365302269634e+02) (6, -1.69641688852740458060e+02) (7, 1.34541379279726641016e+02) (8, 1.81498635794354932216e+01) (9, 9.54246429614729829716e-01) (10, 6.78302466212131638379e-01) (11, 8.51351178985361056739e-01) (12, -9.33057644470223657152e-01) (13, -6.99698827429584446769e-01) (14, -2.43763010987629762383e+01) (15, -1.05324365304894573825e+00) (16, 9.57507474215966047915e-01) (17, 5.14718353278581197685e+00) (18, -9.82263131073394107906e-02) 
