FANN_FLO_2.1
num_layers=3
learning_rate=0.700000
connection_rate=1.000000
network_type=0
learning_momentum=0.000000
training_algorithm=2
train_error_function=1
train_stop_function=0
cascade_output_change_fraction=0.010000
quickprop_decay=-0.000100
quickprop_mu=1.750000
rprop_increase_factor=1.200000
rprop_decrease_factor=0.500000
rprop_delta_min=0.000000
rprop_delta_max=50.000000
rprop_delta_zero=0.100000
cascade_output_stagnation_epochs=12
cascade_candidate_change_fraction=0.010000
cascade_candidate_stagnation_epochs=12
cascade_max_out_epochs=150
cascade_max_cand_epochs=150
cascade_num_candidate_groups=2
bit_fail_limit=3.49999999999999977796e-01
cascade_candidate_limit=1.00000000000000000000e+03
cascade_weight_multiplier=4.00000000000000022204e-01
cascade_activation_functions_count=10
cascade_activation_functions=3 5 7 8 10 11 14 15 16 17 
cascade_activation_steepnesses_count=4
cascade_activation_steepnesses=2.50000000000000000000e-01 5.00000000000000000000e-01 7.50000000000000000000e-01 1.00000000000000000000e+00 
layer_sizes=8 16 2 
scale_included=0
neurons (num_inputs, activation_function, activation_steepness)=(0, 0, 0.00000000000000000000e+00) (0, 0, 0.00000000000000000000e+00) (0, 0, 0.00000000000000000000e+00) (0, 0, 0.00000000000000000000e+00) (0, 0, 0.00000000000000000000e+00) (0, 0, 0.00000000000000000000e+00) (0, 0, 0.00000000000000000000e+00) (0, 0, 0.00000000000000000000e+00) (8, 4, 5.00000000000000000000e-01) (8, 4, 5.00000000000000000000e-01) (8, 4, 5.00000000000000000000e-01) (8, 4, 5.00000000000000000000e-01) (8, 4, 5.00000000000000000000e-01) (8, 4, 5.00000000000000000000e-01) (8, 4, 5.00000000000000000000e-01) (8, 4, 5.00000000000000000000e-01) (8, 4, 5.00000000000000000000e-01) (8, 4, 5.00000000000000000000e-01) (8, 4, 5.00000000000000000000e-01) (8, 4, 5.00000000000000000000e-01) (8, 4, 5.00000000000000000000e-01) (8, 4, 5.00000000000000000000e-01) (8, 4, 5.00000000000000000000e-01) (0, 0, 0.00000000000000000000e+00) (16, 6, 5.00000000000000000000e-01) (0, 6, 0.00000000000000000000e+00) 
connections (connected_to_neuron, weight)=(0, -3.71573953838258211335e-02) (1, -7.59378610318580254956e-02) (2, -5.94018588312247089456e-02) (3, 2.09632196793439889992e-02) (4, 7.02853691992963575119e-02) (5, -8.21402499584890644080e-02) (6, 5.82346040119916669164e-03) (7, 6.34407343483080476965e-02) (0, 4.06739544596367158524e-02) (1, 7.08879511190645406060e-02) (2, -5.19094167561742064754e-03) (3, -7.39846911130054296635e-02) (4, -2.35172862897408893601e-02) (5, -4.16170302460645083475e-02) (6, -9.83526487589276854351e-02) (7, 6.78617225827533310234e-02) (0, 1.21478014573127221509e-02) (1, 4.95004433132774021575e-02) (2, -5.70291540701561155968e-02) (3, -8.42013822376933840363e-02) (4, -2.53562102147372042671e-02) (5, -1.12830141377898152122e-02) (6, 5.62373246995705941553e-02) (7, -5.02602058501572176996e-02) (0, -5.01582430699205744640e-02) (1, 5.57250698950151959754e-02) (2, -8.79185847069111903185e-02) (3, -3.34132081220031920687e-02) (4, 1.85014322363053554388e-02) (5, -5.33238816570323834187e-02) (6, 6.12027327336778018130e-02) (7, 8.13440384357279056005e-02) (0, -2.92617411056420306803e-02) (1, -9.81991275876630265174e-02) (2, 2.30725662495578215383e-03) (3, -5.89763733964617925531e-02) (4, -8.03393760560359715406e-02) (5, -9.18692844639611705393e-02) (6, -9.55356405382698642414e-02) (7, 6.03345798937168567577e-02) (0, 7.90186681452194894515e-02) (1, -7.26580630638906654895e-04) (2, 8.63498903639598053283e-02) (3, -4.44986196346375192934e-02) (4, 5.76563906134127043823e-02) (5, 8.79972430951482254002e-02) (6, -7.66368985420003145936e-02) (7, -3.01958093262584340022e-02) (0, 3.74976849183095151119e-02) (1, -3.36660510289080519564e-02) (2, -1.43971900738356986538e-02) (3, -8.78585267865438085400e-02) (4, 5.50509363234182522162e-02) (5, -5.81598668643812238832e-02) (6, -3.81187310534526480055e-02) (7, -9.51073081434861827832e-02) (0, 9.75652045207500984159e-02) (1, -2.60373142702477258781e-02) (2, -2.85205147753732554672e-02) (3, 1.60666352669393275310e-02) (4, 2.06388055628360100879e-02) (5, -6.73177835318115730390e-02) (6, -2.58932778744887931444e-03) (7, 9.13770659473100987924e-02) (0, -6.55169096293584801716e-02) (1, 9.97179303276230222242e-02) (2, -6.75993088461355473573e-02) (3, -4.58562841952783392663e-02) (4, -9.21513555333220157895e-02) (5, -6.31349478942893060918e-02) (6, -8.55217056985453361051e-02) (7, 8.68673141020135930468e-02) (0, 3.61384729651879135770e-02) (1, -9.91718168247016640393e-02) (2, -5.76313069296077798431e-02) (3, -6.20513781838324257611e-03) (4, 8.88254277605626946235e-02) (5, -3.42682039814919750520e-02) (6, 6.35990543454744428065e-02) (7, 2.63231111887560903506e-02) (0, 3.20657464797160923764e-02) (1, -5.07981372184773752321e-02) (2, 3.84645858923284011954e-02) (3, -1.28833185938495159428e-02) (4, -8.95800259274247973051e-03) (5, -9.96541466512403661948e-02) (6, -7.99062524721957934126e-03) (7, -1.13927995621085076383e-02) (0, -2.56914594313719726881e-02) (1, 6.34888614675232776374e-02) (2, -9.53261657852852994921e-02) (3, 9.49473477147124156339e-02) (4, 9.61710794258278378610e-02) (5, 2.08450801051419942755e-03) (6, 8.63244121719063950415e-02) (7, -6.93458316936467755731e-02) (0, 1.80243684802110226695e-03) (1, -8.12748981643452717005e-02) (2, -1.52021143988089885157e-02) (3, 9.65108280481521280114e-03) (4, -4.44098444753861995582e-02) (5, -7.23818607238212174959e-04) (6, -3.48160449015504774861e-03) (7, 9.17286299799178334036e-02) (0, 1.04366058176250109391e-04) (1, 3.88870900703532917930e-02) (2, -1.44765093285815285573e-02) (3, -1.10702076713771746519e-02) (4, -9.53811154012547957048e-02) (5, -5.08774564732232051356e-02) (6, -8.47470979727372036860e-02) (7, 3.66846326617096679668e-02) (0, -1.67559220158446098292e-03) (1, 5.37174895028395757435e-02) (2, -7.61986874222559673608e-02) (3, 8.93664066957891856102e-02) (4, 5.40633443417153289334e-02) (5, 1.58106888206405726827e-02) (6, -2.20263943564354483517e-02) (7, -7.16281164866404973512e-02) (8, -2.07004512019522621258e-02) (9, -1.73525585584723696098e-02) (10, -7.66807702620442011021e-02) (11, -2.45293732662405505884e-02) (12, 8.47319509421579492026e-02) (13, -9.03563595802539254453e-02) (14, 6.12479653022880016211e-03) (15, -1.34656136999370679153e-02) (16, -7.16312561613508258507e-02) (17, 9.09226836215359379700e-02) (18, 9.61854706881265231200e-02) (19, -1.60410991466209129630e-02) (20, -9.80113638268614167925e-03) (21, -7.29613529214464401340e-03) (22, -2.43124706568191989442e-02) (23, 9.03032311656062347538e-02) 
