FANN_FLO_2.1
num_layers=3
learning_rate=0.700000
connection_rate=1.000000
network_type=0
learning_momentum=0.000000
training_algorithm=2
train_error_function=1
train_stop_function=0
cascade_output_change_fraction=0.010000
quickprop_decay=-0.000100
quickprop_mu=1.750000
rprop_increase_factor=1.200000
rprop_decrease_factor=0.500000
rprop_delta_min=0.000000
rprop_delta_max=50.000000
rprop_delta_zero=0.100000
cascade_output_stagnation_epochs=12
cascade_candidate_change_fraction=0.010000
cascade_candidate_stagnation_epochs=12
cascade_max_out_epochs=150
cascade_max_cand_epochs=150
cascade_num_candidate_groups=2
bit_fail_limit=3.49999999999999977796e-01
cascade_candidate_limit=1.00000000000000000000e+03
cascade_weight_multiplier=4.00000000000000022204e-01
cascade_activation_functions_count=10
cascade_activation_functions=3 5 7 8 10 11 14 15 16 17 
cascade_activation_steepnesses_count=4
cascade_activation_steepnesses=2.50000000000000000000e-01 5.00000000000000000000e-01 7.50000000000000000000e-01 1.00000000000000000000e+00 
layer_sizes=8 10 2 
scale_included=0
neurons (num_inputs, activation_function, activation_steepness)=(0, 0, 0.00000000000000000000e+00) (0, 0, 0.00000000000000000000e+00) (0, 0, 0.00000000000000000000e+00) (0, 0, 0.00000000000000000000e+00) (0, 0, 0.00000000000000000000e+00) (0, 0, 0.00000000000000000000e+00) (0, 0, 0.00000000000000000000e+00) (0, 0, 0.00000000000000000000e+00) (8, 4, 5.00000000000000000000e-01) (8, 4, 5.00000000000000000000e-01) (8, 4, 5.00000000000000000000e-01) (8, 4, 5.00000000000000000000e-01) (8, 4, 5.00000000000000000000e-01) (8, 4, 5.00000000000000000000e-01) (8, 4, 5.00000000000000000000e-01) (8, 4, 5.00000000000000000000e-01) (8, 4, 5.00000000000000000000e-01) (0, 0, 0.00000000000000000000e+00) (10, 6, 5.00000000000000000000e-01) (0, 6, 0.00000000000000000000e+00) 
connections (connected_to_neuron, weight)=(0, 1.07307621709196254756e+01) (1, -3.72355968097602341160e+00) (2, 5.38426905244600018108e+00) (3, -1.51671302231163522833e+01) (4, -3.27795739602682489888e+00) (5, -1.83186395223046964986e+01) (6, -5.79804984982480675626e+00) (7, -1.61479051162275433207e+00) (0, 4.12518645341241665392e+01) (1, 1.31942423465347302702e+00) (2, -5.84610230615605086513e+00) (3, 6.78281218614645159404e-02) (4, -2.68974803814663978585e+01) (5, -5.07276052059745978795e+01) (6, -6.42601873977613706757e+01) (7, -3.97803505692299330665e-01) (0, -1.42722637374038345115e+03) (1, -1.50000000000000000000e+03) (2, -9.39798996636894230505e+02) (3, 5.25058060011532106159e+01) (4, 1.17190417695079941041e+03) (5, -1.92744571339715804470e+02) (6, 1.50000000000000000000e+03) (7, 8.99851933412978155502e+01) (0, -8.89444931633518720560e+00) (1, -2.90492151335212014374e+01) (2, 4.92000460608888445790e+01) (3, 3.07831023210317518135e+01) (4, 1.01764438027542798437e+01) (5, -3.62144853126891108630e+00) (6, 1.45386007755354729198e+01) (7, -2.82457082138068891197e+01) (0, 1.45387399670475730318e+02) (1, -8.21582651961557672848e+01) (2, 3.64309369549100452446e+01) (3, -1.26523442648716681447e+02) (4, -1.34724551904976095784e+02) (5, -1.62888108275933660707e+02) (6, -2.08831310315132023803e+00) (7, -3.32311626614882129616e+01) (0, -6.62810181239977480594e-01) (1, 2.65973398880939515543e-01) (2, 2.25299457732925434428e+00) (3, 8.78434708378083128899e-01) (4, 4.76389915032668920247e+00) (5, -4.10259502230228534359e+00) (6, 2.43666418045610927434e-02) (7, -2.56740147409495156339e+00) (0, -5.99319369657917899730e+00) (1, -1.13769096745265341220e+00) (2, 9.41673611264775267671e+00) (3, -2.80907466272343908642e+00) (4, -3.46304432757002871313e+01) (5, 9.83880870517564076749e+00) (6, 1.33370295911264147293e+01) (7, 6.08738363688409478414e+00) (0, 1.19455899065829214578e+02) (1, -1.42293792037859049060e+02) (2, 4.87960800577304212311e+01) (3, -1.67393913390647668393e+02) (4, 7.57668440169883297131e+01) (5, -1.87633641839956588626e+01) (6, -2.88101645947337630105e+01) (7, 4.01656597487805981928e+01) (0, 1.16623377559237397350e+02) (1, 5.41856519020278483367e+02) (2, 5.31846255182537959172e+01) (3, -2.55540521950439966758e+02) (4, 3.21724607349267159861e+02) (5, -5.14725459812772328405e+02) (6, -3.17207019492734673349e+02) (7, -7.18083015140061746706e+01) (8, 6.91882482813184296333e+00) (9, -3.78455296462530421664e+00) (10, -1.96728938215558102343e+00) (11, 1.53436011957487150603e+00) (12, -3.38279296947087049219e+00) (13, -5.26429600573074818470e+00) (14, -1.66881771069320627987e+00) (15, 1.79216456290276093810e+00) (16, 2.11591262398931467814e+00) (17, 1.50570877935956759508e+00) 
