FANN_FLO_2.1
num_layers=3
learning_rate=0.700000
connection_rate=1.000000
network_type=0
learning_momentum=0.000000
training_algorithm=2
train_error_function=1
train_stop_function=0
cascade_output_change_fraction=0.010000
quickprop_decay=-0.000100
quickprop_mu=1.750000
rprop_increase_factor=1.200000
rprop_decrease_factor=0.500000
rprop_delta_min=0.000000
rprop_delta_max=50.000000
rprop_delta_zero=0.100000
cascade_output_stagnation_epochs=12
cascade_candidate_change_fraction=0.010000
cascade_candidate_stagnation_epochs=12
cascade_max_out_epochs=150
cascade_max_cand_epochs=150
cascade_num_candidate_groups=2
bit_fail_limit=3.49999999999999977796e-01
cascade_candidate_limit=1.00000000000000000000e+03
cascade_weight_multiplier=4.00000000000000022204e-01
cascade_activation_functions_count=10
cascade_activation_functions=3 5 7 8 10 11 14 15 16 17 
cascade_activation_steepnesses_count=4
cascade_activation_steepnesses=2.50000000000000000000e-01 5.00000000000000000000e-01 7.50000000000000000000e-01 1.00000000000000000000e+00 
layer_sizes=8 15 2 
scale_included=0
neurons (num_inputs, activation_function, activation_steepness)=(0, 0, 0.00000000000000000000e+00) (0, 0, 0.00000000000000000000e+00) (0, 0, 0.00000000000000000000e+00) (0, 0, 0.00000000000000000000e+00) (0, 0, 0.00000000000000000000e+00) (0, 0, 0.00000000000000000000e+00) (0, 0, 0.00000000000000000000e+00) (0, 0, 0.00000000000000000000e+00) (8, 4, 5.00000000000000000000e-01) (8, 4, 5.00000000000000000000e-01) (8, 4, 5.00000000000000000000e-01) (8, 4, 5.00000000000000000000e-01) (8, 4, 5.00000000000000000000e-01) (8, 4, 5.00000000000000000000e-01) (8, 4, 5.00000000000000000000e-01) (8, 4, 5.00000000000000000000e-01) (8, 4, 5.00000000000000000000e-01) (8, 4, 5.00000000000000000000e-01) (8, 4, 5.00000000000000000000e-01) (8, 4, 5.00000000000000000000e-01) (8, 4, 5.00000000000000000000e-01) (8, 4, 5.00000000000000000000e-01) (0, 0, 0.00000000000000000000e+00) (15, 6, 5.00000000000000000000e-01) (0, 6, 0.00000000000000000000e+00) 
connections (connected_to_neuron, weight)=(0, -3.76358165425928828385e-02) (1, -8.80770623769918242774e-02) (2, -4.26442794337016164996e-02) (3, 8.66917002825692145640e-02) (4, 3.76628549793787958944e-03) (5, -9.06057313547392190189e-02) (6, -5.44597818249431403492e-02) (7, -9.78395725278492500721e-02) (0, 7.19196638564715273745e-02) (1, -2.52376484720058455458e-02) (2, -8.71287774239298123957e-03) (3, -4.55369424341163300807e-02) (4, -1.62492954730882530057e-02) (5, -2.47419106735573754441e-02) (6, 5.53848962170615105594e-02) (7, -6.88792842459571841296e-02) (0, -5.15123473705701023784e-02) (1, 6.21057428360840962922e-02) (2, 5.11070244179222532566e-02) (3, -4.45241960812240156198e-02) (4, -1.81095356957545194909e-02) (5, 1.54590744966130594351e-02) (6, -6.99532488540298980073e-02) (7, -8.30439527786366871176e-02) (0, 8.21183699312563047945e-02) (1, -7.89430047041625310156e-02) (2, 2.27620813662123833154e-02) (3, 7.74732442941254845215e-02) (4, -1.08587900863407540997e-02) (5, -2.28902514709569682161e-02) (6, -4.91965733348812550574e-02) (7, 5.15053948611824824466e-02) (0, -1.09673122647004142594e-02) (1, 8.15914872153324782778e-03) (2, 3.81970937467678364752e-02) (3, 9.27989747233535777760e-02) (4, 1.75534188569101481936e-02) (5, 8.37373134119408224496e-02) (6, 9.49594036856204609665e-02) (7, -1.05269187767344507556e-02) (0, -4.15003365501811494198e-02) (1, -1.37534755468886396579e-02) (2, 4.39361402792653385485e-02) (3, 4.22503694668467169593e-02) (4, 6.15046152696701042828e-02) (5, -6.78964993789270276903e-04) (6, 7.33710868041379110638e-02) (7, -9.00077335910161174803e-02) (0, -3.85732236478212933695e-02) (1, 2.44781097319440449356e-02) (2, -3.45319281821240137154e-02) (3, 4.33172422396725653737e-02) (4, -6.00628172615590150141e-02) (5, -4.48517554603778539901e-03) (6, 6.02732909511519976409e-02) (7, -7.79444488204188296043e-02) (0, 1.65718212399158029702e-02) (1, -1.69646290796194795791e-02) (2, 9.95287969638227743019e-02) (3, -9.42869703365410705143e-02) (4, 6.01451209395396715895e-02) (5, -4.96677778611746001403e-02) (6, 5.72184260147575313171e-02) (7, -5.08221928152768620546e-02) (0, 5.84913723504747670723e-02) (1, -4.58448172859075159247e-03) (2, -5.80232195820393967245e-02) (3, -2.39552102827312041189e-02) (4, -2.08471698067660554665e-02) (5, -6.30638173865350482039e-02) (6, 6.55178725237827164207e-02) (7, 3.76524951331689144984e-02) (0, 2.31827085566924245841e-02) (1, 9.45401131293194252336e-03) (2, -2.00971367969682290777e-02) (3, -1.53126776637535905179e-02) (4, -9.12249550778411882890e-02) (5, -4.67260514829464373987e-02) (6, -5.32040976465358861347e-03) (7, -2.97981772355463622737e-02) (0, 7.77520597391137269216e-02) (1, 6.01476635433385170559e-02) (2, -8.64809364859899232236e-02) (3, -8.23107589194291555668e-02) (4, -4.43375134928153877278e-02) (5, 7.37923560484104595902e-02) (6, -6.02552062497318588474e-02) (7, 7.22343092372165346271e-02) (0, -4.31722745213251393737e-02) (1, -6.07264106828929450810e-02) (2, 7.79473403907915834976e-02) (3, -8.30271550719015871689e-02) (4, -1.03941870539514258365e-02) (5, 3.51657650085652542793e-02) (6, -3.38493463039300709894e-02) (7, -5.19028161004605192996e-02) (0, -6.94187182101416166979e-02) (1, 8.12743560414665167091e-03) (2, 2.41419751069243959662e-02) (3, 9.73411356634070606964e-03) (4, 4.50636198008599747622e-02) (5, -1.03401538594090000589e-02) (6, -5.26133927906064988167e-02) (7, -3.17536731325637200385e-02) (0, 9.91138590367713206986e-02) (1, 2.72894719025413914903e-02) (2, 5.29336507869310676777e-02) (3, -9.21110975311859869752e-02) (4, 8.05634219097110804153e-02) (5, -5.23867604678386403205e-02) (6, -2.19092732766162298641e-02) (7, 5.83154802518409398626e-02) (8, -9.22390983214839838000e-02) (9, -8.39020817935776791474e-03) (10, 7.60047228225279036806e-02) (11, -3.65766103241832521431e-02) (12, -3.45978536210634277093e-02) (13, -8.42504849173200676127e-02) (14, -6.43423024839505780514e-02) (15, 2.22298733477275523018e-02) (16, -4.49768941100968933089e-02) (17, -8.63949635832751139386e-02) (18, 3.92027197659420845177e-02) (19, 4.46289204192000590887e-02) (20, 4.87708029154062597255e-02) (21, -9.46466280281041127953e-02) (22, 9.27261058088556522350e-02) 
