FANN_FLO_2.1
num_layers=3
learning_rate=0.700000
connection_rate=1.000000
network_type=0
learning_momentum=0.000000
training_algorithm=2
train_error_function=1
train_stop_function=0
cascade_output_change_fraction=0.010000
quickprop_decay=-0.000100
quickprop_mu=1.750000
rprop_increase_factor=1.200000
rprop_decrease_factor=0.500000
rprop_delta_min=0.000000
rprop_delta_max=50.000000
rprop_delta_zero=0.100000
cascade_output_stagnation_epochs=12
cascade_candidate_change_fraction=0.010000
cascade_candidate_stagnation_epochs=12
cascade_max_out_epochs=150
cascade_max_cand_epochs=150
cascade_num_candidate_groups=2
bit_fail_limit=3.49999999999999977796e-01
cascade_candidate_limit=1.00000000000000000000e+03
cascade_weight_multiplier=4.00000000000000022204e-01
cascade_activation_functions_count=10
cascade_activation_functions=3 5 7 8 10 11 14 15 16 17 
cascade_activation_steepnesses_count=4
cascade_activation_steepnesses=2.50000000000000000000e-01 5.00000000000000000000e-01 7.50000000000000000000e-01 1.00000000000000000000e+00 
layer_sizes=8 16 2 
scale_included=0
neurons (num_inputs, activation_function, activation_steepness)=(0, 0, 0.00000000000000000000e+00) (0, 0, 0.00000000000000000000e+00) (0, 0, 0.00000000000000000000e+00) (0, 0, 0.00000000000000000000e+00) (0, 0, 0.00000000000000000000e+00) (0, 0, 0.00000000000000000000e+00) (0, 0, 0.00000000000000000000e+00) (0, 0, 0.00000000000000000000e+00) (8, 4, 5.00000000000000000000e-01) (8, 4, 5.00000000000000000000e-01) (8, 4, 5.00000000000000000000e-01) (8, 4, 5.00000000000000000000e-01) (8, 4, 5.00000000000000000000e-01) (8, 4, 5.00000000000000000000e-01) (8, 4, 5.00000000000000000000e-01) (8, 4, 5.00000000000000000000e-01) (8, 4, 5.00000000000000000000e-01) (8, 4, 5.00000000000000000000e-01) (8, 4, 5.00000000000000000000e-01) (8, 4, 5.00000000000000000000e-01) (8, 4, 5.00000000000000000000e-01) (8, 4, 5.00000000000000000000e-01) (8, 4, 5.00000000000000000000e-01) (0, 0, 0.00000000000000000000e+00) (16, 6, 5.00000000000000000000e-01) (0, 6, 0.00000000000000000000e+00) 
connections (connected_to_neuron, weight)=(0, 2.21219263929158458382e+01) (1, -2.26133259452054034000e+01) (2, -7.74807540938066030556e-01) (3, -1.83066722470977083503e+00) (4, 1.61819166588643739146e+01) (5, -6.50121923676623847399e+00) (6, 2.23915897072606862039e+00) (7, -9.28299218717200336215e-01) (0, -1.50000000000000000000e+03) (1, -1.50000000000000000000e+03) (2, -1.50000000000000000000e+03) (3, 1.02170188789642713800e+03) (4, 5.37970889771923225453e+02) (5, 5.15004190968878219792e+02) (6, -1.50000000000000000000e+03) (7, -6.54941565940162035986e+02) (0, 4.56452027233726198574e+01) (1, -4.14392632106139018333e+01) (2, -3.86558161438078897731e+01) (3, 8.15389673288198935097e+01) (4, 1.20525362408382221702e+01) (5, -1.96824062843211464724e+01) (6, -5.27121770524537751612e+01) (7, 9.55049410842995527560e+00) (0, -1.50000000000000000000e+03) (1, -1.50000000000000000000e+03) (2, -4.30984325514476608987e+02) (3, 8.30082351244603614759e+02) (4, -1.43546836619631562826e+02) (5, -1.92077307289976673133e+00) (6, -1.50000000000000000000e+03) (7, 1.01546838407718013286e+02) (0, 3.68480340312682642434e+02) (1, 1.19825777896175267756e+02) (2, 2.91936975202501230342e+02) (3, -1.50000000000000000000e+03) (4, -1.50000000000000000000e+03) (5, -1.50000000000000000000e+03) (6, 3.45738448069972037047e+02) (7, -2.86075434607299769141e+02) (0, 3.72308193372070705962e+00) (1, 8.63200308992016474008e+00) (2, -3.55781786391493692889e+00) (3, -8.82769393257590095914e+00) (4, -3.02906700242532478384e+00) (5, -1.02361132099248419713e+00) (6, -7.22854141863558008474e-01) (7, -1.98993666745708819299e+00) (0, 6.57639434675241307815e+00) (1, -1.93950173830749541537e+01) (2, -5.53103142988819627135e+01) (3, 7.77380027585048054561e+01) (4, -8.93961193103918461134e+00) (5, 2.93696676143458432762e+01) (6, 1.17416503420328695029e+01) (7, -6.57314562788580669661e+00) (0, 1.95815536125921205723e+01) (1, -2.65114975899618968924e+02) (2, 2.15023799293873850047e+02) (3, -1.65798564837711417397e+01) (4, 2.70417080953216917294e+01) (5, 6.00758629038155973490e+01) (6, 1.02019153257835824888e+02) (7, -8.88254225767429659300e+01) (0, -2.26364455310810619437e+01) (1, 3.39927523131971165427e-01) (2, -4.33360984523977865734e+00) (3, -8.05169761919333559774e+00) (4, 1.27426393126607511164e+01) (5, 9.26133111117999674455e-01) (6, -5.40127812069917823123e+01) (7, -5.70560687605498539909e+00) (0, 1.07921634080634065711e+00) (1, 1.11124186817463002086e+01) (2, -3.05887874754551027934e+01) (3, 2.47628439540705835853e+00) (4, -3.57452666838093380264e+00) (5, -5.36738500476599877942e+00) (6, 9.74569990211027104010e+00) (7, -8.07127909663929443695e-01) (0, -1.33086255687210091025e+01) (1, 6.24785063422431274915e+00) (2, 1.14109964786722848373e+01) (3, -6.15338009120816931130e+00) (4, -4.14345442930388596636e+00) (5, 4.02161701937899174197e+00) (6, -5.46741573932020608062e-01) (7, -1.96411164794713966053e+00) (0, 3.83050710703189380979e+01) (1, 4.61121521763338151345e+01) (2, -1.19326691746859935961e+02) (3, 1.39960669596893779953e+02) (4, -2.52435487286952081831e+02) (5, 6.83514948062579463794e+01) (6, -7.14000710734841845806e+01) (7, 2.91309607555574636706e+01) (0, -2.09331314189780428592e+01) (1, -7.38285099774796638172e+00) (2, -2.67218721057398722607e+00) (3, 2.95956627613611296113e+01) (4, 5.17670726150868265591e+00) (5, -1.97261799131774329119e+00) (6, 8.75891308208037067118e+00) (7, 1.29729097970453244315e+00) (0, -1.94641370107606235251e+01) (1, 4.58883387579883432750e+01) (2, -1.73992652533880445276e+01) (3, 2.37964345951870859253e+00) (4, -9.38578486362823127820e+00) (5, -1.32386287618738829330e+00) (6, -9.42183315111695729449e-01) (7, -7.30900795057052210524e+00) (0, 6.23650149562999533970e+00) (1, -3.41131597774368611198e+00) (2, 1.76177360256697248531e+01) (3, -2.33034451273731555432e+01) (4, 3.84500531985203286567e+00) (5, 6.43178133552746089663e+00) (6, -5.33854729595711230417e+00) (7, -7.95435668397513673256e+00) (8, 3.26129161750889373650e+00) (9, 2.47314829597673258021e+00) (10, -7.20598574427171345569e-01) (11, 1.02694170224268055414e+00) (12, -8.60243127629016446356e-01) (13, -1.04608337559015698304e+01) (14, -9.27132413038447844578e-01) (15, -7.66842570026215919476e-01) (16, -3.93999020983971526277e+00) (17, 2.48690400222314433876e+00) (18, 5.00077191511653307288e+00) (19, 1.24612885963634356656e+00) (20, -3.80862334413079128836e+00) (21, 2.61116935726593002443e+00) (22, -2.34785442158543800062e+00) (23, 2.08505475658628025570e+00) 
