FANN_FLO_2.1
num_layers=3
learning_rate=0.700000
connection_rate=1.000000
network_type=0
learning_momentum=0.000000
training_algorithm=2
train_error_function=1
train_stop_function=0
cascade_output_change_fraction=0.010000
quickprop_decay=-0.000100
quickprop_mu=1.750000
rprop_increase_factor=1.200000
rprop_decrease_factor=0.500000
rprop_delta_min=0.000000
rprop_delta_max=50.000000
rprop_delta_zero=0.100000
cascade_output_stagnation_epochs=12
cascade_candidate_change_fraction=0.010000
cascade_candidate_stagnation_epochs=12
cascade_max_out_epochs=150
cascade_max_cand_epochs=150
cascade_num_candidate_groups=2
bit_fail_limit=3.49999999999999977796e-01
cascade_candidate_limit=1.00000000000000000000e+03
cascade_weight_multiplier=4.00000000000000022204e-01
cascade_activation_functions_count=10
cascade_activation_functions=3 5 7 8 10 11 14 15 16 17 
cascade_activation_steepnesses_count=4
cascade_activation_steepnesses=2.50000000000000000000e-01 5.00000000000000000000e-01 7.50000000000000000000e-01 1.00000000000000000000e+00 
layer_sizes=8 11 2 
scale_included=0
neurons (num_inputs, activation_function, activation_steepness)=(0, 0, 0.00000000000000000000e+00) (0, 0, 0.00000000000000000000e+00) (0, 0, 0.00000000000000000000e+00) (0, 0, 0.00000000000000000000e+00) (0, 0, 0.00000000000000000000e+00) (0, 0, 0.00000000000000000000e+00) (0, 0, 0.00000000000000000000e+00) (0, 0, 0.00000000000000000000e+00) (8, 4, 5.00000000000000000000e-01) (8, 4, 5.00000000000000000000e-01) (8, 4, 5.00000000000000000000e-01) (8, 4, 5.00000000000000000000e-01) (8, 4, 5.00000000000000000000e-01) (8, 4, 5.00000000000000000000e-01) (8, 4, 5.00000000000000000000e-01) (8, 4, 5.00000000000000000000e-01) (8, 4, 5.00000000000000000000e-01) (8, 4, 5.00000000000000000000e-01) (0, 0, 0.00000000000000000000e+00) (11, 6, 5.00000000000000000000e-01) (0, 6, 0.00000000000000000000e+00) 
connections (connected_to_neuron, weight)=(0, -2.13944138421775925663e-02) (1, -1.89970033280104852458e-02) (2, -1.98089377181073639234e-02) (3, 6.39411905995188600826e-02) (4, 4.85109363460680190205e-02) (5, -1.03625785240915174734e-02) (6, 3.80528397940522317144e-02) (7, 4.89927803947445700272e-02) (0, 9.55752549033649784205e-02) (1, -7.05216703269134354004e-02) (2, 3.31641985388725704653e-02) (3, 2.65795137968586892008e-02) (4, -4.22166033419460462461e-02) (5, -3.03403935259639184752e-02) (6, 3.10744112331332381083e-02) (7, 1.89134067880124823180e-02) (0, -2.94499941833316347672e-03) (1, 8.37951246096957230725e-02) (2, -1.75849644293630744118e-02) (3, 1.80422073124677992406e-02) (4, 7.51187657023782151544e-02) (5, 3.33005489155731859707e-02) (6, 8.61681642743671316609e-02) (7, 1.02425908333449167120e-02) (0, -6.53142382810151245209e-02) (1, 3.14407133525716198097e-02) (2, -5.58085652002478296851e-02) (3, 2.39461785956647729701e-02) (4, 1.37965335703869665385e-02) (5, 1.91797334764858065648e-02) (6, -7.49277245242554457150e-02) (7, 9.24021212183255002959e-02) (0, -9.98172712485085322776e-02) (1, 5.26333924775330974644e-03) (2, 5.63433103277282340549e-02) (3, 4.86936665876755991889e-02) (4, 9.49007623069101635682e-02) (5, -5.60385136833565361547e-03) (6, -2.31355441456369131936e-03) (7, 9.04760157201590364817e-02) (0, 2.38744798879992892182e-02) (1, -6.91493573658072402388e-02) (2, 1.70555280269015993588e-02) (3, 8.16578780361693623568e-02) (4, 5.10250598344960670794e-04) (5, -5.18700622300812819176e-02) (6, 5.71283427197984139401e-04) (7, 9.75652527632601684893e-02) (0, -6.80749391105016782300e-02) (1, 8.29863204879510291123e-02) (2, 1.56074585856118552840e-02) (3, -9.29561748051073166721e-02) (4, 1.62868679134080956983e-02) (5, 1.77562136986287449902e-03) (6, 1.72864175183537194247e-02) (7, 5.09726312156413563503e-02) (0, -6.67836666745493662267e-02) (1, 6.14778538082220091243e-02) (2, -2.50811916788099900644e-02) (3, 4.70128683859537196965e-02) (4, -1.93424142054083036957e-02) (5, -8.91471294931639457459e-06) (6, 3.94149882072953525181e-02) (7, -1.91596839638007235274e-02) (0, -9.47455768621798671836e-02) (1, -4.24170295509253281185e-03) (2, -7.04660187731089848739e-02) (3, -9.98448160453858091223e-02) (4, 9.01544472598201918068e-02) (5, 2.72204283024434431915e-02) (6, 9.06312011648893328664e-02) (7, 1.40289256577033616402e-02) (0, 5.80710724267523223374e-02) (1, 7.68672779480707168975e-03) (2, -4.31319779624339538771e-03) (3, -4.14186784650188363766e-02) (4, 5.58166670548419091569e-02) (5, 9.62580871210707011976e-02) (6, -4.38534271918747803332e-02) (7, 8.77417295275886022221e-02) (8, 7.92444062120378767133e-02) (9, 7.17540329769854601238e-02) (10, 9.47855562125974049348e-02) (11, -4.46872736467014697315e-03) (12, -2.64703471432677917008e-02) (13, 1.20719722408350119136e-02) (14, -5.34960976391449100076e-02) (15, 6.74598767229896145725e-03) (16, -2.64501754410590983468e-02) (17, 2.14227122652934781621e-02) (18, -4.62411453387311793817e-02) 
