FANN_FLO_2.1
num_layers=3
learning_rate=0.700000
connection_rate=1.000000
network_type=0
learning_momentum=0.000000
training_algorithm=2
train_error_function=1
train_stop_function=0
cascade_output_change_fraction=0.010000
quickprop_decay=-0.000100
quickprop_mu=1.750000
rprop_increase_factor=1.200000
rprop_decrease_factor=0.500000
rprop_delta_min=0.000000
rprop_delta_max=50.000000
rprop_delta_zero=0.100000
cascade_output_stagnation_epochs=12
cascade_candidate_change_fraction=0.010000
cascade_candidate_stagnation_epochs=12
cascade_max_out_epochs=150
cascade_max_cand_epochs=150
cascade_num_candidate_groups=2
bit_fail_limit=3.49999999999999977796e-01
cascade_candidate_limit=1.00000000000000000000e+03
cascade_weight_multiplier=4.00000000000000022204e-01
cascade_activation_functions_count=10
cascade_activation_functions=3 5 7 8 10 11 14 15 16 17 
cascade_activation_steepnesses_count=4
cascade_activation_steepnesses=2.50000000000000000000e-01 5.00000000000000000000e-01 7.50000000000000000000e-01 1.00000000000000000000e+00 
layer_sizes=8 15 2 
scale_included=0
neurons (num_inputs, activation_function, activation_steepness)=(0, 0, 0.00000000000000000000e+00) (0, 0, 0.00000000000000000000e+00) (0, 0, 0.00000000000000000000e+00) (0, 0, 0.00000000000000000000e+00) (0, 0, 0.00000000000000000000e+00) (0, 0, 0.00000000000000000000e+00) (0, 0, 0.00000000000000000000e+00) (0, 0, 0.00000000000000000000e+00) (8, 4, 5.00000000000000000000e-01) (8, 4, 5.00000000000000000000e-01) (8, 4, 5.00000000000000000000e-01) (8, 4, 5.00000000000000000000e-01) (8, 4, 5.00000000000000000000e-01) (8, 4, 5.00000000000000000000e-01) (8, 4, 5.00000000000000000000e-01) (8, 4, 5.00000000000000000000e-01) (8, 4, 5.00000000000000000000e-01) (8, 4, 5.00000000000000000000e-01) (8, 4, 5.00000000000000000000e-01) (8, 4, 5.00000000000000000000e-01) (8, 4, 5.00000000000000000000e-01) (8, 4, 5.00000000000000000000e-01) (0, 0, 0.00000000000000000000e+00) (15, 6, 5.00000000000000000000e-01) (0, 6, 0.00000000000000000000e+00) 
connections (connected_to_neuron, weight)=(0, -5.51243094844755106010e+01) (1, 3.31209990855917965291e+02) (2, 1.77629894913262972977e+02) (3, 1.15675452811441701328e+01) (4, -1.40091928014939890090e+03) (5, 4.34538432960263378391e+02) (6, 4.15396191145440525361e+01) (7, 8.44027951326848580038e+01) (0, 1.69166013511699702576e+02) (1, 1.42166635131864723007e+02) (2, -7.65806674018891726519e+02) (3, -4.10340598127498708436e+02) (4, -8.29665384607491063207e+00) (5, 8.71009656755535921491e+00) (6, 6.17230192461071425214e+01) (7, 2.87338843215335884906e+02) (0, 1.72920317685550237741e+01) (1, -2.46806223895067603280e+02) (2, 6.73238513625729098067e+01) (3, -5.00706260360764702000e+02) (4, 1.97139352914299479380e+02) (5, -1.03355230999698775918e+02) (6, -2.33943374192387096855e+01) (7, 2.45882168780417458720e+02) (0, 1.31304455484073770322e+02) (1, -7.65718411628943442793e+01) (2, -1.60645216764424702660e+02) (3, 9.72582527917906958237e+01) (4, 1.62587140618648703594e+02) (5, -4.65847887280935424315e+01) (6, -4.83227745034821225545e+01) (7, -4.30983206513396766013e+01) (0, 1.15267698661022654960e+03) (1, 7.42932975803416752569e+02) (2, -1.40756779065158457342e+03) (3, -7.54515662192171703282e+01) (4, -6.81555515810927772691e+02) (5, 8.74718577639053364692e+02) (6, -1.15891150673496511558e+02) (7, -6.22671560759847238842e+02) (0, -7.32992669024400129274e+02) (1, -4.62955319912025686335e+02) (2, -1.79303981784218478879e+02) (3, 1.17118781167717131098e+02) (4, 1.16496405502816583066e+03) (5, 7.65566195486114509094e+01) (6, 3.77457619736229332830e+02) (7, 1.99125138460517263184e+02) (0, -7.23618747534076689476e+00) (1, -2.76809765338635971332e+00) (2, 7.67300177140882500026e-01) (3, -3.66495160402526209964e+00) (4, 1.69478086972849695258e+00) (5, 1.25485636258433980172e-01) (6, -5.07850725250962309332e+00) (7, 2.89950120027366953224e+00) (0, 3.37513533285199969214e+01) (1, -6.69533751966025789670e+01) (2, 6.59677360735408910841e+01) (3, -8.38208672019033542711e+01) (4, 2.36770084535878950760e+01) (5, 9.35151106108377594417e-01) (6, -6.49153087876190593164e+00) (7, 8.98607552738274151238e+00) (0, -1.35098945079728906649e+02) (1, 4.51694567638170667578e+02) (2, -7.07308808791992873921e+02) (3, -1.50000000000000000000e+03) (4, -8.63809004932192806336e+02) (5, -3.95888176688174837636e+02) (6, 1.22111995619020490267e+03) (7, 3.04710970381049817135e+00) (0, -1.18499176223184258561e+03) (1, -1.02702477084495831150e+03) (2, 3.49860685966012511017e+02) (3, -5.50951590519060232509e+02) (4, -1.50000000000000000000e+03) (5, 4.71092577327299409262e+02) (6, -1.50000000000000000000e+03) (7, 1.35138564980042588104e+03) (0, -2.26583275407743315100e+02) (1, 1.93771662066146404868e+02) (2, -2.29523799037588332794e+02) (3, 3.82120284218132383103e+02) (4, 1.40416867574271151398e+02) (5, -3.13748666238802940143e+01) (6, -1.98812233740151111938e+00) (7, -1.92481784143602311588e+02) (0, -2.61238817893255827585e+02) (1, -3.43311802719806280493e+02) (2, 8.91811160542535390050e+02) (3, -5.14166094362031003584e+02) (4, -3.60441767975168261273e+01) (5, -2.79460417044864243508e+02) (6, -5.62110893676468776903e+01) (7, 1.00159842258355212152e+02) (0, 5.14088110551712986762e+01) (1, 1.15567559410714054025e+02) (2, 1.78754256783339826598e+01) (3, -6.66899637855190405844e+01) (4, 8.42277655394433111269e+01) (5, -1.34275852348826305160e+02) (6, -8.44382599129978643759e+01) (7, -1.64914051919749340414e+01) (0, 5.75497950907833288881e+00) (1, 1.92502206039423313655e+01) (2, 6.46733927715180527684e+01) (3, -2.46877786016042648498e+02) (4, 6.14393963535725191605e+01) (5, -1.80130027725317404474e+02) (6, -4.89696203488663286407e+01) (7, 4.71967563593809629197e+01) (8, 1.49592296355162246435e+00) (9, -1.30341657800276355950e+00) (10, -1.77979163082077107561e+00) (11, 2.35413813095038504386e+00) (12, 8.81638692346630725716e-01) (13, 1.14411426085825707055e+00) (14, -8.47234446419307474230e+00) (15, 5.49070525815999488373e+00) (16, -1.02430374431185455819e+00) (17, 4.17132553652170567915e+00) (18, 3.71026421822784380211e+00) (19, -1.53328373119983707440e+00) (20, 2.19025396732650357023e+00) (21, 2.31849556194175088208e+00) (22, -2.89137421283567297436e+00) 
