FANN_FLO_2.1
num_layers=3
learning_rate=0.700000
connection_rate=1.000000
network_type=0
learning_momentum=0.000000
training_algorithm=2
train_error_function=1
train_stop_function=0
cascade_output_change_fraction=0.010000
quickprop_decay=-0.000100
quickprop_mu=1.750000
rprop_increase_factor=1.200000
rprop_decrease_factor=0.500000
rprop_delta_min=0.000000
rprop_delta_max=50.000000
rprop_delta_zero=0.100000
cascade_output_stagnation_epochs=12
cascade_candidate_change_fraction=0.010000
cascade_candidate_stagnation_epochs=12
cascade_max_out_epochs=150
cascade_max_cand_epochs=150
cascade_num_candidate_groups=2
bit_fail_limit=3.49999999999999977796e-01
cascade_candidate_limit=1.00000000000000000000e+03
cascade_weight_multiplier=4.00000000000000022204e-01
cascade_activation_functions_count=10
cascade_activation_functions=3 5 7 8 10 11 14 15 16 17 
cascade_activation_steepnesses_count=4
cascade_activation_steepnesses=2.50000000000000000000e-01 5.00000000000000000000e-01 7.50000000000000000000e-01 1.00000000000000000000e+00 
layer_sizes=8 15 2 
scale_included=0
neurons (num_inputs, activation_function, activation_steepness)=(0, 0, 0.00000000000000000000e+00) (0, 0, 0.00000000000000000000e+00) (0, 0, 0.00000000000000000000e+00) (0, 0, 0.00000000000000000000e+00) (0, 0, 0.00000000000000000000e+00) (0, 0, 0.00000000000000000000e+00) (0, 0, 0.00000000000000000000e+00) (0, 0, 0.00000000000000000000e+00) (8, 4, 5.00000000000000000000e-01) (8, 4, 5.00000000000000000000e-01) (8, 4, 5.00000000000000000000e-01) (8, 4, 5.00000000000000000000e-01) (8, 4, 5.00000000000000000000e-01) (8, 4, 5.00000000000000000000e-01) (8, 4, 5.00000000000000000000e-01) (8, 4, 5.00000000000000000000e-01) (8, 4, 5.00000000000000000000e-01) (8, 4, 5.00000000000000000000e-01) (8, 4, 5.00000000000000000000e-01) (8, 4, 5.00000000000000000000e-01) (8, 4, 5.00000000000000000000e-01) (8, 4, 5.00000000000000000000e-01) (0, 0, 0.00000000000000000000e+00) (15, 6, 5.00000000000000000000e-01) (0, 6, 0.00000000000000000000e+00) 
connections (connected_to_neuron, weight)=(0, 1.65969238742407782183e+02) (1, 2.46041563703522172091e+02) (2, 4.25526680390990748037e+01) (3, -6.00704582825659826995e+02) (4, 5.37525564083436506735e+01) (5, -6.58624347476608384966e+00) (6, -1.28847025181586660736e+00) (7, -1.30920092697531799786e+02) (0, 1.11307284879565554547e+03) (1, -4.19732267179860855322e+02) (2, -1.08371330540220719740e+03) (3, 3.71392184907356522672e+02) (4, -1.50000000000000000000e+03) (5, -1.07271657858581488654e+03) (6, -6.74228011493352710204e+02) (7, 1.48584067327741962572e+02) (0, -2.09089933958920823898e+02) (1, 1.05965850989716670938e+02) (2, 2.20723644374573467530e+02) (3, 3.39273933229961670577e+01) (4, 3.12884619979678930690e+01) (5, 1.66171972676127559509e+01) (6, 6.12306424902064492244e+01) (7, -1.03207450503850097334e+02) (0, -7.59019800432676419177e+01) (1, -3.36194054497443346463e+01) (2, 1.34203857700495348126e+01) (3, 7.57376442997760079834e+01) (4, -7.65990674186297182402e-01) (5, -9.21473966250226617092e+00) (6, 4.15886677711950198955e+01) (7, 1.46087830461583294550e+01) (0, 1.55854396361847591379e+02) (1, 5.06434653691925795727e+00) (2, -8.55470006446187447580e+00) (3, -2.59907384300883208539e+01) (4, -3.99858232992827709040e+01) (5, 2.07383535155890363910e+00) (6, -5.83589258457045687578e+01) (7, 1.37645721099172195778e+01) (0, -1.58056532993330534076e+00) (1, 3.28218959804477439235e+00) (2, 3.07233784559944267389e-01) (3, 4.84691219278508089729e+00) (4, -6.37589436107990970015e+00) (5, 4.96262786224087726339e+00) (6, -6.98210691420372508986e+00) (7, 9.60279400471549318685e-03) (0, -1.49750330301457864834e+02) (1, 1.70616320883706009681e+01) (2, -2.48775418502342446914e+01) (3, 3.52264254174988806767e+01) (4, 1.34737121630589143706e+02) (5, 1.49194780255143513159e+01) (6, 4.46449839352151798266e+01) (7, -1.01401779024134217622e+01) (0, -2.48803433346303791041e+02) (1, 7.58083956821934066284e+01) (2, 9.05464649453054022388e+01) (3, -6.94820154929357016726e+01) (4, 1.10401832101569425504e+02) (5, -5.20881670527021682915e+01) (6, 7.93977912929826885602e+01) (7, -1.30195057909707987420e+01) (0, -1.50000000000000000000e+03) (1, -1.21352022916197483937e+02) (2, 2.94642235377891381631e+02) (3, 9.19339905835801829426e+01) (4, 2.79248001983515393931e+02) (5, 3.52560006016232208026e+01) (6, 5.42120552398541803996e+02) (7, -9.23847214311207807214e+01) (0, -1.34090586793868808968e+01) (1, 3.92078633201255799534e+00) (2, 4.85776864462202517814e+00) (3, -3.17032621924649316014e+00) (4, 1.65259237607879931886e+01) (5, -6.23884422690576645465e+00) (6, 1.16563885470642603082e+01) (7, -6.40737503487855075690e+00) (0, -1.50000000000000000000e+03) (1, -1.50000000000000000000e+03) (2, -1.50000000000000000000e+03) (3, 4.31514671634230012387e+02) (4, -1.11051577709137632155e+03) (5, 1.36755973867367765706e+03) (6, -1.50000000000000000000e+03) (7, -1.48234817363889817443e+02) (0, -3.65145949874688540149e+01) (1, 2.60201496946516748210e+01) (2, 4.45009636840122695389e+01) (3, 1.53499372508773088697e+01) (4, -1.01238590457891973529e+02) (5, -3.10841395770634676410e+01) (6, 3.84037653057051571182e+01) (7, 5.30576059237880457431e+01) (0, -1.79318313932470125849e+01) (1, 5.31687732453329431337e+00) (2, 1.96990191795422520116e+00) (3, 1.26633678461322389808e+01) (4, 2.00443760056147146642e+00) (5, -2.17397264672916818995e+01) (6, 7.19904850313730637623e+00) (7, 9.35203699373148289453e+00) (0, -4.52652122773221137209e+01) (1, 7.14555050892175387389e+01) (2, 8.37395045341173371867e+00) (3, -3.68093551276941965966e+01) (4, -7.18247507343858018203e+01) (5, -9.17692499510426529241e+01) (6, -2.03189370057969284744e+02) (7, 2.39635105646143358626e+02) (8, -2.24199709972465432983e+00) (9, -2.98299772464816514983e+00) (10, -9.25759077107275452079e-01) (11, -1.18095049350351999351e+00) (12, 3.65237093467320184104e+00) (13, 1.98066823291674198870e+00) (14, -8.83643492950353603987e-01) (15, 9.49463376765253719292e-01) (16, 3.07467541554819856486e+00) (17, 1.84043841865620927400e+00) (18, 7.43687680215009416784e-01) (19, 1.20962779759789662570e+00) (20, -1.23348180008698027343e+00) (21, 5.95035785101926562035e-01) (22, -3.71734595188404437494e+00) 
