FANN_FLO_2.1
num_layers=3
learning_rate=0.700000
connection_rate=1.000000
network_type=0
learning_momentum=0.000000
training_algorithm=2
train_error_function=1
train_stop_function=0
cascade_output_change_fraction=0.010000
quickprop_decay=-0.000100
quickprop_mu=1.750000
rprop_increase_factor=1.200000
rprop_decrease_factor=0.500000
rprop_delta_min=0.000000
rprop_delta_max=50.000000
rprop_delta_zero=0.100000
cascade_output_stagnation_epochs=12
cascade_candidate_change_fraction=0.010000
cascade_candidate_stagnation_epochs=12
cascade_max_out_epochs=150
cascade_max_cand_epochs=150
cascade_num_candidate_groups=2
bit_fail_limit=3.49999999999999977796e-01
cascade_candidate_limit=1.00000000000000000000e+03
cascade_weight_multiplier=4.00000000000000022204e-01
cascade_activation_functions_count=10
cascade_activation_functions=3 5 7 8 10 11 14 15 16 17 
cascade_activation_steepnesses_count=4
cascade_activation_steepnesses=2.50000000000000000000e-01 5.00000000000000000000e-01 7.50000000000000000000e-01 1.00000000000000000000e+00 
layer_sizes=8 11 2 
scale_included=0
neurons (num_inputs, activation_function, activation_steepness)=(0, 0, 0.00000000000000000000e+00) (0, 0, 0.00000000000000000000e+00) (0, 0, 0.00000000000000000000e+00) (0, 0, 0.00000000000000000000e+00) (0, 0, 0.00000000000000000000e+00) (0, 0, 0.00000000000000000000e+00) (0, 0, 0.00000000000000000000e+00) (0, 0, 0.00000000000000000000e+00) (8, 4, 5.00000000000000000000e-01) (8, 4, 5.00000000000000000000e-01) (8, 4, 5.00000000000000000000e-01) (8, 4, 5.00000000000000000000e-01) (8, 4, 5.00000000000000000000e-01) (8, 4, 5.00000000000000000000e-01) (8, 4, 5.00000000000000000000e-01) (8, 4, 5.00000000000000000000e-01) (8, 4, 5.00000000000000000000e-01) (8, 4, 5.00000000000000000000e-01) (0, 0, 0.00000000000000000000e+00) (11, 6, 5.00000000000000000000e-01) (0, 6, 0.00000000000000000000e+00) 
connections (connected_to_neuron, weight)=(0, -9.31081263954003816252e+02) (1, -1.44694300151131205467e+01) (2, -1.70379088307750777176e+02) (3, 1.12341176392226702774e+03) (4, -1.50000000000000000000e+03) (5, -1.50000000000000000000e+03) (6, 2.32008975334870996221e+02) (7, -1.93358725690348734361e+02) (0, 1.32395143091052688078e+02) (1, 6.08287672938608565687e+01) (2, -1.10874782472878564477e+03) (3, 2.21380810916827908130e+00) (4, 5.13614575646984121704e+01) (5, 1.50000000000000000000e+03) (6, 1.21114117001385494632e+02) (7, 2.19560368283975805070e+02) (0, -1.28781248651831788266e+02) (1, 3.74879353335847895323e+02) (2, 6.57516175498870580896e+01) (3, 4.60428278595916751215e+01) (4, -9.93762958142639689640e+01) (5, 1.05452058944686612563e+02) (6, 4.24562243951523257124e+01) (7, -9.51146992948738159157e+01) (0, -2.03778710015291366631e+01) (1, -2.95057891287946532088e+01) (2, 7.52146507313508072556e-01) (3, -5.56259223483208486982e+00) (4, -2.07572085990256312016e+01) (5, -2.52229784699546766280e-01) (6, 3.72184457090267173385e+01) (7, 2.53968756919661009519e+00) (0, -1.86529796169360366775e+01) (1, 3.35678995212452946362e+00) (2, 6.05339394262276826453e+01) (3, -6.48917204829433700297e+01) (4, 6.07708546563511688987e+01) (5, -3.21906770589630886192e+00) (6, -5.02856346729698908127e-02) (7, -1.72076478478229972779e+01) (0, 1.52603567993871913622e+00) (1, 6.88702249897995866235e+00) (2, 5.65591792022857653421e+00) (3, -1.93125254156453962651e+01) (4, 9.26811097908044834170e-01) (5, 3.15246270936768269166e+00) (6, -9.61223777829771108827e+00) (7, -1.23336105509979820916e+00) (0, -1.47789212908149534087e+03) (1, -4.58168032638854015204e+02) (2, -1.50000000000000000000e+03) (3, -4.61738797213906764227e+02) (4, 2.78900951176171588486e+02) (5, 1.50000000000000000000e+03) (6, 1.14277138531192781556e+03) (7, -1.53259347995530106346e+02) (0, 8.92690524364870424678e-02) (1, 6.39839670458857856516e+00) (2, -7.88696318481368852105e+00) (3, 6.55700491130405516138e-01) (4, -9.49749820549197742992e+00) (5, 8.19207785913079788997e+00) (6, -2.77360511895215333666e+00) (7, 4.45973203855356370440e+00) (0, -3.65983357539101428202e+00) (1, 1.46787918472209977239e+01) (2, -3.27481291277852015753e+00) (3, -1.86372755085086652116e+01) (4, 3.41184694648190189881e+00) (5, -3.51206940876424837938e+01) (6, -8.62226491600618949462e+00) (7, 9.41412117656057745307e+00) (0, -1.31519580992252791418e+01) (1, -6.47274620976316441556e+01) (2, -3.87403860183899553249e+01) (3, 1.40639519880077330072e+02) (4, -1.84412938780711954223e+02) (5, -1.50000000000000000000e+03) (6, 5.25890998972886478668e+01) (7, 5.32008028072433791777e+00) (8, 1.54256417932971978679e+00) (9, -2.00408846365853765548e+00) (10, -1.52812488826948889020e+00) (11, -1.11508293840634618022e+01) (12, 1.95704153114337708885e+00) (13, 1.04955367190648001241e+01) (14, -3.23128379050615954782e+00) (15, 3.31898697323223501598e+00) (16, -2.02926701863822067651e+00) (17, 2.14274256586496392174e+00) (18, 2.62609138745027781425e-01) 
