FANN_FLO_2.1
num_layers=3
learning_rate=0.700000
connection_rate=1.000000
network_type=0
learning_momentum=0.000000
training_algorithm=2
train_error_function=1
train_stop_function=0
cascade_output_change_fraction=0.010000
quickprop_decay=-0.000100
quickprop_mu=1.750000
rprop_increase_factor=1.200000
rprop_decrease_factor=0.500000
rprop_delta_min=0.000000
rprop_delta_max=50.000000
rprop_delta_zero=0.100000
cascade_output_stagnation_epochs=12
cascade_candidate_change_fraction=0.010000
cascade_candidate_stagnation_epochs=12
cascade_max_out_epochs=150
cascade_max_cand_epochs=150
cascade_num_candidate_groups=2
bit_fail_limit=3.49999999999999977796e-01
cascade_candidate_limit=1.00000000000000000000e+03
cascade_weight_multiplier=4.00000000000000022204e-01
cascade_activation_functions_count=10
cascade_activation_functions=3 5 7 8 10 11 14 15 16 17 
cascade_activation_steepnesses_count=4
cascade_activation_steepnesses=2.50000000000000000000e-01 5.00000000000000000000e-01 7.50000000000000000000e-01 1.00000000000000000000e+00 
layer_sizes=8 10 2 
scale_included=0
neurons (num_inputs, activation_function, activation_steepness)=(0, 0, 0.00000000000000000000e+00) (0, 0, 0.00000000000000000000e+00) (0, 0, 0.00000000000000000000e+00) (0, 0, 0.00000000000000000000e+00) (0, 0, 0.00000000000000000000e+00) (0, 0, 0.00000000000000000000e+00) (0, 0, 0.00000000000000000000e+00) (0, 0, 0.00000000000000000000e+00) (8, 4, 5.00000000000000000000e-01) (8, 4, 5.00000000000000000000e-01) (8, 4, 5.00000000000000000000e-01) (8, 4, 5.00000000000000000000e-01) (8, 4, 5.00000000000000000000e-01) (8, 4, 5.00000000000000000000e-01) (8, 4, 5.00000000000000000000e-01) (8, 4, 5.00000000000000000000e-01) (8, 4, 5.00000000000000000000e-01) (0, 0, 0.00000000000000000000e+00) (10, 6, 5.00000000000000000000e-01) (0, 6, 0.00000000000000000000e+00) 
connections (connected_to_neuron, weight)=(0, -1.50000000000000000000e+03) (1, -1.50000000000000000000e+03) (2, -1.50000000000000000000e+03) (3, -1.50000000000000000000e+03) (4, 2.58526492436636146977e+02) (5, 1.15243132212409841486e+03) (6, -1.50000000000000000000e+03) (7, 1.56149329137075234541e+01) (0, -2.79205000065874287429e+02) (1, 5.68031872230618475328e+01) (2, 1.36519520788080995999e+02) (3, -1.50000000000000000000e+03) (4, 1.79914250878785509258e+02) (5, 7.94292992710423050085e+02) (6, 5.39466877698763028093e+02) (7, 9.71381916592743799299e+00) (0, -6.16172121973330945366e+02) (1, 7.62346762969416204214e+02) (2, -2.89948578837439185918e+02) (3, 9.13670274492814655787e+01) (4, 2.78278679209354118385e+00) (5, -1.01881894477321941395e+03) (6, -1.50000000000000000000e+03) (7, 4.68897891228006130859e+02) (0, 1.06559569389591306532e+01) (1, 1.88137134464683342117e+01) (2, -2.51273387022697569648e+01) (3, -2.49242164908690568836e+01) (4, -1.55357695840071752258e+01) (5, -1.92371295175005729838e+00) (6, -2.01405736708012987890e+01) (7, 1.61370321195326376085e+01) (0, -1.31317206774960226312e+02) (1, 4.82480395560982344705e+02) (2, 1.50000000000000000000e+03) (3, -1.08909035124466822708e+03) (4, -2.59962447476624163301e+02) (5, -6.26579584925331801060e+02) (6, -4.42877995580555705146e+02) (7, 5.10713784645178805022e+02) (0, 1.24735487172259581712e+02) (1, -2.02505431777659538284e+02) (2, -1.16333848054431973651e+03) (3, 1.50000000000000000000e+03) (4, 7.11968663789616158510e+01) (5, -1.29318718640698278932e+02) (6, 5.89702336133718176825e+02) (7, -2.27391467542405877111e+02) (0, -1.50000000000000000000e+03) (1, -1.50000000000000000000e+03) (2, -1.44325442208924073384e+03) (3, -1.50000000000000000000e+03) (4, 9.65879175429907235184e+01) (5, 1.35857986192436851525e+03) (6, -1.50000000000000000000e+03) (7, 5.69579029780625319290e+02) (0, 8.35479600348050894354e+02) (1, -3.76463361329861982085e+02) (2, -1.15890477182363085262e+02) (3, 1.85606882954090451676e+02) (4, 8.67813725816714764960e+01) (5, 7.59699214412975294408e+01) (6, -5.15048173009324955274e+02) (7, -4.66285132244596525197e+01) (0, 2.17596131320740902027e+01) (1, -2.95604915021897234340e+01) (2, -1.84524128377063547646e+01) (3, 1.26598766110742690927e+01) (4, -4.91218601779571883981e+00) (5, 7.60184744244554533310e+00) (6, 2.35795164098984564305e+01) (7, 1.58211124188736218521e+00) (8, 1.15498861036671862657e+00) (9, 1.30257633874373252025e-01) (10, 1.76967369254838491344e+00) (11, -2.75992604303207045291e+00) (12, 8.88216519134216841991e-01) (13, -2.05801959591217098478e+00) (14, 1.49048855786882122887e-01) (15, 2.11787270821851086877e-01) (16, 2.37122398428506730994e+00) (17, -1.17566686628089667188e+00) 
