FANN_FLO_2.1
num_layers=3
learning_rate=0.700000
connection_rate=1.000000
network_type=0
learning_momentum=0.000000
training_algorithm=2
train_error_function=1
train_stop_function=0
cascade_output_change_fraction=0.010000
quickprop_decay=-0.000100
quickprop_mu=1.750000
rprop_increase_factor=1.200000
rprop_decrease_factor=0.500000
rprop_delta_min=0.000000
rprop_delta_max=50.000000
rprop_delta_zero=0.100000
cascade_output_stagnation_epochs=12
cascade_candidate_change_fraction=0.010000
cascade_candidate_stagnation_epochs=12
cascade_max_out_epochs=150
cascade_max_cand_epochs=150
cascade_num_candidate_groups=2
bit_fail_limit=3.49999999999999977796e-01
cascade_candidate_limit=1.00000000000000000000e+03
cascade_weight_multiplier=4.00000000000000022204e-01
cascade_activation_functions_count=10
cascade_activation_functions=3 5 7 8 10 11 14 15 16 17 
cascade_activation_steepnesses_count=4
cascade_activation_steepnesses=2.50000000000000000000e-01 5.00000000000000000000e-01 7.50000000000000000000e-01 1.00000000000000000000e+00 
layer_sizes=8 15 2 
scale_included=0
neurons (num_inputs, activation_function, activation_steepness)=(0, 0, 0.00000000000000000000e+00) (0, 0, 0.00000000000000000000e+00) (0, 0, 0.00000000000000000000e+00) (0, 0, 0.00000000000000000000e+00) (0, 0, 0.00000000000000000000e+00) (0, 0, 0.00000000000000000000e+00) (0, 0, 0.00000000000000000000e+00) (0, 0, 0.00000000000000000000e+00) (8, 4, 5.00000000000000000000e-01) (8, 4, 5.00000000000000000000e-01) (8, 4, 5.00000000000000000000e-01) (8, 4, 5.00000000000000000000e-01) (8, 4, 5.00000000000000000000e-01) (8, 4, 5.00000000000000000000e-01) (8, 4, 5.00000000000000000000e-01) (8, 4, 5.00000000000000000000e-01) (8, 4, 5.00000000000000000000e-01) (8, 4, 5.00000000000000000000e-01) (8, 4, 5.00000000000000000000e-01) (8, 4, 5.00000000000000000000e-01) (8, 4, 5.00000000000000000000e-01) (8, 4, 5.00000000000000000000e-01) (0, 0, 0.00000000000000000000e+00) (15, 6, 5.00000000000000000000e-01) (0, 6, 0.00000000000000000000e+00) 
connections (connected_to_neuron, weight)=(0, 1.41339247632615316874e+00) (1, -1.33444279309915998510e+01) (2, 5.83543699654349889983e+00) (3, -1.13207501528747513930e+01) (4, -4.01680746221809314989e+00) (5, -2.54847583042574321599e-01) (6, 3.84554927956283487678e-01) (7, 4.29547864165177184503e+00) (0, -1.01325892035062182117e+02) (1, 1.37015442320863201076e+02) (2, -1.41257072833932880940e+02) (3, 1.36460665108485613928e+02) (4, 1.36576888052152547459e+01) (5, 3.57354959850470921268e+00) (6, -7.90849973935372787537e+01) (7, 5.17793396196584012614e+01) (0, -1.30261958816674496831e+01) (1, 8.83304318786238873429e+00) (2, 1.71260523437716827289e+00) (3, 4.39175266971949085359e+00) (4, 8.54647480738135278955e+00) (5, -3.34815218821120197390e-01) (6, -1.07182073624939047662e-01) (7, -4.80228564423401582673e+00) (0, 5.30579800513840950771e+02) (1, 1.49986701157396146300e+03) (2, -1.49780771380503415457e+03) (3, 5.39391563341431265144e+02) (4, -1.54089709696524188587e+01) (5, 9.06730305870281995340e+02) (6, -1.50000000000000000000e+03) (7, -8.80105955458509697564e+02) (0, -1.34389718169076581944e+03) (1, 2.99348305928975904067e+01) (2, 9.40721727590016030263e+02) (3, -1.40310207708544976413e+03) (4, -2.97770434959782278383e+02) (5, 8.73203306449449314641e+02) (6, -1.10076312161781004306e+02) (7, 3.30544308434084115333e+01) (0, 1.19350300167112943761e+00) (1, -8.72704266793095598587e+02) (2, 1.23810534406706483423e+03) (3, 5.71954707759069151507e+02) (4, 5.54269308057030343662e+02) (5, -1.50000000000000000000e+03) (6, -2.71522185738261576660e+01) (7, -7.03696450726386899532e+01) (0, 1.50000000000000000000e+03) (1, 1.49239958025191640445e+03) (2, -1.45143434777927222967e+03) (3, -8.21497469659997818781e+02) (4, 7.04271842848940991644e+02) (5, 1.47051906973299605852e+03) (6, -1.12971293019013273806e+03) (7, -1.48898211501669766221e+03) (0, 6.42117603784594592753e+00) (1, -1.50772309566935120984e+01) (2, 5.66673868772233646496e+00) (3, -6.06166000175032149144e+00) (4, 2.32207379417969450586e+00) (5, -1.16211719382615701335e+01) (6, -2.14158325824085729039e+01) (7, 2.74848161278566784915e+01) (0, -1.99624634380416836166e+02) (1, 2.63275917557113317002e+01) (2, -5.80542901140884239908e+01) (3, -1.25919932701977103306e+02) (4, 2.79488770354184268285e+01) (5, 9.54530133006976626575e+01) (6, 1.01627911448619016710e+02) (7, 2.20935838552860346340e+01) (0, -4.09659139128052004253e+02) (1, -6.12153260325604492209e+02) (2, 6.44187060569894470063e+02) (3, 5.66854638559516530449e+01) (4, -1.50000000000000000000e+03) (5, -1.50000000000000000000e+03) (6, 5.38755823500776955370e+02) (7, -1.84316670256775381631e+02) (0, -4.68707157343746239064e+00) (1, -8.28115541685330747157e+00) (2, -5.82413428620509510125e+00) (3, -1.17871981189447749827e+00) (4, -2.89118687364606223866e+01) (5, 4.49606629598771334599e+00) (6, 1.13863632511888397403e+01) (7, 7.28093323400984715477e+00) (0, -5.36869748220036413500e+00) (1, 3.59073125489558808709e+00) (2, -1.65042372836275639258e+01) (3, 2.09401989654811799824e+01) (4, -2.27047770388416125797e+01) (5, 1.18997930163838994133e+00) (6, 5.56359733298765934961e+00) (7, -1.70201020944954106717e+00) (0, -9.07566876941397936207e+02) (1, 4.49553403216162834610e+01) (2, -5.91363015281564443626e+01) (3, 6.18429582187983442054e+02) (4, -8.34540853017890214005e+01) (5, 1.68749586941353868497e+02) (6, 1.07757081228655891891e+02) (7, -2.13409735953189567681e+01) (0, 3.37490991875533055122e+01) (1, 1.34687945165705205142e+01) (2, -2.30207372252566671023e+02) (3, -1.81781354940181714142e+01) (4, 2.69986830589970843164e+01) (5, -1.74460633975006771834e+02) (6, 8.39494457108825429259e+01) (7, -3.09386728620416420199e+01) (8, 1.72798312652612864326e+01) (9, -1.99324236930602594065e+00) (10, 3.47215315123904577632e+00) (11, 3.53495994117304102033e+00) (12, -8.84543155718431783896e-01) (13, -2.25578653811454055145e+00) (14, 1.07868518148712122517e+00) (15, 3.29482035800395811620e+00) (16, -2.54533637796225375993e+00) (17, -3.53983584374286808227e+00) (18, -1.32866681077969008840e+01) (19, 2.46218289161782522001e+01) (20, -1.98741547691961240041e+00) (21, -8.08112514831777950519e+00) (22, -7.31597806343725176603e-01) 
