FANN_FLO_2.1
num_layers=3
learning_rate=0.700000
connection_rate=1.000000
network_type=0
learning_momentum=0.000000
training_algorithm=2
train_error_function=1
train_stop_function=0
cascade_output_change_fraction=0.010000
quickprop_decay=-0.000100
quickprop_mu=1.750000
rprop_increase_factor=1.200000
rprop_decrease_factor=0.500000
rprop_delta_min=0.000000
rprop_delta_max=50.000000
rprop_delta_zero=0.100000
cascade_output_stagnation_epochs=12
cascade_candidate_change_fraction=0.010000
cascade_candidate_stagnation_epochs=12
cascade_max_out_epochs=150
cascade_max_cand_epochs=150
cascade_num_candidate_groups=2
bit_fail_limit=3.49999999999999977796e-01
cascade_candidate_limit=1.00000000000000000000e+03
cascade_weight_multiplier=4.00000000000000022204e-01
cascade_activation_functions_count=10
cascade_activation_functions=3 5 7 8 10 11 14 15 16 17 
cascade_activation_steepnesses_count=4
cascade_activation_steepnesses=2.50000000000000000000e-01 5.00000000000000000000e-01 7.50000000000000000000e-01 1.00000000000000000000e+00 
layer_sizes=8 16 2 
scale_included=0
neurons (num_inputs, activation_function, activation_steepness)=(0, 0, 0.00000000000000000000e+00) (0, 0, 0.00000000000000000000e+00) (0, 0, 0.00000000000000000000e+00) (0, 0, 0.00000000000000000000e+00) (0, 0, 0.00000000000000000000e+00) (0, 0, 0.00000000000000000000e+00) (0, 0, 0.00000000000000000000e+00) (0, 0, 0.00000000000000000000e+00) (8, 4, 5.00000000000000000000e-01) (8, 4, 5.00000000000000000000e-01) (8, 4, 5.00000000000000000000e-01) (8, 4, 5.00000000000000000000e-01) (8, 4, 5.00000000000000000000e-01) (8, 4, 5.00000000000000000000e-01) (8, 4, 5.00000000000000000000e-01) (8, 4, 5.00000000000000000000e-01) (8, 4, 5.00000000000000000000e-01) (8, 4, 5.00000000000000000000e-01) (8, 4, 5.00000000000000000000e-01) (8, 4, 5.00000000000000000000e-01) (8, 4, 5.00000000000000000000e-01) (8, 4, 5.00000000000000000000e-01) (8, 4, 5.00000000000000000000e-01) (0, 0, 0.00000000000000000000e+00) (16, 6, 5.00000000000000000000e-01) (0, 6, 0.00000000000000000000e+00) 
connections (connected_to_neuron, weight)=(0, -7.59602440706293702277e+00) (1, 1.53364735948900072771e+01) (2, 4.96749144423350164068e-03) (3, 7.21943256764648655377e+00) (4, -1.27894887576532205742e+01) (5, 5.73213521967219197251e+00) (6, -7.94857080576427410534e+00) (7, 2.81722767499719273232e+00) (0, 2.54689044988431341210e+01) (1, 1.40052021819380385637e+01) (2, 1.75058954411006233443e+01) (3, -6.08173034876732572229e+01) (4, -2.44238375887704250999e+00) (5, 2.58214613568765471996e+00) (6, -1.23078416052360690713e+01) (7, -9.58173864261741847770e+00) (0, -3.90232883875737499579e+01) (1, 1.21956317667566960239e+01) (2, 1.17699782277956330745e+01) (3, -1.04240476551796223958e+01) (4, 1.57557221468057342406e+01) (5, -7.53548078247135677543e+00) (6, 1.49528088155746203824e+01) (7, -2.36610338426231958664e+00) (0, -5.49354275272955078435e+02) (1, -3.48159193963940765570e+02) (2, -1.03873399667001038438e+02) (3, 6.42776820733677823227e+02) (4, -2.32015217070972965985e+02) (5, -1.10990342742153718092e+01) (6, 3.65536221040978546171e+02) (7, 3.57807915964484493543e+02) (0, -1.49643418727857294925e+02) (1, -1.03694892094344193190e+00) (2, -3.60566312155013690699e+01) (3, -1.12598109596067104121e+02) (4, -8.02400798987611381108e+01) (5, -1.20185840165992289030e+02) (6, 1.37330367075743112082e+02) (7, 6.29051202178330868264e+01) (0, 1.19791734295380547337e+03) (1, 4.84817044064955268823e+02) (2, 4.44322631851038295281e+02) (3, -3.02666560725039232693e+02) (4, -1.50000000000000000000e+03) (5, 1.84897059143281126126e+02) (6, 2.43756477972269806287e+02) (7, -1.50000000000000000000e+03) (0, -9.67507715674097568126e+00) (1, 9.22988040784859364862e+00) (2, -1.59660442658458778808e+00) (3, 9.22172634856617001731e+00) (4, 6.47152356512878768058e+00) (5, -1.48828596364706484678e+01) (6, -1.12661437003429676373e+00) (7, 3.37720776801839850378e+00) (0, -1.60322939955884784524e+01) (1, -2.19895266278442250041e+02) (2, 7.17327275544475497782e+01) (3, -5.94374136290504253566e+01) (4, -1.36997330287368072277e+02) (5, 9.74165613449019218706e+01) (6, 1.59792941857652294857e+02) (7, -4.53112750024560817508e+00) (0, 2.34050917212099029996e+00) (1, -3.89619690930148765418e+00) (2, 5.94293355463249572956e-01) (3, 1.49564103076981602669e+00) (4, -4.22751466035311551650e+00) (5, 4.33726727747852969230e+00) (6, 9.64770636756128285860e-01) (7, -2.64916264813472190909e+00) (0, -1.50000000000000000000e+03) (1, -5.04799553168856149910e+01) (2, 9.33142479979515968580e+01) (3, -1.95495875921177059809e+02) (4, 3.13477181868351294725e+02) (5, 4.34674231185162298630e+01) (6, -1.50000000000000000000e+03) (7, -1.72611117415778096529e+02) (0, 3.87017534196530093027e+01) (1, -4.69403644429602238120e+01) (2, 3.51675535650538364507e+01) (3, -7.65996952412805298671e-01) (4, -2.13953425439457518564e+01) (5, 5.38607941637260090317e+00) (6, 3.11887058531109673254e+00) (7, -2.18697441976974822353e+01) (0, -2.07708805395345912359e+01) (1, 1.44187945985902139512e+01) (2, -3.60520075408663220884e+00) (3, 2.38911202619414897441e+00) (4, 1.99149116527230685136e+00) (5, -3.18440376231993660383e+00) (6, 1.70784336365741595820e+00) (7, -1.00180055122848554738e+00) (0, -8.72812535846922372684e+01) (1, 2.02411490934978788303e+00) (2, 3.66322080535841863025e+01) (3, 5.68806248086431125444e+01) (4, -5.21247524581274248590e+01) (5, 1.80851551356309769858e+01) (6, -7.83597640573536580177e+01) (7, -1.81189525498483727795e+00) (0, 1.50000000000000000000e+03) (1, 7.38755070477186336575e+02) (2, -4.27847589575449035237e+02) (3, -1.41848078850265238771e+02) (4, 6.06991204883238310686e+02) (5, -1.50000000000000000000e+03) (6, -1.50879310359294493082e+02) (7, 2.60809098422699321418e+02) (0, 1.28333377893210940357e+01) (1, -1.98964677145947170800e+01) (2, -2.59722259884502904015e+00) (3, -1.08327209702273972169e+01) (4, 1.38654687463744270559e+01) (5, -8.69884346777081596258e+00) (6, 8.44840892962130851629e+00) (7, -5.04673862944443385459e-01) (8, 5.22046036293501902747e+00) (9, -8.14744107494480829246e+00) (10, 1.88717816442479913164e+00) (11, -3.41490380132315207717e+00) (12, -9.67151861732951201311e-01) (13, 1.03305304826195842871e+00) (14, -1.71846593050989215890e+00) (15, 1.47226932532664567255e+00) (16, -2.97889820936287064157e+00) (17, -1.58618448981645121521e+00) (18, -3.69380348161326166334e+00) (19, -3.26415451338623174848e+00) (20, 9.40294785200790239621e-01) (21, 8.31963869338509853790e-01) (22, 4.04938836739207452808e+00) (23, -5.75720219577794400934e-01) 
