FANN_FLO_2.1
num_layers=3
learning_rate=0.700000
connection_rate=1.000000
network_type=0
learning_momentum=0.000000
training_algorithm=2
train_error_function=1
train_stop_function=0
cascade_output_change_fraction=0.010000
quickprop_decay=-0.000100
quickprop_mu=1.750000
rprop_increase_factor=1.200000
rprop_decrease_factor=0.500000
rprop_delta_min=0.000000
rprop_delta_max=50.000000
rprop_delta_zero=0.100000
cascade_output_stagnation_epochs=12
cascade_candidate_change_fraction=0.010000
cascade_candidate_stagnation_epochs=12
cascade_max_out_epochs=150
cascade_max_cand_epochs=150
cascade_num_candidate_groups=2
bit_fail_limit=3.49999999999999977796e-01
cascade_candidate_limit=1.00000000000000000000e+03
cascade_weight_multiplier=4.00000000000000022204e-01
cascade_activation_functions_count=10
cascade_activation_functions=3 5 7 8 10 11 14 15 16 17 
cascade_activation_steepnesses_count=4
cascade_activation_steepnesses=2.50000000000000000000e-01 5.00000000000000000000e-01 7.50000000000000000000e-01 1.00000000000000000000e+00 
layer_sizes=8 9 2 
scale_included=0
neurons (num_inputs, activation_function, activation_steepness)=(0, 0, 0.00000000000000000000e+00) (0, 0, 0.00000000000000000000e+00) (0, 0, 0.00000000000000000000e+00) (0, 0, 0.00000000000000000000e+00) (0, 0, 0.00000000000000000000e+00) (0, 0, 0.00000000000000000000e+00) (0, 0, 0.00000000000000000000e+00) (0, 0, 0.00000000000000000000e+00) (8, 4, 5.00000000000000000000e-01) (8, 4, 5.00000000000000000000e-01) (8, 4, 5.00000000000000000000e-01) (8, 4, 5.00000000000000000000e-01) (8, 4, 5.00000000000000000000e-01) (8, 4, 5.00000000000000000000e-01) (8, 4, 5.00000000000000000000e-01) (8, 4, 5.00000000000000000000e-01) (0, 0, 0.00000000000000000000e+00) (9, 6, 5.00000000000000000000e-01) (0, 6, 0.00000000000000000000e+00) 
connections (connected_to_neuron, weight)=(0, 1.91652653982290139822e+01) (1, -1.67231745568877769870e+01) (2, 9.06357855494071031899e+01) (3, -5.49369958751450440104e+01) (4, 5.59427725632775860731e+01) (5, -7.55762427652457660088e+01) (6, -6.32631923204121520143e+01) (7, 1.20341227270750792400e+01) (0, 2.22900060396103270932e+02) (1, -2.24826077936276703895e+02) (2, 2.31419301933284859984e+00) (3, -2.49250298487948839465e+02) (4, -5.66768405969497024444e+01) (5, -7.90162952970511440753e+01) (6, -1.36716041227357493426e+02) (7, 2.00171558718711963820e+02) (0, 7.13480623964231654099e+02) (1, -1.49828767050382248271e+03) (2, -3.31124601006353771027e+02) (3, -1.06136824132342644589e+03) (4, 1.50000000000000000000e+03) (5, -1.07351010408325987555e+03) (6, 1.88141018227680461905e+02) (7, 3.23682921150329548254e+02) (0, 8.71843148311187405852e+01) (1, 1.50000000000000000000e+03) (2, 1.06429763662385016687e+03) (3, -6.74643252696326612750e+02) (4, -1.26011668127067059686e+03) (5, -1.37068755219231456977e+03) (6, 7.71409845154562617608e+02) (7, -1.49981218233408435481e+03) (0, 1.62846839809375211416e+02) (1, -2.29258281592750478239e+02) (2, 1.73500494854291986258e+02) (3, 9.18436042009561361965e+01) (4, 4.52980387685120888364e+02) (5, -1.73852539669422753832e+02) (6, -2.80411824926413544290e+02) (7, 1.97576618272348758509e+00) (0, 1.81666578849265150097e+01) (1, -1.21452588344268662013e+02) (2, 1.56846344633202789964e+02) (3, -3.65736903162511850951e+02) (4, 2.03013652553484661212e+02) (5, -2.79188279074913111799e+02) (6, -7.69228359319160315266e+00) (7, 5.55704699765099618958e+01) (0, 1.48465759738568685577e+01) (1, -2.12521601292748130163e+01) (2, 2.75548028707130754356e+00) (3, -1.38315301575452469507e+01) (4, 7.69070703503570918258e+00) (5, -1.21453550167616874944e+01) (6, -3.35758133677432679676e+00) (7, 6.74788313880976176051e+00) (0, 1.49985319364401061648e+03) (1, -1.50000000000000000000e+03) (2, -1.14483499175671181547e+03) (3, -1.47990402646989446112e+03) (4, 1.50000000000000000000e+03) (5, 1.50000000000000000000e+03) (6, 1.22814085391795288160e+03) (7, -1.42409751775668746632e+03) (8, 1.58852602733811609781e+00) (9, 1.84004488096340335090e+00) (10, 1.87756491517080492670e+00) (11, -4.53166215815759720886e-01) (12, -1.25843875154791873250e+00) (13, 1.39870855479820854761e+00) (14, -5.04190860400652862694e+00) (15, 8.54141404232006545838e-02) (16, 2.83893544754497240135e-01) 
