FANN_FLO_2.1
num_layers=3
learning_rate=0.700000
connection_rate=1.000000
network_type=0
learning_momentum=0.000000
training_algorithm=2
train_error_function=1
train_stop_function=0
cascade_output_change_fraction=0.010000
quickprop_decay=-0.000100
quickprop_mu=1.750000
rprop_increase_factor=1.200000
rprop_decrease_factor=0.500000
rprop_delta_min=0.000000
rprop_delta_max=50.000000
rprop_delta_zero=0.100000
cascade_output_stagnation_epochs=12
cascade_candidate_change_fraction=0.010000
cascade_candidate_stagnation_epochs=12
cascade_max_out_epochs=150
cascade_max_cand_epochs=150
cascade_num_candidate_groups=2
bit_fail_limit=3.49999999999999977796e-01
cascade_candidate_limit=1.00000000000000000000e+03
cascade_weight_multiplier=4.00000000000000022204e-01
cascade_activation_functions_count=10
cascade_activation_functions=3 5 7 8 10 11 14 15 16 17 
cascade_activation_steepnesses_count=4
cascade_activation_steepnesses=2.50000000000000000000e-01 5.00000000000000000000e-01 7.50000000000000000000e-01 1.00000000000000000000e+00 
layer_sizes=8 9 2 
scale_included=0
neurons (num_inputs, activation_function, activation_steepness)=(0, 0, 0.00000000000000000000e+00) (0, 0, 0.00000000000000000000e+00) (0, 0, 0.00000000000000000000e+00) (0, 0, 0.00000000000000000000e+00) (0, 0, 0.00000000000000000000e+00) (0, 0, 0.00000000000000000000e+00) (0, 0, 0.00000000000000000000e+00) (0, 0, 0.00000000000000000000e+00) (8, 4, 5.00000000000000000000e-01) (8, 4, 5.00000000000000000000e-01) (8, 4, 5.00000000000000000000e-01) (8, 4, 5.00000000000000000000e-01) (8, 4, 5.00000000000000000000e-01) (8, 4, 5.00000000000000000000e-01) (8, 4, 5.00000000000000000000e-01) (8, 4, 5.00000000000000000000e-01) (0, 0, 0.00000000000000000000e+00) (9, 6, 5.00000000000000000000e-01) (0, 6, 0.00000000000000000000e+00) 
connections (connected_to_neuron, weight)=(0, -2.87384796746213950769e+01) (1, 4.52459886585793071845e+02) (2, -3.73591088517842365491e+02) (3, -1.12428779350361693901e+02) (4, -1.50000000000000000000e+03) (5, 5.11758612873623405903e+02) (6, 5.97900218826032300967e+02) (7, -1.40304542954518524311e+02) (0, 1.05600861358267522405e+02) (1, -7.43786018494388798672e+01) (2, -5.49640371496274084961e+01) (3, 4.01469453083323415399e+01) (4, -2.55046399189073724756e+01) (5, 1.67614621952184030818e+01) (6, -5.76754439218679166856e+01) (7, 7.53659624056528887337e+00) (0, 1.03582449688149829115e+01) (1, 1.40817212416005531850e+02) (2, -6.13924331863563921274e+01) (3, -3.22661434069387325962e+02) (4, 1.30213606898602819228e+02) (5, 1.30346265250583115858e+02) (6, 2.31866636272914718120e+02) (7, -2.67052481254522319887e+02) (0, 6.79487346598779566875e+01) (1, -1.03359815727177078770e+02) (2, 2.67837198320856550993e+01) (3, -9.93834012696869848469e+01) (4, 1.11125558184208188095e+02) (5, -5.49728624398962253395e+01) (6, 3.55831653252197410708e+00) (7, 8.20862954887155815697e+00) (0, -6.49908410263454783262e+00) (1, 7.03312793334986618987e+00) (2, 1.80079227291605690198e+01) (3, -7.91195865261298614257e+00) (4, 7.09518031819667793769e+00) (5, -8.51660211666771260752e+00) (6, -1.03647595611147771422e+01) (7, 1.27878501093732221960e+00) (0, 1.86609603732684348643e+02) (1, -6.05513644193703370888e+01) (2, 4.09302097295767907781e+02) (3, -8.78834780842211216623e+02) (4, 6.18787978004548833155e+01) (5, -5.82599063469999762788e+01) (6, -2.47137255948222858137e+01) (7, 2.43811991528318223743e+01) (0, -1.76593571047954062125e-01) (1, 1.34226674623091071226e+01) (2, -1.20472130958292336089e+01) (3, -7.35957105342981154905e+00) (4, -5.27167319118497346153e+00) (5, 1.04734788532160720820e+01) (6, -1.09953013564501951294e+01) (7, -4.88022121292281063631e+00) (0, 1.50000000000000000000e+03) (1, 1.50000000000000000000e+03) (2, 1.50000000000000000000e+03) (3, 1.07176598089314461504e+03) (4, -1.50000000000000000000e+03) (5, -1.50000000000000000000e+03) (6, 1.50000000000000000000e+03) (7, 3.17449859925688144813e+02) (8, 1.27093334133652469120e+00) (9, 1.42428001038749907359e+00) (10, 8.59342484080727553319e-01) (11, 9.01869931488626819238e-01) (12, 1.77474941040865452635e+00) (13, -1.11754402622225668118e+00) (14, 6.55965308298093052741e+00) (15, 7.26243669367562572070e-01) (16, -2.58234747576744139153e+00) 
