FANN_FLO_2.1
num_layers=3
learning_rate=0.700000
connection_rate=1.000000
network_type=0
learning_momentum=0.000000
training_algorithm=2
train_error_function=1
train_stop_function=0
cascade_output_change_fraction=0.010000
quickprop_decay=-0.000100
quickprop_mu=1.750000
rprop_increase_factor=1.200000
rprop_decrease_factor=0.500000
rprop_delta_min=0.000000
rprop_delta_max=50.000000
rprop_delta_zero=0.100000
cascade_output_stagnation_epochs=12
cascade_candidate_change_fraction=0.010000
cascade_candidate_stagnation_epochs=12
cascade_max_out_epochs=150
cascade_max_cand_epochs=150
cascade_num_candidate_groups=2
bit_fail_limit=3.49999999999999977796e-01
cascade_candidate_limit=1.00000000000000000000e+03
cascade_weight_multiplier=4.00000000000000022204e-01
cascade_activation_functions_count=10
cascade_activation_functions=3 5 7 8 10 11 14 15 16 17 
cascade_activation_steepnesses_count=4
cascade_activation_steepnesses=2.50000000000000000000e-01 5.00000000000000000000e-01 7.50000000000000000000e-01 1.00000000000000000000e+00 
layer_sizes=8 15 2 
scale_included=0
neurons (num_inputs, activation_function, activation_steepness)=(0, 0, 0.00000000000000000000e+00) (0, 0, 0.00000000000000000000e+00) (0, 0, 0.00000000000000000000e+00) (0, 0, 0.00000000000000000000e+00) (0, 0, 0.00000000000000000000e+00) (0, 0, 0.00000000000000000000e+00) (0, 0, 0.00000000000000000000e+00) (0, 0, 0.00000000000000000000e+00) (8, 4, 5.00000000000000000000e-01) (8, 4, 5.00000000000000000000e-01) (8, 4, 5.00000000000000000000e-01) (8, 4, 5.00000000000000000000e-01) (8, 4, 5.00000000000000000000e-01) (8, 4, 5.00000000000000000000e-01) (8, 4, 5.00000000000000000000e-01) (8, 4, 5.00000000000000000000e-01) (8, 4, 5.00000000000000000000e-01) (8, 4, 5.00000000000000000000e-01) (8, 4, 5.00000000000000000000e-01) (8, 4, 5.00000000000000000000e-01) (8, 4, 5.00000000000000000000e-01) (8, 4, 5.00000000000000000000e-01) (0, 0, 0.00000000000000000000e+00) (15, 6, 5.00000000000000000000e-01) (0, 6, 0.00000000000000000000e+00) 
connections (connected_to_neuron, weight)=(0, -1.77440505811016691062e+00) (1, 4.28048984180368830010e+00) (2, 6.99129806384794783014e+00) (3, -2.96556202604151497582e+00) (4, 1.88200373455523450872e+00) (5, 1.11700376610124152421e+00) (6, -4.84522577329505832466e+00) (7, -3.60898581388668748815e+00) (0, -1.31300797334872196842e+01) (1, 3.08594934674162502120e+00) (2, 5.07111351172178892455e+00) (3, 7.30067985495299431875e+00) (4, -2.14782360635258573467e+00) (5, 2.84218580056114444865e-01) (6, 3.14084475549032271502e+00) (7, -1.23705093744090754981e+00) (0, 1.34668428061836760179e+01) (1, -3.09231784735490577987e+00) (2, 3.49114567902239727459e+01) (3, -5.72358296074885544158e+01) (4, -6.95991374257331063546e+00) (5, 1.11230754370299909084e+01) (6, 1.31234212280625168745e+01) (7, -4.67717886249893677331e+00) (0, -1.70377222871936773174e+01) (1, 7.20265497897055162468e+00) (2, -2.80043550057927914665e+00) (3, 7.50725859888811974940e+00) (4, -8.55085565829518001735e-01) (5, -1.30472434887215604782e+00) (6, 4.88605770485011436932e+00) (7, 1.25619513924998860155e+00) (0, -1.78120939556870858667e+01) (1, 8.59508384989602092219e+00) (2, 5.48122857087644899110e+00) (3, -1.30766135547306170395e+01) (4, 1.68193851296554903740e+01) (5, 6.90477975854529457678e+00) (6, 3.55563956619771515122e+00) (7, -1.07833452195913270799e+01) (0, 1.65241661617992349420e+02) (1, 4.20179706564164163751e+01) (2, 2.69938838350494592078e+01) (3, 5.31597017215418645719e+01) (4, -7.22469128255529824401e+01) (5, -8.40929172882563449321e+01) (6, -1.45130707809123435936e+02) (7, -4.09103363777147066571e+01) (0, -1.98820278245526054661e+02) (1, 3.40559561410033893480e+02) (2, -1.84474153296852648509e+02) (3, 8.70952621901249415259e+01) (4, -3.15316385856798468978e+01) (5, -3.93264876474857842936e+01) (6, -3.35673426764701261504e+01) (7, -2.30063310501608100367e+01) (0, 8.95633472927090323878e+00) (1, -1.55608533659809484817e+01) (2, -4.93557304451305256521e+00) (3, 4.14611292618004956267e+00) (4, 5.79755876815572701588e+00) (5, -2.38914427702015119692e+00) (6, 1.11778639312344960643e+01) (7, 4.85292819496012217684e-01) (0, -2.04529038258064375100e+01) (1, 8.43756033919249759379e+00) (2, 1.61368875240364282320e+01) (3, -1.40370358137511015428e+01) (4, 5.79755747670102628000e-01) (5, 3.84067965449342452189e+00) (6, -1.14492796930426155022e+00) (7, -1.69371169294438161934e+00) (0, -1.50000000000000000000e+03) (1, -1.50000000000000000000e+03) (2, -1.50000000000000000000e+03) (3, -3.66709892386197680025e+01) (4, 1.42293882015791467666e+02) (5, 7.14416846898910193886e+02) (6, -1.50000000000000000000e+03) (7, -6.59349763073154093718e+01) (0, -1.50000000000000000000e+03) (1, -1.50000000000000000000e+03) (2, -1.13783541205846375988e+02) (3, 1.42349676210969221302e+02) (4, 3.63916601827038510564e+00) (5, 2.88651938668725847492e+02) (6, -1.50000000000000000000e+03) (7, 1.58231200276509320624e+00) (0, -1.81443373555966935839e+01) (1, 4.50795755203577197534e+00) (2, -5.71697475238235153228e+00) (3, 2.04941232225246281473e+01) (4, 4.49458749485179964722e+00) (5, -2.49695624170850152268e+01) (6, 8.75798301714652538408e+00) (7, 9.46646858087406251059e+00) (0, -1.80530338030792947279e+01) (1, 3.58828685335161612358e+00) (2, -4.83317766758325984000e+00) (3, -7.70698835841089202603e+00) (4, 5.41190750273967058348e+00) (5, 2.94189137847278336935e+00) (6, -3.98647373715615813694e+01) (7, -2.42138574820009200295e+00) (0, -2.72913161388182913925e+02) (1, -8.79849028561180375618e+02) (2, -2.12365700373161701009e+02) (3, 3.58724095533695390259e+02) (4, 3.63152774517594593817e+02) (5, -1.57155106660615206948e+00) (6, 1.50000000000000000000e+03) (7, -7.52235695839035258814e+01) (8, 3.23256255067622966237e+00) (9, -2.80973517156158925090e+00) (10, 8.02402927392174225574e-01) (11, 4.02842818687500603403e+00) (12, -1.67691527454112798701e+00) (13, 7.89531682691859582057e-01) (14, -1.23414952029147140244e+00) (15, 4.03154837862620141209e+00) (16, 2.01067594874170696428e+00) (17, 1.95978720397505279394e+00) (18, 1.41846929425634593613e-01) (19, -1.02828334615931349383e+00) (20, -3.18075588167001299666e+00) (21, -1.98774202703932023617e+00) (22, -2.64533308327661043080e+00) 
