FANN_FLO_2.1
num_layers=4
learning_rate=0.700000
connection_rate=1.000000
network_type=0
learning_momentum=0.000000
training_algorithm=2
train_error_function=1
train_stop_function=0
cascade_output_change_fraction=0.010000
quickprop_decay=-0.000100
quickprop_mu=1.750000
rprop_increase_factor=1.200000
rprop_decrease_factor=0.500000
rprop_delta_min=0.000000
rprop_delta_max=50.000000
rprop_delta_zero=0.100000
cascade_output_stagnation_epochs=12
cascade_candidate_change_fraction=0.010000
cascade_candidate_stagnation_epochs=12
cascade_max_out_epochs=150
cascade_max_cand_epochs=150
cascade_num_candidate_groups=2
bit_fail_limit=3.49999999999999977796e-01
cascade_candidate_limit=1.00000000000000000000e+03
cascade_weight_multiplier=4.00000000000000022204e-01
cascade_activation_functions_count=10
cascade_activation_functions=3 5 7 8 10 11 14 15 16 17 
cascade_activation_steepnesses_count=4
cascade_activation_steepnesses=2.50000000000000000000e-01 5.00000000000000000000e-01 7.50000000000000000000e-01 1.00000000000000000000e+00 
layer_sizes=8 15 15 2 
scale_included=0
neurons (num_inputs, activation_function, activation_steepness)=(0, 0, 0.00000000000000000000e+00) (0, 0, 0.00000000000000000000e+00) (0, 0, 0.00000000000000000000e+00) (0, 0, 0.00000000000000000000e+00) (0, 0, 0.00000000000000000000e+00) (0, 0, 0.00000000000000000000e+00) (0, 0, 0.00000000000000000000e+00) (0, 0, 0.00000000000000000000e+00) (8, 4, 5.00000000000000000000e-01) (8, 4, 5.00000000000000000000e-01) (8, 4, 5.00000000000000000000e-01) (8, 4, 5.00000000000000000000e-01) (8, 4, 5.00000000000000000000e-01) (8, 4, 5.00000000000000000000e-01) (8, 4, 5.00000000000000000000e-01) (8, 4, 5.00000000000000000000e-01) (8, 4, 5.00000000000000000000e-01) (8, 4, 5.00000000000000000000e-01) (8, 4, 5.00000000000000000000e-01) (8, 4, 5.00000000000000000000e-01) (8, 4, 5.00000000000000000000e-01) (8, 4, 5.00000000000000000000e-01) (0, 0, 0.00000000000000000000e+00) (15, 4, 5.00000000000000000000e-01) (15, 4, 5.00000000000000000000e-01) (15, 4, 5.00000000000000000000e-01) (15, 4, 5.00000000000000000000e-01) (15, 4, 5.00000000000000000000e-01) (15, 4, 5.00000000000000000000e-01) (15, 4, 5.00000000000000000000e-01) (15, 4, 5.00000000000000000000e-01) (15, 4, 5.00000000000000000000e-01) (15, 4, 5.00000000000000000000e-01) (15, 4, 5.00000000000000000000e-01) (15, 4, 5.00000000000000000000e-01) (15, 4, 5.00000000000000000000e-01) (15, 4, 5.00000000000000000000e-01) (0, 0, 0.00000000000000000000e+00) (15, 6, 5.00000000000000000000e-01) (0, 6, 0.00000000000000000000e+00) 
connections (connected_to_neuron, weight)=(0, -9.65716424821406627110e-01) (1, 4.27894766752120858655e+01) (2, -2.35343658709670933149e+00) (3, -1.00840157843070869603e+02) (4, 4.86192461261735431322e+01) (5, 8.80946934617690224911e+00) (6, 3.74402632326319704248e+01) (7, 1.42749498164597898864e+00) (0, -4.73421569510161504013e+01) (1, -3.68575533975370177586e+01) (2, 8.93336889190368488300e+00) (3, 1.52275236051256168679e+01) (4, -3.05552137736329392226e+01) (5, 8.80734524971644390234e+01) (6, 3.81548787787469265709e+01) (7, -2.53317350897017679046e+00) (0, -3.04771021621258114465e+02) (1, -5.86903411955481487894e+02) (2, 1.50000000000000000000e+03) (3, 1.46386948837824093061e+03) (4, -1.37334155236310238024e+02) (5, -1.49636393021119079094e+03) (6, -1.35146798588513411232e+03) (7, 1.26406751483386742052e+02) (0, -2.05176248771484139866e+01) (1, -2.09387146029829295912e+02) (2, 5.28309270630338346564e+02) (3, -2.14741893011225897681e+02) (4, -4.31803300506783102719e+02) (5, 1.97678613738708406800e+02) (6, 1.56905183855862073727e+01) (7, -1.43275596612445141886e+01) (0, -1.30508169003849752698e+03) (1, -1.99358377412695290332e+02) (2, 5.85132778864769491634e+01) (3, 1.79460000749155710764e+02) (4, 3.10409059328911553166e+02) (5, 5.26980035031130640277e+01) (6, 1.14142662883447633249e+03) (7, 2.54721595678637164895e+01) (0, 1.36229378278009357928e+03) (1, 1.44242401345579173721e+03) (2, 1.35722022552765179171e+03) (3, -1.07238308639362844588e+03) (4, -1.41750303409810135236e+03) (5, -2.84912233483020315816e+02) (6, -1.48394607181170545118e+03) (7, -5.87561663317434408782e+02) (0, -1.23913304289675170367e+03) (1, 1.04387804403954987720e+03) (2, 1.11738189593866695759e+03) (3, -1.06697458955289062033e+03) (4, -1.48675589115649881933e+03) (5, -8.43071309222648466175e+01) (6, 3.88609231028403883101e+02) (7, -6.47198479245542159788e+01) (0, -1.62425095150549765322e+01) (1, 5.64833793898676788103e+01) (2, -9.34681285739678600066e+01) (3, 5.32106343331581683742e+01) (4, 1.83738036010412258747e+02) (5, -2.19430246966951187915e+02) (6, -1.02232513518056492785e+02) (7, 4.25199496697108116905e+01) (0, -3.10866601255114929359e+01) (1, 1.38548295799783449667e+01) (2, -4.60884437622987661598e+01) (3, 1.14033157237200171608e+02) (4, -7.18909250396844967668e+00) (5, -2.60194297973273158675e+01) (6, 5.50084328810260672071e+01) (7, -1.27767498444424845161e+01) (0, 1.31270407170050038559e+01) (1, 2.60352378555590675546e+01) (2, 9.41422560068251641496e+01) (3, -2.84621904870656621256e+01) (4, -1.60852849984973147457e+01) (5, 1.15191055160041742056e+02) (6, -9.33892279704839864962e+01) (7, -1.63194637962241664297e+01) (0, 1.49933691066998471797e+03) (1, -1.15610508486653816362e+03) (2, -1.13347908990522410022e+03) (3, -1.04362858933733491540e+03) (4, 8.06716633290406889500e+02) (5, -6.06500776172918449447e+02) (6, 1.46846112840485034212e+03) (7, -1.08553317998808680045e+02) (0, 1.05149152662350456922e+03) (1, 1.49953843500973880509e+03) (2, -1.45903858371807405092e+03) (3, -1.21716997159000925421e+03) (4, -1.36133742471062009827e+03) (5, -3.67105900303985379196e+02) (6, 8.04325241321315473897e+01) (7, -9.08901809060481298275e+01) (0, 1.27472109740547421097e+03) (1, 1.14540055712314756420e+03) (2, 1.28360481547596987184e+03) (3, 1.49347901748280764878e+03) (4, 3.16688573566258412484e+02) (5, -7.33772047580025628122e+02) (6, -1.49999944912918022055e+03) (7, 3.28726410550605940841e+00) (0, -3.66652319603323846309e+01) (1, 4.91171038459420685740e+01) (2, -5.97713069830929981663e+01) (3, -7.17614839443174812317e+00) (4, 4.27078426470455740915e-01) (5, -5.97157197423333663266e+00) (6, 5.11520869373924469414e+01) (7, 8.93189210094725005717e+00) (8, -1.00840397616098755407e+02) (9, -1.40194663019652102776e+03) (10, 1.22265260486207830581e+03) (11, -1.12175126626964856769e+03) (12, 9.09238748457542783399e+02) (13, 1.07589514384770359356e+03) (14, 3.91597779644295496126e+00) (15, -1.48615376318323387750e+03) (16, -1.49960932420748463301e+03) (17, 3.31515089065723884687e+01) (18, 2.92761494341064008040e+02) (19, -1.07844474619353974276e+02) (20, 7.08351313578093140677e+02) (21, 1.03875805575239701284e+03) (22, 2.94780213931235195446e+01) (8, -1.06242345166684094693e+03) (9, 9.87745221762627238604e+02) (10, 1.04709803633486160379e+02) (11, 4.49332364523107855803e+02) (12, 1.36324045013679437943e+02) (13, 7.51962986043118121415e+02) (14, -6.53297757256387285452e+02) (15, -1.41605927876775808727e+03) (16, -1.98552065931755947759e+01) (17, -1.49959928392050710499e+03) (18, 2.15499567411669801231e+02) (19, 1.88393743332978033322e+02) (20, 1.15499171574394608797e+03) (21, 2.49203211715876648213e+02) (22, -1.63849485261341953901e+02) (8, 1.17519033869871714160e+03) (9, -9.30606020925179450387e+02) (10, 1.16093017612638209357e+03) (11, -1.23388755539291400964e+03) (12, -9.43075674674395372676e+02) (13, -1.04907715560489282325e+03) (14, -8.26883575523204399360e+01) (15, -1.43299228319896269568e+03) (16, 8.02100337732111711375e+02) (17, 1.47299150521916658363e+03) (18, 1.44327035509856887074e+03) (19, 1.50000000000000000000e+03) (20, -3.03128800659360990721e+02) (21, -1.50000000000000000000e+03) (22, 7.41431236091706637126e+02) (8, 1.40990580559497152535e+03) (9, 9.19654823432445482467e+02) (10, -7.58971832571421373359e+02) (11, -5.03880714119059973655e+02) (12, -3.49325696808662598869e+02) (13, -1.26535467850950203683e+03) (14, -9.74205714100773207065e+02) (15, 4.62215741336456630961e+02) (16, 1.48769869940002013209e+03) (17, -1.49733480074777025948e+03) (18, 5.50748683506216138994e+02) (19, -1.27876100331511725017e+03) (20, -1.50000000000000000000e+03) (21, 1.12254638300959004482e+03) (22, -7.30874240001447184056e-01) (8, 1.17795290041067710263e+03) (9, -9.44236210880419434943e+02) (10, 1.14068128477800883047e+03) (11, -7.29090946169633070895e+02) (12, -1.46097748657405736594e+03) (13, -1.33727607549188246594e+03) (14, 1.10321643275392261785e+03) (15, -1.30663927367814312674e+03) (16, -1.49995990123733736255e+03) (17, 1.49985891843373565280e+03) (18, 1.00237538866584611696e+03) (19, 8.23416932109589197353e+02) (20, 1.49182524404387618233e+03) (21, -1.50000000000000000000e+03) (22, 4.77045161493244673778e+00) (8, 7.63174641335877339543e+01) (9, 7.93949758208045409447e+02) (10, 1.59603613158194860944e+02) (11, 4.80934206396218542068e+02) (12, -1.49610332917842424649e+03) (13, 8.71059983545531935079e+01) (14, 2.94669761279531350340e+01) (15, 8.50438082976191935813e+02) (16, -1.48115991210274728473e+03) (17, 1.49255482578833925800e+03) (18, 1.16655584660749332215e+03) (19, 1.50000000000000000000e+03) (20, 1.25288518891476883255e+03) (21, -1.43084138669053345438e+03) (22, 4.91958052515174415475e+02) (8, -1.09061257945801870051e+02) (9, 1.49980141182246256903e+03) (10, 4.45114479327590629509e+02) (11, -1.36997952041210874086e+03) (12, -4.29670233840235653133e+02) (13, 4.55417770780019282029e+02) (14, 6.42397161304618521172e+02) (15, 1.04695924337497831402e+03) (16, 6.24703030932935803321e+02) (17, 7.56746938245634169107e+02) (18, -1.43903593973287092922e+03) (19, -5.94997238268828141372e+02) (20, -1.26494946784616331570e+03) (21, 6.22977694230638121553e+02) (22, 4.59208046159339247083e+01) (8, 3.62799203674183630142e+01) (9, 1.48281774182418166674e+03) (10, -5.84390156336286963779e+02) (11, -1.35399484897075467416e+03) (12, -5.11979605645530284619e+02) (13, 1.01967187008293421968e+03) (14, 4.16553018900052393292e+02) (15, -1.59242229847001119936e+01) (16, 1.69407972847469039834e+02) (17, -6.70694832382987158326e+01) (18, -7.49811639230779860554e+02) (19, -1.46486797731993988236e+02) (20, -1.49956128916130501239e+03) (21, 1.28902567948188652736e+03) (22, 4.11383045662654069474e+02) (8, 7.32751595748891418225e+02) (9, -8.81330644229684139646e+02) (10, 3.45388122854105404258e+02) (11, 4.43055443898496605470e+02) (12, -1.04016110284267551833e+03) (13, -3.79777279418126454402e+02) (14, 2.25734492431949984592e+00) (15, 1.11762462390405380575e+03) (16, 1.37966342757334564340e+03) (17, 7.93621309324162439225e+02) (18, 3.94461910696252630260e+02) (19, 1.34530058635464513372e+02) (20, -1.10781928438648310475e+03) (21, -4.76069844557049407285e+02) (22, 1.48222800281029947200e+02) (8, 4.26426634941294821601e+02) (9, 1.05179399878849790184e+03) (10, 1.19331654511422516407e+03) (11, -8.92325076066180031376e+02) (12, -1.45021860193258658001e+03) (13, -1.48774536654060352703e+03) (14, 1.40511640071495526172e+03) (15, 7.47097964709350662815e+02) (16, 8.85096109277217578892e+02) (17, 1.35092123756478213181e+03) (18, -7.44467941003811006340e+02) (19, -5.59547075416409938953e+02) (20, -8.67331037157204832511e+02) (21, -5.91163643382345393995e-01) (22, 2.46961681504930908204e+02) (8, 3.27110700578783053061e+02) (9, 7.11208005327738192136e+02) (10, 1.50000000000000000000e+03) (11, 1.28549216107503889361e+03) (12, 1.49032540799566345413e+03) (13, 5.80561136598901157413e+02) (14, -9.59565224768684856826e+02) (15, 1.50000000000000000000e+03) (16, 3.04036603436328647376e+01) (17, -9.55252700202227288173e+02) (18, -1.50000000000000000000e+03) (19, 2.62734138257269513872e+01) (20, -1.49983174955216463786e+03) (21, 1.49996090927395130166e+03) (22, -1.60909296770534865573e+02) (8, -1.47381338084482536033e+03) (9, -1.52384691008048150707e+02) (10, -6.34304196578330902412e+02) (11, 2.62293152327017820014e+00) (12, 2.11446774927281672118e-01) (13, -1.56990068162870016977e+02) (14, 6.49516088451436871765e+02) (15, 8.29592919824148111729e+02) (16, 9.87545064409145084028e+02) (17, 1.19074038262795124865e+03) (18, 5.93586792703543551397e+02) (19, 3.70988099002526666936e+02) (20, -7.24629699340479191960e+02) (21, -3.73458638027168433382e+02) (22, -5.32019677646573327934e+01) (8, 1.30928038746526294744e+03) (9, -1.49964835009352941597e+03) (10, 1.36316614410210627284e+03) (11, -7.67852285522519508731e+01) (12, 8.45260755265639886602e+02) (13, 1.50000000000000000000e+03) (14, 1.11004451630778362414e+03) (15, -2.53466655433652391594e+02) (16, 1.16204275020337422575e+03) (17, -7.60445991354179909649e+02) (18, 1.50000000000000000000e+03) (19, 1.50000000000000000000e+03) (20, -9.97500840030262565961e+02) (21, -8.27559063037912920890e+01) (22, 7.36896496350254324170e+01) (8, -4.17545222461243028533e+01) (9, 2.18609051216369572046e+01) (10, -3.55602063265835468542e+01) (11, 2.26573738009331918875e+02) (12, 3.93791106975586968630e+00) (13, 2.86379663387561549825e+02) (14, 1.11004451630778362414e+03) (15, 2.73583641461747617996e+02) (16, 8.50152276061110825367e+01) (17, -3.06722282266770349679e+01) (18, -7.47058399703337414621e+01) (19, -2.85279376104703658257e+02) (20, -1.57303475720884335942e+02) (21, 3.01093485607101740698e+02) (22, -1.16588893436645406609e+02) (23, 1.35005593267706364147e-01) (24, -6.09444880306671321613e-01) (25, 1.79138897730954593790e-01) (26, -6.57249940908008367657e-01) (27, 8.53466716894970889307e-01) (28, 3.20975342982189826291e-01) (29, -1.08316490346977567505e+00) (30, -5.94077666728367703719e-01) (31, -7.65710209833344368491e-01) (32, 6.46349167245771738521e-01) (33, -1.15344781324993955751e-01) (34, -6.48901464418338402851e-01) (35, 4.91856132841768822761e-01) (36, 5.10829950446858749302e-01) (37, 7.12979902377768315347e-01) 
